{"learner":{"attributes":{"scikit_learn":"{\"_estimator_type\": \"classifier\"}"},"feature_names":["x_adj","y_adj","distance","angle","behind_the_net","shot_type","prev_type","prev_event_same_team","dist_from_prev_event","speed_from_prev_event","crossed_royal_road","time_from_prev_event","home_team_shot","period","game_state","goalie_pulled","time_remaining"],"feature_types":["float","float","float","float","i","c","c","i","float","float","i","float","i","int","c","i","int"],"gradient_booster":{"model":{"cats":{"enc":[{"offsets":[],"values":[]},{"offsets":[],"values":[]},{"offsets":[],"values":[]},{"offsets":[],"values":[]},{"offsets":[],"values":[]},{"offsets":[0,1,2,3,4,5,6],"values":[49,50,51,52,53,54]},{"offsets":[0,12,19,22,29,33],"values":[98,108,111,99,107,101,100,95,115,104,111,116,102,97,99,101,111,102,102,104,105,116,112,101,110,97,108,116,121,115,104,111,116]},{"offsets":[],"values":[]},{"offsets":[],"values":[]},{"offsets":[],"values":[]},{"offsets":[],"values":[]},{"offsets":[],"values":[]},{"offsets":[],"values":[]},{"offsets":[],"values":[]},{"offsets":[0,2,4,6],"values":[101,118,112,112,115,104]},{"offsets":[],"values":[]},{"offsets":[],"values":[]}],"feature_segments":[0,0,0,0,0,0,6,11,11,11,11,11,11,11,11,14,14,14],"sorted_idx":[0,1,2,3,4,5,0,1,2,3,4,0,1,2]},"gbtree_model_param":{"num_parallel_tree":"1","num_trees":"50"},"iteration_indptr":[0,1,2,3,4,5,6,7,8,9,10,11,12,13,14,15,16,17,18,19,20,21,22,23,24,25,26,27,28,29,30,31,32,33,34,35,36,37,38,39,40,41,42,43,44,45,46,47,48,49,50],"tree_info":[0,0,0,0,0,0,0,0,0,0,0,0,0,0,0,0,0,0,0,0,0,0,0,0,0,0,0,0,0,0,0,0,0,0,0,0,0,0,0,0,0,0,0,0,0,0,0,0,0,0],"trees":[{"base_weights":[-7.8283435E-8,7.619556E-1,-4.131926E-1,1.931247E0,5.1117194E-1,-1.4000319E-1,-7.011628E-1,2.544634E-1,1.92138E-2,9.240081E-2,8.972994E-3,4.1176043E-2,-2.9078996E-2,-7.442539E-2,4.454687E-2],"categories":[0,2],"categories_nodes":[5,6],"categories_segments":[0,1],"categories_sizes":[1,1],"default_left":[0,1,0,1,0,1,1,0,0,0,0,0,0,0,0],"id":0,"left_children":[1,3,5,7,9,11,13,-1,-1,-1,-1,-1,-1,-1,-1],"loss_changes":[3.609637E2,1.17225235E2,5.838488E1,7.507056E1,5.790586E1,3.196289E1,1.8200806E1,0E0,0E0,0E0,0E0,0E0,0E0,0E0,0E0],"parents":[2147483647,0,0,1,1,2,2,3,3,4,4,5,5,6,6],"right_children":[2,4,6,8,10,12,14,-1,-1,-1,-1,-1,-1,-1,-1],"split_conditions":[2.140096E1,4E0,1.8983334E1,1.1590102E2,6.516667E0,1E-45,1E-45,2.544634E-1,1.92138E-2,9.240081E-2,8.972994E-3,4.1176043E-2,-2.9078996E-2,-7.442539E-2,4.454687E-2],"split_indices":[2,11,1,8,1,14,14,0,0,0,0,0,0,0,0],"split_type":[0,0,0,0,0,1,1,0,0,0,0,0,0,0,0],"sum_hessian":[1.1445193E3,4.0212634E2,7.42393E2,6.98317E1,3.3229465E2,3.8173642E2,3.606566E2,5.1281456E1,1.8550243E1,1.672588E2,1.6503584E2,8.1559746E1,3.0017667E2,3.4793204E2,1.2724547E1],"tree_param":{"num_deleted":"0","num_feature":"17","num_nodes":"15","size_leaf_vector":"1"}},{"base_weights":[-2.33602E-3,5.17597E-1,-4.8463166E-1,8.490445E-1,-2.8376458E-2,2.5344987E-3,-6.1680305E-1,2.6826376E-1,7.579912E-2,2.115402E-2,-4.9062174E-2,-3.7235554E-2,5.2657556E-2,-4.4219323E-2,-8.339599E-2],"categories":[0],"categories_nodes":[2],"categories_segments":[0],"categories_sizes":[1],"default_left":[0,0,1,0,0,0,0,0,0,0,0,0,0,0,0],"id":1,"left_children":[1,3,5,7,9,11,13,-1,-1,-1,-1,-1,-1,-1,-1],"loss_changes":[2.879107E2,1.0000835E2,3.835376E1,5.53714E1,2.3357573E1,2.5363832E1,1.7396484E1,0E0,0E0,0E0,0E0,0E0,0E0,0E0,0E0],"parents":[2147483647,0,0,1,1,2,2,3,3,4,4,5,5,6,6],"right_children":[2,4,6,8,10,12,14,-1,-1,-1,-1,-1,-1,-1,-1],"split_conditions":[2.7630543E1,8.783334E0,1E-45,6.069619E0,1.5016666E1,3E0,2.1816668E1,2.6826376E-1,7.579912E-2,2.115402E-2,-4.9062174E-2,-3.7235554E-2,5.2657556E-2,-4.4219323E-2,-8.339599E-2],"split_indices":[2,1,14,2,1,13,1,0,0,0,0,0,0,0,0],"split_type":[0,0,1,0,0,0,0,0,0,0,0,0,0,0,0],"sum_hessian":[1.1461455E3,5.5151654E2,5.9462897E2,3.4283466E2,2.0868185E2,1.2710772E2,4.6752127E2,1.4872676E1,3.2796198E2,1.377359E2,7.094596E1,7.426748E1,5.284024E1,2.6083072E2,2.0669054E2],"tree_param":{"num_deleted":"0","num_feature":"17","num_nodes":"15","size_leaf_vector":"1"}},{"base_weights":[-3.8836675E-3,4.447526E-1,-4.5593953E-1,7.112076E-1,-2.6184777E-2,1.5862748E-3,-5.867552E-1,1.3385022E-1,5.535992E-2,8.713549E-2,-1.3530453E-2,6.906315E-2,-2.527232E-2,-4.1401643E-2,-8.088958E-2],"categories":[0],"categories_nodes":[2],"categories_segments":[0],"categories_sizes":[1],"default_left":[0,0,1,0,1,0,0,0,0,0,0,0,0,0,0],"id":2,"left_children":[1,3,5,7,9,11,13,-1,-1,-1,-1,-1,-1,-1,-1],"loss_changes":[2.3291739E2,7.234916E1,3.423871E1,3.5658188E1,2.0611729E1,2.263728E1,1.673523E1,0E0,0E0,0E0,0E0,0E0,0E0,0E0,0E0],"parents":[2147483647,0,0,1,1,2,2,3,3,4,4,5,5,6,6],"right_children":[2,4,6,8,10,12,14,-1,-1,-1,-1,-1,-1,-1,-1],"split_conditions":[2.7630543E1,8.783334E0,1E-45,4E0,3E0,2.26E2,2.1816668E1,1.3385022E-1,5.535992E-2,8.713549E-2,-1.3530453E-2,6.906315E-2,-2.527232E-2,-4.1401643E-2,-8.088958E-2],"split_indices":[2,1,14,11,11,16,1,0,0,0,0,0,0,0,0],"split_type":[0,0,1,0,0,0,0,0,0,0,0,0,0,0,0],"sum_hessian":[1.146459E3,5.7541394E2,5.7104504E2,3.6716357E2,2.0825034E2,1.27189514E2,4.438555E2,7.2221924E1,2.9494168E2,2.1816706E1,1.8643364E2,3.3825214E1,9.3364296E1,2.5130331E2,1.925522E2],"tree_param":{"num_deleted":"0","num_feature":"17","num_nodes":"15","size_leaf_vector":"1"}},{"base_weights":[-4.8830565E-3,3.2733658E-1,-5.117573E-1,-2.298192E-1,5.1355976E-1,-1.4548182E-1,-6.1860937E-1,2.7569566E-2,-3.89114E-2,1.13576524E-1,3.8487498E-2,4.5557506E-2,-3.3375822E-2,-4.0510852E-2,-7.890818E-2],"categories":[0,0],"categories_nodes":[2,3],"categories_segments":[0,1],"categories_sizes":[1,1],"default_left":[0,0,1,1,1,0,0,0,0,0,0,0,0,0,0],"id":3,"left_children":[1,3,5,7,9,11,13,-1,-1,-1,-1,-1,-1,-1,-1],"loss_changes":[1.9325229E2,7.204716E1,1.7692856E1,1.41476145E1,4.1190353E1,1.1912535E1,1.2471619E1,0E0,0E0,0E0,0E0,0E0,0E0,0E0,0E0],"parents":[2147483647,0,0,1,1,2,2,3,3,4,4,5,5,6,6],"right_children":[2,4,6,8,10,12,14,-1,-1,-1,-1,-1,-1,-1,-1],"split_conditions":[1.4166667E1,6.2E1,1E-45,1E-45,3E0,1.87E2,2.1533333E1,2.7569566E-2,-3.89114E-2,1.13576524E-1,3.8487498E-2,4.5557506E-2,-3.3375822E-2,-4.0510852E-2,-7.890818E-2],"split_indices":[1,0,14,14,11,16,1,0,0,0,0,0,0,0,0],"split_type":[0,0,1,1,0,0,0,0,0,0,0,0,0,0,0],"sum_hessian":[1.1456279E3,6.9225726E2,4.5337067E2,1.7335808E2,5.188992E2,1.0292349E2,3.5044717E2,4.1363182E1,1.319949E2,8.758583E1,4.3131335E2,2.4211273E1,7.871222E1,1.5708687E2,1.933603E2],"tree_param":{"num_deleted":"0","num_feature":"17","num_nodes":"15","size_leaf_vector":"1"}},{"base_weights":[-5.656493E-3,2.8623495E-1,-4.82927E-1,-1.967577E-1,4.481631E-1,-1.329757E-1,-5.8927506E-1,8.261601E-3,-4.953111E-2,1.6796492E-1,3.9634537E-2,3.964523E-2,-3.0972952E-2,-3.7826847E-2,-7.635974E-2],"categories":[0,1,3,5],"categories_nodes":[2,3],"categories_segments":[0,1],"categories_sizes":[1,3],"default_left":[0,0,1,1,0,0,0,0,0,0,0,0,0,0,0],"id":4,"left_children":[1,3,5,7,9,11,13,-1,-1,-1,-1,-1,-1,-1,-1],"loss_changes":[1.5967827E2,5.5714058E1,1.6109749E1,1.4993778E1,3.3344147E1,9.730328E0,1.1971039E1,0E0,0E0,0E0,0E0,0E0,0E0,0E0,0E0],"parents":[2147483647,0,0,1,1,2,2,3,3,4,4,5,5,6,6],"right_children":[2,4,6,8,10,12,14,-1,-1,-1,-1,-1,-1,-1,-1],"split_conditions":[1.4166667E1,6.3E1,1E-45,1E-45,6.069619E0,1.87E2,2.1533333E1,8.261601E-3,-4.953111E-2,1.6796492E-1,3.9634537E-2,3.964523E-2,-3.0972952E-2,-3.7826847E-2,-7.635974E-2],"split_indices":[1,0,14,5,2,16,1,0,0,0,0,0,0,0,0],"split_type":[0,0,1,1,0,0,0,0,0,0,0,0,0,0,0],"sum_hessian":[1.1442062E3,7.102365E2,4.3396967E2,1.7827374E2,5.3196277E2,1.0166826E2,3.3230142E2,9.24687E1,8.5805046E1,2.0211334E1,5.1175143E2,2.5135958E1,7.65323E1,1.517668E2,1.805346E2],"tree_param":{"num_deleted":"0","num_feature":"17","num_nodes":"15","size_leaf_vector":"1"}},{"base_weights":[-6.1076214E-3,2.5135523E-1,-4.5474637E-1,3.5532895E-1,-3.4451428E-1,-3.4750664E-1,-8.0702287E-1,7.967549E-2,2.4866883E-2,-4.0553562E-2,1.1820022E-1,-4.9533634E-3,-4.524294E-2,-8.6777836E-2,2.7359346E-2],"categories":[2,0,2],"categories_nodes":[4,5,6],"categories_segments":[0,1,2],"categories_sizes":[1,1,1],"default_left":[0,0,0,0,1,1,1,0,0,0,0,0,0,0,0],"id":5,"left_children":[1,3,5,7,9,11,13,-1,-1,-1,-1,-1,-1,-1,-1],"loss_changes":[1.3218404E2,4.5170975E1,1.5482925E1,2.8973587E1,1.0589285E1,1.00334015E1,6.581024E0,0E0,0E0,0E0,0E0,0E0,0E0,0E0,0E0],"parents":[2147483647,0,0,1,1,2,2,3,3,4,4,5,5,6,6],"right_children":[2,4,6,8,10,12,14,-1,-1,-1,-1,-1,-1,-1,-1],"split_conditions":[1.4166667E1,3.6385166E1,2.89E1,4E0,1E-45,1E-45,1E-45,7.967549E-2,2.4866883E-2,-4.0553562E-2,1.1820022E-1,-4.9533634E-3,-4.524294E-2,-8.6777836E-2,2.7359346E-2],"split_indices":[1,2,1,11,14,14,14,0,0,0,0,0,0,0,0],"split_type":[0,0,0,0,1,1,1,0,0,0,0,0,0,0,0],"sum_hessian":[1.1423834E3,7.2612036E2,4.1626306E2,6.185864E2,1.0753391E2,3.2064044E2,9.562264E1,1.1912074E2,4.994657E2,1.0410667E2,3.427245E0,8.388505E1,2.3675539E2,9.07191E1,4.903538E0],"tree_param":{"num_deleted":"0","num_feature":"17","num_nodes":"15","size_leaf_vector":"1"}},{"base_weights":[-6.3212337E-3,2.2154906E-1,-4.2719677E-1,3.1073654E-1,-3.195895E-1,-3.230929E-1,-7.833623E-1,2.6952017E-2,1.3330542E-1,-3.601778E-2,1.9504397E-1,-4.483274E-3,-4.2457413E-2,-1.8834885E-2,-9.101061E-2],"categories":[2,0],"categories_nodes":[3,5],"categories_segments":[0,1],"categories_sizes":[1,1],"default_left":[0,0,0,1,0,1,0,0,0,0,0,0,0,0,0],"id":6,"left_children":[1,3,5,7,9,11,13,-1,-1,-1,-1,-1,-1,-1,-1],"loss_changes":[1.09543106E2,3.586329E1,1.4622353E1,2.6468105E1,1.0408531E1,8.795563E0,6.618843E0,0E0,0E0,0E0,0E0,0E0,0E0,0E0,0E0],"parents":[2147483647,0,0,1,1,2,2,3,3,4,4,5,5,6,6],"right_children":[2,4,6,8,10,12,14,-1,-1,-1,-1,-1,-1,-1,-1],"split_conditions":[1.4166667E1,3.6385166E1,2.89E1,1E-45,1.27E2,1E-45,1.69E2,2.6952017E-2,1.3330542E-1,-3.601778E-2,1.9504397E-1,-4.483274E-3,-4.2457413E-2,-1.8834885E-2,-9.101061E-2],"split_indices":[1,2,1,14,11,14,16,0,0,0,0,0,0,0,0],"split_type":[0,0,0,1,0,1,0,0,0,0,0,0,0,0,0],"sum_hessian":[1.140217E3,7.40026E2,4.0019104E2,6.356821E2,1.0434386E2,3.111515E2,8.903955E1,6.122615E2,2.3420677E1,1.0333751E2,1.0063488E0,8.353671E1,2.2761476E2,1.6072296E1,7.2967255E1],"tree_param":{"num_deleted":"0","num_feature":"17","num_nodes":"15","size_leaf_vector":"1"}},{"base_weights":[-6.3071004E-3,2.1843946E-1,-3.6176616E-1,4.191361E-1,1.6273642E-2,1.18876705E-2,-4.9119848E-1,1.21710554E-1,3.5699632E-2,5.4049045E-2,-1.3131482E-2,-3.2080036E-2,4.4794697E-2,-3.9915413E-2,-8.329681E-2],"categories":[0,0],"categories_nodes":[2,4],"categories_segments":[0,1],"categories_sizes":[1,1],"default_left":[0,0,1,0,1,0,0,0,0,0,0,0,0,0,0],"id":7,"left_children":[1,3,5,7,9,11,13,-1,-1,-1,-1,-1,-1,-1,-1],"loss_changes":[9.108228E1,2.8334343E1,2.1364212E1,1.6944592E1,2.7074036E1,1.6768448E1,9.986687E0,0E0,0E0,0E0,0E0,0E0,0E0,0E0,0E0],"parents":[2147483647,0,0,1,1,2,2,3,3,4,4,5,5,6,6],"right_children":[2,4,6,8,10,12,14,-1,-1,-1,-1,-1,-1,-1,-1],"split_conditions":[3.010818E1,6.516667E0,1E-45,6.069619E0,1E-45,3E0,2.89E1,1.21710554E-1,3.5699632E-2,5.4049045E-2,-1.3131482E-2,-3.2080036E-2,4.4794697E-2,-3.9915413E-2,-8.329681E-2],"split_indices":[2,1,14,2,14,13,1,0,0,0,0,0,0,0,0],"split_type":[0,0,1,0,1,0,0,0,0,0,0,0,0,0,0],"sum_hessian":[1.1381327E3,6.975055E2,4.4062723E2,3.49486E2,3.480195E2,1.1359676E2,3.270305E2,2.3906305E1,3.2557968E2,7.587133E1,2.7214816E2,6.458583E1,4.9010933E1,2.593508E2,6.767967E1],"tree_param":{"num_deleted":"0","num_feature":"17","num_nodes":"15","size_leaf_vector":"1"}},{"base_weights":[-6.350643E-3,1.8002021E-1,-3.8243806E-1,6.0862917E-1,9.803601E-2,-2.4630979E-1,-6.370471E-1,8.675455E-2,-3.0647794E-2,4.645249E-2,-1.0396538E-3,-2.7145205E-2,1.1895081E-1,-8.590345E-3,-7.6977454E-2],"categories":[0],"categories_nodes":[4],"categories_segments":[0],"categories_sizes":[1],"default_left":[0,0,0,1,1,0,0,0,0,0,0,0,0,0,0],"id":8,"left_children":[1,3,5,7,9,11,13,-1,-1,-1,-1,-1,-1,-1,-1],"loss_changes":[7.97443E1,2.6672607E1,1.2908897E1,2.916256E1,2.542984E1,9.249366E0,9.495106E0,0E0,0E0,0E0,0E0,0E0,0E0,0E0,0E0],"parents":[2147483647,0,0,1,1,2,2,3,3,4,4,5,5,6,6],"right_children":[2,4,6,8,10,12,14,-1,-1,-1,-1,-1,-1,-1,-1],"split_conditions":[1.4166667E1,3E0,2.5216667E1,1.1709575E2,1E-45,2.9642705E3,1.87E2,8.675455E-2,-3.0647794E-2,4.645249E-2,-1.0396538E-3,-2.7145205E-2,1.1895081E-1,-8.590345E-3,-7.6977454E-2],"split_indices":[1,11,1,8,14,9,16,0,0,0,0,0,0,0,0],"split_type":[0,0,0,0,1,0,0,0,0,0,0,0,0,0,0],"sum_hessian":[1.135731E3,7.597545E2,3.7597647E2,1.2095974E2,6.387948E2,2.4627267E2,1.2970381E2,9.432407E1,2.6635666E1,1.4509781E2,4.93697E2,2.4283145E2,3.4412215E0,2.549295E1,1.0421086E2],"tree_param":{"num_deleted":"0","num_feature":"17","num_nodes":"15","size_leaf_vector":"1"}},{"base_weights":[-6.29597E-3,1.2158657E-1,-4.7575378E-1,-1.702703E-1,2.2967653E-1,-5.289082E-1,4.6226662E-1,2.3708144E-2,-3.187668E-2,6.3497655E-2,1.6274331E-2,1.0054461E-2,-5.8534678E-2,2.0990555E-1,-7.2498254E-2],"categories":[2,0,0,1,3,4],"categories_nodes":[2,3,5],"categories_segments":[0,1,2],"categories_sizes":[1,1,4],"default_left":[0,0,1,1,0,1,0,0,0,0,0,0,0,0,0],"id":9,"left_children":[1,3,5,7,9,11,13,-1,-1,-1,-1,-1,-1,-1,-1],"loss_changes":[6.8160484E1,2.818882E1,1.2363346E1,1.4698038E1,1.7572842E1,8.247078E0,2.7888624E1,0E0,0E0,0E0,0E0,0E0,0E0,0E0,0E0],"parents":[2147483647,0,0,1,1,2,2,3,3,4,4,5,5,6,6],"right_children":[2,4,6,8,10,12,14,-1,-1,-1,-1,-1,-1,-1,-1],"split_conditions":[1.8983334E1,6.3333332E1,1E-45,1E-45,1.54E2,1E-45,3.07E2,2.3708144E-2,-3.187668E-2,6.3497655E-2,1.6274331E-2,1.0054461E-2,-5.8534678E-2,2.0990555E-1,-7.2498254E-2],"split_indices":[1,0,14,14,16,5,16,0,0,0,0,0,0,0,0],"split_type":[0,0,1,1,0,1,0,0,0,0,0,0,0,0,0],"sum_hessian":[1.1333737E3,8.91316E2,2.4205771E2,2.4073233E2,6.505837E2,2.2948946E2,1.2568244E1,6.4152985E1,1.7657935E2,9.100929E1,5.5957434E2,1.8819227E1,2.1067023E2,4.9609213E0,7.607323E0],"tree_param":{"num_deleted":"0","num_feature":"17","num_nodes":"15","size_leaf_vector":"1"}},{"base_weights":[-6.167545E-3,1.08228095E-1,-4.4824663E-1,-2.9172888E-1,1.748639E-1,-5.0055546E-1,4.050747E-1,-3.3505805E-2,1.7230894E-1,3.0743489E-2,5.345151E-4,9.019307E-3,-5.568252E-2,1.6600385E-1,-6.998718E-2],"categories":[2,0,1,3,4],"categories_nodes":[2,5],"categories_segments":[0,1],"categories_sizes":[1,4],"default_left":[0,0,1,0,1,1,0,0,0,0,0,0,0,0,0],"id":10,"left_children":[1,3,5,7,9,11,13,-1,-1,-1,-1,-1,-1,-1,-1],"loss_changes":[5.7302326E1,2.404262E1,1.05998E1,1.1833446E1,1.7353636E1,7.360691E0,2.0584255E1,0E0,0E0,0E0,0E0,0E0,0E0,0E0,0E0],"parents":[2147483647,0,0,1,1,2,2,3,3,4,4,5,5,6,6],"right_children":[2,4,6,8,10,12,14,-1,-1,-1,-1,-1,-1,-1,-1],"split_conditions":[1.8983334E1,5.2666668E1,1E-45,2.9642705E3,8.565072E1,1E-45,3.07E2,-3.3505805E-2,1.7230894E-1,3.0743489E-2,5.345151E-4,9.019307E-3,-5.568252E-2,1.6600385E-1,-6.998718E-2],"split_indices":[1,0,14,9,8,5,16,0,0,0,0,0,0,0,0],"split_type":[0,0,1,0,0,1,0,0,0,0,0,0,0,0,0],"sum_hessian":[1.1311267E3,8.991986E2,2.3192807E2,1.2793542E2,7.712632E2,2.1892151E2,1.3006556E1,1.26058205E2,1.8772095E0,4.323406E2,3.3892258E2,1.8986683E1,1.9993483E2,5.854653E0,7.1519027E0],"tree_param":{"num_deleted":"0","num_feature":"17","num_nodes":"15","size_leaf_vector":"1"}},{"base_weights":[-5.892844E-3,1.5411524E-1,-2.7617303E-1,9.1482866E-1,1.2282377E-1,3.50426E-2,-3.9146692E-1,1.2434828E-1,5.372913E-3,2.6970958E-2,-4.2851637E-3,6.510606E-2,-1.8245269E-2,-2.4252178E-2,-6.053592E-2],"categories":[0,1,3],"categories_nodes":[2,4],"categories_segments":[0,1],"categories_sizes":[1,2],"default_left":[0,0,1,0,1,0,0,0,0,0,0,0,0,0,0],"id":11,"left_children":[1,3,5,7,9,11,13,-1,-1,-1,-1,-1,-1,-1,-1],"loss_changes":[4.8905834E1,1.6796747E1,1.51022415E1,7.8319283E0,1.6643364E1,1.5471751E1,9.631168E0,0E0,0E0,0E0,0E0,0E0,0E0,0E0,0E0],"parents":[2147483647,0,0,1,1,2,2,3,3,4,4,5,5,6,6],"right_children":[2,4,6,8,10,12,14,-1,-1,-1,-1,-1,-1,-1,-1],"split_conditions":[1.19E1,6.069619E0,1E-45,4.5333333E0,1E-45,1.69E2,2.1533333E1,1.2434828E-1,5.372913E-3,2.6970958E-2,-4.2851637E-3,6.510606E-2,-1.8245269E-2,-2.4252178E-2,-6.053592E-2],"split_indices":[1,2,14,1,5,16,1,0,0,0,0,0,0,0,0],"split_type":[0,0,1,0,1,0,0,0,0,0,0,0,0,0,0],"sum_hessian":[1.1288646E3,7.093522E2,4.195125E2,2.6910357E1,6.8244183E2,1.1359062E2,3.0592188E2,1.915532E1,7.755037E0,3.6140054E2,3.210413E2,2.9119946E1,8.447067E1,1.8159853E2,1.2432335E2],"tree_param":{"num_deleted":"0","num_feature":"17","num_nodes":"15","size_leaf_vector":"1"}},{"base_weights":[-5.661241E-3,8.760257E-2,-3.9899024E-1,5.632207E-2,7.985465E-1,-4.500702E-1,3.4691763E-1,1.7581028E-1,4.197259E-3,2.3432687E-1,-3.340669E-3,-3.1902213E-2,-7.480812E-2,1.9443735E-1,-2.8519357E-2],"categories":[2,2,0,1,2,4],"categories_nodes":[1,2,3],"categories_segments":[0,1,2],"categories_sizes":[1,1,4],"default_left":[0,1,1,0,0,0,0,0,0,0,0,0,0,0,0],"id":12,"left_children":[1,3,5,7,9,11,13,-1,-1,-1,-1,-1,-1,-1,-1],"loss_changes":[4.139891E1,2.0243193E1,8.39748E0,2.1291468E1,4.9391518E1,7.6843796E0,1.5123317E1,0E0,0E0,0E0,0E0,0E0,0E0,0E0,0E0],"parents":[2147483647,0,0,1,1,2,2,3,3,4,4,5,5,6,6],"right_children":[2,4,6,8,10,12,14,-1,-1,-1,-1,-1,-1,-1,-1],"split_conditions":[1.8983334E1,1E-45,1E-45,1E-45,2.57E2,2.89E1,1.24E2,1.7581028E-1,4.197259E-3,2.3432687E-1,-3.340669E-3,-3.1902213E-2,-7.480812E-2,1.9443735E-1,-2.8519357E-2],"split_indices":[1,14,14,6,16,1,16,0,0,0,0,0,0,0,0],"split_type":[0,1,1,1,0,0,0,0,0,0,0,0,0,0,0],"sum_hessian":[1.1265947E3,9.1129193E2,2.1530278E2,8.739199E2,3.7371983E1,2.0187495E2,1.3427835E1,6.2912154E0,8.676287E2,1.24461355E1,2.4925846E1,1.4165413E2,6.0220814E1,3.2183928E0,1.0209442E1],"tree_param":{"num_deleted":"0","num_feature":"17","num_nodes":"15","size_leaf_vector":"1"}},{"base_weights":[-5.216671E-3,1.22769505E-1,-2.649239E-1,4.1702947E-1,5.1298458E-2,-5.224407E-1,-1.4357212E-1,6.391561E-2,-2.8188262E-2,3.7705973E-2,-5.92042E-3,-1.5832398E-2,-5.988986E-2,2.1404406E-2,-3.1598095E-2],"categories":[0],"categories_nodes":[6],"categories_segments":[0],"categories_sizes":[1],"default_left":[0,1,0,1,0,0,1,0,0,0,0,0,0,0,0],"id":13,"left_children":[1,3,5,7,9,11,13,-1,-1,-1,-1,-1,-1,-1,-1],"loss_changes":[3.7447506E1,1.5851232E1,1.1547363E1,2.3055412E1,2.19223E1,3.2110023E0,1.5738725E1,0E0,0E0,0E0,0E0,0E0,0E0,0E0,0E0],"parents":[2147483647,0,0,1,1,2,2,3,3,4,4,5,5,6,6],"right_children":[2,4,6,8,10,12,14,-1,-1,-1,-1,-1,-1,-1,-1],"split_conditions":[3.0983334E1,4E0,2E0,1.1590102E2,2.0157895E0,1.82E2,1E-45,6.391561E-2,-2.8188262E-2,3.7705973E-2,-5.92042E-3,-1.5832398E-2,-5.988986E-2,2.1404406E-2,-3.1598095E-2],"split_indices":[2,11,13,8,3,16,14,0,0,0,0,0,0,0,0],"split_type":[0,0,0,0,0,0,1,0,0,0,0,0,0,0,0],"sum_hessian":[1.1246371E3,7.5372266E2,3.7091437E2,1.4634743E2,6.0737524E2,1.1774541E2,2.5316896E2,1.1111774E2,3.522969E1,1.5323299E2,4.5414227E2,2.0966599E1,9.677881E1,8.227334E1,1.7089561E2],"tree_param":{"num_deleted":"0","num_feature":"17","num_nodes":"15","size_leaf_vector":"1"}},{"base_weights":[-5.1591233E-3,1.5456079E-1,-1.804041E-1,2.0431808E-1,-3.0187455E-1,-2.6334596E-1,1.9358717E-1,7.371277E-2,1.7219376E-2,-3.864075E-2,1.7007752E-1,6.6164806E-3,-3.8158376E-2,6.73894E-2,-1.0630152E-2],"categories":[],"categories_nodes":[],"categories_segments":[],"categories_sizes":[],"default_left":[0,0,0,0,0,0,1,0,0,0,0,0,0,0,0],"id":14,"left_children":[1,3,5,7,9,11,13,-1,-1,-1,-1,-1,-1,-1,-1],"loss_changes":[3.146345E1,1.3418307E1,1.6676908E1,8.9600315E0,1.0512145E1,1.7133448E1,1.4168278E1,0E0,0E0,0E0,0E0,0E0,0E0,0E0,0E0],"parents":[2147483647,0,0,1,1,2,2,3,3,4,4,5,5,6,6],"right_children":[2,4,6,8,10,12,14,-1,-1,-1,-1,-1,-1,-1,-1],"split_conditions":[8.783334E0,3.736106E1,1.43122425E1,6.069619E0,1.02E2,2.72E2,1E0,7.371277E-2,1.7219376E-2,-3.864075E-2,1.7007752E-1,6.6164806E-3,-3.8158376E-2,6.73894E-2,-1.0630152E-2],"split_indices":[1,2,9,2,11,16,10,0,0,0,0,0,0,0,0],"split_type":[0,0,0,0,0,0,0,0,0,0,0,0,0,0,0],"sum_hessian":[1.1220956E3,5.8711316E2,5.3498236E2,5.2989966E2,5.7213478E1,4.3811526E2,9.686712E1,2.8884201E1,5.0101544E2,5.5670643E1,1.5428365E0,1.15810196E2,3.2230508E2,3.6754055E1,6.0113064E1],"tree_param":{"num_deleted":"0","num_feature":"17","num_nodes":"15","size_leaf_vector":"1"}},{"base_weights":[-4.814628E-3,6.975735E-2,-3.466619E-1,1.8943436E-1,-6.4837545E-2,-2.2431198E-1,-6.3046974E-1,5.4766946E-3,4.3044288E-2,-3.981514E-2,4.11508E-3,1.2360632E-1,-2.5473997E-2,9.605606E-2,-6.871604E-2],"categories":[1,3],"categories_nodes":[1],"categories_segments":[0],"categories_sizes":[2],"default_left":[0,1,0,0,0,0,0,0,0,0,0,0,0,0,0],"id":15,"left_children":[1,3,5,7,9,11,13,-1,-1,-1,-1,-1,-1,-1,-1],"loss_changes":[2.8596062E1,1.4846496E1,6.833933E0,1.5806295E1,1.5355305E1,6.621279E0,6.0682945E0,0E0,0E0,0E0,0E0,0E0,0E0,0E0,0E0],"parents":[2147483647,0,0,1,1,2,2,3,3,4,4,5,5,6,6],"right_children":[2,4,6,8,10,12,14,-1,-1,-1,-1,-1,-1,-1,-1],"split_conditions":[1.8983334E1,1E-45,2.89E1,3E0,6.3333332E1,6.5506787E0,4.3333335E0,5.4766946E-3,4.3044288E-2,-3.981514E-2,4.11508E-3,1.2360632E-1,-2.5473997E-2,9.605606E-2,-6.871604E-2],"split_indices":[1,5,1,13,0,8,0,0,0,0,0,0,0,0,0],"split_type":[0,1,0,0,0,0,0,0,0,0,0,0,0,0,0],"sum_hessian":[1.1198076E3,9.1992694E2,1.9988072E2,4.867334E2,4.3319354E2,1.4092021E2,5.896051E1,3.1304285E2,1.7369054E2,1.0384948E2,3.293441E2,2.067532E0,1.3885269E2,1.4800099E0,5.74805E1],"tree_param":{"num_deleted":"0","num_feature":"17","num_nodes":"15","size_leaf_vector":"1"}},{"base_weights":[-4.5564114E-3,6.2270585E-2,-3.2235074E-1,3.5390947E-2,6.376229E-1,-4.7138575E-1,-8.1379384E-2,1.8173767E-3,1.0782055E-1,1.7723648E-1,-4.0437817E-3,-1.1608627E-2,-5.9987303E-2,-2.4400832E-2,1.06140934E-1],"categories":[2,2],"categories_nodes":[1,6],"categories_segments":[0,1],"categories_sizes":[1,1],"default_left":[0,1,0,0,0,0,1,0,0,0,0,0,0,0,0],"id":16,"left_children":[1,3,5,7,9,11,13,-1,-1,-1,-1,-1,-1,-1,-1],"loss_changes":[2.3786589E1,1.4290443E1,6.9504166E0,1.5874381E1,3.1809753E1,5.40987E0,1.4304254E1,0E0,0E0,0E0,0E0,0E0,0E0,0E0,0E0],"parents":[2147483647,0,0,1,1,2,2,3,3,4,4,5,5,6,6],"right_children":[2,4,6,8,10,12,14,-1,-1,-1,-1,-1,-1,-1,-1],"split_conditions":[1.8983334E1,1E-45,3E0,1.1262376E4,2.39E2,2.1816668E1,1E-45,1.8173767E-3,1.0782055E-1,1.7723648E-1,-4.0437817E-3,-1.1608627E-2,-5.9987303E-2,-2.4400832E-2,1.06140934E-1],"split_indices":[1,14,13,9,16,1,14,0,0,0,0,0,0,0,0],"split_type":[0,1,0,0,0,0,1,0,0,0,0,0,0,0,0],"sum_hessian":[1.1180962E3,9.2449414E2,1.9360208E2,8.84245E2,4.0249153E1,1.190292E2,7.457289E1,8.7088385E2,1.3361125E1,1.4451141E1,2.5798012E1,3.21181E1,8.6911095E1,6.59711E1,8.601789E0],"tree_param":{"num_deleted":"0","num_feature":"17","num_nodes":"15","size_leaf_vector":"1"}},{"base_weights":[-4.2076767E-3,6.992171E-2,-2.641537E-1,1.6929923E-1,-6.968365E-2,1.9219045E-1,-3.774796E-1,2.466439E-2,-4.0708547E-3,2.9441137E-2,-1.9252991E-2,-4.2890715E-3,1.4266072E-1,-9.128856E-2,-3.0866358E-2],"categories":[0,2],"categories_nodes":[4,5],"categories_segments":[0,1],"categories_sizes":[1,1],"default_left":[0,0,0,1,1,1,0,0,0,0,0,0,0,0,0],"id":17,"left_children":[1,3,5,7,9,11,13,-1,-1,-1,-1,-1,-1,-1,-1],"loss_changes":[2.1547846E1,1.2083863E1,1.2904482E1,8.271212E0,1.6272503E1,1.4577197E1,7.0540504E0,0E0,0E0,0E0,0E0,0E0,0E0,0E0,0E0],"parents":[2147483647,0,0,1,1,2,2,3,3,4,4,5,5,6,6],"right_children":[2,4,6,8,10,12,14,-1,-1,-1,-1,-1,-1,-1,-1],"split_conditions":[3.833438E1,7.9333334E0,1.76E2,1.2810176E2,1E-45,1E-45,2.8666666E1,2.466439E-2,-4.0708547E-3,2.9441137E-2,-1.9252991E-2,-4.2890715E-3,1.4266072E-1,-9.128856E-2,-3.0866358E-2],"split_indices":[2,1,16,8,14,14,0,0,0,0,0,0,0,0,0],"split_type":[0,0,0,0,1,1,0,0,0,0,0,0,0,0,0],"sum_hessian":[1.1162694E3,8.691446E2,2.471249E2,5.075993E2,3.6154526E2,4.9022755E1,1.9810214E2,3.7084482E2,1.3675449E2,9.085884E1,2.7068643E2,4.1991238E1,7.031518E0,2.1165293E1,1.7693684E2],"tree_param":{"num_deleted":"0","num_feature":"17","num_nodes":"15","size_leaf_vector":"1"}},{"base_weights":[-4.0687188E-3,3.5040393E-2,-4.4485402E-1,1.4468317E-1,-8.929287E-2,8.439505E-3,-6.3206595E-1,4.046924E-2,4.5021633E-3,1.2633918E-1,-1.0689933E-2,3.7314143E-2,-6.0092993E-2,9.681853E-2,-6.728936E-2],"categories":[1,3,0],"categories_nodes":[1,3],"categories_segments":[0,2],"categories_sizes":[2,1],"default_left":[0,1,0,1,0,0,0,0,0,0,0,0,0,0,0],"id":18,"left_children":[1,3,5,7,9,11,13,-1,-1,-1,-1,-1,-1,-1,-1],"loss_changes":[1.9240074E1,1.3989191E1,7.7240314E0,1.4109119E1,1.1591762E1,6.3518105E0,4.8579597E0,0E0,0E0,0E0,0E0,0E0,0E0,0E0,0E0],"parents":[2147483647,0,0,1,1,2,2,3,3,4,4,5,5,6,6],"right_children":[2,4,6,8,10,12,14,-1,-1,-1,-1,-1,-1,-1,-1],"split_conditions":[2.5216667E1,1E-45,2.43E2,1E-45,4.9666667E0,5.6666668E1,7.3041844E0,4.046924E-2,4.5021633E-3,1.2633918E-1,-1.0689933E-2,3.7314143E-2,-6.0092993E-2,9.681853E-2,-6.728936E-2],"split_indices":[1,5,16,14,2,0,8,0,0,0,0,0,0,0,0],"split_type":[0,1,0,1,0,0,0,0,0,0,0,0,0,0,0],"sum_hessian":[1.1141921E3,1.0242362E3,8.995587E1,5.441851E2,4.8005112E2,2.6572117E1,6.338375E1,1.4994072E2,3.9424442E2,5.2588925E0,4.747922E2,1.686577E1,9.7063465E0,1.011803E0,6.237195E1],"tree_param":{"num_deleted":"0","num_feature":"17","num_nodes":"15","size_leaf_vector":"1"}},{"base_weights":[-3.7805396E-3,4.9813315E-2,-2.948036E-1,7.454309E-2,-5.293532E-1,6.4286895E-2,-4.577638E-1,3.3569682E-2,2.8230518E-3,-3.3794865E-2,-8.283785E-2,-4.132713E-2,5.605326E-2,-3.2822493E-2,-7.387305E-2],"categories":[0],"categories_nodes":[2],"categories_segments":[0],"categories_sizes":[1],"default_left":[0,0,1,0,0,0,0,0,0,0,0,0,0,0,0],"id":19,"left_children":[1,3,5,7,9,11,13,-1,-1,-1,-1,-1,-1,-1,-1],"loss_changes":[1.7387192E1,1.3523784E1,1.0174296E1,1.0921611E1,1.9337168E0,1.3264319E1,4.1021824E0,0E0,0E0,0E0,0E0,0E0,0E0,0E0,0E0],"parents":[2147483647,0,0,1,1,2,2,3,3,4,4,5,5,6,6],"right_children":[2,4,6,8,10,12,14,-1,-1,-1,-1,-1,-1,-1,-1],"split_conditions":[4.4669464E1,2.4083334E1,1E-45,1.54E2,2.9466667E1,3E0,6.1234486E1,3.3569682E-2,2.8230518E-3,-3.3794865E-2,-8.283785E-2,-4.132713E-2,5.605326E-2,-3.2822493E-2,-7.387305E-2],"split_indices":[2,1,14,16,1,13,2,0,0,0,0,0,0,0,0],"split_type":[0,0,1,0,0,0,0,0,0,0,0,0,0,0,0],"sum_hessian":[1.1128331E3,9.404684E2,1.7236476E2,9.0279144E2,3.7676903E1,5.3993362E1,1.1837139E2,1.350431E2,7.6774835E2,2.42712E1,1.3405703E1,2.759996E1,2.6393402E1,8.25022E1,3.5869198E1],"tree_param":{"num_deleted":"0","num_feature":"17","num_nodes":"15","size_leaf_vector":"1"}},{"base_weights":[-3.8258268E-3,2.0778157E-2,-5.3775805E-1,1.2386413E-1,-9.808923E-2,1.6899167E-2,-7.281498E-1,6.6389976E-4,3.2408696E-2,-1.1413442E-2,1.289494E-1,1.7827193E-1,-2.765187E-2,2.6635593E-2,-7.9659864E-2],"categories":[1,3,0,1,3,4,5],"categories_nodes":[1,6],"categories_segments":[0,2],"categories_sizes":[2,5],"default_left":[0,1,0,0,1,0,1,0,0,0,0,0,0,0,0],"id":20,"left_children":[1,3,5,7,9,11,13,-1,-1,-1,-1,-1,-1,-1,-1],"loss_changes":[1.4626393E1,1.3055944E1,5.191597E0,1.3388861E1,1.1166958E1,7.493049E0,2.6991997E0,0E0,0E0,0E0,0E0,0E0,0E0,0E0,0E0],"parents":[2147483647,0,0,1,1,2,2,3,3,4,4,5,5,6,6],"right_children":[2,4,6,8,10,12,14,-1,-1,-1,-1,-1,-1,-1,-1],"split_conditions":[2.89E1,1E-45,1.69E2,3E0,1.3562366E3,6.6666665E0,1E-45,6.6389976E-4,3.2408696E-2,-1.1413442E-2,1.289494E-1,1.7827193E-1,-2.765187E-2,2.6635593E-2,-7.9659864E-2],"split_indices":[1,5,16,13,9,0,5,0,0,0,0,0,0,0,0],"split_type":[0,1,0,0,0,0,1,0,0,0,0,0,0,0,0],"sum_hessian":[1.1115353E3,1.06349E3,4.8045303E1,5.695308E2,4.939592E2,1.2510483E1,3.553482E1,3.598698E2,2.0966103E2,4.8921988E2,4.7393E0,1.0593714E0,1.1451111E1,2.1020734E0,3.343275E1],"tree_param":{"num_deleted":"0","num_feature":"17","num_nodes":"15","size_leaf_vector":"1"}},{"base_weights":[-3.4475373E-3,1.2629697E-1,-1.0022567E-1,8.104667E-2,4.701811E-1,-1.7781171E-1,2.296627E-1,6.030504E-2,4.1363016E-3,1.6874236E-1,3.5159633E-2,3.7353802E-3,-2.5926879E-2,7.643648E-2,-6.3275755E-3],"categories":[0],"categories_nodes":[5],"categories_segments":[0],"categories_sizes":[1],"default_left":[0,1,0,0,0,1,1,0,0,0,0,0,0,0,0],"id":21,"left_children":[1,3,5,7,9,11,13,-1,-1,-1,-1,-1,-1,-1,-1],"loss_changes":[1.3968618E1,7.3578987E0,1.6348873E1,8.700931E0,7.354597E0,9.060621E0,1.9119738E1,0E0,0E0,0E0,0E0,0E0,0E0,0E0,0E0],"parents":[2147483647,0,0,1,1,2,2,3,3,4,4,5,5,6,6],"right_children":[2,4,6,8,10,12,14,-1,-1,-1,-1,-1,-1,-1,-1],"split_conditions":[6.516667E0,5.4E1,1.43122425E1,6.069619E0,5.6E1,1E-45,9.0076546E1,6.030504E-2,4.1363016E-3,1.6874236E-1,3.5159633E-2,3.7353802E-3,-2.5926879E-2,7.643648E-2,-6.3275755E-3],"split_indices":[1,11,9,2,11,14,8,0,0,0,0,0,0,0,0],"split_type":[0,0,0,0,0,1,0,0,0,0,0,0,0,0,0],"sum_hessian":[1.1104592E3,4.7429547E2,6.361638E2,4.2023425E2,5.4061207E1,5.154069E2,1.2075692E2,2.8686892E1,3.9154736E2,3.6247182E0,5.043649E1,1.4168726E2,3.7371964E2,4.2171593E1,7.8585335E1],"tree_param":{"num_deleted":"0","num_feature":"17","num_nodes":"15","size_leaf_vector":"1"}},{"base_weights":[-3.0851113E-3,4.2734917E-2,-2.6331145E-1,6.3553184E-2,-4.865493E-1,1.7214556E-1,-3.845217E-1,2.6559347E-2,1.6462052E-3,-2.025882E-2,-6.976459E-2,7.221672E-2,-3.3791926E-2,-8.7993756E-2,-2.9985622E-2],"categories":[0,1],"categories_nodes":[5],"categories_segments":[0],"categories_sizes":[2],"default_left":[0,0,0,0,0,1,0,0,0,0,0,0,0,0,0],"id":22,"left_children":[1,3,5,7,9,11,13,-1,-1,-1,-1,-1,-1,-1,-1],"loss_changes":[1.3240894E1,1.0435749E1,8.841437E0,8.648222E0,2.0077038E0,1.059384E1,5.2041893E0,0E0,0E0,0E0,0E0,0E0,0E0,0E0,0E0],"parents":[2147483647,0,0,1,1,2,2,3,3,4,4,5,5,6,6],"right_children":[2,4,6,8,10,12,14,-1,-1,-1,-1,-1,-1,-1,-1],"split_conditions":[4.4669464E1,2.4083334E1,1.76E2,4E0,1E0,1E-45,2.8666666E1,2.6559347E-2,1.6462052E-3,-2.025882E-2,-6.976459E-2,7.221672E-2,-3.3791926E-2,-8.7993756E-2,-2.9985622E-2],"split_indices":[2,1,16,11,10,5,0,0,0,0,0,0,0,0,0],"split_type":[0,0,0,0,0,1,0,0,0,0,0,0,0,0,0],"sum_hessian":[1.1085361E3,9.4328125E2,1.6525493E2,9.0843E2,3.4851234E1,3.5891563E1,1.2936337E2,1.7083553E2,7.375945E2,1.5696478E1,1.9154757E1,1.7069288E1,1.8822275E1,1.75102E1,1.11853165E2],"tree_param":{"num_deleted":"0","num_feature":"17","num_nodes":"15","size_leaf_vector":"1"}},{"base_weights":[-3.120414E-3,3.820805E-2,-2.4400139E-1,5.0756052E-2,-7.1307904E-1,6.529769E-2,-3.9727932E-1,1.5243833E-2,-3.9410293E-3,-9.3600385E-2,-2.2723647E-2,-3.7439328E-2,4.812039E-2,-6.4233555E-3,-5.0416615E-2],"categories":[0,1,3,5],"categories_nodes":[2,3],"categories_segments":[0,1],"categories_sizes":[1,3],"default_left":[0,0,1,1,0,0,0,0,0,0,0,0,0,0,0],"id":23,"left_children":[1,3,5,7,9,11,13,-1,-1,-1,-1,-1,-1,-1,-1],"loss_changes":[1.1040984E1,8.960972E0,7.7258806E0,8.551718E0,1.4789042E0,1.0178859E1,3.8385487E0,0E0,0E0,0E0,0E0,0E0,0E0,0E0,0E0],"parents":[2147483647,0,0,1,1,2,2,3,3,4,4,5,5,6,6],"right_children":[2,4,6,8,10,12,14,-1,-1,-1,-1,-1,-1,-1,-1],"split_conditions":[4.4669464E1,2.805E1,1E-45,1E-45,5.3673176E1,3E0,2.76E2,1.5243833E-2,-3.9410293E-3,-9.3600385E-2,-2.2723647E-2,-3.7439328E-2,4.812039E-2,-6.4233555E-3,-5.0416615E-2],"split_indices":[2,1,14,5,3,13,16,0,0,0,0,0,0,0,0],"split_type":[0,0,1,1,0,0,0,0,0,0,0,0,0,0,0],"sum_hessian":[1.107126E3,9.457099E2,1.6141608E2,9.3109125E2,1.4618651E1,5.3676476E1,1.0773961E2,4.3727615E2,4.938151E2,9.385593E0,5.233058E0,2.6140682E1,2.7535795E1,2.656557E1,8.1174034E1],"tree_param":{"num_deleted":"0","num_feature":"17","num_nodes":"15","size_leaf_vector":"1"}},{"base_weights":[-3.141202E-3,-2.5986137E-2,4.0347123E-1,-5.673984E-3,-6.109805E-1,1.025881E0,-3.053543E-1,-2.037781E-3,6.2186208E-2,-8.792677E-2,-2.8058866E-2,-1.0528023E-3,1.6714187E-1,1.4012161E-2,-6.0556896E-2],"categories":[2],"categories_nodes":[0],"categories_segments":[0],"categories_sizes":[1],"default_left":[1,0,0,0,0,0,0,0,0,0,0,0,0,0,0],"id":24,"left_children":[1,3,5,7,9,11,13,-1,-1,-1,-1,-1,-1,-1,-1],"loss_changes":[1.0294752E1,1.246348E1,2.6322903E1,9.378149E0,2.873229E0,2.1172829E1,3.8742623E0,0E0,0E0,0E0,0E0,0E0,0E0,0E0,0E0],"parents":[2147483647,0,0,1,1,2,2,3,3,4,4,5,5,6,6],"right_children":[2,4,6,8,10,12,14,-1,-1,-1,-1,-1,-1,-1,-1],"split_conditions":[1E-45,6.1234486E1,3.57E2,2.9642705E3,1E0,3E0,3.607814E1,-2.037781E-3,6.2186208E-2,-8.792677E-2,-2.8058866E-2,-1.0528023E-3,1.6714187E-1,1.4012161E-2,-6.0556896E-2],"split_indices":[14,2,16,9,12,13,8,0,0,0,0,0,0,0,0],"split_type":[1,0,0,0,0,0,0,0,0,0,0,0,0,0,0],"sum_hessian":[1.1061406E3,1.0481859E3,5.7954723E1,1.0139879E3,3.4197952E1,3.062023E1,2.7334492E1,9.9171844E2,2.2269472E1,1.7955948E1,1.6242006E1,1.2129707E1,1.8490522E1,1.1219545E1,1.6114948E1],"tree_param":{"num_deleted":"0","num_feature":"17","num_nodes":"15","size_leaf_vector":"1"}},{"base_weights":[-3.0212486E-3,9.320435E-2,-9.603866E-2,-3.1223095E-3,2.2420625E-1,1.2858425E-1,-1.8785204E-1,1.9938525E-2,-1.7098106E-2,3.8084835E-2,7.308189E-4,8.331023E-2,4.1953973E-3,-2.0729389E-2,1.0135529E-1],"categories":[0],"categories_nodes":[2],"categories_segments":[0],"categories_sizes":[1],"default_left":[0,1,1,0,1,0,0,0,0,0,0,0,0,0,0],"id":25,"left_children":[1,3,5,7,9,11,13,-1,-1,-1,-1,-1,-1,-1,-1],"loss_changes":[9.907437E0,6.8664446E0,1.1631287E1,1.0725535E1,7.8305416E0,9.967867E0,9.551268E0,0E0,0E0,0E0,0E0,0E0,0E0,0E0,0E0],"parents":[2147483647,0,0,1,1,2,2,3,3,4,4,5,5,6,6],"right_children":[2,4,6,8,10,12,14,-1,-1,-1,-1,-1,-1,-1,-1],"split_conditions":[7.65E0,2E1,1E-45,6E0,2.1510625E0,4.8E1,1.1262376E4,1.9938525E-2,-1.7098106E-2,3.8084835E-2,7.308189E-4,8.331023E-2,4.1953973E-3,-2.0729389E-2,1.0135529E-1],"split_indices":[1,11,14,11,9,16,9,0,0,0,0,0,0,0,0],"split_type":[0,0,1,0,0,0,0,0,0,0,0,0,0,0,0],"sum_hessian":[1.104895E3,5.43081E2,5.6181396E2,3.135221E2,2.2955893E2,1.6289305E2,3.9892093E2,1.420105E2,1.715116E2,1.328557E2,9.670324E1,1.6893164E1,1.4599988E2,3.9338245E2,5.53849E0],"tree_param":{"num_deleted":"0","num_feature":"17","num_nodes":"15","size_leaf_vector":"1"}},{"base_weights":[-2.7537397E-3,1.560218E-2,-4.6395594E-1,-9.386299E-1,2.4048327E-2,9.066539E-2,-5.34062E-1,-1.0281853E-1,-1.1870179E-2,3.5863813E-2,-9.309139E-4,-5.1312917E-3,-6.591265E-2],"categories":[],"categories_nodes":[],"categories_segments":[],"categories_sizes":[],"default_left":[0,0,0,0,0,0,0,0,0,0,0,0,0],"id":26,"left_children":[1,3,5,7,9,-1,11,-1,-1,-1,-1,-1,-1],"loss_changes":[9.3562155E0,8.590086E0,4.5489693E0,5.6462383E-1,1.1774585E1,0E0,2.4338923E0,0E0,0E0,0E0,0E0,0E0,0E0],"parents":[2147483647,0,0,1,1,2,2,3,3,4,4,6,6],"right_children":[2,4,6,8,10,-1,12,-1,-1,-1,-1,-1,-1],"split_conditions":[2.89E1,3E0,4.3333335E0,8.2E1,9E1,9.066539E-2,1.09E2,-1.0281853E-1,-1.1870179E-2,3.5863813E-2,-9.309139E-4,-5.1312917E-3,-6.591265E-2],"split_indices":[1,16,0,0,16,0,16,0,0,0,0,0,0],"split_type":[0,0,0,0,0,0,0,0,0,0,0,0,0],"sum_hessian":[1.1033241E3,1.0620217E3,4.1302456E1,8.3515005E0,1.0536702E3,1.4291536E0,3.9873302E1,7.300159E0,1.051342E0,9.463989E1,9.590303E2,8.494562E0,3.137874E1],"tree_param":{"num_deleted":"0","num_feature":"17","num_nodes":"13","size_leaf_vector":"1"}},{"base_weights":[-2.6600119E-3,8.110091E-2,-1.0153754E-1,-1.6653912E-2,2.4177317E-1,1.5119751E-2,-2.6578242E-1,-4.0371787E-2,4.1323425E-3,3.309318E-2,-3.1682897E-2,1.0039128E-1,-2.7664227E-3,-3.3053742E-3,-4.2924013E-2],"categories":[1,3],"categories_nodes":[0],"categories_segments":[0],"categories_sizes":[2],"default_left":[1,0,0,0,0,0,0,0,0,0,0,0,0,0,0],"id":27,"left_children":[1,3,5,7,9,11,13,-1,-1,-1,-1,-1,-1,-1,-1],"loss_changes":[9.149413E0,9.398046E0,9.711285E0,8.3824835E0,1.1375841E1,1.2599686E1,7.991823E0,0E0,0E0,0E0,0E0,0E0,0E0,0E0,0E0],"parents":[2147483647,0,0,1,1,2,2,3,3,4,4,5,5,6,6],"right_children":[2,4,6,8,10,12,14,-1,-1,-1,-1,-1,-1,-1,-1],"split_conditions":[1E-45,3E0,9.197131E1,8.217951E-1,1E0,2.993912E-1,1.695557E1,-4.0371787E-2,4.1323425E-3,3.309318E-2,-3.1682897E-2,1.0039128E-1,-2.7664227E-3,-3.3053742E-3,-4.2924013E-2],"split_indices":[5,13,8,9,15,3,2,0,0,0,0,0,0,0,0],"split_type":[1,0,0,0,0,0,0,0,0,0,0,0,0,0,0],"sum_hessian":[1.1027306E3,5.9709796E2,5.056326E2,3.7179193E2,2.2530606E2,2.9617676E2,2.0945586E2,4.765797E1,3.2413394E2,1.9464612E2,3.0659943E1,1.1352027E1,2.848247E2,8.691284E1,1.22543015E2],"tree_param":{"num_deleted":"0","num_feature":"17","num_nodes":"15","size_leaf_vector":"1"}},{"base_weights":[-2.6148332E-3,-9.221317E-1,5.3003286E-3,-1.113405E-2,-1.00806355E-1,2.2109331E-1,-3.954603E-2,1.1347132E-2,1.0917386E-1,-2.0822736E-3,-6.5151386E-2],"categories":[2],"categories_nodes":[5],"categories_segments":[0],"categories_sizes":[1],"default_left":[0,0,0,0,0,1,0,0,0,0,0],"id":28,"left_children":[1,3,5,-1,-1,7,9,-1,-1,-1,-1],"loss_changes":[8.032103E0,5.4398155E-1,1.0600847E1,0E0,0E0,1.7536377E1,1.0379229E1,0E0,0E0,0E0,0E0],"parents":[2147483647,0,0,1,1,2,2,5,5,6,6],"right_children":[2,4,6,-1,-1,8,10,-1,-1,-1,-1],"split_conditions":[3E0,2.8333333E0,1.69E2,-1.113405E-2,-1.00806355E-1,1E-45,2.9466667E1,1.1347132E-2,1.0917386E-1,-2.0822736E-3,-6.5151386E-2],"split_indices":[16,1,16,0,0,14,1,0,0,0,0],"split_type":[0,0,0,0,0,1,0,0,0,0,0],"sum_hessian":[1.1019235E3,8.418607E0,1.0935049E3,1.0267364E0,7.3918705E0,1.8747542E2,9.060295E2,1.6785669E2,1.9618729E1,8.8013556E2,2.5893927E1],"tree_param":{"num_deleted":"0","num_feature":"17","num_nodes":"11","size_leaf_vector":"1"}},{"base_weights":[-2.541499E-3,1.5029559E-1,-4.8428014E-2,1.665907E-2,3.619548E-1,-1.1294778E-1,2.0784454E-1,-1.03249615E-2,4.167789E-2,2.8050227E-2,1.1100632E-1,-7.044285E-3,-3.8552877E-2,-8.369118E-3,5.9972137E-2],"categories":[],"categories_nodes":[],"categories_segments":[],"categories_sizes":[],"default_left":[0,1,0,0,0,0,1,0,0,0,0,0,0,0,0],"id":29,"left_children":[1,3,5,7,9,11,13,-1,-1,-1,-1,-1,-1,-1,-1],"loss_changes":[7.7349606E0,7.197562E0,1.40482855E1,7.5831814E0,5.6917505E0,7.831169E0,1.9580439E1,0E0,0E0,0E0,0E0,0E0,0E0,0E0,0E0],"parents":[2147483647,0,0,1,1,2,2,3,3,4,4,5,5,6,6],"right_children":[2,4,6,8,10,12,14,-1,-1,-1,-1,-1,-1,-1,-1],"split_conditions":[2.0157895E0,2.3E1,1.43122425E1,8.1666664E1,1.8724643E0,4.3012615E1,1E0,-1.03249615E-2,4.167789E-2,2.8050227E-2,1.1100632E-1,-7.044285E-3,-3.8552877E-2,-8.369118E-3,5.9972137E-2],"split_indices":[3,11,9,0,3,3,7,0,0,0,0,0,0,0,0],"split_type":[0,0,0,0,0,0,0,0,0,0,0,0,0,0,0],"sum_hessian":[1.1008828E3,2.536753E2,8.472075E2,1.5615898E2,9.7516304E1,6.772586E2,1.6994891E2,1.20722565E2,3.5436417E1,8.918136E1,8.334942E0,5.869855E2,9.0273186E1,9.7901665E1,7.204724E1],"tree_param":{"num_deleted":"0","num_feature":"17","num_nodes":"15","size_leaf_vector":"1"}},{"base_weights":[-2.350512E-3,2.279095E-2,-2.7946308E-1,2.4884117E-1,-2.4175905E-2,9.802291E-1,-3.578845E-1,-3.1699047E-3,6.8193756E-2,2.2729116E-3,-2.7432768E-2,-6.552876E-2,1.5526892E-1,3.7279285E-2,-4.9511645E-2],"categories":[],"categories_nodes":[],"categories_segments":[],"categories_sizes":[],"default_left":[0,0,0,0,0,0,0,0,0,0,0,0,0,0,0],"id":30,"left_children":[1,3,5,7,9,11,13,-1,-1,-1,-1,-1,-1,-1,-1],"loss_changes":[7.6750016E0,1.0729833E1,9.4028425E0,2.1144623E1,9.829685E0,6.295794E0,8.907699E0,0E0,0E0,0E0,0E0,0E0,0E0,0E0,0E0],"parents":[2147483647,0,0,1,1,2,2,3,3,4,4,5,5,6,6],"right_children":[2,4,6,8,10,12,14,-1,-1,-1,-1,-1,-1,-1,-1],"split_conditions":[1E0,1.69E2,8.5E-1,3E0,4.180673E1,1.33E2,2.2944868E1,-3.1699047E-3,6.8193756E-2,2.2729116E-3,-2.7432768E-2,-6.552876E-2,1.5526892E-1,3.7279285E-2,-4.9511645E-2],"split_indices":[15,16,1,13,2,16,8,0,0,0,0,0,0,0,0],"split_type":[0,0,0,0,0,0,0,0,0,0,0,0,0,0,0],"sum_hessian":[1.0997054E3,1.0090735E3,9.063198E1,1.728505E2,8.36223E2,4.637633E0,8.5994354E1,1.054631E2,6.73874E1,7.0494965E2,1.3127335E2,1.1648821E0,3.472751E0,1.3325831E1,7.266852E1],"tree_param":{"num_deleted":"0","num_feature":"17","num_nodes":"15","size_leaf_vector":"1"}},{"base_weights":[-2.248683E-3,7.255538E-2,-9.1925055E-2,1.4585741E-2,2.7401897E-1,1.4709639E-2,-2.4531063E-1,-8.130821E-3,1.6642356E-2,4.7515962E-2,-3.4065034E-2,8.1913255E-2,-2.3097778E-3,-5.366331E-2,-1.3339092E-2],"categories":[1,3],"categories_nodes":[0],"categories_segments":[0],"categories_sizes":[2],"default_left":[1,0,0,0,1,0,0,0,0,0,0,0,0,0,0],"id":31,"left_children":[1,3,5,7,9,11,13,-1,-1,-1,-1,-1,-1,-1,-1],"loss_changes":[7.3822803E0,7.003461E0,8.189608E0,6.8132167E0,1.6730907E1,9.026601E0,6.6223335E0,0E0,0E0,0E0,0E0,0E0,0E0,0E0,0E0],"parents":[2147483647,0,0,1,1,2,2,3,3,4,4,5,5,6,6],"right_children":[2,4,6,8,10,12,14,-1,-1,-1,-1,-1,-1,-1,-1],"split_conditions":[1E-45,1.3662856E1,9.197131E1,3E0,9.3696915E1,2.993912E-1,6.2E1,-8.130821E-3,1.6642356E-2,4.7515962E-2,-3.4065034E-2,8.1913255E-2,-2.3097778E-3,-5.366331E-2,-1.3339092E-2],"split_indices":[5,9,8,13,9,3,0,0,0,0,0,0,0,0,0],"split_type":[1,0,0,0,0,0,0,0,0,0,0,0,0,0,0],"sum_hessian":[1.0984989E3,5.9901666E2,4.994822E2,4.660008E2,1.3301582E2,2.9517715E2,2.0430507E2,2.8590228E2,1.8009854E2,1.0039134E2,3.2624485E1,1.2322711E1,2.8285443E2,5.5651546E1,1.4865352E2],"tree_param":{"num_deleted":"0","num_feature":"17","num_nodes":"15","size_leaf_vector":"1"}},{"base_weights":[-2.2010906E-3,-9.019995E-1,5.1583103E-3,-1.0993622E-2,-9.907838E-2,-3.420374E-3,7.695855E-1,1.8345062E-2,-4.07901E-3,1.7405292E-1,1.592672E-2],"categories":[],"categories_nodes":[],"categories_segments":[],"categories_sizes":[],"default_left":[0,0,1,0,0,0,1,0,0,0,0],"id":32,"left_children":[1,3,5,-1,-1,7,9,-1,-1,-1,-1],"loss_changes":[7.2801285E0,5.1827765E-1,7.155645E0,0E0,0E0,7.5470767E0,6.898738E0,0E0,0E0,0E0,0E0],"parents":[2147483647,0,0,1,1,2,2,5,5,6,6],"right_children":[2,4,6,-1,-1,8,10,-1,-1,-1,-1],"split_conditions":[3E0,2.8333333E0,1.28E2,-1.0993622E-2,-9.907838E-2,1.59E2,3.086033E1,1.8345062E-2,-4.07901E-3,1.7405292E-1,1.592672E-2],"split_indices":[16,1,11,0,0,16,8,0,0,0,0],"split_type":[0,0,0,0,0,0,0,0,0,0,0],"sum_hessian":[1.0976864E3,7.9188805E0,1.0897675E3,1.0237782E0,6.895102E0,1.078658E3,1.1109572E1,1.7910695E2,8.99551E2,3.5731993E0,7.5363736E0],"tree_param":{"num_deleted":"0","num_feature":"17","num_nodes":"11","size_leaf_vector":"1"}},{"base_weights":[-1.9841897E-3,4.3949932E-1,-1.584064E-2,6.451904E-1,-1.2764336E-1,-9.90582E-2,-8.256666E-3,-4.7611214E-2,7.487338E-2,5.069357E-2,-8.1355624E-2,6.873178E-3,-1.02150915E-2],"categories":[1,2,1,3],"categories_nodes":[4,6],"categories_segments":[0,2],"categories_sizes":[2,2],"default_left":[0,0,0,0,1,0,1,0,0,0,0,0,0],"id":33,"left_children":[1,3,5,7,9,-1,11,-1,-1,-1,-1,-1,-1],"loss_changes":[6.725584E0,3.9852738E0,7.8708405E0,3.2262354E0,4.6516366E0,0E0,7.6594334E0,0E0,0E0,0E0,0E0,0E0,0E0],"parents":[2147483647,0,0,1,1,2,2,3,3,4,4,6,6],"right_children":[2,4,6,8,10,-1,12,-1,-1,-1,-1,-1,-1],"split_conditions":[6.069619E0,4.5333333E0,3E0,6.4244944E-1,1E-45,-9.90582E-2,1E-45,-4.7611214E-2,7.487338E-2,5.069357E-2,-8.1355624E-2,6.873178E-3,-1.02150915E-2],"split_indices":[2,1,16,9,6,0,5,0,0,0,0,0,0],"split_type":[0,0,0,0,1,0,1,0,0,0,0,0,0],"sum_hessian":[1.0972816E3,3.2456596E1,1.064825E3,2.3717226E1,8.73937E0,7.220223E0,1.0576047E3,1.7007788E0,2.2016447E1,4.6750937E0,4.0642767E0,5.8126526E2,4.7633954E2],"tree_param":{"num_deleted":"0","num_feature":"17","num_nodes":"13","size_leaf_vector":"1"}},{"base_weights":[-1.9711521E-3,2.0891191E-2,-2.595966E-1,2.0864925E-1,-1.9215118E-2,8.1526196E-1,-3.334058E-1,-3.5626197E-3,5.6681883E-2,-7.7590905E-2,-5.4875785E-4,-6.433672E-2,1.2808844E-1,3.232548E-2,-4.6533685E-2],"categories":[],"categories_nodes":[],"categories_segments":[],"categories_sizes":[],"default_left":[0,0,0,0,0,0,0,0,0,0,0,0,0,0,0],"id":34,"left_children":[1,3,5,7,9,11,13,-1,-1,-1,-1,-1,-1,-1,-1],"loss_changes":[6.4699907E0,7.602277E0,7.375112E0,1.5566038E1,8.641767E0,4.9286575E0,7.4703503E0,0E0,0E0,0E0,0E0,0E0,0E0,0E0,0E0],"parents":[2147483647,0,0,1,1,2,2,3,3,4,4,5,5,6,6],"right_children":[2,4,6,8,10,12,14,-1,-1,-1,-1,-1,-1,-1,-1],"split_conditions":[1E0,1.69E2,8.5E-1,3E0,2.9E1,1.33E2,2.2944868E1,-3.5626197E-3,5.6681883E-2,-7.7590905E-2,-5.4875785E-4,-6.433672E-2,1.2808844E-1,3.232548E-2,-4.6533685E-2],"split_indices":[15,16,1,13,0,16,8,0,0,0,0,0,0,0,0],"split_type":[0,0,0,0,0,0,0,0,0,0,0,0,0,0,0],"sum_hessian":[1.0965645E3,1.00802826E3,8.853612E1,1.7668295E2,8.3134534E2,5.0435195E0,8.34926E1,1.0557811E2,7.110485E1,1.382379E1,8.1752155E2,1.1280391E0,3.9154806E0,1.3725664E1,6.976693E1],"tree_param":{"num_deleted":"0","num_feature":"17","num_nodes":"15","size_leaf_vector":"1"}},{"base_weights":[-1.9364215E-3,6.23139E-2,-9.2908375E-2,-1.2563527E-2,3.9539322E-1,5.2152383E-1,-1.2255505E-1,4.369334E-3,-3.7528597E-2,1.9045664E-2,7.804458E-2,2.0062199E-1,2.0685863E-2,1.731332E-3,-2.719883E-2],"categories":[0,1,3,4,5,0,1,3,4],"categories_nodes":[2,5],"categories_segments":[0,5],"categories_sizes":[5,4],"default_left":[1,0,1,0,0,1,0,0,0,0,0,0,0,0,0],"id":35,"left_children":[1,3,5,7,9,11,13,-1,-1,-1,-1,-1,-1,-1,-1],"loss_changes":[6.416012E0,1.6050219E1,8.340388E0,1.0754612E1,9.171825E0,9.444429E0,9.080984E0,0E0,0E0,0E0,0E0,0E0,0E0,0E0,0E0],"parents":[2147483647,0,0,1,1,2,2,3,3,4,4,5,5,6,6],"right_children":[2,4,6,8,10,12,14,-1,-1,-1,-1,-1,-1,-1,-1],"split_conditions":[9.197131E1,9.72753E0,1E-45,3.643318E1,1.4980935E1,1E-45,2.0161907E1,4.369334E-3,-3.7528597E-2,1.9045664E-2,7.804458E-2,2.0062199E-1,2.0685863E-2,1.731332E-3,-2.719883E-2],"split_indices":[8,9,5,3,3,6,2,0,0,0,0,0,0,0,0],"split_type":[0,0,1,0,0,1,0,0,0,0,0,0,0,0,0],"sum_hessian":[1.095706E3,6.42351E2,4.533551E2,5.252379E2,1.1711309E2,2.0104046E1,4.3325107E2,4.55475E2,6.976289E1,7.7408554E1,3.9704536E1,2.5756307E0,1.7528416E1,2.242443E2,2.0900676E2],"tree_param":{"num_deleted":"0","num_feature":"17","num_nodes":"15","size_leaf_vector":"1"}},{"base_weights":[-1.7280726E-3,1.2314526E-2,-3.989186E-1,2.343114E-2,-5.3727275E-1,7.9584524E-2,-4.700373E-1,4.5893146E-3,-2.1543931E-2,1.8360103E-2,-7.332105E-2,-2.458562E-2,-7.72553E-2],"categories":[3,0],"categories_nodes":[3,4],"categories_segments":[0,1],"categories_sizes":[1,1],"default_left":[0,0,0,1,1,0,0,0,0,0,0,0,0],"id":36,"left_children":[1,3,5,7,9,-1,11,-1,-1,-1,-1,-1,-1],"loss_changes":[6.114634E0,6.482422E0,3.5549617E0,5.5842924E0,3.1060362E0,0E0,2.248869E0,0E0,0E0,0E0,0E0,0E0,0E0],"parents":[2147483647,0,0,1,1,2,2,3,3,4,4,6,6],"right_children":[2,4,6,8,10,-1,12,-1,-1,-1,-1,-1,-1],"split_conditions":[2.89E1,6.1234486E1,4.3333335E0,1E-45,1E-45,7.9584524E-2,2.6E1,4.5893146E-3,-2.1543931E-2,1.8360103E-2,-7.332105E-2,-2.458562E-2,-7.72553E-2],"split_indices":[1,2,0,5,14,0,11,0,0,0,0,0,0],"split_type":[0,0,0,1,1,0,0,0,0,0,0,0,0],"sum_hessian":[1.0944058E3,1.0579705E3,3.6435356E1,1.0379333E3,2.0037127E1,1.4744725E0,3.4960884E1,9.494595E2,8.847383E1,4.295721E0,1.57414055E1,2.1121426E1,1.38394575E1],"tree_param":{"num_deleted":"0","num_feature":"17","num_nodes":"13","size_leaf_vector":"1"}},{"base_weights":[-1.7398107E-3,-8.5965633E-1,4.53757E-3,-1.1484331E-2,-9.572956E-2,-3.3188122E-3,6.708077E-1,-2.0509211E-2,2.4518631E-3,2.9962111E-2,2.0465074E-1],"categories":[],"categories_nodes":[],"categories_segments":[],"categories_sizes":[],"default_left":[0,0,1,0,0,0,0,0,0,0,0],"id":37,"left_children":[1,3,5,-1,-1,7,9,-1,-1,-1,-1],"loss_changes":[5.9009867E0,4.6887589E-1,5.697545E0,0E0,0E0,6.050758E0,5.864373E0,0E0,0E0,0E0,0E0],"parents":[2147483647,0,0,1,1,2,2,5,5,6,6],"right_children":[2,4,6,-1,-1,8,10,-1,-1,-1,-1],"split_conditions":[3E0,1.0918893E1,1.28E2,-1.1484331E-2,-9.572956E-2,8.217951E-1,1.53108E2,-2.0509211E-2,2.4518631E-3,2.9962111E-2,2.0465074E-1],"split_indices":[16,2,11,0,0,9,8,0,0,0,0],"split_type":[0,0,0,0,0,0,0,0,0,0,0],"sum_hessian":[1.0939996E3,6.9591713E0,1.0870405E3,1.0587795E0,5.9003916E0,1.0753553E3,1.1685126E1,1.2960149E2,9.457539E2,1.0161248E1,1.5238783E0],"tree_param":{"num_deleted":"0","num_feature":"17","num_nodes":"11","size_leaf_vector":"1"}},{"base_weights":[-1.5298207E-3,5.841035E-2,-8.70119E-2,3.6630405E-3,4.0956223E-1,-5.076531E-2,-5.2537096E-1,7.3452435E-2,-1.9348919E-3,4.7134772E-2,-9.9491075E-2,5.5421263E-2,-8.19188E-3,-7.812858E-2,1.6963754E-2],"categories":[0,1,3,4,5],"categories_nodes":[5],"categories_segments":[0],"categories_sizes":[5],"default_left":[1,0,0,0,0,1,0,0,0,0,0,0,0,0,0],"id":38,"left_children":[1,3,5,7,9,11,13,-1,-1,-1,-1,-1,-1,-1,-1],"loss_changes":[5.614205E0,1.2380975E1,7.149165E0,9.402811E0,8.006827E0,7.928003E0,6.2482386E0,0E0,0E0,0E0,0E0,0E0,0E0,0E0,0E0],"parents":[2147483647,0,0,1,1,2,2,3,3,4,4,5,5,6,6],"right_children":[2,4,6,8,10,12,14,-1,-1,-1,-1,-1,-1,-1,-1],"split_conditions":[9.197131E1,1.6900663E1,1E0,2.4472922E-1,8.6333336E1,1E-45,1.4406943E2,7.3452435E-2,-1.9348919E-3,4.7134772E-2,-9.9491075E-2,5.5421263E-2,-8.19188E-3,-7.812858E-2,1.6963754E-2],"split_indices":[8,9,15,3,0,5,8,0,0,0,0,0,0,0,0],"split_type":[0,0,0,0,0,1,0,0,0,0,0,0,0,0,0],"sum_hessian":[1.0937169E3,6.4309467E2,4.506223E2,5.572288E2,8.5865875E1,4.1723798E2,3.3384346E1,1.6065584E1,5.411632E2,8.288404E1,2.9818351E0,1.9611292E1,3.9762668E2,2.430914E1,9.075209E0],"tree_param":{"num_deleted":"0","num_feature":"17","num_nodes":"15","size_leaf_vector":"1"}},{"base_weights":[-1.5464277E-3,-8.3823425E-1,4.2543756E-3,-1.0384703E-2,-9.398913E-2,3.157822E-2,-1.7063212E-1,4.440605E-3,-4.6248637E-2,-3.2566417E-2,5.423856E-3],"categories":[],"categories_nodes":[],"categories_segments":[],"categories_sizes":[],"default_left":[0,0,0,0,0,0,0,0,0,0,0],"id":39,"left_children":[1,3,5,-1,-1,7,9,-1,-1,-1,-1],"loss_changes":[5.3126388E0,4.650526E-1,5.201304E0,0E0,0E0,5.9859896E0,5.1453123E0,0E0,0E0,0E0,0E0],"parents":[2147483647,0,0,1,1,2,2,5,5,6,6],"right_children":[2,4,6,-1,-1,8,10,-1,-1,-1,-1],"split_conditions":[3E0,1.0918893E1,4.4669464E1,-1.0384703E-2,-9.398913E-2,2.5216667E1,3E0,4.440605E-3,-4.6248637E-2,-3.2566417E-2,5.423856E-3],"split_indices":[16,2,2,0,0,1,13,0,0,0,0],"split_type":[0,0,0,0,0,0,0,0,0,0,0],"sum_hessian":[1.0928734E3,6.536718E0,1.0863367E3,1.0406232E0,5.4960947E0,9.4025323E2,1.4608347E2,9.173455E2,2.2907724E1,8.620389E1,5.987957E1],"tree_param":{"num_deleted":"0","num_feature":"17","num_nodes":"11","size_leaf_vector":"1"}},{"base_weights":[-1.6332421E-3,3.7919107E-1,-1.3877505E-2,4.599412E-1,-7.92119E-2,2.2782877E-3,-3.7997946E-1,6.405156E-2,-2.7919764E-2,-9.391422E-2,8.494192E-4,-4.499083E-2,1.13344364E-1],"categories":[],"categories_nodes":[],"categories_segments":[],"categories_sizes":[],"default_left":[0,0,0,1,0,0,0,0,0,0,0,0,0],"id":40,"left_children":[1,3,5,7,-1,9,11,-1,-1,-1,-1,-1,-1],"loss_changes":[5.1031017E0,3.588798E0,6.271492E0,4.5199585E0,0E0,5.955543E0,5.2526593E0,0E0,0E0,0E0,0E0,0E0,0E0],"parents":[2147483647,0,0,1,1,2,2,3,3,5,5,6,6],"right_children":[2,4,6,8,-1,10,12,-1,-1,-1,-1,-1,-1],"split_conditions":[6.069619E0,6.3E1,8.5333336E1,1.654441E1,-7.92119E-2,3E0,9.1E1,6.405156E-2,-2.7919764E-2,-9.391422E-2,8.494192E-4,-4.499083E-2,1.13344364E-1],"split_indices":[2,11,0,9,0,16,11,0,0,0,0,0,0],"split_type":[0,0,0,0,0,0,0,0,0,0,0,0,0],"sum_hessian":[1.0922736E3,3.309127E1,1.0591824E3,3.1525248E1,1.5660231E0,1.01536865E3,4.381365E1,2.5442886E1,6.0823607E0,5.6757092E0,1.00969293E3,4.25503E1,1.2633467E0],"tree_param":{"num_deleted":"0","num_feature":"17","num_nodes":"13","size_leaf_vector":"1"}},{"base_weights":[-1.6120122E-3,1.76085E-2,-2.2651416E-1,1.9410048E-1,-2.0318113E-2,-4.2341682E-1,1.674921E-1,-2.273775E-3,4.9821146E-2,-7.392621E-2,-8.712738E-4,1.1360796E-1,-5.0069373E-2,9.797526E-2,-2.2911077E-2],"categories":[0,1,2],"categories_nodes":[6],"categories_segments":[0],"categories_sizes":[3],"default_left":[0,0,0,0,0,0,1,0,0,0,0,0,0,0,0],"id":41,"left_children":[1,3,5,7,9,11,13,-1,-1,-1,-1,-1,-1,-1,-1],"loss_changes":[4.727924E0,6.749224E0,6.751601E0,1.1771435E1,6.9217763E0,7.5226173E0,9.699059E0,0E0,0E0,0E0,0E0,0E0,0E0,0E0,0E0],"parents":[2147483647,0,0,1,1,2,2,3,3,4,4,5,5,6,6],"right_children":[2,4,6,8,10,12,14,-1,-1,-1,-1,-1,-1,-1,-1],"split_conditions":[1E0,1.69E2,6.36E2,3E0,2.9E1,2.4472922E-1,1E-45,-2.273775E-3,4.9821146E-2,-7.392621E-2,-8.712738E-4,1.1360796E-1,-5.0069373E-2,9.797526E-2,-2.2911077E-2],"split_indices":[15,16,16,13,0,3,6,0,0,0,0,0,0,0,0],"split_type":[0,0,0,0,0,0,1,0,0,0,0,0,0,0,0],"sum_hessian":[1.0918118E3,1.00669934E3,8.5112495E1,1.773378E2,8.293615E2,5.6701538E1,2.8410954E1,1.0406339E2,7.327441E1,1.2179048E1,8.171825E2,2.0301635E0,5.4671375E1,8.838647E0,1.9572308E1],"tree_param":{"num_deleted":"0","num_feature":"17","num_nodes":"15","size_leaf_vector":"1"}},{"base_weights":[-1.5190481E-3,-8.702915E-3,5.853134E-1,-1.9419613E-1,1.6465234E-2,2.613094E-1,1.705932E-1,8.490726E-2,-2.6503826E-2,1.0032512E-2,-7.950902E-3,6.2262904E-2,-7.86841E-2],"categories":[],"categories_nodes":[],"categories_segments":[],"categories_sizes":[],"default_left":[1,0,0,0,1,0,0,0,0,0,0,0,0],"id":42,"left_children":[1,3,5,7,9,11,-1,-1,-1,-1,-1,-1,-1],"loss_changes":[4.6084695E0,5.043952E0,4.3543606E0,9.7647085E0,7.6672807E0,4.8209953E0,0E0,0E0,0E0,0E0,0E0,0E0,0E0],"parents":[2147483647,0,0,1,1,2,2,3,3,4,4,5,5],"right_children":[2,4,6,8,10,12,-1,-1,-1,-1,-1,-1,-1],"split_conditions":[1.28E2,8.217951E-1,1.53108E2,4.1803047E-1,9.197131E1,1.1472595E2,1.705932E-1,8.490726E-2,-2.6503826E-2,1.0032512E-2,-7.950902E-3,6.2262904E-2,-7.86841E-2],"split_indices":[11,9,8,3,8,8,0,0,0,0,0,0,0],"split_type":[0,0,0,0,0,0,0,0,0,0,0,0,0],"sum_hessian":[1.0909531E3,1.0787327E3,1.2220426E1,1.2807605E2,9.506566E2,1.0436196E1,1.7842298E0,7.4453526E0,1.206307E2,5.0732416E2,4.4333243E2,8.062764E0,2.3734322E0],"tree_param":{"num_deleted":"0","num_feature":"17","num_nodes":"13","size_leaf_vector":"1"}},{"base_weights":[-1.275988E-3,1.0495264E-2,-3.568394E-1,1.9720152E-2,-4.890091E-1,7.253357E-2,-4.2730123E-1,4.0208804E-3,-2.017486E-2,2.2783285E-2,-7.055267E-2,-2.0598764E-2,-7.424345E-2],"categories":[3],"categories_nodes":[3],"categories_segments":[0],"categories_sizes":[1],"default_left":[0,0,0,1,0,0,0,0,0,0,0,0,0],"id":43,"left_children":[1,3,5,7,9,-1,11,-1,-1,-1,-1,-1,-1],"loss_changes":[4.5711713E0,4.881411E0,2.9786296E0,4.722948E0,3.1423774E0,0E0,2.1826396E0,0E0,0E0,0E0,0E0,0E0,0E0],"parents":[2147483647,0,0,1,1,2,2,3,3,4,4,6,6],"right_children":[2,4,6,8,10,-1,12,-1,-1,-1,-1,-1,-1],"split_conditions":[2.89E1,6.1234486E1,4.3333335E0,1E-45,1E0,7.253357E-2,2.6E1,4.0208804E-3,-2.017486E-2,2.2783285E-2,-7.055267E-2,-2.0598764E-2,-7.424345E-2],"split_indices":[1,2,0,5,7,0,11,0,0,0,0,0,0],"split_type":[0,0,0,1,0,0,0,0,0,0,0,0,0],"sum_hessian":[1.090269E3,1.0562708E3,3.3998325E1,1.0380602E3,1.8210463E1,1.5101986E0,3.248813E1,9.509077E2,8.715252E1,4.212279E0,1.3998183E1,2.0056435E1,1.2431693E1],"tree_param":{"num_deleted":"0","num_feature":"17","num_nodes":"13","size_leaf_vector":"1"}},{"base_weights":[-1.3083874E-3,2.3784067E-1,-1.8271388E-2,4.364961E-1,-1.4759794E-1,-3.7195557E-3,-4.540549E-1,1.4390463E-1,3.211605E-2,5.2691665E-2,-3.3736136E-2,-9.2359155E-2,2.1820774E-4,-5.9723176E-2,4.046345E-2],"categories":[1,4],"categories_nodes":[4],"categories_segments":[0],"categories_sizes":[2],"default_left":[0,0,0,0,1,0,0,0,0,0,0,0,0,0,0],"id":44,"left_children":[1,3,5,7,9,11,13,-1,-1,-1,-1,-1,-1,-1,-1],"loss_changes":[4.429939E0,5.6024785E0,6.464122E0,5.0858355E0,3.4220545E0,5.363838E0,4.291299E0,0E0,0E0,0E0,0E0,0E0,0E0,0E0,0E0],"parents":[2147483647,0,0,1,1,2,2,3,3,4,4,5,5,6,6],"right_children":[2,4,6,8,10,12,14,-1,-1,-1,-1,-1,-1,-1,-1],"split_conditions":[7.340905E0,4.8166666E0,8.5333336E1,6.7E1,1E-45,3E0,9.0333336E1,1.4390463E-1,3.211605E-2,5.2691665E-2,-3.3736136E-2,-9.2359155E-2,2.1820774E-4,-5.9723176E-2,4.046345E-2],"split_indices":[2,1,0,16,6,16,0,0,0,0,0,0,0,0,0],"split_type":[0,0,0,0,1,0,0,0,0,0,0,0,0,0,0],"sum_hessian":[1.0899382E3,7.1327156E1,1.018611E3,4.698076E1,2.4346395E1,9.8667224E2,3.1938765E1,3.6630244E0,4.3317734E1,4.9554687E0,1.9390928E1,5.2985826E0,9.8137366E2,2.763536E1,4.303403E0],"tree_param":{"num_deleted":"0","num_feature":"17","num_nodes":"15","size_leaf_vector":"1"}},{"base_weights":[-1.1920934E-3,1.2895069E-2,-2.8309894E-1,4.912481E-1,-1.4736461E-2,2.9578954E-2,-1.0497141E-1,9.720435E-2,6.1801397E-3,1.332742E-2,-5.992459E-3,-1.4339201E-2,1.2028121E-1],"categories":[1,1,2,3],"categories_nodes":[2,3],"categories_segments":[0,1],"categories_sizes":[1,3],"default_left":[1,0,1,1,0,0,0,0,0,0,0,0,0],"id":45,"left_children":[1,3,5,7,9,11,-1,-1,-1,-1,-1,-1,-1],"loss_changes":[4.3334985E0,1.3745112E1,1.2479725E1,1.166528E1,6.586436E0,7.85575E0,0E0,0E0,0E0,0E0,0E0,0E0,0E0],"parents":[2147483647,0,0,1,1,2,2,3,3,4,4,5,5],"right_children":[2,4,6,8,10,12,-1,-1,-1,-1,-1,-1,-1],"split_conditions":[9.3696915E1,2E0,1E-45,1E-45,2.0157895E0,4.508036E1,-1.0497141E-1,9.720435E-2,6.1801397E-3,1.332742E-2,-5.992459E-3,-1.4339201E-2,1.2028121E-1],"split_indices":[9,11,6,5,3,3,0,0,0,0,0,0,0],"split_type":[0,0,1,1,0,0,0,0,0,0,0,0,0],"sum_hessian":[1.0892937E3,1.0383601E3,5.0933617E1,5.5787987E1,9.825721E2,3.6860718E1,1.4072896E1,2.5724335E1,3.0063652E1,2.2936224E2,7.5320984E2,3.2889557E1,3.9711611E0],"tree_param":{"num_deleted":"0","num_feature":"17","num_nodes":"13","size_leaf_vector":"1"}},{"base_weights":[-1.1265209E-3,-1.6316188E-2,2.5147396E-1,-6.9064015E-1,-6.616732E-3,6.5991944E-1,-2.85887E-1,2.8175378E-2,-8.075555E-2,9.2080496E-2,-1.2226816E-3,-8.031514E-3,1.0610344E-1,4.3333456E-2,-4.3197643E-2],"categories":[2],"categories_nodes":[0],"categories_segments":[0],"categories_sizes":[1],"default_left":[1,0,0,0,0,0,0,0,0,0,0,0,0,0,0],"id":46,"left_children":[1,3,5,7,9,11,13,-1,-1,-1,-1,-1,-1,-1,-1],"loss_changes":[4.183069E0,6.721151E0,1.3761431E1,1.8841577E0,5.2908382E0,1.0607032E1,3.0664608E0,0E0,0E0,0E0,0E0,0E0,0E0,0E0,0E0],"parents":[2147483647,0,0,1,1,2,2,3,3,4,4,5,5,6,6],"right_children":[2,4,6,8,10,12,14,-1,-1,-1,-1,-1,-1,-1,-1],"split_conditions":[1E-45,2.8666666E1,3.57E2,4.3333335E0,2.9666666E1,3E0,7.378651E-1,2.8175378E-2,-8.075555E-2,9.2080496E-2,-1.2226816E-3,-8.031514E-3,1.0610344E-1,4.3333456E-2,-4.3197643E-2],"split_indices":[14,0,16,0,0,13,9,0,0,0,0,0,0,0,0],"split_type":[1,0,0,0,0,0,0,0,0,0,0,0,0,0,0],"sum_hessian":[1.0881469E3,1.027307E3,6.0839817E1,1.3571726E1,1.0137352E3,3.4436626E1,2.6403189E1,1.3053257E0,1.22664E1,5.1144514E0,1.0086208E3,1.23834505E1,2.2053177E1,4.1256623E0,2.2277527E1],"tree_param":{"num_deleted":"0","num_feature":"17","num_nodes":"15","size_leaf_vector":"1"}},{"base_weights":[-1.0065804E-3,-5.574728E-3,7.902013E-1,-1.7413168E-1,1.7821698E-2,1.4125963E0,-6.771695E-2,6.811117E-2,-2.3563731E-2,8.912652E-3,-6.499447E-3,-6.275996E-2,2.2824144E-1],"categories":[],"categories_nodes":[],"categories_segments":[],"categories_sizes":[],"default_left":[1,0,1,0,1,0,0,0,0,0,0,0,0],"id":47,"left_children":[1,3,5,7,9,11,-1,-1,-1,-1,-1,-1,-1],"loss_changes":[3.937362E0,4.2736435E0,6.6678085E0,7.1083426E0,5.626431E0,9.7998085E0,0E0,0E0,0E0,0E0,0E0,0E0,0E0],"parents":[2147483647,0,0,1,1,2,2,3,3,4,4,5,5],"right_children":[2,4,6,8,10,12,-1,-1,-1,-1,-1,-1,-1],"split_conditions":[1.54E2,8.217951E-1,1.0104807E2,4.1803047E-1,9.197131E1,2.5423983E1,-6.771695E-2,6.811117E-2,-2.3563731E-2,8.912652E-3,-6.499447E-3,-6.275996E-2,2.2824144E-1],"split_indices":[11,9,8,3,8,8,0,0,0,0,0,0,0],"split_type":[0,0,0,0,0,0,0,0,0,0,0,0,0],"sum_hessian":[1.0871492E3,1.0818956E3,5.253519E0,1.3108264E2,9.50813E2,3.715074E0,1.5384451E0,8.118596E0,1.2296405E2,5.1087384E2,4.3993918E2,1.1936909E0,2.5213833E0],"tree_param":{"num_deleted":"0","num_feature":"17","num_nodes":"13","size_leaf_vector":"1"}},{"base_weights":[-8.785586E-4,-7.7250624E-1,3.6496248E-3,-8.901977E-2,-7.7806013E-3,-1.0077072E-3,8.2893634E-1,1.4665199E-3,-3.712696E-2,-6.8981126E-2,1.4151828E-1],"categories":[],"categories_nodes":[],"categories_segments":[],"categories_sizes":[],"default_left":[0,0,1,0,0,1,0,0,0,0,0],"id":48,"left_children":[1,3,5,-1,-1,7,9,-1,-1,-1,-1],"loss_changes":[3.8030167E0,4.4991207E-1,4.160658E0,0E0,0E0,6.256454E0,6.3846707E0,0E0,0E0,0E0,0E0],"parents":[2147483647,0,0,1,1,2,2,5,5,6,6],"right_children":[2,4,6,-1,-1,8,10,-1,-1,-1,-1],"split_conditions":[3E0,4E1,1.1262376E4,-8.901977E-2,-7.7806013E-3,9.3696915E1,4.8166666E0,1.4665199E-3,-3.712696E-2,-6.8981126E-2,1.4151828E-1],"split_indices":[16,11,9,0,0,9,1,0,0,0,0],"split_type":[0,0,0,0,0,0,0,0,0,0,0],"sum_hessian":[1.0866129E3,5.3499618E0,1.081263E3,4.3342667E0,1.0156952E0,1.0761885E3,5.0744643E0,1.0334055E3,4.2782887E1,1.3640522E0,3.710412E0],"tree_param":{"num_deleted":"0","num_feature":"17","num_nodes":"11","size_leaf_vector":"1"}},{"base_weights":[-9.039729E-4,9.622952E-3,-3.322781E-1,1.758669E-2,-4.516625E-1,3.2816757E-2,-5.566134E-1,2.5517414E-3,-4.6500057E-2,2.3943074E-2,-6.673948E-2,5.378873E-2,-4.0550917E-2,-2.575734E-2,-9.148031E-2],"categories":[0,1,2,4],"categories_nodes":[4,5,6],"categories_segments":[0,1,2],"categories_sizes":[1,1,2],"default_left":[0,0,0,0,1,1,1,0,0,0,0,0,0,0,0],"id":49,"left_children":[1,3,5,7,9,11,13,-1,-1,-1,-1,-1,-1,-1,-1],"loss_changes":[3.7975698E0,3.884311E0,2.7635622E0,3.9855728E0,2.8353336E0,3.2514083E0,1.9941635E0,0E0,0E0,0E0,0E0,0E0,0E0,0E0,0E0],"parents":[2147483647,0,0,1,1,2,2,3,3,4,4,5,5,6,6],"right_children":[2,4,6,8,10,12,14,-1,-1,-1,-1,-1,-1,-1,-1],"split_conditions":[2.89E1,6.1234486E1,3.7666668E1,7.293847E1,1E-45,1E-45,1E-45,2.5517414E-3,-4.6500057E-2,2.3943074E-2,-6.673948E-2,5.378873E-2,-4.0550917E-2,-2.575734E-2,-9.148031E-2],"split_indices":[1,2,0,3,14,5,6,0,0,0,0,0,0,0,0],"split_type":[0,0,0,0,1,1,1,0,0,0,0,0,0,0,0],"sum_hessian":[1.0867268E3,1.0542083E3,3.251859E1,1.0372626E3,1.6945665E1,1.2701395E1,1.9817192E1,1.0214238E3,1.5838711E1,4.0052114E0,1.29404545E1,5.7958555E0,6.9055395E0,1.1737263E1,8.07993E0],"tree_param":{"num_deleted":"0","num_feature":"17","num_nodes":"15","size_leaf_vector":"1"}}]},"name":"gbtree"},"learner_model_param":{"base_score":"[8.365146E-2]","boost_from_average":"1","num_class":"0","num_feature":"17","num_target":"1"},"objective":{"name":"binary:logistic","reg_loss_param":{"scale_pos_weight":"1"}}},"version":[3,2,0]}