{"learner":{"attributes":{"scikit_learn":"{\"_estimator_type\": \"classifier\"}"},"feature_names":["x_adj","y_adj","distance","angle","behind_the_net","shot_type","prev_type","prev_event_same_team","dist_from_prev_event","speed_from_prev_event","crossed_royal_road","time_from_prev_event","home_team_shot","period","game_state","goalie_pulled","time_remaining"],"feature_types":["float","float","float","float","i","c","c","i","float","float","i","float","i","int","c","i","int"],"gradient_booster":{"model":{"cats":{"enc":[{"offsets":[],"values":[]},{"offsets":[],"values":[]},{"offsets":[],"values":[]},{"offsets":[],"values":[]},{"offsets":[],"values":[]},{"offsets":[0,1,2,3,4,5,6],"values":[49,50,51,52,53,54]},{"offsets":[0,12,19,22,29,33],"values":[98,108,111,99,107,101,100,95,115,104,111,116,102,97,99,101,111,102,102,104,105,116,112,101,110,97,108,116,121,115,104,111,116]},{"offsets":[],"values":[]},{"offsets":[],"values":[]},{"offsets":[],"values":[]},{"offsets":[],"values":[]},{"offsets":[],"values":[]},{"offsets":[],"values":[]},{"offsets":[],"values":[]},{"offsets":[0,2,4,6],"values":[101,118,112,112,115,104]},{"offsets":[],"values":[]},{"offsets":[],"values":[]}],"feature_segments":[0,0,0,0,0,0,6,11,11,11,11,11,11,11,11,14,14,14],"sorted_idx":[0,1,2,3,4,5,0,1,2,3,4,0,1,2]},"gbtree_model_param":{"num_parallel_tree":"1","num_trees":"50"},"iteration_indptr":[0,1,2,3,4,5,6,7,8,9,10,11,12,13,14,15,16,17,18,19,20,21,22,23,24,25,26,27,28,29,30,31,32,33,34,35,36,37,38,39,40,41,42,43,44,45,46,47,48,49,50],"tree_info":[0,0,0,0,0,0,0,0,0,0,0,0,0,0,0,0,0,0,0,0,0,0,0,0,0,0,0,0,0,0,0,0,0,0,0,0,0,0,0,0,0,0,0,0,0,0,0,0,0,0],"trees":[{"base_weights":[1.16749455E-8,7.093673E-1,-4.4069332E-1,2.1442025E0,4.5929334E-1,1.3664627E-1,-5.938807E-1,2.7066216E-1,3.1599298E-2,7.55999E-2,-1.2840434E-2,1.01873316E-1,-3.8076364E-3,-4.120496E-2,-8.436535E-2],"categories":[0,1],"categories_nodes":[2,5],"categories_segments":[0,1],"categories_sizes":[1,1],"default_left":[0,1,1,1,0,1,0,0,0,0,0,0,0,0,0],"id":0,"left_children":[1,3,5,7,9,11,13,-1,-1,-1,-1,-1,-1,-1,-1],"loss_changes":[3.584151E2,1.5665463E2,6.2624817E1,6.59104E1,6.555682E1,2.301883E1,2.5043564E1,0E0,0E0,0E0,0E0,0E0,0E0,0E0,0E0],"parents":[2147483647,0,0,1,1,2,2,3,3,4,4,5,5,6,6],"right_children":[2,4,6,8,10,12,14,-1,-1,-1,-1,-1,-1,-1,-1],"split_conditions":[2.3026941E1,3E0,1E-45,1.1651612E2,9.066667E0,1E-45,2.1533333E1,2.7066216E-1,3.1599298E-2,7.55999E-2,-1.2840434E-2,1.01873316E-1,-3.8076364E-3,-4.120496E-2,-8.436535E-2],"split_indices":[2,11,14,8,1,14,1,0,0,0,0,0,0,0,0],"split_type":[0,0,1,0,0,1,0,0,0,0,0,0,0,0,0],"sum_hessian":[1.1445122E3,4.3833362E2,7.061786E2,6.3933235E1,3.744004E2,1.4810432E2,5.580743E2,4.8524864E1,1.5408369E1,2.486037E2,1.25796684E2,2.3687492E1,1.2441683E2,3.2449567E2,2.3357861E2],"tree_param":{"num_deleted":"0","num_feature":"17","num_nodes":"15","size_leaf_vector":"1"}},{"base_weights":[-2.4911375E-3,5.975618E-1,-4.1284373E-1,1.6057965E0,3.9639E-1,1.2156139E-1,-5.634997E-1,1.9429387E-1,2.7896304E-2,6.3735E-2,-1.16968565E-2,5.318308E-2,-2.3910945E-2,-4.1143578E-2,-8.641334E-2],"categories":[0],"categories_nodes":[2],"categories_segments":[0],"categories_sizes":[1],"default_left":[0,1,1,1,0,0,0,0,0,0,0,0,0,0,0],"id":1,"left_children":[1,3,5,7,9,11,13,-1,-1,-1,-1,-1,-1,-1,-1],"loss_changes":[2.8273825E2,9.395004E1,5.497026E1,3.4011047E1,4.8328907E1,2.243935E1,2.3970947E1,0E0,0E0,0E0,0E0,0E0,0E0,0E0,0E0],"parents":[2147483647,0,0,1,1,2,2,3,3,4,4,5,5,6,6],"right_children":[2,4,6,8,10,12,14,-1,-1,-1,-1,-1,-1,-1,-1],"split_conditions":[2.3026941E1,3E0,1E-45,1.1651612E2,9.066667E0,1.7566668E1,2.4083334E1,1.9429387E-1,2.7896304E-2,6.3735E-2,-1.16968565E-2,5.318308E-2,-2.3910945E-2,-4.1143578E-2,-8.641334E-2],"split_indices":[2,11,14,8,1,1,1,0,0,0,0,0,0,0,0],"split_type":[0,0,1,0,0,0,0,0,0,0,0,0,0,0,0],"sum_hessian":[1.1462517E3,4.6533804E2,6.8091364E2,7.624258E1,3.8909546E2,1.4978633E2,5.3112726E2,6.0424618E1,1.5817959E1,2.646382E2,1.2445726E2,6.985289E1,7.993344E1,3.542913E2,1.76836E2],"tree_param":{"num_deleted":"0","num_feature":"17","num_nodes":"15","size_leaf_vector":"1"}},{"base_weights":[-4.081062E-3,5.1027244E-1,-3.860702E-1,1.2703241E0,3.443277E-1,1.078056E-1,-5.335656E-1,1.4997159E-1,2.4700804E-2,5.2427035E-2,-1.6433679E-2,-2.0881524E-2,5.353495E-2,-3.5643652E-2,-7.939E-2],"categories":[0],"categories_nodes":[2],"categories_segments":[0],"categories_sizes":[1],"default_left":[0,1,1,1,0,0,0,0,0,0,0,0,0,0,0],"id":2,"left_children":[1,3,5,7,9,11,13,-1,-1,-1,-1,-1,-1,-1,-1],"loss_changes":[2.2559299E2,6.1278854E1,4.805217E1,2.012648E1,3.697315E1,2.0735352E1,2.311995E1,0E0,0E0,0E0,0E0,0E0,0E0,0E0,0E0],"parents":[2147483647,0,0,1,1,2,2,3,3,4,4,5,5,6,6],"right_children":[2,4,6,8,10,12,14,-1,-1,-1,-1,-1,-1,-1,-1],"split_conditions":[2.3026941E1,3E0,1E-45,1.1651612E2,9.633333E0,3E0,2.1533333E1,1.4997159E-1,2.4700804E-2,5.2427035E-2,-1.6433679E-2,-2.0881524E-2,5.353495E-2,-3.5643652E-2,-7.939E-2],"split_indices":[2,11,14,8,1,13,1,0,0,0,0,0,0,0,0],"split_type":[0,0,1,0,0,0,0,0,0,0,0,0,0,0,0],"sum_hessian":[1.146185E3,4.8831995E2,6.578652E2,8.631755E1,4.0200238E2,1.5135039E2,5.0651477E2,7.013107E1,1.6186478E1,2.9693088E2,1.0507152E2,8.724904E1,6.410134E1,3.0283667E2,2.036781E2],"tree_param":{"num_deleted":"0","num_feature":"17","num_nodes":"15","size_leaf_vector":"1"}},{"base_weights":[-5.0878157E-3,3.2705873E-1,-5.032526E-1,-2.0548734E-1,5.0785524E-1,-7.441371E-2,-6.3666594E-1,3.6080904E-2,-3.9212238E-2,1.0366698E-1,3.6537897E-2,4.7421016E-2,-4.173628E-2,-5.223478E-2,-8.9874215E-2],"categories":[0,0],"categories_nodes":[2,3],"categories_segments":[0,1],"categories_sizes":[1,1],"default_left":[0,0,1,1,1,0,0,0,0,0,0,0,0,0,0],"id":3,"left_children":[1,3,5,7,9,11,13,-1,-1,-1,-1,-1,-1,-1,-1],"loss_changes":[1.897756E2,6.6359955E1,2.6201805E1,1.8650076E1,3.834912E1,2.0894028E1,1.0010605E1,0E0,0E0,0E0,0E0,0E0,0E0,0E0,0E0],"parents":[2147483647,0,0,1,1,2,2,3,3,4,4,5,5,6,6],"right_children":[2,4,6,8,10,12,14,-1,-1,-1,-1,-1,-1,-1,-1],"split_conditions":[1.4166667E1,6.2E1,1E-45,1E-45,4E0,3.43E2,2.805E1,3.6080904E-2,-3.9212238E-2,1.0366698E-1,3.6537897E-2,4.7421016E-2,-4.173628E-2,-5.223478E-2,-8.9874215E-2],"split_indices":[1,0,14,14,11,16,1,0,0,0,0,0,0,0,0],"split_type":[0,0,1,1,0,0,0,0,0,0,0,0,0,0,0],"sum_hessian":[1.1449369E3,6.871379E2,4.5779904E2,1.741203E2,5.130176E2,1.08997894E2,3.4880115E2,4.2929237E1,1.3119106E2,1.0755192E2,4.0546567E2,4.1779495E1,6.72184E1,2.4494762E2,1.03853516E2],"tree_param":{"num_deleted":"0","num_feature":"17","num_nodes":"15","size_leaf_vector":"1"}},{"base_weights":[-5.8872188E-3,2.8611356E-1,-4.746437E-1,4.2497265E-1,-2.4871227E-1,-5.2636194E-1,6.0243E-1,1.2439698E-1,3.4830157E-2,-3.1272724E-2,1.4264528E-1,-4.0597748E-2,-8.535859E-2,2.564629E-1,-7.090815E-2],"categories":[2,2],"categories_nodes":[2,4],"categories_segments":[0,1],"categories_sizes":[1,1],"default_left":[0,0,1,0,1,0,0,0,0,0,0,0,0,0,0],"id":4,"left_children":[1,3,5,7,9,11,13,-1,-1,-1,-1,-1,-1,-1,-1],"loss_changes":[1.5677525E2,5.2519028E1,2.4805962E1,3.4772217E1,1.6113277E1,1.6198914E1,5.4853695E1,0E0,0E0,0E0,0E0,0E0,0E0,0E0,0E0],"parents":[2147483647,0,0,1,1,2,2,3,3,4,4,5,5,6,6],"right_children":[2,4,6,8,10,12,14,-1,-1,-1,-1,-1,-1,-1,-1],"split_conditions":[1.4166667E1,3.194363E1,1E-45,7.2077312E0,1E-45,2.805E1,3.1E2,1.2439698E-1,3.4830157E-2,-3.1272724E-2,1.4264528E-1,-4.0597748E-2,-8.535859E-2,2.564629E-1,-7.090815E-2],"split_indices":[1,2,14,2,14,1,16,0,0,0,0,0,0,0,0],"split_type":[0,0,1,0,1,0,0,0,0,0,0,0,0,0,0],"sum_hessian":[1.1433789E3,7.0475684E2,4.38622E2,5.596563E2,1.4510051E2,4.190134E2,1.9608614E1,4.6604485E1,5.130519E2,1.4054309E2,4.557417E0,3.079576E2,1.1105579E2,7.4728055E0,1.2135808E1],"tree_param":{"num_deleted":"0","num_feature":"17","num_nodes":"15","size_leaf_vector":"1"}},{"base_weights":[-6.260044E-3,2.513926E-1,-4.4668514E-1,-3.4657425E-1,3.507176E-1,-4.2646416E-2,-5.81774E-1,-4.2591393E-2,1.3043293E-1,8.0100946E-2,2.2485923E-2,6.0491264E-2,-2.5823647E-2,-4.6928212E-2,-8.591104E-2],"categories":[0,2,0],"categories_nodes":[2,3,4],"categories_segments":[0,1,2],"categories_sizes":[1,1,1],"default_left":[0,0,1,1,1,0,0,0,0,0,0,0,0,0,0],"id":5,"left_children":[1,3,5,7,9,11,13,-1,-1,-1,-1,-1,-1,-1,-1],"loss_changes":[1.2976636E2,4.297331E1,2.3012047E1,1.408278E1,3.4912888E1,1.5071302E1,9.462631E0,0E0,0E0,0E0,0E0,0E0,0E0,0E0,0E0],"parents":[2147483647,0,0,1,1,2,2,3,3,4,4,5,5,6,6],"right_children":[2,4,6,8,10,12,14,-1,-1,-1,-1,-1,-1,-1,-1],"split_conditions":[1.4166667E1,5.3E1,1E-45,1E-45,1E-45,1.84E2,2.805E1,-4.2591393E-2,1.3043293E-1,8.0100946E-2,2.2485923E-2,6.0491264E-2,-2.5823647E-2,-4.6928212E-2,-8.591104E-2],"split_indices":[1,0,14,14,14,16,1,0,0,0,0,0,0,0,0],"split_type":[0,0,1,1,1,0,0,0,0,0,0,0,0,0,0],"sum_hessian":[1.1415612E3,7.204945E2,4.210666E2,1.0227549E2,6.1821906E2,1.0583606E2,3.1523053E2,9.829367E1,3.9818196E0,1.3387637E2,4.8434268E2,2.5983784E1,7.985228E1,2.261804E2,8.9050125E1],"tree_param":{"num_deleted":"0","num_feature":"17","num_nodes":"15","size_leaf_vector":"1"}},{"base_weights":[-6.523542E-3,2.2146453E-1,-4.1948193E-1,7.4189913E-1,1.1649612E-1,-3.8781237E-2,-5.528506E-1,9.269739E-2,1.3057833E-2,6.970526E-3,1.1607484E-1,3.6697596E-2,-3.3732273E-2,-4.4101514E-2,-8.384789E-2],"categories":[0,2],"categories_nodes":[2,4],"categories_segments":[0,1],"categories_sizes":[1,1],"default_left":[0,1,1,1,1,0,0,0,0,0,0,0,0,0,0],"id":6,"left_children":[1,3,5,7,9,11,13,-1,-1,-1,-1,-1,-1,-1,-1],"loss_changes":[1.0747955E2,4.0095215E1,2.0595749E1,1.3825363E1,2.9884254E1,1.3015367E1,9.233627E0,0E0,0E0,0E0,0E0,0E0,0E0,0E0,0E0],"parents":[2147483647,0,0,1,1,2,2,3,3,4,4,5,5,6,6],"right_children":[2,4,6,8,10,12,14,-1,-1,-1,-1,-1,-1,-1,-1],"split_conditions":[1.4166667E1,3E0,1E-45,9.251006E1,1E-45,3.43E2,2.805E1,9.269739E-2,1.3057833E-2,6.970526E-3,1.1607484E-1,3.6697596E-2,-3.3732273E-2,-4.4101514E-2,-8.384789E-2],"split_indices":[1,11,14,8,14,16,1,0,0,0,0,0,0,0,0],"split_type":[0,0,1,0,1,0,0,0,0,0,0,0,0,0,0],"sum_hessian":[1.1395961E3,7.345345E2,4.0506165E2,1.2226673E2,6.1226776E2,1.0542291E2,2.9963873E2,9.345675E1,2.8809982E1,5.870308E2,2.523693E1,4.4589996E1,6.0832912E1,2.1715672E2,8.2482E1],"tree_param":{"num_deleted":"0","num_feature":"17","num_nodes":"15","size_leaf_vector":"1"}},{"base_weights":[-6.594755E-3,2.3260854E-1,-3.46731E-1,9.596498E-1,1.7654277E-1,5.136971E-2,-4.9414173E-1,1.5402238E-1,2.9660309E-2,6.8880595E-2,1.1424224E-2,-6.1156172E-2,2.6363079E-2,-3.790869E-2,-7.654605E-2],"categories":[0],"categories_nodes":[2],"categories_segments":[0],"categories_sizes":[1],"default_left":[0,0,1,0,0,0,0,0,0,0,0,0,0,0,0],"id":7,"left_children":[1,3,5,7,9,11,13,-1,-1,-1,-1,-1,-1,-1,-1],"loss_changes":[9.266207E1,2.7087029E1,2.7620403E1,1.7884907E1,1.9772732E1,1.8168911E1,1.0425064E1,0E0,0E0,0E0,0E0,0E0,0E0,0E0,0E0],"parents":[2147483647,0,0,1,1,2,2,3,3,4,4,5,5,6,6],"right_children":[2,4,6,8,10,12,14,-1,-1,-1,-1,-1,-1,-1,-1],"split_conditions":[2.8927885E1,7.0514183E0,1E-45,4.25E0,1.17E2,2E0,2.55E1,1.5402238E-1,2.9660309E-2,6.8880595E-2,1.1424224E-2,-6.1156172E-2,2.6363079E-2,-3.790869E-2,-7.654605E-2],"split_indices":[2,2,14,1,16,13,1,0,0,0,0,0,0,0,0],"split_type":[0,0,1,0,0,0,0,0,0,0,0,0,0,0,0],"sum_hessian":[1.136899E3,6.6767084E2,4.6922827E2,4.6647385E1,6.2102344E2,1.2697316E2,3.422551E2,2.4165102E1,2.2482285E1,6.624781E1,5.5477563E2,3.033865E1,9.6634514E1,2.420213E2,1.00233795E2],"tree_param":{"num_deleted":"0","num_feature":"17","num_nodes":"15","size_leaf_vector":"1"}},{"base_weights":[-6.5944255E-3,1.7898333E-1,-3.8129583E-1,6.018731E-1,9.0909585E-2,-4.3449283E-1,5.1847637E-1,7.215124E-2,-6.1274325E-3,4.4584483E-2,-1.8321052E-3,-3.276622E-2,-7.930144E-2,1.7515373E-1,-7.2790295E-2],"categories":[2,0],"categories_nodes":[2,4],"categories_segments":[0,1],"categories_sizes":[1,1],"default_left":[0,0,1,1,1,0,0,0,0,0,0,0,0,0,0],"id":8,"left_children":[1,3,5,7,9,11,13,-1,-1,-1,-1,-1,-1,-1,-1],"loss_changes":[7.904329E1,2.8260643E1,1.8246674E1,1.0426643E1,2.4447632E1,1.3376503E1,3.427636E1,0E0,0E0,0E0,0E0,0E0,0E0,0E0,0E0],"parents":[2147483647,0,0,1,1,2,2,3,3,4,4,5,5,6,6],"right_children":[2,4,6,8,10,12,14,-1,-1,-1,-1,-1,-1,-1,-1],"split_conditions":[1.445E1,3E0,1E-45,1.2196854E2,1E-45,2.8333334E1,3.2E2,7.215124E-2,-6.1274325E-3,4.4584483E-2,-1.8321052E-3,-3.276622E-2,-7.930144E-2,1.7515373E-1,-7.2790295E-2],"split_indices":[1,11,14,8,14,1,16,0,0,0,0,0,0,0,0],"split_type":[0,0,1,0,1,0,0,0,0,0,0,0,0,0,0],"sum_hessian":[1.1347393E3,7.59236E2,3.7550327E2,1.2986243E2,6.293736E2,3.5503003E2,2.0473248E1,1.0993998E2,1.992244E1,1.4738322E2,4.819904E2,2.7500052E2,8.002951E1,1.0087872E1,1.0385376E1],"tree_param":{"num_deleted":"0","num_feature":"17","num_nodes":"15","size_leaf_vector":"1"}},{"base_weights":[-6.5641105E-3,1.9107556E-1,-3.0918092E-1,7.378376E-1,1.3953719E-1,4.21894E-2,-4.4928402E-1,1.15022115E-1,2.5190208E-2,3.0678451E-2,-4.086706E-3,-5.851492E-2,2.2988265E-2,-1.0189443E-1,-3.9349586E-2],"categories":[0,1,3],"categories_nodes":[2,4],"categories_segments":[0,1],"categories_sizes":[1,2],"default_left":[0,0,1,0,1,0,0,0,0,0,0,0,0,0,0],"id":9,"left_children":[1,3,5,7,9,11,13,-1,-1,-1,-1,-1,-1,-1,-1],"loss_changes":[6.781292E1,1.922508E1,2.2070114E1,1.1503475E1,1.8962017E1,1.5277627E1,9.779297E0,0E0,0E0,0E0,0E0,0E0,0E0,0E0,0E0],"parents":[2147483647,0,0,1,1,2,2,3,3,4,4,5,5,6,6],"right_children":[2,4,6,8,10,12,14,-1,-1,-1,-1,-1,-1,-1,-1],"split_conditions":[2.8927885E1,7.2077312E0,1E-45,4.25E0,1E-45,2E0,2.8333334E1,1.15022115E-1,2.5190208E-2,3.0678451E-2,-4.086706E-3,-5.851492E-2,2.2988265E-2,-1.0189443E-1,-3.9349586E-2],"split_indices":[2,2,14,1,5,13,0,0,0,0,0,0,0,0,0],"split_type":[0,0,1,0,1,0,0,0,0,0,0,0,0,0,0],"sum_hessian":[1.1318353E3,6.8489655E2,4.469388E2,5.7850792E1,6.270458E2,1.2760696E2,3.1933185E2,3.0554256E1,2.7296535E1,3.2502466E2,3.020211E2,2.8898884E1,9.870807E1,2.6943523E1,2.923883E2],"tree_param":{"num_deleted":"0","num_feature":"17","num_nodes":"15","size_leaf_vector":"1"}},{"base_weights":[-6.4990693E-3,1.486299E-1,-3.4264877E-1,-2.9934552E-1,2.1453317E-1,1.1977747E-1,-4.4029585E-1,-3.468619E-2,1.5163733E-1,3.669958E-2,4.563245E-3,-1.2182637E-2,1.734062E-1,-4.603552E-2,1.8555947E-1],"categories":[1,3,2],"categories_nodes":[4,5],"categories_segments":[0,2],"categories_sizes":[2,1],"default_left":[0,0,0,1,1,1,0,0,0,0,0,0,0,0,0],"id":10,"left_children":[1,3,5,7,9,11,13,-1,-1,-1,-1,-1,-1,-1,-1],"loss_changes":[5.9009953E1,2.2924519E1,1.6187374E1,9.129585E0,1.7380634E1,2.4815037E1,1.4451073E1,0E0,0E0,0E0,0E0,0E0,0E0,0E0,0E0],"parents":[2147483647,0,0,1,1,2,2,3,3,4,4,5,5,6,6],"right_children":[2,4,6,8,10,12,14,-1,-1,-1,-1,-1,-1,-1,-1],"split_conditions":[1.445E1,5.3E1,1.7E2,1.07E2,1E-45,1E-45,1E0,-3.468619E-2,1.5163733E-1,3.669958E-2,4.563245E-3,-1.2182637E-2,1.734062E-1,-4.603552E-2,1.8555947E-1],"split_indices":[1,0,16,11,5,14,4,0,0,0,0,0,0,0,0],"split_type":[0,0,0,0,1,1,0,0,0,0,0,0,0,0,0],"sum_hessian":[1.1296407E3,7.733206E2,3.5632016E2,9.872157E1,6.7459906E2,6.208382E1,2.9423633E2,9.699231E1,1.7292683E0,3.5393634E2,3.2066272E2,5.480578E1,7.278041E0,2.924804E2,1.7559346E0],"tree_param":{"num_deleted":"0","num_feature":"17","num_nodes":"15","size_leaf_vector":"1"}},{"base_weights":[-6.012057E-3,1.03283264E-1,-4.173955E-1,2.3494394E-2,4.123757E-1,-4.7793794E-1,3.9878318E-1,6.0551476E-2,-2.2330626E-3,8.4819436E-2,1.0070712E-2,1.6695611E-2,-5.4065395E-2,1.3262935E-1,-8.169508E-2],"categories":[2,0,1,3,4],"categories_nodes":[2,5],"categories_segments":[0,1],"categories_sizes":[1,4],"default_left":[0,0,1,0,1,1,0,0,0,0,0,0,0,0,0],"id":11,"left_children":[1,3,5,7,9,11,13,-1,-1,-1,-1,-1,-1,-1,-1],"loss_changes":[5.0762283E1,2.1990269E1,1.1900799E1,1.8952316E1,2.4767187E1,9.031631E0,2.0151558E1,0E0,0E0,0E0,0E0,0E0,0E0,0E0,0E0],"parents":[2147483647,0,0,1,1,2,2,3,3,4,4,5,5,6,6],"right_children":[2,4,6,8,10,12,14,-1,-1,-1,-1,-1,-1,-1,-1],"split_conditions":[1.8983334E1,1.4376714E1,1E-45,7.8E1,8.977696E1,1E-45,3.2E2,6.0551476E-2,-2.2330626E-3,8.4819436E-2,1.0070712E-2,1.6695611E-2,-5.4065395E-2,1.3262935E-1,-8.169508E-2],"split_indices":[1,9,14,16,8,5,16,0,0,0,0,0,0,0,0],"split_type":[0,0,1,0,0,1,0,0,0,0,0,0,0,0,0],"sum_hessian":[1.1270381E3,8.910541E2,2.3598407E2,7.090869E2,1.8196713E2,2.2007387E2,1.5910201E1,5.086321E1,6.582237E2,7.5154335E1,1.0681279E2,1.9357988E1,2.0071588E2,8.973318E0,6.936883E0],"tree_param":{"num_deleted":"0","num_feature":"17","num_nodes":"15","size_leaf_vector":"1"}},{"base_weights":[-5.798191E-3,9.218979E-2,-3.916667E-1,3.5270768E-1,4.537858E-3,-4.502436E-1,3.506595E-1,1.2970726E-1,2.1606905E-2,-4.8593163E-2,7.3509575E-3,1.4887102E-2,-5.1224437E-2,1.1117703E-1,-7.9510055E-2],"categories":[0,2,0,1,3,4],"categories_nodes":[1,2,5],"categories_segments":[0,1,2],"categories_sizes":[1,1,4],"default_left":[0,1,1,0,0,1,0,0,0,0,0,0,0,0,0],"id":12,"left_children":[1,3,5,7,9,11,13,-1,-1,-1,-1,-1,-1,-1,-1],"loss_changes":[4.2590397E1,2.0512123E1,1.00769615E1,2.8901009E1,2.2809175E1,7.9461746E0,1.5923377E1,0E0,0E0,0E0,0E0,0E0,0E0,0E0,0E0],"parents":[2147483647,0,0,1,1,2,2,3,3,4,4,5,5,6,6],"right_children":[2,4,6,8,10,12,14,-1,-1,-1,-1,-1,-1,-1,-1],"split_conditions":[1.8983334E1,1E-45,1E-45,7.3E1,5.1666668E1,1E-45,3.2E2,1.2970726E-1,2.1606905E-2,-4.8593163E-2,7.3509575E-3,1.4887102E-2,-5.1224437E-2,1.1117703E-1,-7.9510055E-2],"split_indices":[1,14,14,16,0,5,16,0,0,0,0,0,0,0,0],"split_type":[0,1,1,0,0,1,0,0,0,0,0,0,0,0,0],"sum_hessian":[1.1244629E3,8.973498E2,2.2711314E2,2.2514699E2,6.7220276E2,2.1086713E2,1.6246033E1,2.7385052E1,1.9776193E2,8.212841E1,5.9007434E2,1.9644148E1,1.9122298E2,9.779395E0,6.4666367E0],"tree_param":{"num_deleted":"0","num_feature":"17","num_nodes":"15","size_leaf_vector":"1"}},{"base_weights":[-5.6491173E-3,1.1157823E-1,-2.7989534E-1,7.8378014E-2,7.92903E-1,1.2504378E-1,-3.7297767E-1,-3.594355E-2,1.3423699E-2,2.327408E-1,-2.1310408E-2,-2.7683368E-2,5.584628E-2,-2.602329E-2,-7.642891E-2],"categories":[2],"categories_nodes":[1],"categories_segments":[0],"categories_sizes":[1],"default_left":[0,1,0,0,0,0,0,0,0,0,0,0,0,0,0],"id":13,"left_children":[1,3,5,7,9,11,13,-1,-1,-1,-1,-1,-1,-1,-1],"loss_changes":[3.6135944E1,1.775024E1,1.2733259E1,1.8438484E1,5.680993E1,1.1242502E1,1.1886127E1,0E0,0E0,0E0,0E0,0E0,0E0,0E0,0E0],"parents":[2147483647,0,0,1,1,2,2,3,3,4,4,5,5,6,6],"right_children":[2,4,6,8,10,12,14,-1,-1,-1,-1,-1,-1,-1,-1],"split_conditions":[1.4166667E1,1E-45,1.7E2,5.2E1,2.64E2,3E0,2.805E1,-3.594355E-2,1.3423699E-2,2.327408E-1,-2.1310408E-2,-2.7683368E-2,5.584628E-2,-2.602329E-2,-7.642891E-2],"split_indices":[1,14,16,0,16,13,1,0,0,0,0,0,0,0,0],"split_type":[0,1,0,0,0,0,0,0,0,0,0,0,0,0,0],"sum_hessian":[1.1220377E3,7.8645734E2,3.3558038E2,7.50978E2,3.5479313E1,6.265723E1,2.7292313E2,8.435813E1,6.6661993E2,1.3529176E1,2.1950136E1,3.2699074E1,2.9958157E1,2.1316966E2,5.9753483E1],"tree_param":{"num_deleted":"0","num_feature":"17","num_nodes":"15","size_leaf_vector":"1"}},{"base_weights":[-5.5406243E-3,7.438763E-2,-3.453234E-1,3.74558E-1,1.3576843E-2,-4.023344E-1,3.2582593E-1,1.9805016E-2,7.106301E-2,2.5985388E-2,-7.0583546E-3,-2.0605063E-2,-5.9927672E-2,9.424371E-2,-7.61038E-2],"categories":[2,0,1,3],"categories_nodes":[2,4,5],"categories_segments":[0,1,2],"categories_sizes":[1,1,2],"default_left":[0,0,1,0,1,1,0,0,0,0,0,0,0,0,0],"id":14,"left_children":[1,3,5,7,9,11,13,-1,-1,-1,-1,-1,-1,-1,-1],"loss_changes":[3.04625E1,1.6571325E1,8.304169E0,8.931776E0,1.5691382E1,7.5044937E0,1.2295466E1,0E0,0E0,0E0,0E0,0E0,0E0,0E0,0E0],"parents":[2147483647,0,0,1,1,2,2,3,3,4,4,5,5,6,6],"right_children":[2,4,6,8,10,12,14,-1,-1,-1,-1,-1,-1,-1,-1],"split_conditions":[1.8983334E1,3E0,1E-45,1.151732E1,1E-45,1E-45,3.2E2,1.9805016E-2,7.106301E-2,2.5985388E-2,-7.0583546E-3,-2.0605063E-2,-5.9927672E-2,9.424371E-2,-7.61038E-2],"split_indices":[1,11,14,3,14,5,16,0,0,0,0,0,0,0,0],"split_type":[0,0,1,0,1,1,0,0,0,0,0,0,0,0,0],"sum_hessian":[1.1197207E3,9.071175E2,2.1260324E2,1.5194362E2,7.551739E2,1.9632674E2,1.6276503E1,1.0066359E2,5.1280037E1,1.9180647E2,5.6336743E2,9.93526E1,9.6974144E1,1.046964E1,5.8068633E0],"tree_param":{"num_deleted":"0","num_feature":"17","num_nodes":"15","size_leaf_vector":"1"}},{"base_weights":[-5.2887886E-3,1.0997843E-1,-2.1400848E-1,5.312837E-1,6.842098E-2,1.2530635E-2,-3.7933117E-1,2.6591843E-2,9.989049E-2,1.1887158E-2,-3.6109034E-2,5.084151E-2,-1.2599225E-2,-4.0791918E-2,1.8481793E-1],"categories":[0,1,3,3],"categories_nodes":[2,4],"categories_segments":[0,3],"categories_sizes":[3,1],"default_left":[0,0,1,0,1,0,0,0,0,0,0,0,0,0,0],"id":15,"left_children":[1,3,5,7,9,11,13,-1,-1,-1,-1,-1,-1,-1,-1],"loss_changes":[2.6924706E1,1.2587209E1,1.4916424E1,7.7489014E0,1.4288516E1,1.1669128E1,1.5413609E1,0E0,0E0,0E0,0E0,0E0,0E0,0E0,0E0],"parents":[2147483647,0,0,1,1,2,2,3,3,4,4,5,5,6,6],"right_children":[2,4,6,8,10,12,14,-1,-1,-1,-1,-1,-1,-1,-1],"split_conditions":[2.8927885E1,7.2077312E0,1E-45,9.780595E0,1E-45,1.97E2,1.7084789E3,2.6591843E-2,9.989049E-2,1.1887158E-2,-3.6109034E-2,5.084151E-2,-1.2599225E-2,-4.0791918E-2,1.8481793E-1],"split_indices":[2,2,5,9,5,16,9,0,0,0,0,0,0,0,0],"split_type":[0,0,1,0,1,0,0,0,0,0,0,0,0,0,0],"sum_hessian":[1.1171548E3,7.2000116E2,3.9715366E2,6.358622E1,6.564149E2,1.6794518E2,2.2920847E2,4.156667E1,2.201955E1,5.880639E2,6.835102E1,3.608779E1,1.3185739E2,2.2711058E2,2.0978794E0],"tree_param":{"num_deleted":"0","num_feature":"17","num_nodes":"15","size_leaf_vector":"1"}},{"base_weights":[-4.855192E-3,4.1694507E-2,-4.7449163E-1,-2.3319723E-2,2.9064608E-1,-2.5785558E-2,-6.520782E-1,1.4258521E-2,-1.4825455E-2,4.884462E-2,-1.1302567E-2,9.15016E-2,-4.683665E-2,-8.651488E-2,-3.7359282E-2],"categories":[1],"categories_nodes":[4],"categories_segments":[0],"categories_sizes":[1],"default_left":[0,0,0,0,0,0,0,0,0,0,0,0,0,0,0],"id":16,"left_children":[1,3,5,7,9,11,13,-1,-1,-1,-1,-1,-1,-1,-1],"loss_changes":[2.4418661E1,1.6456663E1,8.009605E0,1.6744108E1,1.6865444E1,1.27546E1,3.956482E0,0E0,0E0,0E0,0E0,0E0,0E0,0E0,0E0],"parents":[2147483647,0,0,1,1,2,2,3,3,4,4,5,5,6,6],"right_children":[2,4,6,8,10,12,14,-1,-1,-1,-1,-1,-1,-1,-1],"split_conditions":[2.5216667E1,1.4376714E1,2.42E2,6.516667E0,1E-45,3.7333332E1,2.00001E0,1.4258521E-2,-1.4825455E-2,4.884462E-2,-1.1302567E-2,9.15016E-2,-4.683665E-2,-8.651488E-2,-3.7359282E-2],"split_indices":[1,9,16,1,6,0,7,0,0,0,0,0,0,0,0],"split_type":[0,0,0,0,1,0,0,0,0,0,0,0,0,0,0],"sum_hessian":[1.1150692E3,1.01534125E3,9.972797E1,8.0580884E2,2.0953236E2,2.8602795E1,7.1125175E1,3.4608728E2,4.597216E2,1.4048457E2,6.904779E1,8.80929E0,1.9793505E1,3.910166E1,3.2023514E1],"tree_param":{"num_deleted":"0","num_feature":"17","num_nodes":"15","size_leaf_vector":"1"}},{"base_weights":[-4.7617103E-3,3.6547106E-2,-4.5770508E-1,1.5320405E-1,-9.586615E-2,1.6692816E-3,-6.449046E-1,8.708617E-4,4.0927228E-2,-1.1506959E-2,1.361811E-1,4.6019085E-2,-7.360231E-2,-8.439167E-2,-3.8885113E-2],"categories":[1,3],"categories_nodes":[1],"categories_segments":[0],"categories_sizes":[2],"default_left":[0,1,0,0,1,0,0,0,0,0,0,0,0,0,0],"id":17,"left_children":[1,3,5,7,9,11,13,-1,-1,-1,-1,-1,-1,-1,-1],"loss_changes":[2.0863188E1,1.5800857E1,8.0152E0,2.0113369E1,1.3572651E1,9.802626E0,3.0459614E0,0E0,0E0,0E0,0E0,0E0,0E0,0E0,0E0],"parents":[2147483647,0,0,1,1,2,2,3,3,4,4,5,5,6,6],"right_children":[2,4,6,8,10,12,14,-1,-1,-1,-1,-1,-1,-1,-1],"split_conditions":[2.55E1,1E-45,2.42E2,3E0,1.7084789E3,5.6666668E1,2.00001E0,8.708617E-4,4.0927228E-2,-1.1506959E-2,1.361811E-1,4.6019085E-2,-7.360231E-2,-8.439167E-2,-3.8885113E-2],"split_indices":[1,5,16,13,9,0,7,0,0,0,0,0,0,0,0],"split_type":[0,1,0,0,0,0,0,0,0,0,0,0,0,0,0],"sum_hessian":[1.1131552E3,1.0209619E3,9.2193275E1,5.426908E2,4.7827112E2,2.6979229E1,6.521404E1,3.4758682E2,1.9510397E2,4.729614E2,5.309731E0,1.6869785E1,1.0109443E1,3.5402412E1,2.981163E1],"tree_param":{"num_deleted":"0","num_feature":"17","num_nodes":"15","size_leaf_vector":"1"}},{"base_weights":[-4.5942254E-3,1.7709014E-1,-9.8438054E-2,1.199851E-1,6.2458444E-1,-1.33597E-1,4.8170203E-1,8.250428E-3,1.1478018E-1,1.4381666E-1,3.472906E-2,-9.211806E-3,-6.360366E-2,1.5927234E-1,-2.5356559E-3],"categories":[2],"categories_nodes":[2],"categories_segments":[0],"categories_sizes":[1],"default_left":[0,0,1,0,0,0,0,0,0,0,0,0,0,0,0],"id":18,"left_children":[1,3,5,7,9,11,13,-1,-1,-1,-1,-1,-1,-1,-1],"loss_changes":[1.8995575E1,9.622142E0,1.504846E1,1.291716E1,9.135214E0,1.4392842E1,2.3810585E1,0E0,0E0,0E0,0E0,0E0,0E0,0E0,0E0],"parents":[2147483647,0,0,1,1,2,2,3,3,4,4,5,5,6,6],"right_children":[2,4,6,8,10,12,14,-1,-1,-1,-1,-1,-1,-1,-1],"split_conditions":[5.6666665E0,5.4E1,1E-45,8.5333336E1,6.1E1,2.8333334E1,1.31E2,8.250428E-3,1.1478018E-1,1.4381666E-1,3.472906E-2,-9.211806E-3,-6.360366E-2,1.5927234E-1,-2.5356559E-3],"split_indices":[1,11,14,0,11,1,16,0,0,0,0,0,0,0,0],"split_type":[0,0,1,0,0,0,0,0,0,0,0,0,0,0,0],"sum_hessian":[1.1120903E3,3.7847153E2,7.3361884E2,3.3676486E2,4.170665E1,6.924247E2,4.119416E1,3.259586E2,1.080628E1,9.537405E0,3.2169247E1,6.407138E2,5.1710865E1,1.2238078E1,2.8956081E1],"tree_param":{"num_deleted":"0","num_feature":"17","num_nodes":"15","size_leaf_vector":"1"}},{"base_weights":[-4.1068024E-3,1.1451862E-1,-1.3334791E-1,8.694842E-2,6.804528E-1,9.828005E-2,-2.3243424E-1,2.0147769E-2,-4.0298807E-3,1.4791273E-1,-8.53416E-3,3.6328863E-2,-1.8271558E-2,-9.914321E-2,-1.8821556E-2],"categories":[2,0,1,3],"categories_nodes":[1,2,3],"categories_segments":[0,1,2],"categories_sizes":[1,1,2],"default_left":[0,1,1,1,0,1,0,0,0,0,0,0,0,0,0],"id":19,"left_children":[1,3,5,7,9,11,13,-1,-1,-1,-1,-1,-1,-1,-1],"loss_changes":[1.7048317E1,8.987858E0,1.223678E1,8.082443E0,1.6510578E1,1.1992008E1,1.2332739E1,0E0,0E0,0E0,0E0,0E0,0E0,0E0,0E0],"parents":[2147483647,0,0,1,1,2,2,3,3,4,4,5,5,6,6],"right_children":[2,4,6,8,10,12,14,-1,-1,-1,-1,-1,-1,-1,-1],"split_conditions":[2.135026E1,1E-45,1E-45,1E-45,3.58E2,9.157462E1,2.8333334E1,2.0147769E-2,-4.0298807E-3,1.4791273E-1,-8.53416E-3,3.6328863E-2,-1.8271558E-2,-9.914321E-2,-1.8821556E-2],"split_indices":[2,14,14,5,16,8,0,0,0,0,0,0,0,0,0],"split_type":[0,1,1,1,0,0,0,0,0,0,0,0,0,0,0],"sum_hessian":[1.1099994E3,5.788288E2,5.3117065E2,5.5304034E2,2.5788427E1,1.5914812E2,3.7202255E2,2.9075873E2,2.6228165E2,1.2167262E1,1.3621165E1,8.175327E1,7.7394844E1,1.9301317E1,3.5272122E2],"tree_param":{"num_deleted":"0","num_feature":"17","num_nodes":"15","size_leaf_vector":"1"}},{"base_weights":[-3.933635E-3,3.0062573E-2,-3.9656478E-1,-2.7327728E-2,2.4475801E-1,-9.203858E-3,-5.7324374E-1,1.5052456E-3,-4.120963E-2,5.3310223E-2,3.0400087E-3,4.2353615E-2,-7.402443E-2,-8.172142E-2,-2.817659E-2],"categories":[],"categories_nodes":[],"categories_segments":[],"categories_sizes":[],"default_left":[0,0,0,0,1,0,0,0,0,0,0,0,0,0,0],"id":20,"left_children":[1,3,5,7,9,11,13,-1,-1,-1,-1,-1,-1,-1,-1],"loss_changes":[1.4816091E1,1.2594826E1,6.0480957E0,1.3166448E1,1.3309371E1,9.399794E0,4.088196E0,0E0,0E0,0E0,0E0,0E0,0E0,0E0,0E0],"parents":[2147483647,0,0,1,1,2,2,3,3,4,4,5,5,6,6],"right_children":[2,4,6,8,10,12,14,-1,-1,-1,-1,-1,-1,-1,-1],"split_conditions":[2.5216667E1,1.4376714E1,2.42E2,4.3076057E1,9.157462E1,5.6666668E1,2.00001E0,1.5052456E-3,-4.120963E-2,5.3310223E-2,3.0400087E-3,4.2353615E-2,-7.402443E-2,-8.172142E-2,-2.817659E-2],"split_indices":[1,9,16,3,8,0,7,0,0,0,0,0,0,0,0],"split_type":[0,0,0,0,0,0,0,0,0,0,0,0,0,0,0],"sum_hessian":[1.1080951E3,1.0206453E3,8.744977E1,8.0605206E2,2.1459329E2,2.7722178E1,5.972759E1,7.26944E2,7.910808E1,9.087097E1,1.2372232E2,1.7678194E1,1.0043983E1,3.1531582E1,2.8196007E1],"tree_param":{"num_deleted":"0","num_feature":"17","num_nodes":"15","size_leaf_vector":"1"}},{"base_weights":[-3.9030963E-3,6.039943E-2,-1.9990885E-1,1.6061598E-1,-5.6763887E-2,-3.7686595E-1,8.7720476E-2,6.172232E-3,3.313526E-2,1.2971601E-1,-7.5929845E-3,-4.7958285E-2,6.46367E-3,-7.249012E-3,1.1131295E-1],"categories":[1,3,2],"categories_nodes":[1,6],"categories_segments":[0,2],"categories_sizes":[2,1],"default_left":[0,1,0,0,0,0,1,0,0,0,0,0,0,0,0],"id":21,"left_children":[1,3,5,7,9,11,13,-1,-1,-1,-1,-1,-1,-1,-1],"loss_changes":[1.3971413E1,9.810326E0,1.3970316E1,7.5804996E0,1.010371E1,7.727646E0,1.734824E1,0E0,0E0,0E0,0E0,0E0,0E0,0E0,0E0],"parents":[2147483647,0,0,1,1,2,2,3,3,4,4,5,5,6,6],"right_children":[2,4,6,8,10,12,14,-1,-1,-1,-1,-1,-1,-1,-1],"split_conditions":[3.6083252E1,1E-45,3E0,3E0,4.9018135E0,1.2781489E1,1E-45,6.172232E-3,3.313526E-2,1.2971601E-1,-7.5929845E-3,-4.7958285E-2,6.46367E-3,-7.249012E-3,1.1131295E-1],"split_indices":[2,5,13,13,2,9,14,0,0,0,0,0,0,0,0],"split_type":[0,1,0,0,0,0,1,0,0,0,0,0,0,0,0],"sum_hessian":[1.1065618E3,8.337348E2,2.7282693E2,4.4916617E2,3.8456866E2,1.6871735E2,1.041096E2,2.8528534E2,1.6388083E2,4.4371696E0,3.801315E2,1.3680339E2,3.191396E1,9.0845184E1,1.3264407E1],"tree_param":{"num_deleted":"0","num_feature":"17","num_nodes":"15","size_leaf_vector":"1"}},{"base_weights":[-3.5734817E-3,2.987298E-2,-3.6648872E-1,3.2941228E-1,-3.0875335E-2,-9.06144E-2,-6.2815905E-1,-1.3702448E-3,8.291981E-2,8.986096E-3,-1.8365702E-2,-3.3837825E-2,4.367755E-2,-7.06462E-2,2.296697E-3],"categories":[1,2],"categories_nodes":[2],"categories_segments":[0],"categories_sizes":[2],"default_left":[0,0,1,0,0,0,0,0,0,0,0,0,0,0,0],"id":22,"left_children":[1,3,5,7,9,11,13,-1,-1,-1,-1,-1,-1,-1,-1],"loss_changes":[1.3431557E1,1.844822E1,6.6835766E0,2.932386E1,1.5572992E1,6.2397966E0,2.4508686E0,0E0,0E0,0E0,0E0,0E0,0E0,0E0,0E0],"parents":[2147483647,0,0,1,1,2,2,3,3,4,4,5,5,6,6],"right_children":[2,4,6,8,10,12,14,-1,-1,-1,-1,-1,-1,-1,-1],"split_conditions":[1E0,1.7E2,1E-45,3E0,9.066667E0,6.52E2,8.3666664E1,-1.3702448E-3,8.291981E-2,8.986096E-3,-1.8365702E-2,-3.3837825E-2,4.367755E-2,-7.06462E-2,2.296697E-3],"split_indices":[15,16,6,13,1,16,0,0,0,0,0,0,0,0,0],"split_type":[0,0,1,0,0,0,0,0,0,0,0,0,0,0,0],"sum_hessian":[1.104648E3,1.012274E3,9.237402E1,1.6993443E2,8.4233954E2,4.5621933E1,4.675209E1,1.01336876E2,6.8597565E1,4.7074408E2,3.7159546E2,3.1283546E1,1.4338387E1,4.165747E1,5.0946183E0],"tree_param":{"num_deleted":"0","num_feature":"17","num_nodes":"15","size_leaf_vector":"1"}},{"base_weights":[-3.5139094E-3,1.9425495E-2,-4.69373E-1,1.10140935E-1,-8.8270284E-2,-8.012464E-2,-7.250995E-1,2.1742604E-5,2.9222874E-2,-1.0549963E-2,1.11895956E-1,9.14663E-2,-3.7002884E-2,-7.750894E-2,9.6881E-3],"categories":[1,3],"categories_nodes":[1],"categories_segments":[0],"categories_sizes":[2],"default_left":[0,1,0,0,1,0,0,0,0,0,0,0,0,0,0],"id":23,"left_children":[1,3,5,7,9,11,13,-1,-1,-1,-1,-1,-1,-1,-1],"loss_changes":[1.1809093E1,1.03004265E1,5.1040688E0,1.1452611E1,1.0146625E1,6.592573E0,1.3560352E0,0E0,0E0,0E0,0E0,0E0,0E0,0E0,0E0],"parents":[2147483647,0,0,1,1,2,2,3,3,4,4,5,5,6,6],"right_children":[2,4,6,8,10,12,14,-1,-1,-1,-1,-1,-1,-1,-1],"split_conditions":[2.8333334E1,1E-45,3.8666668E1,3E0,1.7084789E3,1.08E2,7.546753E1,2.1742604E-5,2.9222874E-2,-1.0549963E-2,1.11895956E-1,9.14663E-2,-3.7002884E-2,-7.750894E-2,9.6881E-3],"split_indices":[1,5,0,13,9,16,3,0,0,0,0,0,0,0,0],"split_type":[0,1,0,0,0,0,0,0,0,0,0,0,0,0,0],"sum_hessian":[1.1031915E3,1.0523318E3,5.0859653E1,5.711837E2,4.8114813E2,2.0686098E1,3.0173555E1,3.56794E2,2.1438968E2,4.7527768E2,5.8704586E0,4.181725E0,1.6504374E1,2.8497488E1,1.6760678E0],"tree_param":{"num_deleted":"0","num_feature":"17","num_nodes":"15","size_leaf_vector":"1"}},{"base_weights":[-3.2493563E-3,2.7120316E-2,-3.422733E-1,2.8691325E-1,-2.704128E-2,-8.4025994E-2,-5.9829044E-1,-6.8805134E-4,6.866966E-2,3.186019E-3,-3.0595422E-2,-3.156666E-2,3.8291536E-2,-6.77484E-2,2.4813155E-3],"categories":[1,2],"categories_nodes":[2],"categories_segments":[0],"categories_sizes":[2],"default_left":[0,0,1,0,0,0,0,0,0,0,0,0,0,0,0],"id":24,"left_children":[1,3,5,7,9,11,13,-1,-1,-1,-1,-1,-1,-1,-1],"loss_changes":[1.1366884E1,1.4266239E1,5.9507236E0,2.0547558E1,1.3800339E1,5.13411E0,2.2578926E0,0E0,0E0,0E0,0E0,0E0,0E0,0E0,0E0],"parents":[2147483647,0,0,1,1,2,2,3,3,4,4,5,5,6,6],"right_children":[2,4,6,8,10,12,14,-1,-1,-1,-1,-1,-1,-1,-1],"split_conditions":[1E0,1.7E2,1E-45,3E0,4.1829155E1,6.52E2,8.3666664E1,-6.8805134E-4,6.866966E-2,3.186019E-3,-3.0595422E-2,-3.156666E-2,3.8291536E-2,-6.77484E-2,2.4813155E-3],"split_indices":[15,16,6,13,2,16,0,0,0,0,0,0,0,0,0],"split_type":[0,0,1,0,0,0,0,0,0,0,0,0,0,0,0],"sum_hessian":[1.1021033E3,1.01233826E3,8.9764984E1,1.7390132E2,8.3843695E2,4.5349075E1,4.4415905E1,1.0080459E2,7.309673E1,6.92978E2,1.4545891E2,3.0528461E1,1.4820615E1,3.932998E1,5.085927E0],"tree_param":{"num_deleted":"0","num_feature":"17","num_nodes":"15","size_leaf_vector":"1"}},{"base_weights":[-3.1902893E-3,-5.811163E-2,1.7142738E-1,-1.6009975E-2,-4.3084094E-1,4.2188382E-1,-5.3232475E-3,6.616668E-3,-2.5086895E-2,5.0575357E-2,-4.9415525E-2,2.554578E-2,1.04055636E-1,5.1837385E-2,-2.6471347E-2],"categories":[1,2,3],"categories_nodes":[6],"categories_segments":[0],"categories_sizes":[3],"default_left":[0,0,1,0,0,1,1,0,0,0,0,0,0,0,0],"id":25,"left_children":[1,3,5,7,9,11,13,-1,-1,-1,-1,-1,-1,-1,-1],"loss_changes":[1.0575958E1,1.3157238E1,1.1683133E1,1.4583783E1,5.2963495E0,1.0976006E1,2.1285439E1,0E0,0E0,0E0,0E0,0E0,0E0,0E0,0E0],"parents":[2147483647,0,0,1,1,2,2,3,3,4,4,5,5,6,6],"right_children":[2,4,6,8,10,12,14,-1,-1,-1,-1,-1,-1,-1,-1],"split_conditions":[1.2200421E1,4.3076057E1,9.157462E1,3.678067E1,6.3823543E0,5.8363087E1,1E-45,6.616668E-3,-2.5086895E-2,5.0575357E-2,-4.9415525E-2,2.554578E-2,1.04055636E-1,5.1837385E-2,-2.6471347E-2],"split_indices":[9,3,8,2,2,8,6,0,0,0,0,0,0,0,0],"split_type":[0,0,0,0,0,0,1,0,0,0,0,0,0,0,0],"sum_hessian":[1.1007451E3,8.3787964E2,2.6286554E2,7.537794E2,8.410023E1,1.0818294E2,1.5468259E2,5.5892944E2,1.9484996E2,4.8827543E0,7.9217476E1,8.636361E1,2.1819332E1,5.0906414E1,1.0377618E2],"tree_param":{"num_deleted":"0","num_feature":"17","num_nodes":"15","size_leaf_vector":"1"}},{"base_weights":[-3.0444558E-3,1.4992079E-1,-6.1746247E-2,1.2688722E-1,1.8007933E0,-9.768244E-2,-4.1498587E-2,6.0886223E-2,4.657523E-3,2.4651647E-1,-8.861671E-3,6.806372E-3,-1.7316205E-2],"categories":[0],"categories_nodes":[0],"categories_segments":[0],"categories_sizes":[1],"default_left":[1,0,0,0,0,0,0,0,0,0,0,0,0],"id":26,"left_children":[1,3,5,7,9,-1,11,-1,-1,-1,-1,-1,-1],"loss_changes":[9.887229E0,1.1383628E1,1.4702368E1,1.1671289E1,5.398082E0,0E0,1.1256643E1,0E0,0E0,0E0,0E0,0E0,0E0],"parents":[2147483647,0,0,1,1,2,2,3,3,4,4,6,6],"right_children":[2,4,6,8,10,-1,12,-1,-1,-1,-1,-1,-1],"split_conditions":[1E-45,1.162E3,2.8333334E1,6.9E1,1.4720486E1,-9.768244E-2,8.5E0,6.0886223E-2,4.657523E-3,2.4651647E-1,-8.861671E-3,6.806372E-3,-1.7316205E-2],"split_indices":[14,16,0,16,3,0,1,0,0,0,0,0,0],"split_type":[1,0,0,0,0,0,0,0,0,0,0,0,0],"sum_hessian":[1.0990785E3,3.0437738E2,7.947011E2,3.012511E2,3.1263041E0,1.6180738E1,7.785204E2,4.2087975E1,2.5916312E2,2.087538E0,1.0387663E0,4.2518796E2,3.5333243E2],"tree_param":{"num_deleted":"0","num_feature":"17","num_nodes":"13","size_leaf_vector":"1"}},{"base_weights":[-2.766802E-3,2.499803E-2,-3.2066065E-1,2.4569988E-1,-2.2258103E-2,8.420294E-1,-3.71554E-1,1.141332E-2,1.0141262E-1,-8.173211E-2,-5.5581547E-4,1.613166E-1,-2.9105043E-2,-5.6434084E-2,-8.960264E-4],"categories":[2],"categories_nodes":[3],"categories_segments":[0],"categories_sizes":[1],"default_left":[0,0,0,1,0,0,0,0,0,0,0,0,0,0,0],"id":27,"left_children":[1,3,5,7,9,11,13,-1,-1,-1,-1,-1,-1,-1,-1],"loss_changes":[9.702821E0,1.0550779E1,5.5379086E0,1.7920126E1,1.1064985E1,3.9725792E0,5.957119E0,0E0,0E0,0E0,0E0,0E0,0E0,0E0,0E0],"parents":[2147483647,0,0,1,1,2,2,3,3,4,4,5,5,6,6],"right_children":[2,4,6,8,10,12,14,-1,-1,-1,-1,-1,-1,-1,-1],"split_conditions":[1E0,1.7E2,6.4898424E0,1E-45,2.9E1,7.0833335E0,6.33E2,1.141332E-2,1.0141262E-1,-8.173211E-2,-5.5581547E-4,1.613166E-1,-2.9105043E-2,-5.6434084E-2,-8.960264E-4],"split_indices":[15,16,8,14,0,1,16,0,0,0,0,0,0,0,0],"split_type":[0,0,0,1,0,0,0,0,0,0,0,0,0,0,0],"sum_hessian":[1.0974036E3,1.0101026E3,8.730095E1,1.7739758E2,8.32705E2,3.0091891E0,8.429176E1,1.5244511E2,2.4952475E1,1.6144505E1,8.1656055E2,1.5384625E0,1.4707266E0,5.466867E1,2.9623093E1],"tree_param":{"num_deleted":"0","num_feature":"17","num_nodes":"15","size_leaf_vector":"1"}},{"base_weights":[-2.5689628E-3,8.1212744E-2,-1.028478E-1,-6.739661E-3,2.2263123E-1,4.262073E-1,-1.379002E-1,3.4300204E-2,-7.353972E-3,2.8625492E-2,-2.2979032E-2,-1.0577186E-2,9.570634E-2,-1.03877615E-2,-5.4717284E-2],"categories":[1,3],"categories_nodes":[0],"categories_segments":[0],"categories_sizes":[2],"default_left":[1,0,0,0,0,0,0,0,0,0,0,0,0,0,0],"id":28,"left_children":[1,3,5,7,9,11,13,-1,-1,-1,-1,-1,-1,-1,-1],"loss_changes":[9.224315E0,7.4418025E0,9.326495E0,8.664356E0,6.669118E0,8.939904E0,6.4800797E0,0E0,0E0,0E0,0E0,0E0,0E0,0E0,0E0],"parents":[2147483647,0,0,1,1,2,2,3,3,4,4,5,5,6,6],"right_children":[2,4,6,8,10,12,14,-1,-1,-1,-1,-1,-1,-1,-1],"split_conditions":[1E-45,3E0,7.0514183E0,3E0,1E0,1E0,2.5783333E1,3.4300204E-2,-7.353972E-3,2.8625492E-2,-2.2979032E-2,-1.0577186E-2,9.570634E-2,-1.03877615E-2,-5.4717284E-2],"split_indices":[5,13,2,11,15,10,1,0,0,0,0,0,0,0,0],"split_type":[1,0,0,0,0,0,0,0,0,0,0,0,0,0,0],"sum_hessian":[1.0959382E3,5.971865E2,4.987517E2,3.6878214E2,2.2840437E2,3.0297934E1,4.684538E2,5.847785E1,3.103043E2,2.005662E2,2.7838179E1,1.5532912E1,1.476502E1,4.3365787E2,3.479591E1],"tree_param":{"num_deleted":"0","num_feature":"17","num_nodes":"15","size_leaf_vector":"1"}},{"base_weights":[-2.4459548E-3,1.5250829E-2,-4.055413E-1,1.8005261E-1,-2.3842443E-2,4.754109E-3,-6.8200487E-1,3.127275E-2,-1.9602109E-2,1.2319534E-2,-8.118249E-3,6.2334236E-2,-3.4328308E-2,-7.374205E-2,1.4134503E-2],"categories":[0],"categories_nodes":[4],"categories_segments":[0],"categories_sizes":[1],"default_left":[0,0,0,1,1,0,0,0,0,0,0,0,0,0,0],"id":29,"left_children":[1,3,5,7,9,11,13,-1,-1,-1,-1,-1,-1,-1,-1],"loss_changes":[7.8213153E0,6.7719264E0,5.2336655E0,1.0116297E1,7.1758323E0,4.4241314E0,1.361475E0,0E0,0E0,0E0,0E0,0E0,0E0,0E0,0E0],"parents":[2147483647,0,0,1,1,2,2,3,3,4,4,5,5,6,6],"right_children":[2,4,6,8,10,12,14,-1,-1,-1,-1,-1,-1,-1,-1],"split_conditions":[2.8333334E1,4E0,3.8666668E1,1.0056715E2,1E-45,1.7E2,7.546753E1,3.127275E-2,-1.9602109E-2,1.2319534E-2,-8.118249E-3,6.2334236E-2,-3.4328308E-2,-7.374205E-2,1.4134503E-2],"split_indices":[1,11,0,9,14,16,3,0,0,0,0,0,0,0,0],"split_type":[0,0,0,0,1,0,0,0,0,0,0,0,0,0,0],"sum_hessian":[1.0945548E3,1.049444E3,4.5110764E1,2.00521E2,8.4892303E2,1.8555553E1,2.6555212E1,1.483523E2,5.2168697E1,2.378508E2,6.110722E2,6.396188E0,1.2159365E1,2.4978407E1,1.5768061E0],"tree_param":{"num_deleted":"0","num_feature":"17","num_nodes":"15","size_leaf_vector":"1"}},{"base_weights":[-2.360876E-3,7.310877E-2,-9.3934745E-2,-7.58761E-1,8.57553E-2,-8.757771E-3,-2.7292663E-1,2.4313137E-2,-9.243537E-2,3.3958215E-2,3.9929408E-3,2.6734093E-2,-1.2078984E-2,-3.010933E-2,1.4088224E-1],"categories":[1,3],"categories_nodes":[0],"categories_segments":[0],"categories_sizes":[2],"default_left":[1,0,0,0,0,0,1,0,0,0,0,0,0,0,0],"id":30,"left_children":[1,3,5,7,9,11,13,-1,-1,-1,-1,-1,-1,-1,-1],"loss_changes":[7.568031E0,6.3807535E0,7.540321E0,1.7330723E0,6.8753247E0,1.043309E1,7.978902E0,0E0,0E0,0E0,0E0,0E0,0E0,0E0,0E0],"parents":[2147483647,0,0,1,1,2,2,3,3,4,4,5,5,6,6],"right_children":[2,4,6,8,10,12,14,-1,-1,-1,-1,-1,-1,-1,-1],"split_conditions":[1E-45,4E0,2.8927885E1,1.1616667E1,3E0,2E0,1.7084789E3,2.4313137E-2,-9.243537E-2,3.3958215E-2,3.9929408E-3,2.6734093E-2,-1.2078984E-2,-3.010933E-2,1.4088224E-1],"split_indices":[5,16,2,2,11,13,9,0,0,0,0,0,0,0,0],"split_type":[1,0,0,0,0,0,0,0,0,0,0,0,0,0,0],"sum_hessian":[1.0930691E3,5.99335E2,4.9373404E2,8.091491E0,5.912435E2,3.352482E2,1.5848582E2,1.0812583E0,7.010233E0,8.943856E1,5.01805E2,9.636762E1,2.3888058E2,1.566826E2,1.803221E0],"tree_param":{"num_deleted":"0","num_feature":"17","num_nodes":"15","size_leaf_vector":"1"}},{"base_weights":[-2.1925953E-3,2.1511588E-2,-2.845739E-1,2.1747859E-1,-2.1067599E-2,-4.6089362E-2,-5.37192E-1,-2.6129147E-3,5.308902E-2,-7.8936964E-2,-6.3962274E-4,1.0855328E-2,-7.0729576E-2,2.368184E-2,-6.000225E-2],"categories":[1,2],"categories_nodes":[2],"categories_segments":[0],"categories_sizes":[2],"default_left":[0,0,1,0,0,0,0,0,0,0,0,0,0,0,0],"id":31,"left_children":[1,3,5,7,9,11,13,-1,-1,-1,-1,-1,-1,-1,-1],"loss_changes":[7.3214097E0,8.425206E0,5.078386E0,1.3773536E1,9.350181E0,4.6438727E0,2.1379395E0,0E0,0E0,0E0,0E0,0E0,0E0,0E0,0E0],"parents":[2147483647,0,0,1,1,2,2,3,3,4,4,5,5,6,6],"right_children":[2,4,6,8,10,12,14,-1,-1,-1,-1,-1,-1,-1,-1],"split_conditions":[1E0,1.7E2,1E-45,3E0,2.9E1,8.2666664E1,2.5366295E1,-2.6129147E-3,5.308902E-2,-7.8936964E-2,-6.3962274E-4,1.0855328E-2,-7.0729576E-2,2.368184E-2,-6.000225E-2],"split_indices":[15,16,6,13,0,0,8,0,0,0,0,0,0,0,0],"split_type":[0,0,1,0,0,0,0,0,0,0,0,0,0,0,0],"sum_hessian":[1.091875E3,1.0081692E3,8.370581E1,1.7921947E2,8.289497E2,4.3665638E1,4.0040173E1,1.0135509E2,7.786439E1,1.4543444E1,8.1440625E2,3.6066296E1,7.599343E0,2.7983284E0,3.7241844E1],"tree_param":{"num_deleted":"0","num_feature":"17","num_nodes":"15","size_leaf_vector":"1"}},{"base_weights":[-2.2534388E-3,2.9693714E-1,-2.32069E-2,5.4202324E-1,-7.659987E-3,5.314451E-2,-1.1828616E-1,-3.8431972E-2,6.4349525E-2,2.6824748E-2,-3.767942E-2,-3.0988916E-3,1.8478682E-2,5.1033277E-2,-1.3888716E-2],"categories":[1,3,1,5],"categories_nodes":[2,4],"categories_segments":[0,2],"categories_sizes":[2,2],"default_left":[0,0,1,0,1,0,0,0,0,0,0,0,0,0,0],"id":32,"left_children":[1,3,5,7,9,11,13,-1,-1,-1,-1,-1,-1,-1,-1],"loss_changes":[6.8529367E0,5.345259E0,7.421711E0,3.9752598E0,3.4504344E0,6.2880898E0,5.9665437E0,0E0,0E0,0E0,0E0,0E0,0E0,0E0,0E0],"parents":[2147483647,0,0,1,1,2,2,3,3,4,4,5,5,6,6],"right_children":[2,4,6,8,10,12,14,-1,-1,-1,-1,-1,-1,-1,-1],"split_conditions":[7.2077312E0,4.25E0,1E-45,5.6666666E-1,1E-45,3E0,2.3E1,-3.8431972E-2,6.4349525E-2,2.6824748E-2,-3.767942E-2,-3.0988916E-3,1.8478682E-2,5.1033277E-2,-1.3888716E-2],"split_indices":[2,1,5,1,5,13,16,0,0,0,0,0,0,0,0],"split_type":[0,0,1,0,1,0,0,0,0,0,0,0,0,0,0],"sum_hessian":[1.0910339E3,7.054623E1,1.0204877E3,3.8659992E1,3.1886232E1,5.662298E2,4.542579E2,3.5415487E0,3.5118446E1,1.840375E1,1.3482483E1,3.4591678E2,2.20313E2,1.3660129E1,4.4059778E2],"tree_param":{"num_deleted":"0","num_feature":"17","num_nodes":"15","size_leaf_vector":"1"}},{"base_weights":[-2.082269E-3,-4.5661163E-2,1.3194649E-1,-7.324474E-3,-3.9773887E-1,2.2054441E-1,-2.1925165E-1,5.60004E-3,-2.0103939E-2,3.8604658E-2,-4.5647383E-2,4.6803966E-2,4.615218E-3,8.208333E-2,-5.4721702E-2],"categories":[1,4],"categories_nodes":[6],"categories_segments":[0],"categories_sizes":[2],"default_left":[0,0,1,0,0,1,1,0,0,0,0,0,0,0,0],"id":33,"left_children":[1,3,5,7,9,11,13,-1,-1,-1,-1,-1,-1,-1,-1],"loss_changes":[6.377635E0,1.1118405E1,8.384825E0,9.138682E0,3.9000063E0,9.2341585E0,1.903115E1,0E0,0E0,0E0,0E0,0E0,0E0,0E0,0E0],"parents":[2147483647,0,0,1,1,2,2,3,3,4,4,5,5,6,6],"right_children":[2,4,6,8,10,12,14,-1,-1,-1,-1,-1,-1,-1,-1],"split_conditions":[1.2200421E1,4.3076057E1,1.0056715E2,3.678067E1,6.3823543E0,9.157462E1,1E-45,5.60004E-3,-2.0103939E-2,3.8604658E-2,-4.5647383E-2,4.6803966E-2,4.615218E-3,8.208333E-2,-5.4721702E-2],"split_indices":[9,3,9,2,2,8,6,0,0,0,0,0,0,0,0],"split_type":[0,0,0,0,0,0,1,0,0,0,0,0,0,0,0],"sum_hessian":[1.0898751E3,8.229542E2,2.6692084E2,7.4306494E2,7.9889305E1,2.1344609E2,5.347473E1,5.6053766E2,1.8252728E2,5.180863E0,7.470844E1,8.753446E1,1.2591164E2,1.2459332E1,4.10154E1],"tree_param":{"num_deleted":"0","num_feature":"17","num_nodes":"15","size_leaf_vector":"1"}},{"base_weights":[-2.0320867E-3,1.965884E-2,-2.657647E-1,2.647573E-1,-7.7612903E-3,-4.4546893E-1,5.7117283E-2,-3.2509377E-3,6.659316E-2,3.1067625E-2,-3.1058977E-3,-5.0736327E-2,1.2299111E-1,-3.945647E-2,5.0101984E-2],"categories":[],"categories_nodes":[],"categories_segments":[],"categories_sizes":[],"default_left":[0,0,0,0,0,0,0,0,0,0,0,0,0,0,0],"id":34,"left_children":[1,3,5,7,9,11,13,-1,-1,-1,-1,-1,-1,-1,-1],"loss_changes":[6.2381516E0,6.774348E0,4.833854E0,1.2116495E1,6.740538E0,6.1565294E0,6.31651E0,0E0,0E0,0E0,0E0,0E0,0E0,0E0,0E0],"parents":[2147483647,0,0,1,1,2,2,3,3,4,4,5,5,6,6],"right_children":[2,4,6,8,10,12,14,-1,-1,-1,-1,-1,-1,-1,-1],"split_conditions":[1E0,8.8E1,6.33E2,3E0,7.2077312E0,4E0,7.65E0,-3.2509377E-3,6.659316E-2,3.1067625E-2,-3.1058977E-3,-5.0736327E-2,1.2299111E-1,-3.945647E-2,5.0101984E-2],"split_indices":[15,16,16,13,2,13,1,0,0,0,0,0,0,0,0],"split_type":[0,0,0,0,0,0,0,0,0,0,0,0,0,0,0],"sum_hessian":[1.0885573E3,1.0066869E3,8.18704E1,1.0041937E2,9.062675E2,5.2352993E1,2.9517408E1,5.820726E1,4.221211E1,6.0943546E1,8.45324E2,5.1160126E1,1.1928661E0,1.4685593E1,1.4831816E1],"tree_param":{"num_deleted":"0","num_feature":"17","num_nodes":"15","size_leaf_vector":"1"}},{"base_weights":[-1.815286E-3,-7.4985635E-1,5.9565236E-3,3.0344604E-2,-9.602956E-1,4.948901E-1,-7.2389864E-3,-1.0444566E-1,-1.411734E-2,1.9974219E-2,1.4802212E-1,6.155062E-3,-9.236827E-3],"categories":[2,1,3],"categories_nodes":[5,6],"categories_segments":[0,1],"categories_sizes":[1,2],"default_left":[0,0,0,0,1,1,1,0,0,0,0,0,0],"id":35,"left_children":[1,3,5,-1,7,9,11,-1,-1,-1,-1,-1,-1],"loss_changes":[6.3320546E0,2.7738671E0,6.9598713E0,0E0,5.1261806E-1,7.9486647E0,6.1595125E0,0E0,0E0,0E0,0E0,0E0,0E0],"parents":[2147483647,0,0,1,1,2,2,4,4,5,5,6,6],"right_children":[2,4,6,-1,8,10,12,-1,-1,-1,-1,-1,-1],"split_conditions":[4E0,1.0918893E1,2.3E1,3.0344604E-2,1.4104437E2,1E-45,1E-45,-1.0444566E-1,-1.411734E-2,1.9974219E-2,1.4802212E-1,6.155062E-3,-9.236827E-3],"split_indices":[16,2,16,0,8,14,5,0,0,0,0,0,0],"split_type":[0,0,0,0,0,1,1,0,0,0,0,0,0],"sum_hessian":[1.0874052E3,1.0199643E1,1.0772056E3,1.6248566E0,8.574787E0,2.734871E1,1.0498568E3,7.526393E0,1.048394E0,2.1970377E1,5.378332E0,5.808068E2,4.6905005E2],"tree_param":{"num_deleted":"0","num_feature":"17","num_nodes":"13","size_leaf_vector":"1"}},{"base_weights":[-1.629971E-3,1.3366798E-2,-3.670736E-1,-7.022697E-1,2.0346522E-2,3.6025345E-1,-5.279201E-1,2.8174048E-2,-9.270757E-2,2.6021048E-2,-4.96844E-4,-2.6517717E-2,2.4725199E-1,-7.6460175E-2,-1.5787754E-2],"categories":[],"categories_nodes":[],"categories_segments":[],"categories_sizes":[],"default_left":[0,0,0,0,0,0,1,0,0,0,0,0,0,0,0],"id":36,"left_children":[1,3,5,7,9,11,13,-1,-1,-1,-1,-1,-1,-1,-1],"loss_changes":[5.965931E0,5.2378683E0,5.210268E0,2.5018973E0,6.295946E0,1.1707126E1,2.9924498E0,0E0,0E0,0E0,0E0,0E0,0E0,0E0,0E0],"parents":[2147483647,0,0,1,1,2,2,3,3,4,4,5,5,6,6],"right_children":[2,4,6,8,10,12,14,-1,-1,-1,-1,-1,-1,-1,-1],"split_conditions":[2.8333334E1,4E0,2.9666666E1,1.0918893E1,8.8E1,2.8333334E1,5.461869E0,2.8174048E-2,-9.270757E-2,2.6021048E-2,-4.96844E-4,-2.6517717E-2,2.4725199E-1,-7.6460175E-2,-1.5787754E-2],"split_indices":[1,16,0,2,16,0,9,0,0,0,0,0,0,0,0],"split_type":[0,0,0,0,0,0,0,0,0,0,0,0,0,0,0],"sum_hessian":[1.0866841E3,1.044773E3,4.191109E1,9.129242E0,1.0356437E3,7.3655047E0,3.454559E1,1.6506838E0,7.478558E0,9.798058E1,9.3766315E2,6.3575325E0,1.0079724E0,2.0419128E1,1.412646E1],"tree_param":{"num_deleted":"0","num_feature":"17","num_nodes":"15","size_leaf_vector":"1"}},{"base_weights":[-1.5076972E-3,8.985185E-2,-5.3787537E-2,3.875705E-2,4.8006815E-1,-8.329655E-1,-4.266708E-2,1.124601E-3,7.168232E-2,2.020925E-2,1.04091346E-1,1.4155175E-2,-1.0185944E-1,-9.373532E-3,1.2493858E-2],"categories":[],"categories_nodes":[],"categories_segments":[],"categories_sizes":[],"default_left":[0,0,0,0,0,0,0,0,0,0,0,0,0,0,0],"id":37,"left_children":[1,3,5,7,9,11,13,-1,-1,-1,-1,-1,-1,-1,-1],"loss_changes":[5.1971045E0,7.87768E0,5.961012E0,6.544745E0,6.924572E0,1.8960242E0,5.860928E0,0E0,0E0,0E0,0E0,0E0,0E0,0E0,0E0],"parents":[2147483647,0,0,1,1,2,2,3,3,4,4,5,5,6,6],"right_children":[2,4,6,8,10,12,14,-1,-1,-1,-1,-1,-1,-1,-1],"split_conditions":[5.6666665E0,5.4E1,6E0,8.5333336E1,1.6636186E0,1.9955011E1,1.2418927E1,1.124601E-3,7.168232E-2,2.020925E-2,1.04091346E-1,1.4155175E-2,-1.0185944E-1,-9.373532E-3,1.2493858E-2],"split_indices":[1,11,16,0,9,8,9,0,0,0,0,0,0,0,0],"split_type":[0,0,0,0,0,0,0,0,0,0,0,0,0,0,0],"sum_hessian":[1.0860994E3,3.9504156E2,6.9105774E2,3.5027588E2,4.476569E1,8.684104E0,6.8237366E2,3.3759528E2,1.2680597E1,3.084039E1,1.3925301E1,1.4274907E0,7.256613E0,5.2335266E2,1.5902103E2],"tree_param":{"num_deleted":"0","num_feature":"17","num_nodes":"15","size_leaf_vector":"1"}},{"base_weights":[-1.3743109E-3,1.0806831E-1,-4.488467E-2,8.699034E-2,1.5031291E0,-9.524541E-2,-2.9016448E-2,-1.7363261E-2,1.6302774E-2,1.975466E-1,-7.4757785E-3,-3.4233243E-3,1.9726966E-1],"categories":[0],"categories_nodes":[0],"categories_segments":[0],"categories_sizes":[1],"default_left":[1,0,0,0,0,0,0,0,0,0,0,0,0],"id":38,"left_children":[1,3,5,7,9,-1,11,-1,-1,-1,-1,-1,-1],"loss_changes":[5.1775165E0,8.964271E0,1.1176194E1,6.087569E0,3.532998E0,0E0,8.062593E0,0E0,0E0,0E0,0E0,0E0,0E0],"parents":[2147483647,0,0,1,1,2,2,3,3,4,4,6,6],"right_children":[2,4,6,8,10,-1,12,-1,-1,-1,-1,-1,-1],"split_conditions":[1E-45,1.162E3,2.8333334E1,2E0,1.4720486E1,-9.524541E-2,6.9120766E1,-1.7363261E-2,1.6302774E-2,1.975466E-1,-7.4757785E-3,-3.4233243E-3,1.9726966E-1],"split_indices":[14,16,0,13,3,0,2,0,0,0,0,0,0],"split_type":[1,0,0,0,0,0,0,0,0,0,0,0,0],"sum_hessian":[1.0852637E3,3.0830164E2,7.7696204E2,3.047594E2,3.5422528E0,1.2336969E1,7.6462506E2,6.854242E1,2.3621696E2,2.5322578E0,1.009995E0,7.636178E2,1.0072167E0],"tree_param":{"num_deleted":"0","num_feature":"17","num_nodes":"13","size_leaf_vector":"1"}},{"base_weights":[-1.0992915E-3,1.8352667E-2,-2.4265653E-1,-2.31475E-2,1.4222929E-1,2.523074E-1,-3.6119506E-1,1.5715311E-3,-3.9306525E-2,2.2401702E-2,-1.868252E-2,-1.3040418E-2,1.23168945E-1,7.035633E-2,-4.507575E-2],"categories":[0,1,2,3,4],"categories_nodes":[6],"categories_segments":[0],"categories_sizes":[5],"default_left":[0,0,0,0,1,0,1,0,0,0,0,0,0,0,0],"id":39,"left_children":[1,3,5,7,9,11,13,-1,-1,-1,-1,-1,-1,-1,-1],"loss_changes":[5.104911E0,5.1725826E0,4.841679E0,1.0846482E1,6.8364506E0,6.2450695E0,6.5857353E0,0E0,0E0,0E0,0E0,0E0,0E0,0E0,0E0],"parents":[2147483647,0,0,1,1,2,2,3,3,4,4,5,5,6,6],"right_children":[2,4,6,8,10,12,14,-1,-1,-1,-1,-1,-1,-1,-1],"split_conditions":[1E0,1.2200421E1,2.295E1,4.3076057E1,1.0056715E2,8.3E2,1E-45,1.5715311E-3,-3.9306525E-2,2.2401702E-2,-1.868252E-2,-1.3040418E-2,1.23168945E-1,7.035633E-2,-4.507575E-2],"split_indices":[15,9,8,3,9,16,5,0,0,0,0,0,0,0,0],"split_type":[0,0,0,0,0,0,1,0,0,0,0,0,0,0,0],"sum_hessian":[1.0844899E3,1.0045224E3,7.9967476E1,7.530535E2,2.5146889E2,1.5232959E1,6.473451E1,6.823271E2,7.072639E1,2.016638E2,4.9805084E1,1.1576198E1,3.6567614E0,4.4907627E0,6.024375E1],"tree_param":{"num_deleted":"0","num_feature":"17","num_nodes":"15","size_leaf_vector":"1"}},{"base_weights":[-1.0469056E-3,1.196289E-2,-3.33018E-1,-6.47167E-1,1.785101E-2,3.7711257E-1,-4.973945E-1,2.6018271E-2,-8.7987214E-2,7.13191E-2,1.0539588E-3,-2.1042401E-2,1.9180836E-1,-2.5392318E-2,-8.750823E-2],"categories":[],"categories_nodes":[],"categories_segments":[],"categories_sizes":[],"default_left":[0,0,0,0,0,0,0,0,0,0,0,0,0,0,0],"id":40,"left_children":[1,3,5,7,9,11,13,-1,-1,-1,-1,-1,-1,-1,-1],"loss_changes":[4.6894703E0,4.0669947E0,4.9673243E0,2.1881E0,5.2627807E0,7.886963E0,2.8750677E0,0E0,0E0,0E0,0E0,0E0,0E0,0E0,0E0],"parents":[2147483647,0,0,1,1,2,2,3,3,4,4,5,5,6,6],"right_children":[2,4,6,8,10,12,14,-1,-1,-1,-1,-1,-1,-1,-1],"split_conditions":[2.8333334E1,4E0,2.9666666E1,1.0918893E1,1E1,2.8333334E1,2.7E1,2.6018271E-2,-8.7987214E-2,7.13191E-2,1.0539588E-3,-2.1042401E-2,1.9180836E-1,-2.5392318E-2,-8.750823E-2],"split_indices":[1,16,0,2,16,0,11,0,0,0,0,0,0,0,0],"split_type":[0,0,0,0,0,0,0,0,0,0,0,0,0,0,0],"sum_hessian":[1.0838856E3,1.0439382E3,3.99475E1,8.278804E0,1.0356594E3,7.265457E0,3.268204E1,1.6657465E0,6.6130567E0,9.771934E0,1.0258875E3,5.885065E0,1.380392E0,2.088872E1,1.179332E1],"tree_param":{"num_deleted":"0","num_feature":"17","num_nodes":"15","size_leaf_vector":"1"}},{"base_weights":[-9.789676E-4,9.702446E-2,-4.0348288E-2,7.773714E-2,1.2909194E0,-9.4298966E-2,-2.5842424E-2,4.15444E-2,1.8984377E-3,-1.8958656E-2,1.7722699E-1,-3.0632864E-3,1.5565187E-1],"categories":[0],"categories_nodes":[0],"categories_segments":[0],"categories_sizes":[1],"default_left":[1,0,0,0,0,0,0,0,0,0,0,0,0],"id":41,"left_children":[1,3,5,7,9,-1,11,-1,-1,-1,-1,-1,-1],"loss_changes":[4.188348E0,7.063442E0,1.0115521E1,6.0877633E0,3.8150368E0,0E0,5.8328657E0,0E0,0E0,0E0,0E0,0E0,0E0],"parents":[2147483647,0,0,1,1,2,2,3,3,4,4,6,6],"right_children":[2,4,6,8,10,-1,12,-1,-1,-1,-1,-1,-1],"split_conditions":[1E-45,1.162E3,2.8333334E1,6.9E1,2.2596283E0,-9.4298966E-2,6.9120766E1,4.15444E-2,1.8984377E-3,-1.8958656E-2,1.7722699E-1,-3.0632864E-3,1.5565187E-1],"split_indices":[14,16,0,16,3,0,2,0,0,0,0,0,0],"split_type":[1,0,0,0,0,0,0,0,0,0,0,0,0],"sum_hessian":[1.0835199E3,3.101036E2,7.7341626E2,3.062217E2,3.8818867E0,1.1220213E1,7.6219604E2,4.4480396E1,2.6174133E2,1.101157E0,2.7807298E0,7.6087317E2,1.3228271E0],"tree_param":{"num_deleted":"0","num_feature":"17","num_nodes":"13","size_leaf_vector":"1"}},{"base_weights":[-7.480739E-4,1.6893687E-2,-2.2428873E-1,9.944029E-3,7.1797544E-1,-5.394052E-4,-4.7560352E-1,2.6516172E-3,-2.9451117E-2,2.0635903E-1,-2.3563935E-3,-2.9552778E-2,3.387289E-2,-5.6604344E-2,1.5088617E-2],"categories":[1,2],"categories_nodes":[2],"categories_segments":[0],"categories_sizes":[2],"default_left":[0,1,1,0,1,1,0,0,0,0,0,0,0,0,0],"id":42,"left_children":[1,3,5,7,9,11,13,-1,-1,-1,-1,-1,-1,-1,-1],"loss_changes":[4.277068E0,4.8907356E0,4.460644E0,5.0351233E0,9.880198E0,4.4003696E0,2.2023706E0,0E0,0E0,0E0,0E0,0E0,0E0,0E0,0E0],"parents":[2147483647,0,0,1,1,2,2,3,3,4,4,5,5,6,6],"right_children":[2,4,6,8,10,12,14,-1,-1,-1,-1,-1,-1,-1,-1],"split_conditions":[1E0,1.29E2,1E-45,7.5E1,2.9745008E1,1E0,8.3666664E1,2.6516172E-3,-2.9451117E-2,2.0635903E-1,-2.3563935E-3,-2.9552778E-2,3.387289E-2,-5.6604344E-2,1.5088617E-2],"split_indices":[15,11,6,11,8,10,0,0,0,0,0,0,0,0,0],"split_type":[0,0,1,0,0,0,0,0,0,0,0,0,0,0,0],"sum_hessian":[1.0825847E3,1.0042537E3,7.833097E1,9.954007E2,8.852988E0,4.1968197E1,3.636277E1,9.448817E2,5.0519005E1,2.5119314E0,6.3410563E0,2.2518044E1,1.9450155E1,3.1859957E1,4.502813E0],"tree_param":{"num_deleted":"0","num_feature":"17","num_nodes":"15","size_leaf_vector":"1"}},{"base_weights":[-6.5930904E-4,-6.449801E-1,4.9701086E-3,2.3235975E-2,-8.68172E-1,6.0768366E-1,-2.2149289E-3,-9.853682E-2,-7.4613667E-3,1.4314897E-1,3.009003E-3,1.0053775E-3,-3.3566568E-2],"categories":[0,1,2,3],"categories_nodes":[5],"categories_segments":[0],"categories_sizes":[4],"default_left":[0,0,0,0,0,1,0,0,0,0,0,0,0],"id":43,"left_children":[1,3,5,-1,7,9,11,-1,-1,-1,-1,-1,-1],"loss_changes":[3.9325852E0,2.0405598E0,4.6563654E0,0E0,6.42344E-1,5.9842563E0,4.353206E0,0E0,0E0,0E0,0E0,0E0,0E0],"parents":[2147483647,0,0,1,1,2,2,4,4,5,5,6,6],"right_children":[2,4,6,-1,8,10,12,-1,-1,-1,-1,-1,-1],"split_conditions":[4E0,1.0918893E1,1E1,2.3235975E-2,2.00001E0,1E-45,2.8333334E1,-9.853682E-2,-7.4613667E-3,1.4314897E-1,3.009003E-3,1.0053775E-3,-3.3566568E-2],"split_indices":[16,2,16,0,7,6,1,0,0,0,0,0,0],"split_type":[0,0,0,0,0,1,0,0,0,0,0,0,0],"sum_hessian":[1.0823241E3,8.390649E0,1.0739335E3,1.6933241E0,6.6973243E0,1.16671095E1,1.0622664E3,5.624905E0,1.0724194E0,4.1993384E0,7.4677706E0,1.0255046E3,3.67617E1],"tree_param":{"num_deleted":"0","num_feature":"17","num_nodes":"13","size_leaf_vector":"1"}},{"base_weights":[-6.228385E-4,7.539008E-2,-4.4884972E-2,2.8061531E-2,4.2944524E-1,3.080789E-2,-1.4454903E-1,5.5964156E-3,-5.7274647E-2,1.0097321E-1,2.1601599E-2,-1.04723675E-2,2.1445356E-2,2.0119254E-3,-2.405647E-2],"categories":[],"categories_nodes":[],"categories_segments":[],"categories_sizes":[],"default_left":[0,0,1,0,0,0,0,0,0,0,0,0,0,0,0],"id":44,"left_children":[1,3,5,7,9,11,13,-1,-1,-1,-1,-1,-1,-1,-1],"loss_changes":[3.6470337E0,6.672531E0,5.1724205E0,5.9489036E0,5.5988197E0,9.733852E0,4.6829286E0,0E0,0E0,0E0,0E0,0E0,0E0,0E0,0E0],"parents":[2147483647,0,0,1,1,2,2,3,3,4,4,5,5,6,6],"right_children":[2,4,6,8,10,12,14,-1,-1,-1,-1,-1,-1,-1,-1],"split_conditions":[5.6666665E0,5.4E1,9.251006E1,4.6E1,6.1E1,2.9947312E0,1.9145706E1,5.5964156E-3,-5.7274647E-2,1.0097321E-1,2.1601599E-2,-1.04723675E-2,2.1445356E-2,2.0119254E-3,-2.405647E-2],"split_indices":[1,11,8,11,11,9,2,0,0,0,0,0,0,0,0],"split_type":[0,0,0,0,0,0,0,0,0,0,0,0,0,0,0],"sum_hessian":[1.0819712E3,3.9791483E2,6.840564E2,3.519473E2,4.596752E1,3.891759E2,2.9488046E2,3.3719424E2,1.4753065E1,1.1357348E1,3.4610172E1,2.2416821E2,1.6500769E2,1.0890215E2,1.8597832E2],"tree_param":{"num_deleted":"0","num_feature":"17","num_nodes":"15","size_leaf_vector":"1"}},{"base_weights":[-6.442392E-4,5.067105E-2,-6.548163E-2,7.069352E-2,-3.0632526E-1,-8.0226034E-2,8.5847735E-1,6.795975E-2,3.3495747E-3,7.603707E-2,-5.8530778E-2,-1.0995235E-2,3.4735903E-2,1.2156965E-1,-3.211985E-2],"categories":[1,3,1,4,2],"categories_nodes":[0,4,5],"categories_segments":[0,2,4],"categories_sizes":[2,2,1],"default_left":[1,1,1,0,1,1,0,0,0,0,0,0,0,0,0],"id":45,"left_children":[1,3,5,7,9,11,13,-1,-1,-1,-1,-1,-1,-1,-1],"loss_changes":[3.603321E0,4.3429465E0,6.587018E0,1.2961418E1,1.0055276E1,6.035756E0,3.59344E0,0E0,0E0,0E0,0E0,0E0,0E0,0E0,0E0],"parents":[2147483647,0,0,1,1,2,2,3,3,4,4,5,5,6,6],"right_children":[2,4,6,8,10,12,14,-1,-1,-1,-1,-1,-1,-1,-1],"split_conditions":[1E-45,1.0056715E2,1.7084789E3,2E0,1E-45,1E-45,1.3132703E2,6.795975E-2,3.3495747E-3,7.603707E-2,-5.8530778E-2,-1.0995235E-2,3.4735903E-2,1.2156965E-1,-3.211985E-2],"split_indices":[5,9,9,11,6,14,8,0,0,0,0,0,0,0,0],"split_type":[1,0,0,0,1,1,0,0,0,0,0,0,0,0,0],"sum_hessian":[1.0810083E3,6.035498E2,4.774585E2,5.722562E2,3.1293556E1,4.708578E2,6.6007085E0,3.1952026E1,5.403042E2,6.129969E0,2.5163588E1,4.409455E2,2.9912306E1,5.043074E0,1.5576342E0],"tree_param":{"num_deleted":"0","num_feature":"17","num_nodes":"15","size_leaf_vector":"1"}},{"base_weights":[-5.107764E-4,1.5192447E-2,-2.0387878E-1,1.5712257E-1,-1.659878E-2,-3.8061258E-1,9.6438214E-2,6.1346483E-3,6.880886E-2,-7.292195E-2,-5.3780316E-4,-4.4522863E-2,1.1497021E-1,-3.5031185E-2,5.1555157E-2],"categories":[2],"categories_nodes":[3],"categories_segments":[0],"categories_sizes":[1],"default_left":[0,0,0,1,0,0,0,0,0,0,0,0,0,0,0],"id":46,"left_children":[1,3,5,7,9,11,13,-1,-1,-1,-1,-1,-1,-1,-1],"loss_changes":[3.4547276E0,4.534032E0,4.1524124E0,9.308753E0,6.5640736E0,5.3589144E0,5.708923E0,0E0,0E0,0E0,0E0,0E0,0E0,0E0,0E0],"parents":[2147483647,0,0,1,1,2,2,3,3,4,4,5,5,6,6],"right_children":[2,4,6,8,10,12,14,-1,-1,-1,-1,-1,-1,-1,-1],"split_conditions":[1E0,1.7E2,6.33E2,1E-45,2.9E1,4E0,7.65E0,6.1346483E-3,6.880886E-2,-7.292195E-2,-5.3780316E-4,-4.4522863E-2,1.1497021E-1,-3.5031185E-2,5.1555157E-2],"split_indices":[15,16,16,14,0,13,1,0,0,0,0,0,0,0,0],"split_type":[0,0,0,1,0,0,0,0,0,0,0,0,0,0,0],"sum_hessian":[1.0798187E3,1.00327527E3,7.654341E1,1.8287918E2,8.203961E2,4.801793E1,2.852548E1,1.5587743E2,2.7001762E1,1.1725577E1,8.0867053E2,4.675289E1,1.2650346E0,1.3886961E1,1.463852E1],"tree_param":{"num_deleted":"0","num_feature":"17","num_nodes":"15","size_leaf_vector":"1"}},{"base_weights":[-4.8472072E-4,-6.1587554E-1,4.640459E-3,2.084044E-2,-8.408957E-1,3.481009E-1,-5.177282E-3,-9.634812E-2,-6.058461E-3,1.1867067E-2,1.11085735E-1,1.3331391E-2,-3.330011E-3],"categories":[2],"categories_nodes":[5],"categories_segments":[0],"categories_sizes":[1],"default_left":[0,0,0,0,0,1,0,0,0,0,0,0,0],"id":47,"left_children":[1,3,5,-1,7,9,11,-1,-1,-1,-1,-1,-1],"loss_changes":[3.4082975E0,1.8307467E0,3.6159148E0,0E0,6.313052E-1,5.0832214E0,4.0666733E0,0E0,0E0,0E0,0E0,0E0,0E0],"parents":[2147483647,0,0,1,1,2,2,4,4,5,5,6,6],"right_children":[2,4,6,-1,8,10,12,-1,-1,-1,-1,-1,-1],"split_conditions":[4E0,1.0918893E1,2.3E1,2.084044E-2,2.00001E0,1E-45,3E0,-9.634812E-2,-6.058461E-3,1.1867067E-2,1.11085735E-1,1.3331391E-2,-3.330011E-3],"split_indices":[16,2,16,0,7,14,11,0,0,0,0,0,0],"split_type":[0,0,0,0,0,1,0,0,0,0,0,0,0],"sum_hessian":[1.0787246E3,7.925513E0,1.0707991E3,1.7154443E0,6.210068E0,2.8800379E1,1.0419988E3,5.1640635E0,1.0460049E0,2.3029036E1,5.7713437E0,1.7524792E2,8.667508E2],"tree_param":{"num_deleted":"0","num_feature":"17","num_nodes":"13","size_leaf_vector":"1"}},{"base_weights":[-4.219101E-4,-4.3556746E-3,7.925189E-1,1.9858219E-1,-1.942346E-2,1.5530695E0,-6.683487E-2,5.521966E-2,3.6199638E-3,2.6804418E-4,-3.2176908E-2,-8.070788E-3,2.2015285E-1],"categories":[3],"categories_nodes":[4],"categories_segments":[0],"categories_sizes":[1],"default_left":[1,0,1,0,1,0,0,0,0,0,0,0,0],"id":48,"left_children":[1,3,5,7,9,11,-1,-1,-1,-1,-1,-1,-1],"loss_changes":[3.368061E0,3.2889752E0,6.960264E0,4.2488546E0,6.6904883E0,4.2101164E0,0E0,0E0,0E0,0E0,0E0,0E0,0E0],"parents":[2147483647,0,0,1,1,2,2,3,3,4,4,5,5],"right_children":[2,4,6,8,10,12,-1,-1,-1,-1,-1,-1,-1],"split_conditions":[1.54E2,7.2077312E0,1.00646484E2,1.3340441E0,1E-45,2.5366295E1,-6.683487E-2,5.521966E-2,3.6199638E-3,2.6804418E-4,-3.2176908E-2,-8.070788E-3,2.2015285E-1],"split_indices":[11,2,8,3,5,8,0,0,0,0,0,0,0],"split_type":[0,0,0,0,1,0,0,0,0,0,0,0,0],"sum_hessian":[1.0776622E3,1.0733319E3,4.3302727E0,7.3343155E1,9.999888E2,2.8062043E0,1.5240685E0,2.2325392E1,5.101776E1,9.3278577E2,6.7203026E1,1.0461051E0,1.760099E0],"tree_param":{"num_deleted":"0","num_feature":"17","num_nodes":"13","size_leaf_vector":"1"}},{"base_weights":[-2.9645342E-4,1.3647385E-2,-2.1277869E-1,-2.3506468E-2,1.21142045E-1,9.472867E-2,-4.7015062E-1,-2.5317544E-2,1.3056087E-3,4.8049856E-2,2.6926415E-3,4.973537E-2,-2.1068117E-2,-2.410338E-3,-8.173934E-2],"categories":[0,2,3,4,0,1,3,5],"categories_nodes":[2,5],"categories_segments":[0,4],"categories_sizes":[4,4],"default_left":[0,1,0,0,0,1,0,0,0,0,0,0,0,0,0],"id":49,"left_children":[1,3,5,7,9,11,13,-1,-1,-1,-1,-1,-1,-1,-1],"loss_changes":[3.197294E0,4.0474243E0,5.3040996E0,6.3300033E0,8.799416E0,3.9303782E0,5.6096106E0,0E0,0E0,0E0,0E0,0E0,0E0,0E0,0E0],"parents":[2147483647,0,0,1,1,2,2,3,3,4,4,5,5,6,6],"right_children":[2,4,6,8,10,12,14,-1,-1,-1,-1,-1,-1,-1,-1],"split_conditions":[2.5216667E1,3.4E1,1E-45,5.2E1,4E1,1E-45,4.5E1,-2.5317544E-2,1.3056087E-3,4.8049856E-2,2.6926415E-3,4.973537E-2,-2.1068117E-2,-2.410338E-3,-8.173934E-2],"split_indices":[1,11,6,0,11,5,0,0,0,0,0,0,0,0,0],"split_type":[0,0,1,0,0,1,0,0,0,0,0,0,0,0,0],"sum_hessian":[1.0771593E3,1.01170355E3,6.54558E1,7.5242194E2,2.592816E2,3.011109E1,3.5344715E1,1.0251925E2,6.499027E2,5.300611E1,2.0627548E2,1.2717281E1,1.7393808E1,1.5939371E1,1.9405346E1],"tree_param":{"num_deleted":"0","num_feature":"17","num_nodes":"15","size_leaf_vector":"1"}}]},"name":"gbtree"},"learner_model_param":{"base_score":"[8.365706E-2]","boost_from_average":"1","num_class":"0","num_feature":"17","num_target":"1"},"objective":{"name":"binary:logistic","reg_loss_param":{"scale_pos_weight":"1"}}},"version":[3,2,0]}