{"learner":{"attributes":{"scikit_learn":"{\"_estimator_type\": \"classifier\"}"},"feature_names":["x_adj","y_adj","distance","angle","behind_the_net","shot_type","prev_type","prev_event_same_team","dist_from_prev_event","speed_from_prev_event","crossed_royal_road","time_from_prev_event","home_team_shot","period","game_state","goalie_pulled","time_remaining"],"feature_types":["float","float","float","float","i","c","c","i","float","float","i","float","i","int","c","i","int"],"gradient_booster":{"model":{"cats":{"enc":[{"offsets":[],"values":[]},{"offsets":[],"values":[]},{"offsets":[],"values":[]},{"offsets":[],"values":[]},{"offsets":[],"values":[]},{"offsets":[0,1,2,3,4,5,6],"values":[49,50,51,52,53,54]},{"offsets":[0,12,19,22,29,33],"values":[98,108,111,99,107,101,100,95,115,104,111,116,102,97,99,101,111,102,102,104,105,116,112,101,110,97,108,116,121,115,104,111,116]},{"offsets":[],"values":[]},{"offsets":[],"values":[]},{"offsets":[],"values":[]},{"offsets":[],"values":[]},{"offsets":[],"values":[]},{"offsets":[],"values":[]},{"offsets":[],"values":[]},{"offsets":[0,2,4,6],"values":[101,118,112,112,115,104]},{"offsets":[],"values":[]},{"offsets":[],"values":[]}],"feature_segments":[0,0,0,0,0,0,6,11,11,11,11,11,11,11,11,14,14,14],"sorted_idx":[0,1,2,3,4,5,0,1,2,3,4,0,1,2]},"gbtree_model_param":{"num_parallel_tree":"1","num_trees":"50"},"iteration_indptr":[0,1,2,3,4,5,6,7,8,9,10,11,12,13,14,15,16,17,18,19,20,21,22,23,24,25,26,27,28,29,30,31,32,33,34,35,36,37,38,39,40,41,42,43,44,45,46,47,48,49,50],"tree_info":[0,0,0,0,0,0,0,0,0,0,0,0,0,0,0,0,0,0,0,0,0,0,0,0,0,0,0,0,0,0,0,0,0,0,0,0,0,0,0,0,0,0,0,0,0,0,0,0,0,0],"trees":[{"base_weights":[2.157924E-8,7.3827827E-1,-4.3642876E-1,2.1787996E0,4.8550442E-1,-1.5612178E-1,-6.9743985E-1,2.7548704E-1,3.7234847E-2,8.667555E-2,1.2195545E-2,-2.7491955E-2,4.1433677E-2,-5.574782E-2,-9.085696E-2],"categories":[1],"categories_nodes":[5],"categories_segments":[0],"categories_sizes":[1],"default_left":[0,1,0,1,0,1,0,0,0,0,0,0,0,0,0],"id":0,"left_children":[1,3,5,7,9,11,13,-1,-1,-1,-1,-1,-1,-1,-1],"loss_changes":[3.540869E2,1.476084E2,5.0422363E1,6.2101044E1,4.8214325E1,2.2769886E1,1.0053299E1,0E0,0E0,0E0,0E0,0E0,0E0,0E0,0E0],"parents":[2147483647,0,0,1,1,2,2,3,3,4,4,5,5,6,6],"right_children":[2,4,6,8,10,12,14,-1,-1,-1,-1,-1,-1,-1,-1],"split_conditions":[2.2334732E1,3E0,1.8133333E1,1.1632333E2,6.516667E0,1E-45,2.805E1,2.7548704E-1,3.7234847E-2,8.667555E-2,1.2195545E-2,-2.7491955E-2,4.1433677E-2,-5.574782E-2,-9.085696E-2],"split_indices":[2,11,1,8,1,14,1,0,0,0,0,0,0,0,0],"split_type":[0,0,0,0,0,1,0,0,0,0,0,0,0,0,0],"sum_hessian":[1.0969463E3,4.0728204E2,6.8966425E2,5.9661316E1,3.4762073E2,3.3331082E2,3.5635342E2,4.4837715E1,1.4823599E1,1.690037E2,1.7861702E2,2.7629132E2,5.7019485E1,2.1648325E2,1.398702E2],"tree_param":{"num_deleted":"0","num_feature":"17","num_nodes":"15","size_leaf_vector":"1"}},{"base_weights":[-2.4431827E-3,6.026581E-1,-4.2254567E-1,1.5396332E0,3.8496858E-1,-1.7025685E-1,-6.84662E-1,3.5636893E-1,1.2624516E-1,6.357382E-2,-8.149289E-3,6.274832E-3,-4.2195488E-2,-5.5486035E-2,-9.119633E-2],"categories":[],"categories_nodes":[],"categories_segments":[],"categories_sizes":[],"default_left":[0,1,0,0,0,0,0,0,0,0,0,0,0,0,0],"id":1,"left_children":[1,3,5,7,9,11,13,-1,-1,-1,-1,-1,-1,-1,-1],"loss_changes":[2.7978757E2,9.140083E1,4.2842293E1,4.301857E1,4.301871E1,1.9517633E1,8.884384E0,0E0,0E0,0E0,0E0,0E0,0E0,0E0,0E0],"parents":[2147483647,0,0,1,1,2,2,3,3,4,4,5,5,6,6],"right_children":[2,4,6,8,10,12,14,-1,-1,-1,-1,-1,-1,-1,-1],"split_conditions":[2.3145248E1,4E0,1.8983334E1,7.1535735E0,8.783334E0,3.692118E1,2.89E1,3.5636893E-1,1.2624516E-1,6.357382E-2,-8.149289E-3,6.274832E-3,-4.2195488E-2,-5.5486035E-2,-9.119633E-2],"split_indices":[2,11,1,2,1,2,1,0,0,0,0,0,0,0,0],"split_type":[0,0,0,0,0,0,0,0,0,0,0,0,0,0,0],"sum_hessian":[1.0986377E3,4.500158E2,6.4862195E2,8.3696846E1,3.6631897E2,3.3134732E2,3.1727463E2,8.653047E0,7.50438E1,2.3800473E2,1.2831422E2,1.7245277E2,1.5889453E2,2.0414027E2,1.1313434E2],"tree_param":{"num_deleted":"0","num_feature":"17","num_nodes":"15","size_leaf_vector":"1"}},{"base_weights":[-3.8330697E-3,5.1472294E-1,-3.9553988E-1,1.2255479E0,3.346265E-1,-1.5588668E-1,-6.5572494E-1,1.5626219E-1,1.0848868E-2,5.416754E-2,-7.3934495E-3,-2.6975319E-2,3.642965E-2,-5.2507516E-2,-8.9163266E-2],"categories":[1],"categories_nodes":[5],"categories_segments":[0],"categories_sizes":[1],"default_left":[0,1,0,1,0,1,0,0,0,0,0,0,0,0,0],"id":2,"left_children":[1,3,5,7,9,11,13,-1,-1,-1,-1,-1,-1,-1,-1],"loss_changes":[2.2356442E2,6.0223152E1,3.899415E1,3.5739487E1,3.2123005E1,1.9507944E1,8.787872E0,0E0,0E0,0E0,0E0,0E0,0E0,0E0,0E0],"parents":[2147483647,0,0,1,1,2,2,3,3,4,4,5,5,6,6],"right_children":[2,4,6,8,10,12,14,-1,-1,-1,-1,-1,-1,-1,-1],"split_conditions":[2.3145248E1,4E0,1.8983334E1,1.1632333E2,8.783334E0,1E-45,2.89E1,1.5626219E-1,1.0848868E-2,5.416754E-2,-7.3934495E-3,-2.6975319E-2,3.642965E-2,-5.2507516E-2,-8.9163266E-2],"split_indices":[2,11,1,8,1,14,1,0,0,0,0,0,0,0,0],"split_type":[0,0,0,0,0,1,0,0,0,0,0,0,0,0,0],"sum_hessian":[1.0986393E3,4.7263434E2,6.260049E2,9.436782E1,3.782665E2,3.2669208E2,2.9931284E2,7.218656E1,2.2181253E1,2.508274E2,1.27439125E2,2.684177E2,5.827439E1,1.9470662E2,1.0460621E2],"tree_param":{"num_deleted":"0","num_feature":"17","num_nodes":"15","size_leaf_vector":"1"}},{"base_weights":[-4.924069E-3,3.2519108E-1,-5.264521E-1,-2.1295057E-1,5.0800186E-1,-4.1086623E-1,-8.443399E-1,2.786125E-2,-3.471312E-2,1.2577721E-1,4.0785175E-2,-4.9790587E-2,-4.8617115E-3,-4.988997E-2,-9.068154E-2],"categories":[0,1],"categories_nodes":[3,5],"categories_segments":[0,1],"categories_sizes":[1,1],"default_left":[0,0,0,1,1,1,0,0,0,0,0,0,0,0,0],"id":3,"left_children":[1,3,5,7,9,11,13,-1,-1,-1,-1,-1,-1,-1,-1],"loss_changes":[1.893276E2,6.635959E1,1.53153E1,1.1406369E1,3.7254807E1,9.893429E0,1.9801483E0,0E0,0E0,0E0,0E0,0E0,0E0,0E0,0E0],"parents":[2147483647,0,0,1,1,2,2,3,3,4,4,5,5,6,6],"right_children":[2,4,6,8,10,12,14,-1,-1,-1,-1,-1,-1,-1,-1],"split_conditions":[1.445E1,6.1666668E1,2.805E1,1E-45,2E0,1E-45,1.87E2,2.786125E-2,-3.471312E-2,1.2577721E-1,4.0785175E-2,-4.9790587E-2,-4.8617115E-3,-4.988997E-2,-9.068154E-2],"split_indices":[1,0,1,14,11,14,16,0,0,0,0,0,0,0,0],"split_type":[0,0,0,1,0,1,0,0,0,0,0,0,0,0,0],"sum_hessian":[1.0976969E3,6.7243665E2,4.252603E2,1.7046692E2,5.0196973E2,3.1354572E2,1.11714584E2,3.6323055E1,1.3414386E2,5.7787426E1,4.441823E2,2.5250133E2,6.1044403E1,1.8486156E1,9.3228424E1],"tree_param":{"num_deleted":"0","num_feature":"17","num_nodes":"15","size_leaf_vector":"1"}},{"base_weights":[-5.6960643E-3,2.7213994E-1,-5.220703E-1,-2.0401959E-1,4.5008725E-1,-4.0810725E-1,-8.2217956E-1,2.325943E-2,-3.2568105E-2,1.7785685E-1,4.0014807E-2,-4.8397142E-2,-1.0589658E-2,-4.7176264E-2,-8.879672E-2],"categories":[0,1],"categories_nodes":[3,5],"categories_segments":[0,1],"categories_sizes":[1,1],"default_left":[0,0,0,1,0,1,0,0,0,0,0,0,0,0,0],"id":4,"left_children":[1,3,5,7,9,11,13,-1,-1,-1,-1,-1,-1,-1,-1],"loss_changes":[1.5758878E2,6.06055E1,1.2806541E1,1.0432854E1,3.3800354E1,6.3794174E0,1.9963989E0,0E0,0E0,0E0,0E0,0E0,0E0,0E0,0E0],"parents":[2147483647,0,0,1,1,2,2,3,3,4,4,5,5,6,6],"right_children":[2,4,6,8,10,12,14,-1,-1,-1,-1,-1,-1,-1,-1],"split_conditions":[1.5016666E1,6.3333332E1,2.805E1,1E-45,6.0599093E0,1E-45,1.87E2,2.325943E-2,-3.2568105E-2,1.7785685E-1,4.0014807E-2,-4.8397142E-2,-1.0589658E-2,-4.7176264E-2,-8.879672E-2],"split_indices":[1,0,1,14,2,14,16,0,0,0,0,0,0,0,0],"split_type":[0,0,0,1,0,1,0,0,0,0,0,0,0,0,0],"sum_hessian":[1.0964392E3,7.13183E2,3.8325626E2,1.9397891E2,5.1920404E2,2.7948492E2,1.0377134E2,4.2073906E1,1.51905E2,1.7556334E1,5.0164774E2,2.2292296E2,5.6561962E1,1.7694233E1,8.607711E1],"tree_param":{"num_deleted":"0","num_feature":"17","num_nodes":"15","size_leaf_vector":"1"}},{"base_weights":[-6.1744754E-3,2.392161E-1,-4.9349162E-1,3.7539423E-1,-2.4248376E-1,-3.9123535E-1,-8.307243E-1,7.965428E-2,2.6200531E-2,-2.7696008E-2,1.179147E-1,-4.6726946E-2,-9.326312E-3,-3.909257E-2,-8.815097E-2],"categories":[1],"categories_nodes":[5],"categories_segments":[0],"categories_sizes":[1],"default_left":[0,0,0,1,0,1,0,0,0,0,0,0,0,0,0],"id":5,"left_children":[1,3,5,7,9,11,13,-1,-1,-1,-1,-1,-1,-1,-1],"loss_changes":[1.3116414E2,4.7945255E1,1.2342384E1,2.69692E1,8.236764E0,6.3853188E0,1.5445023E0,0E0,0E0,0E0,0E0,0E0,0E0,0E0,0E0],"parents":[2147483647,0,0,1,1,2,2,3,3,4,4,5,5,6,6],"right_children":[2,4,6,8,10,12,14,-1,-1,-1,-1,-1,-1,-1,-1],"split_conditions":[1.5016666E1,3.0348097E1,2.89E1,4E0,3.2433796E3,1E-45,1.11E2,7.965428E-2,2.6200531E-2,-2.7696008E-2,1.179147E-1,-4.6726946E-2,-9.326312E-3,-3.909257E-2,-8.815097E-2],"split_indices":[1,2,1,11,9,14,16,0,0,0,0,0,0,0,0],"split_type":[0,0,0,0,0,1,0,0,0,0,0,0,0,0,0],"sum_hessian":[1.0948585E3,7.2851886E2,3.663396E2,5.68128E2,1.6039091E2,2.827606E2,8.3579025E1,1.19236275E2,4.488917E2,1.5737946E2,3.0114665E0,2.2482373E2,5.7936844E1,9.552504E0,7.402652E1],"tree_param":{"num_deleted":"0","num_feature":"17","num_nodes":"15","size_leaf_vector":"1"}},{"base_weights":[-6.419249E-3,2.1108371E-1,-4.6544564E-1,-3.6271313E-1,3.0228502E-1,-3.551445E-1,-7.774563E-1,-4.792024E-2,3.7309043E-2,9.101328E-2,2.3394661E-2,-8.961444E-2,-3.136425E-2,-4.1438963E-2,-8.504258E-2],"categories":[],"categories_nodes":[],"categories_segments":[],"categories_sizes":[],"default_left":[0,0,0,1,0,0,0,0,0,0,0,0,0,0,0],"id":6,"left_children":[1,3,5,7,9,11,13,-1,-1,-1,-1,-1,-1,-1,-1],"loss_changes":[1.09292206E2,3.8979095E1,1.1835701E1,8.949022E0,2.6432106E1,5.5982323E0,2.0605125E0,0E0,0E0,0E0,0E0,0E0,0E0,0E0,0E0],"parents":[2147483647,0,0,1,1,2,2,3,3,4,4,5,5,6,6],"right_children":[2,4,6,8,10,12,14,-1,-1,-1,-1,-1,-1,-1,-1],"split_conditions":[1.5016666E1,5.2666668E1,2.805E1,5.4E1,7.694172E0,3.1333334E1,1.87E2,-4.792024E-2,3.7309043E-2,9.101328E-2,2.3394661E-2,-8.961444E-2,-3.136425E-2,-4.1438963E-2,-8.504258E-2],"split_indices":[1,0,1,11,2,0,16,0,0,0,0,0,0,0,0],"split_type":[0,0,0,0,0,0,0,0,0,0,0,0,0,0,0],"sum_hessian":[1.0926938E3,7.417612E2,3.5093262E2,1.01320694E2,6.4044055E2,2.6085434E2,9.007826E1,8.7773506E1,1.354719E1,6.3480877E1,5.7695966E2,1.711811E1,2.4373624E2,1.619206E1,7.38862E1],"tree_param":{"num_deleted":"0","num_feature":"17","num_nodes":"15","size_leaf_vector":"1"}},{"base_weights":[-6.6754324E-3,1.966525E-1,-4.173578E-1,-3.1946078E-1,2.7253324E-1,-3.2192197E-1,-7.8826255E-1,-5.1011432E-2,1.5877187E-2,6.513868E-2,1.8768622E-2,-4.070596E-2,2.1909065E-4,-8.194217E-2,-6.6732736E-3],"categories":[1],"categories_nodes":[5],"categories_segments":[0],"categories_sizes":[1],"default_left":[0,0,0,1,1,1,0,0,0,0,0,0,0,0,0],"id":7,"left_children":[1,3,5,7,9,11,13,-1,-1,-1,-1,-1,-1,-1,-1],"loss_changes":[9.1250854E1,2.871263E1,1.2555462E1,8.665283E0,2.037901E1,7.989462E0,1.5947304E0,0E0,0E0,0E0,0E0,0E0,0E0,0E0,0E0],"parents":[2147483647,0,0,1,1,2,2,3,3,4,4,5,5,6,6],"right_children":[2,4,6,8,10,12,14,-1,-1,-1,-1,-1,-1,-1,-1],"split_conditions":[1.445E1,5.2666668E1,2.89E1,3.5E1,3E0,1E-45,7.322668E1,-5.1011432E-2,1.5877187E-2,6.513868E-2,1.8768622E-2,-4.070596E-2,2.1909065E-4,-8.194217E-2,-6.6732736E-3],"split_indices":[1,0,1,11,11,14,3,0,0,0,0,0,0,0,0],"split_type":[0,0,0,0,0,1,0,0,0,0,0,0,0,0,0],"sum_hessian":[1.0907999E3,7.2993286E2,3.60867E2,9.3150024E1,6.3678284E2,2.8850183E2,7.236517E1,6.655169E1,2.659834E1,1.15295494E2,5.2148737E2,2.2828123E2,6.0220608E1,6.92394E1,3.1257703E0],"tree_param":{"num_deleted":"0","num_feature":"17","num_nodes":"15","size_leaf_vector":"1"}},{"base_weights":[-6.7304024E-3,1.6595782E-1,-4.1229418E-1,-1.6168687E-1,2.7123144E-1,-3.171596E-1,-7.65698E-1,2.5511945E-2,-2.822047E-2,3.3707622E-2,-1.9909032E-2,-8.8779114E-2,-2.7310003E-2,-2.9234413E-2,-8.261731E-2],"categories":[0,3],"categories_nodes":[3,4],"categories_segments":[0,1],"categories_sizes":[1,1],"default_left":[0,0,0,1,1,0,0,0,0,0,0,0,0,0,0],"id":8,"left_children":[1,3,5,7,9,11,13,-1,-1,-1,-1,-1,-1,-1,-1],"loss_changes":[7.636874E1,2.6423817E1,1.0705349E1,9.4457E0,1.8003918E1,6.251074E0,1.7153587E0,0E0,0E0,0E0,0E0,0E0,0E0,0E0,0E0],"parents":[2147483647,0,0,1,1,2,2,3,3,4,4,5,5,6,6],"right_children":[2,4,6,8,10,12,14,-1,-1,-1,-1,-1,-1,-1,-1],"split_conditions":[1.5016666E1,6.3333332E1,2.89E1,1E-45,1E-45,3.1333334E1,1.11E2,2.5511945E-2,-2.822047E-2,3.3707622E-2,-1.9909032E-2,-8.8779114E-2,-2.7310003E-2,-2.9234413E-2,-8.261731E-2],"split_indices":[1,0,1,14,5,0,16,0,0,0,0,0,0,0,0],"split_type":[0,0,0,1,1,0,0,0,0,0,0,0,0,0,0],"sum_hessian":[1.0884427E3,7.638064E2,3.246364E2,1.8560602E2,5.782004E2,2.5727634E2,6.736008E1,4.1379555E1,1.4422647E2,5.0744208E2,7.075829E1,1.706834E1,2.40208E2,8.291848E0,5.906823E1],"tree_param":{"num_deleted":"0","num_feature":"17","num_nodes":"15","size_leaf_vector":"1"}},{"base_weights":[-6.8326658E-3,1.4714551E-1,-3.8645104E-1,2.041184E-1,-3.7062967E-1,-2.944078E-1,-7.427882E-1,1.0734203E-1,1.7318912E-2,-4.9001943E-2,5.6954253E-2,-7.149664E-2,-2.3224406E-2,-2.7294973E-2,-8.059567E-2],"categories":[],"categories_nodes":[],"categories_segments":[],"categories_sizes":[],"default_left":[0,0,0,0,0,0,0,0,0,0,0,0,0,0,0],"id":9,"left_children":[1,3,5,7,9,11,13,-1,-1,-1,-1,-1,-1,-1,-1],"loss_changes":[6.3624218E1,2.2919945E1,1.0083004E1,1.8588825E1,8.935502E0,6.403063E0,1.6741219E0,0E0,0E0,0E0,0E0,0E0,0E0,0E0,0E0],"parents":[2147483647,0,0,1,1,2,2,3,3,4,4,5,5,6,6],"right_children":[2,4,6,8,10,12,14,-1,-1,-1,-1,-1,-1,-1,-1],"split_conditions":[1.5016666E1,4.188251E1,2.89E1,6.0599093E0,6.2E1,8.277882E-1,1.11E2,1.0734203E-1,1.7318912E-2,-4.9001943E-2,5.6954253E-2,-7.149664E-2,-2.3224406E-2,-2.7294973E-2,-8.059567E-2],"split_indices":[1,2,1,2,11,9,16,0,0,0,0,0,0,0,0],"split_type":[0,0,0,0,0,0,0,0,0,0,0,0,0,0,0],"sum_hessian":[1.0864961E3,7.734052E2,3.1309088E2,6.972858E2,7.6119385E1,2.5027113E2,6.2819767E1,2.2798655E1,6.744872E2,6.7967224E1,8.152164E0,3.087694E1,2.1939418E2,8.075601E0,5.4744167E1],"tree_param":{"num_deleted":"0","num_feature":"17","num_nodes":"15","size_leaf_vector":"1"}},{"base_weights":[-6.7164423E-3,1.3837157E-1,-3.433699E-1,6.151781E-1,8.694273E-2,-4.3053547E-1,2.027256E-2,2.7131647E-2,1.2838294E-1,2.3950314E-2,-8.382243E-3,-2.8078914E-2,-6.502309E-2,8.3669625E-2,-1.4679143E-2],"categories":[1,1,3,0,1,3,4],"categories_nodes":[2,4,6],"categories_segments":[0,1,3],"categories_sizes":[1,2,4],"default_left":[0,0,1,0,1,0,1,0,0,0,0,0,0,0,0],"id":10,"left_children":[1,3,5,7,9,11,13,-1,-1,-1,-1,-1,-1,-1,-1],"loss_changes":[5.3062077E1,1.856338E1,1.0379219E1,1.6608791E1,1.790351E1,8.501301E0,8.881505E0,0E0,0E0,0E0,0E0,0E0,0E0,0E0,0E0],"parents":[2147483647,0,0,1,1,2,2,3,3,4,4,5,5,6,6],"right_children":[2,4,6,8,10,12,14,-1,-1,-1,-1,-1,-1,-1,-1],"split_conditions":[1.445E1,7.694172E0,1E-45,9.862817E0,1E-45,2.4083334E1,1E-45,2.7131647E-2,1.2838294E-1,2.3950314E-2,-8.382243E-3,-2.8078914E-2,-6.502309E-2,8.3669625E-2,-1.4679143E-2],"split_indices":[1,2,14,9,5,1,5,0,0,0,0,0,0,0,0],"split_type":[0,0,1,0,1,0,1,0,0,0,0,0,0,0,0],"sum_hessian":[1.0843771E3,7.5820245E2,3.2617462E2,7.275114E1,6.854513E2,2.62959E2,6.3215588E1,4.8972324E1,2.3778816E1,3.6181012E2,3.236412E2,1.5772816E2,1.0523085E2,1.0057488E1,5.3158096E1],"tree_param":{"num_deleted":"0","num_feature":"17","num_nodes":"15","size_leaf_vector":"1"}},{"base_weights":[-6.4012785E-3,9.333726E-2,-4.260398E-1,-3.3344245E-1,1.4610389E-1,1.9527155E-1,-4.8379394E-1,-4.1862655E-2,6.346214E-2,2.1471558E-2,-1.2452407E-2,-3.4877278E-2,9.465695E-2,-3.8381018E-2,-7.34888E-2],"categories":[0,1,3,4],"categories_nodes":[2],"categories_segments":[0],"categories_sizes":[4],"default_left":[0,0,1,0,1,0,0,0,0,0,0,0,0,0,0],"id":11,"left_children":[1,3,5,7,9,11,13,-1,-1,-1,-1,-1,-1,-1,-1],"loss_changes":[4.5374752E1,1.9775562E1,7.5648575E0,8.2393055E0,1.4515318E1,7.8585043E0,4.50721E0,0E0,0E0,0E0,0E0,0E0,0E0,0E0,0E0],"parents":[2147483647,0,0,1,1,2,2,3,3,4,4,5,5,6,6],"right_children":[2,4,6,8,10,12,14,-1,-1,-1,-1,-1,-1,-1,-1],"split_conditions":[1.8983334E1,4.9E1,1E-45,7.5E1,1.3514316E2,9.90685E1,2.89E1,-4.1862655E-2,6.346214E-2,2.1471558E-2,-1.2452407E-2,-3.4877278E-2,9.465695E-2,-3.8381018E-2,-7.34888E-2],"split_indices":[1,0,5,11,8,8,1,0,0,0,0,0,0,0,0],"split_type":[0,0,1,0,0,0,0,0,0,0,0,0,0,0,0],"sum_hessian":[1.0821663E3,8.7498083E2,2.0718549E2,9.569274E1,7.792881E2,1.7418503E1,1.8976698E2,8.8475006E1,7.217733E0,6.2184076E2,1.574473E2,1.0413472E1,7.0050306E0,1.3753152E2,5.2235466E1],"tree_param":{"num_deleted":"0","num_feature":"17","num_nodes":"15","size_leaf_vector":"1"}},{"base_weights":[-6.2091895E-3,8.323067E-2,-3.9992929E-1,-1.4759451E-1,1.6370106E-1,1.7439751E-1,-4.5656294E-1,-2.6268164E-2,2.6774818E-2,2.5688162E-2,-6.9174725E-3,9.694838E-2,-2.224858E-2,-3.230898E-2,-6.575585E-2],"categories":[0,1,3,4,1],"categories_nodes":[2,3],"categories_segments":[0,4],"categories_sizes":[4,1],"default_left":[0,0,1,1,1,0,0,0,0,0,0,0,0,0,0],"id":12,"left_children":[1,3,5,7,9,11,13,-1,-1,-1,-1,-1,-1,-1,-1],"loss_changes":[3.811516E1,1.6408289E1,6.596615E0,1.0994818E1,1.4220726E1,6.1189957E0,4.687687E0,0E0,0E0,0E0,0E0,0E0,0E0,0E0,0E0],"parents":[2147483647,0,0,1,1,2,2,3,3,4,4,5,5,6,6],"right_children":[2,4,6,8,10,12,14,-1,-1,-1,-1,-1,-1,-1,-1],"split_conditions":[1.8983334E1,6.3333332E1,1E-45,1E-45,1.2810419E2,1.0655686E1,2.7E1,-2.6268164E-2,2.6774818E-2,2.5688162E-2,-6.9174725E-3,9.694838E-2,-2.224858E-2,-3.230898E-2,-6.575585E-2],"split_indices":[1,0,5,14,8,3,11,0,0,0,0,0,0,0,0],"split_type":[0,0,1,1,0,0,0,0,0,0,0,0,0,0,0],"sum_hessian":[1.0804331E3,8.810721E2,1.993611E2,2.2754288E2,6.535292E2,1.7707582E1,1.816535E2,1.784608E2,4.908207E1,4.666896E2,1.8683958E2,5.4156113E0,1.2291972E1,1.1072975E2,7.092376E1],"tree_param":{"num_deleted":"0","num_feature":"17","num_nodes":"15","size_leaf_vector":"1"}},{"base_weights":[-5.974443E-3,1.1011937E-1,-2.6578334E-1,9.2163146E-2,1.2125167E0,-3.5617158E-1,8.605686E-2,4.827279E-2,4.6110894E-3,-2.9316548E-2,1.4669661E-1,-2.3597002E-2,-5.813914E-2,3.64669E-2,-3.2922164E-2],"categories":[1],"categories_nodes":[2],"categories_segments":[0],"categories_sizes":[1],"default_left":[0,0,1,0,0,0,1,0,0,0,0,0,0,0,0],"id":13,"left_children":[1,3,5,7,9,11,13,-1,-1,-1,-1,-1,-1,-1,-1],"loss_changes":[3.258746E1,1.4670489E1,1.0641977E1,1.3213635E1,4.9839973E0,7.0547447E0,8.103969E0,0E0,0E0,0E0,0E0,0E0,0E0,0E0,0E0],"parents":[2147483647,0,0,1,1,2,2,3,3,4,4,5,5,6,6],"right_children":[2,4,6,8,10,12,14,-1,-1,-1,-1,-1,-1,-1,-1],"split_conditions":[1.3316667E1,1.064003E4,1E-45,7.694172E0,1.82E2,2.4083334E1,1.109965E2,4.827279E-2,4.6110894E-3,-2.9316548E-2,1.4669661E-1,-2.3597002E-2,-5.813914E-2,3.64669E-2,-3.2922164E-2],"split_indices":[1,9,14,2,16,1,8,0,0,0,0,0,0,0,0],"split_type":[0,0,1,0,0,0,0,0,0,0,0,0,0,0,0],"sum_hessian":[1.0784366E3,7.4577045E2,3.326662E2,7.34884E2,1.0886437E1,2.646619E2,6.800431E1,7.6511894E1,6.583721E2,1.5517774E0,9.33466E0,1.7389857E2,9.0763306E1,4.077204E1,2.7232271E1],"tree_param":{"num_deleted":"0","num_feature":"17","num_nodes":"15","size_leaf_vector":"1"}},{"base_weights":[-5.6333505E-3,6.740014E-2,-3.5263604E-1,2.950513E-1,-3.9944053E-3,4.665962E-3,-4.4020572E-1,-1.4714218E-2,5.0943602E-2,4.7376934E-2,-4.39416E-3,7.173418E-2,-2.6605865E-2,-2.7300147E-2,-6.9986664E-2],"categories":[1,3,4],"categories_nodes":[2],"categories_segments":[0],"categories_sizes":[3],"default_left":[0,1,1,1,0,0,0,0,0,0,0,0,0,0,0],"id":14,"left_children":[1,3,5,7,9,11,13,-1,-1,-1,-1,-1,-1,-1,-1],"loss_changes":[2.7329807E1,1.4482035E1,5.8688354E0,2.0240978E1,1.2984321E1,7.5029125E0,6.347704E0,0E0,0E0,0E0,0E0,0E0,0E0,0E0,0E0],"parents":[2147483647,0,0,1,1,2,2,3,3,4,4,5,5,6,6],"right_children":[2,4,6,8,10,12,14,-1,-1,-1,-1,-1,-1,-1,-1],"split_conditions":[1.8983334E1,6E0,1E-45,1E0,8.7E1,9.771748E0,2.7E1,-1.4714218E-2,5.0943602E-2,4.7376934E-2,-4.39416E-3,7.173418E-2,-2.6605865E-2,-2.7300147E-2,-6.9986664E-2],"split_indices":[1,11,5,7,16,3,11,0,0,0,0,0,0,0,0],"split_type":[0,0,1,0,0,0,0,0,0,0,0,0,0,0,0],"sum_hessian":[1.0764664E3,8.899623E2,1.8650417E2,2.1172281E2,6.7823944E2,3.6898308E1,1.4960587E2,6.923375E1,1.4248906E2,5.1495804E1,6.2674365E2,9.703741E0,2.7194569E1,9.2252686E1,5.735318E1],"tree_param":{"num_deleted":"0","num_feature":"17","num_nodes":"15","size_leaf_vector":"1"}},{"base_weights":[-5.3981803E-3,5.7182927E-2,-3.5718384E-1,9.154211E-2,-4.0918636E-1,-8.8848823E-1,-2.5601244E-1,2.0816123E-2,-3.7034606E-3,-9.951666E-3,-7.006773E-2,-9.595503E-2,-8.109214E-3,-3.7803393E-2,1.2368716E-2],"categories":[1,3,1],"categories_nodes":[3,6],"categories_segments":[0,2],"categories_sizes":[2,1],"default_left":[0,0,0,1,0,1,1,0,0,0,0,0,0,0,0],"id":15,"left_children":[1,3,5,7,9,11,13,-1,-1,-1,-1,-1,-1,-1,-1],"loss_changes":[2.369669E1,1.4681725E1,8.510698E0,1.2783015E1,5.6073294E0,1.3909225E0,6.4388027E0,0E0,0E0,0E0,0E0,0E0,0E0,0E0,0E0],"parents":[2147483647,0,0,1,1,2,2,3,3,4,4,5,5,6,6],"right_children":[2,4,6,8,10,12,14,-1,-1,-1,-1,-1,-1,-1,-1],"split_conditions":[4.5333336E1,2.1533333E1,2.9E1,1E-45,6.5333336E1,1.4528917E1,1E-45,2.0816123E-2,-3.7034606E-3,-9.951666E-3,-7.006773E-2,-9.595503E-2,-8.109214E-3,-3.7803393E-2,1.2368716E-2],"split_indices":[2,1,0,5,0,9,14,0,0,0,0,0,0,0,0],"split_type":[0,0,0,1,0,0,1,0,0,0,0,0,0,0,0],"sum_hessian":[1.0744539E3,9.1289197E2,1.6156197E2,8.509993E2,6.1892616E1,2.4598783E1,1.3696318E2,4.459257E2,4.0507364E2,3.0660933E1,3.1231684E1,2.2435682E1,2.163101E0,1.0365625E2,3.3306927E1],"tree_param":{"num_deleted":"0","num_feature":"17","num_nodes":"15","size_leaf_vector":"1"}},{"base_weights":[-5.3297235E-3,1.2672938E-1,-1.5280554E-1,-2.6860803E-1,1.6890773E-1,-2.4396265E-1,2.1681342E-1,-4.2282004E-2,3.960089E-2,2.1815823E-2,-2.1487724E-2,-1.9413704E-2,-6.232063E-2,3.5662276E-3,7.858551E-2],"categories":[1,3],"categories_nodes":[2,4],"categories_segments":[0,1],"categories_sizes":[1,1],"default_left":[0,0,1,0,1,0,0,0,0,0,0,0,0,0,0],"id":16,"left_children":[1,3,5,7,9,11,13,-1,-1,-1,-1,-1,-1,-1,-1],"loss_changes":[2.0940104E1,9.504446E0,1.7166943E1,5.812022E0,9.74715E0,7.587063E0,1.0384977E1,0E0,0E0,0E0,0E0,0E0,0E0,0E0,0E0],"parents":[2147483647,0,0,1,1,2,2,3,3,4,4,5,5,6,6],"right_children":[2,4,6,8,10,12,14,-1,-1,-1,-1,-1,-1,-1,-1],"split_conditions":[8.783334E0,5.2666668E1,1E-45,5.2E1,1E-45,2.805E1,1.2889504E1,-4.2282004E-2,3.960089E-2,2.1815823E-2,-2.1487724E-2,-1.9413704E-2,-6.232063E-2,3.5662276E-3,7.858551E-2],"split_indices":[1,0,14,11,5,1,9,0,0,0,0,0,0,0,0],"split_type":[0,0,1,0,1,0,0,0,0,0,0,0,0,0,0],"sum_hessian":[1.0732067E3,5.662719E2,5.0693478E2,5.4073433E1,5.121985E2,4.069186E2,1.0001616E2,4.418495E1,9.888483E0,4.54327E2,5.7871483E1,3.610016E2,4.591703E1,7.667104E1,2.3345114E1],"tree_param":{"num_deleted":"0","num_feature":"17","num_nodes":"15","size_leaf_vector":"1"}},{"base_weights":[-5.1137405E-3,2.094059E-2,-6.682224E-1,1.2426987E-1,-1.04488365E-1,-9.3507457E-1,-4.3953425E-1,6.5625586E-2,9.637244E-3,-1.8395947E-2,1.9020166E-2,-2.9964764E-2,-9.8434575E-2,1.4560771E-1,-5.883477E-2],"categories":[1,1,2,4],"categories_nodes":[4,5],"categories_segments":[0,1],"categories_sizes":[1,3],"default_left":[0,0,0,0,1,1,0,0,0,0,0,0,0,0,0],"id":17,"left_children":[1,3,5,7,9,11,13,-1,-1,-1,-1,-1,-1,-1,-1],"loss_changes":[1.854411E1,1.3400665E1,2.0653496E0,8.349151E0,1.0974825E1,2.6357174E-1,7.5532265E0,0E0,0E0,0E0,0E0,0E0,0E0,0E0,0E0],"parents":[2147483647,0,0,1,1,2,2,3,3,4,4,5,5,6,6],"right_children":[2,4,6,8,10,12,14,-1,-1,-1,-1,-1,-1,-1,-1],"split_conditions":[6.1071552E1,8.783334E0,2.465E1,6.0599093E0,1E-45,1E-45,1.2152134E1,6.5625586E-2,9.637244E-3,-1.8395947E-2,1.9020166E-2,-2.9964764E-2,-9.8434575E-2,1.4560771E-1,-5.883477E-2],"split_indices":[2,1,1,2,14,6,3,0,0,0,0,0,0,0,0],"split_type":[0,0,0,0,1,1,0,0,0,0,0,0,0,0,0],"sum_hessian":[1.0715399E3,1.0319614E3,3.957857E1,5.658331E2,4.661282E2,1.683973E1,2.273884E1,2.7071592E1,5.3876154E2,3.6741943E2,9.870879E1,1.7213894E0,1.51183405E1,1.0157287E0,2.1723112E1],"tree_param":{"num_deleted":"0","num_feature":"17","num_nodes":"15","size_leaf_vector":"1"}},{"base_weights":[-4.7927178E-3,1.8789593E-2,-6.4272314E-1,2.2270422E-1,-4.195701E-2,-7.1674865E-1,8.1647E-2,4.0635046E-2,-1.0999052E-2,2.510163E-2,-9.053038E-3,-9.0690725E-2,-5.4473102E-2,-6.9532454E-2,9.33913E-2],"categories":[1],"categories_nodes":[2],"categories_segments":[0],"categories_sizes":[1],"default_left":[0,1,1,1,0,0,0,0,0,0,0,0,0,0,0],"id":18,"left_children":[1,3,5,7,9,11,13,-1,-1,-1,-1,-1,-1,-1,-1],"loss_changes":[1.6122993E1,1.2814192E1,2.1071978E0,1.4550896E1,1.1368836E1,6.431942E-1,3.589556E0,0E0,0E0,0E0,0E0,0E0,0E0,0E0,0E0],"parents":[2147483647,0,0,1,1,2,2,3,3,4,4,5,5,6,6],"right_children":[2,4,6,8,10,12,14,-1,-1,-1,-1,-1,-1,-1,-1],"split_conditions":[6.1071552E1,6E0,1E-45,9.054539E1,1.54E2,2.4933332E1,3E1,4.0635046E-2,-1.0999052E-2,2.510163E-2,-9.053038E-3,-9.0690725E-2,-5.4473102E-2,-6.9532454E-2,9.33913E-2],"split_indices":[2,11,14,8,16,1,0,0,0,0,0,0,0,0,0],"split_type":[0,0,1,0,0,0,0,0,0,0,0,0,0,0,0],"sum_hessian":[1.0699287E3,1.0327228E3,3.7206013E1,2.3642467E2,7.962981E2,3.37659E1,3.4401143E0,1.521932E2,8.423146E1,1.12653534E2,6.8364453E2,1.4008205E1,1.9757692E1,1.8958769E0,1.5442374E0],"tree_param":{"num_deleted":"0","num_feature":"17","num_nodes":"15","size_leaf_vector":"1"}},{"base_weights":[-4.6023657E-3,1.1620267E-1,-1.1718912E-1,1.1719137E-2,3.565516E-1,-8.361885E-1,-8.979645E-2,3.903899E-2,-5.5986824E-3,8.902984E-3,8.507519E-2,-9.252438E-2,4.335111E-3,3.825532E-3,-2.496505E-2],"categories":[],"categories_nodes":[],"categories_segments":[],"categories_sizes":[],"default_left":[0,0,0,0,0,1,1,0,0,0,0,0,0,0,0],"id":19,"left_children":[1,3,5,7,9,11,13,-1,-1,-1,-1,-1,-1,-1,-1],"loss_changes":[1.4558935E1,1.2963587E1,1.0836893E1,9.276158E0,2.0605785E1,1.6233473E0,1.0957233E1,0E0,0E0,0E0,0E0,0E0,0E0,0E0,0E0],"parents":[2147483647,0,0,1,1,2,2,3,3,4,4,5,5,6,6],"right_children":[2,4,6,8,10,12,14,-1,-1,-1,-1,-1,-1,-1,-1],"split_conditions":[1.9251846E1,9.862817E0,2.9E1,7.4666664E1,1.4673896E1,1.4528917E1,9.23442E1,3.903899E-2,-5.5986824E-3,8.902984E-3,8.507519E-2,-9.252438E-2,4.335111E-3,3.825532E-3,-2.496505E-2],"split_indices":[2,9,0,0,3,9,8,0,0,0,0,0,0,0,0],"split_type":[0,0,0,0,0,0,0,0,0,0,0,0,0,0,0],"sum_hessian":[1.0684263E3,5.153867E2,5.5303955E2,3.599566E2,1.5543015E2,1.9213E1,5.3382654E2,5.387495E1,3.0608163E2,1.01607735E2,5.382241E1,1.7399319E1,1.8136824E0,2.9681906E2,2.370075E2],"tree_param":{"num_deleted":"0","num_feature":"17","num_nodes":"15","size_leaf_vector":"1"}},{"base_weights":[-4.4147726E-3,4.3155596E-2,-2.6208884E-1,2.8985016E-2,8.6527693E-1,-1.4902095E-1,-5.8114725E-1,2.3730164E-2,-2.6636708E-3,1.1197024E-1,-2.811805E-2,2.081474E-3,-4.443187E-2,-6.391781E-2,7.88153E-2],"categories":[0,4],"categories_nodes":[3,4],"categories_segments":[0,1],"categories_sizes":[1,1],"default_left":[0,0,0,1,1,0,0,0,0,0,0,0,0,0,0],"id":20,"left_children":[1,3,5,7,9,11,13,-1,-1,-1,-1,-1,-1,-1,-1],"loss_changes":[1.31027155E1,1.0488218E1,5.923003E0,1.0297568E1,4.765023E0,6.2452774E0,3.9399233E0,0E0,0E0,0E0,0E0,0E0,0E0,0E0,0E0],"parents":[2147483647,0,0,1,1,2,2,3,3,4,4,5,5,6,6],"right_children":[2,4,6,8,10,12,14,-1,-1,-1,-1,-1,-1,-1,-1],"split_conditions":[1.8983334E1,1.064003E4,6.5666664E1,1E-45,1E-45,2.7E1,8.8333336E1,2.3730164E-2,-2.6636708E-3,1.1197024E-1,-2.811805E-2,2.081474E-3,-4.443187E-2,-6.391781E-2,7.88153E-2],"split_indices":[1,9,0,14,6,11,0,0,0,0,0,0,0,0,0],"split_type":[0,0,0,1,1,0,0,0,0,0,0,0,0,0,0],"sum_hessian":[1.0670193E3,9.01434E2,1.6558528E2,8.871773E2,1.4256668E1,1.23342316E2,4.224296E1,1.8627325E2,7.0090405E2,1.1686501E1,2.5701675E0,7.889604E1,4.4446266E1,4.1037025E1,1.205936E0],"tree_param":{"num_deleted":"0","num_feature":"17","num_nodes":"15","size_leaf_vector":"1"}},{"base_weights":[-4.1048075E-3,-8.16923E-1,1.03506055E-2,-9.120701E-1,4.0285666E-3,1.116058E-1,-1.0303031E-1,-3.837603E-2,-9.618013E-2,2.74887E-3,2.6434273E-2,4.0032573E-2,-1.5214664E-2],"categories":[1,3,1,2,4],"categories_nodes":[2,3],"categories_segments":[0,2],"categories_sizes":[2,3],"default_left":[0,1,1,1,0,0,0,0,0,0,0,0,0],"id":21,"left_children":[1,3,5,7,-1,9,11,-1,-1,-1,-1,-1,-1],"loss_changes":[1.2544249E1,1.5582819E0,1.2057373E1,7.31802E-2,0E0,7.1199903E0,1.23113785E1,0E0,0E0,0E0,0E0,0E0,0E0],"parents":[2147483647,0,0,1,1,2,2,3,3,5,5,6,6],"right_children":[2,4,6,8,-1,10,12,-1,-1,-1,-1,-1,-1],"split_conditions":[2.9E1,1.4528917E1,1E-45,1E-45,4.0285666E-3,3E0,7.694172E0,-3.837603E-2,-9.618013E-2,2.74887E-3,2.6434273E-2,4.0032573E-2,-1.5214664E-2],"split_indices":[0,9,5,6,0,13,2,0,0,0,0,0,0],"split_type":[0,0,1,1,0,0,0,0,0,0,0,0,0],"sum_hessian":[1.0659102E3,1.765523E1,1.048255E3,1.583374E1,1.8214885E0,5.53746E2,4.94509E2,2.1121733E0,1.3721567E1,3.5784775E2,1.9589824E2,4.332752E1,4.511815E2],"tree_param":{"num_deleted":"0","num_feature":"17","num_nodes":"13","size_leaf_vector":"1"}},{"base_weights":[-3.9357026E-3,3.758689E-2,-2.68555E-1,6.9287226E-2,-2.8739622E-1,-8.3514494E-1,-1.9890392E-1,9.59841E-3,-3.1409934E-2,8.754772E-2,-3.5837892E-2,-8.906341E-2,-4.5677987E-3,-6.039848E-3,-4.16549E-2],"categories":[3,0,4],"categories_nodes":[1,6],"categories_segments":[0,1],"categories_sizes":[1,2],"default_left":[0,1,0,0,0,0,0,0,0,0,0,0,0,0,0],"id":22,"left_children":[1,3,5,7,9,11,13,-1,-1,-1,-1,-1,-1,-1,-1],"loss_changes":[1.1723206E1,9.521649E0,5.5446386E0,8.6394825E0,7.0959764E0,6.395998E-1,3.8991284E0,0E0,0E0,0E0,0E0,0E0,0E0,0E0,0E0],"parents":[2147483647,0,0,1,1,2,2,3,3,4,4,5,5,6,6],"right_children":[2,4,6,8,10,12,14,-1,-1,-1,-1,-1,-1,-1,-1],"split_conditions":[4.5333336E1,1E-45,2.8333334E1,2.1533333E1,8.5E-1,8.971232E1,1E-45,9.59841E-3,-3.1409934E-2,8.754772E-2,-3.5837892E-2,-8.906341E-2,-4.5677987E-3,-6.039848E-3,-4.16549E-2],"split_indices":[2,5,0,1,1,2,6,0,0,0,0,0,0,0,0],"split_type":[0,1,0,0,0,0,1,0,0,0,0,0,0,0,0],"sum_hessian":[1.0650225E3,9.2131305E2,1.437094E2,8.4014795E2,8.116507E1,1.4529113E1,1.2918028E2,7.861543E2,5.3993683E1,4.0173407E0,7.714773E1,1.3455239E1,1.0738735E0,7.9723305E1,4.9456974E1],"tree_param":{"num_deleted":"0","num_feature":"17","num_nodes":"15","size_leaf_vector":"1"}},{"base_weights":[-3.8277449E-3,1.5186821E-2,-5.210122E-1,3.1718328E-3,7.087156E-1,-5.8040386E-1,4.672928E-2,1.7004866E-2,-4.4229776E-3,1.794863E-2,1.14199094E-1,-3.649012E-2,-8.8142425E-2],"categories":[0,0],"categories_nodes":[3,4],"categories_segments":[0,1],"categories_sizes":[1,1],"default_left":[0,0,0,1,1,0,0,0,0,0,0,0,0],"id":23,"left_children":[1,3,5,7,9,11,-1,-1,-1,-1,-1,-1,-1],"loss_changes":[1.0481937E1,8.566149E0,2.4898453E0,8.010889E0,3.809307E0,2.0202808E0,0E0,0E0,0E0,0E0,0E0,0E0,0E0],"parents":[2147483647,0,0,1,1,2,2,3,3,4,4,5,5],"right_children":[2,4,6,8,10,12,-1,-1,-1,-1,-1,-1,-1],"split_conditions":[2.89E1,1.064003E4,7.322668E1,1E-45,1E-45,2.7E1,4.672928E-2,1.7004866E-2,-4.4229776E-3,1.794863E-2,1.14199094E-1,-3.649012E-2,-8.8142425E-2],"split_indices":[1,9,3,14,14,11,0,0,0,0,0,0,0],"split_type":[0,0,0,1,1,0,0,0,0,0,0,0,0],"sum_hessian":[1.0640787E3,1.0272809E3,3.6797905E1,1.01077435E3,1.6506512E1,3.5101242E1,1.6966628E0,2.2302611E2,7.877482E2,8.067103E0,8.439408E0,2.1745613E1,1.3355628E1],"tree_param":{"num_deleted":"0","num_feature":"17","num_nodes":"13","size_leaf_vector":"1"}},{"base_weights":[-3.5095175E-3,-7.769937E-1,8.302595E-3,-8.864775E-1,9.815837E-3,9.437928E-2,-9.0442196E-2,-3.2375332E-2,-9.444969E-2,3.7626836E-3,2.8803095E-2,3.5212398E-2,-1.3535932E-2],"categories":[1,3,1,2,4],"categories_nodes":[2,3],"categories_segments":[0,2],"categories_sizes":[2,3],"default_left":[0,1,1,1,0,0,0,0,0,0,0,0,0],"id":24,"left_children":[1,3,5,7,-1,9,11,-1,-1,-1,-1,-1,-1],"loss_changes":[9.730078E0,1.6218567E0,8.926724E0,1.6231251E-1,0E0,6.1554446E0,9.771862E0,0E0,0E0,0E0,0E0,0E0,0E0],"parents":[2147483647,0,0,1,1,2,2,3,3,5,5,6,6],"right_children":[2,4,6,8,-1,10,12,-1,-1,-1,-1,-1,-1],"split_conditions":[2.9E1,1.4528917E1,1E-45,1E-45,9.815837E-3,1.3519069E1,7.694172E0,-3.2375332E-2,-9.444969E-2,3.7626836E-3,2.8803095E-2,3.5212398E-2,-1.3535932E-2],"split_indices":[0,9,5,6,0,9,2,0,0,0,0,0,0],"split_type":[0,0,1,1,0,0,0,0,0,0,0,0,0],"sum_hessian":[1.0632638E3,1.5018802E1,1.048245E3,1.3337327E1,1.6814744E0,5.600707E2,4.881743E2,1.8616331E0,1.1475695E1,4.3405798E2,1.26012726E2,4.4350605E1,4.4382367E2],"tree_param":{"num_deleted":"0","num_feature":"17","num_nodes":"13","size_leaf_vector":"1"}},{"base_weights":[-3.3503086E-3,1.2082458E-2,-5.4618084E-1,-5.682639E-1,2.538663E-2,1.1327328E-1,-6.6268545E-1,-4.7649774E-3,-7.926651E-2,6.7039537E-3,-1.5828991E-2,-5.530872E-2,1.4629115E-1,-7.298091E-2,4.383306E-2],"categories":[],"categories_nodes":[],"categories_segments":[],"categories_sizes":[],"default_left":[0,0,0,0,1,0,0,0,0,0,0,0,0,0,0],"id":25,"left_children":[1,3,5,7,9,11,13,-1,-1,-1,-1,-1,-1,-1,-1],"loss_changes":[8.913872E0,8.004445E0,2.334962E0,2.676611E0,7.7577057E0,5.549022E0,2.178152E0,0E0,0E0,0E0,0E0,0E0,0E0,0E0,0E0],"parents":[2147483647,0,0,1,1,2,2,3,3,4,4,5,5,6,6],"right_children":[2,4,6,8,10,12,14,-1,-1,-1,-1,-1,-1,-1,-1],"split_conditions":[3.0316668E1,3.1333334E1,1.11E2,1.7484853E0,1.3419472E2,8.2E1,1.156E3,-4.7649774E-3,-7.926651E-2,6.7039537E-3,-1.5828991E-2,-5.530872E-2,1.4629115E-1,-7.298091E-2,4.383306E-2],"split_indices":[1,0,16,9,8,16,16,0,0,0,0,0,0,0,0],"split_type":[0,0,0,0,0,0,0,0,0,0,0,0,0,0,0],"sum_hessian":[1.0622533E3,1.0338387E3,2.8414474E1,2.2234308E1,1.01160443E3,4.2703934E0,2.4144081E1,7.0622125E0,1.5172096E1,8.251236E2,1.8648085E2,3.2539887E0,1.0164045E0,2.307449E1,1.0695914E0],"tree_param":{"num_deleted":"0","num_feature":"17","num_nodes":"15","size_leaf_vector":"1"}},{"base_weights":[-3.1870431E-3,9.945498E-2,-7.8720585E-2,2.81669E-1,2.2148479E-2,-1.4477487E-1,1.6837521E-1,1.1057433E-1,2.1130076E-2,2.554707E-2,-1.1572233E-2,-1.1558093E-2,-5.4812618E-2,1.3245933E-2,2.3157215E-1],"categories":[1,3],"categories_nodes":[2,5],"categories_segments":[0,1],"categories_sizes":[1,1],"default_left":[0,1,1,0,0,1,0,0,0,0,0,0,0,0,0],"id":26,"left_children":[1,3,5,7,9,11,13,-1,-1,-1,-1,-1,-1,-1,-1],"loss_changes":[8.246288E0,6.3455524E0,1.0024843E1,7.550481E0,1.0248914E1,5.6359997E0,9.696526E0,0E0,0E0,0E0,0E0,0E0,0E0,0E0,0E0],"parents":[2147483647,0,0,1,1,2,2,3,3,4,4,5,5,6,6],"right_children":[2,4,6,8,10,12,14,-1,-1,-1,-1,-1,-1,-1,-1],"split_conditions":[6.516667E0,1.9318181E0,1E-45,2.8760436E-1,6E0,1E-45,1.167E3,1.1057433E-1,2.1130076E-2,2.554707E-2,-1.1572233E-2,-1.1558093E-2,-5.4812618E-2,1.3245933E-2,2.3157215E-1],"split_indices":[1,9,14,3,11,5,16,0,0,0,0,0,0,0,0],"split_type":[0,0,1,0,0,1,0,0,0,0,0,0,0,0,0],"sum_hessian":[1.0616274E3,4.499189E2,6.117085E2,1.3323529E2,3.1668362E2,4.8300458E2,1.2870392E2,9.32442E0,1.2391087E2,1.1730777E2,1.9937584E2,4.5160468E2,3.1399885E1,1.2763089E2,1.0730317E0],"tree_param":{"num_deleted":"0","num_feature":"17","num_nodes":"15","size_leaf_vector":"1"}},{"base_weights":[-2.7499693E-3,-7.416036E-1,7.2523872E-3,-8.639084E-1,1.4061506E-2,8.016064E-2,-8.639001E-2,-2.866216E-2,-9.291058E-2,-2.4906013E-4,4.5248352E-2,2.9287636E-2,-1.4131128E-2],"categories":[1,2,4],"categories_nodes":[3],"categories_segments":[0],"categories_sizes":[3],"default_left":[0,1,1,1,0,0,0,0,0,0,0,0,0],"id":27,"left_children":[1,3,5,7,-1,9,11,-1,-1,-1,-1,-1,-1],"loss_changes":[7.848964E0,1.652122E0,7.162981E0,2.0788097E-1,0E0,1.8152182E1,9.608811E0,0E0,0E0,0E0,0E0,0E0,0E0],"parents":[2147483647,0,0,1,1,2,2,3,3,5,5,6,6],"right_children":[2,4,6,8,-1,10,12,-1,-1,-1,-1,-1,-1],"split_conditions":[2.9E1,1.4528917E1,8.5827995E1,1E-45,1.4061506E-2,9.862817E0,1.25E2,-2.866216E-2,-9.291058E-2,-2.4906013E-4,4.5248352E-2,2.9287636E-2,-1.4131128E-2],"split_indices":[0,9,8,6,0,9,16,0,0,0,0,0,0],"split_type":[0,0,0,1,0,0,0,0,0,0,0,0,0],"sum_hessian":[1.0603384E3,1.3185821E1,1.0471526E3,1.1598622E1,1.5871985E0,5.888381E2,4.583145E2,1.7245852E0,9.874037E0,4.8268176E2,1.06156296E2,5.742507E1,4.0088943E2],"tree_param":{"num_deleted":"0","num_feature":"17","num_nodes":"13","size_leaf_vector":"1"}},{"base_weights":[-2.673477E-3,8.1002414E-2,-8.495855E-2,2.8242273E-3,2.5270337E-1,-3.5268065E-2,-3.8877884E-1,1.1001787E-1,-1.6421842E-3,2.1924663E-3,6.6190094E-2,2.7911445E-2,-8.823287E-3,-1.017164E-2,-6.717306E-2],"categories":[],"categories_nodes":[],"categories_segments":[],"categories_sizes":[],"default_left":[0,0,0,0,0,0,1,0,0,0,0,0,0,0,0],"id":28,"left_children":[1,3,5,7,9,11,13,-1,-1,-1,-1,-1,-1,-1,-1],"loss_changes":[7.3063664E0,7.061924E0,8.063317E0,7.6749763E0,1.5529507E1,7.6992846E0,6.0318775E0,0E0,0E0,0E0,0E0,0E0,0E0,0E0,0E0],"parents":[2147483647,0,0,1,1,2,2,3,3,4,4,5,5,6,6],"right_children":[2,4,6,8,10,12,14,-1,-1,-1,-1,-1,-1,-1,-1],"split_conditions":[1.9251846E1,9.862817E0,7.0333336E1,7.1E1,1.4673896E1,1.45E2,8.485007E1,1.1001787E-1,-1.6421842E-3,2.1924663E-3,6.6190094E-2,2.7911445E-2,-8.823287E-3,-1.017164E-2,-6.717306E-2],"split_indices":[2,9,0,0,3,16,8,0,0,0,0,0,0,0,0],"split_type":[0,0,0,0,0,0,0,0,0,0,0,0,0,0,0],"sum_hessian":[1.0591584E3,5.251489E2,5.340096E2,3.6154715E2,1.6360176E2,4.599069E2,7.410272E1,5.26368E0,3.5628348E2,1.05279785E2,5.832197E1,6.569458E1,3.942123E2,3.7458996E1,3.6643726E1],"tree_param":{"num_deleted":"0","num_feature":"17","num_nodes":"15","size_leaf_vector":"1"}},{"base_weights":[-2.4980747E-3,1.07885385E-2,-5.0656503E-1,8.510977E-2,-7.645438E-2,9.844996E-2,-6.254623E-1,-9.570658E-2,9.492406E-3,-9.118333E-3,1.04242995E-1,-5.4030288E-2,1.2650369E-1,-6.972752E-2,4.1949507E-2],"categories":[1,3],"categories_nodes":[1],"categories_segments":[0],"categories_sizes":[2],"default_left":[0,1,0,0,1,0,0,0,0,0,0,0,0,0,0],"id":29,"left_children":[1,3,5,7,9,11,13,-1,-1,-1,-1,-1,-1,-1,-1],"loss_changes":[7.097773E0,6.7028995E0,2.0194416E0,5.799728E0,7.933034E0,4.6583686E0,2.0096807E0,0E0,0E0,0E0,0E0,0E0,0E0,0E0,0E0],"parents":[2147483647,0,0,1,1,2,2,3,3,4,4,5,5,6,6],"right_children":[2,4,6,8,10,12,14,-1,-1,-1,-1,-1,-1,-1,-1],"split_conditions":[3.0316668E1,1E-45,1.11E2,2E0,1.6783755E3,8.2E1,1.156E3,-9.570658E-2,9.492406E-3,-9.118333E-3,1.04242995E-1,-5.4030288E-2,1.2650369E-1,-6.972752E-2,4.1949507E-2],"split_indices":[1,5,16,16,9,16,16,0,0,0,0,0,0,0,0],"split_type":[0,1,0,0,0,0,0,0,0,0,0,0,0,0,0],"sum_hessian":[1.0579735E3,1.0317562E3,2.6217285E1,5.571506E2,4.7460568E2,4.3342404E0,2.1883045E1,4.297363E0,5.528532E2,4.6934573E2,5.259948E0,3.147636E0,1.1866046E0,2.0787203E1,1.0958407E0],"tree_param":{"num_deleted":"0","num_feature":"17","num_nodes":"15","size_leaf_vector":"1"}},{"base_weights":[-2.3204202E-3,-7.6312655E-1,6.1230105E-3,-1.579166E-2,-8.2583755E-1,4.5432577E-1,-7.215421E-3,-1.1520603E-2,-9.0803646E-2,7.97776E-2,-1.1848937E-2,-1.01492874E-1,1.3738748E-4],"categories":[],"categories_nodes":[],"categories_segments":[],"categories_sizes":[],"default_left":[0,0,0,0,0,0,0,0,0,0,0,0,0],"id":30,"left_children":[1,3,5,-1,7,9,11,-1,-1,-1,-1,-1,-1],"loss_changes":[6.8036904E0,3.108034E-1,6.267262E0,0E0,4.9688816E-1,6.0548277E0,8.816956E0,0E0,0E0,0E0,0E0,0E0,0E0],"parents":[2147483647,0,0,1,1,2,2,4,4,5,5,6,6],"right_children":[2,4,6,-1,8,10,12,-1,-1,-1,-1,-1,-1],"split_conditions":[2.8333334E1,5E0,6.0599093E0,-1.579166E-2,6.4125755E1,4.25E0,3E0,-1.1520603E-2,-9.0803646E-2,7.97776E-2,-1.1848937E-2,-1.01492874E-1,1.3738748E-4],"split_indices":[0,11,2,0,2,1,16,0,0,0,0,0,0],"split_type":[0,0,0,0,0,0,0,0,0,0,0,0,0],"sum_hessian":[1.0574083E3,1.0625252E1,1.0467831E3,1.3279229E0,9.297329E0,2.9296316E1,1.0174867E3,1.2129133E0,8.084415E0,1.8069452E1,1.1226864E1,7.609107E0,1.0098776E3],"tree_param":{"num_deleted":"0","num_feature":"17","num_nodes":"13","size_leaf_vector":"1"}},{"base_weights":[-2.3162176E-3,-1.993977E-1,2.8445635E-2,-2.4869768E-1,3.614203E-1,2.3097634E-1,-7.396671E-3,-3.60642E-2,4.294519E-3,1.0516625E-1,-4.2413574E-2,3.18287E-2,-7.505816E-2,5.6106765E-3,-1.4886928E-2],"categories":[1],"categories_nodes":[3],"categories_segments":[0],"categories_sizes":[1],"default_left":[0,1,0,1,0,1,1,0,0,0,0,0,0,0,0],"id":31,"left_children":[1,3,5,7,9,11,13,-1,-1,-1,-1,-1,-1,-1,-1],"loss_changes":[6.4190288E0,4.0421996E0,6.650437E0,4.3246984E0,6.9302425E0,1.2044056E1,7.008312E0,0E0,0E0,0E0,0E0,0E0,0E0,0E0,0E0],"parents":[2147483647,0,0,1,1,2,2,3,3,4,4,5,5,6,6],"right_children":[2,4,6,8,10,12,14,-1,-1,-1,-1,-1,-1,-1,-1],"split_conditions":[4.9E1,7.4E1,1.54E2,1E-45,1E0,5.7640438E1,1.1966724E2,-3.60642E-2,4.294519E-3,1.0516625E-1,-4.2413574E-2,3.18287E-2,-7.505816E-2,5.6106765E-3,-1.4886928E-2],"split_indices":[0,11,16,14,12,9,8,0,0,0,0,0,0,0,0],"split_type":[0,0,0,1,0,0,0,0,0,0,0,0,0,0,0],"sum_hessian":[1.0568574E3,1.4194954E2,9.1490784E2,1.3099101E2,1.095852E1,1.3674901E2,7.781589E2,9.448664E1,3.650438E1,5.652822E0,5.3056974E0,1.2619918E2,1.0549823E1,5.374946E2,2.406642E2],"tree_param":{"num_deleted":"0","num_feature":"17","num_nodes":"15","size_leaf_vector":"1"}},{"base_weights":[-2.2810723E-3,-7.381934E-1,5.212017E-3,-1.3301238E-2,-8.055254E-1,2.6776658E-2,-2.5783688E-1,-1.0039686E-2,-8.944002E-2,-1.7383985E-2,5.5505633E-3,-1.1337317E-2,-7.866379E-2],"categories":[3],"categories_nodes":[2],"categories_segments":[0],"categories_sizes":[1],"default_left":[0,0,1,0,0,0,0,0,0,0,0,0,0],"id":32,"left_children":[1,3,5,-1,7,9,11,-1,-1,-1,-1,-1,-1],"loss_changes":[5.8336396E0,3.273592E-1,5.9492383E0,0E0,4.9914837E-1,5.595023E0,5.981401E0,0E0,0E0,0E0,0E0,0E0,0E0],"parents":[2147483647,0,0,1,1,2,2,4,4,5,5,6,6],"right_children":[2,4,6,-1,8,10,12,-1,-1,-1,-1,-1,-1],"split_conditions":[2.8333334E1,5E0,1E-45,-1.3301238E-2,6.4125755E1,8.277882E-1,1.8464048E1,-1.0039686E-2,-8.944002E-2,-1.7383985E-2,5.5505633E-3,-1.1337317E-2,-7.866379E-2],"split_indices":[0,11,5,0,2,9,2,0,0,0,0,0,0],"split_type":[0,0,1,0,0,0,0,0,0,0,0,0,0],"sum_hessian":[1.0562219E3,9.663186E0,1.0465587E3,1.2653828E0,8.397803E0,9.68093E2,7.846567E1,1.1783634E0,7.2194395E0,1.2063551E2,8.474575E2,6.2582962E1,1.5882708E1],"tree_param":{"num_deleted":"0","num_feature":"17","num_nodes":"13","size_leaf_vector":"1"}},{"base_weights":[-2.3467797E-3,9.016684E-3,-4.6641532E-1,2.0054463E-1,-2.0659164E-2,-2.2664438E-1,-8.1479484E-1,3.3899106E-2,-1.3728847E-2,8.282796E-3,-8.706188E-3,5.7200808E-2,-4.3028925E-2,-9.561024E-3,-9.0258986E-2],"categories":[1,3,4,5],"categories_nodes":[1],"categories_segments":[0],"categories_sizes":[4],"default_left":[0,1,0,0,1,0,0,0,0,0,0,0,0,0,0],"id":33,"left_children":[1,3,5,7,9,11,13,-1,-1,-1,-1,-1,-1,-1,-1],"loss_changes":[5.578359E0,5.8740044E0,1.9272814E0,6.5310884E0,6.158191E0,2.9071784E0,5.401788E-1,0E0,0E0,0E0,0E0,0E0,0E0,0E0,0E0],"parents":[2147483647,0,0,1,1,2,2,3,3,4,4,5,5,6,6],"right_children":[2,4,6,8,10,12,14,-1,-1,-1,-1,-1,-1,-1,-1],"split_conditions":[3.0316668E1,1E-45,2.7E1,3.6203625E1,4.495178E1,1.11E2,3E1,3.3899106E-2,-1.3728847E-2,8.282796E-3,-8.706188E-3,5.7200808E-2,-4.3028925E-2,-9.561024E-3,-9.0258986E-2],"split_indices":[1,5,11,2,8,16,0,0,0,0,0,0,0,0,0],"split_type":[0,1,0,0,0,0,0,0,0,0,0,0,0,0,0],"sum_hessian":[1.0560271E3,1.0317438E3,2.4283333E1,1.3764232E2,8.9410144E2,1.53614435E1,8.921889E0,9.7629585E1,4.0012733E1,3.4936954E2,5.447319E2,2.7535899E0,1.2607853E1,1.1979269E0,7.723963E0],"tree_param":{"num_deleted":"0","num_feature":"17","num_nodes":"15","size_leaf_vector":"1"}},{"base_weights":[-2.2857045E-3,-7.9029804E-1,4.248681E-3,2.9995073E-2,-9.7252704E-2,-6.2796623E-3,6.029337E-1,1.863362E-2,-3.982502E-3,5.826021E-3,1.1110009E-1],"categories":[0],"categories_nodes":[6],"categories_segments":[0],"categories_sizes":[1],"default_left":[0,0,0,0,0,0,1,0,0,0,0],"id":34,"left_children":[1,3,5,-1,-1,7,9,-1,-1,-1,-1],"loss_changes":[5.442906E0,2.0188227E0,6.6139035E0,0E0,0E0,6.6727414E0,4.953445E0,0E0,0E0,0E0,0E0],"parents":[2147483647,0,0,1,1,2,2,5,5,6,6],"right_children":[2,4,6,-1,-1,8,10,-1,-1,-1,-1],"split_conditions":[3E0,7.874643E0,1.064003E4,2.9995073E-2,-9.7252704E-2,1.54E2,1E-45,1.863362E-2,-3.982502E-3,5.826021E-3,1.1110009E-1],"split_indices":[16,2,9,0,0,16,14,0,0,0,0],"split_type":[0,0,0,0,0,0,1,0,0,0,0],"sum_hessian":[1.0553918E3,7.693157E0,1.0476986E3,1.0092076E0,6.6839495E0,1.0305648E3,1.7133776E1,1.521829E2,8.7838196E2,8.806952E0,8.326824E0],"tree_param":{"num_deleted":"0","num_feature":"17","num_nodes":"11","size_leaf_vector":"1"}},{"base_weights":[-2.074159E-3,2.6168853E-1,-2.1346666E-2,6.3377404E-1,-1.11876644E-1,-9.671475E-2,-1.39834555E-2,7.739421E-2,-4.0492956E-2,6.5829806E-2,-3.973046E-2,7.398367E-4,-3.03594E-2],"categories":[5,1,4,3],"categories_nodes":[3,4,6],"categories_segments":[0,1,3],"categories_sizes":[1,2,1],"default_left":[0,0,0,1,1,0,1,0,0,0,0,0,0],"id":35,"left_children":[1,3,5,7,9,-1,11,-1,-1,-1,-1,-1,-1],"loss_changes":[5.3733153E0,1.0075538E1,6.8458853E0,5.58529E0,8.343991E0,0E0,6.0606966E0,0E0,0E0,0E0,0E0,0E0,0E0],"parents":[2147483647,0,0,1,1,2,2,3,3,4,4,6,6],"right_children":[2,4,6,8,10,-1,12,-1,-1,-1,-1,-1,-1],"split_conditions":[7.340905E0,4.25E0,3E0,1E-45,1E-45,-9.671475E-2,1E-45,7.739421E-2,-4.0492956E-2,6.5829806E-2,-3.973046E-2,7.398367E-4,-3.03594E-2],"split_indices":[2,1,16,5,6,0,5,0,0,0,0,0,0],"split_type":[0,0,0,1,1,0,1,0,0,0,0,0,0],"sum_hessian":[1.0549395E3,7.097672E1,9.839627E2,3.520982E1,3.5766907E1,6.5941863E0,9.773685E2,3.1247955E1,3.9618642E0,9.317904E0,2.6449001E1,9.110784E2,6.629008E1],"tree_param":{"num_deleted":"0","num_feature":"17","num_nodes":"13","size_leaf_vector":"1"}},{"base_weights":[-2.0452254E-3,-6.682276E-1,5.2128187E-3,-8.1665325E-1,2.0155175E-2,6.6293836E-2,-6.783139E-2,-1.976381E-2,-8.983152E-2,1.2882781E-1,5.7833246E-3,-8.110249E-3,8.857325E-2],"categories":[1,3,1,2,4],"categories_nodes":[2,3],"categories_segments":[0,2],"categories_sizes":[2,3],"default_left":[0,1,1,1,0,0,1,0,0,0,0,0,0],"id":36,"left_children":[1,3,5,7,-1,9,11,-1,-1,-1,-1,-1,-1],"loss_changes":[5.106318E0,1.6339741E0,4.6667657E0,3.2394886E-1,0E0,5.814377E0,6.100327E0,0E0,0E0,0E0,0E0,0E0,0E0],"parents":[2147483647,0,0,1,1,2,2,3,3,5,5,6,6],"right_children":[2,4,6,8,-1,10,12,-1,-1,-1,-1,-1,-1],"split_conditions":[2.9E1,1.4528917E1,1E-45,1E-45,2.0155175E-2,3E1,1.6783755E3,-1.976381E-2,-8.983152E-2,1.2882781E-1,5.7833246E-3,-8.110249E-3,8.857325E-2],"split_indices":[0,9,5,6,0,0,9,0,0,0,0,0,0],"split_type":[0,0,1,1,0,0,0,0,0,0,0,0,0],"sum_hessian":[1.0543555E3,1.0381897E1,1.0439736E3,8.920684E0,1.4612125E0,5.6859534E2,4.753783E2,1.4382954E0,7.482389E0,2.8695605E0,5.6572577E2,4.6975546E2,5.622813E0],"tree_param":{"num_deleted":"0","num_feature":"17","num_nodes":"13","size_leaf_vector":"1"}},{"base_weights":[-1.801989E-3,-4.3771416E-2,1.07005596E-1,-4.033688E-3,-3.88495E-1,-1.1490688E-2,5.1097167E-1,-1.1597442E-3,1.4234155E-1,3.9178334E-2,-4.488166E-2,1.7189289E-2,-2.4786303E-2,7.1191005E-2,-2.120951E-2],"categories":[],"categories_nodes":[],"categories_segments":[],"categories_sizes":[],"default_left":[0,0,0,0,0,1,0,0,0,0,0,0,0,0,0],"id":37,"left_children":[1,3,5,7,9,11,13,-1,-1,-1,-1,-1,-1,-1,-1],"loss_changes":[4.8219404E0,1.0436268E1,1.4075553E1,7.4039593E0,3.8822298E0,9.9360285E0,9.839771E0,0E0,0E0,0E0,0E0,0E0,0E0,0E0,0E0],"parents":[2147483647,0,0,1,1,2,2,3,3,4,4,5,5,6,6],"right_children":[2,4,6,8,10,12,14,-1,-1,-1,-1,-1,-1,-1,-1],"split_conditions":[9.862817E0,4.2952072E1,8.1666664E1,4.2291195E1,6.0599093E0,1.1905571E2,8.6333336E1,-1.1597442E-3,1.4234155E-1,3.9178334E-2,-4.488166E-2,1.7189289E-2,-2.4786303E-2,7.1191005E-2,-2.120951E-2],"split_indices":[9,3,0,3,2,8,0,0,0,0,0,0,0,0,0],"split_type":[0,0,0,0,0,0,0,0,0,0,0,0,0,0,0],"sum_hessian":[1.0538911E3,7.609673E2,2.9292377E2,6.8322125E2,7.774607E1,2.2723883E2,6.568493E1,6.8060675E2,2.614517E0,5.184756E0,7.256131E1,1.2811601E2,9.912282E1,5.1412857E1,1.4272072E1],"tree_param":{"num_deleted":"0","num_feature":"17","num_nodes":"15","size_leaf_vector":"1"}},{"base_weights":[-1.6438817E-3,2.3581276E-2,-1.8087171E-1,2.3043476E-1,-6.827968E-3,-4.2088524E-1,-6.1118037E-2,7.6648295E-3,6.185198E-2,1.2713843E-3,-5.276186E-2,-6.890362E-2,-3.592894E-3,-1.0228953E-2,1.4504838E-1],"categories":[1,3,4,5],"categories_nodes":[1],"categories_segments":[0],"categories_sizes":[4],"default_left":[0,1,0,0,0,0,0,0,0,0,0,0,0,0,0],"id":38,"left_children":[1,3,5,7,9,11,13,-1,-1,-1,-1,-1,-1,-1,-1],"loss_changes":[4.7679305E0,5.817222E0,3.714108E0,7.0264482E0,8.219936E0,4.42851E0,5.6234403E0,0E0,0E0,0E0,0E0,0E0,0E0,0E0,0E0],"parents":[2147483647,0,0,1,1,2,2,3,3,4,4,5,5,6,6],"right_children":[2,4,6,8,10,12,14,-1,-1,-1,-1,-1,-1,-1,-1],"split_conditions":[4.5333336E1,1E-45,2E0,8.46E2,1.148E3,2.00001E0,3.2433796E3,7.6648295E-3,6.185198E-2,1.2713843E-3,-5.276186E-2,-6.890362E-2,-3.592894E-3,-1.0228953E-2,1.4504838E-1],"split_indices":[2,5,13,16,16,7,9,0,0,0,0,0,0,0,0],"split_type":[0,1,0,0,0,0,0,0,0,0,0,0,0,0,0],"sum_hessian":[1.0526635E3,9.235484E2,1.2911504E2,1.1752534E2,8.060231E2,4.2140774E1,8.697426E1,8.5028564E1,3.249677E1,7.778125E2,2.8210548E1,2.4373144E1,1.776763E1,8.557577E1,1.3984967E0],"tree_param":{"num_deleted":"0","num_feature":"17","num_nodes":"15","size_leaf_vector":"1"}},{"base_weights":[-1.5446099E-3,-6.93214E-1,4.5832074E-3,-9.50751E-3,-7.683403E-1,5.958802E-2,-6.792928E-2,-8.714657E-2,-8.429357E-3,-2.4647164E-4,3.230616E-2,5.7234373E-3,-1.8296355E-2],"categories":[1,2,4],"categories_nodes":[1],"categories_segments":[0],"categories_sizes":[3],"default_left":[0,1,1,0,0,0,0,0,0,0,0,0,0],"id":39,"left_children":[1,3,5,-1,7,9,11,-1,-1,-1,-1,-1,-1],"loss_changes":[4.4670477E0,3.4284687E-1,4.171812E0,0E0,4.966216E-1,9.724252E0,6.506931E0,0E0,0E0,0E0,0E0,0E0,0E0],"parents":[2147483647,0,0,1,1,2,2,4,4,5,5,6,6],"right_children":[2,4,6,-1,8,10,12,-1,-1,-1,-1,-1,-1],"split_conditions":[2.8333334E1,1E-45,8.5827995E1,-9.50751E-3,8.662399E1,9.862817E0,1.9409306E1,-8.714657E-2,-8.429357E-3,-2.4647164E-4,3.230616E-2,5.7234373E-3,-1.8296355E-2],"split_indices":[0,6,8,0,2,9,2,0,0,0,0,0,0],"split_type":[0,1,0,0,0,0,0,0,0,0,0,0,0],"sum_hessian":[1.0521913E3,8.255335E0,1.0439359E3,1.1739717E0,7.081363E0,5.937337E2,4.502022E2,5.9155607E0,1.1658027E0,4.8135632E2,1.1237736E2,2.15849E2,2.3435321E2],"tree_param":{"num_deleted":"0","num_feature":"17","num_nodes":"13","size_leaf_vector":"1"}},{"base_weights":[-1.5602392E-3,-7.456487E-1,3.9647985E-3,2.7679715E-2,-9.500827E-2,1.9116041E-1,-2.1917723E-2,1.206599E-1,1.3050051E-2,-1.0030853E-3,-5.6152817E-2],"categories":[],"categories_nodes":[],"categories_segments":[],"categories_sizes":[],"default_left":[0,0,0,0,0,0,0,0,0,0,0],"id":40,"left_children":[1,3,5,-1,-1,7,9,-1,-1,-1,-1],"loss_changes":[4.327738E0,1.884759E0,5.0683484E0,0E0,0E0,7.6692586E0,5.8900456E0,0E0,0E0,0E0,0E0],"parents":[2147483647,0,0,1,1,2,2,5,5,6,6],"right_children":[2,4,6,-1,-1,8,10,-1,-1,-1,-1],"split_conditions":[3E0,8.543474E-1,1.25E2,2.7679715E-2,-9.500827E-2,8.013877E0,3.0033333E1,1.206599E-1,1.3050051E-2,-1.0030853E-3,-5.6152817E-2],"split_indices":[16,3,16,0,0,8,1,0,0,0,0],"split_type":[0,0,0,0,0,0,0,0,0,0,0],"sum_hessian":[1.0509724E3,6.758868E0,1.0442136E3,1.0672431E0,5.691625E0,1.2606457E2,9.18149E2,6.041385E0,1.2002318E2,8.99356E2,1.8792978E1],"tree_param":{"num_deleted":"0","num_feature":"17","num_nodes":"11","size_leaf_vector":"1"}},{"base_weights":[-1.4766477E-3,1.1115521E-1,-3.5412468E-2,6.3724715E-1,4.4025913E-2,3.574808E-1,-6.3238114E-2,8.241173E-2,-1.9828293E-2,1.7381652E-3,1.5633626E-1,9.021424E-2,8.455667E-4,-3.8616885E-3,-3.4311384E-2],"categories":[0,3],"categories_nodes":[0,6],"categories_segments":[0,1],"categories_sizes":[1,1],"default_left":[1,0,1,0,0,0,1,0,0,0,0,0,0,0,0],"id":41,"left_children":[1,3,5,7,9,11,13,-1,-1,-1,-1,-1,-1,-1,-1],"loss_changes":[4.023192E0,8.578923E0,8.86513E0,4.4578238E0,8.7657385E0,1.0190292E1,5.197525E0,0E0,0E0,0E0,0E0,0E0,0E0,0E0,0E0],"parents":[2147483647,0,0,1,1,2,2,3,3,4,4,5,5,6,6],"right_children":[2,4,6,8,10,12,14,-1,-1,-1,-1,-1,-1,-1,-1],"split_conditions":[1E-45,6.7E1,9.294024E0,1.7566668E1,1.162E3,7.5666664E1,1E-45,8.241173E-2,-1.9828293E-2,1.7381652E-3,1.5633626E-1,9.021424E-2,8.455667E-4,-3.8616885E-3,-3.4311384E-2],"split_indices":[14,16,8,1,16,0,5,0,0,0,0,0,0,0,0],"split_type":[1,0,0,0,0,0,1,0,0,0,0,0,0,0,0],"sum_hessian":[1.0505405E3,2.4271202E2,8.0782855E2,2.6504396E1,2.1620763E2,5.264488E1,7.551837E2,2.1671194E1,4.8332033E0,2.134754E2,2.732229E0,1.9941292E1,3.2703587E1,6.951665E2,6.0017212E1],"tree_param":{"num_deleted":"0","num_feature":"17","num_nodes":"15","size_leaf_vector":"1"}},{"base_weights":[-1.2294675E-3,-5.5087376E-3,8.8073456E-1,-2.3397592E-1,1.714236E-2,1.5728475E0,-6.2012006E-2,1.5529475E-1,-2.824518E-2,7.5954884E-2,8.8779425E-4,5.094391E-2,2.0867684E-1],"categories":[],"categories_nodes":[],"categories_segments":[],"categories_sizes":[],"default_left":[1,0,1,0,0,0,0,0,0,0,0,0,0],"id":42,"left_children":[1,3,5,7,9,11,-1,-1,-1,-1,-1,-1,-1],"loss_changes":[3.9712806E0,5.421555E0,6.2530327E0,8.6241455E0,5.8426867E0,9.917946E-1,0E0,0E0,0E0,0E0,0E0,0E0,0E0],"parents":[2147483647,0,0,1,1,2,2,3,3,4,4,5,5],"right_children":[2,4,6,8,10,12,-1,-1,-1,-1,-1,-1,-1],"split_conditions":[1.56E2,6.4358234E-1,1.00646484E2,1.4E1,4.9018135E0,4.6471447E1,-6.2012006E-2,1.5529475E-1,-2.824518E-2,7.5954884E-2,8.8779425E-4,5.094391E-2,2.0867684E-1],"split_indices":[11,9,8,16,2,8,0,0,0,0,0,0,0],"split_type":[0,0,0,0,0,0,0,0,0,0,0,0,0],"sum_hessian":[1.0499427E3,1.0458619E3,4.080745E0,9.349616E1,9.523658E2,2.7600102E0,1.3207352E0,1.6496891E0,9.184647E1,9.484134E0,9.4288165E2,1.5480514E0,1.2119588E0],"tree_param":{"num_deleted":"0","num_feature":"17","num_nodes":"13","size_leaf_vector":"1"}},{"base_weights":[-8.011559E-4,-7.340646E-1,4.442251E-3,-9.312184E-2,2.380587E-2,3.1541202E-2,-1.3183233E-1,9.257019E-3,-9.588082E-3,5.020668E-3,-2.8405717E-2],"categories":[1,3,5],"categories_nodes":[6],"categories_segments":[0],"categories_sizes":[3],"default_left":[0,0,1,0,0,0,1,0,0,0,0],"id":43,"left_children":[1,3,5,-1,-1,7,9,-1,-1,-1,-1],"loss_changes":[4.041096E0,1.6519308E0,3.8586009E0,0E0,0E0,6.7854543E0,4.817113E0,0E0,0E0,0E0,0E0],"parents":[2147483647,0,0,1,1,2,2,5,5,6,6],"right_children":[2,4,6,-1,-1,8,10,-1,-1,-1,-1],"split_conditions":[3E0,8.2666664E1,1.3514316E2,-9.312184E-2,2.380587E-2,3.0348097E1,1E-45,9.257019E-3,-9.588082E-3,5.020668E-3,-2.8405717E-2],"split_indices":[16,0,8,0,0,2,5,0,0,0,0],"split_type":[0,0,0,0,0,0,1,0,0,0,0],"sum_hessian":[1.0492073E3,6.4624987E0,1.0427448E3,5.407829E0,1.0546699E0,8.7042456E2,1.7232018E2,5.8872656E2,2.8169803E2,7.878037E1,9.35398E1],"tree_param":{"num_deleted":"0","num_feature":"17","num_nodes":"11","size_leaf_vector":"1"}},{"base_weights":[-8.8527845E-4,-6.661556E-1,4.5900303E-3,-7.286268E-3,-7.460423E-1,-3.0510828E-2,1.0574075E-1,-3.8926804E-3,-8.5567564E-2,-9.214634E-3,7.7544423E-3,7.895707E-2,3.3980075E-3],"categories":[],"categories_nodes":[],"categories_segments":[],"categories_sizes":[],"default_left":[0,0,0,0,0,1,0,0,0,0,0,0,0],"id":44,"left_children":[1,3,5,-1,7,9,11,-1,-1,-1,-1,-1,-1],"loss_changes":[3.8261697E0,3.5203958E-1,3.7027974E0,0E0,5.4414034E-1,5.1642323E0,1.3156881E1,0E0,0E0,0E0,0E0,0E0,0E0],"parents":[2147483647,0,0,1,1,2,2,4,4,5,5,6,6],"right_children":[2,4,6,-1,8,10,12,-1,-1,-1,-1,-1,-1],"split_conditions":[2.8333334E1,5E0,3.4E1,-7.286268E-3,6.480905E1,9.862817E0,1.4166666E0,-3.8926804E-3,-8.5567564E-2,-9.214634E-3,7.7544423E-3,7.895707E-2,3.3980075E-3],"split_indices":[0,11,11,0,2,9,1,0,0,0,0,0,0],"split_type":[0,0,0,0,0,0,0,0,0,0,0,0,0],"sum_hessian":[1.0485671E3,7.574479E0,1.0409927E3,1.1257764E0,6.448703E0,7.733327E2,2.6766E2,1.0475104E0,5.4011927E0,4.9253458E2,2.807981E2,2.447046E1,2.4318954E2],"tree_param":{"num_deleted":"0","num_feature":"17","num_nodes":"13","size_leaf_vector":"1"}},{"base_weights":[-9.081122E-4,-7.106709E-1,3.912057E-3,2.4388058E-2,-9.210176E-2,-4.3857587E-3,4.4051605E-1,9.6605456E-4,-3.029324E-2,-9.928457E-4,8.5039094E-2],"categories":[0],"categories_nodes":[6],"categories_segments":[0],"categories_sizes":[1],"default_left":[0,0,0,0,0,0,1,0,0,0,0],"id":45,"left_children":[1,3,5,-1,-1,7,9,-1,-1,-1,-1],"loss_changes":[3.592518E0,1.6468413E0,3.7812507E0,0E0,0E0,4.300068E0,3.602411E0,0E0,0E0,0E0,0E0],"parents":[2147483647,0,0,1,1,2,2,5,5,6,6],"right_children":[2,4,6,-1,-1,8,10,-1,-1,-1,-1],"split_conditions":[3E0,8.543474E-1,1.064003E4,2.4388058E-2,-9.210176E-2,9.958374E1,1E-45,9.6605456E-4,-3.029324E-2,-9.928457E-4,8.5039094E-2],"split_indices":[16,3,9,0,0,9,14,0,0,0,0],"split_type":[0,0,0,0,0,0,1,0,0,0,0],"sum_hessian":[1.04827E3,6.0832515E0,1.0421868E3,1.0696713E0,5.0135803E0,1.0237205E3,1.846622E1,9.78644E2,4.507653E1,9.26259E0,9.20363E0],"tree_param":{"num_deleted":"0","num_feature":"17","num_nodes":"11","size_leaf_vector":"1"}},{"base_weights":[-8.7606936E-4,-6.4602625E-1,4.153939E-3,-4.5528826E-3,-7.3023945E-1,3.0762877E-2,-1.212871E-1,-8.474504E-2,-2.7084493E-3,-5.918971E-4,2.0851811E-2,9.378328E-2,-1.4379464E-2],"categories":[1,2,4],"categories_nodes":[1],"categories_segments":[0],"categories_sizes":[3],"default_left":[0,1,1,0,0,0,0,0,0,0,0,0,0],"id":46,"left_children":[1,3,5,-1,7,9,11,-1,-1,-1,-1,-1,-1],"loss_changes":[3.4074664E0,3.7755084E-1,3.4820426E0,0E0,5.587313E-1,5.6121135E0,4.4869375E0,0E0,0E0,0E0,0E0,0E0,0E0],"parents":[2147483647,0,0,1,1,2,2,4,4,5,5,6,6],"right_children":[2,4,6,-1,8,10,12,-1,-1,-1,-1,-1,-1],"split_conditions":[2.8333334E1,1E-45,1.3419472E2,-4.5528826E-3,8.662399E1,1.6793564E1,9E0,-8.474504E-2,-2.7084493E-3,-5.918971E-4,2.0851811E-2,9.378328E-2,-1.4379464E-2],"split_indices":[0,6,8,0,2,9,16,0,0,0,0,0,0],"split_type":[0,1,0,0,0,0,0,0,0,0,0,0,0],"sum_hessian":[1.048204E3,7.1233764E0,1.0410806E3,1.0655951E0,6.057781E0,8.595128E2,1.8156773E2,5.016376E0,1.0414053E0,7.132849E2,1.462279E2,2.9319863E0,1.7863574E2],"tree_param":{"num_deleted":"0","num_feature":"17","num_nodes":"13","size_leaf_vector":"1"}},{"base_weights":[-8.411492E-4,-6.962726E-1,3.7212647E-3,2.1979509E-2,-9.0784274E-2,4.1931465E-1,-4.545568E-3,-8.544917E-3,1.3221022E-1,-2.1309787E-2,1.6435588E-3],"categories":[],"categories_nodes":[],"categories_segments":[],"categories_sizes":[],"default_left":[0,0,0,0,0,0,0,0,0,0,0],"id":47,"left_children":[1,3,5,-1,-1,7,9,-1,-1,-1,-1],"loss_changes":[3.3298864E0,1.5252914E0,3.5847235E0,0E0,0E0,9.386312E0,4.4819474E0,0E0,0E0,0E0,0E0],"parents":[2147483647,0,0,1,1,2,2,5,5,6,6],"right_children":[2,4,6,-1,-1,8,10,-1,-1,-1,-1],"split_conditions":[3E0,8.543474E-1,1.8E1,2.1979509E-2,-9.0784274E-2,1.2072386E2,6.4358234E-1,-8.544917E-3,1.3221022E-1,-2.1309787E-2,1.6435588E-3],"split_indices":[16,3,16,0,0,8,9,0,0,0,0],"split_type":[0,0,0,0,0,0,0,0,0,0,0],"sum_hessian":[1.0476785E3,5.8403835E0,1.0418381E3,1.0884926E0,4.7518907E0,1.9349901E1,1.0224882E3,1.2991489E1,6.3584123E0,9.262645E1,9.2986176E2],"tree_param":{"num_deleted":"0","num_feature":"17","num_nodes":"11","size_leaf_vector":"1"}},{"base_weights":[-7.9701276E-4,-4.822052E-3,7.9843825E-1,-2.0425518E-1,1.4358442E-2,1.3856186E0,-6.0362857E-2,1.3857904E-1,-2.5164962E-2,1.9007465E-2,-1.7770643E-3,3.1004483E-2,1.7285077E-1],"categories":[],"categories_nodes":[],"categories_segments":[],"categories_sizes":[],"default_left":[1,0,1,0,1,0,0,0,0,0,0,0,0],"id":48,"left_children":[1,3,5,7,9,11,-1,-1,-1,-1,-1,-1,-1],"loss_changes":[3.3768759E0,3.9974463E0,5.166767E0,7.258088E0,5.386853E0,9.432802E-1,0E0,0E0,0E0,0E0,0E0,0E0,0E0],"parents":[2147483647,0,0,1,1,2,2,3,3,4,4,5,5],"right_children":[2,4,6,8,10,12,-1,-1,-1,-1,-1,-1,-1],"split_conditions":[1.56E2,6.4358234E-1,1.00646484E2,1.4E1,1.403694E0,1E0,-6.0362857E-2,1.3857904E-1,-2.5164962E-2,1.9007465E-2,-1.7770643E-3,3.1004483E-2,1.7285077E-1],"split_indices":[11,9,8,16,9,10,0,0,0,0,0,0,0],"split_type":[0,0,0,0,0,0,0,0,0,0,0,0,0],"sum_hessian":[1.0475156E3,1.0432556E3,4.259987E0,9.068549E1,9.525701E2,3.0108047E0,1.2491822E0,1.8074502E0,8.8878044E1,1.4649004E2,8.060801E2,1.1881216E0,1.8226831E0],"tree_param":{"num_deleted":"0","num_feature":"17","num_nodes":"13","size_leaf_vector":"1"}},{"base_weights":[-5.3227873E-4,7.7361856E-3,-3.8496724E-1,-2.8371457E-2,1.1193511E-1,4.5675987E-1,-5.1128066E-1,-6.01176E-2,-1.7781866E-3,6.6957526E-2,4.831513E-3,1.4006278E-1,-5.7716984E-2,-1.9096835E-2,-9.011357E-2],"categories":[2,4],"categories_nodes":[6],"categories_segments":[0],"categories_sizes":[2],"default_left":[0,1,0,0,0,0,0,0,0,0,0,0,0,0,0],"id":49,"left_children":[1,3,5,7,9,11,13,-1,-1,-1,-1,-1,-1,-1,-1],"loss_changes":[3.3349695E0,3.867659E0,2.5822175E0,4.621153E0,9.352554E0,4.136779E0,2.285437E0,0E0,0E0,0E0,0E0,0E0,0E0,0E0,0E0],"parents":[2147483647,0,0,1,1,2,2,3,3,4,4,5,5,6,6],"right_children":[2,4,6,8,10,12,14,-1,-1,-1,-1,-1,-1,-1,-1],"split_conditions":[3.0316668E1,3.4E1,3E1,3.1666666E1,1.4166666E0,7.517181E1,1E-45,-6.01176E-2,-1.7781866E-3,6.6957526E-2,4.831513E-3,1.4006278E-1,-5.7716984E-2,-1.9096835E-2,-9.011357E-2],"split_indices":[1,11,0,0,1,2,6,0,0,0,0,0,0,0,0],"split_type":[0,0,0,0,0,0,1,0,0,0,0,0,0,0,0],"sum_hessian":[1.047229E3,1.0261387E3,2.1090414E1,7.626041E2,2.635345E2,2.4105978E0,1.8679815E1,1.2830227E1,7.497739E2,2.6011818E1,2.3752266E2,1.0747768E0,1.3358212E0,1.1072381E1,7.6074343E0],"tree_param":{"num_deleted":"0","num_feature":"17","num_nodes":"15","size_leaf_vector":"1"}}]},"name":"gbtree"},"learner_model_param":{"base_score":"[7.974311E-2]","boost_from_average":"1","num_class":"0","num_feature":"17","num_target":"1"},"objective":{"name":"binary:logistic","reg_loss_param":{"scale_pos_weight":"1"}}},"version":[3,2,0]}