{"learner":{"attributes":{"scikit_learn":"{\"_estimator_type\": \"classifier\"}"},"feature_names":["x_adj","y_adj","distance","angle","behind_the_net","shot_type","prev_type","prev_event_same_team","dist_from_prev_event","speed_from_prev_event","crossed_royal_road","time_from_prev_event","home_team_shot","period","game_state","goalie_pulled","time_remaining"],"feature_types":["float","float","float","float","i","c","c","i","float","float","i","float","i","int","c","i","int"],"gradient_booster":{"model":{"cats":{"enc":[{"offsets":[],"values":[]},{"offsets":[],"values":[]},{"offsets":[],"values":[]},{"offsets":[],"values":[]},{"offsets":[],"values":[]},{"offsets":[0,1,2,3,4,5,6],"values":[49,50,51,52,53,54]},{"offsets":[0,12,19,22,29,33],"values":[98,108,111,99,107,101,100,95,115,104,111,116,102,97,99,101,111,102,102,104,105,116,112,101,110,97,108,116,121,115,104,111,116]},{"offsets":[],"values":[]},{"offsets":[],"values":[]},{"offsets":[],"values":[]},{"offsets":[],"values":[]},{"offsets":[],"values":[]},{"offsets":[],"values":[]},{"offsets":[],"values":[]},{"offsets":[0,2,4,6],"values":[101,118,112,112,115,104]},{"offsets":[],"values":[]},{"offsets":[],"values":[]}],"feature_segments":[0,0,0,0,0,0,6,11,11,11,11,11,11,11,11,14,14,14],"sorted_idx":[0,1,2,3,4,5,0,1,2,3,4,0,1,2]},"gbtree_model_param":{"num_parallel_tree":"1","num_trees":"50"},"iteration_indptr":[0,1,2,3,4,5,6,7,8,9,10,11,12,13,14,15,16,17,18,19,20,21,22,23,24,25,26,27,28,29,30,31,32,33,34,35,36,37,38,39,40,41,42,43,44,45,46,47,48,49,50],"tree_info":[0,0,0,0,0,0,0,0,0,0,0,0,0,0,0,0,0,0,0,0,0,0,0,0,0,0,0,0,0,0,0,0,0,0,0,0,0,0,0,0,0,0,0,0,0,0,0,0,0,0],"trees":[{"base_weights":[4.1571845E-8,4.774544E-1,-5.921765E-1,1.7256818E0,2.9482192E-1,-8.566566E-2,-7.208901E-1,2.4434566E-1,2.4777818E-2,-2.171664E-2,5.431975E-2,5.9282657E-2,-4.6170384E-2,-5.12426E-2,-8.714955E-2],"categories":[0],"categories_nodes":[2],"categories_segments":[0],"categories_sizes":[1],"default_left":[0,1,1,1,0,0,0,0,0,0,0,0,0,0,0],"id":0,"left_children":[1,3,5,7,9,11,13,-1,-1,-1,-1,-1,-1,-1,-1],"loss_changes":[3.262094E2,1.4510498E2,3.3513916E1,8.566203E1,7.113054E1,2.7188004E1,1.244191E1,0E0,0E0,0E0,0E0,0E0,0E0,0E0,0E0],"parents":[2147483647,0,0,1,1,2,2,3,3,4,4,5,5,6,6],"right_children":[2,4,6,8,10,12,14,-1,-1,-1,-1,-1,-1,-1,-1],"split_conditions":[1.4166667E1,3E0,1E-45,8.558298E1,6.2666668E1,3.3E2,2.1533333E1,2.4434566E-1,2.4777818E-2,-2.171664E-2,5.431975E-2,5.9282657E-2,-4.6170384E-2,-5.12426E-2,-8.714955E-2],"split_indices":[1,11,14,8,0,16,1,0,0,0,0,0,0,0,0],"split_type":[0,0,1,0,0,0,0,0,0,0,0,0,0,0,0],"sum_hessian":[1.1517546E3,6.377497E2,5.1400494E2,8.032286E1,5.574268E2,1.0448876E2,4.0951617E2,5.362529E1,2.6697569E1,1.8212653E2,3.7530032E2,3.7054386E1,6.743438E1,1.7361092E2,2.3590524E2],"tree_param":{"num_deleted":"0","num_feature":"17","num_nodes":"15","size_leaf_vector":"1"}},{"base_weights":[-2.3989077E-3,4.102732E-1,-5.620659E-1,-1.8424019E-1,6.483188E-1,-7.857023E-2,-6.9167876E-1,-2.6378378E-2,2.4886079E-1,1.6021894E-1,4.6247583E-2,5.0873917E-2,-4.332386E-2,-4.8268683E-2,-8.472981E-2],"categories":[0,2],"categories_nodes":[2,3],"categories_segments":[0,1],"categories_sizes":[1,1],"default_left":[0,0,1,1,1,0,0,0,0,0,0,0,0,0,0],"id":1,"left_children":[1,3,5,7,9,11,13,-1,-1,-1,-1,-1,-1,-1,-1],"loss_changes":[2.6686813E2,9.42429E1,3.067746E1,4.125173E1,8.348784E1,2.2050129E1,1.2164429E1,0E0,0E0,0E0,0E0,0E0,0E0,0E0,0E0],"parents":[2147483647,0,0,1,1,2,2,3,3,4,4,5,5,6,6],"right_children":[2,4,6,8,10,12,14,-1,-1,-1,-1,-1,-1,-1,-1],"split_conditions":[1.4166667E1,6.2E1,1E-45,1E-45,3E0,3.3E2,2.1533333E1,-2.6378378E-2,2.4886079E-1,1.6021894E-1,4.6247583E-2,5.0873917E-2,-4.332386E-2,-4.8268683E-2,-8.472981E-2],"split_indices":[1,0,14,14,11,16,1,0,0,0,0,0,0,0,0],"split_type":[0,0,1,1,0,0,0,0,0,0,0,0,0,0,0],"sum_hessian":[1.1534802E3,6.640833E2,4.8939685E2,1.8993962E2,4.741437E2,1.0379941E2,3.8559744E2,1.8532567E2,4.613956E0,7.60717E1,3.98072E2,3.891843E1,6.4880974E1,1.6632709E2,2.1927034E2],"tree_param":{"num_deleted":"0","num_feature":"17","num_nodes":"15","size_leaf_vector":"1"}},{"base_weights":[-3.8407159E-3,3.5579282E-1,-5.3246695E-1,-1.6823561E-1,5.517604E-1,-7.198436E-2,-6.624844E-1,6.501336E-2,-4.1317586E-2,1.2660511E-1,4.0002566E-2,4.3984365E-2,-4.0566266E-2,-4.536659E-2,-8.2292706E-2],"categories":[0,0],"categories_nodes":[2,3],"categories_segments":[0,1],"categories_sizes":[1,1],"default_left":[0,0,1,1,1,0,0,0,0,0,0,0,0,0,0],"id":2,"left_children":[1,3,5,7,9,11,13,-1,-1,-1,-1,-1,-1,-1,-1],"loss_changes":[2.1967407E2,7.0711845E1,2.7961609E1,3.794079E1,5.3764847E1,1.7962273E1,1.1845352E1,0E0,0E0,0E0,0E0,0E0,0E0,0E0,0E0],"parents":[2147483647,0,0,1,1,2,2,3,3,4,4,5,5,6,6],"right_children":[2,4,6,8,10,12,14,-1,-1,-1,-1,-1,-1,-1,-1],"split_conditions":[1.4166667E1,6.2E1,1E-45,1E-45,3E0,3.3E2,2.1533333E1,6.501336E-2,-4.1317586E-2,1.2660511E-1,4.0002566E-2,4.3984365E-2,-4.0566266E-2,-4.536659E-2,-8.2292706E-2],"split_indices":[1,0,14,14,11,16,1,0,0,0,0,0,0,0,0],"split_type":[0,0,1,1,0,0,0,0,0,0,0,0,0,0,0],"sum_hessian":[1.1535034E3,6.866741E2,4.6682925E2,1.8693654E2,4.9973755E2,1.0312947E2,3.636998E2,4.268098E1,1.4425555E2,8.62714E1,4.1346616E2,4.057439E1,6.2555084E1,1.5968929E2,2.040105E2],"tree_param":{"num_deleted":"0","num_feature":"17","num_nodes":"15","size_leaf_vector":"1"}},{"base_weights":[-4.9518608E-3,2.9409295E-1,-5.322555E-1,4.561609E-1,-2.0721641E-1,-5.803219E-1,6.720576E-1,2.4226439E-1,4.124985E-2,4.757711E-2,-4.3605845E-2,-3.650927E-2,-7.33003E-2,2.450707E-1,-8.634242E-2],"categories":[2,0],"categories_nodes":[2,4],"categories_segments":[0,1],"categories_sizes":[1,1],"default_left":[0,0,1,0,1,0,0,0,0,0,0,0,0,0,0],"id":3,"left_children":[1,3,5,7,9,11,13,-1,-1,-1,-1,-1,-1,-1,-1],"loss_changes":[1.8206714E2,5.9955166E1,2.457721E1,4.683338E1,2.8448412E1,1.2953659E1,4.71786E1,0E0,0E0,0E0,0E0,0E0,0E0,0E0,0E0],"parents":[2147483647,0,0,1,1,2,2,3,3,4,4,5,5,6,6],"right_children":[2,4,6,8,10,12,14,-1,-1,-1,-1,-1,-1,-1,-1],"split_conditions":[1.5016666E1,3.0340586E1,1E-45,5.6127086E0,1E-45,2.1533333E1,3.54E2,2.4226439E-1,4.124985E-2,4.757711E-2,-4.3605845E-2,-3.650927E-2,-7.33003E-2,2.450707E-1,-8.634242E-2],"split_indices":[1,2,14,2,14,1,16,0,0,0,0,0,0,0,0],"split_type":[0,0,1,0,1,0,0,0,0,0,0,0,0,0,0],"sum_hessian":[1.1526154E3,7.3578094E2,4.1683438E2,5.560923E2,1.796886E2,4.0133447E2,1.5499896E1,1.089541E1,5.451969E2,4.4825676E1,1.3486293E2,1.6795937E2,2.3337512E2,6.9051533E0,8.594743E0],"tree_param":{"num_deleted":"0","num_feature":"17","num_nodes":"15","size_leaf_vector":"1"}},{"base_weights":[-5.5713733E-3,2.5793886E-1,-5.033411E-1,3.703031E-1,-3.140537E-1,-7.486937E-2,-6.345471E-1,9.233179E-2,2.5673447E-2,-4.027853E-2,1.8426296E-1,3.7146073E-2,-4.0278997E-2,-5.269729E-2,-9.194185E-2],"categories":[0,2],"categories_nodes":[2,4],"categories_segments":[0,1],"categories_sizes":[1,1],"default_left":[0,0,1,1,1,0,0,0,0,0,0,0,0,0,0],"id":4,"left_children":[1,3,5,7,9,11,13,-1,-1,-1,-1,-1,-1,-1,-1],"loss_changes":[1.5127542E2,4.8584076E1,2.2394775E1,3.9377388E1,2.4540081E1,1.4012763E1,8.876923E0,0E0,0E0,0E0,0E0,0E0,0E0,0E0,0E0],"parents":[2147483647,0,0,1,1,2,2,3,3,4,4,5,5,6,6],"right_children":[2,4,6,8,10,12,14,-1,-1,-1,-1,-1,-1,-1,-1],"split_conditions":[1.5016666E1,3.6491035E1,1E-45,3E0,1E-45,3.3E2,2.9466667E1,9.233179E-2,2.5673447E-2,-4.027853E-2,1.8426296E-1,3.7146073E-2,-4.0278997E-2,-5.269729E-2,-9.194185E-2],"split_indices":[1,2,14,11,14,16,1,0,0,0,0,0,0,0,0],"split_type":[0,0,1,0,1,0,0,0,0,0,0,0,0,0,0],"sum_hessian":[1.1513104E3,7.5310974E2,3.9820074E2,6.2975165E2,1.2335805E2,9.371894E1,3.044818E2,1.060787E2,5.23673E2,1.19264435E2,4.093613E0,3.9636814E1,5.408213E1,2.2308824E2,8.139358E1],"tree_param":{"num_deleted":"0","num_feature":"17","num_nodes":"15","size_leaf_vector":"1"}},{"base_weights":[-5.9962203E-3,2.4099939E-1,-4.489398E-1,1.4364642E0,1.9711514E-1,-3.2291222E-2,-5.810376E-1,1.9847697E-1,5.9397448E-2,6.1140735E-2,7.829992E-3,5.269275E-2,-2.4073219E-2,-3.7817676E-2,-7.52509E-2],"categories":[0,1,2,3,0],"categories_nodes":[2,3,4],"categories_segments":[0,1,4],"categories_sizes":[1,3,1],"default_left":[0,0,1,1,1,0,0,0,0,0,0,0,0,0,0],"id":5,"left_children":[1,3,5,7,9,11,13,-1,-1,-1,-1,-1,-1,-1,-1],"loss_changes":[1.2595326E2,3.849295E1,2.266478E1,1.0837486E1,3.5103813E1,1.1814963E1,1.0598488E1,0E0,0E0,0E0,0E0,0E0,0E0,0E0,0E0],"parents":[2147483647,0,0,1,1,2,2,3,3,4,4,5,5,6,6],"right_children":[2,4,6,8,10,12,14,-1,-1,-1,-1,-1,-1,-1,-1],"split_conditions":[1.4166667E1,6.3193045E0,1E-45,1E-45,1E-45,1.84E2,2.1533333E1,1.9847697E-1,5.9397448E-2,6.1140735E-2,7.829992E-3,5.269275E-2,-2.4073219E-2,-3.7817676E-2,-7.52509E-2],"split_indices":[1,2,14,6,14,16,1,0,0,0,0,0,0,0,0],"split_type":[0,0,1,1,1,0,0,0,0,0,0,0,0,0,0],"sum_hessian":[1.1492668E3,7.381264E2,4.1114047E2,2.5012762E1,7.1311365E2,9.9271996E1,3.1186847E2,1.4330444E1,1.0682318E1,1.5800972E2,5.5510394E2,2.654023E1,7.2731766E1,1.4432678E2,1.675417E2],"tree_param":{"num_deleted":"0","num_feature":"17","num_nodes":"15","size_leaf_vector":"1"}},{"base_weights":[-6.0854536E-3,3.335227E-1,-2.8263465E-1,4.7469425E-1,-1.4096221E-1,1.725515E-1,-4.2395556E-1,1.4580067E-1,4.3246306E-2,3.6974814E-2,-3.288475E-2,8.0812305E-2,-3.8000752E-4,-2.7655637E-2,-7.268676E-2],"categories":[0,0],"categories_nodes":[2,4],"categories_segments":[0,1],"categories_sizes":[1,1],"default_left":[0,0,1,0,1,0,0,0,0,0,0,0,0,0,0],"id":6,"left_children":[1,3,5,7,9,11,13,-1,-1,-1,-1,-1,-1,-1,-1],"loss_changes":[1.0794414E2,3.4621506E1,4.082266E1,1.5888901E1,1.1546007E1,1.6904104E1,2.139489E1,0E0,0E0,0E0,0E0,0E0,0E0,0E0,0E0],"parents":[2147483647,0,0,1,1,2,2,3,3,4,4,5,5,6,6],"right_children":[2,4,6,8,10,12,14,-1,-1,-1,-1,-1,-1,-1,-1],"split_conditions":[8.5E0,2.7102076E1,1E-45,5.6127086E0,1E-45,1.3E2,2.1533333E1,1.4580067E-1,4.3246306E-2,3.6974814E-2,-3.288475E-2,8.0812305E-2,-3.8000752E-4,-2.7655637E-2,-7.268676E-2],"split_indices":[1,2,14,2,14,16,1,0,0,0,0,0,0,0,0],"split_type":[0,0,1,0,1,0,0,0,0,0,0,0,0,0,0],"sum_hessian":[1.1473362E3,5.148651E2,6.3247107E2,3.9680493E2,1.1806019E2,1.4978894E2,4.8268216E2,1.4959655E1,3.818453E2,3.1491621E1,8.6568565E1,3.1756386E1,1.18032555E2,3.2597388E2,1.5670827E2],"tree_param":{"num_deleted":"0","num_feature":"17","num_nodes":"15","size_leaf_vector":"1"}},{"base_weights":[-6.204637E-3,1.8324716E-1,-4.2745176E-1,-3.1655768E-1,2.6835325E-1,-4.769125E-1,5.6111443E-1,-4.043812E-2,1.3441597E-1,6.953599E-2,1.7630452E-2,-3.682787E-2,-8.051288E-2,1.7061615E-1,-8.268836E-2],"categories":[2,2],"categories_nodes":[2,3],"categories_segments":[0,1],"categories_sizes":[1,1],"default_left":[0,0,1,1,1,0,0,0,0,0,0,0,0,0,0],"id":7,"left_children":[1,3,5,7,9,11,13,-1,-1,-1,-1,-1,-1,-1,-1],"loss_changes":[9.154487E1,3.3742443E1,1.7666855E1,1.74023E1,2.647433E1,1.1806091E1,2.9089119E1,0E0,0E0,0E0,0E0,0E0,0E0,0E0,0E0],"parents":[2147483647,0,0,1,1,2,2,3,3,4,4,5,5,6,6],"right_children":[2,4,6,8,10,12,14,-1,-1,-1,-1,-1,-1,-1,-1],"split_conditions":[1.5016666E1,5.3E1,1E-45,1E-45,3E0,2.8616667E1,3.54E2,-4.043812E-2,1.3441597E-1,6.953599E-2,1.7630452E-2,-3.682787E-2,-8.051288E-2,1.7061615E-1,-8.268836E-2],"split_indices":[1,0,14,14,11,1,16,0,0,0,0,0,0,0,0],"split_type":[0,0,1,1,0,0,0,0,0,0,0,0,0,0,0],"sum_hessian":[1.1451106E3,7.9026263E2,3.5484793E2,1.1458961E2,6.7567303E2,3.3843277E2,1.6415167E1,1.0955265E2,5.0369587E0,1.1866083E2,5.570122E2,2.558673E2,8.256549E1,8.869189E0,7.5459776E0],"tree_param":{"num_deleted":"0","num_feature":"17","num_nodes":"15","size_leaf_vector":"1"}},{"base_weights":[-6.237416E-3,2.8244966E-1,-2.3864113E-1,3.9842546E-1,-1.3720413E-1,1.7166992E-1,-3.7240496E-1,2.7798612E-2,6.277051E-2,-1.9669676E-2,1.6588816E-1,7.292055E-2,-3.0936291E-3,-2.4431605E-2,-6.791968E-2],"categories":[0],"categories_nodes":[2],"categories_segments":[0],"categories_sizes":[1],"default_left":[0,0,1,0,0,0,0,0,0,0,0,0,0,0,0],"id":8,"left_children":[1,3,5,7,9,11,13,-1,-1,-1,-1,-1,-1,-1,-1],"loss_changes":[7.6779755E1,2.4895874E1,3.486017E1,1.0875267E1,1.2214622E1,1.7706894E1,1.8634872E1,0E0,0E0,0E0,0E0,0E0,0E0,0E0,0E0],"parents":[2147483647,0,0,1,1,2,2,3,3,4,4,5,5,6,6],"right_children":[2,4,6,8,10,12,14,-1,-1,-1,-1,-1,-1,-1,-1],"split_conditions":[7.9333334E0,2.7102076E1,1E-45,2.5E1,1.06E2,1E1,2.1533333E1,2.7798612E-2,6.277051E-2,-1.9669676E-2,1.6588816E-1,7.292055E-2,-3.0936291E-3,-2.4431605E-2,-6.791968E-2],"split_indices":[1,2,14,11,11,11,1,0,0,0,0,0,0,0,0],"split_type":[0,0,1,0,0,0,0,0,0,0,0,0,0,0,0],"sum_hessian":[1.1423914E3,5.0940436E2,6.3298694E2,3.9914658E2,1.10257805E2,1.555537E2,4.7743323E2,2.631354E2,1.3601117E2,1.0758471E2,2.6730955E0,4.076811E1,1.1478559E2,3.3807825E2,1.39355E2],"tree_param":{"num_deleted":"0","num_feature":"17","num_nodes":"15","size_leaf_vector":"1"}},{"base_weights":[-6.130789E-3,1.48382E-1,-3.8132322E-1,1.1228732E-1,1.0089477E0,-4.2909017E-1,4.6674982E-1,-3.825133E-2,1.8551381E-2,3.519248E-1,2.423132E-2,-3.3009436E-2,-7.8509904E-2,1.3516857E-1,-8.093871E-2],"categories":[2,2],"categories_nodes":[1,2],"categories_segments":[0,1],"categories_sizes":[1,1],"default_left":[0,1,1,0,0,0,0,0,0,0,0,0,0,0,0],"id":9,"left_children":[1,3,5,7,9,11,13,-1,-1,-1,-1,-1,-1,-1,-1],"loss_changes":[6.621589E1,2.5017494E1,1.369701E1,2.8245853E1,6.1583206E1,1.087521E1,2.1696949E1,0E0,0E0,0E0,0E0,0E0,0E0,0E0,0E0],"parents":[2147483647,0,0,1,1,2,2,3,3,4,4,5,5,6,6],"right_children":[2,4,6,8,10,12,14,-1,-1,-1,-1,-1,-1,-1,-1],"split_conditions":[1.5016666E1,1E-45,1E-45,5.2E1,1.35E2,2.9466667E1,3.54E2,-3.825133E-2,1.8551381E-2,3.519248E-1,2.423132E-2,-3.3009436E-2,-7.8509904E-2,1.3516857E-1,-8.093871E-2],"split_indices":[1,14,14,0,16,1,16,0,0,0,0,0,0,0,0],"split_type":[0,1,1,0,0,0,0,0,0,0,0,0,0,0,0],"sum_hessian":[1.1402281E3,8.080566E2,3.3217157E2,7.766136E2,3.1442987E1,3.149276E2,1.7243977E1,9.957166E1,6.7704193E2,6.5160484E0,2.4926939E1,2.479164E2,6.70112E1,1.0147797E1,7.0961804E0],"tree_param":{"num_deleted":"0","num_feature":"17","num_nodes":"15","size_leaf_vector":"1"}},{"base_weights":[-6.013265E-3,1.3198905E-1,-3.5651726E-1,2.9643053E-1,-4.6143867E-2,-5.457685E-2,-4.7565648E-1,6.947198E-2,1.6158631E-2,1.781757E-1,-7.271876E-3,-6.5876685E-2,1.47420345E-2,-3.6709588E-2,-8.202288E-2],"categories":[1,3,0,0],"categories_nodes":[1,2,3],"categories_segments":[0,2,3],"categories_sizes":[2,1,1],"default_left":[0,1,1,1,0,0,0,0,0,0,0,0,0,0,0],"id":10,"left_children":[1,3,5,7,9,11,13,-1,-1,-1,-1,-1,-1,-1,-1],"loss_changes":[5.5128292E1,2.396836E1,1.1555977E1,2.2732826E1,1.9240053E1,1.1352669E1,8.330097E0,0E0,0E0,0E0,0E0,0E0,0E0,0E0,0E0],"parents":[2147483647,0,0,1,1,2,2,3,3,4,4,5,5,6,6],"right_children":[2,4,6,8,10,12,14,-1,-1,-1,-1,-1,-1,-1,-1],"split_conditions":[1.5016666E1,1E-45,1E-45,1E-45,4.8769584E0,2E0,2.9466667E1,6.947198E-2,1.6158631E-2,1.781757E-1,-7.271876E-3,-6.5876685E-2,1.47420345E-2,-3.6709588E-2,-8.202288E-2],"split_indices":[1,5,14,14,2,13,1,0,0,0,0,0,0,0,0],"split_type":[0,1,1,1,0,0,0,0,0,0,0,0,0,0,0],"sum_hessian":[1.1377394E3,8.16777E2,3.209624E2,4.24365E2,3.9241202E2,9.122487E1,2.2973755E2,1.0628349E2,3.1808148E2,4.676861E0,3.8773517E2,2.2290604E1,6.8934265E1,1.7626807E2,5.346947E1],"tree_param":{"num_deleted":"0","num_feature":"17","num_nodes":"15","size_leaf_vector":"1"}},{"base_weights":[-5.8665783E-3,2.1393766E-1,-1.9926926E-1,-2.6255676E-1,2.7876312E-1,1.4289275E-1,-3.2064328E-1,2.2848051E-2,-6.0786992E-2,8.0966584E-2,2.3785185E-2,1.1717541E-3,7.784498E-2,-6.087909E-2,-2.1470422E-2],"categories":[0,1,2,3,5],"categories_nodes":[2,3],"categories_segments":[0,1],"categories_sizes":[1,4],"default_left":[0,0,1,1,0,1,0,0,0,0,0,0,0,0,0],"id":11,"left_children":[1,3,5,7,9,11,13,-1,-1,-1,-1,-1,-1,-1,-1],"loss_changes":[4.8367596E1,1.652315E1,2.5180338E1,1.1040064E1,9.999722E0,1.3260334E1,1.3516125E1,0E0,0E0,0E0,0E0,0E0,0E0,0E0,0E0],"parents":[2147483647,0,0,1,1,2,2,3,3,4,4,5,5,6,6],"right_children":[2,4,6,8,10,12,14,-1,-1,-1,-1,-1,-1,-1,-1],"split_conditions":[7.9333334E0,5.3E1,1E-45,1E-45,6.3193045E0,1.4833503E1,5E1,2.2848051E-2,-6.0786992E-2,8.0966584E-2,2.3785185E-2,1.1717541E-3,7.784498E-2,-6.087909E-2,-2.1470422E-2],"split_indices":[1,0,14,5,2,9,0,0,0,0,0,0,0,0,0],"split_type":[0,0,1,1,0,0,0,0,0,0,0,0,0,0,0],"sum_hessian":[1.1357709E3,5.3155115E2,6.042198E2,6.3290348E1,4.682608E2,1.5816473E2,4.4605502E2,2.6271074E1,3.701927E1,3.2158005E1,4.361028E2,1.3194957E2,2.6215174E1,1.186333E2,3.2742172E2],"tree_param":{"num_deleted":"0","num_feature":"17","num_nodes":"15","size_leaf_vector":"1"}},{"base_weights":[-5.714505E-3,1.3329609E-1,-2.6754284E-1,4.56671E-1,5.1987488E-2,6.59132E-2,-4.1092962E-1,7.074396E-2,-3.018245E-2,3.777566E-2,-6.5758205E-3,-6.825083E-2,3.0428762E-2,-3.226332E-2,-7.981833E-2],"categories":[0],"categories_nodes":[2],"categories_segments":[0],"categories_sizes":[1],"default_left":[0,1,1,1,0,0,0,0,0,0,0,0,0,0,0],"id":12,"left_children":[1,3,5,7,9,11,13,-1,-1,-1,-1,-1,-1,-1,-1],"loss_changes":[4.132692E1,1.9478031E1,1.8854305E1,2.8534216E1,2.280219E1,2.1485521E1,9.16264E0,0E0,0E0,0E0,0E0,0E0,0E0,0E0,0E0],"parents":[2147483647,0,0,1,1,2,2,3,3,4,4,5,5,6,6],"right_children":[2,4,6,8,10,12,14,-1,-1,-1,-1,-1,-1,-1,-1],"split_conditions":[3.1E1,4E0,1E-45,1.1576131E2,2.1333385E0,2E0,2.89E1,7.074396E-2,-3.018245E-2,3.777566E-2,-6.5758205E-3,-6.825083E-2,3.0428762E-2,-3.226332E-2,-7.981833E-2],"split_indices":[2,11,14,8,3,13,1,0,0,0,0,0,0,0,0],"split_type":[0,0,1,0,0,0,0,0,0,0,0,0,0,0,0],"sum_hessian":[1.1334714E3,7.4070514E2,3.9276624E2,1.4789418E2,5.92811E2,1.18267395E2,2.7449884E2,1.11197975E2,3.6696205E1,1.5679504E2,4.3601593E2,2.8119072E1,9.014832E1,2.2502483E2,4.9474033E1],"tree_param":{"num_deleted":"0","num_feature":"17","num_nodes":"15","size_leaf_vector":"1"}},{"base_weights":[-5.772537E-3,8.07166E-2,-3.6506066E-1,2.1174243E-1,-6.426034E-2,-4.302319E-1,5.126837E-1,6.078017E-3,4.9026866E-2,-8.46714E-3,1.4828086E-1,-2.4663687E-2,-6.166501E-2,1.3200001E-1,-6.454169E-2],"categories":[1,3,2,1,3],"categories_nodes":[1,2,5],"categories_segments":[0,2,3],"categories_sizes":[2,1,2],"default_left":[0,1,1,0,1,1,0,0,0,0,0,0,0,0,0],"id":13,"left_children":[1,3,5,7,9,11,13,-1,-1,-1,-1,-1,-1,-1,-1],"loss_changes":[3.520322E1,1.7359026E1,1.2793602E1,2.0147345E1,1.3838012E1,6.869137E0,1.5481846E1,0E0,0E0,0E0,0E0,0E0,0E0,0E0,0E0],"parents":[2147483647,0,0,1,1,2,2,3,3,4,4,5,5,6,6],"right_children":[2,4,6,8,10,12,14,-1,-1,-1,-1,-1,-1,-1,-1],"split_conditions":[1.87E1,1E-45,1E-45,3E0,1.6427653E3,1E-45,3.2E2,6.078017E-3,4.9026866E-2,-8.46714E-3,1.4828086E-1,-2.4663687E-2,-6.166501E-2,1.3200001E-1,-6.454169E-2],"split_indices":[1,5,14,13,9,5,16,0,0,0,0,0,0,0,0],"split_type":[0,1,1,0,0,1,0,0,0,0,0,0,0,0,0],"sum_hessian":[1.1309163E3,9.1212225E2,2.1879404E2,4.7887173E2,4.332505E2,2.041463E2,1.4647723E1,3.113416E2,1.6753012E2,4.2854187E2,4.7086415E0,1.0402234E2,1.0012397E2,8.548637E0,6.099086E0],"tree_param":{"num_deleted":"0","num_feature":"17","num_nodes":"15","size_leaf_vector":"1"}},{"base_weights":[-5.4589864E-3,1.1224979E-1,-2.3828803E-1,3.8717285E-1,4.1226227E-2,6.1254364E-2,-3.7409696E-1,5.9545517E-2,-2.8571907E-2,3.1974796E-2,-6.324496E-3,-6.4883485E-2,2.6878906E-2,-2.9126747E-2,-7.653897E-2],"categories":[0],"categories_nodes":[2],"categories_segments":[0],"categories_sizes":[1],"default_left":[0,1,1,1,0,0,0,0,0,0,0,0,0,0,0],"id":14,"left_children":[1,3,5,7,9,11,13,-1,-1,-1,-1,-1,-1,-1,-1],"loss_changes":[3.0999205E1,1.4654325E1,1.5473906E1,2.1771458E1,1.7426105E1,1.7761744E1,8.251469E0,0E0,0E0,0E0,0E0,0E0,0E0,0E0,0E0],"parents":[2147483647,0,0,1,1,2,2,3,3,4,4,5,5,6,6],"right_children":[2,4,6,8,10,12,14,-1,-1,-1,-1,-1,-1,-1,-1],"split_conditions":[3.1E1,4E0,1E-45,1.1576131E2,2.1333385E0,2E0,2.89E1,5.9545517E-2,-2.8571907E-2,3.1974796E-2,-6.324496E-3,-6.4883485E-2,2.6878906E-2,-2.9126747E-2,-7.653897E-2],"split_indices":[2,11,14,8,3,13,1,0,0,0,0,0,0,0,0],"split_type":[0,0,1,0,0,0,0,0,0,0,0,0,0,0,0],"sum_hessian":[1.1291332E3,7.5032007E2,3.7881305E2,1.5312842E2,5.9719165E2,1.1834292E2,2.6047012E2,1.1702147E2,3.610694E1,1.6233733E2,4.3485434E2,2.628415E1,9.205877E1,2.1640543E2,4.406469E1],"tree_param":{"num_deleted":"0","num_feature":"17","num_nodes":"15","size_leaf_vector":"1"}},{"base_weights":[-5.4300036E-3,8.349076E-2,-2.66872E-1,5.467052E-2,7.1188E-1,-2.8265196E-1,1.4254868E-1,2.943496E-3,9.219053E-2,1.9868992E-1,-1.5702318E-2,3.680686E-3,-3.6381107E-2],"categories":[2],"categories_nodes":[1],"categories_segments":[0],"categories_sizes":[1],"default_left":[0,1,0,0,0,0,0,0,0,0,0,0,0],"id":15,"left_children":[1,3,5,7,9,11,-1,-1,-1,-1,-1,-1,-1],"loss_changes":[2.6234938E1,1.5212465E1,8.051453E0,1.7618662E1,4.1133152E1,7.392025E0,0E0,0E0,0E0,0E0,0E0,0E0,0E0],"parents":[2147483647,0,0,1,1,2,2,3,3,4,4,5,5],"right_children":[2,4,6,8,10,12,-1,-1,-1,-1,-1,-1,-1],"split_conditions":[1.5016666E1,1E-45,1E0,1.6427653E3,2.56E2,1.84E2,1.4254868E-1,2.943496E-3,9.219053E-2,1.9868992E-1,-1.5702318E-2,3.680686E-3,-3.6381107E-2],"split_indices":[1,14,4,9,16,16,0,0,0,0,0,0,0],"split_type":[0,1,0,0,0,0,0,0,0,0,0,0,0],"sum_hessian":[1.1265415E3,8.411373E2,2.8540414E2,8.052908E2,3.584659E1,2.8359283E2,1.8113079E0,7.83525E2,2.176576E1,1.4006674E1,2.1839914E1,5.756231E1,2.2603053E2],"tree_param":{"num_deleted":"0","num_feature":"17","num_nodes":"13","size_leaf_vector":"1"}},{"base_weights":[-4.902115E-3,9.4849765E-2,-2.1086074E-1,2.1704091E-1,-4.1877244E-2,5.9747927E-2,-3.3924377E-1,5.4961544E-2,1.4552191E-2,4.1488007E-2,-1.3032158E-2,-6.1557572E-2,2.426722E-2,-2.6047343E-2,-7.348022E-2],"categories":[1,3,0],"categories_nodes":[1,2],"categories_segments":[0,2],"categories_sizes":[2,1],"default_left":[0,1,1,1,0,0,0,0,0,0,0,0,0,0,0],"id":16,"left_children":[1,3,5,7,9,11,13,-1,-1,-1,-1,-1,-1,-1,-1],"loss_changes":[2.3140581E1,1.268725E1,1.2788317E1,9.455437E0,1.4555481E1,1.4862803E1,7.5797863E0,0E0,0E0,0E0,0E0,0E0,0E0,0E0,0E0],"parents":[2147483647,0,0,1,1,2,2,3,3,4,4,5,5,6,6],"right_children":[2,4,6,8,10,12,14,-1,-1,-1,-1,-1,-1,-1,-1],"split_conditions":[3.1E1,1E-45,1E-45,3E0,1.3911954E0,2E0,2.89E1,5.4961544E-2,1.4552191E-2,4.1488007E-2,-1.3032158E-2,-6.1557572E-2,2.426722E-2,-2.6047343E-2,-7.348022E-2],"split_indices":[2,5,14,11,3,13,1,0,0,0,0,0,0,0,0],"split_type":[0,1,1,0,0,0,0,0,0,0,0,0,0,0,0],"sum_hessian":[1.124376E3,7.5786096E2,3.6651508E2,3.998937E2,3.5796722E2,1.1810509E2,2.4840999E2,6.959256E1,3.3030115E2,5.747183E1,3.004954E2,2.4668438E1,9.3436646E1,2.0854037E2,3.986962E1],"tree_param":{"num_deleted":"0","num_feature":"17","num_nodes":"15","size_leaf_vector":"1"}},{"base_weights":[-4.783697E-3,1.302025E-1,-1.3855904E-1,4.5799457E-2,3.8022286E-1,2.5179213E-1,-2.0699395E-1,-2.3649288E-2,1.4762144E-2,1.1085701E-1,1.977056E-2,6.886703E-3,1.7090043E-1,-2.2617066E-2,1.0459899E-1],"categories":[2],"categories_nodes":[5],"categories_segments":[0],"categories_sizes":[1],"default_left":[0,1,0,0,0,1,0,0,0,0,0,0,0,0,0],"id":17,"left_children":[1,3,5,7,9,11,13,-1,-1,-1,-1,-1,-1,-1,-1],"loss_changes":[2.0301325E1,1.1791653E1,1.5135578E1,1.2093045E1,1.8537878E1,2.2453346E1,1.1793129E1,0E0,0E0,0E0,0E0,0E0,0E0,0E0,0E0],"parents":[2147483647,0,0,1,1,2,2,3,3,4,4,5,5,6,6],"right_children":[2,4,6,8,10,12,14,-1,-1,-1,-1,-1,-1,-1,-1],"split_conditions":[7.9333334E0,3.4E1,1.3E2,6.7333336E1,1.4166666E0,1E-45,1.1127254E4,-2.3649288E-2,1.4762144E-2,1.1085701E-1,1.977056E-2,6.886703E-3,1.7090043E-1,-2.2617066E-2,1.0459899E-1],"split_indices":[1,11,16,0,1,14,9,0,0,0,0,0,0,0,0],"split_type":[0,0,0,0,0,1,0,0,0,0,0,0,0,0,0],"sum_hessian":[1.1222407E3,5.5860565E2,5.63635E2,4.185072E2,1.4009842E2,8.367506E1,4.7996E2,1.1058833E2,3.0791888E2,2.7055979E1,1.1304244E2,7.527321E1,8.401851E0,4.7353214E2,6.4278355E0],"tree_param":{"num_deleted":"0","num_feature":"17","num_nodes":"15","size_leaf_vector":"1"}},{"base_weights":[-4.3207393E-3,4.515331E-2,-3.4444487E-1,1.54487E-1,-7.997196E-2,-4.2892545E-1,4.7297737E-1,3.030615E-3,3.756495E-2,1.255387E-1,-9.933339E-3,8.199695E-3,-4.827019E-2,-7.1022294E-2,9.9827826E-2],"categories":[1,3,2,0,1,3,4],"categories_nodes":[1,2,5],"categories_segments":[0,2,3],"categories_sizes":[2,1,4],"default_left":[0,1,1,0,0,1,0,0,0,0,0,0,0,0,0],"id":18,"left_children":[1,3,5,7,9,11,13,-1,-1,-1,-1,-1,-1,-1,-1],"loss_changes":[1.8881163E1,1.3414295E1,1.0042377E1,1.4356609E1,1.1952862E1,3.6021538E0,9.299915E0,0E0,0E0,0E0,0E0,0E0,0E0,0E0,0E0],"parents":[2147483647,0,0,1,1,2,2,3,3,4,4,5,5,6,6],"right_children":[2,4,6,8,10,12,14,-1,-1,-1,-1,-1,-1,-1,-1],"split_conditions":[2.1533333E1,1E-45,1E-45,3E0,4.8769584E0,1E-45,3E0,3.030615E-3,3.756495E-2,1.255387E-1,-9.933339E-3,8.199695E-3,-4.827019E-2,-7.1022294E-2,9.9827826E-2],"split_indices":[1,5,14,13,2,5,13,0,0,0,0,0,0,0,0],"split_type":[0,1,1,0,0,1,0,0,0,0,0,0,0,0,0],"sum_hessian":[1.12013E3,9.786448E2,1.4148526E2,5.221546E2,4.5649017E2,1.286632E2,1.2822068E1,3.3512296E2,1.8703166E2,5.6116934E0,4.5087848E2,1.2202658E1,1.16460526E2,3.8340752E0,8.987993E0],"tree_param":{"num_deleted":"0","num_feature":"17","num_nodes":"15","size_leaf_vector":"1"}},{"base_weights":[-4.030108E-3,6.403833E-2,-2.2195324E-1,1.0754461E-1,-2.3676665E-1,-3.1568328E-1,1.825753E-1,4.3295357E-2,4.9421177E-3,-4.1346204E-2,4.6045557E-2,2.0023948E-2,-3.9467465E-2,6.271331E-2,-1.4139535E-2],"categories":[],"categories_nodes":[],"categories_segments":[],"categories_sizes":[],"default_left":[0,0,0,0,1,0,1,0,0,0,0,0,0,0,0],"id":19,"left_children":[1,3,5,7,9,11,13,-1,-1,-1,-1,-1,-1,-1,-1],"loss_changes":[1.661982E1,1.1198921E1,1.0168561E1,1.4099599E1,1.3519557E1,8.917072E0,7.4046397E0,0E0,0E0,0E0,0E0,0E0,0E0,0E0,0E0],"parents":[2147483647,0,0,1,1,2,2,3,3,4,4,5,5,6,6],"right_children":[2,4,6,8,10,12,14,-1,-1,-1,-1,-1,-1,-1,-1],"split_conditions":[3.693732E1,4.2952072E1,1.2801128E1,1.61E2,1.446128E1,1.08E2,2.1758242E1,4.3295357E-2,4.9421177E-3,-4.1346204E-2,4.6045557E-2,2.0023948E-2,-3.9467465E-2,6.271331E-2,-1.4139535E-2],"split_indices":[2,3,9,16,9,16,9,0,0,0,0,0,0,0,0],"split_type":[0,0,0,0,0,0,0,0,0,0,0,0,0,0,0],"sum_hessian":[1.1184523E3,8.527892E2,2.6566315E2,7.4559424E2,1.0719492E2,2.1586617E2,4.9796974E1,1.1201575E2,6.335785E2,8.584613E1,2.1348795E1,2.8458424E1,1.8740775E2,2.059728E1,2.9199694E1],"tree_param":{"num_deleted":"0","num_feature":"17","num_nodes":"15","size_leaf_vector":"1"}},{"base_weights":[-3.8506647E-3,3.3244975E-2,-3.6673334E-1,8.806173E-3,5.2259326E-1,8.146225E-3,-5.445058E-1,4.8912466E-3,-3.453515E-2,1.257806E-1,-3.2874584E-2,1.0678726E-1,-3.557955E-2,6.5777555E-2,-5.7813115E-2],"categories":[2],"categories_nodes":[1],"categories_segments":[0],"categories_sizes":[1],"default_left":[0,1,0,0,0,0,0,0,0,0,0,0,0,0,0],"id":20,"left_children":[1,3,5,7,9,11,13,-1,-1,-1,-1,-1,-1,-1,-1],"loss_changes":[1.5063467E1,1.2137792E1,6.9207516E0,1.3767025E1,3.0631413E1,1.3635219E1,3.2268505E0,0E0,0E0,0E0,0E0,0E0,0E0,0E0,0E0],"parents":[2147483647,0,0,1,1,2,2,3,3,4,4,5,5,6,6],"right_children":[2,4,6,8,10,12,14,-1,-1,-1,-1,-1,-1,-1,-1],"split_conditions":[2.4083334E1,1E-45,3.8666668E1,4.5728718E1,3.54E2,1.7E2,8.005015E0,4.8912466E-3,-3.453515E-2,1.257806E-1,-3.2874584E-2,1.0678726E-1,-3.557955E-2,6.5777555E-2,-5.7813115E-2],"split_indices":[1,14,0,2,16,16,8,0,0,0,0,0,0,0,0],"split_type":[0,1,0,0,0,0,0,0,0,0,0,0,0,0,0],"sum_hessian":[1.117109E3,1.0143278E3,1.0278116E2,9.6704987E2,4.7277958E1,3.3368706E1,6.941245E1,8.694515E2,9.759841E1,2.511302E1,2.2164936E1,8.035816E0,2.5332891E1,1.3834907E0,6.802896E1],"tree_param":{"num_deleted":"0","num_feature":"17","num_nodes":"15","size_leaf_vector":"1"}},{"base_weights":[-3.6433132E-3,1.0012608E-1,-1.2379827E-1,-8.196881E-3,2.8536245E-1,-8.005436E-2,-6.371757E-1,-4.280302E-2,5.0588585E-3,9.026168E-2,1.7157702E-2,1.0902164E-1,-9.706354E-3,1.12486325E-1,-7.216298E-2],"categories":[1,3],"categories_nodes":[0],"categories_segments":[0],"categories_sizes":[2],"default_left":[1,0,0,0,0,0,0,0,0,0,0,0,0,0,0],"id":21,"left_children":[1,3,5,7,9,11,13,-1,-1,-1,-1,-1,-1,-1,-1],"loss_changes":[1.3929597E1,1.2031319E1,1.1575212E1,9.38161E0,1.5383749E1,9.624584E0,6.8394127E0,0E0,0E0,0E0,0E0,0E0,0E0,0E0,0E0],"parents":[2147483647,0,0,1,1,2,2,3,3,4,4,5,5,6,6],"right_children":[2,4,6,8,10,12,14,-1,-1,-1,-1,-1,-1,-1,-1],"split_conditions":[1E-45,3E0,2.55E1,7.9968584E-1,1.12E2,4.8769584E0,4.3333335E0,-4.280302E-2,5.0588585E-3,9.026168E-2,1.7157702E-2,1.0902164E-1,-9.706354E-3,1.12486325E-1,-7.216298E-2],"split_indices":[5,13,1,9,16,2,0,0,0,0,0,0,0,0,0],"split_type":[1,0,0,0,0,0,0,0,0,0,0,0,0,0,0],"sum_hessian":[1.1151971E3,5.9849005E2,5.167071E2,3.782512E2,2.2023888E2,4.772016E2,3.9505505E1,4.5686523E1,3.3256467E2,3.3200855E1,1.8703802E2,5.9325495E0,4.7126904E2,1.243433E0,3.826207E1],"tree_param":{"num_deleted":"0","num_feature":"17","num_nodes":"15","size_leaf_vector":"1"}},{"base_weights":[-3.342203E-3,1.1883125E-1,-9.364403E-2,8.129284E-3,3.1834716E-1,-1.5740378E-1,1.5623592E-1,-8.422497E-3,3.9035734E-2,5.3041216E-2,3.8733725E-3,8.045127E-4,-2.638152E-2,6.965548E-2,-1.4732628E-2],"categories":[1,3],"categories_nodes":[4],"categories_segments":[0],"categories_sizes":[2],"default_left":[0,1,0,0,1,0,1,0,0,0,0,0,0,0,0],"id":22,"left_children":[1,3,5,7,9,11,13,-1,-1,-1,-1,-1,-1,-1,-1],"loss_changes":[1.2310347E1,1.0471806E1,1.0246439E1,1.0835893E1,1.0012768E1,9.010091E0,2.1577593E1,0E0,0E0,0E0,0E0,0E0,0E0,0E0,0E0],"parents":[2147483647,0,0,1,1,2,2,3,3,4,4,5,5,6,6],"right_children":[2,4,6,8,10,12,14,-1,-1,-1,-1,-1,-1,-1,-1],"split_conditions":[6.516667E0,2.5E1,1.3778393E1,1.3592901E1,1E-45,4.09E2,9.030461E1,-8.422497E-3,3.9035734E-2,5.3041216E-2,3.8733725E-3,8.045127E-4,-2.638152E-2,6.965548E-2,-1.4732628E-2],"split_indices":[1,11,9,3,5,16,8,0,0,0,0,0,0,0,0],"split_type":[0,0,0,0,1,0,0,0,0,0,0,0,0,0,0],"sum_hessian":[1.1138185E3,4.7323773E2,6.405808E2,3.050311E2,1.6820663E2,5.106521E2,1.299287E2,2.4629964E2,5.8731476E1,9.514763E1,7.3059E1,2.0024098E2,3.1041113E2,4.6272453E1,8.3656235E1],"tree_param":{"num_deleted":"0","num_feature":"17","num_nodes":"15","size_leaf_vector":"1"}},{"base_weights":[-3.1878473E-3,1.6269389E-1,-6.442117E-2,-6.4756484E-3,3.6932385E-1,2.3924029E-1,-7.288274E-2,8.719127E-3,-3.851651E-2,7.0708506E-2,-6.79867E-4,2.3810351E-2,-1.2978663E-2],"categories":[0,0,1,2,4],"categories_nodes":[0,2],"categories_segments":[0,1],"categories_sizes":[1,4],"default_left":[1,0,0,0,0,0,1,0,0,0,0,0,0],"id":23,"left_children":[1,3,5,7,9,-1,11,-1,-1,-1,-1,-1,-1],"loss_changes":[1.1319986E1,1.0505667E1,1.7095034E1,5.928687E0,1.7190603E1,0E0,1.4402382E1,0E0,0E0,0E0,0E0,0E0,0E0],"parents":[2147483647,0,0,1,1,2,2,3,3,4,4,6,6],"right_children":[2,4,6,8,10,-1,12,-1,-1,-1,-1,-1,-1],"split_conditions":[1E-45,3E0,1E-45,1.8416666E1,3.98E2,2.3924029E-1,3E0,8.719127E-3,-3.851651E-2,7.0708506E-2,-6.79867E-4,2.3810351E-2,-1.2978663E-2],"split_indices":[14,13,6,1,16,0,11,0,0,0,0,0,0],"split_type":[1,0,1,0,0,0,0,0,0,0,0,0,0],"sum_hessian":[1.1124154E3,2.9947565E2,8.129397E2,1.651966E2,1.3427905E2,1.8232406E0,8.1111646E2,1.330557E2,3.2140896E1,7.028374E1,6.399532E1,1.24967964E2,6.861485E2],"tree_param":{"num_deleted":"0","num_feature":"17","num_nodes":"13","size_leaf_vector":"1"}},{"base_weights":[-2.833979E-3,2.4961287E-2,-3.620864E-1,1.0419267E-1,-8.252684E-2,1.4261419E-1,-5.855891E-1,8.4318155E-5,5.3773638E-2,7.3854536E-2,-1.1000892E-2,-3.291936E-2,6.947934E-2,-8.4399775E-2,-2.4079198E-2],"categories":[],"categories_nodes":[],"categories_segments":[],"categories_sizes":[],"default_left":[0,1,0,0,0,1,0,0,0,0,0,0,0,0,0],"id":24,"left_children":[1,3,5,7,9,11,13,-1,-1,-1,-1,-1,-1,-1,-1],"loss_changes":[1.1108007E1,8.802847E0,9.094781E0,2.665437E1,9.981176E0,6.825923E0,4.7473335E0,0E0,0E0,0E0,0E0,0E0,0E0,0E0,0E0],"parents":[2147483647,0,0,1,1,2,2,3,3,4,4,5,5,6,6],"right_children":[2,4,6,8,10,12,14,-1,-1,-1,-1,-1,-1,-1,-1],"split_conditions":[2.55E1,9.206181E1,2.42E2,9.599895E0,6.3193045E0,5.2643585E0,2.00001E0,8.4318155E-5,5.3773638E-2,7.3854536E-2,-1.1000892E-2,-3.291936E-2,6.947934E-2,-8.4399775E-2,-2.4079198E-2],"split_indices":[1,8,16,9,2,9,7,0,0,0,0,0,0,0,0],"split_type":[0,0,0,0,0,0,0,0,0,0,0,0,0,0,0],"sum_hessian":[1.1105068E3,1.0316211E3,7.8885735E1,5.9388715E2,4.3773395E2,2.432297E1,5.4562767E1,4.8037567E2,1.1351149E2,1.3338892E1,4.2439505E2,1.3333786E1,1.0989183E1,3.036093E1,2.4201838E1],"tree_param":{"num_deleted":"0","num_feature":"17","num_nodes":"15","size_leaf_vector":"1"}},{"base_weights":[-2.7641202E-3,8.509289E-2,-1.0714965E-1,-6.043349E-3,2.3628078E-1,1.3045895E-1,-1.8270232E-1,-3.9838072E-2,4.687073E-3,3.223501E-2,-2.864332E-2,2.2263234E-2,-4.741228E-2,-1.9884227E-2,1.1623062E-1],"categories":[1,3],"categories_nodes":[0],"categories_segments":[0],"categories_sizes":[2],"default_left":[1,0,0,0,0,0,1,0,0,0,0,0,0,0,0],"id":25,"left_children":[1,3,5,7,9,11,13,-1,-1,-1,-1,-1,-1,-1,-1],"loss_changes":[1.0186297E1,8.311621E0,9.136145E0,7.850773E0,1.0298385E1,6.9623785E0,8.600772E0,0E0,0E0,0E0,0E0,0E0,0E0,0E0,0E0],"parents":[2147483647,0,0,1,1,2,2,3,3,4,4,5,5,6,6],"right_children":[2,4,6,8,10,12,14,-1,-1,-1,-1,-1,-1,-1,-1],"split_conditions":[1E-45,3E0,2.186472E0,7.9968584E-1,1E0,3.3056786E1,1.6427653E3,-3.9838072E-2,4.687073E-3,3.223501E-2,-2.864332E-2,2.2263234E-2,-4.741228E-2,-1.9884227E-2,1.1623062E-1],"split_indices":[5,13,3,9,15,2,9,0,0,0,0,0,0,0,0],"split_type":[1,0,0,0,0,0,0,0,0,0,0,0,0,0,0],"sum_hessian":[1.1087131E3,6.021191E2,5.0659402E2,3.7626572E2,2.2585338E2,1.2204453E2,3.845495E2,4.393986E1,3.3232587E2,1.9425151E2,3.1601862E1,1.064475E2,1.5597028E1,3.8083173E2,3.7177775E0],"tree_param":{"num_deleted":"0","num_feature":"17","num_nodes":"15","size_leaf_vector":"1"}},{"base_weights":[-2.6567315E-3,2.2236113E-2,-3.366555E-1,1.7192371E-1,-3.2694094E-2,1.3099745E-1,-5.572663E-1,7.495401E-3,4.5940407E-2,1.9860546E-1,-4.1025714E-3,-3.0423654E-2,6.0300764E-2,-8.251401E-2,-2.1877741E-2],"categories":[0,0,1,2,4],"categories_nodes":[1,4],"categories_segments":[0,1],"categories_sizes":[1,4],"default_left":[0,1,0,0,0,1,0,0,0,0,0,0,0,0,0],"id":26,"left_children":[1,3,5,7,9,11,13,-1,-1,-1,-1,-1,-1,-1,-1],"loss_changes":[9.225157E0,8.496939E0,8.012869E0,7.698427E0,1.2802292E1,5.417468E0,4.5781326E0,0E0,0E0,0E0,0E0,0E0,0E0,0E0,0E0],"parents":[2147483647,0,0,1,1,2,2,3,3,4,4,5,5,6,6],"right_children":[2,4,6,8,10,12,14,-1,-1,-1,-1,-1,-1,-1,-1],"split_conditions":[2.55E1,1E-45,2.42E2,3.4E1,1E-45,5.2643585E0,2.00001E0,7.495401E-3,4.5940407E-2,1.9860546E-1,-4.1025714E-3,-3.0423654E-2,6.0300764E-2,-8.251401E-2,-2.1877741E-2],"split_indices":[1,14,16,11,6,9,7,0,0,0,0,0,0,0,0],"split_type":[0,1,0,0,1,0,0,0,0,0,0,0,0,0,0],"sum_hessian":[1.1076688E3,1.0317092E3,7.59596E1,2.763934E2,7.553158E2,2.4477715E1,5.148189E1,2.0762152E2,6.877187E1,2.1288154E0,7.53187E2,1.2919901E1,1.1557815E1,2.793608E1,2.3545809E1],"tree_param":{"num_deleted":"0","num_feature":"17","num_nodes":"15","size_leaf_vector":"1"}},{"base_weights":[-2.417159E-3,4.4751283E-2,-1.6343296E-1,8.108447E-2,-2.1649355E-1,-2.4551892E-1,1.5355274E-1,1.6302502E-2,-5.056858E-3,-3.7486747E-2,3.4475666E-2,-1.3949119E-2,-7.161381E-2,3.2684155E-2,-5.7414252E-2],"categories":[],"categories_nodes":[],"categories_segments":[],"categories_sizes":[],"default_left":[0,0,0,1,1,0,0,0,0,0,0,0,0,0,0],"id":27,"left_children":[1,3,5,7,9,11,13,-1,-1,-1,-1,-1,-1,-1,-1],"loss_changes":[8.419357E0,8.156181E0,6.5730014E0,8.136478E0,9.459023E0,9.874162E0,6.779946E0,0E0,0E0,0E0,0E0,0E0,0E0,0E0,0E0],"parents":[2147483647,0,0,1,1,2,2,3,3,4,4,5,5,6,6],"right_children":[2,4,6,8,10,12,14,-1,-1,-1,-1,-1,-1,-1,-1],"split_conditions":[3.6718994E1,4.2952072E1,1.248168E1,1.0857339E2,1.446128E1,6.372968E0,9.38E2,1.6302502E-2,-5.056858E-3,-3.7486747E-2,3.4475666E-2,-1.3949119E-2,-7.161381E-2,3.2684155E-2,-5.7414252E-2],"split_indices":[2,3,9,8,9,9,16,0,0,0,0,0,0,0,0],"split_type":[0,0,0,0,0,0,0,0,0,0,0,0,0,0,0],"sum_hessian":[1.1065963E3,8.5643256E2,2.501638E2,7.524707E2,1.0396185E2,1.9888612E2,5.1277687E1,4.6365475E2,2.8881595E2,8.1341064E1,2.2620789E1,1.6337508E2,3.5511044E1,4.186021E1,9.417477E0],"tree_param":{"num_deleted":"0","num_feature":"17","num_nodes":"15","size_leaf_vector":"1"}},{"base_weights":[-2.4736363E-3,7.51087E-2,-9.62466E-2,2.3432718E-1,7.457152E-3,-6.2277652E-2,-5.5998546E-1,3.73322E-3,4.661561E-2,1.9028634E-1,-5.5502704E-4,8.90039E-2,-7.7147656E-3,1.0720857E-1,-6.554087E-2],"categories":[1,3,0,0,1,2,4],"categories_nodes":[0,1,4],"categories_segments":[0,2,3],"categories_sizes":[2,1,4],"default_left":[1,1,0,0,0,0,0,0,0,0,0,0,0,0,0],"id":28,"left_children":[1,3,5,7,9,11,13,-1,-1,-1,-1,-1,-1,-1,-1],"loss_changes":[8.058262E0,6.527529E0,7.8648477E0,8.236099E0,1.0524294E1,6.7013893E0,6.0135345E0,0E0,0E0,0E0,0E0,0E0,0E0,0E0,0E0],"parents":[2147483647,0,0,1,1,2,2,3,3,4,4,5,5,6,6],"right_children":[2,4,6,8,10,12,14,-1,-1,-1,-1,-1,-1,-1,-1],"split_conditions":[1E-45,1E-45,2.55E1,3E0,1E-45,4.8769584E0,4.3333335E0,3.73322E-3,4.661561E-2,1.9028634E-1,-5.5502704E-4,8.90039E-2,-7.7147656E-3,1.0720857E-1,-6.554087E-2],"split_indices":[5,14,1,13,6,2,0,0,0,0,0,0,0,0,0],"split_type":[1,1,0,0,1,0,0,0,0,0,0,0,0,0,0],"sum_hessian":[1.1056521E3,6.051692E2,5.0048297E2,1.7972385E2,4.254453E2,4.6738147E2,3.310148E1,9.778919E1,8.193465E1,1.9094871E0,4.2353583E2,6.280891E0,4.611006E2,1.2630941E0,3.1838383E1],"tree_param":{"num_deleted":"0","num_feature":"17","num_nodes":"15","size_leaf_vector":"1"}},{"base_weights":[-2.0492312E-3,2.252712E-2,-2.6506618E-1,2.4224734E-1,-2.3091314E-2,1.3465764E-1,-4.665389E-1,-2.6412613E-3,6.477377E-2,3.317248E-3,-3.0393332E-2,-1.2736504E-2,1.2503345E-1,-5.145921E-2,8.5785925E-2],"categories":[0,1,2,3],"categories_nodes":[2],"categories_segments":[0],"categories_sizes":[4],"default_left":[0,0,1,0,0,0,0,0,0,0,0,0,0,0,0],"id":29,"left_children":[1,3,5,7,9,11,13,-1,-1,-1,-1,-1,-1,-1,-1],"loss_changes":[7.14944E0,1.0145157E1,7.6745477E0,1.8973228E1,1.3260897E1,9.645526E0,4.4550705E0,0E0,0E0,0E0,0E0,0E0,0E0,0E0,0E0],"parents":[2147483647,0,0,1,1,2,2,3,3,4,4,5,5,6,6],"right_children":[2,4,6,8,10,12,14,-1,-1,-1,-1,-1,-1,-1,-1],"split_conditions":[1E0,1.7E2,1E-45,3E0,4.1803856E1,8.52E2,4E0,-2.6412613E-3,6.477377E-2,3.317248E-3,-3.0393332E-2,-1.2736504E-2,1.2503345E-1,-5.145921E-2,8.5785925E-2],"split_indices":[15,16,6,13,2,16,13,0,0,0,0,0,0,0,0],"split_type":[0,0,1,0,0,0,0,0,0,0,0,0,0,0,0],"sum_hessian":[1.1041165E3,1.01060016E3,9.351631E1,1.7300671E2,8.3759344E2,3.1450285E1,6.2066025E1,1.04623E2,6.838371E1,6.9853174E2,1.3906174E2,2.6186165E1,5.26412E0,6.048297E1,1.5830553E0],"tree_param":{"num_deleted":"0","num_feature":"17","num_nodes":"15","size_leaf_vector":"1"}},{"base_weights":[-1.9123129E-3,3.020351E-1,-2.1790717E-2,8.1155497E-1,6.834052E-2,5.0409086E-2,-1.2082244E-1,-2.6868073E-2,1.07082665E-1,5.449415E-2,-2.4415275E-2,-2.238428E-3,3.582604E-2,2.652448E-3,-2.2910533E-2],"categories":[1,2,3,5],"categories_nodes":[4],"categories_segments":[0],"categories_sizes":[4],"default_left":[0,0,1,0,1,0,0,0,0,0,0,0,0,0,0],"id":30,"left_children":[1,3,5,7,9,11,13,-1,-1,-1,-1,-1,-1,-1,-1],"loss_changes":[6.6757126E0,8.02061E0,7.4205146E0,6.2350407E0,7.2208886E0,1.346356E1,6.986996E0,0E0,0E0,0E0,0E0,0E0,0E0,0E0,0E0],"parents":[2147483647,0,0,1,1,2,2,3,3,4,4,5,5,6,6],"right_children":[2,4,6,8,10,12,14,-1,-1,-1,-1,-1,-1,-1,-1],"split_conditions":[7.243771E0,1.3911954E0,9.206181E1,1.506675E1,1E-45,9.599895E0,5.847496E0,-2.6868073E-2,1.07082665E-1,5.449415E-2,-2.4415275E-2,-2.238428E-3,3.582604E-2,2.652448E-3,-2.2910533E-2],"split_indices":[2,3,8,8,5,9,9,0,0,0,0,0,0,0,0],"split_type":[0,0,0,0,1,0,0,0,0,0,0,0,0,0,0],"sum_hessian":[1.1027971E3,6.682509E1,1.035972E3,2.0234808E1,4.6590282E1,5.9943823E2,4.3653384E2,3.909574E0,1.6325233E1,1.8155882E1,2.84344E1,4.8555338E2,1.1388484E2,1.8523235E2,2.513015E2],"tree_param":{"num_deleted":"0","num_feature":"17","num_nodes":"15","size_leaf_vector":"1"}},{"base_weights":[-1.7687863E-3,1.0734816E-2,-4.7302538E-1,-8.073933E-3,3.4587592E-1,2.7922964E-1,-6.5816355E-1,-8.1289545E-2,5.4061186E-4,8.5320435E-2,-3.7114717E-2,-2.6138246E-2,1.221711E-1,4.3741327E-2,-7.301578E-2],"categories":[2,0,1,3,4,5],"categories_nodes":[1,6],"categories_segments":[0,1],"categories_sizes":[1,5],"default_left":[0,1,0,0,0,0,1,0,0,0,0,0,0,0,0],"id":31,"left_children":[1,3,5,7,9,11,13,-1,-1,-1,-1,-1,-1,-1,-1],"loss_changes":[6.5010514E0,6.7786117E0,4.155291E0,1.1057087E1,2.1103489E1,3.5467162E0,2.1478796E0,0E0,0E0,0E0,0E0,0E0,0E0,0E0,0E0],"parents":[2147483647,0,0,1,1,2,2,3,3,4,4,5,5,6,6],"right_children":[2,4,6,8,10,12,14,-1,-1,-1,-1,-1,-1,-1,-1],"split_conditions":[3.1733334E1,1E-45,1.08E2,2.8666666E1,3.54E2,6.8900085E1,1E-45,-8.1289545E-2,5.4061186E-4,8.5320435E-2,-3.7114717E-2,-2.6138246E-2,1.221711E-1,4.3741327E-2,-7.301578E-2],"split_indices":[1,14,16,0,16,2,5,0,0,0,0,0,0,0,0],"split_type":[0,1,0,0,0,0,1,0,0,0,0,0,0,0,0],"sum_hessian":[1.1014316E3,1.0739152E3,2.7516403E1,1.01777185E3,5.614336E1,5.334203E0,2.21822E1,1.5789047E1,1.0019828E3,3.2768288E1,2.337507E1,3.8490396E0,1.4851632E0,1.0548148E0,2.1127386E1],"tree_param":{"num_deleted":"0","num_feature":"17","num_nodes":"15","size_leaf_vector":"1"}},{"base_weights":[-1.720019E-3,6.564881E-2,-8.450305E-2,9.117832E-2,-3.5536298E-1,4.5393582E-2,-1.8115665E-1,8.246687E-2,4.977466E-3,1.6731255E-1,-5.4260727E-2,6.469315E-2,-3.2976796E-3,-3.2965427E-3,-3.732722E-2],"categories":[1,3,0,1,4],"categories_nodes":[0,4],"categories_segments":[0,2],"categories_sizes":[2,3],"default_left":[1,1,0,0,1,0,0,0,0,0,0,0,0,0,0],"id":32,"left_children":[1,3,5,7,9,11,13,-1,-1,-1,-1,-1,-1,-1,-1],"loss_changes":[6.1464453E0,6.563428E0,6.2163405E0,1.7381565E1,1.4180319E1,1.0004209E1,8.065051E0,0E0,0E0,0E0,0E0,0E0,0E0,0E0,0E0],"parents":[2147483647,0,0,1,1,2,2,3,3,4,4,5,5,6,6],"right_children":[2,4,6,8,10,12,14,-1,-1,-1,-1,-1,-1,-1,-1],"split_conditions":[1E-45,1.02868904E2,1.6848211E1,2E0,1E-45,7.669056E-1,9.206181E1,8.246687E-2,4.977466E-3,1.6731255E-1,-5.4260727E-2,6.469315E-2,-3.2976796E-3,-3.2965427E-3,-3.732722E-2],"split_indices":[5,9,2,11,6,3,8,0,0,0,0,0,0,0,0],"split_type":[1,0,0,0,1,0,0,0,0,0,0,0,0,0,0],"sum_hessian":[1.1001122E3,6.066375E2,4.9347464E2,5.7269366E2,3.394384E1,2.1075839E2,2.8271625E2,2.9589014E1,5.431047E2,2.1978772E0,3.1745964E1,2.3457066E1,1.8730133E2,1.6026501E2,1.2245125E2],"tree_param":{"num_deleted":"0","num_feature":"17","num_nodes":"15","size_leaf_vector":"1"}},{"base_weights":[-1.5426852E-3,2.2929631E-2,-2.2350492E-1,2.091704E-1,-1.8418703E-2,-3.7889993E-1,2.3618306E-1,1.0271301E-2,9.842177E-2,2.6748448E-3,-2.3792088E-2,5.1413544E-2,-4.336249E-2,-3.864253E-2,8.660723E-2],"categories":[2],"categories_nodes":[3],"categories_segments":[0],"categories_sizes":[1],"default_left":[0,0,1,1,0,0,1,0,0,0,0,0,0,0,0],"id":33,"left_children":[1,3,5,7,9,11,13,-1,-1,-1,-1,-1,-1,-1,-1],"loss_changes":[5.9799953E0,7.6401353E0,7.8988914E0,1.477041E1,8.060624E0,4.234726E0,1.1408042E1,0E0,0E0,0E0,0E0,0E0,0E0,0E0,0E0],"parents":[2147483647,0,0,1,1,2,2,3,3,4,4,5,5,6,6],"right_children":[2,4,6,8,10,12,14,-1,-1,-1,-1,-1,-1,-1,-1],"split_conditions":[4.2952072E1,1.7E2,1.248168E1,1E-45,4.203439E1,5.383333E0,1E0,1.0271301E-2,9.842177E-2,2.6748448E-3,-2.3792088E-2,5.1413544E-2,-4.336249E-2,-3.864253E-2,8.660723E-2],"split_indices":[3,16,9,14,2,1,7,0,0,0,0,0,0,0,0],"split_type":[0,0,0,1,0,0,0,0,0,0,0,0,0,0,0],"sum_hessian":[1.0989535E3,9.9062897E2,1.08324524E2,1.7923985E2,8.1138916E2,8.1088684E1,2.7235838E1,1.585892E2,2.0650654E1,6.736498E2,1.3773935E2,4.197439E0,7.689124E1,1.3891464E1,1.3344375E1],"tree_param":{"num_deleted":"0","num_feature":"17","num_nodes":"15","size_leaf_vector":"1"}},{"base_weights":[-1.4248736E-3,2.0505903E-2,-2.415795E-1,1.8769181E-1,-1.5396675E-2,8.888489E-1,-3.0888572E-1,-3.937779E-3,5.1470887E-2,2.8759565E-3,-2.5076082E-2,2.4275763E-1,-7.975308E-4,1.0181457E-2,-4.9887545E-2],"categories":[],"categories_nodes":[],"categories_segments":[],"categories_sizes":[],"default_left":[0,0,0,0,0,0,0,0,0,0,0,0,0,0,0],"id":34,"left_children":[1,3,5,7,9,11,13,-1,-1,-1,-1,-1,-1,-1,-1],"loss_changes":[5.7885156E0,6.04824E0,7.2718353E0,1.3246948E1,8.633555E0,7.50697E0,6.881508E0,0E0,0E0,0E0,0E0,0E0,0E0,0E0,0E0],"parents":[2147483647,0,0,1,1,2,2,3,3,4,4,5,5,6,6],"right_children":[2,4,6,8,10,12,14,-1,-1,-1,-1,-1,-1,-1,-1],"split_conditions":[1E0,1.7E2,8.5E-1,3E0,4.1803856E1,1E0,3.9691956E1,-3.937779E-3,5.1470887E-2,2.8759565E-3,-2.5076082E-2,2.4275763E-1,-7.975308E-4,1.0181457E-2,-4.9887545E-2],"split_indices":[15,16,1,13,2,7,8,0,0,0,0,0,0,0,0],"split_type":[0,0,0,0,0,0,0,0,0,0,0,0,0,0,0],"sum_hessian":[1.0971216E3,1.0061547E3,9.0966835E1,1.771236E2,8.290312E2,4.42593E0,8.65409E1,1.050559E2,7.206769E1,6.9880707E2,1.3022412E2,1.0012226E0,3.4247074E0,2.751845E1,5.9022453E1],"tree_param":{"num_deleted":"0","num_feature":"17","num_nodes":"15","size_leaf_vector":"1"}},{"base_weights":[-1.2409869E-3,-6.86552E-1,6.2282854E-3,1.0245212E-1,-9.941766E-1,6.151117E-1,-3.3505294E-3,-1.06576495E-1,-2.6753007E-2,-4.3588426E-2,9.653037E-2,-1.7069813E-3,4.410058E-2],"categories":[],"categories_nodes":[],"categories_segments":[],"categories_sizes":[],"default_left":[0,0,0,0,1,0,0,0,0,0,0,0,0],"id":35,"left_children":[1,3,5,-1,7,9,11,-1,-1,-1,-1,-1,-1],"loss_changes":[5.618658E0,7.247845E0,6.3359523E0,0E0,2.6308537E-1,6.613322E0,6.531501E0,0E0,0E0,0E0,0E0,0E0,0E0],"parents":[2147483647,0,0,1,1,2,2,4,4,5,5,6,6],"right_children":[2,4,6,-1,8,10,12,-1,-1,-1,-1,-1,-1],"split_conditions":[4E0,1.109085E1,1.5E1,1.0245212E-1,1.4061494E2,2.7203932E0,1.6427653E3,-1.06576495E-1,-2.6753007E-2,-4.3588426E-2,9.653037E-2,-1.7069813E-3,4.410058E-2],"split_indices":[16,2,16,0,8,3,9,0,0,0,0,0,0],"split_type":[0,0,0,0,0,0,0,0,0,0,0,0,0],"sum_hessian":[1.0958215E3,1.083447E1,1.084987E3,1.2959113E0,9.538558E0,1.5825311E1,1.0691617E3,8.258274E0,1.280284E0,3.8939843E0,1.1931326E1,1.0380734E3,3.1088423E1],"tree_param":{"num_deleted":"0","num_feature":"17","num_nodes":"13","size_leaf_vector":"1"}},{"base_weights":[-1.1461405E-3,-8.327504E-3,6.6304326E-1,2.9006451E-3,-4.6404776E-1,1.8122714E0,4.154036E-2,2.2996552E-3,-2.3905871E-2,-1.449835E-2,-9.447166E-2,-8.220959E-3,2.4953678E-1,8.0901116E-2,-5.3320576E-2],"categories":[3],"categories_nodes":[3],"categories_segments":[0],"categories_sizes":[1],"default_left":[1,0,1,1,0,0,0,0,0,0,0,0,0,0,0],"id":36,"left_children":[1,3,5,7,9,11,13,-1,-1,-1,-1,-1,-1,-1,-1],"loss_changes":[5.2353463E0,5.5567994E0,8.310453E0,5.1625266E0,3.8678207E0,5.507576E0,4.243933E0,0E0,0E0,0E0,0E0,0E0,0E0,0E0,0E0],"parents":[2147483647,0,0,1,1,2,2,3,3,4,4,5,5,6,6],"right_children":[2,4,6,8,10,12,14,-1,-1,-1,-1,-1,-1,-1,-1],"split_conditions":[1.28E2,3.1733334E1,2.962919E1,1E-45,2.6E1,2.0736467E1,6.8E0,2.2996552E-3,-2.3905871E-2,-1.449835E-2,-9.447166E-2,-8.220959E-3,2.4953678E-1,8.0901116E-2,-5.3320576E-2],"split_indices":[11,1,8,5,11,8,1,0,0,0,0,0,0,0,0],"split_type":[0,0,0,1,0,0,0,0,0,0,0,0,0,0,0],"sum_hessian":[1.0954486E3,1.0847079E3,1.0740641E1,1.059595E3,2.511293E1,3.0973487E0,7.6432924E0,9.791747E2,8.042029E1,1.5876117E1,9.2368145E0,1.0539643E0,2.0433843E0,3.0983722E0,4.54492E0],"tree_param":{"num_deleted":"0","num_feature":"17","num_nodes":"15","size_leaf_vector":"1"}},{"base_weights":[-1.011561E-3,2.1111146E-2,-2.0585348E-1,3.9856736E-2,-3.1869036E-1,-7.48042E-1,-8.4373474E-2,4.1473795E-2,1.6720282E-3,4.1889224E-2,-5.7962812E-2,-1.474208E-3,-8.766521E-2,-2.537336E-2,4.5567885E-2],"categories":[1,4],"categories_nodes":[4],"categories_segments":[0],"categories_sizes":[2],"default_left":[0,1,0,0,1,0,1,0,0,0,0,0,0,0,0],"id":37,"left_children":[1,3,5,7,9,11,13,-1,-1,-1,-1,-1,-1,-1,-1],"loss_changes":[4.97165E0,6.320049E0,6.9801946E0,8.140165E0,1.0227947E1,1.8210878E0,8.2091E0,0E0,0E0,0E0,0E0,0E0,0E0,0E0,0E0],"parents":[2147483647,0,0,1,1,2,2,3,3,4,4,5,5,6,6],"right_children":[2,4,6,8,10,12,14,-1,-1,-1,-1,-1,-1,-1,-1],"split_conditions":[4.2952072E1,8.378405E1,7.5E1,2E0,1E-45,6.2333332E1,1.446128E1,4.1473795E-2,1.6720282E-3,4.1889224E-2,-5.7962812E-2,-1.474208E-3,-8.766521E-2,-2.537336E-2,4.5567885E-2],"split_indices":[3,9,0,11,6,0,9,0,0,0,0,0,0,0,0],"split_type":[0,0,0,0,1,0,0,0,0,0,0,0,0,0,0],"sum_hessian":[1.095134E3,9.891986E2,1.0593544E2,9.3831775E2,5.0880814E1,1.8446672E1,8.748877E1,5.35598E1,8.84758E2,1.313821E1,3.7742603E1,2.9188428E0,1.552783E1,6.700591E1,2.0482853E1],"tree_param":{"num_deleted":"0","num_feature":"17","num_nodes":"15","size_leaf_vector":"1"}},{"base_weights":[-1.0916784E-3,1.0551159E-1,-4.2372484E-2,9.032823E-2,1.6516672E-1,-8.3140874E-1,-2.7327757E-2,-2.8351897E-3,2.2700097E-2,-1.7994327E-2,-8.849508E-2,1.2800188E-1,-3.3672415E-3],"categories":[0,0,1,2,4],"categories_nodes":[0,6],"categories_segments":[0,1],"categories_sizes":[1,4],"default_left":[1,0,0,0,0,0,0,0,0,0,0,0,0],"id":38,"left_children":[1,3,5,7,-1,9,11,-1,-1,-1,-1,-1,-1],"loss_changes":[4.8254566E0,7.0365524E0,9.360235E0,4.940214E0,0E0,3.5543156E-1,6.4852853E0,0E0,0E0,0E0,0E0,0E0,0E0],"parents":[2147483647,0,0,1,1,2,2,3,3,5,5,6,6],"right_children":[2,4,6,8,-1,10,12,-1,-1,-1,-1,-1,-1],"split_conditions":[1E-45,1.161E3,2.8E1,3E0,1.6516672E-1,4.3333335E0,1E-45,-2.8351897E-3,2.2700097E-2,-1.7994327E-2,-8.849508E-2,1.2800188E-1,-3.3672415E-3],"split_indices":[14,16,0,13,0,0,6,0,0,0,0,0,0],"split_type":[1,0,0,0,0,0,1,0,0,0,0,0,0],"sum_hessian":[1.0945121E3,3.0509106E2,7.89421E2,3.031723E2,1.9187528E0,1.3755156E1,7.756659E2,1.6269139E2,1.4048093E2,1.3758224E0,1.23793335E1,2.7766495E0,7.728892E2],"tree_param":{"num_deleted":"0","num_feature":"17","num_nodes":"13","size_leaf_vector":"1"}},{"base_weights":[-8.900844E-4,1.8942568E-2,-2.2232664E-1,1.718243E-1,-1.2353107E-2,8.075251E-1,-2.8751916E-1,8.429738E-3,7.428251E-2,2.3447287E-3,-2.082612E-2,2.0977378E-1,-1.2516704E-3,8.870345E-3,-4.699458E-2],"categories":[2],"categories_nodes":[3],"categories_segments":[0],"categories_sizes":[1],"default_left":[0,0,0,1,0,0,0,0,0,0,0,0,0,0,0],"id":39,"left_children":[1,3,5,7,9,11,13,-1,-1,-1,-1,-1,-1,-1,-1],"loss_changes":[4.8114E0,4.8132467E0,6.2785015E0,8.480245E0,5.8656044E0,5.9766583E0,5.9052253E0,0E0,0E0,0E0,0E0,0E0,0E0,0E0,0E0],"parents":[2147483647,0,0,1,1,2,2,3,3,4,4,5,5,6,6],"right_children":[2,4,6,8,10,12,14,-1,-1,-1,-1,-1,-1,-1,-1],"split_conditions":[1E0,1.61E2,8.5E-1,1E-45,4.1803856E1,1E0,3.9691956E1,8.429738E-3,7.428251E-2,2.3447287E-3,-2.082612E-2,2.0977378E-1,-1.2516704E-3,8.870345E-3,-4.699458E-2],"split_indices":[15,16,1,14,2,7,8,0,0,0,0,0,0,0,0],"split_type":[0,0,0,1,0,0,0,0,0,0,0,0,0,0,0],"sum_hessian":[1.093614E3,1.00455676E3,8.905726E1,1.6993263E2,8.3462415E2,4.6240463E0,8.443321E1,1.4834146E2,2.1591171E1,7.064138E2,1.282103E2,1.1914276E0,3.4326189E0,2.7739393E1,5.669382E1],"tree_param":{"num_deleted":"0","num_feature":"17","num_nodes":"15","size_leaf_vector":"1"}},{"base_weights":[-6.9411204E-4,-6.5323836E-1,6.0755615E-3,9.251936E-2,-9.680921E-1,6.835843E-2,-7.091587E-2,-1.0554093E-1,-2.8496493E-2,6.2773875E-3,1.4675172E-1,-8.446496E-3,8.441773E-2],"categories":[1,3],"categories_nodes":[2],"categories_segments":[0],"categories_sizes":[2],"default_left":[0,0,1,0,0,0,1,0,0,0,0,0,0],"id":40,"left_children":[1,3,5,-1,7,9,11,-1,-1,-1,-1,-1,-1],"loss_changes":[4.8328385E0,6.4782457E0,5.197558E0,0E0,2.8700733E-1,4.5893145E0,6.0816E0,0E0,0E0,0E0,0E0,0E0,0E0],"parents":[2147483647,0,0,1,1,2,2,4,4,5,5,6,6],"right_children":[2,4,6,-1,8,10,12,-1,-1,-1,-1,-1,-1],"split_conditions":[4E0,1.109085E1,1E-45,9.251936E-2,2.00001E0,9.0333336E1,1.6427653E3,-1.0554093E-1,-2.8496493E-2,6.2773875E-3,1.4675172E-1,-8.446496E-3,8.441773E-2],"split_indices":[16,2,5,0,7,0,9,0,0,0,0,0,0],"split_type":[0,0,1,0,0,0,0,0,0,0,0,0,0],"sum_hessian":[1.0921199E3,1.0233102E1,1.0818868E3,1.3793962E0,8.853706E0,5.9813367E2,4.8375314E2,7.3670793E0,1.4866267E0,5.967965E2,1.3371668E0,4.7758954E2,6.163605E0],"tree_param":{"num_deleted":"0","num_feature":"17","num_nodes":"13","size_leaf_vector":"1"}},{"base_weights":[-5.240914E-4,3.3546457E-1,-1.3266995E-2,1.2900317E0,1.7853029E-1,-7.704868E-1,-5.7858154E-3,2.5748155E-1,-1.0995515E-2,-4.260839E-2,4.0895034E-2,4.0407274E-2,-9.411409E-2,1.7813845E-3,-2.3840811E-2],"categories":[1,2,3,4],"categories_nodes":[1],"categories_segments":[0],"categories_sizes":[4],"default_left":[0,1,0,0,0,0,0,0,0,0,0,0,0,0,0],"id":41,"left_children":[1,3,5,7,9,11,13,-1,-1,-1,-1,-1,-1,-1,-1],"loss_changes":[4.6828823E0,5.7568693E0,5.964923E0,1.0144062E1,5.117757E0,2.4451385E0,5.738064E0,0E0,0E0,0E0,0E0,0E0,0E0,0E0,0E0],"parents":[2147483647,0,0,1,1,2,2,3,3,4,4,5,5,6,6],"right_children":[2,4,6,8,10,12,14,-1,-1,-1,-1,-1,-1,-1,-1],"split_conditions":[6.3193045E0,1E-45,4E0,5.84E2,3.2E2,1.109085E1,4.2952072E1,2.5748155E-1,-1.0995515E-2,-4.260839E-2,4.0895034E-2,4.0407274E-2,-9.411409E-2,1.7813845E-3,-2.3840811E-2],"split_indices":[2,6,16,16,16,2,3,0,0,0,0,0,0,0,0],"split_type":[0,1,0,0,0,0,0,0,0,0,0,0,0,0,0],"sum_hessian":[1.091716E3,3.896667E1,1.0527493E3,4.4823236E0,3.448435E1,9.301414E0,1.0434478E3,1.8997396E0,2.5825841E0,9.281321E0,2.5203028E1,1.006461E0,8.294952E0,9.4817804E2,9.526977E1],"tree_param":{"num_deleted":"0","num_feature":"17","num_nodes":"15","size_leaf_vector":"1"}},{"base_weights":[-4.05408E-4,-3.906726E-2,1.050277E-1,9.552352E-2,-1.0372693E-1,7.675478E-1,2.2954434E-2,2.2680007E-2,-1.652772E-2,1.5940212E-3,-2.9113475E-2,4.5167524E-2,1.7549042E-1,4.5553945E-2,-8.965054E-3],"categories":[1],"categories_nodes":[5],"categories_segments":[0],"categories_sizes":[1],"default_left":[0,0,0,1,1,1,1,0,0,0,0,0,0,0,0],"id":42,"left_children":[1,3,5,7,9,11,13,-1,-1,-1,-1,-1,-1,-1,-1],"loss_changes":[4.4562726E0,6.9711213E0,1.5931926E1,8.942535E0,1.2132942E1,9.281343E0,1.28042965E1,0E0,0E0,0E0,0E0,0E0,0E0,0E0,0E0],"parents":[2147483647,0,0,1,1,2,2,3,3,4,4,5,5,6,6],"right_children":[2,4,6,8,10,12,14,-1,-1,-1,-1,-1,-1,-1,-1],"split_conditions":[3.4E1,6E0,1.4166666E0,9.030461E1,1E0,1E-45,4E1,2.2680007E-2,-1.652772E-2,1.5940212E-3,-2.9113475E-2,4.5167524E-2,1.7549042E-1,4.5553945E-2,-8.965054E-3],"split_indices":[11,11,1,8,7,14,11,0,0,0,0,0,0,0,0],"split_type":[0,0,0,0,0,1,0,0,0,0,0,0,0,0,0],"sum_hessian":[1.0912247E3,7.989008E2,2.9232394E2,2.5910007E2,5.398008E2,3.1300985E1,2.6102295E2,1.7243407E2,8.666598E1,3.2999875E2,2.0980203E2,2.4818556E1,6.4824295E0,5.3283348E1,2.0773961E2],"tree_param":{"num_deleted":"0","num_feature":"17","num_nodes":"15","size_leaf_vector":"1"}},{"base_weights":[-3.683095E-4,-7.0006736E-3,5.9302026E-1,-1.933268E-1,1.7094549E-2,1.4872341E0,4.9495507E-2,7.052999E-2,-2.621761E-2,9.382022E-3,-7.027831E-3,5.5603427E-3,2.1956094E-1,8.716249E-2,-4.299737E-2],"categories":[],"categories_nodes":[],"categories_segments":[],"categories_sizes":[],"default_left":[1,0,1,0,1,0,0,0,0,0,0,0,0,0,0],"id":43,"left_children":[1,3,5,7,9,11,13,-1,-1,-1,-1,-1,-1,-1,-1],"loss_changes":[4.2980466E0,4.851935E0,5.79353E0,7.841223E0,6.4236007E0,4.4710703E0,3.7420993E0,0E0,0E0,0E0,0E0,0E0,0E0,0E0,0E0],"parents":[2147483647,0,0,1,1,2,2,3,3,4,4,5,5,6,6],"right_children":[2,4,6,8,10,12,14,-1,-1,-1,-1,-1,-1,-1,-1],"split_conditions":[1.28E2,7.9968584E-1,2.962919E1,4.3289322E-1,9.206181E1,2E0,1.79E2,7.052999E-2,-2.621761E-2,9.382022E-3,-7.027831E-3,5.5603427E-3,2.1956094E-1,8.716249E-2,-4.299737E-2],"split_indices":[11,9,8,3,8,13,16,0,0,0,0,0,0,0,0],"split_type":[0,0,0,0,0,0,0,0,0,0,0,0,0,0,0],"sum_hessian":[1.0900482E3,1.0789766E3,1.1071629E1,1.227487E2,9.5622784E2,3.5291493E0,7.542479E0,8.077421E0,1.1467129E2,5.0909607E2,4.471318E2,1.5252017E0,2.0039477E0,2.4771314E0,5.065347E0],"tree_param":{"num_deleted":"0","num_feature":"17","num_nodes":"15","size_leaf_vector":"1"}},{"base_weights":[-1.4608685E-4,9.046134E-3,-3.9651626E-1,-3.2563254E-2,1.21873625E-1,-6.2229365E-1,2.6951748E-1,-5.2865627E-3,3.480081E-2,6.4971276E-2,5.077285E-3,-2.9115016E-2,-8.630546E-2,-2.8897965E-2,1.5629517E-1],"categories":[2],"categories_nodes":[3],"categories_segments":[0],"categories_sizes":[1],"default_left":[0,0,0,1,0,0,0,0,0,0,0,0,0,0,0],"id":44,"left_children":[1,3,5,7,9,11,13,-1,-1,-1,-1,-1,-1,-1,-1],"loss_changes":[3.976434E0,5.011553E0,3.8874512E0,6.045498E0,1.0760372E1,1.2456722E0,5.4795732E0,0E0,0E0,0E0,0E0,0E0,0E0,0E0,0E0],"parents":[2147483647,0,0,1,1,2,2,3,3,4,4,5,5,6,6],"right_children":[2,4,6,8,10,12,14,-1,-1,-1,-1,-1,-1,-1,-1],"split_conditions":[3.1733334E1,3.4E1,6.8900085E1,1E-45,1.4166666E0,3.485E1,2.8E1,-5.2865627E-3,3.480081E-2,6.4971276E-2,5.077285E-3,-2.9115016E-2,-8.630546E-2,-2.8897965E-2,1.5629517E-1],"split_indices":[1,11,2,14,1,1,0,0,0,0,0,0,0,0,0],"split_type":[0,0,0,1,0,0,0,0,0,0,0,0,0,0,0],"sum_hessian":[1.0893865E3,1.0656501E3,2.3736313E1,7.790555E2,2.8659464E2,1.7776102E1,5.960211E0,7.404174E2,3.863803E1,3.305589E1,2.5353876E2,8.413473E0,9.36263E0,4.7051396E0,1.2550715E0],"tree_param":{"num_deleted":"0","num_feature":"17","num_nodes":"15","size_leaf_vector":"1"}},{"base_weights":[-1.3657576E-4,1.7501647E-2,-2.0129089E-1,1.6263534E-1,-1.22763375E-2,1.2890086E-1,-3.857125E-1,-1.5418328E-3,4.117384E-2,-2.6677603E-2,1.0368932E-3,-2.2378732E-2,8.291533E-2,-4.3645974E-2,8.332774E-2],"categories":[0,1,2,3],"categories_nodes":[2],"categories_segments":[0],"categories_sizes":[4],"default_left":[0,0,1,0,0,0,0,0,0,0,0,0,0,0,0],"id":45,"left_children":[1,3,5,7,9,11,13,-1,-1,-1,-1,-1,-1,-1,-1],"loss_changes":[3.869869E0,4.335863E0,5.4041343E0,7.581598E0,4.8035393E0,8.153004E0,3.8692398E0,0E0,0E0,0E0,0E0,0E0,0E0,0E0,0E0],"parents":[2147483647,0,0,1,1,2,2,3,3,4,4,5,5,6,6],"right_children":[2,4,6,8,10,12,14,-1,-1,-1,-1,-1,-1,-1,-1],"split_conditions":[1E0,1.61E2,1E-45,3E0,5.940505E-1,6.53E2,4E0,-1.5418328E-3,4.117384E-2,-2.6677603E-2,1.0368932E-3,-2.2378732E-2,8.291533E-2,-4.3645974E-2,8.332774E-2],"split_indices":[15,16,6,13,9,16,13,0,0,0,0,0,0,0,0],"split_type":[0,0,1,0,0,0,0,0,0,0,0,0,0,0,0],"sum_hessian":[1.088724E3,1.00179456E3,8.692939E1,1.6979178E2,8.320028E2,3.1260708E1,5.5668682E1,9.9563774E1,7.0228004E1,6.710133E1,7.649014E2,2.1242273E1,1.00184355E1,5.406008E1,1.6086029E0],"tree_param":{"num_deleted":"0","num_feature":"17","num_nodes":"15","size_leaf_vector":"1"}},{"base_weights":[-1.3617924E-4,3.0057126E-1,-1.1726348E-2,1.1645939E0,1.5474917E-1,-7.4687976E-1,-4.767912E-3,2.226384E-1,-9.768345E-3,1.4311931E-3,1.005918E-1,3.5992388E-2,-9.204454E-2,5.5406626E-2,-1.4077015E-3],"categories":[1,2,3,4],"categories_nodes":[1],"categories_segments":[0],"categories_sizes":[4],"default_left":[0,1,0,0,0,0,0,0,0,0,0,0,0,0,0],"id":46,"left_children":[1,3,5,7,9,11,13,-1,-1,-1,-1,-1,-1,-1,-1],"loss_changes":[3.7989912E0,4.9166565E0,5.3654566E0,7.841304E0,4.260825E0,2.2205787E0,5.4218817E0,0E0,0E0,0E0,0E0,0E0,0E0,0E0,0E0],"parents":[2147483647,0,0,1,1,2,2,3,3,4,4,5,5,6,6],"right_children":[2,4,6,8,10,12,14,-1,-1,-1,-1,-1,-1,-1,-1],"split_conditions":[6.3193045E0,1E-45,4E0,5.84E2,1.011E3,1.109085E1,1.5E1,2.226384E-1,-9.768345E-3,1.4311931E-3,1.005918E-1,3.5992388E-2,-9.204454E-2,5.5406626E-2,-1.4077015E-3],"split_indices":[2,6,16,16,16,2,16,0,0,0,0,0,0,0,0],"split_type":[0,1,0,0,0,0,0,0,0,0,0,0,0,0,0],"sum_hessian":[1.0880085E3,3.945346E1,1.048555E3,4.688259E0,3.47652E1,8.834763E0,1.0397203E3,2.1315117E0,2.5567472E0,3.071435E1,4.050851E0,1.0520815E0,7.782681E0,1.6077118E1,1.0236432E3],"tree_param":{"num_deleted":"0","num_feature":"17","num_nodes":"15","size_leaf_vector":"1"}},{"base_weights":[9.900175E-5,6.0282767E-2,-5.8692217E-2,8.851148E-3,2.3173639E-1,-3.5730306E-2,-4.776051E-1,-1.4709234E-2,1.0867097E-2,3.8925733E-2,-2.6017252E-2,1.0525177E-2,-9.392595E-3,9.98077E-2,-5.81181E-2],"categories":[1,3,5],"categories_nodes":[0],"categories_segments":[0],"categories_sizes":[3],"default_left":[1,0,0,0,1,0,0,0,0,0,0,0,0,0,0],"id":47,"left_children":[1,3,5,7,9,11,13,-1,-1,-1,-1,-1,-1,-1,-1],"loss_changes":[3.8544726E0,4.7448063E0,5.283587E0,6.477998E0,9.723204E0,4.3049927E0,4.944516E0,0E0,0E0,0E0,0E0,0E0,0E0,0E0,0E0],"parents":[2147483647,0,0,1,1,2,2,3,3,4,4,5,5,6,6],"right_children":[2,4,6,8,10,12,14,-1,-1,-1,-1,-1,-1,-1,-1],"split_conditions":[1E-45,1.3778393E1,2.55E1,1.8E1,1.02868904E2,2E0,4.3333335E0,-1.4709234E-2,1.0867097E-2,3.8925733E-2,-2.6017252E-2,1.0525177E-2,-9.392595E-3,9.98077E-2,-5.81181E-2],"split_indices":[5,9,1,11,9,13,0,0,0,0,0,0,0,0,0],"split_type":[1,0,0,0,0,0,0,0,0,0,0,0,0,0,0],"sum_hessian":[1.0873645E3,5.3730615E2,5.500583E2,4.1412967E2,1.23176476E2,5.2250354E2,2.755474E1,1.6144254E2,2.5268713E2,9.345776E1,2.9718712E1,1.5242856E2,3.70075E2,1.2407763E0,2.6313965E1],"tree_param":{"num_deleted":"0","num_feature":"17","num_nodes":"15","size_leaf_vector":"1"}},{"base_weights":[8.556149E-6,1.625033E-2,-2.038744E-1,1.124283E-2,9.8665905E-1,1.7724851E-1,-4.6614546E-1,2.125201E-3,-4.2259272E-2,-3.654893E-2,1.7409715E-1,-6.0073915E-3,1.3942522E-1,9.914892E-2,-5.459858E-2],"categories":[3],"categories_nodes":[0],"categories_segments":[0],"categories_sizes":[1],"default_left":[1,0,0,0,0,0,0,0,0,0,0,0,0,0,0],"id":48,"left_children":[1,3,5,7,9,11,13,-1,-1,-1,-1,-1,-1,-1,-1],"loss_changes":[3.6061275E0,4.890239E0,8.11431E0,4.370768E0,5.905902E0,9.753105E0,6.112647E0,0E0,0E0,0E0,0E0,0E0,0E0,0E0,0E0],"parents":[2147483647,0,0,1,1,2,2,3,3,4,4,5,5,6,6],"right_children":[2,4,6,8,10,12,14,-1,-1,-1,-1,-1,-1,-1,-1],"split_conditions":[1E-45,9.0333336E1,1.0512546E1,6.6421974E1,9.916667E0,9.815011E0,2.5564876E-1,2.125201E-3,-4.2259272E-2,-3.654893E-2,1.7409715E-1,-6.0073915E-3,1.3942522E-1,9.914892E-2,-5.459858E-2],"split_indices":[5,0,2,3,1,2,3,0,0,0,0,0,0,0,0],"split_type":[1,0,0,0,0,0,0,0,0,0,0,0,0,0,0],"sum_hessian":[1.0869967E3,1.0076456E3,7.935101E1,1.00347906E3,4.1665616E0,3.247854E1,4.687247E1,9.817791E2,2.1699974E1,1.6766096E0,2.489952E0,2.7974077E1,4.5044613E0,1.8411144E0,4.5031357E1],"tree_param":{"num_deleted":"0","num_feature":"17","num_nodes":"15","size_leaf_vector":"1"}},{"base_weights":[1.362592E-4,-5.981595E-3,5.3161263E-1,2.85569E-4,-6.4506036E-1,1.2795855E0,4.4141617E-2,-1.7336536E-2,2.249731E-3,2.114773E-2,-8.847465E-2,4.351531E-3,1.9126783E-1,6.847858E-2,-4.9569678E-2],"categories":[1,2,4],"categories_nodes":[4],"categories_segments":[0],"categories_sizes":[3],"default_left":[1,0,1,0,1,0,0,0,0,0,0,0,0,0,0],"id":49,"left_children":[1,3,5,7,9,11,13,-1,-1,-1,-1,-1,-1,-1,-1],"loss_changes":[3.5399663E0,4.311201E0,4.460985E0,4.119024E0,2.333157E0,3.714384E0,3.2918499E0,0E0,0E0,0E0,0E0,0E0,0E0,0E0,0E0],"parents":[2147483647,0,0,1,1,2,2,3,3,4,4,5,5,6,6],"right_children":[2,4,6,8,10,12,14,-1,-1,-1,-1,-1,-1,-1,-1],"split_conditions":[1.28E2,1.181E3,2.962919E1,7.9968584E-1,1E-45,2.5191275E1,6.8E0,-1.7336536E-2,2.249731E-3,2.114773E-2,-8.847465E-2,4.351531E-3,1.9126783E-1,6.847858E-2,-4.9569678E-2],"split_indices":[11,16,8,9,5,8,1,0,0,0,0,0,0,0,0],"split_type":[0,0,0,0,1,0,0,0,0,0,0,0,0,0,0],"sum_hessian":[1.0867417E3,1.0753519E3,1.1389689E1,1.0658987E3,9.453245E0,3.8528903E0,7.5367994E0,1.2010616E2,9.4579254E2,2.0926576E0,7.3605876E0,1.6669735E0,2.1859167E0,3.3238156E0,4.2129836E0],"tree_param":{"num_deleted":"0","num_feature":"17","num_nodes":"15","size_leaf_vector":"1"}}]},"name":"gbtree"},"learner_model_param":{"base_score":"[8.3727434E-2]","boost_from_average":"1","num_class":"0","num_feature":"17","num_target":"1"},"objective":{"name":"binary:logistic","reg_loss_param":{"scale_pos_weight":"1"}}},"version":[3,2,0]}