{"learner":{"attributes":{"scikit_learn":"{\"_estimator_type\": \"classifier\"}"},"feature_names":["x_adj","y_adj","distance","angle","behind_the_net","shot_type","prev_type","prev_event_same_team","dist_from_prev_event","speed_from_prev_event","crossed_royal_road","time_from_prev_event","home_team_shot","period","game_state","goalie_pulled","time_remaining"],"feature_types":["float","float","float","float","i","c","c","i","float","float","i","float","i","int","c","i","int"],"gradient_booster":{"model":{"cats":{"enc":[{"offsets":[],"values":[]},{"offsets":[],"values":[]},{"offsets":[],"values":[]},{"offsets":[],"values":[]},{"offsets":[],"values":[]},{"offsets":[0,1,2,3,4,5,6],"values":[49,50,51,52,53,54]},{"offsets":[0,12,19,22,29,33],"values":[98,108,111,99,107,101,100,95,115,104,111,116,102,97,99,101,111,102,102,104,105,116,112,101,110,97,108,116,121,115,104,111,116]},{"offsets":[],"values":[]},{"offsets":[],"values":[]},{"offsets":[],"values":[]},{"offsets":[],"values":[]},{"offsets":[],"values":[]},{"offsets":[],"values":[]},{"offsets":[],"values":[]},{"offsets":[0,2,4,6],"values":[101,118,112,112,115,104]},{"offsets":[],"values":[]},{"offsets":[],"values":[]}],"feature_segments":[0,0,0,0,0,0,6,11,11,11,11,11,11,11,11,14,14,14],"sorted_idx":[0,1,2,3,4,5,0,1,2,3,4,0,1,2]},"gbtree_model_param":{"num_parallel_tree":"1","num_trees":"50"},"iteration_indptr":[0,1,2,3,4,5,6,7,8,9,10,11,12,13,14,15,16,17,18,19,20,21,22,23,24,25,26,27,28,29,30,31,32,33,34,35,36,37,38,39,40,41,42,43,44,45,46,47,48,49,50],"tree_info":[0,0,0,0,0,0,0,0,0,0,0,0,0,0,0,0,0,0,0,0,0,0,0,0,0,0,0,0,0,0,0,0,0,0,0,0,0,0,0,0,0,0,0,0,0,0,0,0,0,0],"trees":[{"base_weights":[4.7293515E-8,6.5669715E-1,-4.077415E-1,1.8075482E0,4.5579922E-1,2.6566228E-1,-5.8422905E-1,2.3598623E-1,1.7333725E-2,7.401841E-2,-1.0573995E-2,7.591822E-2,-2.1534605E-2,-3.3507448E-2,-8.173501E-2],"categories":[0],"categories_nodes":[2],"categories_segments":[0],"categories_sizes":[1],"default_left":[0,1,1,1,0,0,0,0,0,0,0,0,0,0,0],"id":0,"left_children":[1,3,5,7,9,11,13,-1,-1,-1,-1,-1,-1,-1,-1],"loss_changes":[3.0677023E2,1.00642456E2,8.415867E1,5.8157578E1,5.9959213E1,3.5169674E1,3.227324E1,0E0,0E0,0E0,0E0,0E0,0E0,0E0,0E0],"parents":[2147483647,0,0,1,1,2,2,3,3,4,4,5,5,6,6],"right_children":[2,4,6,8,10,12,14,-1,-1,-1,-1,-1,-1,-1,-1],"split_conditions":[2.3112196E1,3E0,1E-45,1.16216064E2,9.066667E0,1.7566668E1,1.87E1,2.3598623E-1,1.7333725E-2,7.401841E-2,-1.0573995E-2,7.591822E-2,-2.1534605E-2,-3.3507448E-2,-8.173501E-2],"split_indices":[2,11,14,8,1,1,1,0,0,0,0,0,0,0,0],"split_type":[0,0,1,0,0,0,0,0,0,0,0,0,0,0,0],"sum_hessian":[1.1436794E3,4.3786148E2,7.05818E2,6.388672E1,3.7397476E2,1.4646451E2,5.593535E2,4.741712E1,1.6469597E1,2.480398E2,1.2593497E2,7.2006615E1,7.44579E1,2.7155685E2,2.8779663E2],"tree_param":{"num_deleted":"0","num_feature":"17","num_nodes":"15","size_leaf_vector":"1"}},{"base_weights":[-2.2554758E-3,4.057599E-1,-5.4718524E-1,-1.9825768E-1,6.3763654E-1,-6.055786E-1,1.0089312E0,-2.7317911E-2,1.971974E-1,1.3665317E-1,4.7000416E-2,-3.0635273E-2,-7.375665E-2,3.4868786E-1,-5.0627824E-2],"categories":[2,2],"categories_nodes":[2,3],"categories_segments":[0,1],"categories_sizes":[1,1],"default_left":[0,0,1,1,1,0,0,0,0,0,0,0,0,0,0],"id":1,"left_children":[1,3,5,7,9,11,13,-1,-1,-1,-1,-1,-1,-1,-1],"loss_changes":[2.5508507E2,9.201242E1,4.5246506E1,3.0253796E1,5.73114E1,1.849736E1,6.987927E1,0E0,0E0,0E0,0E0,0E0,0E0,0E0,0E0],"parents":[2147483647,0,0,1,1,2,2,3,3,4,4,5,5,6,6],"right_children":[2,4,6,8,10,12,14,-1,-1,-1,-1,-1,-1,-1,-1],"split_conditions":[1.4166667E1,6.1666668E1,1E-45,1E-45,4E0,1.8983334E1,2.94E2,-2.7317911E-2,1.971974E-1,1.3665317E-1,4.7000416E-2,-3.0635273E-2,-7.375665E-2,3.4868786E-1,-5.0627824E-2],"split_indices":[1,0,14,14,11,1,16,0,0,0,0,0,0,0,0],"split_type":[0,0,1,1,0,0,0,0,0,0,0,0,0,0,0],"sum_hessian":[1.1452776E3,6.550587E2,4.9021887E2,1.8175319E2,4.733055E2,4.7307745E2,1.7141418E1,1.7653297E2,5.220204E0,8.716125E1,3.861443E2,1.4581824E2,3.2725922E2,6.0105753E0,1.1130843E1],"tree_param":{"num_deleted":"0","num_feature":"17","num_nodes":"15","size_leaf_vector":"1"}},{"base_weights":[-3.5633214E-3,3.5207692E-1,-5.176231E-1,-1.696049E-1,5.481552E-1,3.1214898E-2,-6.678624E-1,5.191824E-2,-3.9168365E-2,1.9840184E-1,4.8107155E-2,9.837759E-2,-2.4562081E-2,-6.819748E-2,1.2821798E-1],"categories":[0,0],"categories_nodes":[2,3],"categories_segments":[0,1],"categories_sizes":[1,1],"default_left":[0,0,1,1,0,0,0,0,0,0,0,0,0,0,0],"id":2,"left_children":[1,3,5,7,9,11,13,-1,-1,-1,-1,-1,-1,-1,-1],"loss_changes":[2.0975375E2,6.946243E1,3.8706673E1,2.865859E1,4.654596E1,2.7082275E1,1.1012131E1,0E0,0E0,0E0,0E0,0E0,0E0,0E0,0E0],"parents":[2147483647,0,0,1,1,2,2,3,3,4,4,5,5,6,6],"right_children":[2,4,6,8,10,12,14,-1,-1,-1,-1,-1,-1,-1,-1],"split_conditions":[1.4166667E1,6.2333332E1,1E-45,1E-45,6.313038E0,1.68E2,1E0,5.191824E-2,-3.9168365E-2,1.9840184E-1,4.8107155E-2,9.837759E-2,-2.4562081E-2,-6.819748E-2,1.2821798E-1],"split_indices":[1,0,14,14,2,16,4,0,0,0,0,0,0,0,0],"split_type":[0,0,1,1,0,0,0,0,0,0,0,0,0,0,0],"sum_hessian":[1.1453248E3,6.771616E2,4.6816327E2,1.8502443E2,4.9213718E2,1.0078363E2,3.6737964E2,4.478473E1,1.4023969E2,2.0690964E1,4.7144623E2,2.2119442E1,7.866419E1,3.6538565E2,1.9940037E0],"tree_param":{"num_deleted":"0","num_feature":"17","num_nodes":"15","size_leaf_vector":"1"}},{"base_weights":[-4.403202E-3,3.0705217E-1,-4.8842338E-1,-1.6769676E-1,4.677504E-1,-5.4742044E-1,8.196287E-1,4.3842155E-2,-3.8194325E-2,1.04580246E-1,3.478198E-2,-2.318287E-2,-6.8247765E-2,2.3098974E-1,-4.6553217E-2],"categories":[2,0],"categories_nodes":[2,3],"categories_segments":[0,1],"categories_sizes":[1,1],"default_left":[0,0,1,1,1,0,0,0,0,0,0,0,0,0,0],"id":3,"left_children":[1,3,5,7,9,11,13,-1,-1,-1,-1,-1,-1,-1,-1],"loss_changes":[1.7285017E2,5.3304916E1,3.509297E1,2.3174633E1,3.579004E1,1.8176178E1,3.8948307E1,0E0,0E0,0E0,0E0,0E0,0E0,0E0,0E0],"parents":[2147483647,0,0,1,1,2,2,3,3,4,4,5,5,6,6],"right_children":[2,4,6,8,10,12,14,-1,-1,-1,-1,-1,-1,-1,-1],"split_conditions":[1.4166667E1,6.1666668E1,1E-45,1E-45,3E0,1.87E1,2.94E2,4.3842155E-2,-3.8194325E-2,1.04580246E-1,3.478198E-2,-2.318287E-2,-6.8247765E-2,2.3098974E-1,-4.6553217E-2],"split_indices":[1,0,14,14,11,1,16,0,0,0,0,0,0,0,0],"split_type":[0,0,1,1,0,0,0,0,0,0,0,0,0,0,0],"sum_hessian":[1.1446016E3,6.966741E2,4.4792746E2,1.7617088E2,5.205032E2,4.2915286E2,1.8774582E1,4.5735527E1,1.3043536E2,8.810876E1,4.3239444E2,1.2942906E2,2.9972382E2,8.32434E0,1.0450241E1],"tree_param":{"num_deleted":"0","num_feature":"17","num_nodes":"15","size_leaf_vector":"1"}},{"base_weights":[-5.0786934E-3,2.5415862E-1,-4.878534E-1,3.680267E-1,-3.0513752E-1,-5.4603595E-1,6.7295676E-1,8.484644E-2,2.3320114E-2,-3.7772637E-2,1.2036405E-1,-2.4304874E-2,-6.5885805E-2,1.7391747E-1,-7.4166745E-2],"categories":[2,0,2],"categories_nodes":[2,3,4],"categories_segments":[0,1,2],"categories_sizes":[1,1,1],"default_left":[0,0,1,1,1,0,0,0,0,0,0,0,0,0,0],"id":4,"left_children":[1,3,5,7,9,11,13,-1,-1,-1,-1,-1,-1,-1,-1],"loss_changes":[1.4330423E2,4.755855E1,2.7385483E1,3.9926315E1,1.4316276E1,1.2880753E1,3.076458E1,0E0,0E0,0E0,0E0,0E0,0E0,0E0,0E0],"parents":[2147483647,0,0,1,1,2,2,3,3,4,4,5,5,6,6],"right_children":[2,4,6,8,10,12,14,-1,-1,-1,-1,-1,-1,-1,-1],"split_conditions":[1.5016666E1,3.602468E1,1E-45,1E-45,1E-45,1.8983334E1,3.56E2,8.484644E-2,2.3320114E-2,-3.7772637E-2,1.2036405E-1,-2.4304874E-2,-6.5885805E-2,1.7391747E-1,-7.4166745E-2],"split_indices":[1,2,14,14,14,1,16,0,0,0,0,0,0,0,0],"split_type":[0,0,1,1,1,0,0,0,0,0,0,0,0,0,0],"sum_hessian":[1.1430397E3,7.440031E2,3.9903653E2,6.184365E2,1.25566605E2,3.8049484E2,1.854169E1,1.3436105E2,4.8407547E2,1.2051801E2,5.048596E0,1.04096016E2,2.7639883E2,1.0442008E1,8.099683E0],"tree_param":{"num_deleted":"0","num_feature":"17","num_nodes":"15","size_leaf_vector":"1"}},{"base_weights":[-5.513576E-3,2.3771761E-1,-4.3395218E-1,7.594337E-1,1.4293662E-1,7.6821156E-2,-5.89422E-1,1.0450476E-1,-2.3077143E-2,5.6495983E-2,1.1515225E-3,1.2251896E-1,-7.6301345E-3,-6.051759E-2,1.2237229E-1],"categories":[0,0],"categories_nodes":[2,4],"categories_segments":[0,1],"categories_sizes":[1,1],"default_left":[0,1,1,1,1,0,0,0,0,0,0,0,0,0,0],"id":5,"left_children":[1,3,5,7,9,11,13,-1,-1,-1,-1,-1,-1,-1,-1],"loss_changes":[1.1914546E2,3.595484E1,3.2923073E1,3.18863E1,3.429259E1,1.723782E1,9.810471E0,0E0,0E0,0E0,0E0,0E0,0E0,0E0,0E0],"parents":[2147483647,0,0,1,1,2,2,3,3,4,4,5,5,6,6],"right_children":[2,4,6,8,10,12,14,-1,-1,-1,-1,-1,-1,-1,-1],"split_conditions":[1.4166667E1,3E0,1E-45,1.1257077E2,1E-45,6.2E1,1E0,1.0450476E-1,-2.3077143E-2,5.6495983E-2,1.1515225E-3,1.2251896E-1,-7.6301345E-3,-6.051759E-2,1.2237229E-1],"split_indices":[1,11,14,8,14,16,4,0,0,0,0,0,0,0,0],"split_type":[0,0,1,0,1,0,0,0,0,0,0,0,0,0,0],"sum_hessian":[1.1413351E3,7.2830835E2,4.130267E2,1.1089289E2,6.1741547E2,9.649907E1,3.1652765E2,8.6024635E1,2.4868248E1,1.4582861E2,4.7158682E2,1.0529549E1,8.596952E1,3.144616E2,2.0660403E0],"tree_param":{"num_deleted":"0","num_feature":"17","num_nodes":"15","size_leaf_vector":"1"}},{"base_weights":[-5.673221E-3,2.4058361E-1,-3.7142083E-1,4.7691792E-1,2.2594165E-2,1.0658045E-1,-5.387473E-1,1.7640989E-1,4.176083E-2,4.574572E-2,-1.1064276E-2,8.2148187E-4,1.8746226E-1,-4.3195035E-2,-8.833252E-2],"categories":[0,0],"categories_nodes":[2,4],"categories_segments":[0,1],"categories_sizes":[1,1],"default_left":[0,0,1,0,1,0,0,0,0,0,0,0,0,0,0],"id":6,"left_children":[1,3,5,7,9,11,13,-1,-1,-1,-1,-1,-1,-1,-1],"loss_changes":[1.0278351E2,3.5125175E1,3.678356E1,2.4241364E1,2.0666927E1,2.0836061E1,1.2140839E1,0E0,0E0,0E0,0E0,0E0,0E0,0E0,0E0],"parents":[2147483647,0,0,1,1,2,2,3,3,4,4,5,5,6,6],"right_children":[2,4,6,8,10,12,14,-1,-1,-1,-1,-1,-1,-1,-1],"split_conditions":[3.0443577E1,6.516667E0,1E-45,5.507974E0,1E-45,6.884064E1,2.89E1,1.7640989E-1,4.176083E-2,4.574572E-2,-1.1064276E-2,8.2148187E-4,1.8746226E-1,-4.3195035E-2,-8.833252E-2],"split_indices":[2,1,14,2,14,2,1,0,0,0,0,0,0,0,0],"split_type":[0,0,1,0,1,0,0,0,0,0,0,0,0,0,0],"sum_hessian":[1.1391865E3,6.81008E2,4.5817853E2,3.261851E2,3.5482294E2,1.1889485E2,3.392837E2,1.310157E1,3.130835E2,8.2646194E1,2.7217676E2,1.13580414E2,5.3144393E0,2.6072827E2,7.855542E1],"tree_param":{"num_deleted":"0","num_feature":"17","num_nodes":"15","size_leaf_vector":"1"}},{"base_weights":[-5.7163388E-3,1.4772934E-1,-5.159494E-1,-2.8645912E-1,2.2936101E-1,-5.8355266E-1,5.03261E-1,1.4670707E-2,-4.9084634E-2,5.3400677E-2,1.2041955E-2,-5.9732478E-2,1.21973686E-1,1.8344541E-1,-1.4184034E-2],"categories":[2,0],"categories_nodes":[2,3],"categories_segments":[0,1],"categories_sizes":[1,1],"default_left":[0,0,1,1,0,0,0,0,0,0,0,0,0,0,0],"id":7,"left_children":[1,3,5,7,9,11,13,-1,-1,-1,-1,-1,-1,-1,-1],"loss_changes":[8.917382E1,3.110245E1,1.8437897E1,1.2380339E1,2.4417E1,6.8732147E0,1.4787869E1,0E0,0E0,0E0,0E0,0E0,0E0,0E0,0E0],"parents":[2147483647,0,0,1,1,2,2,3,3,4,4,5,5,6,6],"right_children":[2,4,6,8,10,12,14,-1,-1,-1,-1,-1,-1,-1,-1],"split_conditions":[1.87E1,5.2333332E1,1E-45,1E-45,2.0862808E0,1E0,1.2E2,1.4670707E-2,-4.9084634E-2,5.3400677E-2,1.2041955E-2,-5.9732478E-2,1.21973686E-1,1.8344541E-1,-1.4184034E-2],"split_indices":[1,0,14,14,3,4,16,0,0,0,0,0,0,0,0],"split_type":[0,0,1,1,0,0,0,0,0,0,0,0,0,0,0],"sum_hessian":[1.1370012E3,8.7466736E2,2.623339E2,1.3802434E2,7.3664307E2,2.4641675E2,1.5917142E1,4.4338387E1,9.368596E1,1.9300862E2,5.436344E2,2.4521277E2,1.2039888E0,4.5938587E0,1.1323283E1],"tree_param":{"num_deleted":"0","num_feature":"17","num_nodes":"15","size_leaf_vector":"1"}},{"base_weights":[-5.6125894E-3,1.2918866E-1,-4.9479082E-1,8.8764854E-2,9.938551E-1,-5.600699E-1,4.098851E-1,6.696455E-3,1.6902258E-1,2.7482736E-1,-5.3223926E-3,-4.5287576E-2,-8.231288E-2,1.163433E-1,-6.752359E-2],"categories":[2,2],"categories_nodes":[1,2],"categories_segments":[0,1],"categories_sizes":[1,1],"default_left":[0,1,1,0,0,0,0,0,0,0,0,0,0,0,0],"id":8,"left_children":[1,3,5,7,9,11,13,-1,-1,-1,-1,-1,-1,-1,-1],"loss_changes":[7.495353E1,3.1059746E1,1.4731205E1,2.964726E1,7.308032E1,6.0974045E0,1.477105E1,0E0,0E0,0E0,0E0,0E0,0E0,0E0,0E0],"parents":[2147483647,0,0,1,1,2,2,3,3,4,4,5,5,6,6],"right_children":[2,4,6,8,10,12,14,-1,-1,-1,-1,-1,-1,-1,-1],"split_conditions":[1.8983334E1,1E-45,1E-45,1.0360324E4,2.63E2,3.0316668E1,3.23E2,6.696455E-3,1.6902258E-1,2.7482736E-1,-5.3223926E-3,-4.5287576E-2,-8.231288E-2,1.163433E-1,-6.752359E-2],"split_indices":[1,14,14,9,16,1,16,0,0,0,0,0,0,0,0],"split_type":[0,1,1,0,0,0,0,0,0,0,0,0,0,0,0],"sum_hessian":[1.1346919E3,8.901359E2,2.4455592E2,8.514334E2,3.8702484E1,2.2845232E2,1.6103607E1,8.4102655E2,1.0406879E1,1.3858077E1,2.4844408E1,1.6424538E2,6.420695E1,9.461221E0,6.6423874E0],"tree_param":{"num_deleted":"0","num_feature":"17","num_nodes":"15","size_leaf_vector":"1"}},{"base_weights":[-5.541908E-3,1.7829457E-1,-3.1294623E-1,1.0145444E0,1.4044012E-1,9.8008715E-2,-4.7274938E-1,-9.425262E-3,1.5122585E-1,5.1191933E-2,7.1268748E-3,-6.1716594E-2,3.2185223E-2,-3.735779E-2,-8.327361E-2],"categories":[0],"categories_nodes":[2],"categories_segments":[0],"categories_sizes":[1],"default_left":[0,0,1,0,0,0,0,0,0,0,0,0,0,0,0],"id":9,"left_children":[1,3,5,7,9,11,13,-1,-1,-1,-1,-1,-1,-1,-1],"loss_changes":[6.4115685E1,2.233268E1,2.7928894E1,1.7022057E1,1.7446884E1,1.9361422E1,1.0608658E1,0E0,0E0,0E0,0E0,0E0,0E0,0E0,0E0],"parents":[2147483647,0,0,1,1,2,2,3,3,4,4,5,5,6,6],"right_children":[2,4,6,8,10,12,14,-1,-1,-1,-1,-1,-1,-1,-1],"split_conditions":[3.0443577E1,6.313038E0,1E-45,2.6816766E0,1.68E2,2E0,2.89E1,-9.425262E-3,1.5122585E-1,5.1191933E-2,7.1268748E-3,-6.1716594E-2,3.2185223E-2,-3.735779E-2,-8.327361E-2],"split_indices":[2,2,14,9,16,13,1,0,0,0,0,0,0,0,0],"split_type":[0,0,1,0,0,0,0,0,0,0,0,0,0,0,0],"sum_hessian":[1.1325599E3,7.0898615E2,4.2357376E2,2.958639E1,6.793997E2,1.1870216E2,3.048716E2,9.417316E0,2.0169075E1,1.0564442E2,5.737553E2,2.7877403E1,9.082476E1,2.4062141E2,6.42502E1],"tree_param":{"num_deleted":"0","num_feature":"17","num_nodes":"15","size_leaf_vector":"1"}},{"base_weights":[-5.5742753E-3,1.3789901E-1,-3.5544786E-1,5.3290564E-1,6.350752E-2,4.0744855E-3,-4.888702E-1,7.463093E-2,-3.0271256E-2,3.695667E-2,-4.0904535E-3,4.6497107E-2,-3.6275085E-2,-3.870637E-2,-8.021147E-2],"categories":[0,0],"categories_nodes":[2,4],"categories_segments":[0,1],"categories_sizes":[1,1],"default_left":[0,1,1,1,1,0,0,0,0,0,0,0,0,0,0],"id":10,"left_children":[1,3,5,7,9,11,13,-1,-1,-1,-1,-1,-1,-1,-1],"loss_changes":[5.6850555E1,2.356844E1,1.5800629E1,2.2901382E1,2.1650986E1,1.540791E1,7.3502083E0,0E0,0E0,0E0,0E0,0E0,0E0,0E0,0E0],"parents":[2147483647,0,0,1,1,2,2,3,3,4,4,5,5,6,6],"right_children":[2,4,6,8,10,12,14,-1,-1,-1,-1,-1,-1,-1,-1],"split_conditions":[1.5016666E1,3E0,1E-45,1.1666947E2,1E-45,3.42E2,2.9466667E1,7.463093E-2,-3.0271256E-2,3.695667E-2,-4.0904535E-3,4.6497107E-2,-3.6275085E-2,-3.870637E-2,-8.021147E-2],"split_indices":[1,11,14,8,14,16,1,0,0,0,0,0,0,0,0],"split_type":[0,0,1,0,1,0,0,0,0,0,0,0,0,0,0],"sum_hessian":[1.1305608E3,8.02205E2,3.2835577E2,1.2615882E2,6.760462E2,8.913646E1,2.3921931E2,1.0057933E2,2.557949E1,1.713207E2,5.0472552E2,3.938444E1,4.9752018E1,1.8222926E2,5.6990055E1],"tree_param":{"num_deleted":"0","num_feature":"17","num_nodes":"15","size_leaf_vector":"1"}},{"base_weights":[-5.623583E-3,1.25602E-1,-3.3762863E-1,2.808806E-1,-7.5998E-2,-3.987439E-1,4.9997947E-1,1.1298374E-1,2.4653805E-2,2.8620252E-2,-1.9983457E-2,-4.7847897E-2,-4.2365636E-3,-9.459595E-2,1.4603432E-1],"categories":[2,0],"categories_nodes":[2,4],"categories_segments":[0,1],"categories_sizes":[1,1],"default_left":[0,0,1,0,1,0,0,0,0,0,0,0,0,0,0],"id":11,"left_children":[1,3,5,7,9,11,13,-1,-1,-1,-1,-1,-1,-1,-1],"loss_changes":[4.9230946E1,2.5375042E1,1.6585648E1,1.306678E1,1.5898723E1,8.472996E0,3.2224827E1,0E0,0E0,0E0,0E0,0E0,0E0,0E0,0E0],"parents":[2147483647,0,0,1,1,2,2,3,3,4,4,5,5,6,6],"right_children":[2,4,6,8,10,12,14,-1,-1,-1,-1,-1,-1,-1,-1],"split_conditions":[3.602468E1,7.9333334E0,1E-45,5.507974E0,1E-45,1.2889504E1,3E0,1.1298374E-1,2.4653805E-2,2.8620252E-2,-1.9983457E-2,-4.7847897E-2,-4.2365636E-3,-9.459595E-2,1.4603432E-1],"split_indices":[2,1,14,2,14,9,13,0,0,0,0,0,0,0,0],"split_type":[0,0,1,0,1,0,0,0,0,0,0,0,0,0,0],"sum_hessian":[1.1280176E3,8.0891437E2,3.1910318E2,4.5673196E2,3.5218243E2,2.9789175E2,2.1211433E1,1.6517443E1,4.402145E2,8.939791E1,2.6278452E2,2.4314789E2,5.474386E1,8.471542E0,1.2739892E1],"tree_param":{"num_deleted":"0","num_feature":"17","num_nodes":"15","size_leaf_vector":"1"}},{"base_weights":[-5.4702996E-3,9.06168E-2,-4.131226E-1,5.8784164E-2,7.038743E-1,4.251044E-2,-5.193375E-1,1.0837535E-2,-4.181754E-2,1.9034192E-1,-5.9976033E-3,-1.5579119E-2,1.2070032E-1,-5.439032E-2,1.5837528E-1],"categories":[2],"categories_nodes":[1],"categories_segments":[0],"categories_sizes":[1],"default_left":[0,1,0,0,0,0,0,0,0,0,0,0,0,0,0],"id":12,"left_children":[1,3,5,7,9,11,13,-1,-1,-1,-1,-1,-1,-1,-1],"loss_changes":[4.4161255E1,1.777043E1,1.0429455E1,2.058753E1,4.1284996E1,9.789434E0,9.875294E0,0E0,0E0,0E0,0E0,0E0,0E0,0E0,0E0],"parents":[2147483647,0,0,1,1,2,2,3,3,4,4,5,5,6,6],"right_children":[2,4,6,8,10,12,14,-1,-1,-1,-1,-1,-1,-1,-1],"split_conditions":[1.8983334E1,1E-45,1.72E2,4.5539143E1,2.41E2,6.884064E1,1E0,1.0837535E-2,-4.181754E-2,1.9034192E-1,-5.9976033E-3,-1.5579119E-2,1.2070032E-1,-5.439032E-2,1.5837528E-1],"split_indices":[1,14,16,2,16,2,4,0,0,0,0,0,0,0,0],"split_type":[0,1,0,0,0,0,0,0,0,0,0,0,0,0,0],"sum_hessian":[1.1254661E3,9.114154E2,2.1405063E2,8.674825E2,4.3932953E1,4.0578728E1,1.7347191E2,7.8648193E2,8.100056E1,1.6511515E1,2.7421436E1,3.5414246E1,5.164481E0,1.7220184E2,1.2700665E0],"tree_param":{"num_deleted":"0","num_feature":"17","num_nodes":"15","size_leaf_vector":"1"}},{"base_weights":[-5.096101E-3,8.0926195E-2,-3.8676238E-1,3.9320445E-1,2.3832222E-2,4.020805E-2,-4.9095285E-1,1.2689762E-2,9.6772514E-2,2.637667E-2,-6.339078E-3,-3.9901044E-2,5.225063E-2,-5.157394E-2,1.3849276E-1],"categories":[0],"categories_nodes":[4],"categories_segments":[0],"categories_sizes":[1],"default_left":[0,1,0,0,1,0,0,0,0,0,0,0,0,0,0],"id":13,"left_children":[1,3,5,7,9,11,13,-1,-1,-1,-1,-1,-1,-1,-1],"loss_changes":[3.692972E1,1.6357414E1,9.22331E0,2.1576605E1,1.628074E1,9.000926E0,8.450336E0,0E0,0E0,0E0,0E0,0E0,0E0,0E0,0E0],"parents":[2147483647,0,0,1,1,2,2,3,3,4,4,5,5,6,6],"right_children":[2,4,6,8,10,12,14,-1,-1,-1,-1,-1,-1,-1,-1],"split_conditions":[1.8983334E1,3E0,1.72E2,8.1666664E1,1E-45,3E0,1E0,1.2689762E-2,9.6772514E-2,2.637667E-2,-6.339078E-3,-3.9901044E-2,5.225063E-2,-5.157394E-2,1.3849276E-1],"split_indices":[1,11,16,0,14,13,4,0,0,0,0,0,0,0,0],"split_type":[0,0,0,0,1,0,0,0,0,0,0,0,0,0,0],"sum_hessian":[1.1228619E3,9.169762E2,2.0588577E2,1.4082733E2,7.7614886E2,4.0506218E1,1.6537956E2,9.705871E1,4.3768623E1,2.0638832E2,5.697605E2,2.1290297E1,1.9215921E1,1.6393846E2,1.4410957E0],"tree_param":{"num_deleted":"0","num_feature":"17","num_nodes":"15","size_leaf_vector":"1"}},{"base_weights":[-4.785115E-3,9.590626E-2,-2.8358516E-1,2.2107899E-1,-7.346234E-2,2.1395452E-2,-4.2362288E-1,2.6642133E-2,-2.7598664E-2,2.218583E-2,-1.805117E-2,-2.9679073E-2,3.872547E-2,-3.1886738E-2,-7.4231885E-2],"categories":[0,0],"categories_nodes":[2,4],"categories_segments":[0,1],"categories_sizes":[1,1],"default_left":[0,0,1,0,1,0,0,0,0,0,0,0,0,0,0],"id":14,"left_children":[1,3,5,7,9,11,13,-1,-1,-1,-1,-1,-1,-1,-1],"loss_changes":[3.1505169E1,1.7496544E1,1.2726452E1,1.0765036E1,1.114143E1,1.11336975E1,6.5777435E0,0E0,0E0,0E0,0E0,0E0,0E0,0E0,0E0],"parents":[2147483647,0,0,1,1,2,2,3,3,4,4,5,5,6,6],"right_children":[2,4,6,8,10,12,14,-1,-1,-1,-1,-1,-1,-1,-1],"split_conditions":[3.602468E1,7.9333334E0,1E-45,1E0,1E-45,3E0,6.0066666E1,2.6642133E-2,-2.7598664E-2,2.218583E-2,-1.805117E-2,-2.9679073E-2,3.872547E-2,-3.1886738E-2,-7.4231885E-2],"split_indices":[2,1,14,15,14,13,2,0,0,0,0,0,0,0,0],"split_type":[0,0,1,0,1,0,0,0,0,0,0,0,0,0,0],"sum_hessian":[1.1202996E3,8.235297E2,2.9676984E2,4.733745E2,3.501552E2,9.365369E1,2.0311613E2,4.3422824E2,3.914629E1,9.287244E1,2.5728278E2,5.0191307E1,4.3462376E1,1.5437392E2,4.8742226E1],"tree_param":{"num_deleted":"0","num_feature":"17","num_nodes":"15","size_leaf_vector":"1"}},{"base_weights":[-4.7640908E-3,6.707344E-2,-3.4556356E-1,1.9933817E-1,-6.1376825E-2,4.7725845E-2,-4.4730762E-1,6.2740566E-3,4.41134E-2,-8.322067E-3,1.8555951E-1,-1.3395886E-2,1.0372052E-1,-4.7271494E-2,1.2319372E-1],"categories":[1,2,3],"categories_nodes":[1],"categories_segments":[0],"categories_sizes":[3],"default_left":[0,1,0,0,1,0,0,0,0,0,0,0,0,0,0],"id":15,"left_children":[1,3,5,7,9,11,13,-1,-1,-1,-1,-1,-1,-1,-1],"loss_changes":[2.7425266E1,1.5731653E1,7.825037E0,1.5036398E1,1.9841766E1,7.5071197E0,7.1968937E0,0E0,0E0,0E0,0E0,0E0,0E0,0E0,0E0],"parents":[2147483647,0,0,1,1,2,2,3,3,4,4,5,5,6,6],"right_children":[2,4,6,8,10,12,14,-1,-1,-1,-1,-1,-1,-1,-1],"split_conditions":[1.8983334E1,1E-45,1.72E2,3E0,1.6427653E3,6.884064E1,1E0,6.2740566E-3,4.41134E-2,-8.322067E-3,1.8555951E-1,-1.3395886E-2,1.0372052E-1,-4.7271494E-2,1.2319372E-1],"split_indices":[1,5,16,13,9,2,4,0,0,0,0,0,0,0,0],"split_type":[0,1,0,0,0,0,0,0,0,0,0,0,0,0,0],"sum_hessian":[1.1182661E3,9.2424634E2,1.940198E2,4.5509003E2,4.6915628E2,3.998594E1,1.5403386E2,2.9161026E2,1.6347977E2,4.648163E2,4.3399825E0,3.451334E1,5.472601E0,1.5244582E2,1.5880412E0],"tree_param":{"num_deleted":"0","num_feature":"17","num_nodes":"15","size_leaf_vector":"1"}},{"base_weights":[-4.2775283E-3,8.1109285E-2,-2.5255468E-1,3.012016E-1,2.4362183E-3,2.5967821E-2,-3.8647076E-1,1.4394328E-2,5.8191378E-2,1.3799391E-2,-1.4173578E-2,-5.7881583E-2,1.8358883E-2,-2.8467422E-2,-7.107156E-2],"categories":[0,1,3],"categories_nodes":[2,4],"categories_segments":[0,1],"categories_sizes":[1,2],"default_left":[0,0,1,0,1,0,0,0,0,0,0,0,0,0,0],"id":16,"left_children":[1,3,5,7,9,11,13,-1,-1,-1,-1,-1,-1,-1,-1],"loss_changes":[2.3710306E1,1.4410057E1,1.0685282E1,9.590357E0,1.202146E1,9.054338E0,6.179331E0,0E0,0E0,0E0,0E0,0E0,0E0,0E0,0E0],"parents":[2147483647,0,0,1,1,2,2,3,3,4,4,5,5,6,6],"right_children":[2,4,6,8,10,12,14,-1,-1,-1,-1,-1,-1,-1,-1],"split_conditions":[3.602468E1,2.0862808E0,1E-45,2.5E1,1E-45,2E0,6.0066666E1,1.4394328E-2,5.8191378E-2,1.3799391E-2,-1.4173578E-2,-5.7881583E-2,1.8358883E-2,-2.8467422E-2,-7.107156E-2],"split_indices":[2,3,14,11,5,13,2,0,0,0,0,0,0,0,0],"split_type":[0,0,1,0,1,0,0,0,0,0,0,0,0,0,0],"sum_hessian":[1.1164658E3,8.312558E2,2.8521E2,2.1814749E2,6.1310834E2,9.286754E1,1.9234244E2,1.4078873E2,7.735876E1,3.1601663E2,2.970917E2,1.8647158E1,7.422038E1,1.478142E2,4.452825E1],"tree_param":{"num_deleted":"0","num_feature":"17","num_nodes":"15","size_leaf_vector":"1"}},{"base_weights":[-4.225454E-3,5.5867553E-2,-3.069846E-1,-5.993857E-3,2.9873496E-1,5.8953557E-2,-4.0632373E-1,3.2063697E-2,-6.4322585E-3,8.462366E-2,-7.2436417E-3,-6.42163E-2,3.0936778E-2,-2.349348E-2,-6.9038935E-2],"categories":[],"categories_nodes":[],"categories_segments":[],"categories_sizes":[],"default_left":[0,0,0,0,1,1,0,0,0,0,0,0,0,0,0],"id":17,"left_children":[1,3,5,7,9,11,13,-1,-1,-1,-1,-1,-1,-1,-1],"loss_changes":[2.0321426E1,1.4004668E1,6.7483025E0,1.4191492E1,3.851513E1,7.285925E0,6.9270077E0,0E0,0E0,0E0,0E0,0E0,0E0,0E0,0E0],"parents":[2147483647,0,0,1,1,2,2,3,3,4,4,5,5,6,6],"right_children":[2,4,6,8,10,12,14,-1,-1,-1,-1,-1,-1,-1,-1],"split_conditions":[1.8983334E1,1.4508336E1,1.72E2,1.6E2,9.0001785E1,4.5859703E1,2.805E1,3.2063697E-2,-6.4322585E-3,8.462366E-2,-7.2436417E-3,-6.42163E-2,3.0936778E-2,-2.349348E-2,-6.9038935E-2],"split_indices":[1,9,16,16,8,8,1,0,0,0,0,0,0,0,0],"split_type":[0,0,0,0,0,0,0,0,0,0,0,0,0,0,0],"sum_hessian":[1.1150055E3,9.310266E2,1.839789E2,7.428011E2,1.8822554E2,3.9367252E1,1.4461165E2,1.11867165E2,6.309339E2,7.553163E1,1.126939E2,9.94857E0,2.941868E1,9.133337E1,5.327828E1],"tree_param":{"num_deleted":"0","num_feature":"17","num_nodes":"15","size_leaf_vector":"1"}},{"base_weights":[-4.190094E-3,1.15742214E-1,-1.3972858E-1,2.560457E-1,-3.3698015E-2,1.3401295E-1,-2.519256E-1,1.1676947E-2,4.9880754E-2,5.060477E-2,-1.3461702E-2,3.548735E-2,-1.8706324E-2,-2.700209E-2,1.1795501E-1],"categories":[1,2,3,0],"categories_nodes":[1,2],"categories_segments":[0,3],"categories_sizes":[3,1],"default_left":[0,1,1,0,0,0,0,0,0,0,0,0,0,0,0],"id":18,"left_children":[1,3,5,7,9,11,13,-1,-1,-1,-1,-1,-1,-1,-1],"loss_changes":[1.8127392E1,1.241395E1,1.6112125E1,1.0263382E1,1.5722147E1,1.0904853E1,9.945667E0,0E0,0E0,0E0,0E0,0E0,0E0,0E0,0E0],"parents":[2147483647,0,0,1,1,2,2,3,3,4,4,5,5,6,6],"right_children":[2,4,6,8,10,12,14,-1,-1,-1,-1,-1,-1,-1,-1],"split_conditions":[8.783334E0,1E-45,1E-45,2.5E1,7.7719045E0,1.0810349E2,1.0360324E4,1.1676947E-2,4.9880754E-2,5.060477E-2,-1.3461702E-2,3.548735E-2,-1.8706324E-2,-2.700209E-2,1.1795501E-1],"split_indices":[1,5,14,11,2,8,9,0,0,0,0,0,0,0,0],"split_type":[0,1,1,0,0,0,0,0,0,0,0,0,0,0,0],"sum_hessian":[1.1131635E3,5.906596E2,5.225038E2,3.0427475E2,2.8638486E2,1.5184166E2,3.7066214E2,1.9428908E2,1.0998568E2,4.447965E1,2.4190521E2,8.989784E1,6.1943817E1,3.6683633E2,3.8258178E0],"tree_param":{"num_deleted":"0","num_feature":"17","num_nodes":"15","size_leaf_vector":"1"}},{"base_weights":[-3.910967E-3,3.349771E-2,-4.0766788E-1,3.3475137E-1,-2.3313697E-2,8.724185E-1,-4.6692938E-1,1.9763615E-3,8.330239E-2,5.16201E-3,-3.594995E-2,2.0605183E-1,-1.9698577E-2,1.4889008E-2,-5.8571544E-2],"categories":[],"categories_nodes":[],"categories_segments":[],"categories_sizes":[],"default_left":[0,0,0,0,0,0,0,0,0,0,0,0,0,0,0],"id":19,"left_children":[1,3,5,7,9,11,13,-1,-1,-1,-1,-1,-1,-1,-1],"loss_changes":[1.6815115E1,1.7447336E1,7.568571E0,2.5368479E1,2.163916E1,6.155838E0,6.734787E0,0E0,0E0,0E0,0E0,0E0,0E0,0E0,0E0],"parents":[2147483647,0,0,1,1,2,2,3,3,4,4,5,5,6,6],"right_children":[2,4,6,8,10,12,14,-1,-1,-1,-1,-1,-1,-1,-1],"split_conditions":[1E0,1.6E2,8.5E-1,3E0,4.165883E1,2.0397558E0,2.3355518E1,1.9763615E-3,8.330239E-2,5.16201E-3,-3.594995E-2,2.0605183E-1,-1.9698577E-2,1.4889008E-2,-5.8571544E-2],"split_indices":[15,16,1,13,2,9,8,0,0,0,0,0,0,0,0],"split_type":[0,0,0,0,0,0,0,0,0,0,0,0,0,0,0],"sum_hessian":[1.1113838E3,1.01798315E3,9.340061E1,1.6073927E2,8.572439E2,3.525524E0,8.987509E1,9.911956E1,6.161971E1,7.0168823E2,1.5555565E2,1.2310481E0,2.2944756E0,1.4491861E1,7.538323E1],"tree_param":{"num_deleted":"0","num_feature":"17","num_nodes":"15","size_leaf_vector":"1"}},{"base_weights":[-3.68027E-3,4.5911673E-2,-2.6827857E-1,7.859379E-2,-3.2950985E-1,-3.1995833E-1,4.1080782E-1,2.2807857E-3,3.1777892E-2,7.924341E-2,-3.985536E-2,-6.3571967E-3,-5.3069454E-2,1.2361882E-1,-2.124178E-2],"categories":[0,2,4],"categories_nodes":[5],"categories_segments":[0],"categories_sizes":[3],"default_left":[0,0,1,0,0,0,0,0,0,0,0,0,0,0,0],"id":20,"left_children":[1,3,5,7,9,11,13,-1,-1,-1,-1,-1,-1,-1,-1],"loss_changes":[1.4589398E1,1.15151615E1,6.290268E0,1.1497505E1,6.1397038E0,8.8078E0,6.8718286E0,0E0,0E0,0E0,0E0,0E0,0E0,0E0,0E0],"parents":[2147483647,0,0,1,1,2,2,3,3,4,4,5,5,6,6],"right_children":[2,4,6,8,10,12,14,-1,-1,-1,-1,-1,-1,-1,-1],"split_conditions":[1.8983334E1,1E0,1.4523395E2,1.635737E1,8.5E-1,1E-45,1E0,2.2807857E-3,3.1777892E-2,7.924341E-2,-3.985536E-2,-6.3571967E-3,-5.3069454E-2,1.2361882E-1,-2.124178E-2],"split_indices":[1,15,8,9,1,6,10,0,0,0,0,0,0,0,0],"split_type":[0,0,0,0,0,1,0,0,0,0,0,0,0,0,0],"sum_hessian":[1.1098933E3,9.3540326E2,1.7449007E2,8.6122076E2,7.418245E1,1.6264159E2,1.1848492E1,6.99232E2,1.6198882E2,3.6931076E0,7.048934E1,7.3960846E1,8.868074E1,4.674371E0,7.174121E0],"tree_param":{"num_deleted":"0","num_feature":"17","num_nodes":"15","size_leaf_vector":"1"}},{"base_weights":[-3.441917E-3,1.431647E-1,-8.4298864E-2,6.6415176E-2,4.699386E-1,-4.8217595E-2,-4.8435354E-1,5.2915722E-2,6.184749E-4,-1.2271286E-2,6.584992E-2,1.4785825E-2,-1.2636009E-2,-7.043182E-2,-2.3530625E-2],"categories":[0],"categories_nodes":[5],"categories_segments":[0],"categories_sizes":[1],"default_left":[0,0,0,0,0,1,1,0,0,0,0,0,0,0,0],"id":21,"left_children":[1,3,5,7,9,11,13,-1,-1,-1,-1,-1,-1,-1,-1],"loss_changes":[1.3167334E1,9.871749E0,1.0310291E1,8.941194E0,8.455065E0,1.0097165E1,3.0727072E0,0E0,0E0,0E0,0E0,0E0,0E0,0E0,0E0],"parents":[2147483647,0,0,1,1,2,2,3,3,4,4,5,5,6,6],"right_children":[2,4,6,8,10,12,14,-1,-1,-1,-1,-1,-1,-1,-1],"split_conditions":[5.6666665E0,8.1666664E1,1E0,1.2E2,2.0968595E0,1E-45,1E0,5.2915722E-2,6.184749E-4,-1.2271286E-2,6.584992E-2,1.4785825E-2,-1.2636009E-2,-7.043182E-2,-2.3530625E-2],"split_indices":[1,0,15,16,9,14,10,0,0,0,0,0,0,0,0],"split_type":[0,0,0,0,0,1,0,0,0,0,0,0,0,0,0],"sum_hessian":[1.1087592E3,3.93859E2,7.149001E2,3.1992206E2,7.3936966E1,6.5678467E2,5.811544E1,3.5948574E1,2.8397348E2,1.7930397E1,5.600657E1,1.869061E2,4.6987857E2,2.988884E1,2.82266E1],"tree_param":{"num_deleted":"0","num_feature":"17","num_nodes":"15","size_leaf_vector":"1"}},{"base_weights":[-3.2918258E-3,2.2979386E-2,-4.3950337E-1,-1.3367244E-3,4.290928E-1,1.5205887E-1,-6.500547E-1,-6.506371E-2,2.0279163E-3,1.4807369E-1,4.3875445E-3,-7.8232465E-3,1.670043E-1,6.635734E-2,-7.411428E-2],"categories":[2,0,1,3,4,5],"categories_nodes":[1,6],"categories_segments":[0,1],"categories_sizes":[1,5],"default_left":[0,1,0,0,0,0,1,0,0,0,0,0,0,0,0],"id":22,"left_children":[1,3,5,7,9,11,13,-1,-1,-1,-1,-1,-1,-1,-1],"loss_changes":[1.2710171E1,1.0332149E1,7.946043E0,1.3881629E1,2.3880018E1,6.195226E0,6.0742264E0,0E0,0E0,0E0,0E0,0E0,0E0,0E0,0E0],"parents":[2147483647,0,0,1,1,2,2,3,3,4,4,5,5,6,6],"right_children":[2,4,6,8,10,12,14,-1,-1,-1,-1,-1,-1,-1,-1],"split_conditions":[2.805E1,1E-45,1.85E2,3.2333332E1,1.29E2,8.971871E1,1E-45,-6.506371E-2,2.0279163E-3,1.4807369E-1,4.3875445E-3,-7.8232465E-3,1.670043E-1,6.635734E-2,-7.411428E-2],"split_indices":[1,14,16,0,16,2,5,0,0,0,0,0,0,0,0],"split_type":[0,1,0,0,0,0,1,0,0,0,0,0,0,0,0],"sum_hessian":[1.1072273E3,1.0452251E3,6.200225E1,9.871179E2,5.810715E1,1.6348244E1,4.5654007E1,3.0865864E1,9.562521E2,1.4815878E1,4.329127E1,1.5018301E1,1.3299433E0,2.5528636E0,4.3101143E1],"tree_param":{"num_deleted":"0","num_feature":"17","num_nodes":"15","size_leaf_vector":"1"}},{"base_weights":[-2.9752941E-3,1.7561759E-1,-5.8120526E-2,1.5204413E0,1.496083E-1,8.863291E-1,-7.062037E-2,2.2404054E-1,-2.4095735E-2,4.133494E-2,1.0912821E-3,-6.728125E-2,1.1109852E-1,-1.2930383E-2,1.3156307E-2],"categories":[],"categories_nodes":[],"categories_segments":[],"categories_sizes":[],"default_left":[0,1,0,0,0,0,0,0,0,0,0,0,0,0,0],"id":23,"left_children":[1,3,5,7,9,11,13,-1,-1,-1,-1,-1,-1,-1,-1],"loss_changes":[1.0905983E1,8.910967E0,1.0050856E1,6.6876774E0,9.411657E0,4.6443586E0,9.93535E0,0E0,0E0,0E0,0E0,0E0,0E0,0E0,0E0],"parents":[2147483647,0,0,1,1,2,2,3,3,4,4,5,5,6,6],"right_children":[2,4,6,8,10,12,14,-1,-1,-1,-1,-1,-1,-1,-1],"split_conditions":[2.0862808E0,1.6554306E-1,5.507974E0,3.6833334E0,1.0248902E1,7.0020623E0,1.2288452E1,2.2404054E-1,-2.4095735E-2,4.133494E-2,1.0912821E-3,-6.728125E-2,1.1109852E-1,-1.2930383E-2,1.3156307E-2],"split_indices":[3,9,2,1,2,3,9,0,0,0,0,0,0,0,0],"split_type":[0,0,0,0,0,0,0,0,0,0,0,0,0,0,0],"sum_hessian":[1.1053334E3,2.6026306E2,8.450704E2,3.8478992E0,2.5641516E2,1.012532E1,8.3494507E2,2.5383945E0,1.3095047E0,8.768827E1,1.6872687E2,1.0239719E0,9.101349E0,6.473989E2,1.8754614E2],"tree_param":{"num_deleted":"0","num_feature":"17","num_nodes":"15","size_leaf_vector":"1"}},{"base_weights":[-2.5868686E-3,9.127011E-2,-1.0665007E-1,7.6241925E-2,1.1827452E0,1.2077063E0,-1.23255536E-1,2.6986439E-2,-9.6774654E-4,2.0485249E-1,-2.9846763E-2,-2.2717945E-2,1.5355074E-1,-1.3902043E-2,1.1741288E-1],"categories":[1,3,0],"categories_nodes":[0,3],"categories_segments":[0,2],"categories_sizes":[2,1],"default_left":[1,0,0,1,1,1,1,0,0,0,0,0,0,0,0],"id":24,"left_children":[1,3,5,7,9,11,13,-1,-1,-1,-1,-1,-1,-1,-1],"loss_changes":[1.0801394E1,9.447764E0,1.1594684E1,9.562458E0,1.0650806E1,3.469881E0,1.0774084E1,0E0,0E0,0E0,0E0,0E0,0E0,0E0,0E0],"parents":[2147483647,0,0,1,1,2,2,3,3,4,4,5,5,6,6],"right_children":[2,4,6,8,10,12,14,-1,-1,-1,-1,-1,-1,-1,-1],"split_conditions":[1E-45,1.3E2,4.8483963E0,1E-45,7.100509E1,2.216988E0,1.6427653E3,2.6986439E-2,-9.6774654E-4,2.0485249E-1,-2.9846763E-2,-2.2717945E-2,1.5355074E-1,-1.3902043E-2,1.1741288E-1],"split_indices":[5,11,2,14,8,9,9,0,0,0,0,0,0,0,0],"split_type":[1,0,0,1,0,0,0,0,0,0,0,0,0,0,0],"sum_hessian":[1.1039039E3,5.804793E2,5.2342456E2,5.736507E2,6.828568E0,5.6354795E0,5.177891E2,1.7565805E2,3.9799268E2,4.0678654E0,2.7607024E0,1.105096E0,4.5303836E0,5.1245496E2,5.3341417E0],"tree_param":{"num_deleted":"0","num_feature":"17","num_nodes":"15","size_leaf_vector":"1"}},{"base_weights":[-2.1165987E-3,2.6287338E-2,-3.365799E-1,2.6207426E-1,-2.0107677E-2,6.714611E-1,-3.9310962E-1,-4.669154E-4,6.599199E-2,3.8393333E-3,-3.0423943E-2,1.6760252E-1,-2.5411522E-2,2.0343961E-2,-5.16568E-2],"categories":[],"categories_nodes":[],"categories_segments":[],"categories_sizes":[],"default_left":[0,0,0,0,0,0,0,0,0,0,0,0,0,0,0],"id":25,"left_children":[1,3,5,7,9,11,13,-1,-1,-1,-1,-1,-1,-1,-1],"loss_changes":[1.0493792E1,1.1143769E1,5.1910324E0,1.7776497E1,1.4169067E1,5.038249E0,6.181366E0,0E0,0E0,0E0,0E0,0E0,0E0,0E0,0E0],"parents":[2147483647,0,0,1,1,2,2,3,3,4,4,5,5,6,6],"right_children":[2,4,6,8,10,12,14,-1,-1,-1,-1,-1,-1,-1,-1],"split_conditions":[1E0,1.6E2,8.5E-1,3E0,4.165883E1,2.0397558E0,2.3355518E1,-4.669154E-4,6.599199E-2,3.8393333E-3,-3.0423943E-2,1.6760252E-1,-2.5411522E-2,2.0343961E-2,-5.16568E-2],"split_indices":[15,16,1,13,2,9,8,0,0,0,0,0,0,0,0],"split_type":[0,0,0,0,0,0,0,0,0,0,0,0,0,0,0],"sum_hessian":[1.1026697E3,1.017206E3,8.546373E1,1.6647986E2,8.5072614E2,3.9605742E0,8.150316E1,1.0025212E2,6.622774E1,7.061906E2,1.445355E2,1.5104417E0,2.4501326E0,1.3864116E1,6.763904E1],"tree_param":{"num_deleted":"0","num_feature":"17","num_nodes":"15","size_leaf_vector":"1"}},{"base_weights":[-1.9972806E-3,2.0488506E-2,-4.0070847E-1,9.690806E-2,-8.260263E-2,1.3365105E-1,-6.09485E-1,9.0109726E-4,6.1714906E-2,6.558567E-3,-2.2449808E-2,-8.141089E-3,1.5134683E-1,6.12196E-2,-7.063689E-2],"categories":[0,1,3,4,5],"categories_nodes":[6],"categories_segments":[0],"categories_sizes":[5],"default_left":[0,1,0,0,0,0,1,0,0,0,0,0,0,0,0],"id":26,"left_children":[1,3,5,7,9,11,13,-1,-1,-1,-1,-1,-1,-1,-1],"loss_changes":[9.890281E0,8.235664E0,6.651655E0,2.7441357E1,9.374685E0,5.2763643E0,5.46603E0,0E0,0E0,0E0,0E0,0E0,0E0,0E0,0E0],"parents":[2147483647,0,0,1,1,2,2,3,3,4,4,5,5,6,6],"right_children":[2,4,6,8,10,12,14,-1,-1,-1,-1,-1,-1,-1,-1],"split_conditions":[2.805E1,9.2937E1,1.85E2,1.5749688E1,1.9393585E1,8.971871E1,1E-45,9.0109726E-4,6.1714906E-2,6.558567E-3,-2.2449808E-2,-8.141089E-3,1.5134683E-1,6.12196E-2,-7.063689E-2],"split_indices":[1,8,16,9,2,2,5,0,0,0,0,0,0,0,0],"split_type":[0,0,0,0,0,0,1,0,0,0,0,0,0,0,0],"sum_hessian":[1.1012534E3,1.0433606E3,5.789293E1,5.992256E2,4.4413492E2,1.6365522E1,4.152741E1,5.1348694E2,8.573865E1,2.1751318E2,2.2662175E2,1.4972817E1,1.3927039E0,2.6604877E0,3.886692E1],"tree_param":{"num_deleted":"0","num_feature":"17","num_nodes":"15","size_leaf_vector":"1"}},{"base_weights":[-1.8639519E-3,2.365041E-2,-3.1146628E-1,2.2959672E-1,-1.7735666E-2,-3.5413283E-1,1.01050474E-1,1.043747E-2,9.704002E-2,1.4978054E-2,-1.0151332E-2,6.0892254E-2,-4.127323E-2],"categories":[2],"categories_nodes":[3],"categories_segments":[0],"categories_sizes":[1],"default_left":[0,0,0,1,0,0,0,0,0,0,0,0,0],"id":27,"left_children":[1,3,5,7,9,11,-1,-1,-1,-1,-1,-1,-1],"loss_changes":[8.700035E0,8.677237E0,5.087492E0,1.5700605E1,1.1919477E1,4.8773594E0,0E0,0E0,0E0,0E0,0E0,0E0,0E0],"parents":[2147483647,0,0,1,1,2,2,3,3,4,4,5,5],"right_children":[2,4,6,8,10,12,-1,-1,-1,-1,-1,-1,-1],"split_conditions":[1E0,1.6E2,4E0,1E-45,2.9771366E0,8.5E-1,1.01050474E-1,1.043747E-2,9.704002E-2,1.4978054E-2,-1.0151332E-2,6.0892254E-2,-4.127323E-2],"split_indices":[15,16,13,14,3,1,0,0,0,0,0,0,0],"split_type":[0,0,0,1,0,0,0,0,0,0,0,0,0],"sum_hessian":[1.0994347E3,1.01658167E3,8.2853E1,1.6934344E2,8.472382E2,8.0971756E1,1.8812418E0,1.4583334E2,2.3510103E1,2.8219403E2,5.650442E2,4.10567E0,7.686608E1],"tree_param":{"num_deleted":"0","num_feature":"17","num_nodes":"13","size_leaf_vector":"1"}},{"base_weights":[-1.6112147E-3,8.672757E-2,-8.8679865E-2,-1.4691708E-2,2.5808316E-1,-1.0312371E-1,1.0500903E0,2.895375E-2,-7.101904E-3,5.3484466E-2,9.810961E-3,1.0337424E-1,-1.1746942E-2,1.509697E-1,5.4796645E-3],"categories":[1,2,3,0],"categories_nodes":[0,4],"categories_segments":[0,3],"categories_sizes":[3,1],"default_left":[1,0,1,1,1,0,0,0,0,0,0,0,0,0,0],"id":28,"left_children":[1,3,5,7,9,11,13,-1,-1,-1,-1,-1,-1,-1,-1],"loss_changes":[8.457518E0,9.489496E0,9.216746E0,5.9125466E0,8.934968E0,9.054613E0,3.1309342E0,0E0,0E0,0E0,0E0,0E0,0E0,0E0,0E0],"parents":[2147483647,0,0,1,1,2,2,3,3,4,4,5,5,6,6],"right_children":[2,4,6,8,10,12,14,-1,-1,-1,-1,-1,-1,-1,-1],"split_conditions":[1E-45,3E0,1.6427653E3,3E0,1E-45,4.8483963E0,8.64E2,2.895375E-2,-7.101904E-3,5.3484466E-2,9.810961E-3,1.0337424E-1,-1.1746942E-2,1.509697E-1,5.4796645E-3],"split_indices":[5,13,9,11,14,2,16,0,0,0,0,0,0,0,0],"split_type":[1,0,0,0,1,0,0,0,0,0,0,0,0,0,0],"sum_hessian":[1.0975872E3,5.448217E2,5.527655E2,3.428282E2,2.0199352E2,5.4674023E2,6.025259E0,5.2910946E1,2.8991724E2,7.313073E1,1.288628E2,5.9276495E0,5.4081256E2,3.7682989E0,2.2569604E0],"tree_param":{"num_deleted":"0","num_feature":"17","num_nodes":"15","size_leaf_vector":"1"}},{"base_weights":[-1.2940883E-3,1.8797146E-2,-3.752561E-1,1.0337658E-2,7.733275E-1,1.0134328E-1,-5.756206E-1,-2.1564087E-2,3.995803E-3,1.7319931E-1,-1.3918004E-3,-9.658517E-3,1.3611598E-1,5.6892812E-2,-6.767955E-2],"categories":[0,1,3,4,5],"categories_nodes":[6],"categories_segments":[0],"categories_sizes":[5],"default_left":[0,0,0,0,1,0,1,0,0,0,0,0,0,0,0],"id":29,"left_children":[1,3,5,7,9,11,13,-1,-1,-1,-1,-1,-1,-1,-1],"loss_changes":[8.249882E0,6.6437054E0,5.4044504E0,6.913468E0,8.733839E0,4.475251E0,4.966526E0,0E0,0E0,0E0,0E0,0E0,0E0,0E0,0E0],"parents":[2147483647,0,0,1,1,2,2,3,3,4,4,5,5,6,6],"right_children":[2,4,6,8,10,12,14,-1,-1,-1,-1,-1,-1,-1,-1],"split_conditions":[2.805E1,1.28E2,1.85E2,8.051036E-1,2.9012455E1,8.971871E1,1E-45,-2.1564087E-2,3.995803E-3,1.7319931E-1,-1.3918004E-3,-9.658517E-3,1.3611598E-1,5.6892812E-2,-6.767955E-2],"split_indices":[1,11,16,9,8,2,5,0,0,0,0,0,0,0,0],"split_type":[0,0,0,0,0,0,1,0,0,0,0,0,0,0,0],"sum_hessian":[1.0960897E3,1.0411057E3,5.498402E1,1.0305651E3,1.0540577E1,1.642018E1,3.8563843E1,1.1870045E2,9.118647E2,4.2117124E0,6.328865E0,1.4988661E1,1.4315187E0,2.756581E0,3.580726E1],"tree_param":{"num_deleted":"0","num_feature":"17","num_nodes":"15","size_leaf_vector":"1"}},{"base_weights":[-1.060572E-3,2.2201996E-2,-2.9004982E-1,5.0257944E-2,-2.2627017E-1,-3.4899026E-2,-5.0919175E-1,2.7686207E-2,1.7939035E-4,-4.6869714E-2,4.5062304E-2,-5.8245953E-2,2.3187917E-2,1.2208002E-2,-6.220555E-2],"categories":[1,2,3,1,2,3,4],"categories_nodes":[2,6],"categories_segments":[0,3],"categories_sizes":[3,4],"default_left":[0,0,1,0,1,0,1,0,0,0,0,0,0,0,0],"id":30,"left_children":[1,3,5,7,9,11,13,-1,-1,-1,-1,-1,-1,-1,-1],"loss_changes":[7.3760605E0,7.090546E0,4.5526786E0,1.0029368E1,1.7148037E1,5.8088202E0,3.2036772E0,0E0,0E0,0E0,0E0,0E0,0E0,0E0,0E0],"parents":[2147483647,0,0,1,1,2,2,3,3,4,4,5,5,6,6],"right_children":[2,4,6,8,10,12,14,-1,-1,-1,-1,-1,-1,-1,-1],"split_conditions":[1E0,4.3930084E1,1E-45,1.68E2,1.0975339E1,1.93E2,1E-45,2.7686207E-2,1.7939035E-4,-4.6869714E-2,4.5062304E-2,-5.8245953E-2,2.3187917E-2,1.2208002E-2,-6.220555E-2],"split_indices":[15,3,5,16,9,16,6,0,0,0,0,0,0,0,0],"split_type":[0,0,1,0,0,0,1,0,0,0,0,0,0,0,0],"sum_hessian":[1.0952404E3,1.01450006E3,8.074033E1,9.1228784E2,1.022122E2,3.7840836E1,4.2899498E1,1.5990494E2,7.5238293E2,7.5485054E1,2.6727137E1,1.2009043E1,2.583179E1,6.4942203E0,3.6405277E1],"tree_param":{"num_deleted":"0","num_feature":"17","num_nodes":"15","size_leaf_vector":"1"}},{"base_weights":[-1.1963925E-3,6.897675E-2,-9.464596E-2,-2.0579487E-2,4.5008534E-1,1.0965084E-1,-1.9036274E-1,3.7894647E-3,-4.075174E-2,2.7771799E-2,8.807916E-2,5.0002933E-2,-4.530561E-3,-5.603487E-2,-1.1902254E-2],"categories":[],"categories_nodes":[],"categories_segments":[],"categories_sizes":[],"default_left":[1,0,0,0,0,0,0,0,0,0,0,0,0,0,0],"id":31,"left_children":[1,3,5,7,9,11,13,-1,-1,-1,-1,-1,-1,-1,-1],"loss_changes":[7.192E0,2.1388222E1,9.2184515E0,1.1512909E1,8.606983E0,9.138542E0,8.396986E0,0E0,0E0,0E0,0E0,0E0,0E0,0E0,0E0],"parents":[2147483647,0,0,1,1,2,2,3,3,4,4,5,5,6,6],"right_children":[2,4,6,8,10,12,14,-1,-1,-1,-1,-1,-1,-1,-1],"split_conditions":[9.093014E1,9.93039E0,2.9771366E0,3.6640026E1,8.1666664E1,4.1035004E0,4.9333332E1,3.7894647E-3,-4.075174E-2,2.7771799E-2,8.807916E-2,5.0002933E-2,-4.530561E-3,-5.603487E-2,-1.1902254E-2],"split_indices":[8,9,3,3,0,9,0,0,0,0,0,0,0,0,0],"split_type":[0,0,0,0,0,0,0,0,0,0,0,0,0,0,0],"sum_hessian":[1.0947389E3,6.253859E2,4.693529E2,5.0715598E2,1.1822996E2,1.4969661E2,3.1965628E2,4.4135968E2,6.5796295E1,8.561278E1,3.261718E1,4.1903393E1,1.0779322E2,5.0564274E1,2.69092E2],"tree_param":{"num_deleted":"0","num_feature":"17","num_nodes":"15","size_leaf_vector":"1"}},{"base_weights":[-1.2573667E-3,1.3080123E-2,-4.2175505E-1,8.8216476E-2,-6.3223876E-2,6.193828E-2,-6.695274E-1,-1.3089365E-4,2.380905E-2,2.9993355E-2,-1.0075287E-2,6.678861E-2,-3.283999E-2,-7.382064E-2,3.6553524E-2],"categories":[1,2,3,0],"categories_nodes":[1,5],"categories_segments":[0,3],"categories_sizes":[3,1],"default_left":[0,1,0,0,0,1,0,0,0,0,0,0,0,0,0],"id":32,"left_children":[1,3,5,7,9,11,13,-1,-1,-1,-1,-1,-1,-1,-1],"loss_changes":[6.6020064E0,6.0772805E0,4.368697E0,7.1655574E0,7.1993194E0,3.3286526E0,1.9731398E0,0E0,0E0,0E0,0E0,0E0,0E0,0E0,0E0],"parents":[2147483647,0,0,1,1,2,2,3,3,4,4,5,5,6,6],"right_children":[2,4,6,8,10,12,14,-1,-1,-1,-1,-1,-1,-1,-1],"split_conditions":[3.06E1,1E-45,3.3666668E1,3E0,7.7719045E0,1E-45,7.572823E1,-1.3089365E-4,2.380905E-2,2.9993355E-2,-1.0075287E-2,6.678861E-2,-3.283999E-2,-7.382064E-2,3.6553524E-2],"split_indices":[1,5,0,13,2,14,3,0,0,0,0,0,0,0,0],"split_type":[0,1,0,0,0,1,0,0,0,0,0,0,0,0,0],"sum_hessian":[1.0931484E3,1.0580419E3,3.510661E1,5.330212E2,5.250207E2,1.2145863E1,2.2960745E1,3.3431403E2,1.9870714E2,4.8519463E1,4.7650122E2,4.4800854E0,7.665777E0,2.1800993E1,1.1597509E0],"tree_param":{"num_deleted":"0","num_feature":"17","num_nodes":"15","size_leaf_vector":"1"}},{"base_weights":[-1.218544E-3,2.002126E-2,-2.70817E-1,-1.9537273E-1,4.9290955E-2,-8.462317E-2,-5.539756E-1,2.4843712E-3,-4.4775438E-2,5.2440267E-2,2.4316355E-3,8.453038E-2,-2.5606422E-2,-7.605226E-2,1.4414261E-2],"categories":[],"categories_nodes":[],"categories_segments":[],"categories_sizes":[],"default_left":[0,0,0,0,1,0,1,0,0,0,0,0,0,0,0],"id":33,"left_children":[1,3,5,7,9,11,13,-1,-1,-1,-1,-1,-1,-1,-1],"loss_changes":[6.264491E0,6.403421E0,4.1653323E0,6.765471E0,1.0590846E1,8.089015E0,4.653763E0,0E0,0E0,0E0,0E0,0E0,0E0,0E0,0E0],"parents":[2147483647,0,0,1,1,2,2,3,3,4,4,5,5,6,6],"right_children":[2,4,6,8,10,12,14,-1,-1,-1,-1,-1,-1,-1,-1],"split_conditions":[1E0,8.051036E-1,9.803628E1,7.9333334E0,9.865756E-1,1.9833333E0,1.4884601E2,2.4843712E-3,-4.4775438E-2,5.2440267E-2,2.4316355E-3,8.453038E-2,-2.5606422E-2,-7.605226E-2,1.4414261E-2],"split_indices":[15,9,8,1,9,1,8,0,0,0,0,0,0,0,0],"split_type":[0,0,0,0,0,0,0,0,0,0,0,0,0,0,0],"sum_hessian":[1.0920546E3,1.0131604E3,7.889419E1,1.2052786E2,8.926325E2,4.838017E1,3.0514017E1,6.484698E1,5.5680885E1,4.3579903E1,8.490526E2,6.9191065E0,4.146106E1,2.3478285E1,7.0357327E0],"tree_param":{"num_deleted":"0","num_feature":"17","num_nodes":"15","size_leaf_vector":"1"}},{"base_weights":[-1.2500507E-3,-7.7420837E-1,5.9107724E-3,6.924109E-2,-1.0373353E-1,6.0187787E-1,-7.324334E-3,7.398703E-3,1.5586573E-1,6.425176E-3,-1.0676357E-2],"categories":[],"categories_nodes":[],"categories_segments":[],"categories_sizes":[],"default_left":[0,0,0,0,0,0,1,0,0,0,0],"id":34,"left_children":[1,3,5,-1,-1,7,9,-1,-1,-1,-1],"loss_changes":[6.052061E0,4.591449E0,8.551111E0,0E0,0E0,1.1780449E1,7.5584774E0,0E0,0E0,0E0,0E0],"parents":[2147483647,0,0,1,1,2,2,5,5,6,6],"right_children":[2,4,6,-1,-1,8,10,-1,-1,-1,-1],"split_conditions":[3E0,9.703965E0,1.8E1,6.924109E-2,-1.0373353E-1,1.2182147E2,9.2937E1,7.398703E-3,1.5586573E-1,6.425176E-3,-1.0676357E-2],"split_indices":[16,2,16,0,0,8,8,0,0,0,0],"split_type":[0,0,0,0,0,0,0,0,0,0,0],"sum_hessian":[1.0915863E3,9.03658E0,1.0825498E3,1.1264561E0,7.910124E0,2.2552475E1,1.0599973E3,1.5227968E1,7.3245077E0,6.1655585E2,4.434414E2],"tree_param":{"num_deleted":"0","num_feature":"17","num_nodes":"11","size_leaf_vector":"1"}},{"base_weights":[-1.1219992E-3,1.1734359E-2,-3.96092E-1,-3.9418742E-1,2.5466029E-2,5.9168443E-2,-6.4176E-1,3.1295974E-2,-7.196387E-2,1.4214215E-3,6.619531E-2,8.19921E-2,-2.1536665E-2,-7.131414E-2,3.4242913E-2],"categories":[],"categories_nodes":[],"categories_segments":[],"categories_sizes":[],"default_left":[0,0,0,0,0,0,0,0,0,0,0,0,0,0,0],"id":35,"left_children":[1,3,5,7,9,11,13,-1,-1,-1,-1,-1,-1,-1,-1],"loss_changes":[5.550431E0,5.911151E0,3.8918214E0,8.2117195E0,7.3311644E0,2.8901393E0,1.8224335E0,0E0,0E0,0E0,0E0,0E0,0E0,0E0,0E0],"parents":[2147483647,0,0,1,1,2,2,3,3,4,4,5,5,6,6],"right_children":[2,4,6,8,10,12,14,-1,-1,-1,-1,-1,-1,-1,-1],"split_conditions":[3.06E1,3.2E1,3.3666668E1,2.49E2,5.7146217E1,1.7310516E1,7.572823E1,3.1295974E-2,-7.196387E-2,1.4214215E-3,6.619531E-2,8.19921E-2,-2.1536665E-2,-7.131414E-2,3.4242913E-2],"split_indices":[1,0,0,16,2,3,3,0,0,0,0,0,0,0,0],"split_type":[0,0,0,0,0,0,0,0,0,0,0,0,0,0,0],"sum_hessian":[1.0911461E3,1.0576885E3,3.3457695E1,3.3702507E1,1.02398596E3,1.1992643E1,2.1465054E1,1.0634351E1,2.3068155E1,1.00720294E3,1.6782997E1,2.6533837E0,9.339259E0,2.0270288E1,1.1947645E0],"tree_param":{"num_deleted":"0","num_feature":"17","num_nodes":"15","size_leaf_vector":"1"}},{"base_weights":[-1.0974422E-3,1.9720627E-2,-2.4422675E-1,6.630031E-2,-1.2708648E-1,3.5643318E-1,-4.0513992E-1,1.03306165E-2,-1.4104868E-2,-2.0841835E-2,1.994486E-2,-7.3649526E-2,7.243905E-2,-4.512794E-2,1.15502596E-1],"categories":[3],"categories_nodes":[0],"categories_segments":[0],"categories_sizes":[1],"default_left":[1,0,0,0,0,0,0,0,0,0,0,0,0,0,0],"id":36,"left_children":[1,3,5,7,9,11,13,-1,-1,-1,-1,-1,-1,-1,-1],"loss_changes":[5.5308805E0,6.8917947E0,8.474658E0,5.883021E0,6.489664E0,8.070749E0,5.4481916E0,0E0,0E0,0E0,0E0,0E0,0E0,0E0,0E0],"parents":[2147483647,0,0,1,1,2,2,3,3,4,4,5,5,6,6],"right_children":[2,4,6,8,10,12,14,-1,-1,-1,-1,-1,-1,-1,-1],"split_conditions":[1E-45,3.602468E1,2.55E0,9.88E2,1.2889504E1,7.4E1,1.166E3,1.03306165E-2,-1.4104868E-2,-2.0841835E-2,1.994486E-2,-7.3649526E-2,7.243905E-2,-4.512794E-2,1.15502596E-1],"split_indices":[5,2,1,16,9,0,16,0,0,0,0,0,0,0,0],"split_type":[1,0,0,0,0,0,0,0,0,0,0,0,0,0,0],"sum_hessian":[1.0907876E3,1.0056013E3,8.5186226E1,7.6380566E2,2.4179565E2,1.774231E1,6.744392E1,6.4855835E2,1.1524729E2,1.938693E2,4.7926353E1,4.216534E0,1.3525776E1,6.619699E1,1.2469242E0],"tree_param":{"num_deleted":"0","num_feature":"17","num_nodes":"15","size_leaf_vector":"1"}},{"base_weights":[-1.0815242E-3,-1.9408701E-2,2.700972E-1,-7.3164845E-1,-5.702718E-3,6.8097055E-1,-3.2684925E-1,-8.240124E-2,4.4483013E-2,-1.6215818E-3,5.580325E-2,1.02948E-1,-4.1818585E-2,8.2855575E-2,-4.0127482E-2],"categories":[2],"categories_nodes":[0],"categories_segments":[0],"categories_sizes":[1],"default_left":[1,0,0,0,0,0,0,0,0,0,0,0,0,0,0],"id":37,"left_children":[1,3,5,7,9,11,13,-1,-1,-1,-1,-1,-1,-1,-1],"loss_changes":[5.4284873E0,9.982916E0,1.7181988E1,2.4646063E0,5.963837E0,1.6243704E1,2.8146737E0,0E0,0E0,0E0,0E0,0E0,0E0,0E0,0E0],"parents":[2147483647,0,0,1,1,2,2,3,3,4,4,5,5,6,6],"right_children":[2,4,6,8,10,12,14,-1,-1,-1,-1,-1,-1,-1,-1],"split_conditions":[1E-45,2.9E1,3.56E2,8.971871E1,1.0360324E4,4.4E1,8.5E-1,-8.240124E-2,4.4483013E-2,-1.6215818E-3,5.580325E-2,1.02948E-1,-4.1818585E-2,8.2855575E-2,-4.0127482E-2],"split_indices":[14,0,16,2,9,11,1,0,0,0,0,0,0,0,0],"split_type":[1,0,0,0,0,0,0,0,0,0,0,0,0,0,0],"sum_hessian":[1.0902092E3,1.0220632E3,6.8146065E1,1.8307758E1,1.00375543E3,4.0280544E1,2.7865522E1,1.7252851E1,1.0549059E0,9.863325E2,1.7422884E1,3.063158E1,9.648962E0,1.0731376E0,2.6792385E1],"tree_param":{"num_deleted":"0","num_feature":"17","num_nodes":"15","size_leaf_vector":"1"}},{"base_weights":[-1.0081514E-3,-7.488774E-1,5.596131E-3,7.587853E-2,-1.02142334E-1,5.078833E-1,-6.02448E-3,5.0461455E-3,1.2724496E-1,5.960692E-3,-9.807732E-3],"categories":[],"categories_nodes":[],"categories_segments":[],"categories_sizes":[],"default_left":[0,0,0,0,0,0,1,0,0,0,0],"id":38,"left_children":[1,3,5,-1,-1,7,9,-1,-1,-1,-1],"loss_changes":[5.3862576E0,4.697521E0,6.3134966E0,0E0,0E0,8.489655E0,6.3958344E0,0E0,0E0,0E0,0E0],"parents":[2147483647,0,0,1,1,2,2,5,5,6,6],"right_children":[2,4,6,-1,-1,8,10,-1,-1,-1,-1],"split_conditions":[3E0,8.80721E0,1.8E1,7.587853E-2,-1.02142334E-1,1.2182147E2,9.2937E1,5.0461455E-3,1.2724496E-1,5.960692E-3,-9.807732E-3],"split_indices":[16,2,16,0,0,8,8,0,0,0,0],"split_type":[0,0,0,0,0,0,0,0,0,0,0],"sum_hessian":[1.088677E3,8.545902E0,1.0801311E3,1.0352223E0,7.5106797E0,2.3458529E1,1.0566726E3,1.5344362E1,8.114167E0,6.1706964E2,4.3960297E2],"tree_param":{"num_deleted":"0","num_feature":"17","num_nodes":"11","size_leaf_vector":"1"}},{"base_weights":[-9.0118125E-4,1.8185567E-2,-2.4916717E-1,-1.8449907E-1,4.540953E-2,-2.9150105E-1,8.9002454E-1,1.2716148E-3,-4.205933E-2,4.2677566E-2,2.4268783E-3,-5.3280503E-2,-4.5523536E-3,1.4074388E-1,-6.4865747E-3],"categories":[],"categories_nodes":[],"categories_segments":[],"categories_sizes":[],"default_left":[0,0,0,0,1,1,0,0,0,0,0,0,0,0,0],"id":39,"left_children":[1,3,5,7,9,11,13,-1,-1,-1,-1,-1,-1,-1,-1],"loss_changes":[5.165842E0,5.5945663E0,4.012825E0,5.5962296E0,7.1917872E0,4.4744697E0,1.5909538E0,0E0,0E0,0E0,0E0,0E0,0E0,0E0,0E0],"parents":[2147483647,0,0,1,1,2,2,3,3,4,4,5,5,6,6],"right_children":[2,4,6,8,10,12,14,-1,-1,-1,-1,-1,-1,-1,-1],"split_conditions":[1E0,8.051036E-1,4E0,7.9333334E0,9.865756E-1,1E0,2.6408803E0,1.2716148E-3,-4.205933E-2,4.2677566E-2,2.4268783E-3,-5.3280503E-2,-4.5523536E-3,1.4074388E-1,-6.4865747E-3],"split_indices":[15,9,13,1,9,10,9,0,0,0,0,0,0,0,0],"split_type":[0,0,0,0,0,0,0,0,0,0,0,0,0,0,0],"sum_hessian":[1.088208E3,1.0113797E3,7.682836E1,1.1907552E2,8.9230414E2,7.479307E1,2.035294E0,6.539534E1,5.368018E1,4.5858448E1,8.464457E2,3.7166576E1,3.762649E1,1.0126532E0,1.0226407E0],"tree_param":{"num_deleted":"0","num_feature":"17","num_nodes":"15","size_leaf_vector":"1"}},{"base_weights":[-8.487997E-4,6.1464813E-2,-7.3603585E-2,8.593748E-2,-3.4763676E-1,-4.2411316E-2,-4.9559268E-1,8.419039E-2,4.720162E-3,1.4077382E-1,-4.9087908E-2,8.507857E-2,-5.617628E-3,1.3225886E-1,-6.162275E-2],"categories":[1,3,0,1,3,4],"categories_nodes":[0,4],"categories_segments":[0,2],"categories_sizes":[2,4],"default_left":[1,1,0,0,1,0,0,0,0,0,0,0,0,0,0],"id":40,"left_children":[1,3,5,7,9,11,13,-1,-1,-1,-1,-1,-1,-1,-1],"loss_changes":[4.9406314E0,5.906984E0,6.5967364E0,1.6203135E1,9.072122E0,5.8171487E0,8.384587E0,0E0,0E0,0E0,0E0,0E0,0E0,0E0,0E0],"parents":[2147483647,0,0,1,1,2,2,3,3,4,4,5,5,6,6],"right_children":[2,4,6,8,10,12,14,-1,-1,-1,-1,-1,-1,-1,-1],"split_conditions":[1E-45,1.007481E2,2.5783333E1,2E0,1E-45,4.8483963E0,4.3333335E0,8.419039E-2,4.720162E-3,1.4077382E-1,-4.9087908E-2,8.507857E-2,-5.617628E-3,1.3225886E-1,-6.162275E-2],"split_indices":[5,9,1,11,6,2,0,0,0,0,0,0,0,0,0],"split_type":[1,0,0,0,1,0,0,0,0,0,0,0,0,0,0],"sum_hessian":[1.0877798E3,5.8601776E2,5.0176205E2,5.536859E2,3.233184E1,4.6825076E2,3.3511307E1,2.5977446E1,5.277085E2,1.773287E0,3.0558556E1,6.183758E0,4.6206702E2,1.4651608E0,3.2046143E1],"tree_param":{"num_deleted":"0","num_feature":"17","num_nodes":"15","size_leaf_vector":"1"}},{"base_weights":[-6.106279E-4,-7.849567E-3,5.973683E-1,-1.9251692E-1,1.5201825E-2,1.2810133E0,3.4941605E-3,5.2942242E-2,-2.740753E-2,9.191597E-3,-6.957711E-3,6.953535E-3,2.0594792E-1,1.1716093E-1,-5.8023106E-2],"categories":[],"categories_nodes":[],"categories_segments":[],"categories_sizes":[],"default_left":[0,0,1,0,1,0,0,0,0,0,0,0,0,0,0],"id":41,"left_children":[1,3,5,7,9,11,13,-1,-1,-1,-1,-1,-1,-1,-1],"loss_changes":[4.7128158E0,4.581683E0,5.2825117E0,7.1777215E0,6.2316732E0,5.563286E0,6.115136E0,0E0,0E0,0E0,0E0,0E0,0E0,0E0,0E0],"parents":[2147483647,0,0,1,1,2,2,3,3,4,4,5,5,6,6],"right_children":[2,4,6,8,10,12,14,-1,-1,-1,-1,-1,-1,-1,-1],"split_conditions":[1.28E2,8.051036E-1,2.9012455E1,1.1333333E0,9.093014E1,2.5342104E1,1.76E2,5.2942242E-2,-2.740753E-2,9.191597E-3,-6.957711E-3,6.953535E-3,2.0594792E-1,1.1716093E-1,-5.8023106E-2],"split_indices":[11,9,8,1,8,8,16,0,0,0,0,0,0,0,0],"split_type":[0,0,0,0,0,0,0,0,0,0,0,0,0,0,0],"sum_hessian":[1.0866455E3,1.0746233E3,1.2022168E1,1.1843946E2,9.5618384E2,5.0508175E0,6.9713507E0,1.1464708E1,1.06974754E2,5.0192316E2,4.5426068E2,2.402023E0,2.6487942E0,1.9873211E0,4.98403E0],"tree_param":{"num_deleted":"0","num_feature":"17","num_nodes":"15","size_leaf_vector":"1"}},{"base_weights":[-3.7915388E-4,2.1141255E-2,-1.9739568E-1,3.846573E-2,-3.233796E-1,-4.960763E-1,1.2398941E-1,2.3814242E-2,-4.1290486E-4,-5.456513E-3,-1.0307487E-1,-4.310283E-3,-6.489757E-2,5.788408E-2,-3.2303296E-2],"categories":[1,1,2],"categories_nodes":[4,6],"categories_segments":[0,1],"categories_sizes":[1,2],"default_left":[0,1,1,0,1,0,1,0,0,0,0,0,0,0,0],"id":42,"left_children":[1,3,5,7,9,11,13,-1,-1,-1,-1,-1,-1,-1,-1],"loss_changes":[4.6124763E0,5.8662877E0,1.0344954E1,7.950808E0,8.892947E0,3.8315477E0,1.0842034E1,0E0,0E0,0E0,0E0,0E0,0E0,0E0,0E0],"parents":[2147483647,0,0,1,1,2,2,3,3,4,4,5,5,6,6],"right_children":[2,4,6,8,10,12,14,-1,-1,-1,-1,-1,-1,-1,-1],"split_conditions":[4.3930084E1,1.007481E2,5.150078E0,1.6E2,1E-45,1.0487354E0,1E-45,2.3814242E-2,-4.1290486E-4,-5.456513E-3,-1.0307487E-1,-4.310283E-3,-6.489757E-2,5.788408E-2,-3.2303296E-2],"split_indices":[3,9,9,16,6,9,6,0,0,0,0,0,0,0,0],"split_type":[0,0,0,0,1,0,1,0,0,0,0,0,0,0,0],"sum_hessian":[1.0858958E3,9.79767E2,1.06128716E2,9.337034E2,4.6063583E1,5.4725647E1,5.1403065E1,1.6335124E2,7.703522E2,3.4159447E1,1.1904139E1,1.4134187E1,4.059146E1,2.5332262E1,2.6070805E1],"tree_param":{"num_deleted":"0","num_feature":"17","num_nodes":"15","size_leaf_vector":"1"}},{"base_weights":[-6.345098E-4,-7.167261E-1,5.320127E-3,6.8563566E-2,-9.956089E-2,4.363834E-1,-5.0105182E-3,2.8667736E-3,1.08323194E-1,1.6057699E-3,-2.556242E-2],"categories":[3],"categories_nodes":[6],"categories_segments":[0],"categories_sizes":[1],"default_left":[0,0,0,0,0,0,1,0,0,0,0],"id":43,"left_children":[1,3,5,-1,-1,7,9,-1,-1,-1,-1],"loss_changes":[4.636623E0,4.189737E0,4.804965E0,0E0,0E0,6.629042E0,5.5705614E0,0E0,0E0,0E0,0E0],"parents":[2147483647,0,0,1,1,2,2,5,5,6,6],"right_children":[2,4,6,-1,-1,8,10,-1,-1,-1,-1],"split_conditions":[3E0,8.80721E0,1.8E1,6.8563566E-2,-9.956089E-2,1.2182147E2,1E-45,2.8667736E-3,1.08323194E-1,1.6057699E-3,-2.556242E-2],"split_indices":[16,2,16,0,0,8,5,0,0,0,0],"split_type":[0,0,0,0,0,0,1,0,0,0,0],"sum_hessian":[1.0854773E3,7.967428E0,1.0775099E3,1.0796916E0,6.887737E0,2.4253437E1,1.0532565E3,1.5517137E1,8.7363E0,9.724425E2,8.081391E1],"tree_param":{"num_deleted":"0","num_feature":"17","num_nodes":"11","size_leaf_vector":"1"}},{"base_weights":[-5.900486E-4,1.6603773E-2,-2.2910844E-1,3.7384316E-2,-1.7898454E-1,2.0213667E-1,-3.3336914E-1,-1.389338E-3,1.7840495E-2,-4.47863E-2,2.544362E-2,-1.4831978E-2,1.1047895E-1,6.436717E-2,-4.338476E-2],"categories":[],"categories_nodes":[],"categories_segments":[],"categories_sizes":[],"default_left":[0,0,0,0,1,0,0,0,0,0,0,0,0,0,0],"id":44,"left_children":[1,3,5,7,9,11,13,-1,-1,-1,-1,-1,-1,-1,-1],"loss_changes":[4.2718472E0,4.11658E0,3.4880586E0,6.6182795E0,1.1451788E1,5.046532E0,6.3309913E0,0E0,0E0,0E0,0E0,0E0,0E0,0E0,0E0],"parents":[2147483647,0,0,1,1,2,2,3,3,4,4,5,5,6,6],"right_children":[2,4,6,8,10,12,14,-1,-1,-1,-1,-1,-1,-1,-1],"split_conditions":[1E0,4.3930084E1,2.3355518E1,3.4E1,7.5431204E0,8.28E2,6.859026E-1,-1.389338E-3,1.7840495E-2,-4.47863E-2,2.544362E-2,-1.4831978E-2,1.1047895E-1,6.436717E-2,-4.338476E-2],"split_indices":[15,3,8,11,9,16,3,0,0,0,0,0,0,0,0],"split_type":[0,0,0,0,0,0,0,0,0,0,0,0,0,0,0],"sum_hessian":[1.0852635E3,1.0101842E3,7.507935E1,9.138951E2,9.628915E1,1.4434856E1,6.0644497E1,6.708596E2,2.4303545E2,5.9403843E1,3.6885307E1,1.0999836E1,3.4350197E0,5.1509733E0,5.5493523E1],"tree_param":{"num_deleted":"0","num_feature":"17","num_nodes":"15","size_leaf_vector":"1"}},{"base_weights":[-5.6782295E-4,2.4124477E-2,-1.554319E-1,3.4211103E-2,-7.7616143E-1,-2.261195E-1,4.3943426E-1,5.6975475E-3,-2.0499995E-2,-9.328861E-2,1.9998139E-2,-7.085589E-2,-1.4955689E-2,-7.6529376E-2,9.007228E-2],"categories":[2,3],"categories_nodes":[2,3],"categories_segments":[0,1],"categories_sizes":[1,1],"default_left":[0,0,1,1,0,0,0,0,0,0,0,0,0,0,0],"id":45,"left_children":[1,3,5,7,9,11,13,-1,-1,-1,-1,-1,-1,-1,-1],"loss_changes":[4.156096E0,7.5935493E0,6.3842173E0,5.0580473E0,1.9780426E0,4.852749E0,9.699865E0,0E0,0E0,0E0,0E0,0E0,0E0,0E0,0E0],"parents":[2147483647,0,0,1,1,2,2,3,3,4,4,5,5,6,6],"right_children":[2,4,6,8,10,12,14,-1,-1,-1,-1,-1,-1,-1,-1],"split_conditions":[4.4706528E1,2.9466667E1,1E-45,1E-45,7.572823E1,2.9E1,3E0,5.6975475E-3,-2.0499995E-2,-9.328861E-2,1.9998139E-2,-7.085589E-2,-1.4955689E-2,-7.6529376E-2,9.007228E-2],"split_indices":[2,1,14,5,3,0,13,0,0,0,0,0,0,0,0],"split_type":[0,0,1,1,0,0,0,0,0,0,0,0,0,0,0],"sum_hessian":[1.0848787E3,9.364161E2,1.4846262E2,9.2570593E2,1.0710141E1,1.3324864E2,1.5213977E1,8.459623E2,7.974365E1,9.266648E0,1.4434924E0,1.7119558E1,1.1612908E2,4.029989E0,1.1183988E1],"tree_param":{"num_deleted":"0","num_feature":"17","num_nodes":"15","size_leaf_vector":"1"}},{"base_weights":[-7.7894144E-4,-6.8677056E-1,4.596746E-3,6.348258E-2,-9.7429946E-2,-3.0183375E-2,1.1478217E-1,4.7957324E-3,-1.46333575E-2,-1.0983638E-2,3.646721E-2],"categories":[],"categories_nodes":[],"categories_segments":[],"categories_sizes":[],"default_left":[0,0,0,0,0,1,1,0,0,0,0],"id":46,"left_children":[1,3,5,-1,-1,7,9,-1,-1,-1,-1],"loss_changes":[4.004006E0,3.8266037E0,4.1326566E0,0E0,0E0,7.4472437E0,1.4561847E1,0E0,0E0,0E0,0E0],"parents":[2147483647,0,0,1,1,2,2,5,5,6,6],"right_children":[2,4,6,-1,-1,8,10,-1,-1,-1,-1],"split_conditions":[3E0,8.80721E0,1.2288452E1,6.348258E-2,-9.7429946E-2,1E0,1E0,4.7957324E-3,-1.46333575E-2,-1.0983638E-2,3.646721E-2],"split_indices":[16,2,9,0,0,7,7,0,0,0,0],"split_type":[0,0,0,0,0,0,0,0,0,0,0],"sum_hessian":[1.0839241E3,7.4424148E0,1.0764817E3,1.114029E0,6.328386E0,8.1876416E2,2.5771753E2,4.8982126E2,3.2894287E2,1.3601668E2,1.2170084E2],"tree_param":{"num_deleted":"0","num_feature":"17","num_nodes":"11","size_leaf_vector":"1"}},{"base_weights":[-8.216884E-4,-7.2859586E-3,5.7008946E-1,4.292086E-1,-1.6417379E-2,1.3319385E0,-4.36031E-3,3.1300602E-3,8.4452264E-2,-8.5178606E-2,-1.0455105E-3,5.936378E-3,2.4109231E-1,1.0053331E-1,-5.5736E-2],"categories":[],"categories_nodes":[],"categories_segments":[],"categories_sizes":[],"default_left":[1,0,1,0,0,0,0,0,0,0,0,0,0,0,0],"id":47,"left_children":[1,3,5,7,9,11,13,-1,-1,-1,-1,-1,-1,-1,-1],"loss_changes":[4.005904E0,4.2845364E0,5.324383E0,3.6137714E0,5.2315383E0,7.0346994E0,4.9854727E0,0E0,0E0,0E0,0E0,0E0,0E0,0E0,0E0],"parents":[2147483647,0,0,1,1,2,2,3,3,4,4,5,5,6,6],"right_children":[2,4,6,8,10,12,14,-1,-1,-1,-1,-1,-1,-1,-1],"split_conditions":[1.28E2,5.507974E0,2.9012455E1,7.0020623E0,3E0,2.5342104E1,1.76E2,3.1300602E-3,8.4452264E-2,-8.5178606E-2,-1.0455105E-3,5.936378E-3,2.4109231E-1,1.0053331E-1,-5.5736E-2],"split_indices":[11,2,8,3,16,8,16,0,0,0,0,0,0,0,0],"split_type":[0,0,0,0,0,0,0,0,0,0,0,0,0,0,0],"sum_hessian":[1.0833312E3,1.0721783E3,1.1152743E1,2.1027573E1,1.0511509E3,4.2274995E0,6.925244E0,1.12880125E1,9.739561E0,6.4438677E0,1.0447069E3,2.4238193E0,1.80368E0,2.1612206E0,4.7640233E0],"tree_param":{"num_deleted":"0","num_feature":"17","num_nodes":"15","size_leaf_vector":"1"}},{"base_weights":[-5.4280896E-4,8.851332E-2,-3.719613E-2,5.469263E-1,1.9094447E-2,1.4566664E-1,-4.422252E-2,7.783999E-2,-3.5301007E-2,-3.1447742E-2,1.2253547E-2,3.9895247E-3,-1.5447837E-2],"categories":[0,0,1,2,4],"categories_nodes":[0,2],"categories_segments":[0,1],"categories_sizes":[1,4],"default_left":[1,0,0,0,0,0,0,0,0,0,0,0,0],"id":48,"left_children":[1,3,5,7,9,-1,11,-1,-1,-1,-1,-1,-1],"loss_changes":[3.5406148E0,1.00538645E1,8.129975E0,8.93177E0,9.551768E0,0E0,7.1083775E0,0E0,0E0,0E0,0E0,0E0,0E0],"parents":[2147483647,0,0,1,1,2,2,3,3,4,4,6,6],"right_children":[2,4,6,8,10,-1,12,-1,-1,-1,-1,-1,-1],"split_conditions":[1E-45,6.6E1,1E-45,1E0,2E0,1.4566664E-1,8.5E0,7.783999E-2,-3.5301007E-2,-3.1447742E-2,1.2253547E-2,3.9895247E-3,-1.5447837E-2],"split_indices":[14,16,6,15,13,0,1,0,0,0,0,0,0],"split_type":[1,0,1,0,0,0,0,0,0,0,0,0,0],"sum_hessian":[1.0826711E3,3.1526373E2,7.674074E2,4.0557888E1,2.7470584E2,2.626752E0,7.6478064E2,3.2367626E1,8.190262E0,6.4540016E1,2.1016583E2,4.3417365E2,3.30607E2],"tree_param":{"num_deleted":"0","num_feature":"17","num_nodes":"13","size_leaf_vector":"1"}},{"base_weights":[-4.652505E-4,9.195529E-3,-3.355283E-1,-3.3635646E-1,1.9708864E-2,5.089661E-2,-6.283857E-1,3.0383741E-2,-6.6410884E-2,1.1120819E-3,7.540842E-2,4.519445E-2,-6.112179E-2,-4.162336E-3,-8.665856E-2],"categories":[0,2,3,4],"categories_nodes":[2],"categories_segments":[0],"categories_sizes":[4],"default_left":[0,0,1,0,0,0,0,0,0,0,0,0,0,0,0],"id":49,"left_children":[1,3,5,7,9,11,13,-1,-1,-1,-1,-1,-1,-1,-1],"loss_changes":[3.505375E0,3.830685E0,3.4664345E0,6.7347603E0,6.440249E0,3.996212E0,2.3873873E0,0E0,0E0,0E0,0E0,0E0,0E0,0E0,0E0],"parents":[2147483647,0,0,1,1,2,2,3,3,4,4,5,5,6,6],"right_children":[2,4,6,8,10,12,14,-1,-1,-1,-1,-1,-1,-1,-1],"split_conditions":[3.06E1,3.2E1,1E-45,2.49E2,5.8518814E1,2.7E1,3.1333334E1,3.0383741E-2,-6.6410884E-2,1.1120819E-3,7.540842E-2,4.519445E-2,-6.112179E-2,-4.162336E-3,-8.665856E-2],"split_indices":[1,0,6,16,2,11,0,0,0,0,0,0,0,0,0],"split_type":[0,0,1,0,0,0,0,0,0,0,0,0,0,0,0],"sum_hessian":[1.0809652E3,1.0516168E3,2.9348417E1,3.013536E1,1.0214815E3,1.3009114E1,1.6339302E1,1.022872E1,1.9906641E1,1.0106774E3,1.0804076E1,8.299479E0,4.7096357E0,5.057011E0,1.1282291E1],"tree_param":{"num_deleted":"0","num_feature":"17","num_nodes":"15","size_leaf_vector":"1"}}]},"name":"gbtree"},"learner_model_param":{"base_score":"[8.359009E-2]","boost_from_average":"1","num_class":"0","num_feature":"17","num_target":"1"},"objective":{"name":"binary:logistic","reg_loss_param":{"scale_pos_weight":"1"}}},"version":[3,2,0]}