{"learner":{"attributes":{"scikit_learn":"{\"_estimator_type\": \"classifier\"}"},"feature_names":["x_adj","y_adj","distance","angle","behind_the_net","shot_type","prev_type","prev_event_same_team","dist_from_prev_event","speed_from_prev_event","crossed_royal_road","time_from_prev_event","home_team_shot","period","game_state","goalie_pulled","time_remaining"],"feature_types":["float","float","float","float","i","c","c","i","float","float","i","float","i","int","c","i","int"],"gradient_booster":{"model":{"cats":{"enc":[{"offsets":[],"values":[]},{"offsets":[],"values":[]},{"offsets":[],"values":[]},{"offsets":[],"values":[]},{"offsets":[],"values":[]},{"offsets":[0,1,2,3,4,5,6],"values":[49,50,51,52,53,54]},{"offsets":[0,12,19,22,29,33],"values":[98,108,111,99,107,101,100,95,115,104,111,116,102,97,99,101,111,102,102,104,105,116,112,101,110,97,108,116,121,115,104,111,116]},{"offsets":[],"values":[]},{"offsets":[],"values":[]},{"offsets":[],"values":[]},{"offsets":[],"values":[]},{"offsets":[],"values":[]},{"offsets":[],"values":[]},{"offsets":[],"values":[]},{"offsets":[0,2,4,6],"values":[101,118,112,112,115,104]},{"offsets":[],"values":[]},{"offsets":[],"values":[]}],"feature_segments":[0,0,0,0,0,0,6,11,11,11,11,11,11,11,11,14,14,14],"sorted_idx":[0,1,2,3,4,5,0,1,2,3,4,0,1,2]},"gbtree_model_param":{"num_parallel_tree":"1","num_trees":"50"},"iteration_indptr":[0,1,2,3,4,5,6,7,8,9,10,11,12,13,14,15,16,17,18,19,20,21,22,23,24,25,26,27,28,29,30,31,32,33,34,35,36,37,38,39,40,41,42,43,44,45,46,47,48,49,50],"tree_info":[0,0,0,0,0,0,0,0,0,0,0,0,0,0,0,0,0,0,0,0,0,0,0,0,0,0,0,0,0,0,0,0,0,0,0,0,0,0,0,0,0,0,0,0,0,0,0,0,0,0],"trees":[{"base_weights":[-7.8283435E-8,6.704784E-1,-4.166065E-1,1.9880042E0,4.499521E-1,-4.8213583E-1,1.3854957E0,2.5365743E-1,3.7626904E-2,8.698201E-2,5.0269775E-3,-1.9773254E-2,-7.6046325E-2,5.2869433E-1,3.4274035E-3],"categories":[2],"categories_nodes":[2],"categories_segments":[0],"categories_sizes":[1],"default_left":[0,1,1,1,0,0,0,0,0,0,0,0,0,0,0],"id":0,"left_children":[1,3,5,7,9,11,13,-1,-1,-1,-1,-1,-1,-1,-1],"loss_changes":[3.2025226E2,1.26768036E2,8.417402E1,5.4487396E1,6.333573E1,5.391928E1,1.3197726E2,0E0,0E0,0E0,0E0,0E0,0E0,0E0,0E0],"parents":[2147483647,0,0,1,1,2,2,3,3,4,4,5,5,6,6],"right_children":[2,4,6,8,10,12,14,-1,-1,-1,-1,-1,-1,-1,-1],"split_conditions":[2.311234E1,3E0,1E-45,1.1643301E2,6.516667E0,1.87E1,1.51E2,2.5365743E-1,3.7626904E-2,8.698201E-2,5.0269775E-3,-1.9773254E-2,-7.6046325E-2,5.2869433E-1,3.4274035E-3],"split_indices":[2,11,14,8,1,1,16,0,0,0,0,0,0,0,0],"split_type":[0,0,1,0,0,0,0,0,0,0,0,0,0,0,0],"sum_hessian":[1.1445193E3,4.3838364E2,7.061357E2,6.1706387E1,3.7667725E2,6.820664E2,2.4069324E1,4.560907E1,1.6097319E1,1.8312616E2,1.9355109E2,3.38197E2,3.438694E2,5.4424267E0,1.8626898E1],"tree_param":{"num_deleted":"0","num_feature":"17","num_nodes":"15","size_leaf_vector":"1"}},{"base_weights":[-2.3050352E-3,3.847982E-1,-5.849928E-1,-2.2924861E-1,6.381318E-1,-6.4490205E-1,8.0260706E-1,5.957641E-2,-4.628806E-2,1.467766E-1,4.8215285E-2,-5.2800067E-2,-9.109037E-2,2.6979402E-1,-6.587942E-2],"categories":[2,0],"categories_nodes":[2,3],"categories_segments":[0,1],"categories_sizes":[1,1],"default_left":[0,0,1,1,1,0,0,0,0,0,0,0,0,0,0],"id":1,"left_children":[1,3,5,7,9,11,13,-1,-1,-1,-1,-1,-1,-1,-1],"loss_changes":[2.5894116E2,1.0744456E2,3.861046E1,3.9248207E1,6.251573E1,1.3195694E1,5.5542084E1,0E0,0E0,0E0,0E0,0E0,0E0,0E0,0E0],"parents":[2147483647,0,0,1,1,2,2,3,3,4,4,5,5,6,6],"right_children":[2,4,6,8,10,12,14,-1,-1,-1,-1,-1,-1,-1,-1],"split_conditions":[1.5016666E1,6.2E1,1E-45,1E-45,3E0,2.805E1,3.07E2,5.957641E-2,-4.628806E-2,1.467766E-1,4.8215285E-2,-5.2800067E-2,-9.109037E-2,2.6979402E-1,-6.587942E-2],"split_indices":[1,0,14,14,11,1,16,0,0,0,0,0,0,0,0],"split_type":[0,0,1,1,0,0,0,0,0,0,0,0,0,0,0],"sum_hessian":[1.1459928E3,6.887606E2,4.5723215E2,2.0119234E2,4.875683E2,4.388214E2,1.8410744E1,4.4059002E1,1.5713335E2,7.5829575E1,4.117387E2,3.0692163E2,1.3189978E2,7.6469994E0,1.0763744E1],"tree_param":{"num_deleted":"0","num_feature":"17","num_nodes":"15","size_leaf_vector":"1"}},{"base_weights":[-3.8680083E-3,3.503854E-1,-5.308891E-1,-1.9571929E-1,5.5559397E-1,-2.9208893E-3,-6.7371774E-1,5.2237917E-2,-4.189737E-2,2.0043813E-1,4.882441E-2,9.3681805E-2,-2.8151488E-2,-4.799439E-2,-8.25868E-2],"categories":[0,0],"categories_nodes":[2,3],"categories_segments":[0,1],"categories_sizes":[1,1],"default_left":[0,0,1,1,0,0,0,0,0,0,0,0,0,0,0],"id":2,"left_children":[1,3,5,7,9,11,13,-1,-1,-1,-1,-1,-1,-1,-1],"loss_changes":[2.1433968E2,7.704884E1,3.47984E1,3.0400948E1,4.7741028E1,2.625218E1,1.0312408E1,0E0,0E0,0E0,0E0,0E0,0E0,0E0,0E0],"parents":[2147483647,0,0,1,1,2,2,3,3,4,4,5,5,6,6],"right_children":[2,4,6,8,10,12,14,-1,-1,-1,-1,-1,-1,-1,-1],"split_conditions":[1.445E1,6.2E1,1E-45,1E-45,6.3823543E0,1.51E2,2.1816668E1,5.2237917E-2,-4.189737E-2,2.0043813E-1,4.882441E-2,9.3681805E-2,-2.8151488E-2,-4.799439E-2,-8.25868E-2],"split_indices":[1,0,14,14,2,16,1,0,0,0,0,0,0,0,0],"split_type":[0,0,1,1,0,0,0,0,0,0,0,0,0,0,0],"sum_hessian":[1.146053E3,6.855647E2,4.6048822E2,1.8726309E2,4.9830164E2,9.8266205E1,3.6222202E2,4.4094185E1,1.431689E2,2.085795E1,4.7744366E2,2.1930092E1,7.633611E1,1.6114597E2,2.0107607E2],"tree_param":{"num_deleted":"0","num_feature":"17","num_nodes":"15","size_leaf_vector":"1"}},{"base_weights":[-4.884398E-3,2.9285815E-1,-5.2713263E-1,-3.9462578E-1,4.2313293E-1,-5.877342E-1,6.647005E-1,-4.9069714E-2,1.7084609E-1,1.0556364E-1,3.0482927E-2,-4.6914402E-2,-8.7230176E-2,1.8740772E-1,-6.926216E-2],"categories":[2,2],"categories_nodes":[2,3],"categories_segments":[0,1],"categories_sizes":[1,1],"default_left":[0,0,1,1,1,0,0,0,0,0,0,0,0,0,0],"id":3,"left_children":[1,3,5,7,9,11,13,-1,-1,-1,-1,-1,-1,-1,-1],"loss_changes":[1.7841026E2,6.56154E1,3.0481194E1,2.4464254E1,4.568435E1,1.2987717E1,3.5158855E1,0E0,0E0,0E0,0E0,0E0,0E0,0E0,0E0],"parents":[2147483647,0,0,1,1,2,2,3,3,4,4,5,5,6,6],"right_children":[2,4,6,8,10,12,14,-1,-1,-1,-1,-1,-1,-1,-1],"split_conditions":[1.5016666E1,5.2666668E1,1E-45,1E-45,3E0,2.805E1,3.21E2,-4.9069714E-2,1.7084609E-1,1.0556364E-1,3.0482927E-2,-4.6914402E-2,-8.7230176E-2,1.8740772E-1,-6.926216E-2],"split_indices":[1,0,14,14,11,1,16,0,0,0,0,0,0,0,0],"split_type":[0,0,1,1,0,0,0,0,0,0,0,0,0,0,0],"sum_hessian":[1.1453732E3,7.297625E2,4.156107E2,1.159331E2,6.138294E2,3.9598288E2,1.962781E1,1.11601685E2,4.3314137E0,9.5471825E1,5.1835754E2,2.813727E2,1.1461017E2,1.0178252E1,9.449558E0],"tree_param":{"num_deleted":"0","num_feature":"17","num_nodes":"15","size_leaf_vector":"1"}},{"base_weights":[-5.545456E-3,2.569043E-1,-4.9866283E-1,3.734009E-1,-3.3745873E-1,-2.252403E-2,-6.3858384E-1,8.507198E-2,2.4257185E-2,-4.2098433E-2,1.334496E-1,5.208993E-2,-3.9738666E-2,-5.2461665E-2,-8.863609E-2],"categories":[0,0,2],"categories_nodes":[2,3,4],"categories_segments":[0,1,2],"categories_sizes":[1,1,1],"default_left":[0,0,1,1,1,0,0,0,0,0,0,0,0,0,0],"id":4,"left_children":[1,3,5,7,9,11,13,-1,-1,-1,-1,-1,-1,-1,-1],"loss_changes":[1.4826927E2,5.1899216E1,2.6497467E1,3.8864265E1,1.7747663E1,1.8829868E1,8.21907E0,0E0,0E0,0E0,0E0,0E0,0E0,0E0,0E0],"parents":[2147483647,0,0,1,1,2,2,3,3,4,4,5,5,6,6],"right_children":[2,4,6,8,10,12,14,-1,-1,-1,-1,-1,-1,-1,-1],"split_conditions":[1.5016666E1,3.6333332E1,1E-45,1E-45,1E-45,3.25E2,2.805E1,8.507198E-2,2.4257185E-2,-4.2098433E-2,1.334496E-1,5.208993E-2,-3.9738666E-2,-5.2461665E-2,-8.863609E-2],"split_indices":[1,2,14,14,14,16,1,0,0,0,0,0,0,0,0],"split_type":[0,0,1,1,1,0,0,0,0,0,0,0,0,0,0],"sum_hessian":[1.1436672E3,7.4672174E2,3.969455E2,6.246589E2,1.2206291E2,9.041892E1,3.0652658E2,1.3319727E2,4.914616E2,1.1696777E2,5.0951347E0,3.6751774E1,5.3667145E1,2.1209087E2,9.443572E1],"tree_param":{"num_deleted":"0","num_feature":"17","num_nodes":"15","size_leaf_vector":"1"}},{"base_weights":[-6.043379E-3,2.2606282E-1,-4.7060496E-1,-1.737952E-1,3.666429E-1,-5.3081936E-1,5.595902E-1,4.5147132E-2,-3.8470715E-2,1.11076884E-1,2.9402748E-2,-4.140231E-2,-8.306755E-2,2.1380825E-1,-1.6141228E-2],"categories":[2,0],"categories_nodes":[2,3],"categories_segments":[0,1],"categories_sizes":[1,1],"default_left":[0,0,1,1,0,0,0,0,0,0,0,0,0,0,0],"id":5,"left_children":[1,3,5,7,9,11,13,-1,-1,-1,-1,-1,-1,-1,-1],"loss_changes":[1.2335649E2,4.294712E1,2.3940353E1,2.6433155E1,3.0190414E1,1.2285362E1,2.4853165E1,0E0,0E0,0E0,0E0,0E0,0E0,0E0,0E0],"parents":[2147483647,0,0,1,1,2,2,3,3,4,4,5,5,6,6],"right_children":[2,4,6,8,10,12,14,-1,-1,-1,-1,-1,-1,-1,-1],"split_conditions":[1.5016666E1,6.2666668E1,1E-45,1E-45,7.275549E0,2.805E1,9.8E1,4.5147132E-2,-3.8470715E-2,1.11076884E-1,2.9402748E-2,-4.140231E-2,-8.306755E-2,2.1380825E-1,-1.6141228E-2],"split_indices":[1,0,14,14,2,1,16,0,0,0,0,0,0,0,0],"split_type":[0,0,1,1,0,0,0,0,0,0,0,0,0,0,0],"sum_hessian":[1.1420292E3,7.618859E2,3.8014325E2,1.9812215E2,5.6376373E2,3.59609E2,2.053424E1,4.968529E1,1.4843684E2,4.8852417E1,5.149113E2,2.6051654E2,9.9092476E1,5.822218E0,1.4712024E1],"tree_param":{"num_deleted":"0","num_feature":"17","num_nodes":"15","size_leaf_vector":"1"}},{"base_weights":[-6.228008E-3,2.1016064E-1,-4.218071E-1,7.0268863E-1,1.201254E-1,4.0526092E-2,-5.675089E-1,1.02158666E-1,-3.6177654E-3,5.3452697E-2,-6.2885194E-4,6.5634385E-2,-1.8762922E-2,-3.752018E-2,-7.3548324E-2],"categories":[0,0],"categories_nodes":[2,4],"categories_segments":[0,1],"categories_sizes":[1,1],"default_left":[0,1,1,1,1,0,0,0,0,0,0,0,0,0,0],"id":6,"left_children":[1,3,5,7,9,11,13,-1,-1,-1,-1,-1,-1,-1,-1],"loss_changes":[1.0265578E2,3.3205193E1,2.635289E1,2.7325462E1,3.3314827E1,1.3414054E1,9.326706E0,0E0,0E0,0E0,0E0,0E0,0E0,0E0,0E0],"parents":[2147483647,0,0,1,1,2,2,3,3,4,4,5,5,6,6],"right_children":[2,4,6,8,10,12,14,-1,-1,-1,-1,-1,-1,-1,-1],"split_conditions":[1.445E1,3E0,1E-45,8.5380356E1,1E-45,1.51E2,2.1816668E1,1.02158666E-1,-3.6177654E-3,5.3452697E-2,-6.2885194E-4,6.5634385E-2,-1.8762922E-2,-3.752018E-2,-7.3548324E-2],"split_indices":[1,11,14,8,14,16,1,0,0,0,0,0,0,0,0],"split_type":[0,0,1,0,1,0,0,0,0,0,0,0,0,0,0],"sum_hessian":[1.139565E3,7.4969775E2,3.8986722E2,1.1481426E2,6.348835E2,9.3595795E1,2.9627142E2,7.993243E1,3.488184E1,1.4764742E2,4.872361E2,2.4794853E1,6.880094E1,1.3963857E2,1.5663286E2],"tree_param":{"num_deleted":"0","num_feature":"17","num_nodes":"15","size_leaf_vector":"1"}},{"base_weights":[-6.3941902E-3,2.1483128E-1,-3.5058355E-1,3.6908257E-1,-6.5971054E-2,1.3605009E-1,-5.238692E-1,1.8928942E-1,3.399147E-2,4.0538117E-2,-1.7568393E-2,-5.9176005E-2,3.751346E-2,-3.42012E-2,-6.999677E-2],"categories":[0],"categories_nodes":[2],"categories_segments":[0],"categories_sizes":[1],"default_left":[0,0,1,0,1,0,0,0,0,0,0,0,0,0,0],"id":7,"left_children":[1,3,5,7,9,11,13,-1,-1,-1,-1,-1,-1,-1,-1],"loss_changes":[8.673531E1,3.0059818E1,3.765408E1,1.9256226E1,1.2829437E1,2.0724253E1,1.0292198E1,0E0,0E0,0E0,0E0,0E0,0E0,0E0,0E0],"parents":[2147483647,0,0,1,1,2,2,3,3,4,4,5,5,6,6],"right_children":[2,4,6,8,10,12,14,-1,-1,-1,-1,-1,-1,-1,-1],"split_conditions":[3.0340586E1,9.066667E0,1E-45,4.829999E0,6E0,2E0,4.5113438E1,1.8928942E-1,3.399147E-2,4.0538117E-2,-1.7568393E-2,-5.9176005E-2,3.751346E-2,-3.42012E-2,-6.999677E-2],"split_indices":[2,1,14,2,11,13,2,0,0,0,0,0,0,0,0],"split_type":[0,0,1,0,0,0,0,0,0,0,0,0,0,0,0],"sum_hessian":[1.137115E3,6.924336E2,4.4468134E2,4.4672354E2,2.4571007E2,1.1682359E2,3.2785776E2,7.1902003E0,4.3953333E2,4.5884514E1,1.9982556E2,2.8522276E1,8.8301315E1,1.6273903E2,1.6511873E2],"tree_param":{"num_deleted":"0","num_feature":"17","num_nodes":"15","size_leaf_vector":"1"}},{"base_weights":[-6.4227623E-3,1.6219017E-1,-3.9798403E-1,-3.2832298E-1,2.361862E-1,-1.1058826E-2,-5.33159E-1,-4.179198E-2,9.945672E-2,5.7367798E-2,1.5384326E-2,4.010843E-2,-3.3667844E-2,-4.2867642E-2,-8.5225694E-2],"categories":[0,2],"categories_nodes":[2,3],"categories_segments":[0,1],"categories_sizes":[1,1],"default_left":[0,0,1,1,1,0,0,0,0,0,0,0,0,0,0],"id":8,"left_children":[1,3,5,7,9,11,13,-1,-1,-1,-1,-1,-1,-1,-1],"loss_changes":[7.505477E1,2.8920403E1,1.7890797E1,1.2811426E1,1.9116726E1,1.2161225E1,8.088501E0,0E0,0E0,0E0,0E0,0E0,0E0,0E0,0E0],"parents":[2147483647,0,0,1,1,2,2,3,3,4,4,5,5,6,6],"right_children":[2,4,6,8,10,12,14,-1,-1,-1,-1,-1,-1,-1,-1],"split_conditions":[1.5016666E1,5.2333332E1,1E-45,1E-45,4E0,3.25E2,2.9466667E1,-4.179198E-2,9.945672E-2,5.7367798E-2,1.5384326E-2,4.010843E-2,-3.3667844E-2,-4.2867642E-2,-8.5225694E-2],"split_indices":[1,0,14,14,11,16,1,0,0,0,0,0,0,0,0],"split_type":[0,0,1,1,0,0,0,0,0,0,0,0,0,0,0],"sum_hessian":[1.1348319E3,7.9365594E2,3.4117596E2,1.0358213E2,6.900738E2,8.861266E1,2.525633E2,9.7652405E1,5.929723E0,1.3417514E2,5.558987E2,3.9007874E1,4.960479E1,1.9203008E2,6.0533215E1],"tree_param":{"num_deleted":"0","num_feature":"17","num_nodes":"15","size_leaf_vector":"1"}},{"base_weights":[-6.4034457E-3,1.1797535E-1,-4.5675373E-1,4.1685632E-1,2.046511E-2,-5.300146E-1,4.7244874E-1,1.3688037E-1,2.8817361E-2,-5.3074326E-2,9.9650165E-3,-1.5527728E-2,-6.199198E-2,1.0882225E-1,-6.440726E-2],"categories":[0,2,1,3,4],"categories_nodes":[1,2,5],"categories_segments":[0,1,2],"categories_sizes":[1,1,3],"default_left":[0,1,1,0,0,1,0,0,0,0,0,0,0,0,0],"id":9,"left_children":[1,3,5,7,9,11,13,-1,-1,-1,-1,-1,-1,-1,-1],"loss_changes":[6.352462E1,2.5891548E1,1.6957676E1,2.63793E1,2.9346094E1,7.583992E0,1.3395866E1,0E0,0E0,0E0,0E0,0E0,0E0,0E0,0E0],"parents":[2147483647,0,0,1,1,2,2,3,3,4,4,5,5,6,6],"right_children":[2,4,6,8,10,12,14,-1,-1,-1,-1,-1,-1,-1,-1],"split_conditions":[1.87E1,1E-45,1E-45,7E1,5.2E1,1E-45,3.55E2,1.3688037E-1,2.8817361E-2,-5.3074326E-2,9.9650165E-3,-1.5527728E-2,-6.199198E-2,1.0882225E-1,-6.440726E-2],"split_indices":[1,14,14,16,0,5,16,0,0,0,0,0,0,0,0],"split_type":[0,1,1,0,0,1,0,0,0,0,0,0,0,0,0],"sum_hessian":[1.1321223E3,8.876947E2,2.4442757E2,2.1756277E2,6.7013196E2,2.2696281E2,1.7464756E1,2.4760042E1,1.9280273E2,8.346039E1,5.866716E2,4.4443466E1,1.8251935E2,1.1272947E1,6.1918087E0],"tree_param":{"num_deleted":"0","num_feature":"17","num_nodes":"15","size_leaf_vector":"1"}},{"base_weights":[-6.333226E-3,1.303146E-1,-3.5212332E-1,7.21431E-1,8.384978E-2,1.2639712E-1,-4.5335957E-1,1.3566606E-1,4.030013E-2,4.9328185E-3,7.9987176E-2,-1.0889211E-2,1.14437394E-1,-3.346263E-2,-9.1512516E-2],"categories":[2,2],"categories_nodes":[4,5],"categories_segments":[0,1],"categories_sizes":[1,1],"default_left":[0,0,0,0,1,1,0,0,0,0,0,0,0,0,0],"id":10,"left_children":[1,3,5,7,9,11,13,-1,-1,-1,-1,-1,-1,-1,-1],"loss_changes":[5.346642E1,2.2216284E1,1.5583202E1,1.1382713E1,1.8575531E1,1.3716408E1,1.4209106E1,0E0,0E0,0E0,0E0,0E0,0E0,0E0,0E0],"parents":[2147483647,0,0,1,1,2,2,3,3,4,4,5,5,6,6],"right_children":[2,4,6,8,10,12,14,-1,-1,-1,-1,-1,-1,-1,-1],"split_conditions":[1.5016666E1,7.275549E0,1.51E2,1.412714E0,1E-45,1E-45,2.975E1,1.3566606E-1,4.030013E-2,4.9328185E-3,7.9987176E-2,-1.0889211E-2,1.14437394E-1,-3.346263E-2,-9.1512516E-2],"split_indices":[1,2,16,3,14,14,1,0,0,0,0,0,0,0,0],"split_type":[0,0,0,0,1,1,0,0,0,0,0,0,0,0,0],"sum_hessian":[1.1295581E3,8.100637E2,3.1949432E2,5.7976147E1,7.520876E2,5.574622E1,2.637481E2,1.8269733E1,3.9706417E1,7.185147E2,3.357289E1,4.600575E1,9.74047E0,2.1117387E2,5.2574245E1],"tree_param":{"num_deleted":"0","num_feature":"17","num_nodes":"15","size_leaf_vector":"1"}},{"base_weights":[-5.9895813E-3,1.175724E-1,-3.471441E-1,2.4851596E-1,-9.642216E-2,3.488592E-1,-4.5673704E-1,9.1257535E-2,2.1355469E-2,2.5025917E-2,-2.0786302E-2,2.1284276E-3,1.4663173E-1,-5.464385E-2,-1.4689806E-3],"categories":[0,2],"categories_nodes":[4,5],"categories_segments":[0,1],"categories_sizes":[1,1],"default_left":[0,0,0,0,1,1,0,0,0,0,0,0,0,0,0],"id":11,"left_children":[1,3,5,7,9,11,13,-1,-1,-1,-1,-1,-1,-1,-1],"loss_changes":[4.757896E1,2.3243198E1,2.3050255E1,1.17464485E1,1.2232726E1,1.5120651E1,1.0290047E1,0E0,0E0,0E0,0E0,0E0,0E0,0E0,0E0],"parents":[2147483647,0,0,1,1,2,2,3,3,4,4,5,5,6,6],"right_children":[2,4,6,8,10,12,14,-1,-1,-1,-1,-1,-1,-1,-1],"split_conditions":[3.677614E1,9.066667E0,1.08E2,6.0267E0,1E-45,1E-45,1.2811727E1,9.1257535E-2,2.1355469E-2,2.5025917E-2,-2.0786302E-2,2.1284276E-3,1.4663173E-1,-5.464385E-2,-1.4689806E-3],"split_indices":[2,1,16,2,14,14,9,0,0,0,0,0,0,0,0],"split_type":[0,0,0,0,1,1,0,0,0,0,0,0,0,0,0],"sum_hessian":[1.1267329E3,8.276307E2,2.991023E2,5.1334985E2,3.142808E2,4.039273E1,2.5870956E2,2.4419525E1,4.8893036E2,7.61476E1,2.3813321E2,3.202413E1,8.3686E0,2.1487115E2,4.3838413E1],"tree_param":{"num_deleted":"0","num_feature":"17","num_nodes":"15","size_leaf_vector":"1"}},{"base_weights":[-5.6817206E-3,8.9001976E-2,-3.927142E-1,1.0216073E-2,3.9167538E-1,-4.6052152E-1,3.6081922E-1,3.8161464E-2,-5.436065E-3,9.141006E-2,6.8758177E-3,-8.1390245E-3,-5.5623155E-2,-6.14415E-2,8.7007105E-2],"categories":[2,1,3,4],"categories_nodes":[2,5],"categories_segments":[0,1],"categories_sizes":[1,3],"default_left":[0,0,1,0,1,1,0,0,0,0,0,0,0,0,0],"id":12,"left_children":[1,3,5,7,9,11,13,-1,-1,-1,-1,-1,-1,-1,-1],"loss_changes":[4.1255924E1,2.1566792E1,1.1472492E1,1.7259525E1,3.1450655E1,7.3372917E0,9.885759E0,0E0,0E0,0E0,0E0,0E0,0E0,0E0,0E0],"parents":[2147483647,0,0,1,1,2,2,3,3,4,4,5,5,6,6],"right_children":[2,4,6,8,10,12,14,-1,-1,-1,-1,-1,-1,-1,-1],"split_conditions":[1.87E1,1.3780516E1,1E-45,1.55E2,9.0240456E1,1E-45,3E0,3.8161464E-2,-5.436065E-3,9.141006E-2,6.8758177E-3,-8.1390245E-3,-5.5623155E-2,-6.14415E-2,8.7007105E-2],"split_indices":[1,9,14,16,8,5,13,0,0,0,0,0,0,0,0],"split_type":[0,0,1,0,0,1,0,0,0,0,0,0,0,0,0],"sum_hessian":[1.1238525E3,9.0357245E2,2.2028009E2,7.177705E2,1.8580196E2,2.024512E2,1.7828886E1,1.0558908E2,6.1218146E2,7.0276215E1,1.1552574E2,4.1179462E1,1.6127174E2,6.0453444E0,1.1783542E1],"tree_param":{"num_deleted":"0","num_feature":"17","num_nodes":"15","size_leaf_vector":"1"}},{"base_weights":[-5.5100033E-3,9.9096306E-2,-3.1231755E-1,2.506514E-1,-3.839202E-2,1.59258E-1,-4.5826146E-1,1.1337177E-1,2.263001E-2,2.4495043E-2,-1.3217348E-2,-2.8896118E-2,6.860693E-2,-3.452402E-2,-8.664387E-2],"categories":[0],"categories_nodes":[4],"categories_segments":[0],"categories_sizes":[1],"default_left":[0,0,0,0,1,0,0,0,0,0,0,0,0,0,0],"id":13,"left_children":[1,3,5,7,9,11,13,-1,-1,-1,-1,-1,-1,-1,-1],"loss_changes":[3.6054424E1,1.7466991E1,1.9731201E1,8.315889E0,1.17283125E1,1.6313457E1,9.7755165E0,0E0,0E0,0E0,0E0,0E0,0E0,0E0,0E0],"parents":[2147483647,0,0,1,1,2,2,3,3,4,4,5,5,6,6],"right_children":[2,4,6,8,10,12,14,-1,-1,-1,-1,-1,-1,-1,-1],"split_conditions":[3.677614E1,6.516667E0,2.1E2,4.829999E0,1E-45,3E0,2.805E1,1.1337177E-1,2.263001E-2,2.4495043E-2,-1.3217348E-2,-2.8896118E-2,6.860693E-2,-3.452402E-2,-8.664387E-2],"split_indices":[2,1,16,2,14,13,1,0,0,0,0,0,0,0,0],"split_type":[0,0,0,0,1,0,0,0,0,0,0,0,0,0,0],"sum_hessian":[1.1214362E3,8.368041E2,2.846321E2,3.9764835E2,4.3915573E2,6.724809E1,2.1738402E2,9.44866E0,3.881997E2,1.0880641E2,3.303493E2,3.6578247E1,3.0669847E1,1.716901E2,4.5693913E1],"tree_param":{"num_deleted":"0","num_feature":"17","num_nodes":"15","size_leaf_vector":"1"}},{"base_weights":[-5.3253127E-3,7.336952E-2,-3.5090786E-1,3.8574326E-3,3.3322275E-1,-1.7777655E-2,-4.868569E-1,6.1851842E-3,-3.167113E-2,6.7452E-2,-3.2941054E-3,-7.9426326E-2,1.9682107E-2,-5.1018286E-2,1.4332312E-1],"categories":[0,1,2],"categories_nodes":[2,4],"categories_segments":[0,1],"categories_sizes":[1,2],"default_left":[0,0,1,0,1,0,0,0,0,0,0,0,0,0,0],"id":14,"left_children":[1,3,5,7,9,11,13,-1,-1,-1,-1,-1,-1,-1,-1],"loss_changes":[3.048402E1,1.6491394E1,9.4071045E0,1.3430855E1,2.41028E1,1.0369781E1,7.3424377E0,0E0,0E0,0E0,0E0,0E0,0E0,0E0,0E0],"parents":[2147483647,0,0,1,1,2,2,3,3,4,4,5,5,6,6],"right_children":[2,4,6,8,10,12,14,-1,-1,-1,-1,-1,-1,-1,-1],"split_conditions":[1.87E1,1.3780516E1,1E-45,3.677614E1,1E-45,2E0,8.8333336E1,6.1851842E-3,-3.167113E-2,6.7452E-2,-3.2941054E-3,-7.9426326E-2,1.9682107E-2,-5.1018286E-2,1.4332312E-1],"split_indices":[1,9,14,2,6,13,0,0,0,0,0,0,0,0,0],"split_type":[0,0,1,0,1,0,0,0,0,0,0,0,0,0,0],"sum_hessian":[1.1189723E3,9.120673E2,2.0690504E2,7.2037744E2,1.9168987E2,6.0293156E1,1.4661188E2,6.1070184E2,1.0967563E2,9.877793E1,9.2911934E1,1.2470352E1,4.7822803E1,1.4557764E2,1.0342411E0],"tree_param":{"num_deleted":"0","num_feature":"17","num_nodes":"15","size_leaf_vector":"1"}},{"base_weights":[-5.125097E-3,4.8149705E-2,-4.3660292E-1,1.81864E-2,6.242471E-1,-5.3815156E-2,-5.995494E-1,-3.0731244E-2,7.218946E-3,1.7146438E-1,-1.236062E-2,-2.6328653E-2,9.960864E-2,-3.2984592E-2,-8.201095E-2],"categories":[2],"categories_nodes":[1],"categories_segments":[0],"categories_sizes":[1],"default_left":[0,1,0,0,0,0,0,0,0,0,0,0,0,0,0],"id":15,"left_children":[1,3,5,7,9,11,13,-1,-1,-1,-1,-1,-1,-1,-1],"loss_changes":[2.5714186E1,1.7177792E1,7.635931E0,1.6678867E1,4.033355E1,8.576723E0,4.8531876E0,0E0,0E0,0E0,0E0,0E0,0E0,0E0,0E0],"parents":[2147483647,0,0,1,1,2,2,3,3,4,4,5,5,6,6],"right_children":[2,4,6,8,10,12,14,-1,-1,-1,-1,-1,-1,-1,-1],"split_conditions":[2.3516666E1,1E-45,2.39E2,5.2E1,2.52E2,6.885962E1,2.805E1,-3.0731244E-2,7.218946E-3,1.7146438E-1,-1.236062E-2,-2.6328653E-2,9.960864E-2,-3.2984592E-2,-8.201095E-2],"split_indices":[1,14,16,0,16,2,1,0,0,0,0,0,0,0,0],"split_type":[0,1,0,0,0,0,0,0,0,0,0,0,0,0,0],"sum_hessian":[1.1167311E3,9.9479193E2,1.219391E2,9.465905E2,4.8201397E1,3.6806034E1,8.5133064E1,1.340322E2,8.1255835E2,1.9083792E1,2.9117603E1,3.1308699E1,5.497336E0,3.9422382E1,4.5710682E1],"tree_param":{"num_deleted":"0","num_feature":"17","num_nodes":"15","size_leaf_vector":"1"}},{"base_weights":[-4.9114795E-3,1.2761721E-1,-1.5886562E-1,4.3226346E-1,8.0819435E-2,1.4957584E-1,-2.763098E-1,9.0636805E-2,2.0427728E-2,2.1676688E-2,-6.4222785E-3,3.8031783E-2,-2.160772E-2,-2.9557515E-2,1.4202367E-1],"categories":[0,1,2,3],"categories_nodes":[2,4],"categories_segments":[0,1],"categories_sizes":[1,3],"default_left":[0,0,1,0,1,0,0,0,0,0,0,0,0,0,0],"id":16,"left_children":[1,3,5,7,9,11,13,-1,-1,-1,-1,-1,-1,-1,-1],"loss_changes":[2.2777208E1,8.518251E0,1.8748276E1,8.42492E0,1.0292615E1,1.2152168E1,1.2655466E1,0E0,0E0,0E0,0E0,0E0,0E0,0E0,0E0],"parents":[2147483647,0,0,1,1,2,2,3,3,4,4,5,5,6,6],"right_children":[2,4,6,8,10,12,14,-1,-1,-1,-1,-1,-1,-1,-1],"split_conditions":[9.066667E0,7.646368E0,1E-45,1.412714E0,1E-45,1.1006908E2,1.1215768E4,9.0636805E-2,2.0427728E-2,2.1676688E-2,-6.4222785E-3,3.8031783E-2,-2.160772E-2,-2.9557515E-2,1.4202367E-1],"split_indices":[1,2,14,3,5,8,9,0,0,0,0,0,0,0,0],"split_type":[0,0,1,0,1,0,0,0,0,0,0,0,0,0,0],"sum_hessian":[1.1143534E3,5.9893866E2,5.154147E2,7.8657E1,5.202817E2,1.4205768E2,3.73357E2,2.4575636E1,5.4081364E1,2.6830554E2,2.519761E2,8.7071754E1,5.4985928E1,3.699814E2,3.3755898E0],"tree_param":{"num_deleted":"0","num_feature":"17","num_nodes":"15","size_leaf_vector":"1"}},{"base_weights":[-4.508159E-3,4.1200206E-2,-4.0972775E-1,2.5824147E-1,-2.332352E-2,-1.2277735E-2,-5.8840567E-1,4.4151567E-2,-6.9885226E-3,1.9874414E-2,-1.0372716E-2,-2.0804673E-2,8.6612426E-2,-3.7238624E-2,-8.545343E-2],"categories":[0],"categories_nodes":[4],"categories_segments":[0],"categories_sizes":[1],"default_left":[0,1,0,1,1,0,0,0,0,0,0,0,0,0,0],"id":17,"left_children":[1,3,5,7,9,11,13,-1,-1,-1,-1,-1,-1,-1,-1],"loss_changes":[2.0636332E1,1.4028679E1,8.012964E0,1.3834982E1,1.3818387E1,6.3789253E0,4.1595325E0,0E0,0E0,0E0,0E0,0E0,0E0,0E0,0E0],"parents":[2147483647,0,0,1,1,2,2,3,3,4,4,5,5,6,6],"right_children":[2,4,6,8,10,12,14,-1,-1,-1,-1,-1,-1,-1,-1],"split_conditions":[2.38E1,6E0,2.39E2,9.0240456E1,1E-45,6.885962E1,2.975E1,4.4151567E-2,-6.9885226E-3,1.9874414E-2,-1.0372716E-2,-2.0804673E-2,8.6612426E-2,-3.7238624E-2,-8.545343E-2],"split_indices":[1,11,16,8,14,2,1,0,0,0,0,0,0,0,0],"split_type":[0,0,0,0,1,0,0,0,0,0,0,0,0,0,0],"sum_hessian":[1.1122456E3,1.00030994E3,1.1193564E2,2.2854405E2,7.7176587E2,3.5046703E1,7.688893E1,1.4641745E2,8.2126595E1,2.0476138E2,5.670045E2,2.9283464E1,5.763238E0,4.3764275E1,3.312466E1],"tree_param":{"num_deleted":"0","num_feature":"17","num_nodes":"15","size_leaf_vector":"1"}},{"base_weights":[-4.348866E-3,6.4732336E-2,-2.335837E-1,2.5151116E-1,-2.0054462E-3,1.6674867E-1,-3.7110972E-1,5.8053482E-2,1.5584166E-2,3.8462993E-2,-5.6225215E-3,-2.2628503E-2,5.8039E-2,-4.7175925E-2,7.445385E-3],"categories":[1,3,4,5],"categories_nodes":[4],"categories_segments":[0],"categories_sizes":[4],"default_left":[0,0,0,1,1,0,0,0,0,0,0,0,0,0,0],"id":18,"left_children":[1,3,5,7,9,11,13,-1,-1,-1,-1,-1,-1,-1,-1],"loss_changes":[1.761049E1,1.0653195E1,1.4239811E1,6.99129E0,1.3241406E1,1.0948288E1,8.644728E0,0E0,0E0,0E0,0E0,0E0,0E0,0E0,0E0],"parents":[2147483647,0,0,1,1,2,2,3,3,4,4,5,5,6,6],"right_children":[2,4,6,8,10,12,14,-1,-1,-1,-1,-1,-1,-1,-1],"split_conditions":[3.677614E1,2.0862808E0,2.1E2,1.3671036E0,1E-45,3E0,1.2811727E1,5.8053482E-2,1.5584166E-2,3.8462993E-2,-5.6225215E-3,-2.2628503E-2,5.8039E-2,-4.7175925E-2,7.445385E-3],"split_indices":[2,3,16,9,5,13,9,0,0,0,0,0,0,0,0],"split_type":[0,0,0,0,1,0,0,0,0,0,0,0,0,0,0],"sum_hessian":[1.110112E3,8.5359424E2,2.565178E2,2.2397829E2,6.2961597E2,6.553518E1,1.909826E2,4.93133E1,1.7466498E2,7.6685555E1,5.529304E2,3.383694E1,3.169824E1,1.5574269E2,3.523991E1],"tree_param":{"num_deleted":"0","num_feature":"17","num_nodes":"15","size_leaf_vector":"1"}},{"base_weights":[-4.12176E-3,3.5519715E-2,-3.76351E-1,9.305627E-3,5.0886136E-1,-2.21133E-2,-5.482976E-1,-8.0309587E-4,8.4055714E-2,1.22328036E-1,-2.9500281E-2,-9.118136E-2,1.3144748E-2,-3.3085197E-2,-8.308958E-2],"categories":[2],"categories_nodes":[1],"categories_segments":[0],"categories_sizes":[1],"default_left":[0,1,0,0,0,1,0,0,0,0,0,0,0,0,0],"id":19,"left_children":[1,3,5,7,9,11,13,-1,-1,-1,-1,-1,-1,-1,-1],"loss_changes":[1.6384113E1,1.2447947E1,6.497202E0,1.37252035E1,3.0594215E1,5.033418E0,4.1435547E0,0E0,0E0,0E0,0E0,0E0,0E0,0E0,0E0],"parents":[2147483647,0,0,1,1,2,2,3,3,4,4,5,5,6,6],"right_children":[2,4,6,8,10,12,14,-1,-1,-1,-1,-1,-1,-1,-1],"split_conditions":[2.38E1,1E-45,2.39E2,3.582389E3,3.59E2,2.7053465E1,2.975E1,-8.0309587E-4,8.4055714E-2,1.22328036E-1,-2.9500281E-2,-9.118136E-2,1.3144748E-2,-3.3085197E-2,-8.308958E-2],"split_indices":[1,14,16,9,16,8,1,0,0,0,0,0,0,0,0],"split_type":[0,1,0,0,0,0,0,0,0,0,0,0,0,0,0],"sum_hessian":[1.1084512E3,1.0025831E3,1.05868004E2,9.5093896E2,5.16442E1,3.4964375E1,7.090363E1,9.3248145E2,1.8457499E1,2.706709E1,2.4577108E1,4.4197025E0,3.0544672E1,4.129776E1,2.9605873E1],"tree_param":{"num_deleted":"0","num_feature":"17","num_nodes":"15","size_leaf_vector":"1"}},{"base_weights":[-3.999286E-3,7.858717E-2,-1.6258283E-1,7.010532E-2,1.8778468E0,8.096741E-2,-2.7055734E-1,1.0671586E-2,-2.615583E-2,2.3052919E-1,6.735841E-2,3.0890731E-2,-3.1692293E-2,-5.639827E-2,-1.4601446E-2],"categories":[0],"categories_nodes":[2],"categories_segments":[0],"categories_sizes":[1],"default_left":[0,1,1,0,0,0,0,0,0,0,0,0,0,0,0],"id":20,"left_children":[1,3,5,7,9,11,13,-1,-1,-1,-1,-1,-1,-1,-1],"loss_changes":[1.452091E1,1.0995031E1,1.0006096E1,8.851879E0,1.8813801E-1,1.07444515E1,9.538919E0,0E0,0E0,0E0,0E0,0E0,0E0,0E0,0E0],"parents":[2147483647,0,0,1,1,2,2,3,3,4,4,5,5,6,6],"right_children":[2,4,6,8,10,12,14,-1,-1,-1,-1,-1,-1,-1,-1],"split_conditions":[1.1616667E1,1.56E2,1E-45,3.677614E1,1.81E2,1.10735565E2,5E1,1.0671586E-2,-2.615583E-2,2.3052919E-1,6.735841E-2,3.0890731E-2,-3.1692293E-2,-5.639827E-2,-1.4601446E-2],"split_indices":[1,11,14,2,11,8,0,0,0,0,0,0,0,0,0],"split_type":[0,0,1,0,0,0,0,0,0,0,0,0,0,0,0],"sum_hessian":[1.1067572E3,7.2809E2,3.7866714E2,7.2570795E2,2.3820798E0,1.1638841E2,2.6227875E2,6.5417535E2,7.153261E1,1.0832947E0,1.298785E0,7.413961E1,4.2248802E1,7.710039E1,1.8517834E2],"tree_param":{"num_deleted":"0","num_feature":"17","num_nodes":"15","size_leaf_vector":"1"}},{"base_weights":[-3.6375804E-3,3.087622E-2,-3.344367E-1,-1.9572528E-2,2.4767475E-1,1.0420084E-1,-3.6609402E-1,2.4892159E-2,-6.983224E-3,6.1058696E-2,-7.6297246E-4,-5.347959E-2,-1.4119655E-2],"categories":[],"categories_nodes":[],"categories_segments":[],"categories_sizes":[],"default_left":[0,0,0,0,1,0,0,0,0,0,0,0,0],"id":21,"left_children":[1,3,5,7,9,-1,11,-1,-1,-1,-1,-1,-1],"loss_changes":[1.2636991E1,1.0967972E1,4.938096E0,1.1002889E1,1.7543173E1,0E0,3.8308496E0,0E0,0E0,0E0,0E0,0E0,0E0],"parents":[2147483647,0,0,1,1,2,2,3,3,4,4,6,6],"right_children":[2,4,6,8,10,-1,12,-1,-1,-1,-1,-1,-1],"split_conditions":[2.3516666E1,1.6373537E1,4E0,1.55E2,9.0240456E1,1.0420084E-1,2.00001E0,2.4892159E-2,-6.983224E-3,6.1058696E-2,-7.6297246E-4,-5.347959E-2,-1.4119655E-2],"split_indices":[1,9,0,16,8,0,7,0,0,0,0,0,0],"split_type":[0,0,0,0,0,0,0,0,0,0,0,0,0],"sum_hessian":[1.1049397E3,1.00136896E3,1.0357078E2,8.130768E2,1.8829222E2,1.6109775E0,1.019598E2,1.2757914E2,6.854976E2,7.7184204E1,1.1110802E2,5.747114E1,4.4488655E1],"tree_param":{"num_deleted":"0","num_feature":"17","num_nodes":"13","size_leaf_vector":"1"}},{"base_weights":[-3.3656496E-3,1.15330055E-1,-9.092736E-2,8.959088E-2,6.574281E-1,1.1519659E-1,-1.7410071E-1,1.48379225E-2,-1.7467422E-2,1.2387874E-1,1.8678723E-2,6.373554E-2,3.2686372E-3,-1.955284E-2,1.3379996E-1],"categories":[0],"categories_nodes":[2],"categories_segments":[0],"categories_sizes":[1],"default_left":[0,1,1,0,0,0,0,0,0,0,0,0,0,0,0],"id":22,"left_children":[1,3,5,7,9,11,13,-1,-1,-1,-1,-1,-1,-1,-1],"loss_changes":[1.1487531E1,6.4884586E0,1.0924433E1,7.0034146E0,5.5451183E0,7.8835E0,1.4957968E1,0E0,0E0,0E0,0E0,0E0,0E0,0E0,0E0],"parents":[2147483647,0,0,1,1,2,2,3,3,4,4,5,5,6,6],"right_children":[2,4,6,8,10,12,14,-1,-1,-1,-1,-1,-1,-1,-1],"split_conditions":[6.516667E0,8E1,1E-45,2.712377E1,2.55E0,5.6E1,1.1215768E4,1.48379225E-2,-1.7467422E-2,1.2387874E-1,1.8678723E-2,6.373554E-2,3.2686372E-3,-1.955284E-2,1.3379996E-1],"split_indices":[1,11,14,2,1,16,9,0,0,0,0,0,0,0,0],"split_type":[0,0,1,0,0,0,0,0,0,0,0,0,0,0,0],"sum_hessian":[1.103284E3,4.6823853E2,6.350455E2,4.4812643E2,2.011208E1,1.8246571E2,4.5257977E2,3.669364E2,8.119005E1,8.267508E0,1.1844572E1,2.3980795E1,1.5848492E2,4.471145E2,5.465284E0],"tree_param":{"num_deleted":"0","num_feature":"17","num_nodes":"15","size_leaf_vector":"1"}},{"base_weights":[-2.9459703E-3,2.6962113E-2,-3.119638E-1,4.836778E-3,4.1196197E-1,1.4822839E-2,-4.8360774E-1,2.0195856E-3,-8.672548E-2,9.781884E-2,-2.8399533E-2,-8.9125656E-2,1.6148496E-2,1.972271E-4,-6.262995E-2],"categories":[2],"categories_nodes":[1],"categories_segments":[0],"categories_sizes":[1],"default_left":[0,1,0,0,0,1,0,0,0,0,0,0,0,0,0],"id":23,"left_children":[1,3,5,7,9,11,13,-1,-1,-1,-1,-1,-1,-1,-1],"loss_changes":[1.0196149E1,8.567051E0,5.4677296E0,1.27731905E1,2.1816631E1,4.7279086E0,4.4257555E0,0E0,0E0,0E0,0E0,0E0,0E0,0E0,0E0],"parents":[2147483647,0,0,1,1,2,2,3,3,4,4,5,5,6,6],"right_children":[2,4,6,8,10,12,14,-1,-1,-1,-1,-1,-1,-1,-1],"split_conditions":[2.38E1,1E-45,2.39E2,6.1333332E1,3.59E2,2.7053465E1,4.5535686E1,2.0195856E-3,-8.672548E-2,9.781884E-2,-2.8399533E-2,-8.9125656E-2,1.6148496E-2,1.972271E-4,-6.262995E-2],"split_indices":[1,14,16,2,16,8,8,0,0,0,0,0,0,0,0],"split_type":[0,1,0,0,0,0,0,0,0,0,0,0,0,0,0],"sum_hessian":[1.1013148E3,1.0049628E3,9.635191E1,9.5130536E2,5.365746E1,3.3495224E1,6.2856686E1,9.358011E2,1.5504273E1,2.936266E1,2.42948E1,3.9590786E0,2.9536148E1,1.4499856E1,4.835683E1],"tree_param":{"num_deleted":"0","num_feature":"17","num_nodes":"15","size_leaf_vector":"1"}},{"base_weights":[-3.0018946E-3,2.6280552E-2,-3.1519508E-1,-5.1693108E-2,1.758141E-1,9.529112E-1,-3.7126356E-1,1.4542356E-3,-4.1293513E-2,1.0037493E-1,3.9584762E-3,1.6390353E-1,-2.7024234E-2,3.0034795E-2,-4.636111E-2],"categories":[],"categories_nodes":[],"categories_segments":[],"categories_sizes":[],"default_left":[0,0,0,0,0,0,0,0,0,0,0,0,0,0,0],"id":24,"left_children":[1,3,5,7,9,11,13,-1,-1,-1,-1,-1,-1,-1,-1],"loss_changes":[1.0071516E1,1.1754147E1,7.0708942E0,1.5866163E1,3.8925213E1,4.035345E0,5.7951584E0,0E0,0E0,0E0,0E0,0E0,0E0,0E0,0E0],"parents":[2147483647,0,0,1,1,2,2,3,3,4,4,5,5,6,6],"right_children":[2,4,6,8,10,12,14,-1,-1,-1,-1,-1,-1,-1,-1],"split_conditions":[1E0,3E0,6.72642E0,4.2691013E1,1.12E2,7.0833335E0,1.7E0,1.4542356E-3,-4.1293513E-2,1.0037493E-1,3.9584762E-3,1.6390353E-1,-2.7024234E-2,3.0034795E-2,-4.636111E-2],"split_indices":[15,13,8,2,16,1,1,0,0,0,0,0,0,0,0],"split_type":[0,0,0,0,0,0,0,0,0,0,0,0,0,0,0],"sum_hessian":[1.0997958E3,1.0063226E3,9.347313E1,6.618552E2,3.4446738E2,3.2805736E0,9.019255E1,5.601152E2,1.0174007E2,4.7770943E1,2.966964E2,1.8838346E0,1.396739E0,1.0630227E1,7.9562325E1],"tree_param":{"num_deleted":"0","num_feature":"17","num_nodes":"15","size_leaf_vector":"1"}},{"base_weights":[-2.8227523E-3,1.6739643E-1,-5.293563E-2,-1.2316471E-1,3.3872703E-1,4.524277E-2,-1.6768487E-1,4.092704E-2,-4.5044553E-2,1.7656798E-2,7.38368E-2,-4.447148E-3,2.1351008E-2,1.4824991E-2,-2.4494877E-2],"categories":[],"categories_nodes":[],"categories_segments":[],"categories_sizes":[],"default_left":[1,1,0,1,0,0,0,0,0,0,0,0,0,0,0],"id":25,"left_children":[1,3,5,7,9,11,13,-1,-1,-1,-1,-1,-1,-1,-1],"loss_changes":[9.38424E0,1.2498114E1,9.582083E0,1.6485561E1,1.0087576E1,6.9353805E0,9.607013E0,0E0,0E0,0E0,0E0,0E0,0E0,0E0,0E0],"parents":[2147483647,0,0,1,1,2,2,3,3,4,4,5,5,6,6],"right_children":[2,4,6,8,10,12,14,-1,-1,-1,-1,-1,-1,-1,-1],"split_conditions":[6E0,1E0,9.066667E0,1E0,1.8778032E1,3.4E1,1.51E2,4.092704E-2,-4.5044553E-2,1.7656798E-2,7.38368E-2,-4.447148E-3,2.1351008E-2,1.4824991E-2,-2.4494877E-2],"split_indices":[11,7,1,10,3,11,16,0,0,0,0,0,0,0,0],"split_type":[0,0,0,0,0,0,0,0,0,0,0,0,0,0,0],"sum_hessian":[1.0980842E3,2.4921873E2,8.488655E2,9.2547585E1,1.5667116E2,4.5779013E2,3.9107535E2,3.5136093E1,5.741149E1,1.1247494E2,4.419622E1,2.990714E2,1.5871872E2,7.666613E1,3.144092E2],"tree_param":{"num_deleted":"0","num_feature":"17","num_nodes":"15","size_leaf_vector":"1"}},{"base_weights":[-2.7081831E-3,2.3807889E-2,-2.9272866E-1,-4.667825E-2,1.5688139E-1,-3.4331998E-1,8.994182E-1,1.1748978E-3,-3.8059957E-2,5.186492E-2,-8.057653E-3,1.8898267E-2,-4.676301E-2,1.7310403E-1,-5.86099E-2],"categories":[],"categories_nodes":[],"categories_segments":[],"categories_sizes":[],"default_left":[0,0,0,0,0,0,0,0,0,0,0,0,0,0,0],"id":26,"left_children":[1,3,5,7,9,11,13,-1,-1,-1,-1,-1,-1,-1,-1],"loss_changes":[8.445821E0,9.4467325E0,5.8574934E0,1.2854893E1,2.999641E1,5.9761057E0,5.982706E0,0E0,0E0,0E0,0E0,0E0,0E0,0E0,0E0],"parents":[2147483647,0,0,1,1,2,2,3,3,4,4,5,5,6,6],"right_children":[2,4,6,8,10,12,14,-1,-1,-1,-1,-1,-1,-1,-1],"split_conditions":[1E0,3E0,9.2E1,4.2691013E1,3.81E2,2.3070719E1,2.141314E1,1.1748978E-3,-3.8059957E-2,5.186492E-2,-8.057653E-3,1.8898267E-2,-4.676301E-2,1.7310403E-1,-5.86099E-2],"split_indices":[15,13,11,2,16,8,2,0,0,0,0,0,0,0,0],"split_type":[0,0,0,0,0,0,0,0,0,0,0,0,0,0,0],"sum_hessian":[1.0963508E3,1.00535114E3,9.099961E1,6.576549E2,3.4769626E2,8.797809E1,3.0215232E0,5.605403E2,9.7114624E1,1.3731395E2,2.1038231E2,1.655754E1,7.142055E1,1.8311379E0,1.1903853E0],"tree_param":{"num_deleted":"0","num_feature":"17","num_nodes":"15","size_leaf_vector":"1"}},{"base_weights":[-2.6125188E-3,-5.6438353E-2,1.4051226E-1,-2.0200904E-2,-4.013878E-1,4.3956327E-1,-4.737144E-2,1.9461177E-2,-6.5725157E-3,5.8315136E-2,-4.6500098E-2,3.005062E-2,9.49602E-2,2.8807772E-2,-2.3516336E-2],"categories":[1,2],"categories_nodes":[6],"categories_segments":[0],"categories_sizes":[2],"default_left":[0,0,1,0,0,1,1,0,0,0,0,0,0,0,0],"id":27,"left_children":[1,3,5,7,9,11,13,-1,-1,-1,-1,-1,-1,-1,-1],"loss_changes":[8.450947E0,9.9563E0,1.6865984E1,7.077465E0,5.01396E0,7.9261017E0,1.1723568E1,0E0,0E0,0E0,0E0,0E0,0E0,0E0,0E0],"parents":[2147483647,0,0,1,1,2,2,3,3,4,4,5,5,6,6],"right_children":[2,4,6,8,10,12,14,-1,-1,-1,-1,-1,-1,-1,-1],"split_conditions":[9.822789E0,4.4169685E1,9.103572E1,1.55E2,5.383333E0,5.8270176E1,1E-45,1.9461177E-2,-6.5725157E-3,5.8315136E-2,-4.6500098E-2,3.005062E-2,9.49602E-2,2.8807772E-2,-2.3516336E-2],"split_indices":[9,3,8,16,1,8,6,0,0,0,0,0,0,0,0],"split_type":[0,0,0,0,0,0,1,0,0,0,0,0,0,0,0],"sum_hessian":[1.0949534E3,7.96147E2,2.9880634E2,7.214194E2,7.472761E1,1.1477752E2,1.8402881E2,1.2557954E2,5.9583984E2,4.039604E0,7.0688E1,9.143724E1,2.3340284E1,6.585652E1,1.1817229E2],"tree_param":{"num_deleted":"0","num_feature":"17","num_nodes":"15","size_leaf_vector":"1"}},{"base_weights":[-2.4313338E-3,1.6238937E-2,-3.9433214E-1,1.0128409E-2,1.265485E0,1.6526955E-1,-6.898084E-1,2.9146895E-2,-1.4849018E-3,1.9417016E-1,-5.8449924E-2,-2.739033E-2,7.091989E-2,4.445944E-2,-7.6721705E-2],"categories":[],"categories_nodes":[],"categories_segments":[],"categories_sizes":[],"default_left":[0,1,0,0,1,1,0,0,0,0,0,0,0,0,0],"id":28,"left_children":[1,3,5,7,9,11,13,-1,-1,-1,-1,-1,-1,-1,-1],"loss_changes":[8.014809E0,7.9695716E0,8.350227E0,7.3239303E0,7.4923706E0,4.49866E0,3.2206469E0,0E0,0E0,0E0,0E0,0E0,0E0,0E0,0E0],"parents":[2147483647,0,0,1,1,2,2,3,3,4,4,5,5,6,6],"right_children":[2,4,6,8,10,12,14,-1,-1,-1,-1,-1,-1,-1,-1],"split_conditions":[2.805E1,1.56E2,1.85E2,7.646368E0,1.00911415E2,5.2230763E0,3.245291E1,2.9146895E-2,-1.4849018E-3,1.9417016E-1,-5.8449924E-2,-2.739033E-2,7.091989E-2,4.445944E-2,-7.6721705E-2],"split_indices":[1,11,16,2,8,9,2,0,0,0,0,0,0,0,0],"split_type":[0,0,0,0,0,0,0,0,0,0,0,0,0,0,0],"sum_hessian":[1.0935088E3,1.0446976E3,4.8811142E1,1.0406157E3,4.081932E0,1.7019196E1,3.1791945E1,8.3982704E1,9.5663293E2,2.9529688E0,1.128963E0,9.691024E0,7.328172E0,1.7278148E0,3.0064129E1],"tree_param":{"num_deleted":"0","num_feature":"17","num_nodes":"15","size_leaf_vector":"1"}},{"base_weights":[-2.1833356E-3,1.3083299E-1,-5.377133E-2,-1.8902235E-1,2.2743596E-1,1.9459555E-1,-6.181341E-2,-2.8268576E-2,1.1535623E-1,2.9459229E-2,-2.3513546E-2,-3.7604302E-2,-1.5459041E-3],"categories":[0,0,1,2,4],"categories_nodes":[0,2],"categories_segments":[0,1],"categories_sizes":[1,4],"default_left":[1,0,0,0,0,0,0,0,0,0,0,0,0],"id":29,"left_children":[1,3,5,7,9,-1,11,-1,-1,-1,-1,-1,-1],"loss_changes":[7.5100274E0,9.493291E0,1.280188E1,9.3161545E0,7.380454E0,0E0,1.144839E1,0E0,0E0,0E0,0E0,0E0,0E0],"parents":[2147483647,0,0,1,1,2,2,3,3,4,4,6,6],"right_children":[2,4,6,8,10,-1,12,-1,-1,-1,-1,-1,-1],"split_conditions":[1E-45,2E0,1E-45,9.59E2,1E0,1.9459555E-1,5E1,-2.8268576E-2,1.1535623E-1,2.9459229E-2,-2.3513546E-2,-3.7604302E-2,-1.5459041E-3],"split_indices":[14,13,6,16,15,0,0,0,0,0,0,0,0],"split_type":[1,0,1,0,0,0,0,0,0,0,0,0,0],"sum_hessian":[1.0924048E3,3.0484512E2,7.8755963E2,7.049091E1,2.343542E2,2.18935E0,7.853703E2,6.663188E1,3.8590274E0,2.0496101E2,2.9393194E1,1.0004787E2,6.8532245E2],"tree_param":{"num_deleted":"0","num_feature":"17","num_nodes":"13","size_leaf_vector":"1"}},{"base_weights":[-1.9191598E-3,4.6174983E-3,-9.865643E-2,-4.6533585E-2,1.3980316E-1,-1.317941E-3,-3.7338786E-2,4.0237315E-2,-3.0336392E-3],"categories":[],"categories_nodes":[],"categories_segments":[],"categories_sizes":[],"default_left":[0,0,0,0,1,0,0,0,0],"id":30,"left_children":[1,3,-1,5,7,-1,-1,-1,-1],"loss_changes":[7.0331173E0,7.514797E0,0E0,8.591261E0,1.3339011E1,0E0,0E0,0E0,0E0],"parents":[2147483647,0,0,1,1,3,3,4,4],"right_children":[2,4,-1,6,8,-1,-1,-1,-1],"split_conditions":[1.187E3,9.822789E0,-9.865643E-2,4.4169685E1,9.103572E1,-1.317941E-3,-3.7338786E-2,4.0237315E-2,-3.0336392E-3],"split_indices":[16,9,0,3,8,0,0,0,0],"split_type":[0,0,0,0,0,0,0,0,0],"sum_hessian":[1.091021E3,1.0848147E3,6.206332E0,7.874992E2,2.9731546E2,7.1552325E2,7.1975975E1,1.1636648E2,1.8094899E2],"tree_param":{"num_deleted":"0","num_feature":"17","num_nodes":"9","size_leaf_vector":"1"}},{"base_weights":[-1.9305476E-3,-7.2836447E-1,6.390468E-3,6.684849E-2,-1.0083188E0,8.4986374E-2,-8.094481E-2,-1.0908995E-1,-1.787016E-2,-3.117497E-3,2.8476337E-2,-9.548958E-3,1.0234251E-1],"categories":[1,3],"categories_nodes":[2],"categories_segments":[0],"categories_sizes":[2],"default_left":[0,0,1,0,1,0,1,0,0,0,0,0,0],"id":31,"left_children":[1,3,5,-1,7,9,11,-1,-1,-1,-1,-1,-1],"loss_changes":[6.5999775E0,5.509529E0,7.418373E0,0E0,5.380783E-1,1.3208381E1,8.320994E0,0E0,0E0,0E0,0E0,0E0,0E0],"parents":[2147483647,0,0,1,1,2,2,4,4,5,5,6,6],"right_children":[2,4,6,-1,8,10,12,-1,-1,-1,-1,-1,-1],"split_conditions":[4E0,1.1068586E1,1E-45,6.684849E-2,1.4082544E2,3E0,1.6950779E3,-1.0908995E-1,-1.787016E-2,-3.117497E-3,2.8476337E-2,-9.548958E-3,1.0234251E-1],"split_indices":[16,2,5,0,8,13,9,0,0,0,0,0,0],"split_type":[0,0,1,0,0,0,0,0,0,0,0,0,0],"sum_hessian":[1.0900977E3,1.1365255E1,1.0787324E3,1.6658016E0,9.699453E0,5.677881E2,5.1094437E2,8.534937E0,1.1645163E0,3.5956256E2,2.0822551E2,5.0520428E2,5.7401094E0],"tree_param":{"num_deleted":"0","num_feature":"17","num_nodes":"13","size_leaf_vector":"1"}},{"base_weights":[-1.8101591E-3,2.1509938E-2,-2.6452494E-1,1.4898938E-1,-2.7760532E-2,8.0461305E-1,-3.1817707E-1,7.3941246E-2,7.6063015E-3,-6.802261E-4,-6.759092E-2,1.3986088E-1,-3.147937E-2,8.56189E-2,-3.6382433E-2],"categories":[0],"categories_nodes":[1],"categories_segments":[0],"categories_sizes":[1],"default_left":[0,1,0,0,0,0,0,0,0,0,0,0,0,0,0],"id":32,"left_children":[1,3,5,7,9,11,13,-1,-1,-1,-1,-1,-1,-1,-1],"loss_changes":[6.688221E0,6.3023753E0,5.361357E0,1.1986116E1,9.831192E0,3.4566014E0,4.893075E0,0E0,0E0,0E0,0E0,0E0,0E0,0E0,0E0],"parents":[2147483647,0,0,1,1,2,2,3,3,4,4,5,5,6,6],"right_children":[2,4,6,8,10,12,14,-1,-1,-1,-1,-1,-1,-1,-1],"split_conditions":[1E0,1E-45,6.72642E0,5.6E1,6.210171E1,7.7666664E1,2.1839093E-1,7.3941246E-2,7.6063015E-3,-6.802261E-4,-6.759092E-2,1.3986088E-1,-3.147937E-2,8.56189E-2,-3.6382433E-2],"split_indices":[15,14,8,16,2,0,3,0,0,0,0,0,0,0,0],"split_type":[0,1,0,0,0,0,0,0,0,0,0,0,0,0,0],"sum_hessian":[1.0897522E3,1.0017492E3,8.8002975E1,2.7868155E2,7.230677E2,3.5363572E0,8.446662E1,2.9632563E1,2.4904897E2,7.013981E2,2.1669626E1,2.1474345E0,1.3889226E0,2.4959788E0,8.197064E1],"tree_param":{"num_deleted":"0","num_feature":"17","num_nodes":"15","size_leaf_vector":"1"}},{"base_weights":[-1.611964E-3,4.356742E-3,-9.639048E-2,2.0441258E-2,-3.5614735E-1,1.4257755E-3,9.979855E-2,1.551186E-2,-6.515252E-2],"categories":[],"categories_nodes":[],"categories_segments":[],"categories_sizes":[],"default_left":[0,0,0,0,0,0,0,0,0],"id":33,"left_children":[1,3,-1,5,7,-1,-1,-1,-1],"loss_changes":[6.26106E0,6.29077E0,0E0,6.2619104E0,7.098796E0,0E0,0E0,0E0,0E0],"parents":[2147483647,0,0,1,1,3,3,4,4],"right_children":[2,4,-1,6,8,-1,-1,-1,-1],"split_conditions":[1.187E3,2.805E1,-9.639048E-2,1.56E2,1.85E2,1.4257755E-3,9.979855E-2,1.551186E-2,-6.515252E-2],"split_indices":[16,1,0,11,16,0,0,0,0],"split_type":[0,0,0,0,0,0,0,0,0],"sum_hessian":[1.0883539E3,1.0826343E3,5.719661E0,1.0372968E3,4.5337498E1,1.0317847E3,5.5120206E0,1.6775621E1,2.8561878E1],"tree_param":{"num_deleted":"0","num_feature":"17","num_nodes":"9","size_leaf_vector":"1"}},{"base_weights":[-1.583197E-3,2.7761126E-1,-2.1367356E-2,5.235395E-1,-3.1157194E-2,4.1514626E-3,-3.2674876E-1,6.652776E-4,9.98522E-2,9.125256E-2,-3.453305E-2,-8.308677E-2,1.4233753E-3,7.506242E-2,-3.991405E-2],"categories":[1,2,3,1,4,5],"categories_nodes":[1,2,4],"categories_segments":[0,2,3],"categories_sizes":[2,1,3],"default_left":[0,1,1,0,1,0,0,0,0,0,0,0,0,0,0],"id":34,"left_children":[1,3,5,7,9,11,13,-1,-1,-1,-1,-1,-1,-1,-1],"loss_changes":[6.020598E0,5.493234E0,7.9328203E0,9.864162E0,1.0075712E1,7.9278603E0,6.4222336E0,0E0,0E0,0E0,0E0,0E0,0E0,0E0,0E0],"parents":[2147483647,0,0,1,1,2,2,3,3,4,4,5,5,6,6],"right_children":[2,4,6,8,10,12,14,-1,-1,-1,-1,-1,-1,-1,-1],"split_conditions":[7.275549E0,1E-45,1E-45,3.016291E1,1E-45,4E0,8.5E-1,6.652776E-4,9.98522E-2,9.125256E-2,-3.453305E-2,-8.308677E-2,1.4233753E-3,7.506242E-2,-3.991405E-2],"split_indices":[2,6,5,8,5,16,1,0,0,0,0,0,0,0,0],"split_type":[0,1,1,0,1,0,0,0,0,0,0,0,0,0,0],"sum_hessian":[1.0878978E3,7.112656E1,1.0167713E3,3.9204964E1,3.1921589E1,9.3926886E2,7.750243E1,1.9259905E1,1.994506E1,7.497327E0,2.4424261E1,1.0234507E1,9.2903436E2,4.289836E0,7.32126E1],"tree_param":{"num_deleted":"0","num_feature":"17","num_nodes":"15","size_leaf_vector":"1"}},{"base_weights":[-1.4712873E-3,3.997488E-3,-9.426181E-2,-4.140774E-2,1.2241392E-1,9.784087E-2,-5.1082517E-3,1.5130955E-3,4.7412302E-2],"categories":[],"categories_nodes":[],"categories_segments":[],"categories_sizes":[],"default_left":[0,0,0,0,0,0,0,0,0],"id":35,"left_children":[1,3,-1,5,7,-1,-1,-1,-1],"loss_changes":[5.6058035E0,5.8287745E0,0E0,7.782114E0,1.132977E1,0E0,0E0,0E0,0E0],"parents":[2147483647,0,0,1,1,3,3,4,4],"right_children":[2,4,-1,6,8,-1,-1,-1,-1],"split_conditions":[1.187E3,9.822789E0,-9.426181E-2,4.829999E0,8.1333336E1,9.784087E-2,-5.1082517E-3,1.5130955E-3,4.7412302E-2],"split_indices":[16,9,0,2,0,0,0,0,0],"split_type":[0,0,0,0,0,0,0,0,0],"sum_hessian":[1.0874247E3,1.0821324E3,5.292256E0,7.826759E2,2.994565E2,6.4143147E0,7.762616E2,2.3026198E2,6.9194534E1],"tree_param":{"num_deleted":"0","num_feature":"17","num_nodes":"9","size_leaf_vector":"1"}},{"base_weights":[-1.3623503E-3,1.9569531E-2,-2.4264857E-1,-7.115619E-1,2.695693E-2,-3.528065E-1,2.7533147E-1,7.0571624E-2,-1.05472825E-1,6.735823E-2,1.1015888E-3,-4.014848E-2,8.804833E-2,1.048188E-1,-2.943166E-2],"categories":[1,2,3],"categories_nodes":[6],"categories_segments":[0],"categories_sizes":[3],"default_left":[0,0,0,0,0,0,1,0,0,0,0,0,0,0,0],"id":36,"left_children":[1,3,5,7,9,11,13,-1,-1,-1,-1,-1,-1,-1,-1],"loss_changes":[5.497127E0,5.4289412E0,5.0546904E0,5.6349163E0,1.0223534E1,4.6810884E0,7.263958E0,0E0,0E0,0E0,0E0,0E0,0E0,0E0,0E0],"parents":[2147483647,0,0,1,1,2,2,3,3,4,4,5,5,6,6],"right_children":[2,4,6,8,10,12,14,-1,-1,-1,-1,-1,-1,-1,-1],"split_conditions":[1E0,4E0,8.51E2,1.1068586E1,2.1E1,4E0,1E-45,7.0571624E-2,-1.05472825E-1,6.735823E-2,1.1015888E-3,-4.014848E-2,8.804833E-2,1.048188E-1,-2.943166E-2],"split_indices":[15,16,16,2,16,13,5,0,0,0,0,0,0,0,0],"split_type":[0,0,0,0,0,0,1,0,0,0,0,0,0,0,0],"sum_hessian":[1.086476E3,1.0005922E3,8.5883736E1,9.055422E0,9.915368E2,7.1085075E1,1.4798663E1,1.5592465E0,7.4961753E0,2.2863352E1,9.6867346E2,6.903471E1,2.0503592E0,5.9228773E0,8.875786E0],"tree_param":{"num_deleted":"0","num_feature":"17","num_nodes":"15","size_leaf_vector":"1"}},{"base_weights":[-1.2118861E-3,1.05255395E-2,-4.09111E-1,2.0604897E-1,-1.9307585E-2,2.4965003E-1,-6.798342E-1,1.1504984E-2,6.479441E-2,1.2139733E-2,-6.741172E-3,9.5023185E-2,-3.604574E-2,-7.590147E-2,4.5722853E-2],"categories":[1,3,4,5],"categories_nodes":[1],"categories_segments":[0],"categories_sizes":[4],"default_left":[0,1,0,0,0,0,0,0,0,0,0,0,0,0,0],"id":37,"left_children":[1,3,5,7,9,11,13,-1,-1,-1,-1,-1,-1,-1,-1],"loss_changes":[5.2086663E0,6.1730423E0,5.5966325E0,5.5588775E0,6.2250934E0,4.443477E0,2.3129501E0,0E0,0E0,0E0,0E0,0E0,0E0,0E0,0E0],"parents":[2147483647,0,0,1,1,2,2,3,3,4,4,5,5,6,6],"right_children":[2,4,6,8,10,12,14,-1,-1,-1,-1,-1,-1,-1,-1],"split_conditions":[3.06E1,1E-45,1.08E2,1.6770073E1,2.0862808E0,1E0,1.137E3,1.1504984E-2,6.479441E-2,1.2139733E-2,-6.741172E-3,9.5023185E-2,-3.604574E-2,-7.590147E-2,4.5722853E-2],"split_indices":[1,5,16,9,3,10,16,0,0,0,0,0,0,0,0],"split_type":[0,1,0,0,0,0,0,0,0,0,0,0,0,0,0],"sum_hessian":[1.0860305E3,1.0566007E3,2.9429823E1,1.3909285E2,9.175079E2,8.594453E0,2.083537E1,1.1638593E2,2.2706913E1,2.3337137E2,6.841365E2,3.741097E0,4.8533564E0,1.9789768E1,1.0456022E0],"tree_param":{"num_deleted":"0","num_feature":"17","num_nodes":"15","size_leaf_vector":"1"}},{"base_weights":[-1.1081512E-3,3.937638E-3,-9.2287935E-2,-6.1826897E-3,4.5433092E-1,1.1903703E-3,-4.3567576E-2,2.7545664E-1,2.2573518E-2],"categories":[0,1,3,4],"categories_nodes":[4],"categories_segments":[0],"categories_sizes":[4],"default_left":[0,0,0,0,0,0,0,0,0],"id":38,"left_children":[1,3,-1,5,7,-1,-1,-1,-1],"loss_changes":[5.0565505E0,4.93234E0,0E0,8.2291565E0,1.1882426E1,0E0,0E0,0E0,0E0],"parents":[2147483647,0,0,1,1,3,3,4,4],"right_children":[2,4,-1,6,8,-1,-1,-1,-1],"split_conditions":[1.187E3,3.582389E3,-9.2287935E-2,1.03380325E2,1E-45,1.1903703E-3,-4.3567576E-2,2.7545664E-1,2.2573518E-2],"split_indices":[16,9,0,9,6,0,0,0,0],"split_type":[0,0,0,0,1,0,0,0,0],"sum_hessian":[1.0854004E3,1.0804816E3,4.9188437E0,1.0577013E3,2.2780252E1,1.01589325E3,4.1808025E1,1.0603707E0,2.1719883E1],"tree_param":{"num_deleted":"0","num_feature":"17","num_nodes":"9","size_leaf_vector":"1"}},{"base_weights":[-9.1203145E-4,-5.7926783E-3,8.833958E-1,1.15066394E-1,-4.3134276E-2,1.3868911E0,-6.0102265E-2,2.1366712E-2,-2.2627309E-2,3.199109E-3,-1.8514488E-2,-1.5967201E-2,1.9351314E-1],"categories":[],"categories_nodes":[],"categories_segments":[],"categories_sizes":[],"default_left":[1,1,1,1,1,0,0,0,0,0,0,0,0],"id":39,"left_children":[1,3,5,7,9,11,-1,-1,-1,-1,-1,-1,-1],"loss_changes":[4.6935754E0,4.885081E0,5.294826E0,8.647842E0,8.826939E0,4.344576E0,0E0,0E0,0E0,0E0,0E0,0E0,0E0],"parents":[2147483647,0,0,1,1,2,2,3,3,4,4,5,5],"right_children":[2,4,6,8,10,12,-1,-1,-1,-1,-1,-1,-1],"split_conditions":[1.56E2,6E0,1.00911415E2,8.5909355E1,1E0,2.5295855E1,-6.0102265E-2,2.1366712E-2,-2.2627309E-2,3.199109E-3,-1.8514488E-2,-1.5967201E-2,1.9351314E-1],"split_indices":[11,11,8,9,7,8,0,0,0,0,0,0,0],"split_type":[0,0,0,0,0,0,0,0,0,0,0,0,0],"sum_hessian":[1.0852986E3,1.0803296E3,4.9690747E0,2.545091E2,8.258205E2,3.7595763E0,1.2094984E0,1.9775795E2,5.6751137E1,5.4060724E2,2.852132E2,1.1694269E0,2.5901492E0],"tree_param":{"num_deleted":"0","num_feature":"17","num_nodes":"13","size_leaf_vector":"1"}},{"base_weights":[-8.364844E-4,1.43850995E-2,-2.7894697E-1,3.0995525E-2,-3.1898385E-1,-3.622619E-1,1.6731423E-1,-1.17606E-3,2.867852E-2,-3.4266056E-3,-1.0324059E-1,2.4978673E-2,-5.2691508E-2],"categories":[1,0],"categories_nodes":[4,5],"categories_segments":[0,1],"categories_sizes":[1,1],"default_left":[1,1,0,0,1,1,0,0,0,0,0,0,0],"id":40,"left_children":[1,3,5,7,9,11,-1,-1,-1,-1,-1,-1,-1],"loss_changes":[4.600174E0,5.7152433E0,9.77716E0,1.0746829E1,9.915516E0,5.6645164E0,0E0,0E0,0E0,0E0,0E0,0E0,0E0],"parents":[2147483647,0,0,1,1,2,2,3,3,4,4,5,5],"right_children":[2,4,6,8,10,12,-1,-1,-1,-1,-1,-1,-1],"split_conditions":[1.5396901E2,1.03380325E2,3.0196118E2,1.6770073E1,1E-45,1E-45,1.6731423E-1,-1.17606E-3,2.867852E-2,-3.4266056E-3,-1.0324059E-1,2.4978673E-2,-5.2691508E-2],"split_indices":[8,9,9,9,6,14,0,0,0,0,0,0,0],"split_type":[0,0,0,0,1,1,0,0,0,0,0,0,0],"sum_hessian":[1.0847205E3,1.0293313E3,5.538924E1,9.81342E2,4.7989273E1,5.3903088E1,1.4861536E0,8.416169E2,1.3972514E2,3.504949E1,1.2939784E1,1.1317318E1,4.258577E1],"tree_param":{"num_deleted":"0","num_feature":"17","num_nodes":"13","size_leaf_vector":"1"}},{"base_weights":[-8.3998765E-4,5.989975E-2,-7.054999E-2,-3.8886163E-2,2.2520563E-1,8.410347E-1,-8.316882E-2,-5.336896E-3,1.4806454E-1,7.260317E-2,1.1971268E-2,-2.3361474E-2,1.0857488E-1,-9.613425E-3,7.946476E-2],"categories":[1,3],"categories_nodes":[0],"categories_segments":[0],"categories_sizes":[2],"default_left":[1,0,0,1,0,0,1,0,0,0,0,0,0,0,0],"id":41,"left_children":[1,3,5,7,9,11,13,-1,-1,-1,-1,-1,-1,-1,-1],"loss_changes":[4.599077E0,9.487343E0,5.8875475E0,8.093473E0,1.1392112E1,2.093266E0,5.7641253E0,0E0,0E0,0E0,0E0,0E0,0E0,0E0,0E0],"parents":[2147483647,0,0,1,1,2,2,3,3,4,4,5,5,6,6],"right_children":[2,4,6,8,10,12,14,-1,-1,-1,-1,-1,-1,-1,-1],"split_conditions":[1E-45,3E0,4.829999E0,1.56E2,1.12E2,1.9134508E0,1.6950779E3,-5.336896E-3,1.4806454E-1,7.260317E-2,1.1971268E-2,-2.3361474E-2,1.0857488E-1,-9.613425E-3,7.946476E-2],"split_indices":[5,13,2,11,16,9,9,0,0,0,0,0,0,0,0],"split_type":[1,0,0,0,0,0,0,0,0,0,0,0,0,0,0],"sum_hessian":[1.0841842E3,5.794438E2,5.0474042E2,3.6317633E2,2.1626747E2,5.995236E0,4.9874518E2,3.607033E2,2.473019E0,3.6604744E1,1.7966273E2,1.1204022E0,4.8748336E0,4.923634E2,6.381767E0],"tree_param":{"num_deleted":"0","num_feature":"17","num_nodes":"15","size_leaf_vector":"1"}},{"base_weights":[-5.22925E-4,1.867383E-2,-2.2575185E-1,-1.705338E-1,4.4908885E-2,1.6299961E-2,-4.692208E-1,4.4975445E-2,-2.9344607E-2,5.4968443E-2,2.5465917E-3,-1.5755625E-2,7.569825E-2,-1.764629E-2,-7.6213844E-2],"categories":[1,2,3],"categories_nodes":[2],"categories_segments":[0],"categories_sizes":[3],"default_left":[0,0,1,0,0,0,0,0,0,0,0,0,0,0,0],"id":42,"left_children":[1,3,5,7,9,11,13,-1,-1,-1,-1,-1,-1,-1,-1],"loss_changes":[4.691081E0,4.9704943E0,5.0293736E0,9.430013E0,8.611184E0,5.7462053E0,3.511362E0,0E0,0E0,0E0,0E0,0E0,0E0,0E0,0E0],"parents":[2147483647,0,0,1,1,2,2,3,3,4,4,5,5,6,6],"right_children":[2,4,6,8,10,12,14,-1,-1,-1,-1,-1,-1,-1,-1],"split_conditions":[1E0,7.951957E-1,1E-45,1.4462694E0,9.845932E-1,8.51E2,9.4802155E1,4.4975445E-2,-2.9344607E-2,5.4968443E-2,2.5465917E-3,-1.5755625E-2,7.569825E-2,-1.764629E-2,-7.6213844E-2],"split_indices":[15,9,6,3,9,16,8,0,0,0,0,0,0,0,0],"split_type":[0,0,1,0,0,0,0,0,0,0,0,0,0,0,0],"sum_hessian":[1.0830032E3,9.987911E2,8.421207E1,1.2095579E2,8.7783527E2,4.2696815E1,4.1515247E1,1.9564177E1,1.0139161E2,3.1546926E1,8.462883E2,3.521766E1,7.4791594E0,2.156472E1,1.9950525E1],"tree_param":{"num_deleted":"0","num_feature":"17","num_nodes":"15","size_leaf_vector":"1"}},{"base_weights":[-5.791345E-4,-6.489944E-1,5.9803976E-3,5.614381E-2,-9.4067866E-1,1.0700701E-2,-9.030661E-2,-1.0424955E-1,-1.124677E-2,3.7236084E-4,6.838308E-2],"categories":[],"categories_nodes":[],"categories_segments":[],"categories_sizes":[],"default_left":[0,0,0,0,0,1,0,0,0,0,0],"id":43,"left_children":[1,3,5,-1,7,9,-1,-1,-1,-1,-1],"loss_changes":[4.613679E0,4.363639E0,4.6179676E0,0E0,6.524582E-1,5.0198503E0,0E0,0E0,0E0,0E0,0E0],"parents":[2147483647,0,0,1,1,2,2,4,4,5,5],"right_children":[2,4,6,-1,8,10,-1,-1,-1,-1,-1],"split_conditions":[4E0,1.1068586E1,1.187E3,5.614381E-2,2.00001E0,3.582389E3,-9.030661E-2,-1.0424955E-1,-1.124677E-2,3.7236084E-4,6.838308E-2],"split_indices":[16,2,16,0,7,9,0,0,0,0,0],"split_type":[0,0,0,0,0,0,0,0,0,0,0],"sum_hessian":[1.0828164E3,9.863485E0,1.0729529E3,1.73573E0,8.127755E0,1.0683934E3,4.5594974E0,7.007544E0,1.1202109E0,1.0584282E3,9.965232E0],"tree_param":{"num_deleted":"0","num_feature":"17","num_nodes":"11","size_leaf_vector":"1"}},{"base_weights":[-6.488679E-4,1.2470148E-2,-3.1593016E-1,3.2539193E-2,-2.07679E-1,1.3681498E-1,-6.0692674E-1,-6.022508E-2,3.9212597E-3,1.4412741E-2,-4.4886176E-2,-3.2998405E-2,7.199426E-2,-7.007774E-2,5.6011684E-2],"categories":[3],"categories_nodes":[1],"categories_segments":[0],"categories_sizes":[1],"default_left":[0,1,0,0,0,0,0,0,0,0,0,0,0,0,0],"id":44,"left_children":[1,3,5,7,9,11,13,-1,-1,-1,-1,-1,-1,-1,-1],"loss_changes":[4.4864645E0,4.6078725E0,5.7918177E0,4.0703144E0,7.4584603E0,5.074586E0,3.301733E0,0E0,0E0,0E0,0E0,0E0,0E0,0E0,0E0],"parents":[2147483647,0,0,1,1,2,2,3,3,4,4,5,5,6,6],"right_children":[2,4,6,8,10,12,14,-1,-1,-1,-1,-1,-1,-1,-1],"split_conditions":[2.805E1,1E-45,1.85E2,4E0,1.0499524E1,8.4E1,7.3111435E1,-6.022508E-2,3.9212597E-3,1.4412741E-2,-4.4886176E-2,-3.2998405E-2,7.199426E-2,-7.007774E-2,5.6011684E-2],"split_indices":[1,5,16,16,2,16,3,0,0,0,0,0,0,0,0],"split_type":[0,1,0,0,0,0,0,0,0,0,0,0,0,0,0],"sum_hessian":[1.0827355E3,1.0404042E3,4.2331303E1,9.5426447E2,8.613963E1,1.6769861E1,2.5561441E1,8.999127E0,9.452654E2,3.5198704E1,5.0940933E1,9.55506E0,7.214801E0,2.4028646E1,1.5327942E0],"tree_param":{"num_deleted":"0","num_feature":"17","num_nodes":"15","size_leaf_vector":"1"}},{"base_weights":[-7.629321E-4,3.520223E-3,-8.842387E-2,2.1030439E-2,-2.0562647E-1,3.6216185E-3,-2.6301114E-2,-2.5611958E-2,8.321204E-2],"categories":[],"categories_nodes":[],"categories_segments":[],"categories_sizes":[],"default_left":[0,0,0,1,0,0,0,0,0],"id":45,"left_children":[1,3,-1,5,7,-1,-1,-1,-1],"loss_changes":[4.1031384E0,3.9568183E0,0E0,4.3090878E0,4.5869102E0,0E0,0E0,0E0,0E0],"parents":[2147483647,0,0,1,1,3,3,4,4],"right_children":[2,4,-1,6,8,-1,-1,-1,-1],"split_conditions":[1.187E3,1E0,-8.842387E-2,1.5396901E2,9.2E1,3.6216185E-3,-2.6301114E-2,-2.5611958E-2,8.321204E-2],"split_indices":[16,15,0,8,11,0,0,0,0],"split_type":[0,0,0,0,0,0,0,0,0],"sum_hessian":[1.082498E3,1.0782666E3,4.2314997E0,9.957958E2,8.247074E1,9.460875E2,4.970829E1,7.936244E1,3.1083004E0],"tree_param":{"num_deleted":"0","num_feature":"17","num_nodes":"9","size_leaf_vector":"1"}},{"base_weights":[-7.9090527E-4,8.114612E-3,-4.0189722E-1,1.657193E-1,-1.6587308E-2,3.1225106E-1,-6.971127E-1,8.857842E-3,6.685868E-2,1.02093285E-2,-5.772655E-3,1.0761734E-1,-4.4465832E-2,-8.656625E-2,-3.980608E-2],"categories":[1,3,4,5],"categories_nodes":[1],"categories_segments":[0],"categories_sizes":[4],"default_left":[0,1,0,0,0,0,0,0,0,0,0,0,0,0,0],"id":46,"left_children":[1,3,5,7,9,11,13,-1,-1,-1,-1,-1,-1,-1,-1],"loss_changes":[3.8732862E0,4.132839E0,5.183031E0,5.5203514E0,4.4881077E0,4.8608484E0,5.1092815E-1,0E0,0E0,0E0,0E0,0E0,0E0,0E0,0E0],"parents":[2147483647,0,0,1,1,2,2,3,3,4,4,5,5,6,6],"right_children":[2,4,6,8,10,12,14,-1,-1,-1,-1,-1,-1,-1,-1],"split_conditions":[3.1733334E1,1E-45,1.08E2,1.3700732E2,2.0862808E0,1E0,2.00001E0,8.857842E-3,6.685868E-2,1.02093285E-2,-5.772655E-3,1.0761734E-1,-4.4465832E-2,-8.656625E-2,-3.980608E-2],"split_indices":[1,5,16,8,3,10,7,0,0,0,0,0,0,0,0],"split_type":[0,1,0,0,0,0,0,0,0,0,0,0,0,0,0],"sum_hessian":[1.0824158E3,1.059864E3,2.255174E1,1.4283443E2,9.1702966E2,6.5789824E0,1.5972757E1,1.2485722E2,1.7977201E1,2.3567131E2,6.8135834E2,3.0643954E0,3.5145872E0,9.003545E0,6.9692125E0],"tree_param":{"num_deleted":"0","num_feature":"17","num_nodes":"15","size_leaf_vector":"1"}},{"base_weights":[-7.881162E-4,9.22232E-2,-3.8147315E-2,-1.9049619E-1,1.7544731E-1,-3.2004124E-1,1.1037674E-3,-2.7856363E-2,9.693308E-2,4.4836402E-2,8.261671E-3,-4.1998014E-2,7.787752E-2,2.9268512E-3,-3.2709394E-2],"categories":[0,1,3,4],"categories_nodes":[0,4],"categories_segments":[0,1],"categories_sizes":[1,3],"default_left":[1,0,0,0,1,1,1,0,0,0,0,0,0,0,0],"id":47,"left_children":[1,3,5,7,9,11,13,-1,-1,-1,-1,-1,-1,-1,-1],"loss_changes":[3.766782E0,7.342517E0,8.557373E0,7.5350895E0,6.0564E0,1.0707397E1,6.293747E0,0E0,0E0,0E0,0E0,0E0,0E0,0E0,0E0],"parents":[2147483647,0,0,1,1,2,2,3,3,4,4,5,5,6,6],"right_children":[2,4,6,8,10,12,14,-1,-1,-1,-1,-1,-1,-1,-1],"split_conditions":[1E-45,2E0,5E1,9.59E2,1E-45,7.4E1,1.5134325E2,-2.7856363E-2,9.693308E-2,4.4836402E-2,8.261671E-3,-4.1998014E-2,7.787752E-2,2.9268512E-3,-3.2709394E-2],"split_indices":[14,13,0,16,6,11,8,0,0,0,0,0,0,0,0],"split_type":[1,0,0,0,1,0,0,0,0,0,0,0,0,0,0],"sum_hessian":[1.0820072E3,3.0964102E2,7.723662E2,7.012648E1,2.3951456E2,9.352603E1,6.7884015E2,6.588366E1,4.242822E0,5.98193E1,1.7969525E2,8.629516E1,7.230875E0,6.260276E2,5.2812607E1],"tree_param":{"num_deleted":"0","num_feature":"17","num_nodes":"15","size_leaf_vector":"1"}},{"base_weights":[-7.6670863E-4,3.1784163E-3,-8.6520866E-2,-3.364493E-2,9.7314924E-2,-4.8738252E-4,-3.2873534E-2,1.18064396E-4,4.062929E-2],"categories":[],"categories_nodes":[],"categories_segments":[],"categories_sizes":[],"default_left":[0,0,0,0,0,0,0,0,0],"id":48,"left_children":[1,3,-1,5,7,-1,-1,-1,-1],"loss_changes":[3.6928582E0,3.7404876E0,0E0,6.5842853E0,9.011605E0,0E0,0E0,0E0,0E0],"parents":[2147483647,0,0,1,1,3,3,4,4],"right_children":[2,4,-1,6,8,-1,-1,-1,-1],"split_conditions":[1.187E3,9.822789E0,-8.6520866E-2,4.4169685E1,8.1333336E1,-4.8738252E-4,-3.2873534E-2,1.18064396E-4,4.062929E-2],"split_indices":[16,9,0,3,0,0,0,0,0],"split_type":[0,0,0,0,0,0,0,0,0],"sum_hessian":[1.0810381E3,1.0771187E3,3.919412E0,7.747159E2,3.0240274E2,7.068181E2,6.789774E1,2.3140732E2,7.0995415E1],"tree_param":{"num_deleted":"0","num_feature":"17","num_nodes":"9","size_leaf_vector":"1"}},{"base_weights":[-8.334806E-4,-5.91075E-1,4.675629E-3,5.5300444E-2,-8.9854926E-1,3.8446376E-1,-6.1507635E-3,-1.0082894E-1,-6.9587803E-3,6.0656797E-3,1.0497717E-1,3.5984144E-3,-1.1132826E-2],"categories":[],"categories_nodes":[],"categories_segments":[],"categories_sizes":[],"default_left":[0,0,0,0,0,0,1,0,0,0,0,0,0],"id":49,"left_children":[1,3,5,-1,7,9,11,-1,-1,-1,-1,-1,-1],"loss_changes":[3.5191882E0,4.0174685E0,4.4117947E0,0E0,6.820731E-1,6.342983E0,4.629147E0,0E0,0E0,0E0,0E0,0E0,0E0],"parents":[2147483647,0,0,1,1,2,2,4,4,5,5,6,6],"right_children":[2,4,6,-1,8,10,12,-1,-1,-1,-1,-1,-1],"split_conditions":[4E0,1.1068586E1,2.1E1,5.5300444E-2,2.00001E0,1.21389755E2,1.1964893E2,-1.0082894E-1,-6.9587803E-3,6.0656797E-3,1.0497717E-1,3.5984144E-3,-1.1132826E-2],"split_indices":[16,2,16,0,7,8,8,0,0,0,0,0,0],"split_type":[0,0,0,0,0,0,0,0,0,0,0,0,0],"sum_hessian":[1.0804093E3,9.008009E0,1.0714012E3,1.7389643E0,7.2690444E0,2.873875E1,1.0426625E3,6.228209E0,1.0408354E0,2.0064487E1,8.674263E0,7.449055E2,2.97757E2],"tree_param":{"num_deleted":"0","num_feature":"17","num_nodes":"13","size_leaf_vector":"1"}}]},"name":"gbtree"},"learner_model_param":{"base_score":"[8.365146E-2]","boost_from_average":"1","num_class":"0","num_feature":"17","num_target":"1"},"objective":{"name":"binary:logistic","reg_loss_param":{"scale_pos_weight":"1"}}},"version":[3,2,0]}