{"learner":{"attributes":{"scikit_learn":"{\"_estimator_type\": \"classifier\"}"},"feature_names":["x_adj","y_adj","distance","angle","behind_the_net","shot_type","prev_type","prev_event_same_team","dist_from_prev_event","speed_from_prev_event","crossed_royal_road","time_from_prev_event","home_team_shot","period","game_state","goalie_pulled","time_remaining"],"feature_types":["float","float","float","float","i","c","c","i","float","float","i","float","i","int","c","i","int"],"gradient_booster":{"model":{"cats":{"enc":[{"offsets":[],"values":[]},{"offsets":[],"values":[]},{"offsets":[],"values":[]},{"offsets":[],"values":[]},{"offsets":[],"values":[]},{"offsets":[0,1,2,3,4,5,6],"values":[49,50,51,52,53,54]},{"offsets":[0,12,19,22,29,33],"values":[98,108,111,99,107,101,100,95,115,104,111,116,102,97,99,101,111,102,102,104,105,116,112,101,110,97,108,116,121,115,104,111,116]},{"offsets":[],"values":[]},{"offsets":[],"values":[]},{"offsets":[],"values":[]},{"offsets":[],"values":[]},{"offsets":[],"values":[]},{"offsets":[],"values":[]},{"offsets":[],"values":[]},{"offsets":[0,2,4,6],"values":[101,118,112,112,115,104]},{"offsets":[],"values":[]},{"offsets":[],"values":[]}],"feature_segments":[0,0,0,0,0,0,6,11,11,11,11,11,11,11,11,14,14,14],"sorted_idx":[0,1,2,3,4,5,0,1,2,3,4,0,1,2]},"gbtree_model_param":{"num_parallel_tree":"1","num_trees":"50"},"iteration_indptr":[0,1,2,3,4,5,6,7,8,9,10,11,12,13,14,15,16,17,18,19,20,21,22,23,24,25,26,27,28,29,30,31,32,33,34,35,36,37,38,39,40,41,42,43,44,45,46,47,48,49,50],"tree_info":[0,0,0,0,0,0,0,0,0,0,0,0,0,0,0,0,0,0,0,0,0,0,0,0,0,0,0,0,0,0,0,0,0,0,0,0,0,0,0,0,0,0,0,0,0,0,0,0,0,0],"trees":[{"base_weights":[-4.6213325E-10,7.246219E-1,-4.5009193E-1,2.1269767E0,4.8108065E-1,1.1864323E-1,-6.007704E-1,2.686307E-1,3.1694334E-2,7.767707E-2,-1.04615325E-2,1.0540251E-1,-6.7344033E-3,-4.008537E-2,-8.769824E-2],"categories":[0,1],"categories_nodes":[2,5],"categories_segments":[0,1],"categories_sizes":[1,1],"default_left":[0,1,1,1,0,1,0,0,0,0,0,0,0,0,0],"id":0,"left_children":[1,3,5,7,9,11,13,-1,-1,-1,-1,-1,-1,-1,-1],"loss_changes":[3.7365704E2,1.4889694E2,6.0633408E1,6.46116E1,6.507809E1,2.5966696E1,3.0508118E1,0E0,0E0,0E0,0E0,0E0,0E0,0E0,0E0],"parents":[2147483647,0,0,1,1,2,2,3,3,4,4,5,5,6,6],"right_children":[2,4,6,8,10,12,14,-1,-1,-1,-1,-1,-1,-1,-1],"split_conditions":[2.3006979E1,3E0,1E-45,1.1660276E2,9.066667E0,1E-45,2.1533333E1,2.686307E-1,3.1694334E-2,7.767707E-2,-1.04615325E-2,1.0540251E-1,-6.7344033E-3,-4.008537E-2,-8.769824E-2],"split_indices":[2,11,14,8,1,14,1,0,0,0,0,0,0,0,0],"split_type":[0,0,1,0,0,1,0,0,0,0,0,0,0,0,0],"sum_hessian":[1.1436725E3,4.3796475E2,7.0570776E2,6.3660786E1,3.7430396E2,1.4785237E2,5.578554E2,4.8262688E1,1.5398096E1,2.4851454E2,1.2578942E2,2.3748308E1,1.2410406E2,3.2504538E2,2.3281003E2],"tree_param":{"num_deleted":"0","num_feature":"17","num_nodes":"15","size_leaf_vector":"1"}},{"base_weights":[-2.5342505E-3,6.0976654E-1,-4.2201543E-1,1.515837E0,3.9593485E-1,1.0563377E-1,-5.704119E-1,1.8683775E-1,3.154605E-2,6.410363E-2,-1.2393388E-2,4.9457677E-2,-2.6590616E-2,-3.738326E-2,-8.530685E-2],"categories":[0],"categories_nodes":[2],"categories_segments":[0],"categories_sizes":[1],"default_left":[0,1,1,1,0,0,0,0,0,0,0,0,0,0,0],"id":1,"left_children":[1,3,5,7,9,11,13,-1,-1,-1,-1,-1,-1,-1,-1],"loss_changes":[2.9472018E2,8.978406E1,5.3378525E1,3.695543E1,4.834472E1,2.1853065E1,2.9220474E1,0E0,0E0,0E0,0E0,0E0,0E0,0E0,0E0],"parents":[2147483647,0,0,1,1,2,2,3,3,4,4,5,5,6,6],"right_children":[2,4,6,8,10,12,14,-1,-1,-1,-1,-1,-1,-1,-1],"split_conditions":[2.3006979E1,4E0,1E-45,1.16E2,9.066667E0,1.8133333E1,2.1533333E1,1.8683775E-1,3.154605E-2,6.410363E-2,-1.2393388E-2,4.9457677E-2,-2.6590616E-2,-3.738326E-2,-8.530685E-2],"split_indices":[2,11,14,8,1,1,1,0,0,0,0,0,0,0,0],"split_type":[0,0,1,0,0,0,0,0,0,0,0,0,0,0,0],"sum_hessian":[1.145445E3,4.6550757E2,6.799374E2,8.7720406E1,3.7778714E2,1.4931401E2,5.306234E2,6.7376114E1,2.0344292E1,2.5658328E2,1.2120387E2,7.278675E1,7.652726E1,3.1433514E2,2.1628824E2],"tree_param":{"num_deleted":"0","num_feature":"17","num_nodes":"15","size_leaf_vector":"1"}},{"base_weights":[-4.1811974E-3,4.4532323E-1,-4.687323E-1,6.052352E-1,-3.091593E-1,7.355583E-2,-6.3157547E-1,1.2937658E-1,4.548736E-2,-3.6419187E-2,1.7348747E-1,-6.0473233E-2,2.9814664E-2,-4.98698E-2,-9.005067E-2],"categories":[0],"categories_nodes":[2],"categories_segments":[0],"categories_sizes":[1],"default_left":[0,0,1,1,0,0,0,0,0,0,0,0,0,0,0],"id":2,"left_children":[1,3,5,7,9,11,13,-1,-1,-1,-1,-1,-1,-1,-1],"loss_changes":[2.3960371E2,7.05463E1,4.987564E1,4.9262238E1,1.2178459E1,2.0168087E1,1.5061951E1,0E0,0E0,0E0,0E0,0E0,0E0,0E0,0E0],"parents":[2147483647,0,0,1,1,2,2,3,3,4,4,5,5,6,6],"right_children":[2,4,6,8,10,12,14,-1,-1,-1,-1,-1,-1,-1,-1],"split_conditions":[2.7929195E1,1.3316667E1,1E-45,3E0,9.0333336E1,2E0,2.55E1,1.2937658E-1,4.548736E-2,-3.6419187E-2,1.7348747E-1,-6.0473233E-2,2.9814664E-2,-4.98698E-2,-9.005067E-2],"split_indices":[2,1,14,11,0,13,1,0,0,0,0,0,0,0,0],"split_type":[0,0,1,0,0,0,0,0,0,0,0,0,0,0,0],"sum_hessian":[1.14543E3,5.8216376E2,5.6326624E2,4.8051648E2,1.01647285E2,1.3020746E2,4.330588E2,8.4763985E1,3.957525E2,9.9782616E1,1.8646712E0,3.1968023E1,9.823943E1,2.9175745E2,1.4130138E2],"tree_param":{"num_deleted":"0","num_feature":"17","num_nodes":"15","size_leaf_vector":"1"}},{"base_weights":[-5.249702E-3,3.3528307E-1,-5.2476174E-1,-2.036803E-1,5.148204E-1,-5.815265E-1,6.898332E-1,3.717971E-2,-3.9355677E-2,1.8332045E-1,4.527346E-2,-4.5965075E-2,-9.029531E-2,2.7278587E-1,-5.7801824E-2],"categories":[2,0],"categories_nodes":[2,3],"categories_segments":[0,1],"categories_sizes":[1,1],"default_left":[0,0,1,1,0,0,0,0,0,0,0,0,0,0,0],"id":3,"left_children":[1,3,5,7,9,11,13,-1,-1,-1,-1,-1,-1,-1,-1],"loss_changes":[2.0282687E2,6.711885E1,3.1699081E1,1.9134045E1,4.1715652E1,1.65952E1,5.5129997E1,0E0,0E0,0E0,0E0,0E0,0E0,0E0,0E0],"parents":[2147483647,0,0,1,1,2,2,3,3,4,4,5,5,6,6],"right_children":[2,4,6,8,10,12,14,-1,-1,-1,-1,-1,-1,-1,-1],"split_conditions":[1.4166667E1,6.2E1,1E-45,1E-45,6.339668E0,2.805E1,3.1E2,3.717971E-2,-3.9355677E-2,1.8332045E-1,4.527346E-2,-4.5965075E-2,-9.029531E-2,2.7278587E-1,-5.7801824E-2],"split_indices":[1,0,14,14,2,1,16,0,0,0,0,0,0,0,0],"split_type":[0,0,1,1,0,0,0,0,0,0,0,0,0,0,0],"sum_hessian":[1.1444973E3,6.915505E2,4.529469E2,1.7276947E2,5.18781E2,4.3322125E2,1.9725632E1,4.2624645E1,1.3014484E2,2.2048885E1,4.967321E2,3.1587897E2,1.173423E2,7.123424E0,1.2602207E1],"tree_param":{"num_deleted":"0","num_feature":"17","num_nodes":"15","size_leaf_vector":"1"}},{"base_weights":[-5.9927194E-3,2.9306296E-1,-4.9586844E-1,9.169388E-1,1.739227E-1,-5.5196655E-1,5.8723235E-1,1.1116167E-1,4.2612143E-3,3.0699888E-2,-2.905548E-2,-4.3123245E-2,-8.830107E-2,1.8664284E-1,-7.3712885E-2],"categories":[2],"categories_nodes":[2],"categories_segments":[0],"categories_sizes":[1],"default_left":[0,1,1,1,0,0,0,0,0,0,0,0,0,0,0],"id":4,"left_children":[1,3,5,7,9,11,13,-1,-1,-1,-1,-1,-1,-1,-1],"loss_changes":[1.6776279E2,5.2693413E1,2.6698555E1,1.9319977E1,3.7069786E1,1.6134766E1,3.84091E1,0E0,0E0,0E0,0E0,0E0,0E0,0E0,0E0],"parents":[2147483647,0,0,1,1,2,2,3,3,4,4,5,5,6,6],"right_children":[2,4,6,8,10,12,14,-1,-1,-1,-1,-1,-1,-1,-1],"split_conditions":[1.4166667E1,3E0,1E-45,1.172E2,3.186179E1,2.805E1,3.53E2,1.1116167E-1,4.2612143E-3,3.0699888E-2,-2.905548E-2,-4.3123245E-2,-8.830107E-2,1.8664284E-1,-7.3712885E-2],"split_indices":[1,11,14,8,2,1,16,0,0,0,0,0,0,0,0],"split_type":[0,0,1,0,0,0,0,0,0,0,0,0,0,0,0],"sum_hessian":[1.1431458E3,7.100695E2,4.3307617E2,1.1278364E2,5.972859E2,4.1221625E2,2.0859936E1,9.2022484E1,2.076116E1,4.6453287E2,1.3275299E2,3.037421E2,1.0847417E2,1.04026985E1,1.0457236E1],"tree_param":{"num_deleted":"0","num_feature":"17","num_nodes":"15","size_leaf_vector":"1"}},{"base_weights":[-6.555697E-3,2.5721994E-1,-4.6770597E-1,-3.3561444E-1,3.5468182E-1,-3.579519E-2,-6.087402E-1,-4.1898753E-2,1.5980206E-1,7.987401E-2,2.3176214E-2,1.0382529E-1,-1.6508978E-2,-4.9203616E-2,-8.998019E-2],"categories":[0,2,0],"categories_nodes":[2,3,4],"categories_segments":[0,1,2],"categories_sizes":[1,1,1],"default_left":[0,0,1,1,1,0,0,0,0,0,0,0,0,0,0],"id":5,"left_children":[1,3,5,7,9,11,13,-1,-1,-1,-1,-1,-1,-1,-1],"loss_changes":[1.3902942E2,4.2129387E1,2.5311066E1,1.7301994E1,3.3925163E1,1.453507E1,1.0204353E1,0E0,0E0,0E0,0E0,0E0,0E0,0E0,0E0],"parents":[2147483647,0,0,1,1,2,2,3,3,4,4,5,5,6,6],"right_children":[2,4,6,8,10,12,14,-1,-1,-1,-1,-1,-1,-1,-1],"split_conditions":[1.4166667E1,5.3E1,1E-45,1E-45,1E-45,6E1,2.805E1,-4.1898753E-2,1.5980206E-1,7.987401E-2,2.3176214E-2,1.0382529E-1,-1.6508978E-2,-4.9203616E-2,-8.998019E-2],"split_indices":[1,0,14,14,14,16,1,0,0,0,0,0,0,0,0],"split_type":[0,0,1,1,1,0,0,0,0,0,0,0,0,0,0],"sum_hessian":[1.1409673E3,7.260898E2,4.148775E2,1.0217052E2,6.2391925E2,1.024335E2,3.12444E2,9.869823E1,3.4722838E0,1.3407248E2,4.8984677E2,1.0250728E1,9.218278E1,2.2494185E2,8.750215E1],"tree_param":{"num_deleted":"0","num_feature":"17","num_nodes":"15","size_leaf_vector":"1"}},{"base_weights":[-6.7686886E-3,2.2383538E-1,-4.452965E-1,7.189749E-1,1.2483014E-1,-4.3158714E-2,-5.828461E-1,4.878919E-2,1.21968746E-1,5.297142E-2,4.1995817E-4,4.18213E-2,-3.6550246E-2,-4.649627E-2,-8.816763E-2],"categories":[0,0],"categories_nodes":[2,4],"categories_segments":[0,1],"categories_sizes":[1,1],"default_left":[0,1,1,0,1,0,0,0,0,0,0,0,0,0,0],"id":6,"left_children":[1,3,5,7,9,11,13,-1,-1,-1,-1,-1,-1,-1,-1],"loss_changes":[1.1537484E2,3.6564938E1,2.1723427E1,1.37973175E1,3.0491451E1,1.521682E1,9.907867E0,0E0,0E0,0E0,0E0,0E0,0E0,0E0,0E0],"parents":[2147483647,0,0,1,1,2,2,3,3,4,4,5,5,6,6],"right_children":[2,4,6,8,10,12,14,-1,-1,-1,-1,-1,-1,-1,-1],"split_conditions":[1.445E1,3E0,1E-45,8.1666664E1,1E-45,3.43E2,2.805E1,4.878919E-2,1.21968746E-1,5.297142E-2,4.1995817E-4,4.18213E-2,-3.6550246E-2,-4.649627E-2,-8.816763E-2],"split_indices":[1,11,14,0,14,16,1,0,0,0,0,0,0,0,0],"split_type":[0,0,1,0,1,0,0,0,0,0,0,0,0,0,0],"sum_hessian":[1.138913E3,7.467283E2,3.9218466E2,1.23387505E2,6.2334076E2,1.00290565E2,2.9189407E2,8.57757E1,3.7611797E1,1.4230786E2,4.810329E2,4.112738E1,5.916318E1,2.1115353E2,8.0740555E1],"tree_param":{"num_deleted":"0","num_feature":"17","num_nodes":"15","size_leaf_vector":"1"}},{"base_weights":[-6.8660355E-3,2.4623269E-1,-3.5256764E-1,4.55813E-1,3.226654E-2,7.6003045E-2,-5.10564E-1,9.90489E-2,3.4541633E-2,-8.214812E-3,4.838757E-2,-5.722164E-2,2.7581576E-2,-4.125688E-2,-8.631629E-2],"categories":[0],"categories_nodes":[2],"categories_segments":[0],"categories_sizes":[1],"default_left":[0,0,1,0,0,0,0,0,0,0,0,0,0,0,0],"id":7,"left_children":[1,3,5,7,9,11,13,-1,-1,-1,-1,-1,-1,-1,-1],"loss_changes":[9.960042E1,2.9456322E1,3.261797E1,1.9250397E1,1.6898617E1,1.7056482E1,1.17951355E1,0E0,0E0,0E0,0E0,0E0,0E0,0E0,0E0],"parents":[2147483647,0,0,1,1,2,2,3,3,4,4,5,5,6,6],"right_children":[2,4,6,8,10,12,14,-1,-1,-1,-1,-1,-1,-1,-1],"split_conditions":[2.7929195E1,6.516667E0,1E-45,7.3824306E0,1.4362578E1,2E0,2.805E1,9.90489E-2,3.4541633E-2,-8.214812E-3,4.838757E-2,-5.722164E-2,2.7581576E-2,-4.125688E-2,-8.631629E-2],"split_indices":[2,1,14,2,9,13,1,0,0,0,0,0,0,0,0],"split_type":[0,0,1,0,0,0,0,0,0,0,0,0,0,0,0],"sum_hessian":[1.1363422E3,6.562033E2,4.8013882E2,3.3092816E2,3.2527515E2,1.294689E2,3.5066992E2,5.5270164E1,2.7565802E2,2.6017755E2,6.509759E1,3.0066229E1,9.940267E1,2.761043E2,7.45656E1],"tree_param":{"num_deleted":"0","num_feature":"17","num_nodes":"15","size_leaf_vector":"1"}},{"base_weights":[-6.980348E-3,1.4168864E-1,-5.074557E-1,-3.308341E-1,2.2156882E-1,-5.7321274E-1,4.6852338E-1,-4.028979E-2,1.1383374E-1,5.652663E-2,1.3518571E-2,2.055613E-3,-6.2956855E-2,2.389078E-1,-1.0995973E-2],"categories":[2,2,0,1,3,4],"categories_nodes":[2,3,5],"categories_segments":[0,1,2],"categories_sizes":[1,1,4],"default_left":[0,0,1,1,1,1,0,0,0,0,0,0,0,0,0],"id":8,"left_children":[1,3,5,7,9,11,13,-1,-1,-1,-1,-1,-1,-1,-1],"loss_changes":[8.451076E1,3.3127773E1,1.696276E1,1.3908396E1,2.2181656E1,8.182953E0,1.9116547E1,0E0,0E0,0E0,0E0,0E0,0E0,0E0,0E0],"parents":[2147483647,0,0,1,1,2,2,3,3,4,4,5,5,6,6],"right_children":[2,4,6,8,10,12,14,-1,-1,-1,-1,-1,-1,-1,-1],"split_conditions":[1.87E1,5.2E1,1E-45,1E-45,4E0,1E-45,8.9E1,-4.028979E-2,1.1383374E-1,5.652663E-2,1.3518571E-2,2.055613E-3,-6.2956855E-2,2.389078E-1,-1.0995973E-2],"split_indices":[1,0,14,14,11,5,16,0,0,0,0,0,0,0,0],"split_type":[0,0,1,1,0,1,0,0,0,0,0,0,0,0,0],"sum_hessian":[1.133852E3,8.7472656E2,2.591255E2,1.2603546E2,7.486911E2,2.4315547E2,1.5970031E1,1.2083423E2,5.201231E0,1.4926363E2,5.994275E2,2.1132904E1,2.2202257E2,2.9722636E0,1.29977665E1],"tree_param":{"num_deleted":"0","num_feature":"17","num_nodes":"15","size_leaf_vector":"1"}},{"base_weights":[-6.6985735E-3,1.6556273E-1,-3.723349E-1,1.2973979E-1,9.955005E-1,1.3682537E-1,-4.7638026E-1,-3.81287E-2,1.9843632E-2,2.8671524E-1,6.7486614E-3,-9.627337E-3,1.5919627E-1,-3.5834357E-2,-8.628084E-2],"categories":[2,2],"categories_nodes":[1,5],"categories_segments":[0,1],"categories_sizes":[1,1],"default_left":[0,1,0,0,0,1,0,0,0,0,0,0,0,0,0],"id":9,"left_children":[1,3,5,7,9,11,13,-1,-1,-1,-1,-1,-1,-1,-1],"loss_changes":[7.135429E1,2.2766584E1,1.9284653E1,2.6032387E1,5.489279E1,2.1296505E1,1.3441368E1,0E0,0E0,0E0,0E0,0E0,0E0,0E0,0E0],"parents":[2147483647,0,0,1,1,2,2,3,3,4,4,5,5,6,6],"right_children":[2,4,6,8,10,12,14,-1,-1,-1,-1,-1,-1,-1,-1],"split_conditions":[1.4166667E1,1E-45,1.7E2,5.2E1,2.37E2,1E-45,2.805E1,-3.81287E-2,1.9843632E-2,2.8671524E-1,6.7486614E-3,-9.627337E-3,1.5919627E-1,-3.5834357E-2,-8.628084E-2],"split_indices":[1,14,16,0,16,14,1,0,0,0,0,0,0,0,0],"split_type":[0,1,0,0,0,1,0,0,0,0,0,0,0,0,0],"sum_hessian":[1.1308989E3,7.691013E2,3.6179758E2,7.3838635E2,3.0714949E1,6.1334373E1,3.004632E2,8.69587E1,6.514277E2,9.488547E0,2.1226402E1,5.3670692E1,7.6636796E0,2.3163599E2,6.882722E1],"tree_param":{"num_deleted":"0","num_feature":"17","num_nodes":"15","size_leaf_vector":"1"}},{"base_weights":[-6.5491344E-3,1.1414896E-1,-4.5593798E-1,7.688282E-1,7.2944924E-2,-5.210351E-1,4.0002197E-1,1.2065776E-1,2.6468148E-2,3.615587E-2,-2.118426E-3,6.0488856E-3,-5.79915E-2,1.1767769E-1,-5.9314903E-2],"categories":[2,0,0,1,3,4],"categories_nodes":[2,4,5],"categories_segments":[0,1,2],"categories_sizes":[1,1,4],"default_left":[0,0,1,0,1,1,0,0,0,0,0,0,0,0,0],"id":10,"left_children":[1,3,5,7,9,11,13,-1,-1,-1,-1,-1,-1,-1,-1],"loss_changes":[6.1302532E1,2.3977932E1,1.3541325E1,1.1299942E1,2.280917E1,7.663933E0,1.4180867E1,0E0,0E0,0E0,0E0,0E0,0E0,0E0,0E0],"parents":[2147483647,0,0,1,1,2,2,3,3,4,4,5,5,6,6],"right_children":[2,4,6,8,10,12,14,-1,-1,-1,-1,-1,-1,-1,-1],"split_conditions":[1.87E1,7.0514183E0,1E-45,4.25E0,1E-45,1E-45,3.2E2,1.2065776E-1,2.6468148E-2,3.615587E-2,-2.118426E-3,6.0488856E-3,-5.79915E-2,1.1767769E-1,-5.9314903E-2],"split_indices":[1,2,14,1,14,5,16,0,0,0,0,0,0,0,0],"split_type":[0,0,1,0,1,1,0,0,0,0,0,0,0,0,0],"sum_hessian":[1.1282416E3,8.899597E2,2.3828183E2,5.1649906E1,8.383098E2,2.2180453E2,1.647729E1,2.6899677E1,2.4750229E1,2.0546947E2,6.3284033E2,2.0390615E1,2.0141393E2,9.142282E0,7.3350086E0],"tree_param":{"num_deleted":"0","num_feature":"17","num_nodes":"15","size_leaf_vector":"1"}},{"base_weights":[-6.267973E-3,1.64342E-1,-2.7666214E-1,3.50433E-1,2.3448363E-2,8.890086E-2,-4.2736724E-1,2.7524475E-2,8.8227294E-2,4.4955414E-2,-2.779318E-3,-5.2921277E-2,2.6511217E-2,-3.3853516E-2,-7.9897635E-2],"categories":[0],"categories_nodes":[2],"categories_segments":[0],"categories_sizes":[1],"default_left":[0,0,1,0,1,0,0,0,0,0,0,0,0,0,0],"id":11,"left_children":[1,3,5,7,9,11,13,-1,-1,-1,-1,-1,-1,-1,-1],"loss_changes":[5.202382E1,1.8121302E1,2.4072971E1,1.1668484E1,8.628151E0,1.41014805E1,9.932777E0,0E0,0E0,0E0,0E0,0E0,0E0,0E0,0E0],"parents":[2147483647,0,0,1,1,2,2,3,3,4,4,5,5,6,6],"right_children":[2,4,6,8,10,12,14,-1,-1,-1,-1,-1,-1,-1,-1],"split_conditions":[2.7929195E1,5.6666665E0,1E-45,8.3333336E1,2E0,2E0,2.805E1,2.7524475E-2,8.8227294E-2,4.4955414E-2,-2.779318E-3,-5.2921277E-2,2.6511217E-2,-3.3853516E-2,-7.9897635E-2],"split_indices":[2,1,14,0,11,13,1,0,0,0,0,0,0,0,0],"split_type":[0,0,1,0,0,0,0,0,0,0,0,0,0,0,0],"sum_hessian":[1.1257323E3,6.90464E2,4.3526825E2,2.9687158E2,3.935924E2,1.2717994E2,3.0808832E2,2.6142978E2,3.54418E1,4.141632E1,3.521761E2,2.7768913E1,9.9411026E1,2.5019171E2,5.78966E1],"tree_param":{"num_deleted":"0","num_feature":"17","num_nodes":"15","size_leaf_vector":"1"}},{"base_weights":[-6.125764E-3,9.41773E-2,-4.112802E-1,-2.7382725E-1,1.515418E-1,5.567346E-2,-5.162741E-1,-4.8435118E-2,1.1433904E-2,5.113549E-2,9.320424E-3,4.437779E-2,-4.4526916E-2,-3.7262596E-2,-8.176003E-2],"categories":[],"categories_nodes":[],"categories_segments":[],"categories_sizes":[],"default_left":[0,0,0,1,0,0,0,0,0,0,0,0,0,0,0],"id":12,"left_children":[1,3,5,7,9,11,13,-1,-1,-1,-1,-1,-1,-1,-1],"loss_changes":[4.5716747E1,1.9078426E1,1.09734E1,1.0022449E1,1.6342043E1,8.340349E0,7.588501E0,0E0,0E0,0E0,0E0,0E0,0E0,0E0,0E0],"parents":[2147483647,0,0,1,1,2,2,3,3,4,4,5,5,6,6],"right_children":[2,4,6,8,10,12,14,-1,-1,-1,-1,-1,-1,-1,-1],"split_conditions":[1.87E1,5.2333332E1,1.74E2,2.8E1,1.53E2,5.7E1,2.805E1,-4.8435118E-2,1.1433904E-2,5.113549E-2,9.320424E-3,4.437779E-2,-4.4526916E-2,-3.7262596E-2,-8.176003E-2],"split_indices":[1,0,16,11,16,0,1,0,0,0,0,0,0,0,0],"split_type":[0,0,0,0,0,0,0,0,0,0,0,0,0,0,0],"sum_hessian":[1.1230157E3,9.007796E2,2.2223618E2,1.2096864E2,7.79811E2,4.0882687E1,1.8135349E2,7.827047E1,4.269817E1,1.0771059E2,6.721004E2,2.3100063E1,1.7782621E1,1.24322914E2,5.703057E1],"tree_param":{"num_deleted":"0","num_feature":"17","num_nodes":"15","size_leaf_vector":"1"}},{"base_weights":[-6.0440837E-3,1.18885785E-1,-2.8202635E-1,2.589998E-1,-3.52093E-2,1.8907216E-1,-3.8729757E-1,1.1728782E-2,5.1903285E-2,-5.8286665E-3,1.6914327E-1,-4.668865E-3,1.3851362E-1,-4.824395E-2,3.4438956E-3],"categories":[1,3,2],"categories_nodes":[1,5],"categories_segments":[0,2],"categories_sizes":[2,1],"default_left":[0,1,0,0,1,1,0,0,0,0,0,0,0,0,0],"id":13,"left_children":[1,3,5,7,9,11,13,-1,-1,-1,-1,-1,-1,-1,-1],"loss_changes":[3.87257E1,1.6703613E1,1.7430525E1,1.4867033E1,1.4806594E1,1.827999E1,1.1508266E1,0E0,0E0,0E0,0E0,0E0,0E0,0E0,0E0],"parents":[2147483647,0,0,1,1,2,2,3,3,4,4,5,5,6,6],"right_children":[2,4,6,8,10,12,14,-1,-1,-1,-1,-1,-1,-1,-1],"split_conditions":[1.3316667E1,1E-45,1.7E2,3E0,1.7566666E3,1E-45,1.2759638E1,1.1728782E-2,5.1903285E-2,-5.8286665E-3,1.6914327E-1,-4.668865E-3,1.3851362E-1,-4.824395E-2,3.4438956E-3],"split_indices":[1,5,16,13,9,14,9,0,0,0,0,0,0,0,0],"split_type":[0,1,0,0,0,1,0,0,0,0,0,0,0,0,0],"sum_hessian":[1.1212139E3,7.722197E2,3.489942E2,4.041016E2,3.6811813E2,6.359675E1,2.8539746E2,2.6249756E2,1.4160402E2,3.6421643E2,3.901677E0,5.39278E1,9.668951E0,2.3274684E2,5.2650608E1],"tree_param":{"num_deleted":"0","num_feature":"17","num_nodes":"15","size_leaf_vector":"1"}},{"base_weights":[-5.6089005E-3,7.773288E-2,-3.6802343E-1,3.4221035E-1,1.3761665E-2,-4.3112653E-1,3.3696115E-1,5.3441282E-2,-1.6600704E-2,2.6986677E-2,-7.239673E-3,1.4916673E-2,-4.950089E-2,1.0940438E-1,-3.5778966E-2],"categories":[2,0,0,1,3,4],"categories_nodes":[2,4,5],"categories_segments":[0,1,2],"categories_sizes":[1,1,4],"default_left":[0,1,1,1,1,1,0,0,0,0,0,0,0,0,0],"id":14,"left_children":[1,3,5,7,9,11,13,-1,-1,-1,-1,-1,-1,-1,-1],"loss_changes":[3.385584E1,1.5414887E1,9.468266E0,1.7423674E1,1.6235876E1,7.2206383E0,9.742687E0,0E0,0E0,0E0,0E0,0E0,0E0,0E0,0E0],"parents":[2147483647,0,0,1,1,2,2,3,3,4,4,5,5,6,6],"right_children":[2,4,6,8,10,12,14,-1,-1,-1,-1,-1,-1,-1,-1],"split_conditions":[1.87E1,4E0,1E-45,9.683975E1,1E-45,1E-45,5E1,5.3441282E-2,-1.6600704E-2,2.6986677E-2,-7.239673E-3,1.4916673E-2,-4.950089E-2,1.0940438E-1,-3.5778966E-2],"split_indices":[1,11,14,8,14,5,0,0,0,0,0,0,0,0,0],"split_type":[0,0,1,0,1,1,0,0,0,0,0,0,0,0,0],"sum_hessian":[1.1189485E3,9.1038055E2,2.0856795E2,1.7646565E2,7.3391486E2,1.9178935E2,1.6778593E1,1.2800426E2,4.8461403E1,1.8421251E2,5.497024E2,1.8887196E1,1.7290216E2,7.7540913E0,9.024502E0],"tree_param":{"num_deleted":"0","num_feature":"17","num_nodes":"15","size_leaf_vector":"1"}},{"base_weights":[-5.341648E-3,1.1699101E-1,-2.1936977E-1,2.6256943E-1,2.630275E-3,9.5879E-2,-3.6066777E-1,2.0119384E-2,7.7038914E-2,-2.633198E-3,6.1933883E-2,5.2999514E-3,2.3784085E-1,-2.8465977E-2,-7.819901E-2],"categories":[0,2],"categories_nodes":[2,4],"categories_segments":[0,1],"categories_sizes":[1,1],"default_left":[0,0,1,0,1,1,0,0,0,0,0,0,0,0,0],"id":15,"left_children":[1,3,5,7,9,11,13,-1,-1,-1,-1,-1,-1,-1,-1],"loss_changes":[2.9276745E1,1.1845161E1,1.8149097E1,9.601383E0,7.1518908E0,1.2269659E1,8.776596E0,0E0,0E0,0E0,0E0,0E0,0E0,0E0,0E0],"parents":[2147483647,0,0,1,1,2,2,3,3,4,4,5,5,6,6],"right_children":[2,4,6,8,10,12,14,-1,-1,-1,-1,-1,-1,-1,-1],"split_conditions":[2.7929195E1,5.6666665E0,1E-45,5.5E1,1E-45,1.7566666E3,6.0995483E1,2.0119384E-2,7.7038914E-2,-2.633198E-3,6.1933883E-2,5.2999514E-3,2.3784085E-1,-2.8465977E-2,-7.819901E-2],"split_indices":[2,1,14,11,14,9,2,0,0,0,0,0,0,0,0],"split_type":[0,0,1,0,1,0,0,0,0,0,0,0,0,0,0],"sum_hessian":[1.1161942E3,7.105287E2,4.056655E2,3.1202832E2,3.9850034E2,1.2565009E2,2.800154E2,2.7962836E2,3.2399956E1,3.8153955E2,1.6960798E1,1.2433752E2,1.3125792E0,2.3863963E2,4.137578E1],"tree_param":{"num_deleted":"0","num_feature":"17","num_nodes":"15","size_leaf_vector":"1"}},{"base_weights":[-4.8828605E-3,6.508175E-2,-3.2850444E-1,-2.4862275E-1,1.0977963E-1,7.801875E-2,-4.304074E-1,-4.6330117E-2,1.3156741E-2,3.9203208E-2,6.2109837E-3,-4.9640164E-2,4.065317E-2,-2.7947918E-2,-7.676124E-2],"categories":[],"categories_nodes":[],"categories_segments":[],"categories_sizes":[],"default_left":[0,0,0,1,0,1,0,0,0,0,0,0,0,0,0],"id":16,"left_children":[1,3,5,7,9,11,13,-1,-1,-1,-1,-1,-1,-1,-1],"loss_changes":[2.5265549E1,1.2893358E1,8.2506695E0,9.425879E0,1.0791083E1,7.8637247E0,7.865034E0,0E0,0E0,0E0,0E0,0E0,0E0,0E0,0E0],"parents":[2147483647,0,0,1,1,2,2,3,3,4,4,5,5,6,6],"right_children":[2,4,6,8,10,12,14,-1,-1,-1,-1,-1,-1,-1,-1],"split_conditions":[1.87E1,5.2E1,1.74E2,2.8E1,1.53E2,5.8270176E1,2.805E1,-4.6330117E-2,1.3156741E-2,3.9203208E-2,6.2109837E-3,-4.9640164E-2,4.065317E-2,-2.7947918E-2,-7.676124E-2],"split_indices":[1,0,16,11,16,8,1,0,0,0,0,0,0,0,0],"split_type":[0,0,0,0,0,0,0,0,0,0,0,0,0,0,0],"sum_hessian":[1.1139237E3,9.1656744E2,1.9735626E2,1.1374003E2,8.028274E2,3.9602745E1,1.5775351E2,7.255338E1,4.1186646E1,1.1495514E2,6.8787225E2,1.4222673E1,2.5380074E1,1.102403E2,4.7513206E1],"tree_param":{"num_deleted":"0","num_feature":"17","num_nodes":"15","size_leaf_vector":"1"}},{"base_weights":[-4.7990284E-3,5.8167495E-2,-3.0611128E-1,-2.7083624E-3,2.8528345E-1,-3.6731553E-1,3.0957654E-1,8.1983835E-2,-1.9628461E-3,6.7347996E-2,9.446676E-4,1.8664172E-2,-4.329387E-2,-5.828565E-2,8.354925E-2],"categories":[2,0,1,3,4],"categories_nodes":[2,5],"categories_segments":[0,1],"categories_sizes":[1,4],"default_left":[0,0,1,0,1,1,0,0,0,0,0,0,0,0,0],"id":17,"left_children":[1,3,5,7,9,11,13,-1,-1,-1,-1,-1,-1,-1,-1],"loss_changes":[2.1140089E1,1.2744196E1,7.3713036E0,1.0146241E1,2.0856941E1,6.4657516E0,8.915098E0,0E0,0E0,0E0,0E0,0E0,0E0,0E0,0E0],"parents":[2147483647,0,0,1,1,2,2,3,3,4,4,5,5,6,6],"right_children":[2,4,6,8,10,12,14,-1,-1,-1,-1,-1,-1,-1,-1],"split_conditions":[1.87E1,1.4362578E1,1E-45,5.5182776E0,8.963336E1,1E-45,3E0,8.1983835E-2,-1.9628461E-3,6.7347996E-2,9.446676E-4,1.8664172E-2,-4.329387E-2,-5.828565E-2,8.354925E-2],"split_indices":[1,9,14,2,8,5,13,0,0,0,0,0,0,0,0],"split_type":[0,0,1,0,0,1,0,0,0,0,0,0,0,0,0],"sum_hessian":[1.1123054E3,9.2070807E2,1.915974E2,7.2686755E2,1.9384053E2,1.7464018E2,1.6957216E1,1.3694112E1,7.1317346E2,7.992175E1,1.1391878E2,1.8301779E1,1.5633841E2,6.2474966E0,1.070972E1],"tree_param":{"num_deleted":"0","num_feature":"17","num_nodes":"15","size_leaf_vector":"1"}},{"base_weights":[-4.4729905E-3,3.274071E-2,-4.5087197E-1,4.7855573E-3,5.496073E-1,5.469903E-2,-6.578238E-1,1.2378454E-2,-1.2539136E-2,1.3484935E-1,-2.885553E-2,-4.7473047E-2,6.7827106E-2,-8.597136E-2,-3.858907E-2],"categories":[2,1,3],"categories_nodes":[1,3],"categories_segments":[0,1],"categories_sizes":[1,2],"default_left":[0,1,0,1,0,1,0,0,0,0,0,0,0,0,0],"id":18,"left_children":[1,3,5,7,9,11,13,-1,-1,-1,-1,-1,-1,-1,-1],"loss_changes":[1.8468473E1,1.4826584E1,8.986706E0,1.51138525E1,3.5644554E1,8.829775E0,3.0049305E0,0E0,0E0,0E0,0E0,0E0,0E0,0E0,0E0],"parents":[2147483647,0,0,1,1,2,2,3,3,4,4,5,5,6,6],"right_children":[2,4,6,8,10,12,14,-1,-1,-1,-1,-1,-1,-1,-1],"split_conditions":[2.55E1,1E-45,2.42E2,1E-45,3.58E2,4.728897E0,2.00001E0,1.2378454E-2,-1.2539136E-2,1.3484935E-1,-2.885553E-2,-4.7473047E-2,6.7827106E-2,-8.597136E-2,-3.858907E-2],"split_indices":[1,14,16,5,16,9,7,0,0,0,0,0,0,0,0],"split_type":[0,1,0,1,0,0,0,0,0,0,0,0,0,0,0],"sum_hessian":[1.1098558E3,1.0253085E3,8.454737E1,9.736567E2,5.165176E1,2.4770416E1,5.9776955E1,5.086929E2,4.6496378E2,2.6133759E1,2.5518E1,1.352555E1,1.1244865E1,3.3066265E1,2.6710691E1],"tree_param":{"num_deleted":"0","num_feature":"17","num_nodes":"15","size_leaf_vector":"1"}},{"base_weights":[-4.3690484E-3,8.5135765E-2,-1.7300563E-1,5.6303203E-1,5.9196264E-2,1.03129014E-1,-3.0485106E-1,9.102477E-2,6.8680346E-3,1.6166672E-2,-5.4811477E-3,-4.8072543E-2,2.5733585E-2,-2.3458777E-2,-7.332736E-2],"categories":[0,1,2,3,1,3],"categories_nodes":[2,3,4],"categories_segments":[0,1,4],"categories_sizes":[1,3,2],"default_left":[0,0,1,1,1,0,0,0,0,0,0,0,0,0,0],"id":19,"left_children":[1,3,5,7,9,11,13,-1,-1,-1,-1,-1,-1,-1,-1],"loss_changes":[1.6761345E1,8.959983E0,1.4049106E1,6.328414E0,8.060919E0,1.1393719E1,7.6802273E0,0E0,0E0,0E0,0E0,0E0,0E0,0E0,0E0],"parents":[2147483647,0,0,1,1,2,2,3,3,4,4,5,5,6,6],"right_children":[2,4,6,8,10,12,14,-1,-1,-1,-1,-1,-1,-1,-1],"split_conditions":[2.7929195E1,6.339668E0,1E-45,1E-45,1E-45,2E0,6.0995483E1,9.102477E-2,6.8680346E-3,1.6166672E-2,-5.4811477E-3,-4.8072543E-2,2.5733585E-2,-2.3458777E-2,-7.332736E-2],"split_indices":[2,2,14,6,5,13,2,0,0,0,0,0,0,0,0],"split_type":[0,0,1,1,1,0,0,0,0,0,0,0,0,0,0],"sum_hessian":[1.108504E3,7.244783E2,3.8402576E2,3.6233063E1,6.882452E2,1.2417459E2,2.5985117E2,2.0789755E1,1.5443307E1,3.6224255E2,3.2600262E2,2.5502018E1,9.867258E1,2.2456845E2,3.5282715E1],"tree_param":{"num_deleted":"0","num_feature":"17","num_nodes":"15","size_leaf_vector":"1"}},{"base_weights":[-4.1985386E-3,2.2459827E-2,-5.2200645E-1,-3.33586E-2,2.3495793E-1,7.4839704E-2,-6.998251E-1,8.017179E-3,-1.5747817E-2,5.7464242E-2,-8.0055156E-4,-6.643698E-2,8.27136E-2,4.715138E-2,-8.020738E-2],"categories":[0,1,3,4,5],"categories_nodes":[6],"categories_segments":[0],"categories_sizes":[5],"default_left":[0,0,0,0,1,1,1,0,0,0,0,0,0,0,0],"id":20,"left_children":[1,3,5,7,9,11,13,-1,-1,-1,-1,-1,-1,-1,-1],"loss_changes":[1.5300361E1,1.2513078E1,5.812065E0,1.1790707E1,1.8116013E1,7.9794493E0,5.3975697E0,0E0,0E0,0E0,0E0,0E0,0E0,0E0,0E0],"parents":[2147483647,0,0,1,1,2,2,3,3,4,4,5,5,6,6],"right_children":[2,4,6,8,10,12,14,-1,-1,-1,-1,-1,-1,-1,-1],"split_conditions":[2.805E1,1.4362578E1,1.47E2,7.9333334E0,9.166428E1,5.251233E0,1E-45,8.017179E-3,-1.5747817E-2,5.7464242E-2,-8.0055156E-4,-6.643698E-2,8.27136E-2,4.715138E-2,-8.020738E-2],"split_indices":[1,9,16,1,8,9,5,0,0,0,0,0,0,0,0],"split_type":[0,0,0,0,0,0,1,0,0,0,0,0,0,0,0],"sum_hessian":[1.1065582E3,1.0532882E3,5.3269943E1,8.348382E2,2.1845004E2,1.2360662E1,4.090928E1,4.3620334E2,3.986349E2,9.0524124E1,1.2792592E2,6.2935095E0,6.0671525E0,2.9944177E0,3.7914864E1],"tree_param":{"num_deleted":"0","num_feature":"17","num_nodes":"15","size_leaf_vector":"1"}},{"base_weights":[-4.014414E-3,2.0115256E-2,-4.963599E-1,1.2146202E-1,-7.9997964E-2,-2.364797E-1,-9.325779E-1,-5.3802493E-4,3.4289863E-2,-9.746224E-3,1.2734056E-1,4.8902933E-2,-5.105227E-2,-9.7994834E-2,-4.3553463E-3],"categories":[1,2,3],"categories_nodes":[1],"categories_segments":[0],"categories_sizes":[3],"default_left":[0,1,0,0,1,0,1,0,0,0,0,0,0,0,0],"id":21,"left_children":[1,3,5,7,9,11,13,-1,-1,-1,-1,-1,-1,-1,-1],"loss_changes":[1.3143089E1,1.0711688E1,5.638851E0,1.4735395E1,1.2680203E1,6.9557877E0,7.556534E-1,0E0,0E0,0E0,0E0,0E0,0E0,0E0,0E0],"parents":[2147483647,0,0,1,1,2,2,3,3,4,4,5,5,6,6],"right_children":[2,4,6,8,10,12,14,-1,-1,-1,-1,-1,-1,-1,-1],"split_conditions":[2.805E1,1E-45,2.9E1,3E0,1.7566666E3,1.47E2,1.1E2,-5.3802493E-4,3.4289863E-2,-9.746224E-3,1.2734056E-1,4.8902933E-2,-5.105227E-2,-9.7994834E-2,-4.3553463E-3],"split_indices":[1,5,11,13,9,16,11,0,0,0,0,0,0,0,0],"split_type":[0,1,0,0,0,0,0,0,0,0,0,0,0,0,0],"sum_hessian":[1.1044677E3,1.0537814E3,5.068629E1,5.235586E2,5.3022284E2,3.2729534E1,1.7956757E1,3.3350024E2,1.9005833E2,5.2438416E2,5.838649E0,8.758236E0,2.3971298E1,1.695126E1,1.0054972E0],"tree_param":{"num_deleted":"0","num_feature":"17","num_nodes":"15","size_leaf_vector":"1"}},{"base_weights":[-3.7937735E-3,2.8035216E-2,-3.5149527E-1,3.2387292E-1,-3.0834088E-2,-9.1894865E-2,-6.006326E-1,-1.2463512E-4,8.1772245E-2,3.2782552E-3,-3.4092914E-2,2.5424067E-2,-4.459322E-2,-6.767916E-2,2.5387455E-3],"categories":[1,2],"categories_nodes":[2],"categories_segments":[0],"categories_sizes":[2],"default_left":[0,0,1,0,0,0,0,0,0,0,0,0,0,0,0],"id":22,"left_children":[1,3,5,7,9,11,13,-1,-1,-1,-1,-1,-1,-1,-1],"loss_changes":[1.2232426E1,1.7647318E1,5.939951E0,2.7001501E1,1.6691671E1,5.8208833E0,2.2637272E0,0E0,0E0,0E0,0E0,0E0,0E0,0E0,0E0],"parents":[2147483647,0,0,1,1,2,2,3,3,4,4,5,5,6,6],"right_children":[2,4,6,8,10,12,14,-1,-1,-1,-1,-1,-1,-1,-1],"split_conditions":[1E0,1.7E2,1E-45,3E0,4.1779266E1,1.9107365E1,8.3666664E1,-1.2463512E-4,8.1772245E-2,3.2782552E-3,-3.4092914E-2,2.5424067E-2,-4.459322E-2,-6.767916E-2,2.5387455E-3],"split_indices":[15,16,6,13,2,2,0,0,0,0,0,0,0,0,0],"split_type":[0,0,1,0,0,0,0,0,0,0,0,0,0,0,0],"sum_hessian":[1.1034172E3,1.0117225E3,9.169485E1,1.6716443E2,8.4455804E2,4.5574844E1,4.6120007E1,1.0140395E2,6.576047E1,7.015316E2,1.4302638E2,2.318712E1,2.2387724E1,4.1045483E1,5.0745215E0],"tree_param":{"num_deleted":"0","num_feature":"17","num_nodes":"15","size_leaf_vector":"1"}},{"base_weights":[-3.7481105E-3,1.3240385E-1,-7.980649E-2,7.423372E-2,5.6723106E-1,-4.5006193E-2,-4.543267E-1,4.2479886E-3,8.575897E-2,1.510139E-1,3.5296436E-2,1.7140804E-2,-1.2862538E-2,-7.112127E-2,8.00836E-3],"categories":[0],"categories_nodes":[5],"categories_segments":[0],"categories_sizes":[1],"default_left":[0,0,0,0,0,1,0,0,0,0,0,0,0,0,0],"id":23,"left_children":[1,3,5,7,9,11,13,-1,-1,-1,-1,-1,-1,-1,-1],"loss_changes":[1.1432922E1,9.96699E0,9.211281E0,8.673906E0,8.869723E0,1.1770249E1,8.30908E0,0E0,0E0,0E0,0E0,0E0,0E0,0E0,0E0],"parents":[2147483647,0,0,1,1,2,2,3,3,4,4,5,5,6,6],"right_children":[2,4,6,8,10,12,14,-1,-1,-1,-1,-1,-1,-1,-1],"split_conditions":[5.6666665E0,5.4E1,1E0,8.5333336E1,5.9E1,1E-45,6.33E2,4.2479886E-3,8.575897E-2,1.510139E-1,3.5296436E-2,1.7140804E-2,-1.2862538E-2,-7.112127E-2,8.00836E-3],"split_indices":[1,11,15,0,11,14,16,0,0,0,0,0,0,0,0],"split_type":[0,0,0,0,0,1,0,0,0,0,0,0,0,0,0],"sum_hessian":[1.1020233E3,3.9471106E2,7.073123E2,3.491706E2,4.5540474E1,6.482018E2,5.9110535E1,3.3658127E2,1.2589308E1,7.3125844E0,3.822789E1,1.8036095E2,4.6784082E2,3.969749E1,1.9413042E1],"tree_param":{"num_deleted":"0","num_feature":"17","num_nodes":"15","size_leaf_vector":"1"}},{"base_weights":[-3.3983586E-3,1.7563492E-2,-4.6139133E-1,-3.1632658E-2,2.0112683E-1,-2.064392E-1,-9.17839E-1,1.7668614E-4,-3.5942297E-2,3.787506E-2,-1.703302E-2,4.1176524E-2,-4.6766497E-2,-9.6963614E-2,-4.461493E-3],"categories":[1],"categories_nodes":[4],"categories_segments":[0],"categories_sizes":[1],"default_left":[0,0,0,0,1,0,0,0,0,0,0,0,0,0,0],"id":24,"left_children":[1,3,5,7,9,11,13,-1,-1,-1,-1,-1,-1,-1,-1],"loss_changes":[1.0585199E1,9.528978E0,5.4260798E0,9.114553E0,1.4778736E1,5.4009047E0,7.258177E-1,0E0,0E0,0E0,0E0,0E0,0E0,0E0,0E0],"parents":[2147483647,0,0,1,1,2,2,3,3,4,4,5,5,6,6],"right_children":[2,4,6,8,10,12,14,-1,-1,-1,-1,-1,-1,-1,-1],"split_conditions":[2.805E1,1.4362578E1,2.9E1,4.4402206E1,1E-45,1.47E2,1.11E2,1.7668614E-4,-3.5942297E-2,3.787506E-2,-1.703302E-2,4.1176524E-2,-4.6766497E-2,-9.6963614E-2,-4.461493E-3],"split_indices":[1,9,11,3,6,16,11,0,0,0,0,0,0,0,0],"split_type":[0,0,0,0,1,0,0,0,0,0,0,0,0,0,0],"sum_hessian":[1.1007372E3,1.053482E3,4.72551E1,8.3147034E2,2.220117E2,3.1251577E1,1.6003521E1,7.5548627E2,7.598411E1,1.501792E2,7.1832504E1,9.111784E0,2.2139793E1,1.5003167E1,1.0003549E0],"tree_param":{"num_deleted":"0","num_feature":"17","num_nodes":"15","size_leaf_vector":"1"}},{"base_weights":[-3.3633197E-3,8.2878254E-2,-1.0181216E-1,-1.6113099E-2,2.4955918E-1,-1.352848E-1,4.278464E-1,-3.0635006E-3,1.5221074E-1,6.826436E-2,1.2810214E-2,-7.596002E-3,-4.66275E-2,1.08259045E-1,-4.2166363E-2],"categories":[1,3,2],"categories_nodes":[0,2],"categories_segments":[0,2],"categories_sizes":[2,1],"default_left":[1,0,1,1,0,0,0,0,0,0,0,0,0,0,0],"id":25,"left_children":[1,3,5,7,9,11,13,-1,-1,-1,-1,-1,-1,-1,-1],"loss_changes":[9.352767E0,9.693003E0,9.17711E0,8.297178E0,1.1424837E1,9.479199E0,1.7595732E1,0E0,0E0,0E0,0E0,0E0,0E0,0E0,0E0],"parents":[2147483647,0,0,1,1,2,2,3,3,4,4,5,5,6,6],"right_children":[2,4,6,8,10,12,14,-1,-1,-1,-1,-1,-1,-1,-1],"split_conditions":[1E-45,3E0,1E-45,1.54E2,1.66E2,1.87E1,3.53E2,-3.0635006E-3,1.5221074E-1,6.826436E-2,1.2810214E-2,-7.596002E-3,-4.66275E-2,1.08259045E-1,-4.2166363E-2],"split_indices":[5,13,14,11,16,1,16,0,0,0,0,0,0,0,0],"split_type":[1,0,1,0,0,0,0,0,0,0,0,0,0,0,0],"sum_hessian":[1.099578E3,5.8621204E2,5.133659E2,3.6835208E2,2.1785999E2,4.8355164E2,2.981425E1,3.65878E2,2.4740677E0,4.6704247E1,1.7115573E2,4.1109824E2,7.24534E1,1.6682306E1,1.3131947E1],"tree_param":{"num_deleted":"0","num_feature":"17","num_nodes":"15","size_leaf_vector":"1"}},{"base_weights":[-3.0418728E-3,2.3685489E-2,-3.1006727E-1,2.6026654E-1,-2.5290443E-2,-3.5183194E-1,1.1336795E-1,-1.1528813E-4,6.2428385E-2,2.902861E-3,-3.037301E-2,7.5144745E-2,-4.103228E-2],"categories":[],"categories_nodes":[],"categories_segments":[],"categories_sizes":[],"default_left":[0,0,0,0,0,0,0,0,0,0,0,0,0],"id":26,"left_children":[1,3,5,7,9,11,-1,-1,-1,-1,-1,-1,-1],"loss_changes":[9.025828E0,1.1731619E1,5.7099667E0,1.652501E1,1.2702681E1,5.88183E0,0E0,0E0,0E0,0E0,0E0,0E0,0E0],"parents":[2147483647,0,0,1,1,2,2,3,3,4,4,5,5],"right_children":[2,4,6,8,10,12,-1,-1,-1,-1,-1,-1,-1],"split_conditions":[1E0,1.7E2,4E0,3E0,4.1779266E1,7.1740465E0,1.1336795E-1,-1.1528813E-4,6.2428385E-2,2.902861E-3,-3.037301E-2,7.5144745E-2,-4.103228E-2],"split_indices":[15,16,13,13,2,8,0,0,0,0,0,0,0],"split_type":[0,0,0,0,0,0,0,0,0,0,0,0,0],"sum_hessian":[1.0980138E3,1.0109324E3,8.708144E1,1.7264526E2,8.382871E2,8.536822E1,1.7132239E0,1.0106335E2,7.1581924E1,7.0219586E2,1.3609125E2,3.7015107E0,8.166671E1],"tree_param":{"num_deleted":"0","num_feature":"17","num_nodes":"13","size_leaf_vector":"1"}},{"base_weights":[-2.775495E-3,1.5516255E-2,-4.2959183E-1,-2.8424164E-2,1.7679785E-1,-1.8057057E-1,-9.0391034E-1,2.0313657E-4,-3.3512115E-2,4.433399E-2,-2.3057149E-3,3.2751314E-2,-4.2059314E-2,-9.596851E-2,-5.7217614E-3],"categories":[],"categories_nodes":[],"categories_segments":[],"categories_sizes":[],"default_left":[0,0,0,0,1,0,1,0,0,0,0,0,0,0,0],"id":27,"left_children":[1,3,5,7,9,11,13,-1,-1,-1,-1,-1,-1,-1,-1],"loss_changes":[8.575787E0,7.4705887E0,5.1685534E0,7.741765E0,1.20329E1,3.899921E0,6.6717625E-1,0E0,0E0,0E0,0E0,0E0,0E0,0E0,0E0],"parents":[2147483647,0,0,1,1,2,2,3,3,4,4,5,5,6,6],"right_children":[2,4,6,8,10,12,14,-1,-1,-1,-1,-1,-1,-1,-1],"split_conditions":[2.805E1,1.4362578E1,2.9E1,4.4402206E1,9.166428E1,1.47E2,1.09E2,2.0313657E-4,-3.3512115E-2,4.433399E-2,-2.3057149E-3,3.2751314E-2,-4.2059314E-2,-9.596851E-2,-5.7217614E-3],"split_indices":[1,9,11,3,8,16,11,0,0,0,0,0,0,0,0],"split_type":[0,0,0,0,0,0,0,0,0,0,0,0,0,0,0],"sum_hessian":[1.0965895E3,1.0524491E3,4.414038E1,8.2775494E2,2.2469421E2,2.984972E1,1.4290663E1,7.5388617E2,7.386879E1,9.576127E1,1.2893294E2,9.460041E0,2.0389679E1,1.3282262E1,1.0084009E0],"tree_param":{"num_deleted":"0","num_feature":"17","num_nodes":"15","size_leaf_vector":"1"}},{"base_weights":[-2.7430586E-3,3.2585585E-1,-2.5378095E-2,1.24007225E-1,6.870385E-1,5.740547E-2,-1.2217533E-1,4.024976E-2,-2.8524602E-2,8.6538814E-2,-6.2194433E-2,-4.152374E-3,2.190779E-2,-1.3597901E-2,8.508276E-2],"categories":[1,3,1,2,5,5],"categories_nodes":[2,3,4],"categories_segments":[0,2,5],"categories_sizes":[2,3,1],"default_left":[0,0,1,1,1,0,1,0,0,0,0,0,0,0,0],"id":28,"left_children":[1,3,5,7,9,11,13,-1,-1,-1,-1,-1,-1,-1,-1],"loss_changes":[8.16212E0,5.070611E0,8.23294E0,5.424484E0,6.405738E0,8.869937E0,6.4758E0,0E0,0E0,0E0,0E0,0E0,0E0,0E0,0E0],"parents":[2147483647,0,0,1,1,2,2,3,3,4,4,5,5,6,6],"right_children":[2,4,6,8,10,12,14,-1,-1,-1,-1,-1,-1,-1,-1],"split_conditions":[7.203471E0,9.781685E0,1E-45,1E-45,1E-45,3E0,1.7566666E3,4.024976E-2,-2.8524602E-2,8.6538814E-2,-6.2194433E-2,-4.152374E-3,2.190779E-2,-1.3597901E-2,8.508276E-2],"split_indices":[2,9,5,5,5,13,9,0,0,0,0,0,0,0,0],"split_type":[0,0,1,1,1,0,0,0,0,0,0,0,0,0,0],"sum_hessian":[1.0952646E3,6.972029E1,1.0255443E3,4.5587074E1,2.4133217E1,5.530059E2,4.7253842E2,2.7137167E1,1.844991E1,2.1537594E1,2.5956235E0,3.4353568E2,2.0947025E2,4.6677667E2,5.761763E0],"tree_param":{"num_deleted":"0","num_feature":"17","num_nodes":"15","size_leaf_vector":"1"}},{"base_weights":[-2.4910287E-3,2.164586E-2,-2.8688222E-1,2.2769314E-1,-2.1947162E-2,-4.3624785E-2,-5.349015E-1,1.0755206E-2,9.549218E-2,-8.1115596E-2,-5.530436E-4,-3.6028985E-2,3.1462826E-2,-6.1709113E-2,9.696922E-3],"categories":[1,2,2],"categories_nodes":[2,3],"categories_segments":[0,2],"categories_sizes":[2,1],"default_left":[0,0,1,1,0,1,0,0,0,0,0,0,0,0,0],"id":29,"left_children":[1,3,5,7,9,11,13,-1,-1,-1,-1,-1,-1,-1,-1],"loss_changes":[7.52266E0,9.0794525E0,5.1492677E0,1.5318482E1,1.0810903E1,5.1471624E0,2.2598925E0,0E0,0E0,0E0,0E0,0E0,0E0,0E0,0E0],"parents":[2147483647,0,0,1,1,2,2,3,3,4,4,5,5,6,6],"right_children":[2,4,6,8,10,12,14,-1,-1,-1,-1,-1,-1,-1,-1],"split_conditions":[1E0,1.7E2,1E-45,1E-45,2.9E1,1E0,8.3666664E1,1.0755206E-2,9.549218E-2,-8.1115596E-2,-5.530436E-4,-3.6028985E-2,3.1462826E-2,-6.1709113E-2,9.696922E-3],"split_indices":[15,16,6,14,0,10,0,0,0,0,0,0,0,0,0],"split_type":[0,0,1,1,0,0,0,0,0,0,0,0,0,0,0],"sum_hessian":[1.094003E3,1.0092682E3,8.473486E1,1.7550432E2,8.3376385E2,4.3371735E1,4.136313E1,1.5160626E2,2.3898067E1,1.6003632E1,8.177602E2,2.3019117E1,2.0352617E1,3.6622856E1,4.7402716E0],"tree_param":{"num_deleted":"0","num_feature":"17","num_nodes":"15","size_leaf_vector":"1"}},{"base_weights":[-2.4326046E-3,1.4063903E-2,-4.056728E-1,1.3760078E-1,-3.3471063E-2,-1.6594452E-1,-8.9111423E-1,6.940181E-2,6.757711E-3,2.5155002E-1,-4.177205E-3,-7.051734E-2,6.1534434E-3,-9.5083155E-2,-5.7734796E-3],"categories":[0,0,1,2,4],"categories_nodes":[1,4],"categories_segments":[0,1],"categories_sizes":[1,4],"default_left":[0,1,0,0,0,0,1,0,0,0,0,0,0,0,0],"id":30,"left_children":[1,3,5,7,9,11,13,-1,-1,-1,-1,-1,-1,-1,-1],"loss_changes":[7.2814016E0,6.1807103E0,4.8585567E0,1.1347085E1,1.6192162E1,3.7266383E0,6.41489E-1,0E0,0E0,0E0,0E0,0E0,0E0,0E0,0E0],"parents":[2147483647,0,0,1,1,2,2,3,3,4,4,5,5,6,6],"right_children":[2,4,6,8,10,12,14,-1,-1,-1,-1,-1,-1,-1,-1],"split_conditions":[2.805E1,1E-45,2.9E1,6E1,1E-45,4.3945473E1,1.09E2,6.940181E-2,6.757711E-3,2.5155002E-1,-4.177205E-3,-7.051734E-2,6.1534434E-3,-9.5083155E-2,-5.7734796E-3],"split_indices":[1,14,11,16,6,2,11,0,0,0,0,0,0,0,0],"split_type":[0,1,0,0,1,0,0,0,0,0,0,0,0,0,0],"sum_hessian":[1.0927517E3,1.0507316E3,4.202018E1,2.914356E2,7.5929596E2,2.9027308E1,1.2992874E1,3.1580624E1,2.5985498E2,1.4842799E0,7.5781165E2,7.9892325E0,2.1038074E1,1.1992589E1,1.0002851E0],"tree_param":{"num_deleted":"0","num_feature":"17","num_nodes":"15","size_leaf_vector":"1"}},{"base_weights":[-2.190471E-3,1.0345153E-1,-6.337678E-2,5.1254008E-2,4.812696E-1,-3.1748948E-1,-2.8402997E-2,8.373125E-3,-6.395205E-2,1.1265024E-1,2.571009E-2,-3.6335234E-2,1.22067444E-1,9.278649E-3,-1.5407264E-2],"categories":[],"categories_nodes":[],"categories_segments":[],"categories_sizes":[],"default_left":[0,0,0,0,0,0,1,0,0,0,0,0,0,0,0],"id":31,"left_children":[1,3,5,7,9,11,13,-1,-1,-1,-1,-1,-1,-1,-1],"loss_changes":[7.069671E0,7.886381E0,6.146014E0,7.985723E0,6.73615E0,6.347315E0,9.302636E0,0E0,0E0,0E0,0E0,0E0,0E0,0E0,0E0],"parents":[2147483647,0,0,1,1,2,2,3,3,4,4,5,5,6,6],"right_children":[2,4,6,8,10,12,14,-1,-1,-1,-1,-1,-1,-1,-1],"split_conditions":[5.6666665E0,5.4E1,7.995394E-1,4.6E1,6.1E1,1.127E3,9.252882E1,8.373125E-3,-6.395205E-2,1.1265024E-1,2.571009E-2,-3.6335234E-2,1.22067444E-1,9.278649E-3,-1.5407264E-2],"split_indices":[1,11,9,11,11,16,8,0,0,0,0,0,0,0,0],"split_type":[0,0,0,0,0,0,0,0,0,0,0,0,0,0,0],"sum_hessian":[1.0917113E3,4.0014505E2,6.915663E2,3.5257117E2,4.757387E1,8.268865E1,6.088777E2,3.3757846E2,1.4992701E1,1.122869E1,3.634518E1,8.10362E1,1.6524507E0,3.100972E2,2.9878046E2],"tree_param":{"num_deleted":"0","num_feature":"17","num_nodes":"15","size_leaf_vector":"1"}},{"base_weights":[-1.992576E-3,2.0087473E-2,-2.67636E-1,1.975781E-1,-1.8107586E-2,-3.0889487E-1,1.0128164E-1,9.487455E-3,7.957449E-2,-7.9001196E-2,-3.1476136E-4,-5.030939E-2,4.544453E-3],"categories":[2],"categories_nodes":[3],"categories_segments":[0],"categories_sizes":[1],"default_left":[0,0,0,1,0,0,0,0,0,0,0,0,0],"id":32,"left_children":[1,3,5,7,9,11,-1,-1,-1,-1,-1,-1,-1],"loss_changes":[6.4095573E0,6.8438196E0,4.743137E0,1.0906631E1,9.596294E0,5.6660104E0,0E0,0E0,0E0,0E0,0E0,0E0,0E0],"parents":[2147483647,0,0,1,1,2,2,3,3,4,4,5,5],"right_children":[2,4,6,8,10,12,-1,-1,-1,-1,-1,-1,-1],"split_conditions":[1E0,1.7E2,4E0,1E-45,2.9E1,6.33E2,1.0128164E-1,9.487455E-3,7.957449E-2,-7.9001196E-2,-3.1476136E-4,-5.030939E-2,4.544453E-3],"split_indices":[15,16,13,14,0,16,0,0,0,0,0,0,0],"split_type":[0,0,0,1,0,0,0,0,0,0,0,0,0],"sum_hessian":[1.0908538E3,1.0079945E3,8.285924E1,1.7776343E2,8.302311E2,8.100776E1,1.8514775E0,1.5270331E2,2.506012E1,1.47994795E1,8.1543164E2,5.20574E1,2.8950357E1],"tree_param":{"num_deleted":"0","num_feature":"17","num_nodes":"13","size_leaf_vector":"1"}},{"base_weights":[-1.8581728E-3,4.398654E-2,-1.2964737E-1,3.360075E-2,9.519639E-1,-1.4648937E-1,1.4771158E0,-2.4252897E-2,6.2328596E-3,1.8465072E-1,-4.306036E-2,-3.6600858E-2,-4.3178494E-3,1.9072042E-1,3.335702E-2],"categories":[],"categories_nodes":[],"categories_segments":[],"categories_sizes":[],"default_left":[0,0,0,0,1,0,0,0,0,0,0,0,0,0,0],"id":33,"left_children":[1,3,5,7,9,11,13,-1,-1,-1,-1,-1,-1,-1,-1],"loss_changes":[6.3951793E0,7.5443587E0,8.015831E0,6.324521E0,1.1987058E1,6.473402E0,8.786144E-1,0E0,0E0,0E0,0E0,0E0,0E0,0E0,0E0],"parents":[2147483647,0,0,1,1,2,2,3,3,4,4,5,5,6,6],"right_children":[2,4,6,8,10,12,14,-1,-1,-1,-1,-1,-1,-1,-1],"split_conditions":[1.3316667E1,1.29E2,9.0333336E1,5.1666668E1,7.107395E1,2.0636566E0,3.4E1,-2.4252897E-2,6.2328596E-3,1.8465072E-1,-4.306036E-2,-3.6600858E-2,-4.3178494E-3,1.9072042E-1,3.335702E-2],"split_indices":[1,11,0,0,8,9,11,0,0,0,0,0,0,0,0],"split_type":[0,0,0,0,0,0,0,0,0,0,0,0,0,0,0],"sum_hessian":[1.0896411E3,8.0242487E2,2.8721625E2,7.943755E2,8.04936E0,2.851363E2,2.0799525E0,7.41556E1,7.202199E2,4.6834984E0,3.3658621E0,9.043452E1,1.9470178E2,1.026199E0,1.0537535E0],"tree_param":{"num_deleted":"0","num_feature":"17","num_nodes":"15","size_leaf_vector":"1"}},{"base_weights":[-1.5387431E-3,-7.4342114E-1,6.1598658E-3,3.3314142E-2,-9.570875E-1,-3.8238194E-2,1.4769885E-1,-1.0455141E-1,-1.1700952E-2,-6.069265E-4,-3.6231823E-2,3.403647E-2,-6.109699E-3],"categories":[1,2],"categories_nodes":[6],"categories_segments":[0],"categories_sizes":[2],"default_left":[0,0,0,0,1,0,1,0,0,0,0,0,0],"id":34,"left_children":[1,3,5,-1,7,9,11,-1,-1,-1,-1,-1,-1],"loss_changes":[6.2270236E0,2.8945832E0,6.7878313E0,0E0,5.909138E-1,8.571105E0,1.0396093E1,0E0,0E0,0E0,0E0,0E0,0E0],"parents":[2147483647,0,0,1,1,2,2,4,4,5,5,6,6],"right_children":[2,4,6,-1,8,10,12,-1,-1,-1,-1,-1,-1],"split_conditions":[4E0,1.1068988E1,1.2394292E1,3.3314142E-2,1.410628E2,4.4402206E1,1E-45,-1.0455141E-1,-1.1700952E-2,-6.069265E-4,-3.6231823E-2,3.403647E-2,-6.109699E-3],"split_indices":[16,2,9,0,8,3,6,0,0,0,0,0,0],"split_type":[0,0,0,0,0,0,1,0,0,0,0,0,0],"sum_hessian":[1.0884661E3,1.0197633E1,1.0782684E3,1.5961632E0,8.60147E0,8.21355E2,2.5691345E2,7.5610495E0,1.0404198E0,7.481142E2,7.324081E1,1.3329015E2,1.236233E2],"tree_param":{"num_deleted":"0","num_feature":"17","num_nodes":"13","size_leaf_vector":"1"}},{"base_weights":[-1.5774355E-3,6.564734E-2,-8.086695E-2,9.004804E-2,-3.4308127E-1,9.875873E-1,-9.3550794E-2,8.637894E-2,4.499494E-3,9.8858394E-2,-6.635944E-2,1.263088E-1,-1.4706788E-2,3.986987E-2,-1.17059965E-2],"categories":[1,3,1,4],"categories_nodes":[0,4],"categories_segments":[0,2],"categories_sizes":[2,2],"default_left":[1,1,0,0,1,0,0,0,0,0,0,0,0,0,0],"id":35,"left_children":[1,3,5,7,9,11,13,-1,-1,-1,-1,-1,-1,-1,-1],"loss_changes":[5.8081675E0,5.9122396E0,6.8679056E0,1.9387653E1,1.4924383E1,2.0463557E0,5.7750945E0,0E0,0E0,0E0,0E0,0E0,0E0,0E0,0E0],"parents":[2147483647,0,0,1,1,2,2,3,3,4,4,5,5,6,6],"right_children":[2,4,6,8,10,12,14,-1,-1,-1,-1,-1,-1,-1,-1],"split_conditions":[1E-45,1.007481E2,4.9018135E0,2E0,1E-45,2.3E1,3.162397E-1,8.637894E-2,4.499494E-3,9.8858394E-2,-6.635944E-2,1.263088E-1,-1.4706788E-2,3.986987E-2,-1.17059965E-2],"split_indices":[5,9,2,11,6,11,3,0,0,0,0,0,0,0,0],"split_type":[1,0,0,0,1,0,0,0,0,0,0,0,0,0,0],"sum_hessian":[1.0876715E3,5.887111E2,4.9896045E2,5.562814E2,3.2429768E1,4.952034E0,4.940084E2,2.960873E1,5.266726E2,5.8868313E0,2.6542936E1,3.893483E0,1.058551E0,2.1790298E1,4.722181E2],"tree_param":{"num_deleted":"0","num_feature":"17","num_nodes":"15","size_leaf_vector":"1"}},{"base_weights":[-1.330784E-3,1.2752712E-2,-3.6704382E-1,-6.887474E-1,1.9503979E-2,-1.3986664E-1,-8.703535E-1,3.0613676E-2,-9.174456E-2,2.9013483E-2,-5.4952543E-4,1.7202053E-2,-5.4977357E-2,-5.945138E-3,-9.376099E-2],"categories":[2,4],"categories_nodes":[5],"categories_segments":[0],"categories_sizes":[2],"default_left":[0,0,0,0,0,1,0,0,0,0,0,0,0,0,0],"id":36,"left_children":[1,3,5,7,9,11,13,-1,-1,-1,-1,-1,-1,-1,-1],"loss_changes":[5.6064506E0,4.9779544E0,4.4935155E0,2.5606418E0,7.0325646E0,3.8023975E0,6.184368E-1,0E0,0E0,0E0,0E0,0E0,0E0,0E0,0E0],"parents":[2147483647,0,0,1,1,2,2,3,3,4,4,5,5,6,6],"right_children":[2,4,6,8,10,12,14,-1,-1,-1,-1,-1,-1,-1,-1],"split_conditions":[2.805E1,4E0,2.9E1,1.1068988E1,8.5E1,1E-45,1.8666666E1,3.0613676E-2,-9.174456E-2,2.9013483E-2,-5.4952543E-4,1.7202053E-2,-5.4977357E-2,-5.945138E-3,-9.376099E-2],"split_indices":[1,16,11,2,16,6,0,0,0,0,0,0,0,0,0],"split_type":[0,0,0,0,0,1,0,0,0,0,0,0,0,0,0],"sum_hessian":[1.0866128E3,1.0472488E3,3.9364098E1,9.019764E0,1.038229E3,2.8002565E1,1.136153E1,1.6225834E0,7.39718E0,8.6898445E1,9.513305E2,1.6232237E1,1.1770329E1,1.0144453E0,1.0347085E1],"tree_param":{"num_deleted":"0","num_feature":"17","num_nodes":"15","size_leaf_vector":"1"}},{"base_weights":[-1.4525162E-3,2.4523439E-1,-2.118416E-2,7.524068E-2,5.4636925E-1,3.4481678E-3,-3.3051962E-1,2.5585158E-2,-5.0728817E-2,-3.4166705E-2,6.9084935E-2,-4.916636E-4,7.1000874E-2,8.470589E-2,-4.0181246E-2],"categories":[3],"categories_nodes":[2],"categories_segments":[0],"categories_sizes":[1],"default_left":[0,0,1,0,0,1,0,0,0,0,0,0,0,0,0],"id":37,"left_children":[1,3,5,7,9,11,13,-1,-1,-1,-1,-1,-1,-1,-1],"loss_changes":[5.2976236E0,4.085249E0,7.67934E0,5.672513E0,3.947238E0,5.5257244E0,6.580885E0,0E0,0E0,0E0,0E0,0E0,0E0,0E0,0E0],"parents":[2147483647,0,0,1,1,2,2,3,3,4,4,5,5,6,6],"right_children":[2,4,6,8,10,12,14,-1,-1,-1,-1,-1,-1,-1,-1],"split_conditions":[7.3824306E0,9.781685E0,1E-45,5.4489775E0,1.13E2,1.28E2,8.5E-1,2.5585158E-2,-5.0728817E-2,-3.4166705E-2,6.9084935E-2,-4.916636E-4,7.1000874E-2,8.470589E-2,-4.0181246E-2],"split_indices":[2,9,5,9,16,11,1,0,0,0,0,0,0,0,0],"split_type":[0,0,1,0,0,0,0,0,0,0,0,0,0,0,0],"sum_hessian":[1.0862908E3,7.960706E1,1.0066837E3,5.168194E1,2.7925127E1,9.3335004E2,7.333364E1,3.9878536E1,1.18034E1,3.7165878E0,2.4208538E1,9.234111E2,9.939004E0,3.5651371E0,6.97685E1],"tree_param":{"num_deleted":"0","num_feature":"17","num_nodes":"15","size_leaf_vector":"1"}},{"base_weights":[-1.3005377E-3,1.0951009E-1,-4.495001E-2,8.6502455E-2,1.7570927E0,1.8642747E-1,-5.216907E-2,5.1216584E-2,2.724184E-3,2.3945181E-1,-9.227502E-3,4.8539503E-3,-1.6903713E-2],"categories":[0,0,1,2,4],"categories_nodes":[0,2],"categories_segments":[0,1],"categories_sizes":[1,4],"default_left":[1,0,0,0,0,0,0,0,0,0,0,0,0],"id":38,"left_children":[1,3,5,7,9,-1,11,-1,-1,-1,-1,-1,-1],"loss_changes":[5.260807E0,1.149942E1,1.085158E1,7.659193E0,5.15007E0,0E0,9.168547E0,0E0,0E0,0E0,0E0,0E0,0E0],"parents":[2147483647,0,0,1,1,2,2,3,3,4,4,6,6],"right_children":[2,4,6,8,10,-1,12,-1,-1,-1,-1,-1,-1],"split_conditions":[1E-45,1.162E3,1E-45,6E1,1.4700031E1,1.8642747E-1,7.9333334E0,5.1216584E-2,2.724184E-3,2.3945181E-1,-9.227502E-3,4.8539503E-3,-1.6903713E-2],"split_indices":[14,16,6,16,3,0,1,0,0,0,0,0,0],"split_type":[1,0,1,0,0,0,0,0,0,0,0,0,0],"sum_hessian":[1.0856393E3,3.0636856E2,7.792707E2,3.0318723E2,3.1813488E0,1.9664271E0,7.7730426E2,3.611732E1,2.670699E2,2.146674E0,1.034675E0,4.178315E2,3.5947278E2],"tree_param":{"num_deleted":"0","num_feature":"17","num_nodes":"13","size_leaf_vector":"1"}},{"base_weights":[-8.81121E-4,1.9025326E-2,-2.458048E-1,-1.738954E-1,4.4975836E-2,6.0094523E-1,-3.066493E-1,-2.4333682E-2,5.0124746E-2,-4.662058E-5,2.2103397E-2,-6.9261617E-3,1.88635E-1,2.2115683E-2,-4.4215497E-2],"categories":[0,1,2,3,4,2],"categories_nodes":[2,3],"categories_segments":[0,5],"categories_sizes":[5,1],"default_left":[0,0,1,1,0,0,0,0,0,0,0,0,0,0,0],"id":39,"left_children":[1,3,5,7,9,11,13,-1,-1,-1,-1,-1,-1,-1,-1],"loss_changes":[5.295305E0,5.036715E0,4.390267E0,5.715267E0,7.090023E0,5.136592E0,5.5925093E0,0E0,0E0,0E0,0E0,0E0,0E0,0E0,0E0],"parents":[2147483647,0,0,1,1,2,2,3,3,4,4,5,5,6,6],"right_children":[2,4,6,8,10,12,14,-1,-1,-1,-1,-1,-1,-1,-1],"split_conditions":[1E0,7.995394E-1,1E-45,1E-45,3.4E1,1.4374553E2,2.3295977E1,-2.4333682E-2,5.0124746E-2,-4.662058E-5,2.2103397E-2,-6.9261617E-3,1.88635E-1,2.2115683E-2,-4.4215497E-2],"split_indices":[15,9,5,14,11,8,8,0,0,0,0,0,0,0,0],"split_type":[0,0,1,1,0,0,0,0,0,0,0,0,0,0,0],"sum_hessian":[1.0841324E3,1.0034947E3,8.063783E1,1.18303604E2,8.8519104E2,4.8108125E0,7.582702E1,1.078503E2,1.04532995E1,7.043817E2,1.8080934E2,3.7839746E0,1.0268381E0,1.5361311E1,6.0465706E1],"tree_param":{"num_deleted":"0","num_feature":"17","num_nodes":"15","size_leaf_vector":"1"}},{"base_weights":[-7.235076E-4,-6.836631E-1,5.7095615E-3,2.782627E-2,-9.0434474E-1,-3.2469667E-2,1.2555033E-1,-1.0010207E-1,-1.0712988E-2,3.2788485E-3,-1.7035052E-2,1.6825443E-2,-6.1819475E-2],"categories":[],"categories_nodes":[],"categories_segments":[],"categories_sizes":[],"default_left":[0,0,0,0,0,0,0,0,0,0,0,0,0],"id":40,"left_children":[1,3,5,-1,7,9,11,-1,-1,-1,-1,-1,-1],"loss_changes":[4.769464E0,2.4021516E0,4.925312E0,0E0,5.4597473E-1,7.3523545E0,8.3642845E0,0E0,0E0,0E0,0E0,0E0,0E0],"parents":[2147483647,0,0,1,1,2,2,4,4,5,5,6,6],"right_children":[2,4,6,-1,8,10,12,-1,-1,-1,-1,-1,-1],"split_conditions":[4E0,1.1068988E1,1.2394292E1,2.782627E-2,1.3991548E2,2.917366E1,1.127E3,-1.0010207E-1,-1.0712988E-2,3.2788485E-3,-1.7035052E-2,1.6825443E-2,-6.1819475E-2],"split_indices":[16,2,9,0,8,2,16,0,0,0,0,0,0],"split_type":[0,0,0,0,0,0,0,0,0,0,0,0,0],"sum_hessian":[1.0837096E3,9.130547E0,1.0745791E3,1.655125E0,7.475422E0,8.155028E2,2.5907626E2,6.4389424E0,1.0364795E0,5.540409E2,2.6146194E2,2.4574022E2,1.333605E1],"tree_param":{"num_deleted":"0","num_feature":"17","num_nodes":"13","size_leaf_vector":"1"}},{"base_weights":[-8.745835E-4,1.1364241E-2,-3.340744E-1,4.8865774E-3,5.8742696E-1,-1.131112E-1,-8.5513747E-1,1.0563615E-2,-3.5230366E-3,1.8719195E-1,-2.3901071E-2,3.0969555E-2,-4.087184E-2,-9.261876E-2,-6.4560594E-3],"categories":[0,0,1,3,5],"categories_nodes":[3,5],"categories_segments":[0,1],"categories_sizes":[1,4],"default_left":[0,1,0,1,1,1,1,0,0,0,0,0,0,0,0],"id":41,"left_children":[1,3,5,7,9,11,13,-1,-1,-1,-1,-1,-1,-1,-1],"loss_changes":[4.4244056E0,3.9024901E0,4.32904E0,4.1907954E0,1.2792488E1,3.6443126E0,5.746088E-1,0E0,0E0,0E0,0E0,0E0,0E0,0E0,0E0],"parents":[2147483647,0,0,1,1,2,2,3,3,4,4,5,5,6,6],"right_children":[2,4,6,8,10,12,14,-1,-1,-1,-1,-1,-1,-1,-1],"split_conditions":[2.805E1,1.28E2,2.9E1,1E-45,2.975E1,1E-45,1.04E2,1.0563615E-2,-3.5230366E-3,1.8719195E-1,-2.3901071E-2,3.0969555E-2,-4.087184E-2,-9.261876E-2,-6.4560594E-3],"split_indices":[1,11,11,14,8,5,11,0,0,0,0,0,0,0,0],"split_type":[0,0,0,1,0,1,0,0,0,0,0,0,0,0,0],"sum_hessian":[1.0830209E3,1.0455813E3,3.7439545E1,1.034952E3,1.0629262E1,2.7145317E1,1.02942295E1,2.942757E2,7.4067633E2,3.6661282E0,6.963134E0,1.1149926E1,1.5995391E1,9.287972E0,1.0062568E0],"tree_param":{"num_deleted":"0","num_feature":"17","num_nodes":"15","size_leaf_vector":"1"}},{"base_weights":[-8.3894166E-4,1.6869698E-2,-2.2407481E-1,1.6911381E-1,-1.6369976E-2,-2.6672326E-3,-4.6597716E-1,-3.954496E-3,4.4514474E-2,-7.544034E-2,-3.583631E-4,-3.0668408E-2,3.2115024E-2,-1.9943763E-2,-6.957931E-2],"categories":[1,2],"categories_nodes":[2],"categories_segments":[0],"categories_sizes":[2],"default_left":[0,0,1,0,0,1,0,0,0,0,0,0,0,0,0],"id":42,"left_children":[1,3,5,7,9,11,13,-1,-1,-1,-1,-1,-1,-1,-1],"loss_changes":[4.287098E0,5.087611E0,4.2676334E0,1.0393801E1,7.7887254E0,4.294329E0,2.1940346E0,0E0,0E0,0E0,0E0,0E0,0E0,0E0,0E0],"parents":[2147483647,0,0,1,1,2,2,3,3,4,4,5,5,6,6],"right_children":[2,4,6,8,10,12,14,-1,-1,-1,-1,-1,-1,-1,-1],"split_conditions":[1E0,1.7E2,1E-45,3E0,2.9E1,1E0,9.440521E1,-3.954496E-3,4.4514474E-2,-7.544034E-2,-3.583631E-4,-3.0668408E-2,3.2115024E-2,-1.9943763E-2,-6.957931E-2],"split_indices":[15,16,6,13,0,10,8,0,0,0,0,0,0,0,0],"split_type":[0,0,1,0,0,0,0,0,0,0,0,0,0,0,0],"sum_hessian":[1.0825056E3,1.00380145E3,7.870416E1,1.7915398E2,8.2464746E2,4.1620716E1,3.7083447E1,1.0251614E2,7.6637825E1,1.3055879E1,8.115916E2,2.1493965E1,2.0126753E1,1.8034697E1,1.9048748E1],"tree_param":{"num_deleted":"0","num_feature":"17","num_nodes":"15","size_leaf_vector":"1"}},{"base_weights":[-9.94543E-4,-6.6128796E-1,4.992804E-3,2.6357746E-2,-8.8545156E-1,6.372697E-2,-6.510601E-2,-9.9739715E-2,-1.0875613E-2,-1.2217412E-3,1.8695123E-2,-7.8061307E-3,7.482924E-2],"categories":[1,3],"categories_nodes":[2],"categories_segments":[0],"categories_sizes":[2],"default_left":[0,0,1,0,0,0,1,0,0,0,0,0,0],"id":43,"left_children":[1,3,5,-1,7,9,11,-1,-1,-1,-1,-1,-1],"loss_changes":[4.284066E0,2.2522392E0,4.42629E0,0E0,5.9297323E-1,5.475997E0,5.2235737E0,0E0,0E0,0E0,0E0,0E0,0E0],"parents":[2147483647,0,0,1,1,2,2,4,4,5,5,6,6],"right_children":[2,4,6,-1,8,10,12,-1,-1,-1,-1,-1,-1],"split_conditions":[4E0,1.1068988E1,1E-45,2.6357746E-2,2.00001E0,3E0,1.7566666E3,-9.9739715E-2,-1.0875613E-2,-1.2217412E-3,1.8695123E-2,-7.8061307E-3,7.482924E-2],"split_indices":[16,2,5,0,7,13,9,0,0,0,0,0,0],"split_type":[0,0,1,0,0,0,0,0,0,0,0,0,0],"sum_hessian":[1.0818042E3,8.737812E0,1.0730663E3,1.6703541E0,7.0674577E0,5.8391144E2,4.8915488E2,5.928784E0,1.1386739E0,3.6181934E2,2.2209212E2,4.8237592E2,6.7789445E0],"tree_param":{"num_deleted":"0","num_feature":"17","num_nodes":"13","size_leaf_vector":"1"}},{"base_weights":[-9.602085E-4,-6.3283235E-1,4.5270175E-3,2.4491346E-2,-8.595986E-1,2.0177713E-1,-1.5122912E-2,-9.748276E-2,-1.0350082E-2,1.470616E-1,1.2875785E-2,4.449015E-3,-9.564181E-3],"categories":[],"categories_nodes":[],"categories_segments":[],"categories_sizes":[],"default_left":[0,0,0,0,0,1,0,0,0,0,0,0,0],"id":44,"left_children":[1,3,5,-1,7,9,11,-1,-1,-1,-1,-1,-1],"loss_changes":[3.7556715E0,2.066709E0,4.165979E0,0E0,5.640955E-1,8.832111E0,4.697043E0,0E0,0E0,0E0,0E0,0E0,0E0],"parents":[2147483647,0,0,1,1,2,2,4,4,5,5,6,6],"right_children":[2,4,6,-1,8,10,12,-1,-1,-1,-1,-1,-1],"split_conditions":[4E0,1.1068988E1,8.5E1,2.4491346E-2,2.00001E0,8.632047E0,8.783334E0,-9.748276E-2,-1.0350082E-2,1.470616E-1,1.2875785E-2,4.449015E-3,-9.564181E-3],"split_indices":[16,2,16,0,7,8,1,0,0,0,0,0,0],"split_type":[0,0,0,0,0,0,0,0,0,0,0,0,0],"sum_hessian":[1.081366E3,8.325529E0,1.0730404E3,1.6928759E0,6.6326537E0,9.637177E1,9.7666864E2,5.504484E0,1.1281694E0,4.2026796E0,9.216909E1,5.6144446E2,4.1522418E2],"tree_param":{"num_deleted":"0","num_feature":"17","num_nodes":"13","size_leaf_vector":"1"}},{"base_weights":[-8.6494506E-4,1.5314902E-2,-2.0819102E-1,-1.6236556E-1,3.8812786E-2,-2.4907525E-1,9.214145E-2,1.1370116E-1,-1.9539922E-2,-1.8246945E-4,2.0425923E-2,-4.466623E-2,9.773209E-3],"categories":[],"categories_nodes":[],"categories_segments":[],"categories_sizes":[],"default_left":[0,0,0,0,0,0,0,0,0,0,0,0,0],"id":45,"left_children":[1,3,5,7,9,11,-1,-1,-1,-1,-1,-1,-1],"loss_changes":[3.6313677E0,4.1990304E0,3.8486643E0,5.2650876E0,5.968883E0,5.280005E0,0E0,0E0,0E0,0E0,0E0,0E0,0E0],"parents":[2147483647,0,0,1,1,2,2,3,3,4,4,5,5],"right_children":[2,4,6,8,10,12,-1,-1,-1,-1,-1,-1,-1],"split_conditions":[1E0,7.995394E-1,4E0,1.5E1,3.5E1,6.33E2,9.214145E-2,1.1370116E-1,-1.9539922E-2,-1.8246945E-4,2.0425923E-2,-4.466623E-2,9.773209E-3],"split_indices":[15,9,13,16,11,16,0,0,0,0,0,0,0],"split_type":[0,0,0,0,0,0,0,0,0,0,0,0,0],"sum_hessian":[1.0805844E3,1.00321875E3,7.736564E1,1.16486946E2,8.8673175E2,7.5415596E1,1.9500413E0,2.0594358E0,1.14427505E2,7.12672E2,1.7405978E2,4.7860203E1,2.7555391E1],"tree_param":{"num_deleted":"0","num_feature":"17","num_nodes":"13","size_leaf_vector":"1"}},{"base_weights":[-7.107644E-4,1.01398E-2,-3.0766812E-1,2.758534E-2,-1.9043612E-1,-9.5709726E-2,-8.389186E-1,1.5538084E-2,-2.9890257E-4,3.1826206E-2,-3.4236684E-2,-6.5723725E-2,1.2280547E-2,-9.156326E-2,-6.3257734E-3],"categories":[3],"categories_nodes":[1],"categories_segments":[0],"categories_sizes":[1],"default_left":[0,1,0,1,0,0,0,0,0,0,0,0,0,0,0],"id":46,"left_children":[1,3,5,7,9,11,13,-1,-1,-1,-1,-1,-1,-1,-1],"loss_changes":[3.6047091E0,3.6632454E0,4.080505E0,3.7616637E0,6.583769E0,3.4601321E0,5.614815E-1,0E0,0E0,0E0,0E0,0E0,0E0,0E0,0E0],"parents":[2147483647,0,0,1,1,2,2,3,3,4,4,5,5,6,6],"right_children":[2,4,6,8,10,12,14,-1,-1,-1,-1,-1,-1,-1,-1],"split_conditions":[2.805E1,1E-45,2.9E1,4E0,2.55E0,4.3945473E1,7.548716E1,1.5538084E-2,-2.9890257E-4,3.1826206E-2,-3.4236684E-2,-6.5723725E-2,1.2280547E-2,-9.156326E-2,-6.3257734E-3],"split_indices":[1,5,11,11,1,2,2,0,0,0,0,0,0,0,0],"split_type":[0,1,0,0,0,0,0,0,0,0,0,0,0,0,0],"sum_hessian":[1.0803439E3,1.0443928E3,3.5951035E1,9.616166E2,8.277628E1,2.6541618E1,9.409418E0,1.8485846E2,7.767581E2,1.878502E1,6.399126E1,6.8727326E0,1.9668886E1,8.398355E0,1.0110638E0],"tree_param":{"num_deleted":"0","num_feature":"17","num_nodes":"15","size_leaf_vector":"1"}},{"base_weights":[-8.5563795E-4,-7.0673646E-3,5.2941144E-1,4.922352E-3,-3.4380722E-1,1.528529E0,-1.6179861E-1,2.2183286E-3,-2.1935876E-2,3.1975668E-2,-7.21283E-2,-6.719885E-3,2.4438138E-1,6.797451E-2,-7.252255E-2],"categories":[],"categories_nodes":[],"categories_segments":[],"categories_sizes":[],"default_left":[1,1,1,0,0,0,0,0,0,0,0,0,0,0,0],"id":47,"left_children":[1,3,5,7,9,11,13,-1,-1,-1,-1,-1,-1,-1,-1],"loss_changes":[3.5636053E0,4.318601E0,8.898383E0,4.005665E0,9.442089E0,7.785672E0,4.432507E0,0E0,0E0,0E0,0E0,0E0,0E0,0E0,0E0],"parents":[2147483647,0,0,1,1,2,2,3,3,4,4,5,5,6,6],"right_children":[2,4,6,8,10,12,14,-1,-1,-1,-1,-1,-1,-1,-1],"split_conditions":[1.28E2,8.4E1,2.975E1,1E0,5.1E0,2.037812E1,2.73E2,2.2183286E-3,-2.1935876E-2,3.1975668E-2,-7.21283E-2,-6.719885E-3,2.4438138E-1,6.797451E-2,-7.252255E-2],"split_indices":[11,11,8,15,1,8,16,0,0,0,0,0,0,0,0],"split_type":[0,0,0,0,0,0,0,0,0,0,0,0,0,0,0],"sum_hessian":[1.0797528E3,1.068226E3,1.1526884E1,1.0324506E3,3.577531E1,4.218223E0,7.308661E0,9.595069E2,7.294368E1,1.3027392E1,2.2747917E1,1.8753233E0,2.3428998E0,2.848158E0,4.460503E0],"tree_param":{"num_deleted":"0","num_feature":"17","num_nodes":"15","size_leaf_vector":"1"}},{"base_weights":[-7.303233E-4,2.0914587E-1,-1.6111888E-2,8.720313E-1,1.1475402E-1,4.7824443E-3,-2.9110616E-1,1.4453936E-1,-6.322566E-3,3.4691554E-2,-2.1200191E-2,-9.017492E-5,9.267931E-2,-3.519294E-2,7.18497E-2],"categories":[1,2,3,4,3,1,5],"categories_nodes":[1,2,4],"categories_segments":[0,4,5],"categories_sizes":[4,1,2],"default_left":[0,1,1,0,1,0,0,0,0,0,0,0,0,0,0],"id":48,"left_children":[1,3,5,7,9,11,13,-1,-1,-1,-1,-1,-1,-1,-1],"loss_changes":[3.4909513E0,4.5202847E0,5.790301E0,4.9457493E0,5.064328E0,4.9133153E0,4.622683E0,0E0,0E0,0E0,0E0,0E0,0E0,0E0,0E0],"parents":[2147483647,0,0,1,1,2,2,3,3,4,4,5,5,6,6],"right_children":[2,4,6,8,10,12,14,-1,-1,-1,-1,-1,-1,-1,-1],"split_conditions":[7.203471E0,1E-45,1E-45,1.969801E0,1E-45,9.0333336E1,6.239602E1,1.4453936E-1,-6.322566E-3,3.4691554E-2,-2.1200191E-2,-9.017492E-5,9.267931E-2,-3.519294E-2,7.18497E-2],"split_indices":[2,6,5,3,5,0,3,0,0,0,0,0,0,0,0],"split_type":[0,1,1,0,1,0,0,0,0,0,0,0,0,0,0],"sum_hessian":[1.0793406E3,7.284181E1,1.0064988E3,8.052578E0,6.478924E1,9.363375E2,7.016123E1,4.653986E0,3.3985918E0,3.7841198E1,2.6948036E1,9.3159326E2,4.744249E0,6.678896E1,3.3722644E0],"tree_param":{"num_deleted":"0","num_feature":"17","num_nodes":"15","size_leaf_vector":"1"}},{"base_weights":[-4.868393E-4,-6.153503E-1,4.687586E-3,3.32949E-2,-9.3423806E-2,3.6595565E-1,-4.9949293E-3,-5.665272E-2,8.57155E-2,5.274755E-3,9.264729E-2,2.2899471E-2,-2.0609763E-3],"categories":[],"categories_nodes":[],"categories_segments":[],"categories_sizes":[],"default_left":[0,0,0,0,0,0,0,0,0,0,0,0,0],"id":49,"left_children":[1,3,5,7,-1,9,11,-1,-1,-1,-1,-1,-1],"loss_changes":[3.4383566E0,1.89662E0,3.7509205E0,2.4316978E0,0E0,4.8648624E0,3.8221068E0,0E0,0E0,0E0,0E0,0E0,0E0],"parents":[2147483647,0,0,1,1,2,2,3,3,5,5,6,6],"right_children":[2,4,6,8,-1,10,12,-1,-1,-1,-1,-1,-1],"split_conditions":[4E0,1.5749286E1,2.4E1,1.0173139E1,-9.3423806E-2,1.18794464E2,7.0514183E0,-5.665272E-2,8.57155E-2,5.274755E-3,9.264729E-2,2.2899471E-2,-2.0609763E-3],"split_indices":[16,2,16,3,0,8,2,0,0,0,0,0,0],"split_type":[0,0,0,0,0,0,0,0,0,0,0,0,0],"sum_hessian":[1.0788057E3,8.018903E0,1.0707869E3,2.9381144E0,5.080788E0,2.6989138E1,1.0437977E3,1.8809874E0,1.0571271E0,1.801612E1,8.973017E0,6.4443344E1,9.793543E2],"tree_param":{"num_deleted":"0","num_feature":"17","num_nodes":"13","size_leaf_vector":"1"}}]},"name":"gbtree"},"learner_model_param":{"base_score":"[8.3595686E-2]","boost_from_average":"1","num_class":"0","num_feature":"17","num_target":"1"},"objective":{"name":"binary:logistic","reg_loss_param":{"scale_pos_weight":"1"}}},"version":[3,2,0]}