{"learner":{"attributes":{"scikit_learn":"{\"_estimator_type\": \"classifier\"}"},"feature_names":["x_adj","y_adj","distance","angle","behind_the_net","shot_type","prev_type","prev_event_same_team","dist_from_prev_event","speed_from_prev_event","crossed_royal_road","time_from_prev_event","home_team_shot","period","game_state","goalie_pulled","time_remaining"],"feature_types":["float","float","float","float","i","c","c","i","float","float","i","float","i","int","c","i","int"],"gradient_booster":{"model":{"cats":{"enc":[{"offsets":[],"values":[]},{"offsets":[],"values":[]},{"offsets":[],"values":[]},{"offsets":[],"values":[]},{"offsets":[],"values":[]},{"offsets":[0,1,2,3,4,5,6],"values":[49,50,51,52,53,54]},{"offsets":[0,12,19,22,29,33],"values":[98,108,111,99,107,101,100,95,115,104,111,116,102,97,99,101,111,102,102,104,105,116,112,101,110,97,108,116,121,115,104,111,116]},{"offsets":[],"values":[]},{"offsets":[],"values":[]},{"offsets":[],"values":[]},{"offsets":[],"values":[]},{"offsets":[],"values":[]},{"offsets":[],"values":[]},{"offsets":[],"values":[]},{"offsets":[0,2,4,6],"values":[101,118,112,112,115,104]},{"offsets":[],"values":[]},{"offsets":[],"values":[]}],"feature_segments":[0,0,0,0,0,0,6,11,11,11,11,11,11,11,11,14,14,14],"sorted_idx":[0,1,2,3,4,5,0,1,2,3,4,0,1,2]},"gbtree_model_param":{"num_parallel_tree":"1","num_trees":"50"},"iteration_indptr":[0,1,2,3,4,5,6,7,8,9,10,11,12,13,14,15,16,17,18,19,20,21,22,23,24,25,26,27,28,29,30,31,32,33,34,35,36,37,38,39,40,41,42,43,44,45,46,47,48,49,50],"tree_info":[0,0,0,0,0,0,0,0,0,0,0,0,0,0,0,0,0,0,0,0,0,0,0,0,0,0,0,0,0,0,0,0,0,0,0,0,0,0,0,0,0,0,0,0,0,0,0,0,0,0],"trees":[{"base_weights":[1.2452145E-7,7.072687E-1,-4.3874797E-1,1.8859779E0,5.057207E-1,1.4846228E-1,-5.922544E-1,2.4165972E-1,4.0372383E-2,8.0333844E-2,-7.97616E-3,1.1370506E-1,-4.86332E-3,-3.519908E-2,-8.144946E-2],"categories":[0,1],"categories_nodes":[2,5],"categories_segments":[0,1],"categories_sizes":[1,1],"default_left":[0,1,1,1,0,1,0,0,0,0,0,0,0,0,0],"id":0,"left_children":[1,3,5,7,9,11,13,-1,-1,-1,-1,-1,-1,-1,-1],"loss_changes":[3.5828522E2,1.040582E2,6.431868E1,4.950276E1,6.607899E1,2.8984371E1,2.9887024E1,0E0,0E0,0E0,0E0,0E0,0E0,0E0,0E0],"parents":[2147483647,0,0,1,1,2,2,3,3,4,4,5,5,6,6],"right_children":[2,4,6,8,10,12,14,-1,-1,-1,-1,-1,-1,-1,-1],"split_conditions":[2.312E1,3E0,1E-45,1.12022934E2,9.066667E0,1E-45,1.87E1,2.4165972E-1,4.0372383E-2,8.0333844E-2,-7.97616E-3,1.1370506E-1,-4.86332E-3,-3.519908E-2,-8.144946E-2],"split_indices":[2,11,14,8,1,14,1,0,0,0,0,0,0,0,0],"split_type":[0,0,1,0,0,1,0,0,0,0,0,0,0,0,0],"sum_hessian":[1.152594E3,4.410319E2,7.1156213E2,6.3180023E1,3.7785187E2,1.4747124E2,5.640909E2,4.6060772E1,1.7119253E1,2.5026352E2,1.2758833E2,2.3721296E1,1.2374994E2,2.7229593E2,2.9179498E2],"tree_param":{"num_deleted":"0","num_feature":"17","num_nodes":"15","size_leaf_vector":"1"}},{"base_weights":[-2.2450835E-3,5.5239344E-1,-4.4414732E-1,8.3546966E-1,2.9243803E-2,1.0252501E-1,-5.958149E-1,2.6138803E-1,7.438348E-2,6.945582E-2,-1.4691383E-2,-2.8370475E-2,6.278246E-2,-4.1045915E-2,-8.453684E-2],"categories":[0,0],"categories_nodes":[2,4],"categories_segments":[0,1],"categories_sizes":[1,1],"default_left":[0,0,1,0,1,0,0,0,0,0,0,0,0,0,0],"id":1,"left_children":[1,3,5,7,9,11,13,-1,-1,-1,-1,-1,-1,-1,-1],"loss_changes":[2.8337408E2,7.590077E1,5.341382E1,5.226468E1,2.1321022E1,2.8705296E1,2.2960388E1,0E0,0E0,0E0,0E0,0E0,0E0,0E0,0E0],"parents":[2147483647,0,0,1,1,2,2,3,3,4,4,5,5,6,6],"right_children":[2,4,6,8,10,12,14,-1,-1,-1,-1,-1,-1,-1,-1],"split_conditions":[2.5343945E1,8.783334E0,1E-45,6.0534883E0,1E-45,3E0,2.1816668E1,2.6138803E-1,7.438348E-2,6.945582E-2,-1.4691383E-2,-2.8370475E-2,6.278246E-2,-4.1045915E-2,-8.453684E-2],"split_indices":[2,1,14,2,14,13,1,0,0,0,0,0,0,0,0],"split_type":[0,0,1,0,1,0,0,0,0,0,0,0,0,0,0],"sum_hessian":[1.1541749E3,5.1169208E2,6.4248285E2,3.3164304E2,1.8004903E2,1.396067E2,5.0287616E2,1.490221E1,3.1674084E2,3.707623E1,1.429728E2,8.071812E1,5.8888584E1,2.9007095E2,2.128052E2],"tree_param":{"num_deleted":"0","num_feature":"17","num_nodes":"15","size_leaf_vector":"1"}},{"base_weights":[-3.6725276E-3,3.5644734E-1,-5.72667E-1,-2.3312432E-1,5.7681227E-1,-6.285032E-1,6.642129E-1,4.675959E-2,-4.4593297E-2,1.2492844E-1,4.2692527E-2,-5.1170427E-2,-8.938892E-2,3.3271793E-1,-3.7295785E-2],"categories":[2,0],"categories_nodes":[2,3],"categories_segments":[0,1],"categories_sizes":[1,1],"default_left":[0,0,1,1,1,0,0,0,0,0,0,0,0,0,0],"id":2,"left_children":[1,3,5,7,9,11,13,-1,-1,-1,-1,-1,-1,-1,-1],"loss_changes":[2.3694255E2,9.213908E1,3.1370743E1,2.9046066E1,5.145392E1,1.2850983E1,5.605151E1,0E0,0E0,0E0,0E0,0E0,0E0,0E0,0E0],"parents":[2147483647,0,0,1,1,2,2,3,3,4,4,5,5,6,6],"right_children":[2,4,6,8,10,12,14,-1,-1,-1,-1,-1,-1,-1,-1],"split_conditions":[1.5016666E1,6.2E1,1E-45,1E-45,4E0,2.805E1,1.68E2,4.675959E-2,-4.4593297E-2,1.2492844E-1,4.2692527E-2,-5.1170427E-2,-8.938892E-2,3.3271793E-1,-3.7295785E-2],"split_indices":[1,0,14,14,11,1,16,0,0,0,0,0,0,0,0],"split_type":[0,0,1,1,0,0,0,0,0,0,0,0,0,0,0],"sum_hessian":[1.1543501E3,7.0715875E2,4.4719128E2,1.9238573E2,5.147731E2,4.283464E2,1.8844893E1,4.4537792E1,1.4784793E2,9.2488045E1,4.22285E2,2.994734E2,1.28873E2,4.663439E0,1.4181454E1],"tree_param":{"num_deleted":"0","num_feature":"17","num_nodes":"15","size_leaf_vector":"1"}},{"base_weights":[-4.8039523E-3,3.3035988E-1,-5.124457E-1,-2.0063812E-1,5.096762E-1,-5.679405E-1,6.1552644E-1,4.1984037E-2,-4.0497907E-2,1.3476041E-1,4.2425264E-2,-4.2292666E-2,-8.172052E-2,2.5223553E-1,-3.267637E-2],"categories":[2,0],"categories_nodes":[2,3],"categories_segments":[0,1],"categories_sizes":[1,1],"default_left":[0,0,1,1,0,0,0,0,0,0,0,0,0,0,0],"id":3,"left_children":[1,3,5,7,9,11,13,-1,-1,-1,-1,-1,-1,-1,-1],"loss_changes":[1.9663297E2,6.638342E1,2.9118202E1,2.2541697E1,3.6696594E1,1.5506821E1,4.0408752E1,0E0,0E0,0E0,0E0,0E0,0E0,0E0,0E0],"parents":[2147483647,0,0,1,1,2,2,3,3,4,4,5,5,6,6],"right_children":[2,4,6,8,10,12,14,-1,-1,-1,-1,-1,-1,-1,-1],"split_conditions":[1.4166667E1,6.2E1,1E-45,1E-45,7.275549E0,2.55E1,1.68E2,4.1984037E-2,-4.0497907E-2,1.3476041E-1,4.2425264E-2,-4.2292666E-2,-8.172052E-2,2.5223553E-1,-3.267637E-2],"split_indices":[1,0,14,14,2,1,16,0,0,0,0,0,0,0,0],"split_type":[0,0,1,1,0,0,0,0,0,0,0,0,0,0,0],"sum_hessian":[1.1536965E3,6.951091E2,4.5858743E2,1.7544781E2,5.196612E2,4.3755667E2,2.1030748E1,4.3204212E1,1.322436E2,4.670936E1,4.7295187E2,2.783302E2,1.5922647E2,6.4009266E0,1.4629822E1],"tree_param":{"num_deleted":"0","num_feature":"17","num_nodes":"15","size_leaf_vector":"1"}},{"base_weights":[-5.500816E-3,2.7328396E-1,-5.152078E-1,-3.962282E-1,3.945033E-1,-5.702499E-1,4.9486965E-1,-4.7712486E-2,1.386287E-1,8.856433E-2,2.571218E-2,-4.537083E-2,-8.522519E-2,1.5807949E-1,-8.027121E-2],"categories":[2,2,0],"categories_nodes":[2,3,4],"categories_segments":[0,1,2],"categories_sizes":[1,1,1],"default_left":[0,0,1,1,1,0,0,0,0,0,0,0,0,0,0],"id":4,"left_children":[1,3,5,7,9,11,13,-1,-1,-1,-1,-1,-1,-1,-1],"loss_changes":[1.6400502E2,6.070836E1,2.296959E1,1.7226582E1,4.2430794E1,1.2346764E1,3.1737682E1,0E0,0E0,0E0,0E0,0E0,0E0,0E0,0E0],"parents":[2147483647,0,0,1,1,2,2,3,3,4,4,5,5,6,6],"right_children":[2,4,6,8,10,12,14,-1,-1,-1,-1,-1,-1,-1,-1],"split_conditions":[1.5016666E1,5.3E1,1E-45,1E-45,1E-45,2.805E1,3.53E2,-4.7712486E-2,1.386287E-1,8.856433E-2,2.571218E-2,-4.537083E-2,-8.522519E-2,1.5807949E-1,-8.027121E-2],"split_indices":[1,0,14,14,14,1,16,0,0,0,0,0,0,0,0],"split_type":[0,0,1,1,1,0,0,0,0,0,0,0,0,0,0],"sum_hessian":[1.152173E3,7.4510236E2,4.0707065E2,1.138766E2,6.3122577E2,3.8644745E2,2.0623207E1,1.0963339E2,4.243209E0,1.367821E2,4.9444366E2,2.75289E2,1.1115846E2,1.1108457E1,9.5147505E0],"tree_param":{"num_deleted":"0","num_feature":"17","num_nodes":"15","size_leaf_vector":"1"}},{"base_weights":[-6.0533304E-3,2.4009332E-1,-4.8688018E-1,-3.694564E-1,3.4346431E-1,-5.410097E-1,4.289533E-1,-4.484368E-2,1.16046205E-1,8.41182E-2,2.34718E-2,-5.5503964E-2,1.6586064E-1,1.2866378E-1,-7.7774554E-2],"categories":[2,2],"categories_nodes":[2,3],"categories_segments":[0,1],"categories_sizes":[1,1],"default_left":[0,0,1,1,0,0,0,0,0,0,0,0,0,0,0],"id":5,"left_children":[1,3,5,7,9,11,13,-1,-1,-1,-1,-1,-1,-1,-1],"loss_changes":[1.3639798E2,4.8156906E1,1.9576103E1,1.3933787E1,3.5105873E1,1.2304184E1,2.4115232E1,0E0,0E0,0E0,0E0,0E0,0E0,0E0,0E0],"parents":[2147483647,0,0,1,1,2,2,3,3,4,4,5,5,6,6],"right_children":[2,4,6,8,10,12,14,-1,-1,-1,-1,-1,-1,-1,-1],"split_conditions":[1.5016666E1,5.3E1,1E-45,1E-45,4E0,1E0,3.53E2,-4.484368E-2,1.16046205E-1,8.41182E-2,2.34718E-2,-5.5503964E-2,1.6586064E-1,1.2866378E-1,-7.7774554E-2],"split_indices":[1,0,14,14,11,4,16,0,0,0,0,0,0,0,0],"split_type":[0,0,1,1,0,0,0,0,0,0,0,0,0,0,0],"sum_hessian":[1.1504708E3,7.6126294E2,3.892079E2,1.1000722E2,6.5125574E2,3.6787427E2,2.1333618E1,1.0527918E2,4.728035E0,1.155703E2,5.356854E2,3.662856E2,1.588627E0,1.2431467E1,8.902151E0],"tree_param":{"num_deleted":"0","num_feature":"17","num_nodes":"15","size_leaf_vector":"1"}},{"base_weights":[-6.157935E-3,2.1170849E-1,-4.5872805E-1,3.037691E-1,-3.2547948E-1,-7.706569E-2,-5.820382E-1,6.929042E-2,1.8968562E-2,-3.9688215E-2,9.94974E-2,4.9683493E-2,-3.0782405E-2,-4.6610914E-2,-8.9605555E-2],"categories":[0,0,2],"categories_nodes":[2,3,4],"categories_segments":[0,1,2],"categories_sizes":[1,1,1],"default_left":[0,0,1,1,1,0,0,0,0,0,0,0,0,0,0],"id":6,"left_children":[1,3,5,7,9,11,13,-1,-1,-1,-1,-1,-1,-1,-1],"loss_changes":[1.1338659E2,3.848945E1,1.7542137E1,2.9312141E1,1.1148537E1,1.2390353E1,9.858612E0,0E0,0E0,0E0,0E0,0E0,0E0,0E0,0E0],"parents":[2147483647,0,0,1,1,2,2,3,3,4,4,5,5,6,6],"right_children":[2,4,6,8,10,12,14,-1,-1,-1,-1,-1,-1,-1,-1],"split_conditions":[1.5016666E1,3.6538322E1,1E-45,1E-45,1E-45,4.5666668E1,2.9183332E1,6.929042E-2,1.8968562E-2,-3.9688215E-2,9.94974E-2,4.9683493E-2,-3.0782405E-2,-4.6610914E-2,-8.9605555E-2],"split_indices":[1,2,14,14,14,0,1,0,0,0,0,0,0,0,0],"split_type":[0,0,1,1,1,0,0,0,0,0,0,0,0,0,0],"sum_hessian":[1.1479824E3,7.7529095E2,3.7269144E2,6.622349E2,1.1305603E2,9.140502E1,2.812864E2,1.4898349E2,5.1325146E2,1.0791978E2,5.136258E0,2.5882263E1,6.552276E1,2.0725589E2,7.4030525E1],"tree_param":{"num_deleted":"0","num_feature":"17","num_nodes":"15","size_leaf_vector":"1"}},{"base_weights":[-6.350846E-3,2.0042515E-1,-4.0527648E-1,9.068336E-1,1.4258131E-1,-2.2098588E-2,-5.3410816E-1,1.8409865E-1,6.873873E-2,1.0212983E-2,1.0074645E-1,5.6170452E-2,-2.0601133E-2,-3.8604368E-2,-7.902401E-2],"categories":[0,2],"categories_nodes":[2,4],"categories_segments":[0,1],"categories_sizes":[1,1],"default_left":[0,0,1,0,1,0,0,0,0,0,0,0,0,0,0],"id":7,"left_children":[1,3,5,7,9,11,13,-1,-1,-1,-1,-1,-1,-1,-1],"loss_changes":[9.468156E1,3.0761654E1,1.9331566E1,1.0425926E1,2.4385838E1,1.0813715E1,1.0814346E1,0E0,0E0,0E0,0E0,0E0,0E0,0E0,0E0],"parents":[2147483647,0,0,1,1,2,2,3,3,4,4,5,5,6,6],"right_children":[2,4,6,8,10,12,14,-1,-1,-1,-1,-1,-1,-1,-1],"split_conditions":[1.4166667E1,7.275549E0,1E-45,2E0,1E-45,1.53E2,2.55E1,1.8409865E-1,6.873873E-2,1.0212983E-2,1.0074645E-1,5.6170452E-2,-2.0601133E-2,-3.8604368E-2,-7.902401E-2],"split_indices":[1,2,14,11,14,16,1,0,0,0,0,0,0,0,0],"split_type":[0,0,1,0,1,0,0,0,0,0,0,0,0,0,0],"sum_hessian":[1.1458341E3,7.54994E2,3.9084012E2,5.6032234E1,6.989618E2,9.863783E1,2.9220227E2,9.253236E0,4.6778996E1,6.6879944E2,3.0162355E1,2.3137419E1,7.550042E1,1.8675206E2,1.0545021E2],"tree_param":{"num_deleted":"0","num_feature":"17","num_nodes":"15","size_leaf_vector":"1"}},{"base_weights":[-6.164765E-3,1.371751E-1,-4.9355623E-1,-3.1177512E-1,2.1361496E-1,-5.560932E-1,3.557397E-1,1.8791858E-2,-5.2631445E-2,7.362556E-2,1.521737E-2,-1.1283151E-2,-6.577384E-2,1.7390157E-1,-2.9675862E-2],"categories":[2,0,1,3,4],"categories_nodes":[2,3,5],"categories_segments":[0,1,2],"categories_sizes":[1,1,3],"default_left":[0,0,1,1,0,1,0,0,0,0,0,0,0,0,0],"id":8,"left_children":[1,3,5,7,9,11,13,-1,-1,-1,-1,-1,-1,-1,-1],"loss_changes":[8.001417E1,3.0439762E1,1.4021881E1,1.3946994E1,2.4192768E1,1.0866074E1,1.7178535E1,0E0,0E0,0E0,0E0,0E0,0E0,0E0,0E0],"parents":[2147483647,0,0,1,1,2,2,3,3,4,4,5,5,6,6],"right_children":[2,4,6,8,10,12,14,-1,-1,-1,-1,-1,-1,-1,-1],"split_conditions":[1.87E1,5.2333332E1,1E-45,1E-45,1.13E2,1E-45,9.5E1,1.8791858E-2,-5.2631445E-2,7.362556E-2,1.521737E-2,-1.1283151E-2,-6.577384E-2,1.7390157E-1,-2.9675862E-2],"split_indices":[1,0,14,14,16,5,16,0,0,0,0,0,0,0,0],"split_type":[0,0,1,1,0,1,0,0,0,0,0,0,0,0,0],"sum_hessian":[1.1433379E3,8.840585E2,2.5927945E2,1.2817517E2,7.558833E2,2.4181863E2,1.7460825E1,3.853817E1,8.9637E1,7.83582E1,6.775251E2,4.5501637E1,1.96317E2,5.0627627E0,1.2398063E1],"tree_param":{"num_deleted":"0","num_feature":"17","num_nodes":"15","size_leaf_vector":"1"}},{"base_weights":[-6.119166E-3,1.5042084E-1,-3.835996E-1,5.812942E-1,7.328102E-2,-5.4180853E-2,-5.025507E-1,8.125406E-2,-1.8061733E-2,3.913654E-2,-2.8307997E-3,4.433142E-2,-2.692744E-2,-3.853978E-2,-8.489492E-2],"categories":[0,0],"categories_nodes":[2,4],"categories_segments":[0,1],"categories_sizes":[1,1],"default_left":[0,1,1,1,1,0,0,0,0,0,0,0,0,0,0],"id":9,"left_children":[1,3,5,7,9,11,13,-1,-1,-1,-1,-1,-1,-1,-1],"loss_changes":[6.754299E1,2.6813347E1,1.3101986E1,2.173833E1,2.2193064E1,9.751278E0,9.657864E0,0E0,0E0,0E0,0E0,0E0,0E0,0E0,0E0],"parents":[2147483647,0,0,1,1,2,2,3,3,4,4,5,5,6,6],"right_children":[2,4,6,8,10,12,14,-1,-1,-1,-1,-1,-1,-1,-1],"split_conditions":[1.5016666E1,3E0,1E-45,1.12022934E2,1E-45,4.5666668E1,2.9183332E1,8.125406E-2,-1.8061733E-2,3.913654E-2,-2.8307997E-3,4.433142E-2,-2.692744E-2,-3.853978E-2,-8.489492E-2],"split_indices":[1,11,14,8,14,0,1,0,0,0,0,0,0,0,0],"split_type":[0,0,1,0,1,0,0,0,0,0,0,0,0,0,0],"sum_hessian":[1.141061E3,8.0700146E2,3.3405957E2,1.2154763E2,6.854538E2,8.901111E1,2.4504848E2,9.319557E1,2.8352062E1,1.6523517E2,5.202186E2,2.6547564E1,6.2463543E1,1.8469624E2,6.0352226E1],"tree_param":{"num_deleted":"0","num_feature":"17","num_nodes":"15","size_leaf_vector":"1"}},{"base_weights":[-6.117285E-3,1.8078785E-1,-2.8870356E-1,1.0709363E0,1.4564945E-1,9.720057E-2,-4.3962267E-1,1.168255E-1,-6.150003E-2,7.028587E-3,4.860261E-2,-2.5846934E-2,5.2063685E-2,-3.2812025E-2,-7.5058535E-2],"categories":[0],"categories_nodes":[2],"categories_segments":[0],"categories_sizes":[1],"default_left":[0,0,1,0,0,0,0,0,0,0,0,0,0,0,0],"id":10,"left_children":[1,3,5,7,9,11,13,-1,-1,-1,-1,-1,-1,-1,-1],"loss_changes":[6.0245934E1,2.1319164E1,2.6489017E1,4.9705887E0,1.6938862E1,1.9483913E1,1.1078312E1,0E0,0E0,0E0,0E0,0E0,0E0,0E0,0E0],"parents":[2147483647,0,0,1,1,2,2,3,3,4,4,5,5,6,6],"right_children":[2,4,6,8,10,12,14,-1,-1,-1,-1,-1,-1,-1,-1],"split_conditions":[2.7944235E1,6.0534883E0,1E-45,8.163412E1,1.6870789E1,3E0,2.5783333E1,1.168255E-1,-6.150003E-2,7.028587E-3,4.860261E-2,-2.5846934E-2,5.2063685E-2,-3.2812025E-2,-7.5058535E-2],"split_indices":[2,2,14,3,9,13,1,0,0,0,0,0,0,0,0],"split_type":[0,0,1,0,0,0,0,0,0,0,0,0,0,0,0],"sum_hessian":[1.1386697E3,6.855807E2,4.5308905E2,2.4915966E1,6.6066473E2,1.2747867E2,3.2561038E2,2.3846514E1,1.069453E0,5.418901E2,1.1877463E2,6.94951E1,5.798357E1,2.4118384E2,8.442654E1],"tree_param":{"num_deleted":"0","num_feature":"17","num_nodes":"15","size_leaf_vector":"1"}},{"base_weights":[-6.0455333E-3,1.0170124E-1,-4.2434406E-1,-2.8114983E-1,1.6242771E-1,-4.8526463E-1,2.8820127E-1,1.1919072E-2,-4.7618352E-2,5.823889E-2,1.1060747E-2,-3.8264897E-3,-5.9430223E-2,-8.523824E-2,9.171426E-2],"categories":[2,0,1,3,4],"categories_nodes":[2,3,5],"categories_segments":[0,1,2],"categories_sizes":[1,1,3],"default_left":[0,0,1,1,0,1,0,0,0,0,0,0,0,0,0],"id":11,"left_children":[1,3,5,7,9,11,13,-1,-1,-1,-1,-1,-1,-1,-1],"loss_changes":[5.1296795E1,2.1087927E1,1.025919E1,9.759929E0,1.6949553E1,1.0462616E1,1.4403333E1,0E0,0E0,0E0,0E0,0E0,0E0,0E0,0E0],"parents":[2147483647,0,0,1,1,2,2,3,3,4,4,5,5,6,6],"right_children":[2,4,6,8,10,12,14,-1,-1,-1,-1,-1,-1,-1,-1],"split_conditions":[1.87E1,5.2333332E1,1E-45,1E-45,1.13E2,1E-45,3E0,1.1919072E-2,-4.7618352E-2,5.823889E-2,1.1060747E-2,-3.8264897E-3,-5.9430223E-2,-8.523824E-2,9.171426E-2],"split_indices":[1,0,14,14,16,5,13,0,0,0,0,0,0,0,0],"split_type":[0,0,1,1,0,1,0,0,0,0,0,0,0,0,0],"sum_hessian":[1.1361927E3,9.040749E2,2.3211784E2,1.23272354E2,7.8080255E2,2.1412938E2,1.7988474E1,4.0509148E1,8.276321E1,8.463837E1,6.961642E2,4.225518E1,1.7187419E2,6.267362E0,1.1721111E1],"tree_param":{"num_deleted":"0","num_feature":"17","num_nodes":"15","size_leaf_vector":"1"}},{"base_weights":[-5.951369E-3,9.065475E-2,-3.9861235E-1,5.707613E-2,7.381878E-1,1.7232125E-1,-4.6929428E-1,3.7306421E-3,1.3837756E-1,2.2258604E-1,-6.7983605E-3,-2.3551429E-2,1.319189E-1,-4.0442636E-3,-5.7424553E-2],"categories":[2,2,1,3,4],"categories_nodes":[1,5,6],"categories_segments":[0,1,2],"categories_sizes":[1,1,3],"default_left":[0,1,0,0,0,1,1,0,0,0,0,0,0,0,0],"id":12,"left_children":[1,3,5,7,9,11,13,-1,-1,-1,-1,-1,-1,-1,-1],"loss_changes":[4.3090794E1,1.9781471E1,9.1321335E0,2.2710712E1,5.3956814E1,1.2209858E1,8.971851E0,0E0,0E0,0E0,0E0,0E0,0E0,0E0,0E0],"parents":[2147483647,0,0,1,1,2,2,3,3,4,4,5,5,6,6],"right_children":[2,4,6,8,10,12,14,-1,-1,-1,-1,-1,-1,-1,-1],"split_conditions":[1.87E1,1E-45,1E2,1.0279326E4,2.37E2,1E-45,1E-45,3.7306421E-3,1.3837756E-1,2.2258604E-1,-6.7983605E-3,-2.3551429E-2,1.319189E-1,-4.0442636E-3,-5.7424553E-2],"split_indices":[1,14,16,9,16,14,5,0,0,0,0,0,0,0,0],"split_type":[0,1,0,0,0,1,1,0,0,0,0,0,0,0,0],"sum_hessian":[1.1340049E3,9.107121E2,2.2329277E2,8.668487E2,4.3863365E1,2.4440067E1,1.988527E2,8.551341E2,1.1714594E1,1.4796867E1,2.90665E1,1.861505E1,5.825018E0,3.9368893E1,1.5948381E2],"tree_param":{"num_deleted":"0","num_feature":"17","num_nodes":"15","size_leaf_vector":"1"}},{"base_weights":[-5.5378997E-3,1.2875101E-1,-2.5928935E-1,8.6439073E-1,9.9656284E-2,3.8545553E-2,-3.8792214E-1,1.3977876E-1,5.5304345E-2,6.6897147E-3,7.205724E-2,-5.782907E-2,2.1816123E-2,-2.9748142E-2,-7.921138E-2],"categories":[0,2],"categories_nodes":[2,4],"categories_segments":[0,1],"categories_sizes":[1,1],"default_left":[0,0,1,0,1,0,0,0,0,0,0,0,0,0,0],"id":13,"left_children":[1,3,5,7,9,11,13,-1,-1,-1,-1,-1,-1,-1,-1],"loss_changes":[3.8628185E1,1.5780422E1,1.5044231E1,3.8891697E0,1.4479973E1,1.3336574E1,9.782684E0,0E0,0E0,0E0,0E0,0E0,0E0,0E0,0E0],"parents":[2147483647,0,0,1,1,2,2,3,3,4,4,5,5,6,6],"right_children":[2,4,6,8,10,12,14,-1,-1,-1,-1,-1,-1,-1,-1],"split_conditions":[3.010818E1,6.0534883E0,1E-45,6E0,1E-45,2E0,2.89E1,1.3977876E-1,5.5304345E-2,6.6897147E-3,7.205724E-2,-5.782907E-2,2.1816123E-2,-2.9748142E-2,-7.921138E-2],"split_indices":[2,2,14,11,14,13,1,0,0,0,0,0,0,0,0],"split_type":[0,0,1,0,1,0,0,0,0,0,0,0,0,0,0],"sum_hessian":[1.1316094E3,7.403161E2,3.912933E2,2.7073454E1,7.132426E2,1.182346E2,2.7305872E2,8.692343E0,1.8381111E1,6.785505E2,3.469215E1,2.616368E1,9.2070915E1,2.2455003E2,4.8508667E1],"tree_param":{"num_deleted":"0","num_feature":"17","num_nodes":"15","size_leaf_vector":"1"}},{"base_weights":[-5.248195E-3,1.6342132E-1,-1.8267094E-1,-3.5047567E-1,2.2106119E-1,1.21849746E-1,-2.9879865E-1,1.560698E-2,-7.442266E-2,8.856488E-2,1.9538356E-2,1.0116714E-1,3.4726465E-3,-2.384158E-2,-7.663974E-2],"categories":[0,1,2,3,5],"categories_nodes":[2,3],"categories_segments":[0,1],"categories_sizes":[1,4],"default_left":[0,0,1,1,0,0,0,0,0,0,0,0,0,0,0],"id":14,"left_children":[1,3,5,7,9,11,13,-1,-1,-1,-1,-1,-1,-1,-1],"loss_changes":[3.3851025E1,1.7254768E1,1.9530914E1,1.1858019E1,8.735468E0,1.1818074E1,1.1093391E1,0E0,0E0,0E0,0E0,0E0,0E0,0E0,0E0],"parents":[2147483647,0,0,1,1,2,2,3,3,4,4,5,5,6,6],"right_children":[2,4,6,8,10,12,14,-1,-1,-1,-1,-1,-1,-1,-1],"split_conditions":[8.783334E0,5.2666668E1,1E-45,1E-45,5.6127086E0,4.1E1,2.9183332E1,1.560698E-2,-7.442266E-2,8.856488E-2,1.9538356E-2,1.0116714E-1,3.4726465E-3,-2.384158E-2,-7.663974E-2],"split_indices":[1,0,14,5,2,16,1,0,0,0,0,0,0,0,0],"split_type":[0,0,1,1,0,0,0,0,0,0,0,0,0,0,0],"sum_hessian":[1.1291674E3,5.789033E2,5.50264E2,5.7870415E1,5.210329E2,1.5189688E2,3.9836713E2,2.5574034E1,3.2296383E1,1.8136396E1,5.028965E2,1.2599694E1,1.392972E2,3.5414487E2,4.422224E1],"tree_param":{"num_deleted":"0","num_feature":"17","num_nodes":"15","size_leaf_vector":"1"}},{"base_weights":[-5.0758654E-3,9.556219E-2,-2.5804186E-1,5.0042623E-1,4.962003E-2,-2.7642992E-1,1.4849645E0,9.3675464E-2,-2.5162399E-3,5.0139006E-2,5.524858E-4,7.590972E-3,-3.5533894E-2,1.894087E-1,3.434716E-2],"categories":[],"categories_nodes":[],"categories_segments":[],"categories_sizes":[],"default_left":[0,0,0,1,0,0,0,0,0,0,0,0,0,0,0],"id":15,"left_children":[1,3,5,7,9,11,13,-1,-1,-1,-1,-1,-1,-1,-1],"loss_changes":[2.873575E1,1.4995636E1,1.0706549E1,1.8871454E1,1.4466775E1,8.88866E0,9.889078E-1,0E0,0E0,0E0,0E0,0E0,0E0,0E0,0E0],"parents":[2147483647,0,0,1,1,2,2,3,3,4,4,5,5,6,6],"right_children":[2,4,6,8,10,12,14,-1,-1,-1,-1,-1,-1,-1,-1],"split_conditions":[1.4166667E1,2E0,1E0,8.9522415E1,9E1,1.71E2,9.211396E1,9.3675464E-2,-2.5162399E-3,5.0139006E-2,5.524858E-4,7.590972E-3,-3.5533894E-2,1.894087E-1,3.434716E-2],"split_indices":[1,11,4,9,16,16,8,0,0,0,0,0,0,0,0],"split_type":[0,0,0,0,0,0,0,0,0,0,0,0,0,0,0],"sum_hessian":[1.1267823E3,8.065378E2,3.202446E2,8.118701E1,7.2535077E2,3.17734E2,2.5105703E0,4.39329E1,3.7254116E1,6.3580124E1,6.617706E2,5.8145287E1,2.5958875E2,1.3628161E0,1.1477542E0],"tree_param":{"num_deleted":"0","num_feature":"17","num_nodes":"15","size_leaf_vector":"1"}},{"base_weights":[-4.5880955E-3,8.081481E-2,-2.71067E-1,1.8337366E-1,-9.0681024E-2,1.1923732E0,-2.9894736E-1,3.0360127E-2,5.021609E-3,-2.8593158E-2,7.4398145E-3,-2.6784433E-2,1.8976408E-1,-4.6367373E-2,-3.0733782E-3],"categories":[1,3],"categories_nodes":[3],"categories_segments":[0],"categories_sizes":[2],"default_left":[0,0,1,1,0,0,0,0,0,0,0,0,0,0,0],"id":16,"left_children":[1,3,5,7,9,11,13,-1,-1,-1,-1,-1,-1,-1,-1],"loss_changes":[2.5635899E1,1.5021314E1,1.1511108E1,8.536516E0,1.0332964E1,5.9782944E0,1.1874132E1,0E0,0E0,0E0,0E0,0E0,0E0,0E0,0E0],"parents":[2147483647,0,0,1,1,2,2,3,3,4,4,5,5,6,6],"right_children":[2,4,6,8,10,12,14,-1,-1,-1,-1,-1,-1,-1,-1],"split_conditions":[3.6821342E1,8.783334E0,6.6907067E0,1E-45,3.376985E0,5.215389E0,3E0,3.0360127E-2,5.021609E-3,-2.8593158E-2,7.4398145E-3,-2.6784433E-2,1.8976408E-1,-4.6367373E-2,-3.0733782E-3],"split_indices":[2,1,8,5,9,8,13,0,0,0,0,0,0,0,0],"split_type":[0,0,0,1,0,0,0,0,0,0,0,0,0,0,0],"sum_hessian":[1.1244905E3,8.5210046E2,2.7239E2,5.3317755E2,3.189229E2,4.311506E0,2.680785E2,2.7951984E2,2.5365771E2,1.4577391E2,1.7314899E2,1.6061938E0,2.7053123E0,1.6562767E2,1.0245083E2],"tree_param":{"num_deleted":"0","num_feature":"17","num_nodes":"15","size_leaf_vector":"1"}},{"base_weights":[-4.3333257E-3,3.770515E-2,-4.7628886E-1,8.840364E-3,5.2910554E-1,2.4452075E-2,-6.554013E-1,-6.7521347E-4,9.792902E-2,1.4296503E-1,-1.3523881E-2,-1.5284012E-2,1.8883751E-1,-8.567598E-2,-3.7852403E-2],"categories":[2],"categories_nodes":[1],"categories_segments":[0],"categories_sizes":[1],"default_left":[0,1,0,0,0,0,0,0,0,0,0,0,0,0,0],"id":17,"left_children":[1,3,5,7,9,11,13,-1,-1,-1,-1,-1,-1,-1,-1],"loss_changes":[2.231261E1,1.4643695E1,8.265512E0,1.478196E1,3.4462143E1,8.615048E0,3.454668E0,0E0,0E0,0E0,0E0,0E0,0E0,0E0,0E0],"parents":[2147483647,0,0,1,1,2,2,3,3,4,4,5,5,6,6],"right_children":[2,4,6,8,10,12,14,-1,-1,-1,-1,-1,-1,-1,-1],"split_conditions":[2.55E1,1E-45,2.42E2,1.0279326E4,2.64E2,8.971871E1,2.00001E0,-6.7521347E-4,9.792902E-2,1.4296503E-1,-1.3523881E-2,-1.5284012E-2,1.8883751E-1,-8.567598E-2,-3.7852403E-2],"split_indices":[1,14,16,9,16,2,7,0,0,0,0,0,0,0,0],"split_type":[0,1,0,0,0,0,0,0,0,0,0,0,0,0,0],"sum_hessian":[1.1227059E3,1.031727E3,9.097888E1,9.7544745E2,5.6279648E1,2.4196554E1,6.6782326E1,9.609998E2,1.4447619E1,2.3403421E1,3.2876225E1,2.29332E1,1.263354E0,3.7451454E1,2.9330872E1],"tree_param":{"num_deleted":"0","num_feature":"17","num_nodes":"15","size_leaf_vector":"1"}},{"base_weights":[-3.9662747E-3,5.588136E-2,-2.988119E-1,-1.128661E-3,3.0935735E-1,3.3025047E-1,-3.6268562E-1,5.6912173E-2,-3.0125964E-3,8.18994E-2,-2.1711641E-3,-2.3545947E-2,1.2823068E-1,1.7424569E-2,-4.396715E-2],"categories":[0,1,3,4],"categories_nodes":[2],"categories_segments":[0],"categories_sizes":[4],"default_left":[0,0,1,0,1,0,0,0,0,0,0,0,0,0,0],"id":18,"left_children":[1,3,5,7,9,11,13,-1,-1,-1,-1,-1,-1,-1,-1],"loss_changes":[1.981102E1,1.3487524E1,7.7312775E0,1.2633049E1,2.8933262E1,9.9884205E0,7.2049217E0,0E0,0E0,0E0,0E0,0E0,0E0,0E0,0E0],"parents":[2147483647,0,0,1,1,2,2,3,3,4,4,5,5,6,6],"right_children":[2,4,6,8,10,12,14,-1,-1,-1,-1,-1,-1,-1,-1],"split_conditions":[1.8983334E1,1.649175E1,1E-45,6.6726847E0,9.211396E1,1.07037506E2,1E2,5.6912173E-2,-3.0125964E-3,8.18994E-2,-2.1711641E-3,-2.3545947E-2,1.2823068E-1,1.7424569E-2,-4.396715E-2],"split_indices":[1,9,5,2,8,8,16,0,0,0,0,0,0,0,0],"split_type":[0,0,1,0,0,0,0,0,0,0,0,0,0,0,0],"sum_hessian":[1.1207574E3,9.32325E2,1.8843243E2,7.6194855E2,1.703765E2,1.698498E1,1.7144746E2,3.596898E1,7.2597955E2,6.651371E1,1.03862785E2,1.1126387E1,5.8585925E0,2.1341265E1,1.5010619E2],"tree_param":{"num_deleted":"0","num_feature":"17","num_nodes":"15","size_leaf_vector":"1"}},{"base_weights":[-3.7137857E-3,6.564489E-2,-2.3266402E-1,2.58533E-1,-6.301354E-3,-3.8730553E-1,7.8249015E-3,1.5212414E-2,5.8074094E-2,1.4503836E-2,-1.679282E-2,1.02025464E-1,-4.1970827E-2,-1.8128565E-2,1.0237552E-1],"categories":[1,3,2],"categories_nodes":[4,6],"categories_segments":[0,2],"categories_sizes":[2,1],"default_left":[0,0,0,0,1,1,1,0,0,0,0,0,0,0,0],"id":19,"left_children":[1,3,5,7,9,11,13,-1,-1,-1,-1,-1,-1,-1,-1],"loss_changes":[1.7794292E1,1.1937343E1,9.692246E0,7.923396E0,1.5370831E1,7.661312E0,1.9963835E1,0E0,0E0,0E0,0E0,0E0,0E0,0E0,0E0],"parents":[2147483647,0,0,1,1,2,2,3,3,4,4,5,5,6,6],"right_children":[2,4,6,8,10,12,14,-1,-1,-1,-1,-1,-1,-1,-1],"split_conditions":[3.6821342E1,2.1475854E0,3E0,8.1666664E1,1E-45,6.6907067E0,1E-45,1.5212414E-2,5.8074094E-2,1.4503836E-2,-1.679282E-2,1.02025464E-1,-4.1970827E-2,-1.8128565E-2,1.0237552E-1],"split_indices":[2,3,13,0,5,8,14,0,0,0,0,0,0,0,0],"split_type":[0,0,0,0,1,0,1,0,0,0,0,0,0,0,0],"sum_hessian":[1.1186078E3,8.59072E2,2.5953583E2,2.3267532E2,6.2639667E2,1.5759018E2,1.0194566E2,1.7601776E2,5.665756E1,3.235461E2,3.028506E2,2.8601413E0,1.5473004E2,8.663966E1,1.5305999E1],"tree_param":{"num_deleted":"0","num_feature":"17","num_nodes":"15","size_leaf_vector":"1"}},{"base_weights":[-3.447184E-3,3.0710472E-2,-4.2420706E-1,1.989002E-1,-3.140206E-2,3.948669E-2,-6.051668E-1,9.203608E-3,6.1700422E-2,2.6124692E-1,-4.0666685E-3,-1.2804466E-2,1.6388333E-1,-8.265472E-2,-3.148293E-2],"categories":[0,0,1,2,4],"categories_nodes":[1,4],"categories_segments":[0,1],"categories_sizes":[1,4],"default_left":[0,1,0,1,0,0,0,0,0,0,0,0,0,0,0],"id":20,"left_children":[1,3,5,7,9,11,13,-1,-1,-1,-1,-1,-1,-1,-1],"loss_changes":[1.6072348E1,1.081254E1,7.0695696E0,1.2414396E1,1.8631477E1,6.776814E0,3.6257248E0,0E0,0E0,0E0,0E0,0E0,0E0,0E0,0E0],"parents":[2147483647,0,0,1,1,2,2,3,3,4,4,5,5,6,6],"right_children":[2,4,6,8,10,12,14,-1,-1,-1,-1,-1,-1,-1,-1],"split_conditions":[2.55E1,1E-45,2.42E2,1.3240395E1,1E-45,8.971871E1,2.00001E0,9.203608E-3,6.1700422E-2,2.6124692E-1,-4.0666685E-3,-1.2804466E-2,1.6388333E-1,-8.265472E-2,-3.148293E-2],"split_indices":[1,14,16,9,6,2,7,0,0,0,0,0,0,0,0],"split_type":[0,1,0,0,1,0,0,0,0,0,0,0,0,0,0],"sum_hessian":[1.11639E3,1.0334229E3,8.2967155E1,2.7812024E2,7.553026E2,2.3509043E1,5.9458115E1,2.2247699E2,5.5643253E1,1.6563015E0,7.536463E2,2.2112682E1,1.3963614E0,3.2687366E1,2.677075E1],"tree_param":{"num_deleted":"0","num_feature":"17","num_nodes":"15","size_leaf_vector":"1"}},{"base_weights":[-2.9976515E-3,5.6732904E-2,-2.0772675E-1,9.044121E-2,-3.132097E-1,-3.547592E-1,1.3665582E-2,3.2635592E-2,3.6514343E-3,1.2228618E-1,-4.0303346E-2,-4.5811813E-2,7.867554E-3,-1.5847268E-2,8.718536E-2],"categories":[2],"categories_nodes":[6],"categories_segments":[0],"categories_sizes":[1],"default_left":[0,0,0,0,0,0,1,0,0,0,0,0,0,0,0],"id":21,"left_children":[1,3,5,7,9,11,13,-1,-1,-1,-1,-1,-1,-1,-1],"loss_changes":[1.3655839E1,1.0809189E1,8.214972E0,1.0078195E1,1.0485065E1,6.8275414E0,1.5149975E1,0E0,0E0,0E0,0E0,0E0,0E0,0E0,0E0],"parents":[2147483647,0,0,1,1,2,2,3,3,4,4,5,5,6,6],"right_children":[2,4,6,8,10,12,14,-1,-1,-1,-1,-1,-1,-1,-1],"split_conditions":[3.6821342E1,1E0,3E0,4E0,8.5E-1,1.2959185E1,1E-45,3.2635592E-2,3.6514343E-3,1.2228618E-1,-4.0303346E-2,-4.5811813E-2,7.867554E-3,-1.5847268E-2,8.718536E-2],"split_indices":[2,15,13,11,1,9,14,0,0,0,0,0,0,0,0],"split_type":[0,0,0,0,0,0,1,0,0,0,0,0,0,0,0],"sum_hessian":[1.114751E3,8.635342E2,2.5121678E2,7.9211414E2,7.142007E1,1.5059818E2,1.0061859E2,1.4643796E2,6.4567615E2,3.2487829E0,6.817129E1,1.2155471E2,2.9043474E1,8.4487206E1,1.613139E1],"tree_param":{"num_deleted":"0","num_feature":"17","num_nodes":"15","size_leaf_vector":"1"}},{"base_weights":[-2.8064204E-3,2.6957802E-2,-3.9138752E-1,1.21167056E-1,-7.777938E-2,4.245316E-2,-5.704985E-1,1.1452668E-3,3.0940095E-2,3.1743158E-2,-1.2343533E-2,-1.1390646E-2,1.4448552E-1,-8.03455E-2,-2.7947223E-2],"categories":[1,3],"categories_nodes":[1],"categories_segments":[0],"categories_sizes":[2],"default_left":[0,1,0,0,0,0,0,0,0,0,0,0,0,0,0],"id":22,"left_children":[1,3,5,7,9,11,13,-1,-1,-1,-1,-1,-1,-1,-1],"loss_changes":[1.2891583E1,1.0226069E1,6.1864767E0,1.1261979E1,8.897203E0,5.450034E0,3.5855331E0,0E0,0E0,0E0,0E0,0E0,0E0,0E0,0E0],"parents":[2147483647,0,0,1,1,2,2,3,3,4,4,5,5,6,6],"right_children":[2,4,6,8,10,12,14,-1,-1,-1,-1,-1,-1,-1,-1],"split_conditions":[2.55E1,1E-45,2.42E2,3E0,7.828456E0,8.971871E1,2.00001E0,1.1452668E-3,3.0940095E-2,3.1743158E-2,-1.2343533E-2,-1.1390646E-2,1.4448552E-1,-8.03455E-2,-2.7947223E-2],"split_indices":[1,5,16,13,2,2,7,0,0,0,0,0,0,0,0],"split_type":[0,1,0,0,0,0,0,0,0,0,0,0,0,0,0],"sum_hessian":[1.1127161E3,1.0344136E3,7.830256E1,5.4449396E2,4.899196E2,2.3103794E1,5.5198765E1,3.446635E2,1.9983043E2,5.0119366E1,4.3980023E2,2.1612864E1,1.4909303E0,2.9680107E1,2.5518656E1],"tree_param":{"num_deleted":"0","num_feature":"17","num_nodes":"15","size_leaf_vector":"1"}},{"base_weights":[-2.654745E-3,1.1467104E-1,-8.811421E-2,2.655064E-2,3.2093155E-1,1.459433E-1,-1.8316227E-1,-4.9377427E-2,7.6704845E-3,5.2555036E-2,1.5051277E-2,4.001144E-2,-1.1047178E-2,1.9288848E-1,-1.9631853E-2],"categories":[0,0,1,0,1,2,4],"categories_nodes":[2,4,6],"categories_segments":[0,1,3],"categories_sizes":[1,2,4],"default_left":[0,1,1,0,1,0,1,0,0,0,0,0,0,0,0],"id":23,"left_children":[1,3,5,7,9,11,13,-1,-1,-1,-1,-1,-1,-1,-1],"loss_changes":[1.1164084E1,8.520417E0,1.4357868E1,8.646396E0,4.8159046E0,1.2205774E1,1.3121285E1,0E0,0E0,0E0,0E0,0E0,0E0,0E0,0E0],"parents":[2147483647,0,0,1,1,2,2,3,3,4,4,5,5,6,6],"right_children":[2,4,6,8,10,12,14,-1,-1,-1,-1,-1,-1,-1,-1],"split_conditions":[6.516667E0,2.9E1,1E-45,5.2666668E1,1E-45,9.103548E1,1E-45,-4.9377427E-2,7.6704845E-3,5.2555036E-2,1.5051277E-2,4.001144E-2,-1.1047178E-2,1.9288848E-1,-1.9631853E-2],"split_indices":[1,11,14,0,6,8,6,0,0,0,0,0,0,0,0],"split_type":[0,0,1,0,1,0,1,0,0,0,0,0,0,0,0],"sum_hessian":[1.1114392E3,4.6824802E2,6.4319116E2,3.2887283E2,1.3937517E2,1.8560362E2,4.5758755E2,2.8135536E1,3.007373E2,6.2385777E1,7.698939E1,9.292823E1,9.267539E1,1.9313039E0,4.5565625E2],"tree_param":{"num_deleted":"0","num_feature":"17","num_nodes":"15","size_leaf_vector":"1"}},{"base_weights":[-2.423388E-3,2.3840109E-2,-3.6204153E-1,1.041746E-1,-8.195336E-2,4.494671E-2,-5.3909373E-1,2.3036113E-3,6.449743E-2,-3.7809133E-3,-5.738131E-2,-6.962243E-2,3.388995E-2,-3.0596837E-2,-8.478808E-2],"categories":[2,4],"categories_nodes":[6],"categories_segments":[0],"categories_sizes":[2],"default_left":[0,1,0,0,0,1,0,0,0,0,0,0,0,0,0],"id":24,"left_children":[1,3,5,7,9,11,13,-1,-1,-1,-1,-1,-1,-1,-1],"loss_changes":[1.0500757E1,8.815195E0,5.476858E0,2.584853E1,9.701277E0,5.43483E0,3.5419712E0,0E0,0E0,0E0,0E0,0E0,0E0,0E0,0E0],"parents":[2147483647,0,0,1,1,2,2,3,3,4,4,5,5,6,6],"right_children":[2,4,6,8,10,12,14,-1,-1,-1,-1,-1,-1,-1,-1],"split_conditions":[2.55E1,9.211396E1,2.42E2,1.6870789E1,1E0,4.9580376E1,1E-45,2.3036113E-3,6.449743E-2,-3.7809133E-3,-5.738131E-2,-6.962243E-2,3.388995E-2,-3.0596837E-2,-8.478808E-2],"split_indices":[1,8,16,9,15,8,6,0,0,0,0,0,0,0,0],"split_type":[0,0,0,0,0,0,1,0,0,0,0,0,0,0,0],"sum_hessian":[1.1098857E3,1.035216E3,7.4669785E1,5.884162E2,4.4679974E2,2.2862381E1,5.1807404E1,5.1255756E2,7.58586E1,4.109904E2,3.5809364E1,6.103801E0,1.675858E1,3.0654785E1,2.115262E1],"tree_param":{"num_deleted":"0","num_feature":"17","num_nodes":"15","size_leaf_vector":"1"}},{"base_weights":[-2.5398084E-3,2.120667E-1,-4.349757E-2,7.445221E-2,1.07975E0,-1.929979E-2,-5.834526E-1,1.3759056E-2,-7.912754E-2,-1.7653493E-2,1.6041672E-1,7.5894184E-3,-1.2602772E-2,5.5746283E-2,-6.838956E-2],"categories":[2,1,3,0,1,3,4,5],"categories_nodes":[1,5,6],"categories_segments":[0,1,3],"categories_sizes":[1,2,5],"default_left":[0,1,0,1,0,1,1,0,0,0,0,0,0,0,0],"id":25,"left_children":[1,3,5,7,9,11,13,-1,-1,-1,-1,-1,-1,-1,-1],"loss_changes":[9.762927E0,2.1174915E1,1.2174507E1,8.565719E0,1.6288157E1,9.089253E0,4.96161E0,0E0,0E0,0E0,0E0,0E0,0E0,0E0,0E0],"parents":[2147483647,0,0,1,1,2,2,3,3,4,4,5,5,6,6],"right_children":[2,4,6,8,10,12,14,-1,-1,-1,-1,-1,-1,-1,-1],"split_conditions":[1.53E2,1E-45,2.805E1,7.569042E1,3E0,1E-45,1E-45,1.3759056E-2,-7.912754E-2,-1.7653493E-2,1.6041672E-1,7.5894184E-3,-1.2602772E-2,5.5746283E-2,-6.838956E-2],"split_indices":[16,14,1,9,13,5,5,0,0,0,0,0,0,0,0],"split_type":[0,1,0,0,0,1,1,0,0,0,0,0,0,0,0],"sum_hessian":[1.1086613E3,1.7700902E2,9.316523E2,1.5371555E2,2.3293467E1,8.926829E2,3.896934E1,1.4405084E2,9.664699E0,7.0552955E0,1.623817E1,4.7198956E2,4.206934E2,2.7849956E0,3.6184345E1],"tree_param":{"num_deleted":"0","num_feature":"17","num_nodes":"15","size_leaf_vector":"1"}},{"base_weights":[-2.4351531E-3,1.5845221E-1,-5.370455E-2,5.5428034E-1,9.206241E-2,4.83839E-2,-1.676486E-1,3.1566113E-2,1.5291592E-1,-9.913543E-4,2.9730499E-2,-3.0230598E-3,3.3749364E-2,6.4069524E-2,-1.8926658E-2],"categories":[1,2,4,1,3],"categories_nodes":[1,2],"categories_segments":[0,3],"categories_sizes":[3,2],"default_left":[0,0,1,0,1,0,0,0,0,0,0,0,0,0,0],"id":26,"left_children":[1,3,5,7,9,11,13,-1,-1,-1,-1,-1,-1,-1,-1],"loss_changes":[9.147919E0,6.991972E0,9.790777E0,8.425861E0,4.831735E0,1.010938E1,7.0699453E0,0E0,0E0,0E0,0E0,0E0,0E0,0E0,0E0],"parents":[2147483647,0,0,1,1,2,2,3,3,4,4,5,5,6,6],"right_children":[2,4,6,8,10,12,14,-1,-1,-1,-1,-1,-1,-1,-1],"split_conditions":[2.1475854E0,1E-45,1E-45,8.2666664E1,2.8E1,1.428313E1,1.5E1,3.1566113E-2,1.5291592E-1,-9.913543E-4,2.9730499E-2,-3.0230598E-3,3.3749364E-2,6.4069524E-2,-1.8926658E-2],"split_indices":[3,6,5,0,11,9,16,0,0,0,0,0,0,0,0],"split_type":[0,1,1,0,0,0,0,0,0,0,0,0,0,0,0],"sum_hessian":[1.1069956E3,2.6700922E2,8.399863E2,3.7295822E1,2.297134E2,4.4334537E2,3.96641E2,3.1025555E1,6.2702694E0,1.5409975E2,7.561364E1,3.492681E2,9.4077286E1,9.585382E0,3.870556E2],"tree_param":{"num_deleted":"0","num_feature":"17","num_nodes":"15","size_leaf_vector":"1"}},{"base_weights":[-2.1036218E-3,2.4213564E-2,-2.966137E-1,2.779649E-1,-2.2140605E-2,1.005616E0,-3.6982426E-1,-4.881933E-3,7.434284E-2,2.6210363E-3,-2.6753068E-2,-6.828877E-2,1.7111397E-1,4.1731786E-2,-5.3139538E-2],"categories":[],"categories_nodes":[],"categories_segments":[],"categories_sizes":[],"default_left":[0,0,0,0,0,0,0,0,0,0,0,0,0,0,0],"id":27,"left_children":[1,3,5,7,9,11,13,-1,-1,-1,-1,-1,-1,-1,-1],"loss_changes":[8.586565E0,1.196908E1,9.035667E0,2.3942236E1,1.0221213E1,7.2510595E0,1.1257035E1,0E0,0E0,0E0,0E0,0E0,0E0,0E0,0E0],"parents":[2147483647,0,0,1,1,2,2,3,3,4,4,5,5,6,6],"right_children":[2,4,6,8,10,12,14,-1,-1,-1,-1,-1,-1,-1,-1],"split_conditions":[1E0,1.53E2,8.5E-1,3E0,4.1596478E1,1.33E2,2.311234E1,-4.881933E-3,7.434284E-2,2.6210363E-3,-2.6753068E-2,-6.828877E-2,1.7111397E-1,4.1731786E-2,-5.3139538E-2],"split_indices":[15,16,1,13,2,16,8,0,0,0,0,0,0,0,0],"split_type":[0,0,0,0,0,0,0,0,0,0,0,0,0,0,0],"sum_hessian":[1.1059205E3,1.01604535E3,8.987521E1,1.5616618E2,8.598792E2,4.1058917E0,8.5769325E1,9.227708E1,6.3889103E1,7.1908575E2,1.4079343E2,1.2194681E0,2.8864238E0,1.43374195E1,7.14319E1],"tree_param":{"num_deleted":"0","num_feature":"17","num_nodes":"15","size_leaf_vector":"1"}},{"base_weights":[-2.026762E-3,7.07506E-2,-9.906689E-2,1.4135714E-3,5.2519697E-1,5.4479793E-2,-2.3894417E-1,1.1444367E-2,-1.1240043E-2,7.369161E-2,-1.2440732E-2,1.5617064E-2,-3.1194827E-2,4.473333E-2,-2.9439697E-2],"categories":[0,1,3,4,5],"categories_nodes":[6],"categories_segments":[0],"categories_sizes":[5],"default_left":[1,0,0,1,1,0,1,0,0,0,0,0,0,0,0],"id":28,"left_children":[1,3,5,7,9,11,13,-1,-1,-1,-1,-1,-1,-1,-1],"loss_changes":[7.8140817E0,1.992242E1,1.0197145E1,7.0829396E0,1.1602825E1,8.501898E0,9.581633E0,0E0,0E0,0E0,0E0,0E0,0E0,0E0,0E0],"parents":[2147483647,0,0,1,1,2,2,3,3,4,4,5,5,6,6],"right_children":[2,4,6,8,10,12,14,-1,-1,-1,-1,-1,-1,-1,-1],"split_conditions":[9.211396E1,1.6870789E1,1.9407444E1,1E0,8.9522415E1,1.5301678E2,1E-45,1.1444367E-2,-1.1240043E-2,7.369161E-2,-1.2440732E-2,1.5617064E-2,-3.1194827E-2,4.473333E-2,-2.9439697E-2],"split_indices":[8,9,2,7,9,8,5,0,0,0,0,0,0,0,0],"split_type":[0,0,0,0,0,0,1,0,0,0,0,0,0,0,0],"sum_hessian":[1.1044536E3,6.312813E2,4.7317233E2,5.4858435E2,8.269699E1,2.2585564E2,2.473167E2,2.7523727E2,2.7334708E2,6.2268147E1,2.0428848E1,1.772415E2,4.861413E1,1.7961407E1,2.2935529E2],"tree_param":{"num_deleted":"0","num_feature":"17","num_nodes":"15","size_leaf_vector":"1"}},{"base_weights":[-2.0081685E-3,1.5975093E-2,-3.868859E-1,-4.3372962E-1,2.994299E-2,9.703823E-2,-4.4985923E-1,-5.963359E-2,7.364843E-2,1.0384848E-2,-6.7037917E-3,-2.4234248E-2,-8.172378E-2],"categories":[2],"categories_nodes":[3],"categories_segments":[0],"categories_sizes":[1],"default_left":[0,0,0,1,1,0,0,0,0,0,0,0,0],"id":29,"left_children":[1,3,5,7,9,-1,11,-1,-1,-1,-1,-1,-1],"loss_changes":[7.649802E0,6.646278E0,4.6534286E0,6.5047884E0,7.3545704E0,0E0,3.448557E0,0E0,0E0,0E0,0E0,0E0,0E0],"parents":[2147483647,0,0,1,1,2,2,3,3,4,4,6,6],"right_children":[2,4,6,8,10,-1,12,-1,-1,-1,-1,-1,-1],"split_conditions":[2.805E1,3.1666666E1,4.3333335E0,1E-45,9.211396E1,9.703823E-2,3.1E1,-5.963359E-2,7.364843E-2,1.0384848E-2,-6.7037917E-3,-2.4234248E-2,-8.172378E-2],"split_indices":[1,0,0,14,8,0,11,0,0,0,0,0,0],"split_type":[0,0,0,1,0,0,0,0,0,0,0,0,0],"sum_hessian":[1.103353E3,1.0550164E3,4.8336735E1,3.0876522E1,1.0241398E3,1.5043327E0,4.68324E1,2.754011E1,3.336413E0,5.811764E2,4.4296344E2,3.0988152E1,1.584425E1],"tree_param":{"num_deleted":"0","num_feature":"17","num_nodes":"13","size_leaf_vector":"1"}},{"base_weights":[-1.9238055E-3,2.1715583E-2,-2.7353472E-1,2.3726398E-1,-2.2185037E-2,8.583271E-1,-3.4350148E-1,-4.074178E-3,6.130233E-2,-7.5873755E-2,-7.5176184E-4,1.9494675E-1,-1.118468E-2,3.5877384E-2,-4.9957182E-2],"categories":[],"categories_nodes":[],"categories_segments":[],"categories_sizes":[],"default_left":[0,0,0,0,0,0,0,0,0,0,0,0,0,0,0],"id":30,"left_children":[1,3,5,7,9,11,13,-1,-1,-1,-1,-1,-1,-1,-1],"loss_changes":[7.0908427E0,9.619592E0,7.297172E0,1.799305E1,9.123311E0,5.969861E0,9.384683E0,0E0,0E0,0E0,0E0,0E0,0E0,0E0,0E0],"parents":[2147483647,0,0,1,1,2,2,3,3,4,4,5,5,6,6],"right_children":[2,4,6,8,10,12,14,-1,-1,-1,-1,-1,-1,-1,-1],"split_conditions":[1E0,1.68E2,8.5E-1,3E0,2.8333334E1,2.0423646E0,2.311234E1,-4.074178E-3,6.130233E-2,-7.5873755E-2,-7.5176184E-4,1.9494675E-1,-1.118468E-2,3.5877384E-2,-4.9957182E-2],"split_indices":[15,16,1,13,0,9,8,0,0,0,0,0,0,0,0],"split_type":[0,0,0,0,0,0,0,0,0,0,0,0,0,0,0],"sum_hessian":[1.1024443E3,1.0150228E3,8.742146E1,1.710038E2,8.4401904E2,4.4334416E0,8.298802E1,9.879893E1,7.220488E1,1.548882E1,8.285302E2,1.6115522E0,2.8218896E0,1.4853298E1,6.813473E1],"tree_param":{"num_deleted":"0","num_feature":"17","num_nodes":"15","size_leaf_vector":"1"}},{"base_weights":[-1.79689E-3,-7.568663E-1,6.190988E-3,2.5728349E-2,-9.645777E-1,5.5300015E-1,-8.946311E-3,-1.04841106E-1,-1.9314999E-2,1.8697493E-2,1.2802213E-1,7.1192714E-3,-1.0064379E-2],"categories":[1,3],"categories_nodes":[6],"categories_segments":[0],"categories_sizes":[2],"default_left":[0,0,0,0,1,0,1,0,0,0,0,0,0],"id":31,"left_children":[1,3,5,-1,7,9,11,-1,-1,-1,-1,-1,-1],"loss_changes":[6.652993E0,2.6805696E0,9.041475E0,0E0,4.3093586E-1,7.592822E0,7.8209558E0,0E0,0E0,0E0,0E0,0E0,0E0],"parents":[2147483647,0,0,1,1,2,2,4,4,5,5,6,6],"right_children":[2,4,6,-1,8,10,12,-1,-1,-1,-1,-1,-1],"split_conditions":[4E0,1.0979577E1,2.4E1,2.5728349E-2,1.4062592E2,1.216307E2,1E-45,-1.04841106E-1,-1.9314999E-2,1.8697493E-2,1.2802213E-1,7.1192714E-3,-1.0064379E-2],"split_indices":[16,2,16,0,8,8,5,0,0,0,0,0,0],"split_type":[0,0,0,0,0,0,1,0,0,0,0,0,0],"sum_hessian":[1.1012825E3,1.0547087E1,1.0907354E3,1.7523911E0,8.794696E0,2.8424278E1,1.062311E3,7.6087747E0,1.1859208E0,1.9743887E1,8.680392E0,5.670026E2,4.953084E2],"tree_param":{"num_deleted":"0","num_feature":"17","num_nodes":"13","size_leaf_vector":"1"}},{"base_weights":[-1.6768562E-3,1.3170996E-1,-4.531362E-2,5.2421484E-2,3.9567626E-1,1.8467931E-1,-8.381439E-2,-1.15288375E-2,2.1689674E-2,1.1271667E-1,2.755797E-2,4.7573864E-2,-4.2833355E-3,1.3323701E-2,-1.30543085E-2],"categories":[1,3,4,5,1,2,3,4,0,1,3],"categories_nodes":[2,4,5],"categories_segments":[0,4,8],"categories_sizes":[4,4,3],"default_left":[0,0,1,1,0,1,0,0,0,0,0,0,0,0,0],"id":32,"left_children":[1,3,5,7,9,11,13,-1,-1,-1,-1,-1,-1,-1,-1],"loss_changes":[6.4198785E0,5.669707E0,7.3743668E0,5.8241873E0,5.193184E0,7.9323874E0,7.244663E0,0E0,0E0,0E0,0E0,0E0,0E0,0E0,0E0],"parents":[2147483647,0,0,1,1,2,2,3,3,4,4,5,5,6,6],"right_children":[2,4,6,8,10,12,14,-1,-1,-1,-1,-1,-1,-1,-1],"split_conditions":[2.1475854E0,8.1666664E1,1E-45,1.6E1,1E-45,1E-45,1.53E2,-1.15288375E-2,2.1689674E-2,1.1271667E-1,2.755797E-2,4.7573864E-2,-4.2833355E-3,1.3323701E-2,-1.30543085E-2],"split_indices":[3,0,5,11,6,6,16,0,0,0,0,0,0,0,0],"split_type":[0,0,1,0,1,1,0,0,0,0,0,0,0,0,0],"sum_hessian":[1.1009387E3,2.7088666E2,8.30052E2,2.0923624E2,6.165043E1,1.1848124E2,7.115708E2,1.0374748E2,1.0548875E2,7.5117817E0,5.413865E1,5.1502506E1,6.697873E1,1.25726944E2,5.858439E2],"tree_param":{"num_deleted":"0","num_feature":"17","num_nodes":"15","size_leaf_vector":"1"}},{"base_weights":[-1.4784774E-3,1.46034835E-2,-3.6134127E-1,-7.201302E-1,2.2097068E-2,8.998396E-2,-4.2279038E-1,2.2988295E-2,-9.370627E-2,5.1109534E-2,8.6556695E-4,-2.2210905E-2,-7.969442E-2],"categories":[],"categories_nodes":[],"categories_segments":[],"categories_sizes":[],"default_left":[0,0,0,0,0,0,0,0,0,0,0,0,0],"id":33,"left_children":[1,3,5,7,9,-1,11,-1,-1,-1,-1,-1,-1],"loss_changes":[6.377242E0,5.823902E0,4.0335593E0,2.416442E0,6.865539E0,0E0,3.2490196E0,0E0,0E0,0E0,0E0,0E0,0E0],"parents":[2147483647,0,0,1,1,2,2,3,3,4,4,6,6],"right_children":[2,4,6,8,10,-1,12,-1,-1,-1,-1,-1,-1],"split_conditions":[2.805E1,4E0,4.3333335E0,1.0979577E1,2.4E1,8.998396E-2,3.1E1,2.2988295E-2,-9.370627E-2,5.1109534E-2,8.6556695E-4,-2.2210905E-2,-7.969442E-2],"split_indices":[1,16,0,2,16,0,11,0,0,0,0,0,0],"split_type":[0,0,0,0,0,0,0,0,0,0,0,0,0],"sum_hessian":[1.1000256E3,1.0538877E3,4.6137924E1,9.680001E0,1.0442078E3,1.5096768E0,4.4628246E1,1.7883918E0,7.891609E0,2.6944447E1,1.0172633E3,3.0085308E1,1.4542941E1],"tree_param":{"num_deleted":"0","num_feature":"17","num_nodes":"13","size_leaf_vector":"1"}},{"base_weights":[-1.447109E-3,1.9722305E-2,-2.5091293E-1,2.1034989E-1,-1.3422652E-2,7.665339E-1,-3.1836948E-1,3.978799E-2,-2.1201102E-2,2.398364E-3,-3.3886757E-2,-6.713935E-2,1.2976441E-1,3.180751E-2,-4.6936695E-2],"categories":[],"categories_nodes":[],"categories_segments":[],"categories_sizes":[],"default_left":[0,0,0,1,0,0,0,0,0,0,0,0,0,0,0],"id":34,"left_children":[1,3,5,7,9,11,13,-1,-1,-1,-1,-1,-1,-1,-1],"loss_changes":[5.8168645E0,6.4182568E0,6.1573024E0,1.2001198E1,1.0549461E1,5.186494E0,7.9822083E0,0E0,0E0,0E0,0E0,0E0,0E0,0E0,0E0],"parents":[2147483647,0,0,1,1,2,2,3,3,4,4,5,5,6,6],"right_children":[2,4,6,8,10,12,14,-1,-1,-1,-1,-1,-1,-1,-1],"split_conditions":[1E0,3E0,8.5E-1,8.9522415E1,4.3129044E1,1.33E2,2.311234E1,3.978799E-2,-2.1201102E-2,2.398364E-3,-3.3886757E-2,-6.713935E-2,1.2976441E-1,3.180751E-2,-4.6936695E-2],"split_indices":[15,11,1,9,3,16,8,0,0,0,0,0,0,0,0],"split_type":[0,0,0,0,0,0,0,0,0,0,0,0,0,0,0],"sum_hessian":[1.0995236E3,1.01436646E3,8.515716E1,1.4945502E2,8.6491144E2,4.6504865E0,8.050667E1,1.0354054E2,4.5914474E1,7.765786E2,8.8332825E1,1.1831349E0,3.4673514E0,1.5225535E1,6.5281136E1],"tree_param":{"num_deleted":"0","num_feature":"17","num_nodes":"15","size_leaf_vector":"1"}},{"base_weights":[-1.4385469E-3,1.1543688E-1,-4.7225527E-2,4.1310754E-2,3.9421692E-1,-2.3303559E-2,-6.3943684E-1,2.7769124E-2,-7.6610404E-3,6.796139E-2,-1.800527E-2,1.7315355E-1,-3.0901956E-3,-8.4203415E-2,-4.005855E-2],"categories":[0,1,0,1,2,4],"categories_nodes":[0,4,5],"categories_segments":[0,1,2],"categories_sizes":[1,1,4],"default_left":[1,1,0,0,1,0,0,0,0,0,0,0,0,0,0],"id":35,"left_children":[1,3,5,7,9,11,13,-1,-1,-1,-1,-1,-1,-1,-1],"loss_changes":[5.8898892E0,6.385995E0,1.1188227E1,6.8743453E0,1.0768623E1,1.0202422E1,1.1466246E0,0E0,0E0,0E0,0E0,0E0,0E0,0E0,0E0],"parents":[2147483647,0,0,1,1,2,2,3,3,4,4,5,5,6,6],"right_children":[2,4,6,8,10,12,14,-1,-1,-1,-1,-1,-1,-1,-1],"split_conditions":[1E-45,1.3240395E1,6.057486E1,2.33E2,1E-45,1E-45,2.8333334E1,2.7769124E-2,-7.6610404E-3,6.796139E-2,-1.800527E-2,1.7315355E-1,-3.0901956E-3,-8.4203415E-2,-4.005855E-2],"split_indices":[14,9,2,16,6,6,0,0,0,0,0,0,0,0,0],"split_type":[1,0,0,0,1,1,0,0,0,0,0,0,0,0,0],"sum_hessian":[1.0986127E3,3.0881445E2,7.8979816E2,2.448566E2,6.395788E1,7.601325E2,2.9665678E1,8.104394E1,1.6381265E2,4.260224E1,2.1355633E1,2.2990048E0,7.578335E2,1.4684621E1,1.4981058E1],"tree_param":{"num_deleted":"0","num_feature":"17","num_nodes":"15","size_leaf_vector":"1"}},{"base_weights":[-1.335682E-3,3.887423E-1,-1.3611542E-2,1.2177987E0,2.6790562E-1,-7.685323E-1,-6.2497505E-3,-2.8492851E-2,1.8369372E-1,5.7641804E-2,-2.2214653E-2,3.7880946E-2,-9.4091274E-2,6.3882093E-3,-8.834323E-3],"categories":[1,2,3,4,5,1,2,1,3],"categories_nodes":[1,4,6],"categories_segments":[0,5,7],"categories_sizes":[5,2,2],"default_left":[0,1,0,0,1,0,1,0,0,0,0,0,0,0,0],"id":36,"left_children":[1,3,5,7,9,11,13,-1,-1,-1,-1,-1,-1,-1,-1],"loss_changes":[5.263736E0,3.033587E0,5.9173007E0,4.2304163E0,4.7473564E0,2.3901563E0,6.087206E0,0E0,0E0,0E0,0E0,0E0,0E0,0E0,0E0],"parents":[2147483647,0,0,1,1,2,2,3,3,4,4,5,5,6,6],"right_children":[2,4,6,8,10,12,14,-1,-1,-1,-1,-1,-1,-1,-1],"split_conditions":[6.0534883E0,1E-45,4E0,6.062889E1,1E-45,1.5454737E1,1E-45,-2.8492851E-2,1.8369372E-1,5.7641804E-2,-2.2214653E-2,3.7880946E-2,-9.4091274E-2,6.3882093E-3,-8.834323E-3],"split_indices":[2,5,16,8,6,8,5,0,0,0,0,0,0,0,0],"split_type":[0,1,0,0,1,0,1,0,0,0,0,0,0,0,0],"sum_hessian":[1.0971304E3,3.253791E1,1.0645925E3,2.9843466E0,2.9553564E1,9.282828E0,1.0553097E3,1.028309E0,1.9560376E0,1.8027874E1,1.1525689E1,1.0560927E0,8.226735E0,5.692368E2,4.860729E2],"tree_param":{"num_deleted":"0","num_feature":"17","num_nodes":"15","size_leaf_vector":"1"}},{"base_weights":[-1.1565185E-3,2.6373E-2,-1.6572864E-1,1.8171914E-2,8.009366E-1,3.6028424E-1,-2.2982927E-1,3.4727938E-3,-4.3997016E-2,3.0754065E-2,2.221111E-1,-8.4358394E-2,7.047602E-2,-1.7367512E-2,-8.8700294E-2],"categories":[0,1,3,4],"categories_nodes":[2],"categories_segments":[0],"categories_sizes":[4],"default_left":[0,1,1,0,0,0,0,0,0,0,0,0,0,0,0],"id":37,"left_children":[1,3,5,7,9,11,13,-1,-1,-1,-1,-1,-1,-1,-1],"loss_changes":[4.976664E0,5.963417E0,5.39051E0,7.0863357E0,6.2094536E0,7.847122E0,5.046589E0,0E0,0E0,0E0,0E0,0E0,0E0,0E0,0E0],"parents":[2147483647,0,0,1,1,2,2,3,3,4,4,5,5,6,6],"right_children":[2,4,6,8,10,12,14,-1,-1,-1,-1,-1,-1,-1,-1],"split_conditions":[1.8983334E1,1.29E2,1E-45,1.147E3,1.488487E2,1.5410496E0,7.5E1,3.4727938E-3,-4.3997016E-2,3.0754065E-2,2.221111E-1,-8.4358394E-2,7.047602E-2,-1.7367512E-2,-8.8700294E-2],"split_indices":[1,11,5,16,8,9,11,0,0,0,0,0,0,0,0],"split_type":[0,0,1,0,0,0,0,0,0,0,0,0,0,0,0],"sum_hessian":[1.0964932E3,9.4007733E2,1.5641579E2,9.312408E2,8.836526E0,1.6488634E1,1.3992715E2,8.9965393E2,3.1586882E1,7.460987E0,1.3755392E0,3.346045E0,1.314259E1,1.3007664E2,9.850508E0],"tree_param":{"num_deleted":"0","num_feature":"17","num_nodes":"15","size_leaf_vector":"1"}},{"base_weights":[-1.0845765E-3,5.640397E-2,-7.960897E-2,-1.4270258E-3,4.186635E-1,5.2580412E-2,-2.048321E-1,1.1211084E-2,-1.1558316E-2,2.3489317E-2,1.1048546E-1,1.4285998E-2,-2.8440272E-2,3.4380384E-2,-2.5448063E-2],"categories":[0,1,3,4,5],"categories_nodes":[6],"categories_segments":[0],"categories_sizes":[5],"default_left":[1,0,0,1,1,0,1,0,0,0,0,0,0,0,0],"id":38,"left_children":[1,3,5,7,9,11,13,-1,-1,-1,-1,-1,-1,-1,-1],"loss_changes":[4.956772E0,1.3281434E1,7.6930475E0,7.111234E0,1.0745734E1,6.9333286E0,6.5848722E0,0E0,0E0,0E0,0E0,0E0,0E0,0E0,0E0],"parents":[2147483647,0,0,1,1,2,2,3,3,4,4,5,5,6,6],"right_children":[2,4,6,8,10,12,14,-1,-1,-1,-1,-1,-1,-1,-1],"split_conditions":[9.211396E1,1.6870789E1,1.9407444E1,1E0,5.976346E1,1.5301678E2,1E-45,1.1211084E-2,-1.1558316E-2,2.3489317E-2,1.1048546E-1,1.4285998E-2,-2.8440272E-2,3.4380384E-2,-2.5448063E-2],"split_indices":[8,9,2,7,8,8,5,0,0,0,0,0,0,0,0],"split_type":[0,0,0,0,0,0,1,0,0,0,0,0,0,0,0],"sum_hessian":[1.0960323E3,6.3293536E2,4.6309702E2,5.466624E2,8.627295E1,2.2556442E2,2.3753261E2,2.7408237E2,2.7258005E2,6.9107445E1,1.7165504E1,1.7835756E2,4.720687E1,1.921993E1,2.1831267E2],"tree_param":{"num_deleted":"0","num_feature":"17","num_nodes":"15","size_leaf_vector":"1"}},{"base_weights":[-1.0462238E-3,1.8126264E-2,-2.3195118E-1,1.9208868E-1,-1.5313755E-2,-4.149944E-1,1.6625452E-1,-6.0023996E-3,5.208222E-2,-2.4936663E-3,8.343963E-2,8.363616E-2,-4.753534E-2,8.023585E-2,-3.092062E-2],"categories":[1,2,3],"categories_nodes":[6],"categories_segments":[0],"categories_sizes":[3],"default_left":[0,0,0,0,1,0,1,0,0,0,0,0,0,0,0],"id":39,"left_children":[1,3,5,7,9,11,13,-1,-1,-1,-1,-1,-1,-1,-1],"loss_changes":[4.8567553E0,5.895947E0,6.199521E0,1.35738735E1,6.975959E0,4.7713366E0,8.474737E0,0E0,0E0,0E0,0E0,0E0,0E0,0E0,0E0],"parents":[2147483647,0,0,1,1,2,2,3,3,4,4,5,5,6,6],"right_children":[2,4,6,8,10,12,14,-1,-1,-1,-1,-1,-1,-1,-1],"split_conditions":[1E0,1.53E2,6.52E2,3E0,1.29E2,6.6907067E0,1E-45,-6.0023996E-3,5.208222E-2,-2.4936663E-3,8.343963E-2,8.363616E-2,-4.753534E-2,8.023585E-2,-3.092062E-2],"split_indices":[15,16,16,13,11,8,5,0,0,0,0,0,0,0,0],"split_type":[0,0,0,0,0,0,1,0,0,0,0,0,0,0,0],"sum_hessian":[1.0951206E3,1.0120127E3,8.310789E1,1.6240443E2,8.496083E2,5.6907196E1,2.620069E1,9.237641E1,7.002802E1,8.41054E2,8.554224E0,2.0270114E0,5.4880184E1,1.0912996E1,1.5287694E1],"tree_param":{"num_deleted":"0","num_feature":"17","num_nodes":"15","size_leaf_vector":"1"}},{"base_weights":[-9.010546E-4,-6.7771673E-1,5.368209E-3,2.379972E-2,-8.985745E-1,3.994893E-1,-6.3938475E-3,-9.971024E-2,-1.0038949E-2,6.9075073E-3,9.455678E-2,4.663398E-3,-1.0309276E-2],"categories":[],"categories_nodes":[],"categories_segments":[],"categories_sizes":[],"default_left":[0,0,0,0,1,0,1,0,0,0,0,0,0],"id":40,"left_children":[1,3,5,-1,7,9,11,-1,-1,-1,-1,-1,-1],"loss_changes":[4.6505E0,2.2482119E0,5.037309E0,0E0,5.5372286E-1,5.616392E0,5.4176407E0,0E0,0E0,0E0,0E0,0E0,0E0],"parents":[2147483647,0,0,1,1,2,2,4,4,5,5,6,6],"right_children":[2,4,6,-1,8,10,12,-1,-1,-1,-1,-1,-1],"split_conditions":[4E0,1.0979577E1,2.4E1,2.379972E-2,1.4062592E2,1.1736534E2,1.0821194E2,-9.971024E-2,-1.0038949E-2,6.9075073E-3,9.455678E-2,4.663398E-3,-1.0309276E-2],"split_indices":[16,2,16,0,8,8,8,0,0,0,0,0,0],"split_type":[0,0,0,0,0,0,0,0,0,0,0,0,0],"sum_hessian":[1.0941481E3,9.058984E0,1.0850891E3,1.7452545E0,7.313729E0,3.0489445E1,1.0545996E3,6.28829E0,1.0254387E0,1.9697578E1,1.0791867E1,6.8143274E2,3.731669E2],"tree_param":{"num_deleted":"0","num_feature":"17","num_nodes":"13","size_leaf_vector":"1"}},{"base_weights":[-8.698907E-4,1.2376673E-2,-3.179176E-1,-3.7410545E-1,2.3240985E-2,1.1231684E-2,-6.0223025E-1,-5.3561736E-2,6.395371E-2,4.3621447E-2,1.4015521E-3,-7.2038315E-2,3.0660858E-2,2.3652254E-2,-7.910846E-2],"categories":[0,2,3,4,2],"categories_nodes":[2,3],"categories_segments":[0,4],"categories_sizes":[4,1],"default_left":[0,0,0,1,0,0,0,0,0,0,0,0,0,0,0],"id":41,"left_children":[1,3,5,7,9,11,13,-1,-1,-1,-1,-1,-1,-1,-1],"loss_changes":[4.6019316E0,4.4253516E0,4.119232E0,5.0606427E0,3.895389E0,4.834322E0,3.9249153E0,0E0,0E0,0E0,0E0,0E0,0E0,0E0,0E0],"parents":[2147483647,0,0,1,1,2,2,3,3,4,4,5,5,6,6],"right_children":[2,4,6,8,10,12,14,-1,-1,-1,-1,-1,-1,-1,-1],"split_conditions":[2.805E1,3.1666666E1,1E-45,1E-45,5.6127086E0,4.3993637E1,9.5E1,-5.3561736E-2,6.395371E-2,4.3621447E-2,1.4015521E-3,-7.2038315E-2,3.0660858E-2,2.3652254E-2,-7.910846E-2],"split_indices":[1,0,6,14,2,2,16,0,0,0,0,0,0,0,0],"split_type":[0,0,1,1,0,0,0,0,0,0,0,0,0,0,0],"sum_hessian":[1.0938152E3,1.0508698E3,4.2945404E1,2.781889E1,1.0230509E3,2.0348455E1,2.2596949E1,2.440227E1,3.4166205E0,2.1343328E1,1.0017076E3,5.4386587E0,1.4909796E1,4.1064944E0,1.8490454E1],"tree_param":{"num_deleted":"0","num_feature":"17","num_nodes":"15","size_leaf_vector":"1"}},{"base_weights":[-9.2684233E-4,1.005819E-1,-4.11452E-2,4.433874E-1,5.1416345E-2,-2.1555666E-2,-6.303871E-1,7.025839E-2,-4.79553E-2,-1.752547E-2,1.21311955E-2,-3.2821689E-3,8.225419E-2,-8.2804844E-2,-3.0503182E-2],"categories":[0],"categories_nodes":[0],"categories_segments":[0],"categories_sizes":[1],"default_left":[1,0,0,0,0,0,0,0,0,0,0,0,0,0,0],"id":42,"left_children":[1,3,5,7,9,11,13,-1,-1,-1,-1,-1,-1,-1,-1],"loss_changes":[4.470369E0,5.214407E0,9.039043E0,9.629504E0,4.3447495E0,7.254844E0,1.367938E0,0E0,0E0,0E0,0E0,0E0,0E0,0E0,0E0],"parents":[2147483647,0,0,1,1,2,2,3,3,4,4,5,5,6,6],"right_children":[2,4,6,8,10,12,14,-1,-1,-1,-1,-1,-1,-1,-1],"split_conditions":[1E-45,5.8E1,6.1317654E1,1E0,2E0,1.0279326E4,7.35E2,7.025839E-2,-4.79553E-2,-1.752547E-2,1.21311955E-2,-3.2821689E-3,8.225419E-2,-8.2804844E-2,-3.0503182E-2],"split_indices":[14,16,2,15,13,9,16,0,0,0,0,0,0,0,0],"split_type":[1,0,0,0,0,0,0,0,0,0,0,0,0,0,0],"sum_hessian":[1.09299E3,3.0973538E2,7.832546E2,3.7844864E1,2.7189053E2,7.590561E2,2.419848E1,2.973337E1,8.111496E0,6.3724617E1,2.0816591E2,7.5000696E2,9.049097E0,1.4092116E1,1.0106363E1],"tree_param":{"num_deleted":"0","num_feature":"17","num_nodes":"15","size_leaf_vector":"1"}},{"base_weights":[-9.675609E-4,-1.6908242E-1,2.270935E-2,-2.1655747E-1,1.0995123E0,1.04322106E-1,-6.7232735E-2,3.190434E-3,-4.5669224E-2,-5.730758E-2,1.6900183E-1,4.8943767E-3,3.5952598E-2,4.7902237E-3,-1.7941413E-2],"categories":[],"categories_nodes":[],"categories_segments":[],"categories_sizes":[],"default_left":[0,0,1,0,0,0,0,0,0,0,0,0,0,0,0],"id":43,"left_children":[1,3,5,7,9,11,13,-1,-1,-1,-1,-1,-1,-1,-1],"loss_changes":[4.3534884E0,8.369923E0,7.0445347E0,7.829708E0,5.941626E0,7.091662E0,5.907352E0,0E0,0E0,0E0,0E0,0E0,0E0,0E0,0E0],"parents":[2147483647,0,0,1,1,2,2,3,3,4,4,5,5,6,6],"right_children":[2,4,6,8,10,12,14,-1,-1,-1,-1,-1,-1,-1,-1],"split_conditions":[8.1234884E-1,1.115E3,9.211396E1,7.65E0,1.446537E1,1.6870789E1,1.9407444E1,3.190434E-3,-4.5669224E-2,-5.730758E-2,1.6900183E-1,4.8943767E-3,3.5952598E-2,4.7902237E-3,-1.7941413E-2],"split_indices":[9,16,8,1,8,9,2,0,0,0,0,0,0,0,0],"split_type":[0,0,0,0,0,0,0,0,0,0,0,0,0,0,0],"sum_hessian":[1.0917556E3,1.3402031E2,9.577353E2,1.2998512E2,4.0351844E0,5.0203378E2,4.557015E2,6.431109E1,6.567404E1,1.060597E0,2.9745874E0,4.1349796E2,8.853582E1,2.2517302E2,2.3052849E2],"tree_param":{"num_deleted":"0","num_feature":"17","num_nodes":"15","size_leaf_vector":"1"}},{"base_weights":[-9.3045353E-4,-6.658343E-1,5.043849E-3,3.7790466E-2,-8.365408E-1,2.1980844E-2,-2.0573516E-1,-9.227513E-2,-1.9217277E-2,4.868954E-2,8.5832225E-4,6.326142E-4,-5.614655E-2],"categories":[],"categories_nodes":[],"categories_segments":[],"categories_sizes":[],"default_left":[0,0,0,0,0,0,0,0,0,0,0,0,0],"id":44,"left_children":[1,3,5,-1,7,9,11,-1,-1,-1,-1,-1,-1],"loss_changes":[4.3394966E0,2.0494509E0,3.8702762E0,0E0,3.0441332E-1,6.2446184E0,6.086526E0,0E0,0E0,0E0,0E0,0E0,0E0],"parents":[2147483647,0,0,1,1,2,2,4,4,5,5,6,6],"right_children":[2,4,6,-1,8,10,12,-1,-1,-1,-1,-1,-1],"split_conditions":[4E0,1.5454737E1,1E0,3.7790466E-2,1E0,2.4E1,9.801101E1,-9.227513E-2,-1.9217277E-2,4.868954E-2,8.5832225E-4,6.326142E-4,-5.614655E-2],"split_indices":[16,8,15,0,15,16,8,0,0,0,0,0,0],"split_type":[0,0,0,0,0,0,0,0,0,0,0,0,0],"sum_hessian":[1.0905837E3,8.728286E0,1.0818553E3,1.0562656E0,7.6720204E0,1.00221857E3,7.963684E1,6.3856544E0,1.286366E0,2.7082417E1,9.7513617E2,5.05091E1,2.9127739E1],"tree_param":{"num_deleted":"0","num_feature":"17","num_nodes":"13","size_leaf_vector":"1"}},{"base_weights":[-9.796465E-4,9.190786E-3,-3.4843042E-1,2.1068327E-2,-3.2140097E-1,-6.74832E-1,4.5615803E-2,1.457446E-3,7.377099E-2,-5.054408E-2,2.3145353E-2,-8.139253E-2,-2.1467234E-3,4.4143833E-2,-4.9113236E-2],"categories":[],"categories_nodes":[],"categories_segments":[],"categories_sizes":[],"default_left":[0,0,0,0,0,1,0,0,0,0,0,0,0,0,0],"id":45,"left_children":[1,3,5,7,9,11,13,-1,-1,-1,-1,-1,-1,-1,-1],"loss_changes":[3.859456E0,4.1737413E0,4.0257015E0,4.7609725E0,3.8680513E0,1.5321674E0,3.4055216E0,0E0,0E0,0E0,0E0,0E0,0E0,0E0,0E0],"parents":[2147483647,0,0,1,1,2,2,3,3,4,4,5,5,6,6],"right_children":[2,4,6,8,10,12,14,-1,-1,-1,-1,-1,-1,-1,-1],"split_conditions":[3.0033333E1,1.147E3,3E0,1.139E3,7.9333336E1,1.2959185E1,9.103548E1,1.457446E-3,7.377099E-2,-5.054408E-2,2.3145353E-2,-8.139253E-2,-2.1467234E-3,4.4143833E-2,-4.9113236E-2],"split_indices":[1,16,13,16,0,9,8,0,0,0,0,0,0,0,0],"split_type":[0,0,0,0,0,0,0,0,0,0,0,0,0,0,0],"sum_hessian":[1.0902717E3,1.0602112E3,3.0060509E1,1.0243447E3,3.5866512E1,1.6051746E1,1.4008763E1,1.0161571E3,8.187598E0,2.6973171E1,8.89334E0,1.3031711E1,3.0200348E0,8.165051E0,5.843712E0],"tree_param":{"num_deleted":"0","num_feature":"17","num_nodes":"15","size_leaf_vector":"1"}},{"base_weights":[-1.0086665E-3,-6.346226E-1,4.461514E-3,2.382586E-2,-8.642605E-1,-1.5735382E-1,2.7015116E-2,-9.7986415E-2,-1.1449228E-2,-2.0199716E-2,9.216899E-2,9.925264E-3,-5.368532E-3],"categories":[],"categories_nodes":[],"categories_segments":[],"categories_sizes":[],"default_left":[0,0,0,0,0,0,1,0,0,0,0,0,0],"id":46,"left_children":[1,3,5,-1,7,9,11,-1,-1,-1,-1,-1,-1],"loss_changes":[3.7842512E0,2.0791664E0,3.955454E0,0E0,5.478487E-1,6.5731926E0,5.5497265E0,0E0,0E0,0E0,0E0,0E0,0E0],"parents":[2147483647,0,0,1,1,2,2,4,4,5,5,6,6],"right_children":[2,4,6,-1,8,10,12,-1,-1,-1,-1,-1,-1],"split_conditions":[4E0,1.0979577E1,8.1234884E-1,2.382586E-2,2.00001E0,1.115E3,9.211396E1,-9.7986415E-2,-1.1449228E-2,-2.0199716E-2,9.216899E-2,9.925264E-3,-5.368532E-3],"split_indices":[16,2,9,0,7,16,8,0,0,0,0,0,0],"split_type":[0,0,0,0,0,0,0,0,0,0,0,0,0],"sum_hessian":[1.0900096E3,8.345376E0,1.0816642E3,1.7303956E0,6.61498E0,1.3158737E2,9.5007684E2,5.465403E0,1.1495774E0,1.2714E2,4.4473705E0,5.0120364E2,4.488732E2],"tree_param":{"num_deleted":"0","num_feature":"17","num_nodes":"13","size_leaf_vector":"1"}},{"base_weights":[-9.875309E-4,1.8778134E-2,-1.7386137E-1,3.8886838E-2,-4.172332E-1,-3.524383E-1,4.43383E-1,-8.4929605E-4,2.0443885E-2,3.487585E-2,-6.854427E-2,6.753597E-2,-4.1097157E-2,-1.5879055E-2,1.0065506E-1],"categories":[1,4],"categories_nodes":[4],"categories_segments":[0],"categories_sizes":[2],"default_left":[0,1,1,0,1,0,1,0,0,0,0,0,0,0,0],"id":47,"left_children":[1,3,5,7,9,11,13,-1,-1,-1,-1,-1,-1,-1,-1],"loss_changes":[3.7302406E0,8.606003E0,1.2502728E1,7.354832E0,9.130237E0,5.5375853E0,8.8337345E0,0E0,0E0,0E0,0E0,0E0,0E0,0E0,0E0],"parents":[2147483647,0,0,1,1,2,2,3,3,4,4,5,5,6,6],"right_children":[2,4,6,8,10,12,14,-1,-1,-1,-1,-1,-1,-1,-1],"split_conditions":[4.3129044E1,8.9522415E1,1.428313E1,1.8212873E1,1E-45,5.6127086E0,1E0,-8.4929605E-4,2.0443885E-2,3.487585E-2,-6.854427E-2,6.753597E-2,-4.1097157E-2,-1.5879055E-2,1.0065506E-1],"split_indices":[3,9,9,3,6,2,7,0,0,0,0,0,0,0,0],"split_type":[0,0,0,0,1,0,0,0,0,0,0,0,0,0,0],"sum_hessian":[1.0897266E3,9.7871564E2,1.1101084E2,9.3643823E2,4.227742E1,8.64335E1,2.4577337E1,7.2880743E2,2.0763078E2,1.0886332E1,3.1391088E1,4.089368E0,8.234413E1,1.2224348E1,1.235299E1],"tree_param":{"num_deleted":"0","num_feature":"17","num_nodes":"15","size_leaf_vector":"1"}},{"base_weights":[-9.713754E-4,5.2433677E-2,-6.4443186E-2,-2.6894946E-2,1.8203269E-1,4.4208136E-1,-9.0175174E-2,2.833573E-2,-8.15163E-3,-1.6901213E-3,3.6029834E-2,-4.071935E-2,7.4972354E-2,-5.926006E-3,-4.2799532E-2],"categories":[1,3],"categories_nodes":[0],"categories_segments":[0],"categories_sizes":[2],"default_left":[1,0,0,0,0,0,0,0,0,0,0,0,0,0,0],"id":48,"left_children":[1,3,5,7,9,11,13,-1,-1,-1,-1,-1,-1,-1,-1],"loss_changes":[3.699821E0,6.0989842E0,6.5402517E0,6.2689E0,7.9922132E0,6.6491303E0,4.9401093E0,0E0,0E0,0E0,0E0,0E0,0E0,0E0,0E0],"parents":[2147483647,0,0,1,1,2,2,3,3,4,4,5,5,6,6],"right_children":[2,4,6,8,10,12,14,-1,-1,-1,-1,-1,-1,-1,-1],"split_conditions":[1E-45,3E0,8.5E-1,3E0,1.7E1,2.5295855E1,1E0,2.833573E-2,-8.15163E-3,-1.6901213E-3,3.6029834E-2,-4.071935E-2,7.4972354E-2,-5.926006E-3,-4.2799532E-2],"split_indices":[5,13,1,11,11,8,15,0,0,0,0,0,0,0,0],"split_type":[1,0,0,0,0,0,0,0,0,0,0,0,0,0,0],"sum_hessian":[1.0894874E3,5.917576E2,4.977298E2,3.6756226E2,2.241954E2,2.3280558E1,4.7444925E2,5.439695E1,3.1316528E2,1.06383224E2,1.1781218E2,6.1046133E0,1.7175945E1,4.3574783E2,3.870141E1],"tree_param":{"num_deleted":"0","num_feature":"17","num_nodes":"15","size_leaf_vector":"1"}},{"base_weights":[-9.754506E-4,8.9310996E-2,-3.704543E-2,5.425648E-2,5.1758415E-1,-8.024585E-1,-2.374534E-2,9.795549E-3,-5.0014783E-2,1.3953644E-2,1.6356288E-1,-4.0346663E-3,-8.643783E-2,5.822254E-3,-1.2269783E-2],"categories":[0],"categories_nodes":[0],"categories_segments":[0],"categories_sizes":[1],"default_left":[1,0,0,0,0,0,0,0,0,0,0,0,0,0,0],"id":49,"left_children":[1,3,5,7,9,11,13,-1,-1,-1,-1,-1,-1,-1,-1],"loss_changes":[3.552928E0,4.647501E0,7.9166064E0,7.0503736E0,9.68166E0,5.9197235E-1,6.2302184E0,0E0,0E0,0E0,0E0,0E0,0E0,0E0,0E0],"parents":[2147483647,0,0,1,1,2,2,3,3,4,4,5,5,6,6],"right_children":[2,4,6,8,10,12,14,-1,-1,-1,-1,-1,-1,-1,-1],"split_conditions":[1E-45,5.6945004E1,2.8333334E1,2.38E1,1.2959185E1,4.3333335E0,7.9333334E0,9.795549E-3,-5.0014783E-2,1.3953644E-2,1.6356288E-1,-4.0346663E-3,-8.643783E-2,5.822254E-3,-1.2269783E-2],"split_indices":[14,2,0,1,9,0,1,0,0,0,0,0,0,0,0],"split_type":[1,0,0,0,0,0,0,0,0,0,0,0,0,0,0],"sum_hessian":[1.088967E3,3.1043753E2,7.785295E2,2.8799185E2,2.244569E1,1.2283542E1,7.662459E2,2.6771356E2,2.0278284E1,1.7614464E1,4.8312254E0,1.0471202E0,1.1236422E1,4.1931528E2,3.4693063E2],"tree_param":{"num_deleted":"0","num_feature":"17","num_nodes":"15","size_leaf_vector":"1"}}]},"name":"gbtree"},"learner_model_param":{"base_score":"[8.378846E-2]","boost_from_average":"1","num_class":"0","num_feature":"17","num_target":"1"},"objective":{"name":"binary:logistic","reg_loss_param":{"scale_pos_weight":"1"}}},"version":[3,2,0]}