{"learner":{"attributes":{"scikit_learn":"{\"_estimator_type\": \"classifier\"}"},"feature_names":["x_adj","y_adj","distance","angle","behind_the_net","shot_type","prev_type","prev_event_same_team","dist_from_prev_event","speed_from_prev_event","crossed_royal_road","time_from_prev_event","home_team_shot","period","game_state","goalie_pulled","time_remaining"],"feature_types":["float","float","float","float","i","c","c","i","float","float","i","float","i","int","c","i","int"],"gradient_booster":{"model":{"cats":{"enc":[{"offsets":[],"values":[]},{"offsets":[],"values":[]},{"offsets":[],"values":[]},{"offsets":[],"values":[]},{"offsets":[],"values":[]},{"offsets":[0,1,2,3,4,5,6],"values":[49,50,51,52,53,54]},{"offsets":[0,12,19,22,29,33],"values":[98,108,111,99,107,101,100,95,115,104,111,116,102,97,99,101,111,102,102,104,105,116,112,101,110,97,108,116,121,115,104,111,116]},{"offsets":[],"values":[]},{"offsets":[],"values":[]},{"offsets":[],"values":[]},{"offsets":[],"values":[]},{"offsets":[],"values":[]},{"offsets":[],"values":[]},{"offsets":[],"values":[]},{"offsets":[0,2,4,6],"values":[101,118,112,112,115,104]},{"offsets":[],"values":[]},{"offsets":[],"values":[]}],"feature_segments":[0,0,0,0,0,0,6,11,11,11,11,11,11,11,11,14,14,14],"sorted_idx":[0,1,2,3,4,5,0,1,2,3,4,0,1,2]},"gbtree_model_param":{"num_parallel_tree":"1","num_trees":"50"},"iteration_indptr":[0,1,2,3,4,5,6,7,8,9,10,11,12,13,14,15,16,17,18,19,20,21,22,23,24,25,26,27,28,29,30,31,32,33,34,35,36,37,38,39,40,41,42,43,44,45,46,47,48,49,50],"tree_info":[0,0,0,0,0,0,0,0,0,0,0,0,0,0,0,0,0,0,0,0,0,0,0,0,0,0,0,0,0,0,0,0,0,0,0,0,0,0,0,0,0,0,0,0,0,0,0,0,0,0],"trees":[{"base_weights":[-2.3410086E-8,5.7336354E-1,-4.9833462E-1,1.037926E0,1.7878914E-1,1.790014E-1,-6.75212E-1,2.9225925E-1,9.1524884E-2,4.198016E-2,-3.694332E-2,9.4882175E-2,-1.4919887E-2,-5.048128E-2,-8.720548E-2],"categories":[0],"categories_nodes":[2],"categories_segments":[0],"categories_sizes":[1],"default_left":[0,0,1,0,0,0,0,0,0,0,0,0,0,0,0],"id":0,"left_children":[1,3,5,7,9,11,13,-1,-1,-1,-1,-1,-1,-1,-1],"loss_changes":[3.271115E2,9.739563E1,7.350105E1,5.380426E1,3.8348644E1,3.238453E1,1.585704E1,0E0,0E0,0E0,0E0,0E0,0E0,0E0,0E0],"parents":[2147483647,0,0,1,1,2,2,3,3,4,4,5,5,6,6],"right_children":[2,4,6,8,10,12,14,-1,-1,-1,-1,-1,-1,-1,-1],"split_conditions":[2.7633333E1,6.516667E0,1E-45,6.009252E0,1.445E1,2.49E2,2.1533333E1,2.9225925E-1,9.1524884E-2,4.198016E-2,-3.694332E-2,9.4882175E-2,-1.4919887E-2,-5.048128E-2,-8.720548E-2],"split_indices":[2,1,14,2,1,16,1,0,0,0,0,0,0,0,0],"split_type":[0,0,1,0,0,0,0,0,0,0,0,0,0,0,0],"sum_hessian":[1.1428397E3,5.313451E2,6.114947E2,2.4328117E2,2.880639E2,1.2661645E2,4.8487823E2,1.3473092E1,2.2980809E2,2.0025914E2,8.7804756E1,3.728066E1,8.9335785E1,2.6180667E2,2.2307153E2],"tree_param":{"num_deleted":"0","num_feature":"17","num_nodes":"15","size_leaf_vector":"1"}},{"base_weights":[-2.0196454E-3,4.0882307E-1,-5.6792283E-1,1.4093636E0,2.6070046E-1,-6.2196946E-1,8.694508E-1,2.0144947E-1,9.0473415E-3,-2.4644883E-2,4.7200006E-2,-3.237497E-2,-7.431572E-2,3.127215E-1,-5.717336E-2],"categories":[2],"categories_nodes":[2],"categories_segments":[0],"categories_sizes":[1],"default_left":[0,1,1,1,0,0,0,0,0,0,0,0,0,0,0],"id":1,"left_children":[1,3,5,7,9,11,13,-1,-1,-1,-1,-1,-1,-1,-1],"loss_changes":[2.665017E2,9.805651E1,3.7996063E1,6.798549E1,6.2237724E1,1.6573898E1,5.9996334E1,0E0,0E0,0E0,0E0,0E0,0E0,0E0,0E0],"parents":[2147483647,0,0,1,1,2,2,3,3,4,4,5,5,6,6],"right_children":[2,4,6,8,10,12,14,-1,-1,-1,-1,-1,-1,-1,-1],"split_conditions":[1.445E1,3E0,1E-45,8.618649E1,6.2E1,1.8983334E1,2.95E2,2.0144947E-1,9.0473415E-3,-2.4644883E-2,4.7200006E-2,-3.237497E-2,-7.431572E-2,3.127215E-1,-5.717336E-2],"split_indices":[1,11,14,8,0,1,16,0,0,0,0,0,0,0,0],"split_type":[0,0,1,0,0,0,0,0,0,0,0,0,0,0,0],"sum_hessian":[1.144259E3,6.631171E2,4.811419E2,8.4412384E1,5.787047E2,4.6425284E2,1.6889065E1,5.7501995E1,2.6910387E1,1.7015117E2,4.0855356E2,1.3520659E2,3.2904626E2,6.1245046E0,1.0764561E1],"tree_param":{"num_deleted":"0","num_feature":"17","num_nodes":"15","size_leaf_vector":"1"}},{"base_weights":[-3.672774E-3,3.5924253E-1,-5.30583E-1,-1.8242344E-1,5.5227685E-1,-5.849179E-1,7.5300354E-1,-2.6940573E-2,2.2226511E-1,1.23320274E-1,3.971049E-2,-3.6798026E-2,-7.621445E-2,2.239877E-1,-4.682539E-2],"categories":[2,2],"categories_nodes":[2,3],"categories_segments":[0,1],"categories_sizes":[1,1],"default_left":[0,0,1,1,1,0,0,0,0,0,0,0,0,0,0],"id":2,"left_children":[1,3,5,7,9,11,13,-1,-1,-1,-1,-1,-1,-1,-1],"loss_changes":[2.192693E2,7.109739E1,3.305696E1,3.8077217E1,5.243048E1,1.6991318E1,3.63303E1,0E0,0E0,0E0,0E0,0E0,0E0,0E0,0E0],"parents":[2147483647,0,0,1,1,2,2,3,3,4,4,5,5,6,6],"right_children":[2,4,6,8,10,12,14,-1,-1,-1,-1,-1,-1,-1,-1],"split_conditions":[1.4166667E1,6.2E1,1E-45,1E-45,4E0,2.1533333E1,2.95E2,-2.6940573E-2,2.2226511E-1,1.23320274E-1,3.971049E-2,-3.6798026E-2,-7.621445E-2,2.239877E-1,-4.682539E-2],"split_indices":[1,0,14,14,11,1,16,0,0,0,0,0,0,0,0],"split_type":[0,0,1,1,0,0,0,0,0,0,0,0,0,0,0],"sum_hessian":[1.1446666E3,6.7800287E2,4.6666382E2,1.7815216E2,4.9985068E2,4.4823413E2,1.842967E1,1.7279095E2,5.361198E0,9.1478294E1,4.083724E2,2.0292102E2,2.4531313E2,7.9349017E0,1.0494769E1],"tree_param":{"num_deleted":"0","num_feature":"17","num_nodes":"15","size_leaf_vector":"1"}},{"base_weights":[-4.5786034E-3,3.091008E-1,-5.092852E-1,-1.4719152E-1,4.7543055E-1,-1.663012E-2,-6.4702976E-1,6.502917E-2,-3.9528657E-2,1.0109295E-1,3.4570586E-2,8.1242226E-2,-2.5514752E-2,-6.622361E-2,1.3800591E-1],"categories":[0,0],"categories_nodes":[2,3],"categories_segments":[0,1],"categories_sizes":[1,1],"default_left":[0,0,1,1,1,0,0,0,0,0,0,0,0,0,0],"id":3,"left_children":[1,3,5,7,9,11,13,-1,-1,-1,-1,-1,-1,-1,-1],"loss_changes":[1.8138705E2,5.3696648E1,2.9789711E1,3.7754868E1,3.563919E1,1.938457E1,1.149173E1,0E0,0E0,0E0,0E0,0E0,0E0,0E0,0E0],"parents":[2147483647,0,0,1,1,2,2,3,3,4,4,5,5,6,6],"right_children":[2,4,6,8,10,12,14,-1,-1,-1,-1,-1,-1,-1,-1],"split_conditions":[1.445E1,6.3E1,1E-45,1E-45,4E0,1.5E2,1E0,6.502917E-2,-3.9528657E-2,1.0109295E-1,3.4570586E-2,8.1242226E-2,-2.5514752E-2,-6.622361E-2,1.3800591E-1],"split_indices":[1,0,14,14,11,16,4,0,0,0,0,0,0,0,0],"split_type":[0,0,1,1,0,0,0,0,0,0,0,0,0,0,0],"sum_hessian":[1.1437332E3,7.0559033E2,4.3814276E2,1.8852496E2,5.1706537E2,9.598063E1,3.4216214E2,4.4348583E1,1.4417638E2,9.95078E1,4.175576E2,2.0906498E1,7.5074135E1,3.402828E2,1.8793418E0],"tree_param":{"num_deleted":"0","num_feature":"17","num_nodes":"15","size_leaf_vector":"1"}},{"base_weights":[-5.1841703E-3,2.7065575E-1,-4.803793E-1,2.171084E-1,1.5521833E0,-1.5217575E-2,-6.1763203E-1,3.2961667E-2,-3.9827995E-2,3.7981662E-1,2.7487425E-2,6.740227E-2,-2.3995845E-2,-5.0878752E-2,-9.235161E-2],"categories":[2,0],"categories_nodes":[1,2],"categories_segments":[0,1],"categories_sizes":[1,1],"default_left":[0,1,1,0,0,0,0,0,0,0,0,0,0,0,0],"id":4,"left_children":[1,3,5,7,9,11,13,-1,-1,-1,-1,-1,-1,-1,-1],"loss_changes":[1.4998451E2,4.9345367E1,2.6821487E1,4.8328075E1,8.1794495E1,1.5152166E1,1.0333229E1,0E0,0E0,0E0,0E0,0E0,0E0,0E0,0E0],"parents":[2147483647,0,0,1,1,2,2,3,3,4,4,5,5,6,6],"right_children":[2,4,6,8,10,12,14,-1,-1,-1,-1,-1,-1,-1,-1],"split_conditions":[1.445E1,1E-45,1E-45,3.669024E1,2.49E2,1.55E2,2.9466667E1,3.2961667E-2,-3.9827995E-2,3.7981662E-1,2.7487425E-2,6.740227E-2,-2.3995845E-2,-5.0878752E-2,-9.235161E-2],"split_indices":[1,14,14,2,16,16,1,0,0,0,0,0,0,0,0],"split_type":[0,1,1,0,0,0,0,0,0,0,0,0,0,0,0],"sum_hessian":[1.1422485E3,7.2299615E2,4.1925235E2,6.9512067E2,2.7875517E1,9.577458E1,3.2347775E2,5.8807104E2,1.070496E2,9.390306E0,1.848521E1,2.305866E1,7.271593E1,2.4054616E2,8.29316E1],"tree_param":{"num_deleted":"0","num_feature":"17","num_nodes":"15","size_leaf_vector":"1"}},{"base_weights":[-5.745044E-3,2.3781416E-1,-4.5246586E-1,1.4519997E0,1.9227964E-1,-1.3894259E-2,-5.886614E-1,2.0844054E-1,6.354555E-2,5.875187E-2,7.4682147E-3,3.9625973E-2,-3.2123987E-2,-4.0830407E-2,-7.8425884E-2],"categories":[0,1,2,3,0],"categories_nodes":[2,3,4],"categories_segments":[0,1,4],"categories_sizes":[1,3,1],"default_left":[0,0,1,1,1,0,0,0,0,0,0,0,0,0,0],"id":5,"left_children":[1,3,5,7,9,11,13,-1,-1,-1,-1,-1,-1,-1,-1],"loss_changes":[1.2432351E2,4.060528E1,2.4073692E1,1.2399666E1,3.3138176E1,1.2299322E1,1.0531517E1,0E0,0E0,0E0,0E0,0E0,0E0,0E0,0E0],"parents":[2147483647,0,0,1,1,2,2,3,3,4,4,5,5,6,6],"right_children":[2,4,6,8,10,12,14,-1,-1,-1,-1,-1,-1,-1,-1],"split_conditions":[1.445E1,6.3119154E0,1E-45,1E-45,1E-45,3.42E2,4.3725307E1,2.0844054E-1,6.354555E-2,5.875187E-2,7.4682147E-3,3.9625973E-2,-3.2123987E-2,-4.0830407E-2,-7.8425884E-2],"split_indices":[1,2,14,6,14,16,2,0,0,0,0,0,0,0,0],"split_type":[0,0,1,1,1,0,0,0,0,0,0,0,0,0,0],"sum_hessian":[1.1406593E3,7.384904E2,4.021689E2,2.5577377E1,7.12913E2,9.555817E1,3.0661075E2,1.3538908E1,1.203847E1,1.625603E2,5.503527E2,4.0809036E1,5.474913E1,1.6112625E2,1.4548448E2],"tree_param":{"num_deleted":"0","num_feature":"17","num_nodes":"15","size_leaf_vector":"1"}},{"base_weights":[-5.8796913E-3,2.6964378E-1,-3.551683E-1,4.9230424E-1,4.470787E-2,1.533355E-1,-5.295802E-1,2.0478244E-1,4.4742666E-2,4.8205387E-2,-8.129209E-3,5.0845634E-2,-1.9667042E-2,-4.4058632E-2,-8.919371E-2],"categories":[0,0],"categories_nodes":[2,4],"categories_segments":[0,1],"categories_sizes":[1,1],"default_left":[0,0,1,0,1,0,0,0,0,0,0,0,0,0,0],"id":6,"left_children":[1,3,5,7,9,11,13,-1,-1,-1,-1,-1,-1,-1,-1],"loss_changes":[1.09783226E2,3.191822E1,4.469468E1,2.1449219E1,1.7581684E1,1.6164597E1,1.1692947E1,0E0,0E0,0E0,0E0,0E0,0E0,0E0,0E0],"parents":[2147483647,0,0,1,1,2,2,3,3,4,4,5,5,6,6],"right_children":[2,4,6,8,10,12,14,-1,-1,-1,-1,-1,-1,-1,-1],"split_conditions":[2.7633333E1,6.516667E0,1E-45,4.8166666E0,1E-45,1.7566668E1,2.9466667E1,2.0478244E-1,4.4742666E-2,4.8205387E-2,-8.129209E-3,5.0845634E-2,-1.9667042E-2,-4.4058632E-2,-8.919371E-2],"split_indices":[2,1,14,2,14,1,1,0,0,0,0,0,0,0,0],"split_type":[0,0,1,0,1,0,0,0,0,0,0,0,0,0,0],"sum_hessian":[1.1387614E3,6.3672906E2,5.0203226E2,3.1938568E2,3.1734335E2,1.2824637E2,3.737859E2,7.7045283E0,3.1168115E2,7.034611E1,2.4699725E2,6.3433323E1,6.4813034E1,3.0186465E2,7.1921234E1],"tree_param":{"num_deleted":"0","num_feature":"17","num_nodes":"15","size_leaf_vector":"1"}},{"base_weights":[-6.0197474E-3,1.4820804E-1,-5.31586E-1,2.4189028E-1,-2.523177E-1,-5.987077E-1,5.752412E-1,6.4486146E-2,1.5131272E-2,-3.255297E-2,1.0715337E-1,-6.1311442E-2,1.4045846E-1,1.5422317E-1,-6.5924175E-2],"categories":[2,2],"categories_nodes":[2,4],"categories_segments":[0,1],"categories_sizes":[1,1],"default_left":[0,0,1,1,1,0,0,0,0,0,0,0,0,0,0],"id":7,"left_children":[1,3,5,7,9,11,13,-1,-1,-1,-1,-1,-1,-1,-1],"loss_changes":[9.2285904E1,3.309024E1,1.9534134E1,2.5960136E1,1.656884E1,7.903885E0,1.9255291E1,0E0,0E0,0E0,0E0,0E0,0E0,0E0,0E0],"parents":[2147483647,0,0,1,1,2,2,3,3,4,4,5,5,6,6],"right_children":[2,4,6,8,10,12,14,-1,-1,-1,-1,-1,-1,-1,-1],"split_conditions":[1.8983334E1,3.5262196E1,1E-45,4E0,1E-45,1E0,3.23E2,6.4486146E-2,1.5131272E-2,-3.255297E-2,1.0715337E-1,-6.1311442E-2,1.4045846E-1,1.5422317E-1,-6.5924175E-2],"split_indices":[1,2,14,11,14,4,16,0,0,0,0,0,0,0,0],"split_type":[0,0,1,0,1,0,0,0,0,0,0,0,0,0,0],"sum_hessian":[1.13656E3,8.792589E2,2.5730112E2,7.129073E2,1.6635165E2,2.4302252E2,1.4278613E1,1.2971184E2,5.8319543E2,1.5834871E2,8.002939E0,2.4197629E2,1.0462348E0,7.8669834E0,6.411629E0],"tree_param":{"num_deleted":"0","num_feature":"17","num_nodes":"15","size_leaf_vector":"1"}},{"base_weights":[-5.8865543E-3,1.317256E-1,-5.0337315E-1,4.4437551E-1,3.0085469E-2,-5.6976056E-1,5.021185E-1,1.499054E-1,2.9021675E-2,-3.4711584E-2,1.6893802E-2,-4.583165E-2,-8.6101145E-2,1.21601835E-1,-7.43942E-2],"categories":[0,2],"categories_nodes":[1,2],"categories_segments":[0,1],"categories_sizes":[1,1],"default_left":[0,1,1,0,0,0,0,0,0,0,0,0,0,0,0],"id":8,"left_children":[1,3,5,7,9,11,13,-1,-1,-1,-1,-1,-1,-1,-1],"loss_changes":[7.77648E1,2.82631E1,1.6715435E1,3.504679E1,3.528564E1,7.1145782E0,1.4937891E1,0E0,0E0,0E0,0E0,0E0,0E0,0E0,0E0],"parents":[2147483647,0,0,1,1,2,2,3,3,4,4,5,5,6,6],"right_children":[2,4,6,8,10,12,14,-1,-1,-1,-1,-1,-1,-1,-1],"split_conditions":[1.8983334E1,1E-45,1E-45,7.5E1,6.3333332E1,3.0316668E1,3.56E2,1.499054E-1,2.9021675E-2,-3.4711584E-2,1.6893802E-2,-4.583165E-2,-8.6101145E-2,1.21601835E-1,-7.43942E-2],"split_indices":[1,14,14,16,0,1,16,0,0,0,0,0,0,0,0],"split_type":[0,1,1,0,0,0,0,0,0,0,0,0,0,0,0],"sum_hessian":[1.1339441E3,8.888189E2,2.4512523E2,2.1723167E2,6.715872E2,2.3034978E2,1.4775449E1,2.6590242E1,1.9064143E2,1.8029771E2,4.912895E2,1.6846288E2,6.1886898E1,9.408938E0,5.3665104E0],"tree_param":{"num_deleted":"0","num_feature":"17","num_nodes":"15","size_leaf_vector":"1"}},{"base_weights":[-5.993119E-3,1.17123984E-1,-4.762118E-1,8.043279E-2,8.542031E-1,-5.414757E-1,4.392015E-1,5.7841176E-3,1.7139684E-1,1.997392E-1,8.9812884E-4,-5.5694856E-2,1.3009302E-1,1.6989994E-1,-1.3524907E-2],"categories":[2,2],"categories_nodes":[1,2],"categories_segments":[0,1],"categories_sizes":[1,1],"default_left":[0,1,1,0,0,0,0,0,0,0,0,0,0,0,0],"id":9,"left_children":[1,3,5,7,9,11,13,-1,-1,-1,-1,-1,-1,-1,-1],"loss_changes":[6.5620445E1,2.4226194E1,1.4289383E1,3.1521957E1,4.104184E1,6.9959564E0,1.1956891E1,0E0,0E0,0E0,0E0,0E0,0E0,0E0,0E0],"parents":[2147483647,0,0,1,1,2,2,3,3,4,4,5,5,6,6],"right_children":[2,4,6,8,10,12,14,-1,-1,-1,-1,-1,-1,-1,-1],"split_conditions":[1.8983334E1,1E-45,1E-45,1.0360324E4,2.59E2,1E0,9.6E1,5.7841176E-3,1.7139684E-1,1.997392E-1,8.9812884E-4,-5.5694856E-2,1.3009302E-1,1.6989994E-1,-1.3524907E-2],"split_indices":[1,14,14,9,16,4,16,0,0,0,0,0,0,0,0],"split_type":[0,1,1,0,0,0,0,0,0,0,0,0,0,0,0],"sum_hessian":[1.131535E3,8.9733673E2,2.3419829E2,8.558427E2,4.149403E1,2.1899373E2,1.5204557E1,8.451893E2,1.0653463E1,1.7058594E1,2.4435436E1,2.1786179E2,1.1319313E0,4.148684E0,1.1055873E1],"tree_param":{"num_deleted":"0","num_feature":"17","num_nodes":"15","size_leaf_vector":"1"}},{"base_weights":[-5.482708E-3,1.3612172E-1,-3.6682686E-1,3.2746607E-1,-3.0965043E-2,-4.353604E-1,5.9149706E-1,2.164472E-2,6.904042E-2,3.195174E-2,-1.458859E-2,-4.533063E-2,1.1275804E-1,-9.520622E-2,1.6197905E-1],"categories":[2,0],"categories_nodes":[2,4],"categories_segments":[0,1],"categories_sizes":[1,1],"default_left":[0,0,1,0,1,1,0,0,0,0,0,0,0,0,0],"id":10,"left_children":[1,3,5,7,9,11,13,-1,-1,-1,-1,-1,-1,-1,-1],"loss_changes":[5.786344E1,2.5986399E1,2.1168255E1,1.5115105E1,1.7553455E1,8.861496E0,3.5942837E1,0E0,0E0,0E0,0E0,0E0,0E0,0E0,0E0],"parents":[2147483647,0,0,1,1,2,2,3,3,4,4,5,5,6,6],"right_children":[2,4,6,8,10,12,14,-1,-1,-1,-1,-1,-1,-1,-1],"split_conditions":[3.6203625E1,6.516667E0,1E-45,8.1666664E1,1E-45,3.147133E3,3E0,2.164472E-2,6.904042E-2,3.195174E-2,-1.458859E-2,-4.533063E-2,1.1275804E-1,-9.520622E-2,1.6197905E-1],"split_indices":[2,1,14,0,14,9,13,0,0,0,0,0,0,0,0],"split_type":[0,0,1,0,1,0,0,0,0,0,0,0,0,0,0],"sum_hessian":[1.1288777E3,8.114917E2,3.1738605E2,3.7783868E2,4.3365298E2,2.9671268E2,2.0673391E1,2.9055682E2,8.7281845E1,1.0664122E2,3.2701178E2,2.9404636E2,2.6663144E0,8.295399E0,1.2377993E1],"tree_param":{"num_deleted":"0","num_feature":"17","num_nodes":"15","size_leaf_vector":"1"}},{"base_weights":[-5.3332853E-3,9.7955845E-2,-4.332266E-1,4.5985976E-1,3.477399E-2,-4.9503565E-1,3.2975477E-1,7.238574E-2,-3.7892222E-2,3.135636E-2,-6.037285E-3,-3.7735995E-2,-8.183918E-2,8.475538E-2,-7.293192E-2],"categories":[2,0],"categories_nodes":[2,4],"categories_segments":[0,1],"categories_sizes":[1,1],"default_left":[0,1,1,1,1,0,0,0,0,0,0,0,0,0,0],"id":11,"left_children":[1,3,5,7,9,11,13,-1,-1,-1,-1,-1,-1,-1,-1],"loss_changes":[4.9864315E1,2.0766483E1,1.0509232E1,3.0170313E1,2.057339E1,7.4286423E0,9.963031E0,0E0,0E0,0E0,0E0,0E0,0E0,0E0,0E0],"parents":[2147483647,0,0,1,1,2,2,3,3,4,4,5,5,6,6],"right_children":[2,4,6,8,10,12,14,-1,-1,-1,-1,-1,-1,-1,-1],"split_conditions":[1.8983334E1,3E0,1E-45,1.12088066E2,1E-45,3.0316668E1,3.56E2,7.238574E-2,-3.7892222E-2,3.135636E-2,-6.037285E-3,-3.7735995E-2,-8.183918E-2,8.475538E-2,-7.293192E-2],"split_indices":[1,11,14,8,14,1,16,0,0,0,0,0,0,0,0],"split_type":[0,0,1,0,1,0,0,0,0,0,0,0,0,0,0],"sum_hessian":[1.1262751E3,9.078906E2,2.1838458E2,1.3400952E2,7.738811E2,2.023439E2,1.6040676E1,1.0203281E2,3.1976717E1,1.9632727E2,5.7755383E2,1.4994351E2,5.2400394E1,1.0907526E1,5.1331506E0],"tree_param":{"num_deleted":"0","num_feature":"17","num_nodes":"15","size_leaf_vector":"1"}},{"base_weights":[-5.3629107E-3,1.1420934E-1,-3.3080772E-1,3.7548956E-1,1.8008985E-2,3.0127577E-2,-4.8584092E-1,2.4468493E-2,7.6058984E-2,1.9394698E-2,-1.6581176E-2,-2.86599E-2,4.0781207E-2,-3.1145895E-2,-6.49091E-2],"categories":[0,1,3],"categories_nodes":[2,4],"categories_segments":[0,1],"categories_sizes":[1,2],"default_left":[0,0,1,0,1,0,0,0,0,0,0,0,0,0,0],"id":12,"left_children":[1,3,5,7,9,11,13,-1,-1,-1,-1,-1,-1,-1,-1],"loss_changes":[4.3811573E1,2.0689054E1,1.6941742E1,1.0972805E1,1.9529034E1,1.1102379E1,5.823574E0,0E0,0E0,0E0,0E0,0E0,0E0,0E0,0E0],"parents":[2147483647,0,0,1,1,2,2,3,3,4,4,5,5,6,6],"right_children":[2,4,6,8,10,12,14,-1,-1,-1,-1,-1,-1,-1,-1],"split_conditions":[3.6203625E1,2.1877637E0,1E-45,8.1666664E1,1E-45,3E0,1.1964264E1,2.4468493E-2,7.6058984E-2,1.9394698E-2,-1.6581176E-2,-2.86599E-2,4.0781207E-2,-3.1145895E-2,-6.49091E-2],"split_indices":[2,3,14,0,5,13,3,0,0,0,0,0,0,0,0],"split_type":[0,0,1,0,1,0,0,0,0,0,0,0,0,0,0],"sum_hessian":[1.1238806E3,8.2237823E2,3.0150235E2,2.2052606E2,6.018522E2,9.083457E1,2.1066779E2,1.6583372E2,5.4692337E1,3.074916E2,2.9436057E2,4.9535347E1,4.1299225E1,1.0326699E2,1.0740079E2],"tree_param":{"num_deleted":"0","num_feature":"17","num_nodes":"15","size_leaf_vector":"1"}},{"base_weights":[-5.2768216E-3,1.1220216E-1,-2.8774893E-1,4.4092438E-1,4.7398362E-2,2.7040254E-2,-4.1277513E-1,6.415372E-2,-4.507058E-2,9.251691E-2,2.0501975E-3,2.6622338E-2,-3.608954E-2,-3.151398E-2,-7.868492E-2],"categories":[0],"categories_nodes":[2],"categories_segments":[0],"categories_sizes":[1],"default_left":[0,1,1,1,0,1,0,0,0,0,0,0,0,0,0],"id":13,"left_children":[1,3,5,7,9,11,13,-1,-1,-1,-1,-1,-1,-1,-1],"loss_changes":[3.7294502E1,1.6888374E1,1.3003166E1,2.3648758E1,1.5661513E1,8.890318E0,8.383461E0,0E0,0E0,0E0,0E0,0E0,0E0,0E0,0E0],"parents":[2147483647,0,0,1,1,2,2,3,3,4,4,5,5,6,6],"right_children":[2,4,6,8,10,12,14,-1,-1,-1,-1,-1,-1,-1,-1],"split_conditions":[1.4166667E1,3E0,1E-45,1.21955505E2,2.1E1,1.0986734E2,2.9466667E1,6.415372E-2,-4.507058E-2,9.251691E-2,2.0501975E-3,2.6622338E-2,-3.608954E-2,-3.151398E-2,-7.868492E-2],"split_indices":[1,11,14,8,16,8,1,0,0,0,0,0,0,0,0],"split_type":[0,0,1,0,0,0,0,0,0,0,0,0,0,0,0],"sum_hessian":[1.1218789E3,7.9277136E2,3.2910757E2,1.2959366E2,6.6317773E2,9.3778114E1,2.3532945E2,1.0602009E2,2.3573563E1,1.8723806E1,6.444539E2,5.820522E1,3.5572895E1,1.880816E2,4.724785E1],"tree_param":{"num_deleted":"0","num_feature":"17","num_nodes":"15","size_leaf_vector":"1"}},{"base_weights":[-5.188839E-3,1.16032E-1,-2.5008628E-1,1.0022058E0,9.281256E-2,6.5911554E-2,-3.9154765E-1,-3.1191913E-2,1.1280688E-1,1.2191129E-1,7.6187835E-3,-6.1335005E-2,2.6771704E-2,1.01013E-1,-4.1425616E-2],"categories":[0],"categories_nodes":[2],"categories_segments":[0],"categories_sizes":[1],"default_left":[0,0,1,0,1,0,1,0,0,0,0,0,0,0,0],"id":14,"left_children":[1,3,5,7,9,11,13,-1,-1,-1,-1,-1,-1,-1,-1],"loss_changes":[3.329685E1,1.5345012E1,1.6625942E1,3.503502E0,1.3617559E1,1.6022993E1,8.588074E0,0E0,0E0,0E0,0E0,0E0,0E0,0E0,0E0],"parents":[2147483647,0,0,1,1,2,2,3,3,4,4,5,5,6,6],"right_children":[2,4,6,8,10,12,14,-1,-1,-1,-1,-1,-1,-1,-1],"split_conditions":[3.0860348E1,5.4897885E0,1E-45,6.8226445E-1,8.7090135E-2,2E0,6.519394E0,-3.1191913E-2,1.1280688E-1,1.2191129E-1,7.6187835E-3,-6.1335005E-2,2.6771704E-2,1.01013E-1,-4.1425616E-2],"split_indices":[2,2,14,9,9,13,8,0,0,0,0,0,0,0,0],"split_type":[0,0,1,0,0,0,0,0,0,0,0,0,0,0,0],"sum_hessian":[1.1196317E3,7.492765E2,3.7035526E2,1.8054663E1,7.312218E2,1.1469113E2,2.5566412E2,1.4488714E0,1.6605791E1,9.584072E0,7.2163776E2,2.5802523E1,8.888861E1,3.3827395E0,2.5228139E2],"tree_param":{"num_deleted":"0","num_feature":"17","num_nodes":"15","size_leaf_vector":"1"}},{"base_weights":[-4.8280195E-3,6.9775626E-2,-3.569404E-1,1.9733688E-1,-5.6589648E-2,1.1795703E0,-3.7924615E-1,4.9196268E-3,4.586525E-2,-7.850093E-3,1.8206401E-1,1.7900032E-1,-2.4959024E-3,-3.99373E-2,1.2964071E-1],"categories":[1,2,3],"categories_nodes":[1],"categories_segments":[0],"categories_sizes":[3],"default_left":[0,1,0,0,1,0,0,0,0,0,0,0,0,0,0],"id":15,"left_children":[1,3,5,7,9,11,13,-1,-1,-1,-1,-1,-1,-1,-1],"loss_changes":[2.94051E1,1.4901201E1,7.1546783E0,1.778148E1,1.926221E1,2.282651E0,7.0490265E0,0E0,0E0,0E0,0E0,0E0,0E0,0E0,0E0],"parents":[2147483647,0,0,1,1,2,2,3,3,4,4,5,5,6,6],"right_children":[2,4,6,8,10,12,14,-1,-1,-1,-1,-1,-1,-1,-1],"split_conditions":[1.8983334E1,1E-45,4.3333335E0,3E0,1.5901816E3,2.54E2,1E0,4.9196268E-3,4.586525E-2,-7.850093E-3,1.8206401E-1,1.7900032E-1,-2.4959024E-3,-3.99373E-2,1.2964071E-1],"split_indices":[1,5,0,13,9,16,4,0,0,0,0,0,0,0,0],"split_type":[0,1,0,0,0,0,0,0,0,0,0,0,0,0,0],"sum_hessian":[1.1174417E3,9.2273865E2,1.9470299E2,4.589168E2,4.6382184E2,2.0436854E0,1.926593E2,2.9363977E2,1.6527704E2,4.5941763E2,4.4042025E0,1.0337433E0,1.009942E0,1.9112529E2,1.5340092E0],"tree_param":{"num_deleted":"0","num_feature":"17","num_nodes":"15","size_leaf_vector":"1"}},{"base_weights":[-4.228556E-3,8.338436E-2,-2.6793262E-1,2.9234993E-1,3.4667943E-3,-3.293723E-1,4.2509624E-1,5.1665783E-2,1.4729279E-2,1.4525542E-2,-1.5174766E-2,-8.5356355E-2,-2.7009085E-2,-9.238695E-2,1.1510948E-1],"categories":[2,1,3],"categories_nodes":[2,4],"categories_segments":[0,1],"categories_sizes":[1,2],"default_left":[0,0,1,0,1,0,0,0,0,0,0,0,0,0,0],"id":16,"left_children":[1,3,5,7,9,11,13,-1,-1,-1,-1,-1,-1,-1,-1],"loss_changes":[2.5823015E1,1.40102005E1,1.200823E1,7.475519E0,1.3400575E1,7.7431335E0,2.3720505E1,0E0,0E0,0E0,0E0,0E0,0E0,0E0,0E0],"parents":[2147483647,0,0,1,1,2,2,3,3,4,4,5,5,6,6],"right_children":[2,4,6,8,10,12,14,-1,-1,-1,-1,-1,-1,-1,-1],"split_conditions":[3.6203625E1,2.1877637E0,1E-45,1.0247818E1,1E-45,2.9E1,3E0,5.1665783E-2,1.4729279E-2,1.4525542E-2,-1.5174766E-2,-8.5356355E-2,-2.7009085E-2,-9.238695E-2,1.1510948E-1],"split_indices":[2,3,14,2,5,0,13,0,0,0,0,0,0,0,0],"split_type":[0,0,1,0,1,0,0,0,0,0,0,0,0,0,0],"sum_hessian":[1.1157247E3,8.3799384E2,2.777309E2,2.3108997E2,6.069039E2,2.5559605E2,2.2134842E1,8.974766E1,1.413423E2,3.1720282E2,2.8970105E2,2.4607529E1,2.3098853E2,7.6492844E0,1.4485557E1],"tree_param":{"num_deleted":"0","num_feature":"17","num_nodes":"15","size_leaf_vector":"1"}},{"base_weights":[-4.168627E-3,5.8844898E-2,-3.1945595E-1,9.6546136E-2,-3.5285613E-1,5.0699383E-2,-4.162277E-1,4.2064574E-2,3.9378796E-3,1.01763405E-1,-4.3406438E-2,-1.2533441E-2,1.1944915E-1,-4.4406928E-2,1.501307E-1],"categories":[],"categories_nodes":[],"categories_segments":[],"categories_sizes":[],"default_left":[0,0,0,0,0,0,0,0,0,0,0,0,0,0,0],"id":17,"left_children":[1,3,5,7,9,11,13,-1,-1,-1,-1,-1,-1,-1,-1],"loss_changes":[2.216407E1,1.4466585E1,6.677412E0,1.5780552E1,9.147252E0,8.083511E0,8.537014E0,0E0,0E0,0E0,0E0,0E0,0E0,0E0,0E0],"parents":[2147483647,0,0,1,1,2,2,3,3,4,4,5,5,6,6],"right_children":[2,4,6,8,10,12,14,-1,-1,-1,-1,-1,-1,-1,-1],"split_conditions":[1.8983334E1,1E0,1.86E2,1.6E2,8.5E-1,6.881381E1,1E0,4.2064574E-2,3.9378796E-3,1.01763405E-1,-4.3406438E-2,-1.2533441E-2,1.1944915E-1,-4.4406928E-2,1.501307E-1],"split_indices":[1,15,16,16,1,2,4,0,0,0,0,0,0,0,0],"split_type":[0,0,0,0,0,0,0,0,0,0,0,0,0,0,0],"sum_hessian":[1.1136556E3,9.288321E2,1.8482361E2,8.516118E2,7.7220276E1,3.8403805E1,1.464198E2,1.26737724E2,7.248741E2,3.6746588E0,7.3545616E1,3.40533E1,4.350506E0,1.4508171E2,1.3380914E0],"tree_param":{"num_deleted":"0","num_feature":"17","num_nodes":"15","size_leaf_vector":"1"}},{"base_weights":[-3.7567404E-3,7.098876E-2,-2.3918092E-1,2.3157598E-1,-1.6367475E-2,3.717066E-2,-3.767623E-1,1.3330731E-2,6.323071E-2,1.3095825E-2,-1.7644448E-2,3.3705525E-2,-3.4373775E-2,-1.0503727E-2,-4.9652774E-2],"categories":[0,1,3,1],"categories_nodes":[2,4,5],"categories_segments":[0,1,3],"categories_sizes":[1,2,1],"default_left":[0,0,1,0,1,1,0,0,0,0,0,0,0,0,0],"id":18,"left_children":[1,3,5,7,9,11,13,-1,-1,-1,-1,-1,-1,-1,-1],"loss_changes":[1.960251E1,1.1865634E1,1.022051E1,1.164989E1,1.2960689E1,1.0411837E1,5.783184E0,0E0,0E0,0E0,0E0,0E0,0E0,0E0,0E0],"parents":[2147483647,0,0,1,1,2,2,3,3,4,4,5,5,6,6],"right_children":[2,4,6,8,10,12,14,-1,-1,-1,-1,-1,-1,-1,-1],"split_conditions":[3.6203625E1,4.8166666E0,1E-45,8.1666664E1,1E-45,1E-45,4.3725307E1,1.3330731E-2,6.323071E-2,1.3095825E-2,-1.7644448E-2,3.3705525E-2,-3.4373775E-2,-1.0503727E-2,-4.9652774E-2],"split_indices":[2,1,14,0,5,5,2,0,0,0,0,0,0,0,0],"split_type":[0,0,1,0,1,1,0,0,0,0,0,0,0,0,0],"sum_hessian":[1.1120105E3,8.445655E2,2.6744504E2,2.9697833E2,5.475871E2,8.913489E1,1.7831015E2,2.3956422E2,5.741412E1,2.8524542E2,2.623417E2,4.9936E1,3.9198883E1,5.5123165E1,1.2318699E2],"tree_param":{"num_deleted":"0","num_feature":"17","num_nodes":"15","size_leaf_vector":"1"}},{"base_weights":[-3.6633054E-3,2.7754325E-2,-5.18173E-1,-1.207918E-7,5.014769E-1,1.4398624E-1,-7.1592623E-1,-1.701421E-3,1.0522109E-1,1.5499198E-1,9.480144E-3,-1.2777338E-2,1.7862403E-1,5.5958938E-2,-8.038406E-2],"categories":[2,0,1,3,4,5],"categories_nodes":[1,6],"categories_segments":[0,1],"categories_sizes":[1,5],"default_left":[0,1,0,0,0,0,1,0,0,0,0,0,0,0,0],"id":19,"left_children":[1,3,5,7,9,11,13,-1,-1,-1,-1,-1,-1,-1,-1],"loss_changes":[1.7976536E1,1.3781618E1,8.483414E0,1.7762518E1,2.45884E1,7.1683574E0,5.994831E0,0E0,0E0,0E0,0E0,0E0,0E0,0E0,0E0],"parents":[2147483647,0,0,1,1,2,2,3,3,4,4,5,5,6,6],"right_children":[2,4,6,8,10,12,14,-1,-1,-1,-1,-1,-1,-1,-1],"split_conditions":[2.805E1,1E-45,1.86E2,1.0360324E4,1.29E2,8.971871E1,1E-45,-1.701421E-3,1.0522109E-1,1.5499198E-1,9.480144E-3,-1.2777338E-2,1.7862403E-1,5.5958938E-2,-8.038406E-2],"split_indices":[1,14,16,9,16,2,5,0,0,0,0,0,0,0,0],"split_type":[0,1,0,0,0,0,1,0,0,0,0,0,0,0,0],"sum_hessian":[1.110198E3,1.0471986E3,6.299929E1,9.9018567E2,5.7012978E1,1.4550412E1,4.844888E1,9.753975E2,1.4788195E1,1.5148274E1,4.1864704E1,1.32757435E1,1.2746688E0,2.7780507E0,4.5670826E1],"tree_param":{"num_deleted":"0","num_feature":"17","num_nodes":"15","size_leaf_vector":"1"}},{"base_weights":[-3.192934E-3,1.06360205E-1,-1.3397048E-1,1.449697E-1,-3.3165985E-1,1.3724792E-1,-2.434823E-1,4.4798027E-3,3.1805377E-2,8.615056E-2,-4.560534E-2,3.0215036E-3,7.8193806E-2,-2.6340201E-2,1.1465966E-1],"categories":[0],"categories_nodes":[2],"categories_segments":[0],"categories_sizes":[1],"default_left":[0,0,1,0,0,1,0,0,0,0,0,0,0,0,0],"id":20,"left_children":[1,3,5,7,9,11,13,-1,-1,-1,-1,-1,-1,-1,-1],"loss_changes":[1.5904771E1,1.0264368E1,1.5063308E1,9.623247E0,7.701046E0,1.0064059E1,1.02936E1,0E0,0E0,0E0,0E0,0E0,0E0,0E0,0E0],"parents":[2147483647,0,0,1,1,2,2,3,3,4,4,5,5,6,6],"right_children":[2,4,6,8,10,12,14,-1,-1,-1,-1,-1,-1,-1,-1],"split_conditions":[9.066667E0,1E0,1E-45,2.5E1,8.5E-1,1.7706861E1,1.0360324E4,4.4798027E-3,3.1805377E-2,8.615056E-2,-4.560534E-2,3.0215036E-3,7.8193806E-2,-2.6340201E-2,1.1465966E-1],"split_indices":[1,15,14,11,1,9,9,0,0,0,0,0,0,0,0],"split_type":[0,0,1,0,0,0,0,0,0,0,0,0,0,0,0],"sum_hessian":[1.1081241E3,6.030947E2,5.0502936E2,5.548558E2,4.8239E1,1.451919E2,3.5983746E2,3.522509E2,2.0260486E2,3.994893E0,4.4244102E1,1.25416794E2,1.9775108E1,3.5555292E2,4.284533E0],"tree_param":{"num_deleted":"0","num_feature":"17","num_nodes":"15","size_leaf_vector":"1"}},{"base_weights":[-2.9247554E-3,2.4502957E-2,-4.830656E-1,-3.1257097E-2,2.3564082E-1,1.4953183E-1,-6.8560123E-1,8.061582E-2,-4.785984E-3,6.780471E-2,-4.8519606E-3,-7.194748E-2,6.2310595E-2,5.0633848E-2,-7.786077E-2],"categories":[0,1,3,4,5],"categories_nodes":[6],"categories_segments":[0],"categories_sizes":[5],"default_left":[0,0,0,0,1,0,1,0,0,0,0,0,0,0,0],"id":21,"left_children":[1,3,5,7,9,11,13,-1,-1,-1,-1,-1,-1,-1,-1],"loss_changes":[1.4600055E1,1.2355504E1,7.7782164E0,1.1586819E1,2.7594667E1,6.7653985E0,5.444786E0,0E0,0E0,0E0,0E0,0E0,0E0,0E0,0E0],"parents":[2147483647,0,0,1,1,2,2,3,3,4,4,5,5,6,6],"right_children":[2,4,6,8,10,12,14,-1,-1,-1,-1,-1,-1,-1,-1],"split_conditions":[2.805E1,1.3798037E1,1.86E2,5.4897885E0,9.0001785E1,4.724453E1,1E-45,8.061582E-2,-4.785984E-3,6.780471E-2,-4.8519606E-3,-7.194748E-2,6.2310595E-2,5.0633848E-2,-7.786077E-2],"split_indices":[1,9,16,2,8,2,5,0,0,0,0,0,0,0,0],"split_type":[0,0,0,0,0,0,1,0,0,0,0,0,0,0,0],"sum_hessian":[1.1067556E3,1.047847E3,5.8908573E1,8.2960583E2,2.1824123E2,1.43499155E1,4.4558655E1,1.5203631E1,8.144022E2,8.481209E1,1.3342914E2,4.8785505E0,9.471365E0,2.9035559E0,4.16551E1],"tree_param":{"num_deleted":"0","num_feature":"17","num_nodes":"15","size_leaf_vector":"1"}},{"base_weights":[-2.8219856E-3,5.7545424E-2,-2.0332247E-1,3.5183972E-1,2.2763027E-2,1.0338917E-1,-2.979005E-1,7.7893205E-2,1.9061957E-2,1.3381006E-2,-1.0452875E-2,2.4618955E-2,-9.530424E-2,-3.84442E-2,9.215828E-3],"categories":[1,3],"categories_nodes":[4],"categories_segments":[0],"categories_sizes":[2],"default_left":[0,0,0,1,1,0,1,0,0,0,0,0,0,0,0],"id":22,"left_children":[1,3,5,7,9,11,13,-1,-1,-1,-1,-1,-1,-1,-1],"loss_changes":[1.3398755E1,8.701652E0,7.4617376E0,6.039219E0,1.0785128E1,9.454684E0,6.6533413E0,0E0,0E0,0E0,0E0,0E0,0E0,0E0,0E0],"parents":[2147483647,0,0,1,1,2,2,3,3,4,4,5,5,6,6],"right_children":[2,4,6,8,10,12,14,-1,-1,-1,-1,-1,-1,-1,-1],"split_conditions":[3.6203625E1,8.5769075E-1,1.98E2,1.8028959E0,1E-45,5.5666668E1,1.2862173E1,7.7893205E-2,1.9061957E-2,1.3381006E-2,-1.0452875E-2,2.4618955E-2,-9.530424E-2,-3.84442E-2,9.215828E-3],"split_indices":[2,3,16,9,5,0,9,0,0,0,0,0,0,0,0],"split_type":[0,0,0,0,1,0,0,0,0,0,0,0,0,0,0],"sum_hessian":[1.1050304E3,8.4986346E2,2.5516696E2,8.886448E1,7.6099896E2,6.0117107E1,1.9504985E2,2.33023E1,6.556218E1,4.064063E2,3.5459268E2,5.3634205E1,6.482903E0,1.5964432E2,3.5405533E1],"tree_param":{"num_deleted":"0","num_feature":"17","num_nodes":"15","size_leaf_vector":"1"}},{"base_weights":[-2.7637444E-3,2.1012904E-2,-4.4698814E-1,-2.9996461E-3,4.1771603E-1,1.3463181E-1,-6.507239E-1,-6.9772854E-2,1.7130513E-3,1.2771499E-1,6.6514756E-3,-1.1672035E-2,1.5636827E-1,4.7873493E-2,-7.495726E-2],"categories":[2,0,1,3,4,5],"categories_nodes":[1,6],"categories_segments":[0,1],"categories_sizes":[1,5],"default_left":[0,1,0,0,0,0,1,0,0,0,0,0,0,0,0],"id":23,"left_children":[1,3,5,7,9,11,13,-1,-1,-1,-1,-1,-1,-1,-1],"loss_changes":[1.16790285E1,1.0000312E1,6.7443523E0,1.3867705E1,1.8000324E1,5.7147684E0,5.022814E0,0E0,0E0,0E0,0E0,0E0,0E0,0E0,0E0],"parents":[2147483647,0,0,1,1,2,2,3,3,4,4,5,5,6,6],"right_children":[2,4,6,8,10,12,14,-1,-1,-1,-1,-1,-1,-1,-1],"split_conditions":[2.805E1,1E-45,1.86E2,3.1666666E1,1.29E2,8.971871E1,1E-45,-6.9772854E-2,1.7130513E-3,1.2771499E-1,6.6514756E-3,-1.1672035E-2,1.5636827E-1,4.7873493E-2,-7.495726E-2],"split_indices":[1,14,16,0,16,2,5,0,0,0,0,0,0,0,0],"split_type":[0,1,0,0,0,0,1,0,0,0,0,0,0,0,0],"sum_hessian":[1.1038524E3,1.0486759E3,5.517659E1,9.89758E2,5.891789E1,1.4401814E1,4.0774773E1,2.6923332E1,9.6283466E2,1.632704E1,4.2590847E1,1.3028575E1,1.3732401E0,2.9720962E0,3.7802677E1],"tree_param":{"num_deleted":"0","num_feature":"17","num_nodes":"15","size_leaf_vector":"1"}},{"base_weights":[-2.5183465E-3,2.7123306E-2,-3.3675712E-1,2.8672606E-1,-2.2963323E-2,7.196649E-1,-3.9841735E-1,-1.4375622E-3,7.6379836E-2,9.537775E-3,-1.7492412E-2,-6.0879763E-2,1.2467408E-1,2.2454793E-2,-5.2019816E-2],"categories":[],"categories_nodes":[],"categories_segments":[],"categories_sizes":[],"default_left":[0,0,0,0,0,0,0,0,0,0,0,0,0,0,0],"id":24,"left_children":[1,3,5,7,9,11,13,-1,-1,-1,-1,-1,-1,-1,-1],"loss_changes":[1.0936437E1,1.3191566E1,6.144066E0,2.3579792E1,1.5319495E1,4.4807777E0,6.61125E0,0E0,0E0,0E0,0E0,0E0,0E0,0E0,0E0],"parents":[2147483647,0,0,1,1,2,2,3,3,4,4,5,5,6,6],"right_children":[2,4,6,8,10,12,14,-1,-1,-1,-1,-1,-1,-1,-1],"split_conditions":[1E0,1.6E2,8.5E-1,3E0,9.066667E0,6.7666664E1,2.2737934E1,-1.4375622E-3,7.6379836E-2,9.537775E-3,-1.7492412E-2,-6.0879763E-2,1.2467408E-1,2.2454793E-2,-5.2019816E-2],"split_indices":[15,16,1,13,1,0,8,0,0,0,0,0,0,0,0],"split_type":[0,0,0,0,0,0,0,0,0,0,0,0,0,0,0],"sum_hessian":[1.1019448E3,1.01302454E3,8.892029E1,1.6307419E2,8.499503E2,4.315284E0,8.4605E1,1.005699E2,6.2504295E1,4.7804224E2,3.719081E2,1.1817383E0,3.1335456E0,1.369661E1,7.0908394E1],"tree_param":{"num_deleted":"0","num_feature":"17","num_nodes":"15","size_leaf_vector":"1"}},{"base_weights":[-2.4330912E-3,3.6867432E-2,-2.2393996E-1,4.9144655E-2,-8.7569046E-1,-3.0504873E-1,4.8998913E-1,-8.070442E-4,1.9943906E-2,-9.465113E-2,-4.2676018E-3,-7.91264E-2,-2.2796579E-2,-7.687431E-2,9.681653E-2],"categories":[2],"categories_nodes":[2],"categories_segments":[0],"categories_sizes":[1],"default_left":[0,0,1,0,1,0,0,0,0,0,0,0,0,0,0],"id":25,"left_children":[1,3,5,7,9,11,13,-1,-1,-1,-1,-1,-1,-1,-1],"loss_changes":[9.595717E0,1.0532284E1,9.7675705E0,7.9536457E0,6.95961E-1,5.432828E0,1.1174448E1,0E0,0E0,0E0,0E0,0E0,0E0,0E0,0E0],"parents":[2147483647,0,0,1,1,2,2,3,3,4,4,5,5,6,6],"right_children":[2,4,6,8,10,12,14,-1,-1,-1,-1,-1,-1,-1,-1],"split_conditions":[4.3968452E1,2.9466667E1,1E-45,9.907431E0,2.6553535E1,2.9E1,3E0,-8.070442E-4,1.9943906E-2,-9.465113E-2,-4.2676018E-3,-7.91264E-2,-2.2796579E-2,-7.687431E-2,9.681653E-2],"split_indices":[2,1,14,9,9,0,13,0,0,0,0,0,0,0,0],"split_type":[0,0,1,0,0,0,0,0,0,0,0,0,0,0,0],"sum_hessian":[1.1003315E3,9.3523285E2,1.6509872E2,9.2375116E2,1.1481666E1,1.4876985E2,1.6328878E1,6.697373E2,2.5401385E2,1.0456436E1,1.0252295E0,1.9090134E1,1.2967972E2,4.3281E0,1.2000777E1],"tree_param":{"num_deleted":"0","num_feature":"17","num_nodes":"15","size_leaf_vector":"1"}},{"base_weights":[-2.5136801E-3,2.4057385E-2,-3.113797E-1,2.5032791E-1,-2.0526454E-2,6.3240105E-1,-3.7050918E-1,-1.1158583E-3,6.435068E-2,3.2482748E-3,-2.9731164E-2,1.3724071E-1,-2.511098E-2,2.0073641E-2,-4.8904203E-2],"categories":[1,2],"categories_nodes":[5],"categories_segments":[0],"categories_sizes":[2],"default_left":[0,0,0,0,0,1,0,0,0,0,0,0,0,0,0],"id":26,"left_children":[1,3,5,7,9,11,13,-1,-1,-1,-1,-1,-1,-1,-1],"loss_changes":[9.0339E0,1.0230963E1,5.1002464E0,1.7169306E1,1.2447724E1,3.9472542E0,5.6968575E0,0E0,0E0,0E0,0E0,0E0,0E0,0E0,0E0],"parents":[2147483647,0,0,1,1,2,2,3,3,4,4,5,5,6,6],"right_children":[2,4,6,8,10,12,14,-1,-1,-1,-1,-1,-1,-1,-1],"split_conditions":[1E0,1.6E2,8.5E-1,3E0,4.1665417E1,1E-45,2.2737934E1,-1.1158583E-3,6.435068E-2,3.2482748E-3,-2.9731164E-2,1.3724071E-1,-2.511098E-2,2.0073641E-2,-4.8904203E-2],"split_indices":[15,16,1,13,2,6,8,0,0,0,0,0,0,0,0],"split_type":[0,0,0,0,0,1,0,0,0,0,0,0,0,0,0],"sum_hessian":[1.0988563E3,1.0126614E3,8.6194916E1,1.6592897E2,8.467324E2,4.5102644E0,8.1684654E1,1.00237144E2,6.569183E1,7.113744E2,1.3535799E2,2.1533322E0,2.3569322E0,1.3917672E1,6.776698E1],"tree_param":{"num_deleted":"0","num_feature":"17","num_nodes":"15","size_leaf_vector":"1"}},{"base_weights":[-2.3590578E-3,8.6738884E-2,-9.182292E-2,-2.2290468E-2,2.707111E-1,1.2698058E0,-1.09611385E-1,2.982588E-2,-8.0869105E-3,5.299116E-2,1.3110749E-2,1.7712459E-2,1.4666574E-1,-1.256413E-2,1.18717015E-1],"categories":[1,2,3,0],"categories_nodes":[0,4],"categories_segments":[0,3],"categories_sizes":[3,1],"default_left":[1,0,0,1,1,0,1,0,0,0,0,0,0,0,0],"id":27,"left_children":[1,3,5,7,9,11,13,-1,-1,-1,-1,-1,-1,-1,-1],"loss_changes":[8.762965E0,1.1054479E1,1.3425417E1,6.5356107E0,7.349991E0,1.2788382E0,1.1423816E1,0E0,0E0,0E0,0E0,0E0,0E0,0E0,0E0],"parents":[2147483647,0,0,1,1,2,2,3,3,4,4,5,5,6,6],"right_children":[2,4,6,8,10,12,14,-1,-1,-1,-1,-1,-1,-1,-1],"split_conditions":[1E-45,3E0,4.8166666E0,3E0,1E-45,2.0923803E0,1.5901816E3,2.982588E-2,-8.0869105E-3,5.299116E-2,1.3110749E-2,1.7712459E-2,1.4666574E-1,-1.256413E-2,1.18717015E-1],"split_indices":[5,13,2,11,14,9,9,0,0,0,0,0,0,0,0],"split_type":[1,0,0,0,1,0,0,0,0,0,0,0,0,0,0],"sum_hessian":[1.0973501E3,5.498147E2,5.4753546E2,3.4577396E2,2.0404076E2,6.153176E0,5.4138226E2,5.2792965E1,2.92981E2,7.0446915E1,1.3359384E2,1.2293123E0,4.923864E0,5.356639E2,5.7183914E0],"tree_param":{"num_deleted":"0","num_feature":"17","num_nodes":"15","size_leaf_vector":"1"}},{"base_weights":[-1.9591774E-3,1.3938483E-2,-4.8215476E-1,8.657106E-2,-8.3774105E-2,1.22369125E-1,-7.363354E-1,1.2863997E-3,5.8174945E-2,5.495827E-3,-2.2557046E-2,9.634237E-2,-2.1556038E-2,-9.657787E-2,-3.85221E-2],"categories":[],"categories_nodes":[],"categories_segments":[],"categories_sizes":[],"default_left":[0,1,0,0,0,0,0,0,0,0,0,0,0,0,0],"id":28,"left_children":[1,3,5,7,9,11,13,-1,-1,-1,-1,-1,-1,-1,-1],"loss_changes":[8.379309E0,7.5484896E0,5.4949255E0,2.2256474E1,8.935011E0,3.410591E0,1.6343327E0,0E0,0E0,0E0,0E0,0E0,0E0,0E0,0E0],"parents":[2147483647,0,0,1,1,2,2,3,3,4,4,5,5,6,6],"right_children":[2,4,6,8,10,12,14,-1,-1,-1,-1,-1,-1,-1,-1],"split_conditions":[3.0316668E1,9.197131E1,3.2666668E1,1.826783E1,2.0098099E1,1.738836E1,2.00001E0,1.2863997E-3,5.8174945E-2,5.495827E-3,-2.2557046E-2,9.634237E-2,-2.1556038E-2,-9.657787E-2,-3.85221E-2],"split_indices":[1,8,0,9,2,3,7,0,0,0,0,0,0,0,0],"split_type":[0,0,0,0,0,0,0,0,0,0,0,0,0,0,0],"sum_hessian":[1.0957518E3,1.0615775E3,3.417429E1,6.0900244E2,4.5257504E2,1.0269254E1,2.3905035E1,5.309907E2,7.801174E1,2.2906863E2,2.2350642E2,2.4129164E0,7.8563375E0,1.3398736E1,1.0506299E1],"tree_param":{"num_deleted":"0","num_feature":"17","num_nodes":"15","size_leaf_vector":"1"}},{"base_weights":[-1.9704592E-3,2.2217497E-2,-2.9018563E-1,2.2091448E-1,-1.7653769E-2,5.642743E-1,-3.4702167E-1,-3.9111913E-4,5.420208E-2,7.723444E-3,-1.448108E-2,-6.0183544E-2,9.938144E-2,-6.453026E-3,-5.7878166E-2],"categories":[1,2,3],"categories_nodes":[6],"categories_segments":[0],"categories_sizes":[3],"default_left":[0,0,0,0,0,0,1,0,0,0,0,0,0,0,0],"id":29,"left_children":[1,3,5,7,9,11,13,-1,-1,-1,-1,-1,-1,-1,-1],"loss_changes":[7.643517E0,8.018143E0,4.318443E0,1.2212896E1,1.0188177E1,3.4408066E0,5.2143517E0,0E0,0E0,0E0,0E0,0E0,0E0,0E0,0E0],"parents":[2147483647,0,0,1,1,2,2,3,3,4,4,5,5,6,6],"right_children":[2,4,6,8,10,12,14,-1,-1,-1,-1,-1,-1,-1,-1],"split_conditions":[1E0,1.6E2,8.5E-1,3E0,9.066667E0,6.7666664E1,1E-45,-3.9111913E-4,5.420208E-2,7.723444E-3,-1.448108E-2,-6.0183544E-2,9.938144E-2,-6.453026E-3,-5.7878166E-2],"split_indices":[15,16,1,13,1,0,5,0,0,0,0,0,0,0,0],"split_type":[0,0,0,0,0,0,1,0,0,0,0,0,0,0,0],"sum_hessian":[1.0944958E3,1.01060547E3,8.3890396E1,1.6814088E2,8.424646E2,4.6752763E0,7.921512E1,9.9478134E1,6.866276E1,4.826729E2,3.5979172E2,1.1505803E0,3.5246956E0,3.627639E1,4.2938725E1],"tree_param":{"num_deleted":"0","num_feature":"17","num_nodes":"15","size_leaf_vector":"1"}},{"base_weights":[-1.9150687E-3,1.2386572E-2,-4.5539656E-1,7.224729E-1,3.6195728E-3,1.14770174E-1,-7.126165E-1,-6.757898E-2,9.039634E-2,-9.544987E-2,1.2350179E-3,9.053152E-2,-1.9590376E-2,-9.557663E-2,-3.6023926E-2],"categories":[],"categories_nodes":[],"categories_segments":[],"categories_sizes":[],"default_left":[0,0,0,0,0,0,0,0,0,0,0,0,0,0,0],"id":30,"left_children":[1,3,5,7,9,11,13,-1,-1,-1,-1,-1,-1,-1,-1],"loss_changes":[7.1009707E0,6.605882E0,4.9910774E0,3.8950539E0,8.7917185E0,2.9447634E0,1.6440363E0,0E0,0E0,0E0,0E0,0E0,0E0,0E0,0E0],"parents":[2147483647,0,0,1,1,2,2,3,3,4,4,5,5,6,6],"right_children":[2,4,6,8,10,12,14,-1,-1,-1,-1,-1,-1,-1,-1],"split_conditions":[3.0316668E1,4.8166666E0,3.2666668E1,6.457767E-1,3E0,9.1E1,2.00001E0,-6.757898E-2,9.039634E-2,-9.544987E-2,1.2350179E-3,9.053152E-2,-1.9590376E-2,-9.557663E-2,-3.6023926E-2],"split_indices":[1,2,0,9,16,16,7,0,0,0,0,0,0,0,0],"split_type":[0,0,0,0,0,0,0,0,0,0,0,0,0,0,0],"sum_hessian":[1.0930248E3,1.0605504E3,3.247435E1,1.1941433E1,1.048609E3,1.0267871E1,2.2206478E1,1.058999E0,1.0882434E1,8.4907E0,1.0401183E3,2.356769E0,7.911102E0,1.2126517E1,1.0079961E1],"tree_param":{"num_deleted":"0","num_feature":"17","num_nodes":"15","size_leaf_vector":"1"}},{"base_weights":[-1.9413366E-3,1.2624122E-1,-5.1591698E-2,5.6377226E-1,5.448349E-2,-7.7995127E-3,-3.5473558E-1,8.939787E-2,-6.2346734E-2,-2.442131E-2,1.4764801E-2,1.8894774E-1,-1.5780441E-3,-2.375716E-2,-6.5764345E-2],"categories":[0,0,1,2,4],"categories_nodes":[0,5],"categories_segments":[0,1],"categories_sizes":[1,4],"default_left":[1,0,0,0,0,0,0,0,0,0,0,0,0,0,0],"id":31,"left_children":[1,3,5,7,9,11,13,-1,-1,-1,-1,-1,-1,-1,-1],"loss_changes":[6.964918E0,9.56238E0,1.0468799E1,1.7392984E1,7.3716354E0,1.0481674E1,3.3765688E0,0E0,0E0,0E0,0E0,0E0,0E0,0E0,0E0],"parents":[2147483647,0,0,1,1,2,2,3,3,4,4,5,5,6,6],"right_children":[2,4,6,8,10,12,14,-1,-1,-1,-1,-1,-1,-1,-1],"split_conditions":[1E-45,6.6E1,4.3725307E1,1E0,2E0,1E-45,1.9173958E1,8.939787E-2,-6.2346734E-2,-2.442131E-2,1.4764801E-2,1.8894774E-1,-1.5780441E-3,-2.375716E-2,-6.5764345E-2],"split_indices":[14,16,2,15,13,6,3,0,0,0,0,0,0,0,0],"split_type":[1,0,0,0,0,1,0,0,0,0,0,0,0,0,0],"sum_hessian":[1.0923478E3,3.045492E2,7.8779865E2,4.194427E1,2.6260492E2,6.892546E2,9.854404E1,3.3010178E1,8.934094E0,6.2048546E1,2.0055637E2,1.8996881E0,6.8735486E2,7.2345345E1,2.6198692E1],"tree_param":{"num_deleted":"0","num_feature":"17","num_nodes":"15","size_leaf_vector":"1"}},{"base_weights":[-1.8238266E-3,6.885209E-2,-8.462123E-2,9.511933E-2,-3.8042355E-1,3.3596173E-1,-1.2925379E-1,9.179586E-2,5.2997605E-3,-4.9965333E-2,1.17387585E-1,7.5816475E-2,-2.9891966E-2,9.997373E-2,-1.4335565E-2],"categories":[1,3],"categories_nodes":[0],"categories_segments":[0],"categories_sizes":[2],"default_left":[1,1,0,1,0,0,0,0,0,0,0,0,0,0,0],"id":32,"left_children":[1,3,5,7,9,11,13,-1,-1,-1,-1,-1,-1,-1,-1],"loss_changes":[6.3933134E0,6.992182E0,9.48776E0,1.9279928E1,6.6571927E0,1.323947E1,7.396376E0,0E0,0E0,0E0,0E0,0E0,0E0,0E0,0E0],"parents":[2147483647,0,0,1,1,2,2,3,3,4,4,5,5,6,6],"right_children":[2,4,6,8,10,12,14,-1,-1,-1,-1,-1,-1,-1,-1],"split_conditions":[1E-45,9.982711E1,8.5769075E-1,2E0,1.5278073E2,1.8363377E1,4.8166666E0,9.179586E-2,5.2997605E-3,-4.9965333E-2,1.17387585E-1,7.5816475E-2,-2.9891966E-2,9.997373E-2,-1.4335565E-2],"split_indices":[5,9,3,11,8,2,2,0,0,0,0,0,0,0,0],"split_type":[1,0,0,0,0,0,0,0,0,0,0,0,0,0,0],"sum_hessian":[1.0905455E3,5.884299E2,5.021157E2,5.566719E2,3.175795E1,4.7546528E1,4.5456915E2,2.6096138E1,5.3057574E2,3.0125565E1,1.6323867E0,2.8439661E1,1.9106865E1,4.745576E0,4.4982358E2],"tree_param":{"num_deleted":"0","num_feature":"17","num_nodes":"15","size_leaf_vector":"1"}},{"base_weights":[-1.5604326E-3,1.9634672E-2,-2.6205185E-1,-2.4944909E-2,1.5734485E-1,-4.7180948E-1,-4.154243E-2,1.7348668E-3,-4.0505286E-2,4.461468E-2,-3.7684652E-3,-6.1774082E-2,1.8127324E-2,6.9263324E-2,-2.222594E-2],"categories":[],"categories_nodes":[],"categories_segments":[],"categories_sizes":[],"default_left":[0,0,1,0,1,0,0,0,0,0,0,0,0,0,0],"id":33,"left_children":[1,3,5,7,9,11,13,-1,-1,-1,-1,-1,-1,-1,-1],"loss_changes":[6.024566E0,6.1991296E0,3.7779994E0,1.2276622E1,1.3924938E1,4.1130133E0,5.6100216E0,0E0,0E0,0E0,0E0,0E0,0E0,0E0,0E0],"parents":[2147483647,0,0,1,1,2,2,3,3,4,4,5,5,6,6],"right_children":[2,4,6,8,10,12,14,-1,-1,-1,-1,-1,-1,-1,-1],"split_conditions":[1E0,1.1593994E1,1E0,4.400653E1,9.197131E1,8.51E2,1.2821898E0,1.7348668E-3,-4.0505286E-2,4.461468E-2,-3.7684652E-3,-6.1774082E-2,1.8127324E-2,6.9263324E-2,-2.222594E-2],"split_indices":[15,9,10,3,8,16,9,0,0,0,0,0,0,0,0],"split_type":[0,0,0,0,0,0,0,0,0,0,0,0,0,0,0],"sum_hessian":[1.0892491E3,1.0081452E3,8.1103966E1,7.622185E2,2.4592674E2,4.0981262E1,4.01227E1,6.8675903E2,7.545945E1,9.861255E1,1.473142E2,3.3540707E1,7.4405546E0,7.3658223E0,3.2756878E1],"tree_param":{"num_deleted":"0","num_feature":"17","num_nodes":"15","size_leaf_vector":"1"}},{"base_weights":[-1.5683357E-3,-7.618693E-1,5.2476963E-3,7.502119E-2,-1.02609634E-1,-4.9915337E-3,5.693045E-1,5.047841E-2,-1.6921731E-3,1.1711608E-2,1.07060015E-1],"categories":[0],"categories_nodes":[6],"categories_segments":[0],"categories_sizes":[1],"default_left":[0,0,0,0,0,0,1,0,0,0,0],"id":34,"left_children":[1,3,5,-1,-1,7,9,-1,-1,-1,-1],"loss_changes":[5.649296E0,4.639681E0,6.2442575E0,0E0,0E0,6.4697256E0,4.244134E0,0E0,0E0,0E0,0E0],"parents":[2147483647,0,0,1,1,2,2,5,5,6,6],"right_children":[2,4,6,-1,-1,8,10,-1,-1,-1,-1],"split_conditions":[3E0,8.792058E0,1.0360324E4,7.502119E-2,-1.02609634E-1,1.8E1,1E-45,5.047841E-2,-1.6921731E-3,1.1711608E-2,1.07060015E-1],"split_indices":[16,2,9,0,0,16,14,0,0,0,0],"split_type":[0,0,0,0,0,0,1,0,0,0,0],"sum_hessian":[1.0883556E3,8.686046E0,1.0796696E3,1.0184622E0,7.6675835E0,1.0613934E3,1.8276148E1,2.3326895E1,1.0380665E3,1.0257291E1,8.018856E0],"tree_param":{"num_deleted":"0","num_feature":"17","num_nodes":"11","size_leaf_vector":"1"}},{"base_weights":[-1.3552479E-3,1.0996783E-2,-4.2110237E-1,-4.2138034E-1,2.3496274E-2,2.2638851E-1,-6.402615E-1,2.9756492E-2,-7.5623564E-2,8.91305E-3,-6.4503024E-3,-2.3379335E-2,1.5831283E-1,-8.932997E-2,-2.990281E-2],"categories":[],"categories_nodes":[],"categories_segments":[],"categories_sizes":[],"default_left":[0,0,0,0,1,0,0,0,0,0,0,0,0,0,0],"id":35,"left_children":[1,3,5,7,9,11,13,-1,-1,-1,-1,-1,-1,-1,-1],"loss_changes":[5.6498113E0,5.7314157E0,4.565279E0,7.3985476E0,5.953987E0,5.749547E0,1.7649393E0,0E0,0E0,0E0,0E0,0E0,0E0,0E0,0E0],"parents":[2147483647,0,0,1,1,2,2,3,3,4,4,5,5,6,6],"right_children":[2,4,6,8,10,12,14,-1,-1,-1,-1,-1,-1,-1,-1],"split_conditions":[3.0316668E1,3.1666666E1,3E1,2.49E2,9.197131E1,2.8E1,2.00001E0,2.9756492E-2,-7.5623564E-2,8.91305E-3,-6.4503024E-3,-2.3379335E-2,1.5831283E-1,-8.932997E-2,-2.990281E-2],"split_indices":[1,0,0,16,8,0,7,0,0,0,0,0,0,0,0],"split_type":[0,0,0,0,0,0,0,0,0,0,0,0,0,0,0],"sum_hessian":[1.0878091E3,1.0576588E3,3.0150257E1,2.8797459E1,1.0288613E3,7.616078E0,2.253418E1,9.186057E0,1.96114E1,5.893111E2,4.3955023E2,6.30516E0,1.3109176E0,1.2010245E1,1.0523934E1],"tree_param":{"num_deleted":"0","num_feature":"17","num_nodes":"15","size_leaf_vector":"1"}},{"base_weights":[-1.3757844E-3,1.1180989E-1,-4.5760762E-2,4.901337E-1,4.856066E-2,-7.9371855E-3,-3.1986654E-1,7.574578E-2,-5.8030248E-2,-2.2743225E-2,1.324824E-2,1.4304267E-1,-1.4793602E-3,-2.0644564E-2,-6.259452E-2],"categories":[0,0,1,2,4],"categories_nodes":[0,5],"categories_segments":[0,1],"categories_sizes":[1,4],"default_left":[1,0,0,0,0,0,0,0,0,0,0,0,0,0,0],"id":36,"left_children":[1,3,5,7,9,11,13,-1,-1,-1,-1,-1,-1,-1,-1],"loss_changes":[5.472248E0,7.318342E0,8.109369E0,1.2984463E1,6.144721E0,6.8119044E0,3.1635218E0,0E0,0E0,0E0,0E0,0E0,0E0,0E0,0E0],"parents":[2147483647,0,0,1,1,2,2,3,3,4,4,5,5,6,6],"right_children":[2,4,6,8,10,12,14,-1,-1,-1,-1,-1,-1,-1,-1],"split_conditions":[1E-45,6.6E1,4.3725307E1,1E0,2E0,1E-45,1.9173958E1,7.574578E-2,-5.8030248E-2,-2.2743225E-2,1.324824E-2,1.4304267E-1,-1.4793602E-3,-2.0644564E-2,-6.259452E-2],"split_indices":[14,16,2,15,13,6,3,0,0,0,0,0,0,0,0],"split_type":[1,0,0,0,0,1,0,0,0,0,0,0,0,0,0],"sum_hessian":[1.0872584E3,3.0583435E2,7.8142413E2,4.2839806E1,2.6299457E2,6.8757526E2,9.3848854E1,3.45131E1,8.326703E0,6.0924026E1,2.0207053E2,2.2769756E0,6.852983E2,6.96965E1,2.4152348E1],"tree_param":{"num_deleted":"0","num_feature":"17","num_nodes":"15","size_leaf_vector":"1"}},{"base_weights":[-1.3145019E-3,2.1501077E-2,-2.167371E-1,9.911463E-3,8.837462E-1,3.7021792E-1,-2.9720408E-1,8.488159E-3,-6.778804E-3,1.8283439E-1,3.0332614E-2,-2.0982355E-2,1.4501613E-1,2.629934E-2,-3.9549865E-2],"categories":[1,2,3],"categories_nodes":[3],"categories_segments":[0],"categories_sizes":[3],"default_left":[0,0,0,1,1,1,1,0,0,0,0,0,0,0,0],"id":37,"left_children":[1,3,5,7,9,11,13,-1,-1,-1,-1,-1,-1,-1,-1],"loss_changes":[5.3451476E0,9.8186655E0,5.029034E0,5.6642413E0,6.590233E0,8.44882E0,5.178032E0,0E0,0E0,0E0,0E0,0E0,0E0,0E0,0E0],"parents":[2147483647,0,0,1,1,2,2,3,3,4,4,5,5,6,6],"right_children":[2,4,6,8,10,12,14,-1,-1,-1,-1,-1,-1,-1,-1],"split_conditions":[1.066E3,1.048E3,1.7E0,1E-45,2.1578348E0,2.5E1,1.8793386E1,8.488159E-3,-6.778804E-3,1.8283439E-1,3.0332614E-2,-2.0982355E-2,1.4501613E-1,2.629934E-2,-3.9549865E-2],"split_indices":[16,16,1,5,9,11,8,0,0,0,0,0,0,0,0],"split_type":[0,0,0,1,0,0,0,0,0,0,0,0,0,0,0],"sum_hessian":[1.085571E3,9.824222E2,1.0314892E2,9.7039044E2,1.2031723E1,1.2001895E1,9.1147026E1,4.9382233E2,4.7656808E2,3.7609596E0,8.270763E0,8.332297E0,3.669598E0,1.3355604E1,7.779142E1],"tree_param":{"num_deleted":"0","num_feature":"17","num_nodes":"15","size_leaf_vector":"1"}},{"base_weights":[-1.0288709E-3,-7.399685E-1,5.282109E-3,6.783628E-2,-1.0078734E-1,-3.715218E-2,1.1685923E-1,8.1396673E-4,-2.8574256E-2,-1.1501025E-3,5.8019288E-2],"categories":[],"categories_nodes":[],"categories_segments":[],"categories_sizes":[],"default_left":[0,0,0,0,0,0,0,0,0,0,0],"id":38,"left_children":[1,3,5,-1,-1,7,9,-1,-1,-1,-1],"loss_changes":[5.0683794E0,4.1808667E0,5.107361E0,0E0,0E0,8.802345E0,1.7682362E1,0E0,0E0,0E0,0E0],"parents":[2147483647,0,0,1,1,2,2,5,5,6,6],"right_children":[2,4,6,-1,-1,8,10,-1,-1,-1,-1],"split_conditions":[3E0,8.792058E0,9.907431E0,6.783628E-2,-1.0078734E-1,6.001173E0,8.1666664E1,8.1396673E-4,-2.8574256E-2,-1.1501025E-3,5.8019288E-2],"split_indices":[16,2,9,0,0,9,0,0,0,0,0],"split_type":[0,0,0,0,0,0,0,0,0,0,0],"sum_hessian":[1.0849962E3,8.203592E0,1.0767926E3,1.0599495E0,7.1436424E0,7.805905E2,2.9620212E2,6.611075E2,1.1948301E2,2.3270856E2,6.3493546E1],"tree_param":{"num_deleted":"0","num_feature":"17","num_nodes":"11","size_leaf_vector":"1"}},{"base_weights":[-1.0507536E-3,1.4382533E-2,-3.0700052E-1,4.1822684E-1,-9.9803675E-3,-2.4062883E-2,-1.03745975E-1,9.3699105E-2,9.978822E-3,-1.7692164E-3,8.891272E-2,-6.0916223E-2,2.296863E-2],"categories":[1,0,1,2,3],"categories_nodes":[2,3],"categories_segments":[0,1],"categories_sizes":[1,4],"default_left":[1,1,1,1,0,0,0,0,0,0,0,0,0],"id":39,"left_children":[1,3,5,7,9,11,-1,-1,-1,-1,-1,-1,-1],"loss_changes":[5.129213E0,1.0179296E1,1.0756134E1,9.630375E0,6.7852597E0,5.8743873E0,0E0,0E0,0E0,0E0,0E0,0E0,0E0],"parents":[2147483647,0,0,1,1,2,2,3,3,4,4,5,5],"right_children":[2,4,6,8,10,12,-1,-1,-1,-1,-1,-1,-1],"split_conditions":[9.982711E1,2E0,1E-45,1E-45,1E0,4.25E0,-1.03745975E-1,9.3699105E-2,9.978822E-3,-1.7692164E-3,8.891272E-2,-6.0916223E-2,2.296863E-2],"split_indices":[9,11,6,5,4,1,0,0,0,0,0,0,0],"split_type":[0,0,1,1,0,0,0,0,0,0,0,0,0],"sum_hessian":[1.0843458E3,1.0331812E3,5.1164654E1,5.786317E1,9.7531805E2,3.762417E1,1.3540485E1,2.1270014E1,3.6593155E1,9.6799567E2,7.3223395E0,1.0957507E1,2.666666E1],"tree_param":{"num_deleted":"0","num_feature":"17","num_nodes":"13","size_leaf_vector":"1"}},{"base_weights":[-1.0361584E-3,1.7611986E-2,-2.3613186E-1,-1.7623368E-1,4.4843424E-2,5.124099E-1,-2.9051694E-1,1.5974864E-3,-3.9788783E-2,1.2455328E-2,-4.319633E-3,1.3916989E-1,-7.5934455E-3,2.1728214E-2,-4.0708993E-2],"categories":[],"categories_nodes":[],"categories_segments":[],"categories_sizes":[],"default_left":[0,0,0,0,1,0,0,0,0,0,0,0,0,0,0],"id":40,"left_children":[1,3,5,7,9,11,13,-1,-1,-1,-1,-1,-1,-1,-1],"loss_changes":[4.759712E0,5.317952E0,3.3970032E0,5.293944E0,6.2007523E0,3.0886562E0,4.5294323E0,0E0,0E0,0E0,0E0,0E0,0E0,0E0,0E0],"parents":[2147483647,0,0,1,1,2,2,3,3,4,4,5,5,6,6],"right_children":[2,4,6,8,10,12,14,-1,-1,-1,-1,-1,-1,-1,-1],"split_conditions":[1E0,8.032193E-1,8.5E-1,7.9333334E0,9.197131E1,1.4745803E0,2.2737934E1,1.5974864E-3,-3.9788783E-2,1.2455328E-2,-4.319633E-3,1.3916989E-1,-7.5934455E-3,2.1728214E-2,-4.0708993E-2],"split_indices":[15,9,1,1,8,9,8,0,0,0,0,0,0,0,0],"split_type":[0,0,0,0,0,0,0,0,0,0,0,0,0,0,0],"sum_hessian":[1.0837278E3,1.0049395E3,7.878822E1,1.2311066E2,8.8182886E2,4.7661624E0,7.4022064E1,6.6431854E1,5.66788E1,4.6259113E2,4.1923776E2,1.3632767E0,3.402886E0,1.3658942E1,6.036312E1],"tree_param":{"num_deleted":"0","num_feature":"17","num_nodes":"15","size_leaf_vector":"1"}},{"base_weights":[-9.650392E-4,1.988375E-2,-2.0129524E-1,9.303554E-3,7.63693E-1,-1.1594505E-1,-7.421974E-1,-7.161652E-2,1.5867181E-3,1.3812666E-1,9.970336E-4,5.1671665E-2,-2.0938452E-2,3.2495297E-2,-8.5713826E-2],"categories":[2],"categories_nodes":[2],"categories_segments":[0],"categories_sizes":[1],"default_left":[0,0,1,0,0,0,0,0,0,0,0,0,0,0,0],"id":41,"left_children":[1,3,5,7,9,11,13,-1,-1,-1,-1,-1,-1,-1,-1],"loss_changes":[4.531722E0,7.7270427E0,4.635602E0,4.6302705E0,6.3963575E0,5.4003186E0,1.9655457E0,0E0,0E0,0E0,0E0,0E0,0E0,0E0,0E0],"parents":[2147483647,0,0,1,1,2,2,3,3,4,4,5,5,6,6],"right_children":[2,4,6,8,10,12,14,-1,-1,-1,-1,-1,-1,-1,-1],"split_conditions":[1.066E3,1.048E3,1E-45,3E0,9.066667E0,1.7E0,7.5617642E0,-7.161652E-2,1.5867181E-3,1.3812666E-1,9.970336E-4,5.1671665E-2,-2.0938452E-2,3.2495297E-2,-8.5713826E-2],"split_indices":[16,16,6,16,1,1,2,0,0,0,0,0,0,0,0],"split_type":[0,0,1,0,0,0,0,0,0,0,0,0,0,0,0],"sum_hessian":[1.0830574E3,9.817819E2,1.0127539E2,9.690109E2,1.2771034E1,8.85217E1,1.2753688E1,7.7190914E0,9.612918E2,6.5618744E0,6.20916E0,1.0808609E1,7.771309E1,1.0624458E0,1.1691242E1],"tree_param":{"num_deleted":"0","num_feature":"17","num_nodes":"15","size_leaf_vector":"1"}},{"base_weights":[-9.369356E-4,9.946906E-2,-4.072107E-2,2.2987443E-1,-5.8053304E-2,5.3784665E-2,-1.3097467E-1,1.10828456E-4,4.712898E-2,2.3905335E-2,-2.479216E-2,-6.345676E-3,2.1636112E-2,-4.63029E-2,-8.066735E-3],"categories":[0],"categories_nodes":[0],"categories_segments":[0],"categories_sizes":[1],"default_left":[1,0,0,0,0,0,0,0,0,0,0,0,0,0,0],"id":42,"left_children":[1,3,5,7,9,11,13,-1,-1,-1,-1,-1,-1,-1,-1],"loss_changes":[4.3335557E0,6.337592E0,6.634248E0,9.312827E0,7.970195E0,7.2616744E0,6.606468E0,0E0,0E0,0E0,0E0,0E0,0E0,0E0,0E0],"parents":[2147483647,0,0,1,1,2,2,3,3,4,4,5,5,6,6],"right_children":[2,4,6,8,10,12,14,-1,-1,-1,-1,-1,-1,-1,-1],"split_conditions":[1E-45,4.96E2,7.0833335E0,3E0,6.6333336E1,2.1E1,8.032193E-1,1.10828456E-4,4.712898E-2,2.3905335E-2,-2.479216E-2,-6.345676E-3,2.1636112E-2,-4.63029E-2,-8.066735E-3],"split_indices":[14,16,1,13,0,11,9,0,0,0,0,0,0,0,0],"split_type":[1,0,0,0,0,0,0,0,0,0,0,0,0,0,0],"sum_hessian":[1.0828486E3,3.0687262E2,7.75976E2,1.6763564E2,1.39237E2,3.7925607E2,3.9671997E2,8.658856E1,8.104707E1,5.418658E1,8.505042E1,2.2070506E2,1.58551E2,5.1117043E1,3.4560294E2],"tree_param":{"num_deleted":"0","num_feature":"17","num_nodes":"15","size_leaf_vector":"1"}},{"base_weights":[-9.93881E-4,9.547942E-3,-3.8336387E-1,-3.9608032E-1,2.0665234E-2,1.5258655E-1,-6.5234476E-1,2.6147127E-2,-7.288787E-2,1.2652839E-3,7.916391E-2,8.854842E-2,-1.835077E-2,-9.325844E-2,-2.9006764E-2],"categories":[],"categories_nodes":[],"categories_segments":[],"categories_sizes":[],"default_left":[0,0,0,0,0,0,0,0,0,0,0,0,0,0,0],"id":43,"left_children":[1,3,5,7,9,11,13,-1,-1,-1,-1,-1,-1,-1,-1],"loss_changes":[4.3689384E0,4.765153E0,4.2917404E0,6.359465E0,6.33838E0,2.7557855E0,1.7145014E0,0E0,0E0,0E0,0E0,0E0,0E0,0E0,0E0],"parents":[2147483647,0,0,1,1,2,2,3,3,4,4,5,5,6,6],"right_children":[2,4,6,8,10,12,14,-1,-1,-1,-1,-1,-1,-1,-1],"split_conditions":[3.0316668E1,3.1666666E1,3.2666668E1,2.49E2,5.889058E1,1.738836E1,2.00001E0,2.6147127E-2,-7.288787E-2,1.2652839E-3,7.916391E-2,8.854842E-2,-1.835077E-2,-9.325844E-2,-2.9006764E-2],"split_indices":[1,0,0,16,2,3,7,0,0,0,0,0,0,0,0],"split_type":[0,0,0,0,0,0,0,0,0,0,0,0,0,0,0],"sum_hessian":[1.0819598E3,1.0538798E3,2.8080112E1,2.7190037E1,1.0266897E3,9.5280285E0,1.8552084E1,9.208995E0,1.7981043E1,1.0171355E3,9.554235E0,2.4817078E0,7.0463204E0,9.572806E0,8.979278E0],"tree_param":{"num_deleted":"0","num_feature":"17","num_nodes":"15","size_leaf_vector":"1"}},{"base_weights":[-1.0239296E-3,1.27804885E-2,-2.8160882E-1,-3.0003227E-2,2.0587571E-1,-1.8292598E-2,-1.0200683E-1,1.8418353E-4,-3.14085E-2,4.0376257E-2,-5.5133314E-3,4.565929E-2,-2.864903E-2],"categories":[1,3,4,5],"categories_nodes":[2,5],"categories_segments":[0,1],"categories_sizes":[1,3],"default_left":[1,0,1,0,1,1,0,0,0,0,0,0,0],"id":44,"left_children":[1,3,5,7,9,11,-1,-1,-1,-1,-1,-1,-1],"loss_changes":[4.1970305E0,8.538786E0,9.86138E0,7.6573863E0,9.704782E0,5.0308948E0,0E0,0E0,0E0,0E0,0E0,0E0,0E0],"parents":[2147483647,0,0,1,1,2,2,3,3,4,4,5,5],"right_children":[2,4,6,8,10,12,-1,-1,-1,-1,-1,-1,-1],"split_conditions":[9.982711E1,1.3798037E1,1E-45,4.3261105E1,1.19431335E2,1E-45,-1.0200683E-1,1.8418353E-4,-3.14085E-2,4.0376257E-2,-5.5133314E-3,4.565929E-2,-2.864903E-2],"split_indices":[9,9,6,3,8,5,0,0,0,0,0,0,0],"split_type":[0,0,1,0,0,1,0,0,0,0,0,0,0],"sum_hessian":[1.0816477E3,1.031837E3,4.981061E1,8.453739E2,1.8646315E2,3.7473328E1,1.2337284E1,7.6105457E2,8.431936E1,1.05744705E2,8.071845E1,1.3271549E1,2.420178E1],"tree_param":{"num_deleted":"0","num_feature":"17","num_nodes":"13","size_leaf_vector":"1"}},{"base_weights":[-1.1409791E-3,5.491915E-2,-6.84056E-2,-8.989411E-2,1.1819006E-1,-3.980255E-2,-5.773924E-1,-2.5973634E-3,-6.816115E-2,1.0422254E-2,1.0545963E-1,8.584615E-2,-5.4867542E-3,1.03399396E-1,-7.062902E-2],"categories":[1,3],"categories_nodes":[0],"categories_segments":[0],"categories_sizes":[2],"default_left":[1,0,0,0,0,0,0,0,0,0,0,0,0,0,0],"id":45,"left_children":[1,3,5,7,9,11,13,-1,-1,-1,-1,-1,-1,-1,-1],"loss_changes":[4.083971E0,5.423138E0,7.144356E0,6.797474E0,5.2727323E0,6.3692827E0,6.155509E0,0E0,0E0,0E0,0E0,0E0,0E0,0E0,0E0],"parents":[2147483647,0,0,1,1,2,2,3,3,4,4,5,5,6,6],"right_children":[2,4,6,8,10,12,14,-1,-1,-1,-1,-1,-1,-1,-1],"split_conditions":[1E-45,2E0,2.6633333E1,1.066E3,1.3E2,4.8166666E0,4.3333335E0,-2.5973634E-3,-6.816115E-2,1.0422254E-2,1.0545963E-1,8.584615E-2,-5.4867542E-3,1.03399396E-1,-7.062902E-2],"split_indices":[5,13,1,16,11,2,0,0,0,0,0,0,0,0,0],"split_type":[1,0,0,0,0,0,0,0,0,0,0,0,0,0,0],"sum_hessian":[1.0810372E3,5.8972675E2,4.9131052E2,1.7918674E2,4.1054E2,4.6619064E2,2.511987E1,1.6265932E2,1.6527431E1,4.0560132E2,4.9386854E0,6.7661924E0,4.5942444E2,1.3404714E0,2.3779398E1],"tree_param":{"num_deleted":"0","num_feature":"17","num_nodes":"15","size_leaf_vector":"1"}},{"base_weights":[-1.0023923E-3,1.6166402E-2,-2.2117098E-1,1.6103321E-1,-1.3701311E-2,-4.2892444E-1,-1.0147708E-2,2.3870504E-2,-4.7954507E-2,-2.9273782E-2,1.4367971E-3,-5.7686586E-2,1.9789448E-2,5.9030004E-2,-1.7439943E-2],"categories":[],"categories_nodes":[],"categories_segments":[],"categories_sizes":[],"default_left":[0,0,1,0,0,0,0,0,0,0,0,0,0,0,0],"id":46,"left_children":[1,3,5,7,9,11,13,-1,-1,-1,-1,-1,-1,-1,-1],"loss_changes":[4.090247E0,4.345688E0,3.4273126E0,8.655779E0,6.529953E0,3.7695951E0,4.0337715E0,0E0,0E0,0E0,0E0,0E0,0E0,0E0,0E0],"parents":[2147483647,0,0,1,1,2,2,3,3,4,4,5,5,6,6],"right_children":[2,4,6,8,10,12,14,-1,-1,-1,-1,-1,-1,-1,-1],"split_conditions":[1E0,1.6E2,1E0,4.3261105E1,4.3E1,8.51E2,1.2821898E0,2.3870504E-2,-4.7954507E-2,-2.9273782E-2,1.4367971E-3,-5.7686586E-2,1.9789448E-2,5.9030004E-2,-1.7439943E-2],"split_indices":[15,16,10,3,0,16,9,0,0,0,0,0,0,0,0],"split_type":[0,0,0,0,0,0,0,0,0,0,0,0,0,0,0],"sum_hessian":[1.0801216E3,1.002846E3,7.727558E1,1.7066777E2,8.321782E2,3.8419147E1,3.8856434E1,1.5277122E2,1.7896555E1,7.519877E1,7.569795E2,3.114744E1,7.2717085E0,7.7889256E0,3.1067509E1],"tree_param":{"num_deleted":"0","num_feature":"17","num_nodes":"15","size_leaf_vector":"1"}},{"base_weights":[-1.0661168E-3,-6.908564E-1,4.309158E-3,6.565848E-2,-9.757122E-2,3.9559698E-1,-5.1352046E-3,-1.599704E-2,1.4201784E-1,4.9914513E-3,-8.301486E-3],"categories":[],"categories_nodes":[],"categories_segments":[],"categories_sizes":[],"default_left":[0,0,0,0,0,0,1,0,0,0,0],"id":47,"left_children":[1,3,5,-1,-1,7,9,-1,-1,-1,-1],"loss_changes":[4.009039E0,3.8496327E0,3.967551E0,0E0,0E0,1.463018E1,4.5005064E0,0E0,0E0,0E0,0E0],"parents":[2147483647,0,0,1,1,2,2,5,5,6,6],"right_children":[2,4,6,-1,-1,8,10,-1,-1,-1,-1],"split_conditions":[3E0,8.792058E0,1.8E1,6.565848E-2,-9.757122E-2,1.21375565E2,9.197131E1,-1.599704E-2,1.4201784E-1,4.9914513E-3,-8.301486E-3],"split_indices":[16,2,16,0,0,8,8,0,0,0,0],"split_type":[0,0,0,0,0,0,0,0,0,0,0],"sum_hessian":[1.0794381E3,7.360542E0,1.0720776E3,1.0567703E0,6.3037715E0,2.4302856E1,1.0477748E3,1.6305342E1,7.9975142E0,6.140727E2,4.3370203E2],"tree_param":{"num_deleted":"0","num_feature":"17","num_nodes":"11","size_leaf_vector":"1"}},{"base_weights":[-9.6058164E-4,-1.5542418E-1,2.04262E-2,-4.562728E-3,-4.141639E-1,8.7597184E-2,-5.5668402E-2,4.9906418E-2,-1.1999129E-2,-4.802673E-2,1.2690787E-1,2.1953514E-2,-2.936022E-3,6.3797445E-3,-1.7826822E-2],"categories":[1,4],"categories_nodes":[3],"categories_segments":[0],"categories_sizes":[2],"default_left":[0,0,1,1,0,1,0,0,0,0,0,0,0,0,0],"id":48,"left_children":[1,3,5,7,9,11,13,-1,-1,-1,-1,-1,-1,-1,-1],"loss_changes":[3.5708563E0,5.1295834E0,4.858179E0,4.9461904E0,5.9957676E0,7.7948008E0,6.540743E0,0E0,0E0,0E0,0E0,0E0,0E0,0E0,0E0],"parents":[2147483647,0,0,1,1,2,2,3,3,4,4,5,5,6,6],"right_children":[2,4,6,8,10,12,14,-1,-1,-1,-1,-1,-1,-1,-1],"split_conditions":[8.032193E-1,9.633333E0,9.197131E1,1E-45,7.142073E1,1E0,2.0098099E1,4.9906418E-2,-1.1999129E-2,-4.802673E-2,1.2690787E-1,2.1953514E-2,-2.936022E-3,6.3797445E-3,-1.7826822E-2],"split_indices":[9,1,8,6,3,7,2,0,0,0,0,0,0,0,0],"split_type":[0,0,0,1,0,0,0,0,0,0,0,0,0,0,0],"sum_hessian":[1.078977E3,1.3046211E2,9.48515E2,8.305404E1,4.740807E1,5.037174E2,4.4479758E2,1.4866474E1,6.818756E1,4.6304306E1,1.1037605E0,2.3628766E2,2.6742975E2,2.2552106E2,2.1927654E2],"tree_param":{"num_deleted":"0","num_feature":"17","num_nodes":"15","size_leaf_vector":"1"}},{"base_weights":[-8.8363077E-4,-6.6260934E-1,3.998537E-3,6.142075E-2,-9.5525265E-2,-3.282515E-2,9.9890426E-2,4.9766777E-3,-1.5612723E-2,-1.2747117E-3,4.8982095E-2],"categories":[],"categories_nodes":[],"categories_segments":[],"categories_sizes":[],"default_left":[0,0,0,0,0,1,0,0,0,0,0],"id":49,"left_children":[1,3,5,-1,-1,7,9,-1,-1,-1,-1],"loss_changes":[3.489887E0,3.5428953E0,3.7904088E0,0E0,0E0,7.9071064E0,1.3087144E1,0E0,0E0,0E0,0E0],"parents":[2147483647,0,0,1,1,2,2,5,5,6,6],"right_children":[2,4,6,-1,-1,8,10,-1,-1,-1,-1],"split_conditions":[3E0,8.792058E0,9.907431E0,6.142075E-2,-9.5525265E-2,1E0,8.1666664E1,4.9766777E-3,-1.5612723E-2,-1.2747117E-3,4.8982095E-2],"split_indices":[16,2,9,0,0,7,0,0,0,0,0],"split_type":[0,0,0,0,0,0,0,0,0,0,0],"sum_hessian":[1.0784209E3,6.9115667E0,1.0715093E3,1.0838503E0,5.827717E0,7.746801E2,2.968292E2,4.642836E2,3.1039655E2,2.3105316E2,6.5776024E1],"tree_param":{"num_deleted":"0","num_feature":"17","num_nodes":"11","size_leaf_vector":"1"}}]},"name":"gbtree"},"learner_model_param":{"base_score":"[8.3528705E-2]","boost_from_average":"1","num_class":"0","num_feature":"17","num_target":"1"},"objective":{"name":"binary:logistic","reg_loss_param":{"scale_pos_weight":"1"}}},"version":[3,2,0]}