{"learner":{"attributes":{"scikit_learn":"{\"_estimator_type\": \"classifier\"}"},"feature_names":["x_adj","y_adj","distance","angle","behind_the_net","shot_type","prev_type","prev_event_same_team","dist_from_prev_event","speed_from_prev_event","crossed_royal_road","time_from_prev_event","home_team_shot","period","game_state","goalie_pulled","time_remaining"],"feature_types":["float","float","float","float","i","c","c","i","float","float","i","float","i","int","c","i","int"],"gradient_booster":{"model":{"cats":{"enc":[{"offsets":[],"values":[]},{"offsets":[],"values":[]},{"offsets":[],"values":[]},{"offsets":[],"values":[]},{"offsets":[],"values":[]},{"offsets":[0,1,2,3,4,5,6],"values":[49,50,51,52,53,54]},{"offsets":[0,12,19,22,29,33],"values":[98,108,111,99,107,101,100,95,115,104,111,116,102,97,99,101,111,102,102,104,105,116,112,101,110,97,108,116,121,115,104,111,116]},{"offsets":[],"values":[]},{"offsets":[],"values":[]},{"offsets":[],"values":[]},{"offsets":[],"values":[]},{"offsets":[],"values":[]},{"offsets":[],"values":[]},{"offsets":[],"values":[]},{"offsets":[0,2,4,6],"values":[101,118,112,112,115,104]},{"offsets":[],"values":[]},{"offsets":[],"values":[]}],"feature_segments":[0,0,0,0,0,0,6,11,11,11,11,11,11,11,11,14,14,14],"sorted_idx":[0,1,2,3,4,5,0,1,2,3,4,0,1,2]},"gbtree_model_param":{"num_parallel_tree":"1","num_trees":"50"},"iteration_indptr":[0,1,2,3,4,5,6,7,8,9,10,11,12,13,14,15,16,17,18,19,20,21,22,23,24,25,26,27,28,29,30,31,32,33,34,35,36,37,38,39,40,41,42,43,44,45,46,47,48,49,50],"tree_info":[0,0,0,0,0,0,0,0,0,0,0,0,0,0,0,0,0,0,0,0,0,0,0,0,0,0,0,0,0,0,0,0,0,0,0,0,0,0,0,0,0,0,0,0,0,0,0,0,0,0],"trees":[{"base_weights":[-2.2818307E-8,7.3515326E-1,-4.4859043E-1,2.1545053E0,4.8798448E-1,-1.3629779E-1,-7.5876737E-1,2.8136978E-1,1.4927818E-2,7.96937E-2,-1.2649997E-2,1.4297095E-2,-4.038663E-2,-6.44334E-2,-9.562104E-2],"categories":[],"categories_nodes":[],"categories_segments":[],"categories_sizes":[],"default_left":[0,1,0,1,0,0,0,0,0,0,0,0,0,0,0],"id":0,"left_children":[1,3,5,7,9,11,13,-1,-1,-1,-1,-1,-1,-1,-1],"loss_changes":[3.6213422E2,1.449368E2,6.5955734E1,8.07746E1,6.763088E1,2.5541624E1,7.109314E0,0E0,0E0,0E0,0E0,0E0,0E0,0E0,0E0],"parents":[2147483647,0,0,1,1,2,2,3,3,4,4,5,5,6,6],"right_children":[2,4,6,8,10,12,14,-1,-1,-1,-1,-1,-1,-1,-1],"split_conditions":[2.2939104E1,3E0,1.8983334E1,1.16683525E2,9.066667E0,3.608758E1,2.9183332E1,2.8136978E-1,1.4927818E-2,7.96937E-2,-1.2649997E-2,1.4297095E-2,-4.038663E-2,-6.44334E-2,-9.562104E-2],"split_indices":[2,11,1,8,1,2,1,0,0,0,0,0,0,0,0],"split_type":[0,0,0,0,0,0,0,0,0,0,0,0,0,0,0],"sum_hessian":[1.0960994E3,4.151347E2,6.8096466E2,6.0425896E1,3.547088E2,3.4004233E2,3.4092233E2,4.5172756E1,1.52531395E1,2.3583699E2,1.1887182E2,1.666112E2,1.7343112E2,2.1853055E2,1.2239178E2],"tree_param":{"num_deleted":"0","num_feature":"17","num_nodes":"15","size_leaf_vector":"1"}},{"base_weights":[-2.7655342E-3,5.2807254E-1,-5.0082916E-1,1.4261829E0,3.3851498E-1,-2.3779628E-1,-7.3384017E-1,1.8601559E-1,1.4239147E-2,6.44072E-2,-1.5114491E-2,-3.7293147E-2,3.610466E-2,-6.063297E-2,-9.374767E-2],"categories":[1],"categories_nodes":[5],"categories_segments":[0],"categories_sizes":[1],"default_left":[0,1,0,1,0,1,0,0,0,0,0,0,0,0,0],"id":1,"left_children":[1,3,5,7,9,11,13,-1,-1,-1,-1,-1,-1,-1,-1],"loss_changes":[2.9084134E2,9.0172485E1,3.4609665E1,5.1265747E1,6.608087E1,2.1828476E1,7.2333527E0,0E0,0E0,0E0,0E0,0E0,0E0,0E0,0E0],"parents":[2147483647,0,0,1,1,2,2,3,3,4,4,5,5,6,6],"right_children":[2,4,6,8,10,12,14,-1,-1,-1,-1,-1,-1,-1,-1],"split_conditions":[2.7560846E1,4E0,1.8983334E1,1.1618912E2,9.066667E0,1E-45,2.9183332E1,1.8601559E-1,1.4239147E-2,6.44072E-2,-1.5114491E-2,-3.7293147E-2,3.610466E-2,-6.063297E-2,-9.374767E-2],"split_indices":[2,11,1,8,1,14,1,0,0,0,0,0,0,0,0],"split_type":[0,0,0,0,0,1,0,0,0,0,0,0,0,0,0],"sum_hessian":[1.0980415E3,5.3150323E2,5.665383E2,9.149284E1,4.4001038E2,2.670741E2,2.9946423E2,6.804272E1,2.3450125E1,2.7074503E2,1.6926534E2,2.1820998E2,4.8864132E1,1.8659933E2,1.1286491E2],"tree_param":{"num_deleted":"0","num_feature":"17","num_nodes":"15","size_leaf_vector":"1"}},{"base_weights":[-4.5162453E-3,4.0242913E-1,-5.4919046E-1,-2.0663466E-1,6.1633503E-1,-6.466662E-1,-6.256806E-2,2.2787934E-3,-4.4699963E-2,1.2287035E-1,4.5878984E-2,-4.3793034E-2,-8.260457E-2,5.004213E-2,-3.568213E-2],"categories":[1,1,3,5],"categories_nodes":[2,3],"categories_segments":[0,1],"categories_sizes":[1,3],"default_left":[0,0,1,1,1,0,0,0,0,0,0,0,0,0,0],"id":2,"left_children":[1,3,5,7,9,11,13,-1,-1,-1,-1,-1,-1,-1,-1],"loss_changes":[2.438585E2,8.216787E1,2.227591E1,9.077354E0,4.442189E1,1.4310318E1,1.3368658E1,0E0,0E0,0E0,0E0,0E0,0E0,0E0,0E0],"parents":[2147483647,0,0,1,1,2,2,3,3,4,4,5,5,6,6],"right_children":[2,4,6,8,10,12,14,-1,-1,-1,-1,-1,-1,-1,-1],"split_conditions":[1.3316667E1,6.2E1,1E-45,1E-45,4E0,2.1533333E1,1.8133333E1,2.2787934E-3,-4.4699963E-2,1.2287035E-1,4.5878984E-2,-4.3793034E-2,-8.260457E-2,5.004213E-2,-3.568213E-2],"split_indices":[1,0,14,5,11,1,1,0,0,0,0,0,0,0,0],"split_type":[0,0,1,1,0,0,0,0,0,0,0,0,0,0,0],"sum_hessian":[1.0981859E3,6.287132E2,4.6947275E2,1.6342368E2,4.6528952E2,3.9085193E2,7.8620804E1,8.4078224E1,7.934544E1,9.381957E1,3.7146997E2,1.8223482E2,2.0861713E2,2.6746523E1,5.1874283E1],"tree_param":{"num_deleted":"0","num_feature":"17","num_nodes":"15","size_leaf_vector":"1"}},{"base_weights":[-5.656965E-3,3.493638E-1,-5.1998734E-1,-1.8986379E-1,5.265796E-1,-6.1744297E-1,-5.714625E-2,-5.2966844E-2,-3.332788E-3,1.9169597E-1,4.750504E-2,-4.1009586E-2,-8.018314E-2,4.333651E-2,-3.3218782E-2],"categories":[1],"categories_nodes":[2],"categories_segments":[0],"categories_sizes":[1],"default_left":[0,0,1,0,0,0,0,0,0,0,0,0,0,0,0],"id":3,"left_children":[1,3,5,7,9,11,13,-1,-1,-1,-1,-1,-1,-1,-1],"loss_changes":[2.0075058E2,6.2256783E1,2.0216064E1,8.5795555E0,3.418283E1,1.3846771E1,1.08280325E1,0E0,0E0,0E0,0E0,0E0,0E0,0E0,0E0],"parents":[2147483647,0,0,1,1,2,2,3,3,4,4,5,5,6,6],"right_children":[2,4,6,8,10,12,14,-1,-1,-1,-1,-1,-1,-1,-1],"split_conditions":[1.3316667E1,6.2E1,1E-45,2E0,6.0927095E0,2.1533333E1,1.8133333E1,-5.2966844E-2,-3.332788E-3,1.9169597E-1,4.750504E-2,-4.1009586E-2,-8.018314E-2,4.333651E-2,-3.3218782E-2],"split_indices":[1,0,14,13,2,1,1,0,0,0,0,0,0,0,0],"split_type":[0,0,1,0,0,0,0,0,0,0,0,0,0,0,0],"sum_hessian":[1.0974182E3,6.4945044E2,4.4796774E2,1.606271E2,4.8882333E2,3.6977423E2,7.81935E1,4.9906815E1,1.1072029E2,1.6175253E1,4.7264807E2,1.7556891E2,1.9420532E2,2.7885908E1,5.030759E1],"tree_param":{"num_deleted":"0","num_feature":"17","num_nodes":"15","size_leaf_vector":"1"}},{"base_weights":[-6.3438714E-3,3.0496132E-1,-4.9130255E-1,4.18702E-1,-3.270025E-1,-3.6892125E-1,-8.4963375E-1,9.4493024E-2,3.0624768E-2,-3.766746E-2,1.09740436E-1,-4.7208842E-2,2.5009755E-3,-4.654768E-2,-9.1851346E-2],"categories":[1],"categories_nodes":[5],"categories_segments":[0],"categories_sizes":[1],"default_left":[0,0,0,1,0,1,0,0,0,0,0,0,0,0,0],"id":4,"left_children":[1,3,5,7,9,11,13,-1,-1,-1,-1,-1,-1,-1,-1],"loss_changes":[1.6578679E2,4.821232E1,1.8513626E1,3.3278694E1,7.6709833E0,1.3089649E1,2.4442444E0,0E0,0E0,0E0,0E0,0E0,0E0,0E0,0E0],"parents":[2147483647,0,0,1,1,2,2,3,3,4,4,5,5,6,6],"right_children":[2,4,6,8,10,12,14,-1,-1,-1,-1,-1,-1,-1,-1],"split_conditions":[1.3316667E1,3.608758E1,2.805E1,3E0,1.05E2,1E-45,1.85E2,9.4493024E-2,3.0624768E-2,-3.766746E-2,1.09740436E-1,-4.7208842E-2,2.5009755E-3,-4.654768E-2,-9.1851346E-2],"split_indices":[1,2,1,11,11,14,16,0,0,0,0,0,0,0,0],"split_type":[0,0,0,0,0,1,0,0,0,0,0,0,0,0,0],"sum_hessian":[1.0961505E3,6.678285E2,4.28322E2,5.66252E2,1.01576454E2,3.207913E2,1.0753071E2,9.8397896E1,4.6785413E2,9.8864395E1,2.712055E0,2.5405739E2,6.673388E1,1.7528471E1,9.0002235E1],"tree_param":{"num_deleted":"0","num_feature":"17","num_nodes":"15","size_leaf_vector":"1"}},{"base_weights":[-6.7746826E-3,2.4524845E-1,-5.126849E-1,3.5281456E-1,-3.481965E-1,-4.0237647E-1,-8.684851E-1,1.0626497E-1,2.9120225E-2,-3.771501E-2,1.4135526E-1,-4.8721608E-2,-8.5462965E-3,-1.7383993E-2,-9.06999E-2],"categories":[1,0,1,3,4],"categories_nodes":[5,6],"categories_segments":[0,1],"categories_sizes":[1,4],"default_left":[0,0,0,0,0,1,1,0,0,0,0,0,0,0,0],"id":5,"left_children":[1,3,5,7,9,11,13,-1,-1,-1,-1,-1,-1,-1,-1],"loss_changes":[1.3976894E2,4.6832424E1,1.3956459E1,2.6803612E1,6.2860575E0,7.489456E0,2.1270676E0,0E0,0E0,0E0,0E0,0E0,0E0,0E0,0E0],"parents":[2147483647,0,0,1,1,2,2,3,3,4,4,5,5,6,6],"right_children":[2,4,6,8,10,12,14,-1,-1,-1,-1,-1,-1,-1,-1],"split_conditions":[1.5016666E1,3.632248E1,2.9183332E1,7.326531E0,1.46E2,1E-45,1E-45,1.0626497E-1,2.9120225E-2,-3.771501E-2,1.4135526E-1,-4.8721608E-2,-8.5462965E-3,-1.7383993E-2,-9.06999E-2],"split_indices":[1,2,1,2,11,14,5,0,0,0,0,0,0,0,0],"split_type":[0,0,0,0,0,1,1,0,0,0,0,0,0,0,0],"sum_hessian":[1.0942316E3,7.3072864E2,3.6350293E2,6.189458E2,1.1178283E2,2.791036E2,8.439934E1,4.8135017E1,5.708108E2,1.1074864E2,1.034184E0,2.1974043E2,5.9363174E1,4.723271E0,7.967606E1],"tree_param":{"num_deleted":"0","num_feature":"17","num_nodes":"15","size_leaf_vector":"1"}},{"base_weights":[-6.949455E-3,2.16277E-1,-4.8443782E-1,-1.9093022E-1,3.413296E-1,-3.780634E-1,-8.5588986E-1,-3.1222392E-2,3.1938102E-2,7.220086E-2,2.3753213E-2,-3.9253246E-2,1.3048077E-1,-1.5383373E-2,-8.984978E-2],"categories":[1,0,1,3,4],"categories_nodes":[3,6],"categories_segments":[0,1],"categories_sizes":[1,4],"default_left":[0,0,0,1,1,0,1,0,0,0,0,0,0,0,0],"id":6,"left_children":[1,3,5,7,9,11,13,-1,-1,-1,-1,-1,-1,-1,-1],"loss_changes":[1.1663133E2,3.8035908E1,1.3449966E1,1.0983254E1,2.2383942E1,7.1540413E0,2.1594276E0,0E0,0E0,0E0,0E0,0E0,0E0,0E0,0E0],"parents":[2147483647,0,0,1,1,2,2,3,3,4,4,5,5,6,6],"right_children":[2,4,6,8,10,12,14,-1,-1,-1,-1,-1,-1,-1,-1],"split_conditions":[1.5016666E1,6.2E1,2.9466667E1,1E-45,4E0,1E0,1E-45,-3.1222392E-2,3.1938102E-2,7.220086E-2,2.3753213E-2,-3.9253246E-2,1.3048077E-1,-1.5383373E-2,-8.984978E-2],"split_indices":[1,0,1,14,11,4,5,0,0,0,0,0,0,0,0],"split_type":[0,0,0,1,0,0,1,0,0,0,0,0,0,0,0],"sum_hessian":[1.0922424E3,7.4466E2,3.475825E2,1.7483151E2,5.698284E2,2.7177176E2,7.581072E1,1.4157042E2,3.32611E1,1.2080782E2,4.490206E2,2.7021524E2,1.556516E0,4.6015067E0,7.120921E1],"tree_param":{"num_deleted":"0","num_feature":"17","num_nodes":"15","size_leaf_vector":"1"}},{"base_weights":[-6.970084E-3,1.9114839E-1,-4.5639968E-1,2.7388847E-1,-3.1053483E-1,-3.5011885E-1,-8.290604E-1,6.360987E-2,1.934648E-2,-3.402905E-2,1.3904089E-1,-4.3592207E-2,-4.1448767E-3,-1.5060032E-2,-8.720953E-2],"categories":[1,0,1,3,4],"categories_nodes":[5,6],"categories_segments":[0,1],"categories_sizes":[1,4],"default_left":[0,0,0,1,0,1,1,0,0,0,0,0,0,0,0],"id":7,"left_children":[1,3,5,7,9,11,13,-1,-1,-1,-1,-1,-1,-1,-1],"loss_changes":[9.720575E1,3.1537527E1,1.2938545E1,1.8840088E1,5.9263353E0,6.910843E0,2.0113869E0,0E0,0E0,0E0,0E0,0E0,0E0,0E0,0E0],"parents":[2147483647,0,0,1,1,2,2,3,3,4,4,5,5,6,6],"right_children":[2,4,6,8,10,12,14,-1,-1,-1,-1,-1,-1,-1,-1],"split_conditions":[1.5016666E1,3.632248E1,2.9183332E1,3E0,1.5E2,1E-45,1E-45,6.360987E-2,1.934648E-2,-3.402905E-2,1.3904089E-1,-4.3592207E-2,-4.1448767E-3,-1.5060032E-2,-8.720953E-2],"split_indices":[1,2,1,11,11,14,5,0,0,0,0,0,0,0,0],"split_type":[0,0,0,0,0,1,1,0,0,0,0,0,0,0,0],"sum_hessian":[1.0897253E3,7.567208E2,3.3300452E2,6.4997736E2,1.0674344E2,2.6061737E2,7.238716E1,1.1684126E2,5.331361E2,1.056944E2,1.0490395E0,2.0360701E2,5.7010345E1,4.5860505E0,6.780111E1],"tree_param":{"num_deleted":"0","num_feature":"17","num_nodes":"15","size_leaf_vector":"1"}},{"base_weights":[-6.901663E-3,1.3550149E-1,-5.401783E-1,7.1817136E-1,8.52479E-2,-4.2588276E-1,-8.1636524E-1,4.5372505E-2,1.2391495E-1,-2.8083002E-2,1.52300345E-2,-8.953666E-3,-5.066083E-2,-1.3207716E-2,-8.6395286E-2],"categories":[1,3,4,0,1,3,4],"categories_nodes":[5,6],"categories_segments":[0,3],"categories_sizes":[3,4],"default_left":[0,0,0,0,0,1,1,0,0,0,0,0,0,0,0],"id":8,"left_children":[1,3,5,7,9,11,13,-1,-1,-1,-1,-1,-1,-1,-1],"loss_changes":[8.270477E1,2.5108551E1,6.897766E0,8.8221245E0,1.949509E1,4.4192963E0,2.038105E0,0E0,0E0,0E0,0E0,0E0,0E0,0E0,0E0],"parents":[2147483647,0,0,1,1,2,2,3,3,4,4,5,5,6,6],"right_children":[2,4,6,8,10,12,14,-1,-1,-1,-1,-1,-1,-1,-1],"split_conditions":[1.8983334E1,7.662481E0,2.9466667E1,9.843408E0,5.2333332E1,1E-45,1E-45,4.5372505E-2,1.2391495E-1,-2.8083002E-2,1.52300345E-2,-8.953666E-3,-5.066083E-2,-1.3207716E-2,-8.6395286E-2],"split_indices":[1,2,1,9,0,5,5,0,0,0,0,0,0,0,0],"split_type":[0,0,0,0,0,1,1,0,0,0,0,0,0,0,0],"sum_hessian":[1.0871127E3,8.585866E2,2.2852614E2,6.711575E1,7.914708E2,1.6343372E2,6.509243E1,4.5759388E1,2.1356367E1,1.2203318E2,6.694376E2,3.2041348E1,1.3139236E2,4.477891E0,6.061454E1],"tree_param":{"num_deleted":"0","num_feature":"17","num_nodes":"15","size_leaf_vector":"1"}},{"base_weights":[-6.7836964E-3,1.2064026E-1,-5.123799E-1,-1.3150635E-1,2.1372618E-1,-3.9928058E-1,-7.9573345E-1,-2.66179E-2,3.848199E-2,3.6895093E-2,4.6803625E-3,-8.151424E-3,-4.78433E-2,9.6815586E-4,-8.4829524E-2],"categories":[1,1,3,4,0,1,3,4,5],"categories_nodes":[3,5,6],"categories_segments":[0,1,4],"categories_sizes":[1,3,5],"default_left":[0,0,0,1,0,1,1,0,0,0,0,0,0,0,0],"id":9,"left_children":[1,3,5,7,9,11,13,-1,-1,-1,-1,-1,-1,-1,-1],"loss_changes":[7.002157E1,2.040424E1,6.693508E0,1.642196E1,1.6421267E1,3.944397E0,2.6077614E0,0E0,0E0,0E0,0E0,0E0,0E0,0E0,0E0],"parents":[2147483647,0,0,1,1,2,2,3,3,4,4,5,5,6,6],"right_children":[2,4,6,8,10,12,14,-1,-1,-1,-1,-1,-1,-1,-1],"split_conditions":[1.8983334E1,6.3333332E1,2.9466667E1,1E-45,6.516667E0,1E-45,1E-45,-2.66179E-2,3.848199E-2,3.6895093E-2,4.6803625E-3,-8.151424E-3,-4.78433E-2,9.6815586E-4,-8.4829524E-2],"split_indices":[1,0,1,14,1,5,5,0,0,0,0,0,0,0,0],"split_type":[0,0,0,1,0,1,1,0,0,0,0,0,0,0,0],"sum_hessian":[1.0849088E3,8.6712994E2,2.1777888E2,2.3369511E2,6.334348E2,1.573732E2,6.0405685E1,1.8573468E2,4.796044E1,3.2759088E2,3.0584393E2,3.17877E1,1.255855E2,3.7505758E0,5.665511E1],"tree_param":{"num_deleted":"0","num_feature":"17","num_nodes":"15","size_leaf_vector":"1"}},{"base_weights":[-6.721575E-3,1.0740502E-1,-4.848932E-1,-2.514239E-1,1.6358398E-1,-3.7349838E-1,-7.7449197E-1,-4.0185563E-2,1.9708497E-2,4.68428E-2,9.837759E-3,-2.169531E-2,-5.278038E-2,8.910699E-4,-8.297577E-2],"categories":[1,1,3,0,1,3,4,5],"categories_nodes":[3,5,6],"categories_segments":[0,1,3],"categories_sizes":[1,2,5],"default_left":[0,0,0,1,1,1,1,0,0,0,0,0,0,0,0],"id":10,"left_children":[1,3,5,7,9,11,13,-1,-1,-1,-1,-1,-1,-1,-1],"loss_changes":[5.9192028E1,1.769423E1,6.4528313E0,8.1039095E0,1.5016733E1,3.578123E0,2.4807014E0,0E0,0E0,0E0,0E0,0E0,0E0,0E0,0E0],"parents":[2147483647,0,0,1,1,2,2,3,3,4,4,5,5,6,6],"right_children":[2,4,6,8,10,12,14,-1,-1,-1,-1,-1,-1,-1,-1],"split_conditions":[1.8983334E1,5.2333332E1,2.9466667E1,1E-45,3E0,1E-45,1E-45,-4.0185563E-2,1.9708497E-2,4.68428E-2,9.837759E-3,-2.169531E-2,-5.278038E-2,8.910699E-4,-8.297577E-2],"split_indices":[1,0,1,14,11,5,5,0,0,0,0,0,0,0,0],"split_type":[0,0,0,1,0,1,1,0,0,0,0,0,0,0,0],"sum_hessian":[1.082703E3,8.7470905E2,2.0799393E2,1.1793752E2,7.567715E2,1.5186748E2,5.6126457E1,8.8393875E1,2.954365E1,1.322607E2,6.245108E2,7.658091E1,7.528657E1,3.7538347E0,5.2372623E1],"tree_param":{"num_deleted":"0","num_feature":"17","num_nodes":"15","size_leaf_vector":"1"}},{"base_weights":[-6.6011907E-3,1.3996342E-1,-3.2672787E-1,8.8945496E-1,1.1381558E-1,-4.2809168E-1,6.196164E-2,1.5060516E-1,5.0483245E-2,2.4102012E-2,-2.6054927E-3,-2.5593733E-2,-6.2592044E-2,4.2143814E-2,-2.5034396E-2],"categories":[1,1,3,0,1],"categories_nodes":[2,4,6],"categories_segments":[0,1,3],"categories_sizes":[1,2,2],"default_left":[0,0,1,0,1,0,1,0,0,0,0,0,0,0,0],"id":11,"left_children":[1,3,5,7,9,11,13,-1,-1,-1,-1,-1,-1,-1,-1],"loss_changes":[5.0781277E1,1.4448857E1,1.3418041E1,5.1406364E0,1.2791037E1,9.025555E0,8.096428E0,0E0,0E0,0E0,0E0,0E0,0E0,0E0,0E0],"parents":[2147483647,0,0,1,1,2,2,3,3,4,4,5,5,6,6],"right_children":[2,4,6,8,10,12,14,-1,-1,-1,-1,-1,-1,-1,-1],"split_conditions":[1.3316667E1,6.0927095E0,1E-45,6E0,1E-45,2.1533333E1,1E-45,1.5060516E-1,5.0483245E-2,2.4102012E-2,-2.6054927E-3,-2.5593733E-2,-6.2592044E-2,4.2143814E-2,-2.5034396E-2],"split_indices":[1,2,14,11,5,1,5,0,0,0,0,0,0,0,0],"split_type":[0,0,1,0,1,0,1,0,0,0,0,0,0,0,0],"sum_hessian":[1.0803376E3,7.414431E2,3.3889447E2,2.3882013E1,7.1756116E2,2.6871634E2,7.0178154E1,8.054312E0,1.5827702E1,3.7541693E2,3.421442E2,1.4490819E2,1.23808136E2,3.2462757E1,3.77154E1],"tree_param":{"num_deleted":"0","num_feature":"17","num_nodes":"15","size_leaf_vector":"1"}},{"base_weights":[-6.226002E-3,8.649964E-2,-4.3342605E-1,1.2585872E-1,-3.2320052E-1,-3.230296E-1,-7.365677E-1,3.8758807E-2,6.096723E-3,3.3065062E-2,-4.5490332E-2,-1.4356595E-2,-4.580995E-2,3.3254765E-3,-7.9709776E-2],"categories":[0,0,1,4,0,2,4,0,1,3,4,5],"categories_nodes":[3,4,5,6],"categories_segments":[0,1,4,7],"categories_sizes":[1,3,3,5],"default_left":[0,0,0,1,1,0,1,0,0,0,0,0,0,0,0],"id":12,"left_children":[1,3,5,7,9,11,13,-1,-1,-1,-1,-1,-1,-1,-1],"loss_changes":[4.2787415E1,1.4353111E1,6.208782E0,1.3741833E1,6.873664E0,3.4003763E0,2.3863964E0,0E0,0E0,0E0,0E0,0E0,0E0,0E0,0E0],"parents":[2147483647,0,0,1,1,2,2,3,3,4,4,5,5,6,6],"right_children":[2,4,6,8,10,12,14,-1,-1,-1,-1,-1,-1,-1,-1],"split_conditions":[1.8983334E1,4.5449654E1,2.9466667E1,1E-45,1E-45,1E-45,1E-45,3.8758807E-2,6.096723E-3,3.3065062E-2,-4.5490332E-2,-1.4356595E-2,-4.580995E-2,3.3254765E-3,-7.9709776E-2],"split_indices":[1,2,1,14,6,6,5,0,0,0,0,0,0,0,0],"split_type":[0,0,0,1,1,1,1,0,0,0,0,0,0,0,0],"sum_hessian":[1.0782056E3,8.8656934E2,1.9163623E2,8.094955E2,7.707384E1,1.4199197E2,4.9644253E1,1.598388E2,6.496567E2,1.2668627E1,6.440521E1,6.186137E1,8.013061E1,3.651758E0,4.5992496E1],"tree_param":{"num_deleted":"0","num_feature":"17","num_nodes":"15","size_leaf_vector":"1"}},{"base_weights":[-6.0614604E-3,1.14704646E-1,-2.879987E-1,4.6442223E-1,7.0113145E-2,-3.8523585E-1,6.284886E-2,8.364152E-2,-2.1850883E-3,8.3646074E-2,4.9001775E-3,-2.3713572E-2,-5.973765E-2,3.3895638E-2,-3.345504E-2],"categories":[1],"categories_nodes":[2],"categories_segments":[0],"categories_sizes":[1],"default_left":[0,1,1,1,0,0,1,0,0,0,0,0,0,0,0],"id":13,"left_children":[1,3,5,7,9,11,13,-1,-1,-1,-1,-1,-1,-1,-1],"loss_changes":[3.672171E1,1.17430315E1,1.1058073E1,1.5433092E1,1.0813249E1,7.8191147E0,7.9088593E0,0E0,0E0,0E0,0E0,0E0,0E0,0E0,0E0],"parents":[2147483647,0,0,1,1,2,2,3,3,4,4,5,5,6,6],"right_children":[2,4,6,8,10,12,14,-1,-1,-1,-1,-1,-1,-1,-1],"split_conditions":[1.3316667E1,2E0,1E-45,9.243701E1,2.5E1,4.3724197E1,1.1060391E2,8.364152E-2,-2.1850883E-3,8.3646074E-2,4.9001775E-3,-2.3713572E-2,-5.973765E-2,3.3895638E-2,-3.345504E-2],"split_indices":[1,11,14,9,16,2,8,0,0,0,0,0,0,0,0],"split_type":[0,0,1,0,0,0,0,0,0,0,0,0,0,0,0],"sum_hessian":[1.0765427E3,7.5411523E2,3.2242752E2,8.421642E1,6.698988E2,2.5238202E2,7.0045494E1,4.7307053E1,3.690937E1,1.6924229E1,6.5297455E2,1.498713E2,1.02510704E2,4.1416763E1,2.8628729E1],"tree_param":{"num_deleted":"0","num_feature":"17","num_nodes":"15","size_leaf_vector":"1"}},{"base_weights":[-5.750492E-3,7.057843E-2,-3.8660976E-1,4.609372E-1,3.3853803E-2,-2.787545E-1,-6.9921774E-1,8.3982244E-2,2.7444735E-2,1.5443958E-2,-1.0165918E-2,2.915687E-3,-3.6160838E-2,6.0178717E-3,-7.648989E-2],"categories":[1,3,1,3,4,0,1,3,4,5],"categories_nodes":[4,5,6],"categories_segments":[0,2,5],"categories_sizes":[2,3,5],"default_left":[0,0,0,0,1,1,1,0,0,0,0,0,0,0,0],"id":14,"left_children":[1,3,5,7,9,11,13,-1,-1,-1,-1,-1,-1,-1,-1],"loss_changes":[3.1288778E1,1.2838942E1,5.8635826E0,5.2119827E0,1.3425896E1,3.4612389E0,2.3120022E0,0E0,0E0,0E0,0E0,0E0,0E0,0E0,0E0],"parents":[2147483647,0,0,1,1,2,2,3,3,4,4,5,5,6,6],"right_children":[2,4,6,8,10,12,14,-1,-1,-1,-1,-1,-1,-1,-1],"split_conditions":[1.8983334E1,7.662481E0,2.9466667E1,2E0,1E-45,1E-45,1E-45,8.3982244E-2,2.7444735E-2,1.5443958E-2,-1.0165918E-2,2.915687E-3,-3.6160838E-2,6.0178717E-3,-7.648989E-2],"split_indices":[1,2,1,13,5,5,5,0,0,0,0,0,0,0,0],"split_type":[0,0,0,0,1,1,1,0,0,0,0,0,0,0,0],"sum_hessian":[1.0743654E3,8.956756E2,1.7868982E2,7.602529E1,8.1965027E2,1.3425961E2,4.4430218E1,2.392149E1,5.2103806E1,4.3363867E2,3.860116E2,2.860444E1,1.0565517E2,3.5435824E0,4.0886635E1],"tree_param":{"num_deleted":"0","num_feature":"17","num_nodes":"15","size_leaf_vector":"1"}},{"base_weights":[-5.4493076E-3,1.01248145E-1,-2.4460927E-1,3.2270882E-1,4.1939355E-2,-8.8639003E-1,-1.9124159E-1,5.0574165E-2,-3.063022E-2,2.2607008E-2,-7.0431456E-3,-9.570267E-2,-1.7660817E-2,-1.2292768E-2,-6.64986E-2],"categories":[],"categories_nodes":[],"categories_segments":[],"categories_sizes":[],"default_left":[0,1,0,1,0,1,0,0,0,0,0,0,0,0,0],"id":15,"left_children":[1,3,5,7,9,11,13,-1,-1,-1,-1,-1,-1,-1,-1],"loss_changes":[2.742201E1,9.747256E0,1.1185036E1,1.8210526E1,1.216789E1,1.0932178E0,9.864818E0,0E0,0E0,0E0,0E0,0E0,0E0,0E0,0E0],"parents":[2147483647,0,0,1,1,2,2,3,3,4,4,5,5,6,6],"right_children":[2,4,6,8,10,12,14,-1,-1,-1,-1,-1,-1,-1,-1],"split_conditions":[3.0981936E1,4E0,2.8666666E1,1.1618912E2,3.0583239E0,1.4590376E1,2.89E1,5.0574165E-2,-3.063022E-2,2.2607008E-2,-7.0431456E-3,-9.570267E-2,-1.7660817E-2,-1.2292768E-2,-6.64986E-2],"split_indices":[2,11,0,8,3,9,1,0,0,0,0,0,0,0,0],"split_type":[0,0,0,0,0,0,0,0,0,0,0,0,0,0,0],"sum_hessian":[1.072654E3,7.421377E2,3.3051642E2,1.558285E2,5.863092E2,2.417594E1,3.0634045E2,1.2085692E2,3.497159E1,2.2182124E2,3.644879E2,2.1670935E1,2.5050054E0,2.6883408E2,3.750638E1],"tree_param":{"num_deleted":"0","num_feature":"17","num_nodes":"15","size_leaf_vector":"1"}},{"base_weights":[-5.378858E-3,5.7880796E-2,-3.4335986E-1,4.3818947E-2,1.0166037E0,-1.4720319E-1,-4.940614E-1,2.6540233E-2,-1.4175124E-3,4.0758863E-2,2.4566732E-1,-4.4750595E-3,-7.595037E-2,-5.9784092E-2,2.369648E-2],"categories":[0,2,4,0],"categories_nodes":[2,3],"categories_segments":[0,3],"categories_sizes":[3,1],"default_left":[0,0,0,1,1,1,1,0,0,0,0,0,0,0,0],"id":16,"left_children":[1,3,5,7,9,11,13,-1,-1,-1,-1,-1,-1,-1,-1],"loss_changes":[2.2926306E1,1.2133368E1,4.924761E0,1.1457411E1,1.0411001E1,4.6630664E0,7.3626175E0,0E0,0E0,0E0,0E0,0E0,0E0,0E0,0E0],"parents":[2147483647,0,0,1,1,2,2,3,3,4,4,5,5,6,6],"right_children":[2,4,6,8,10,12,14,-1,-1,-1,-1,-1,-1,-1,-1],"split_conditions":[1.8983334E1,1.0279326E4,1E-45,1E-45,3.9E1,1.286382E2,1.3792883E2,2.6540233E-2,-1.4175124E-3,4.0758863E-2,2.4566732E-1,-4.4750595E-3,-7.595037E-2,-5.9784092E-2,2.369648E-2],"split_indices":[1,9,6,14,11,8,8,0,0,0,0,0,0,0,0],"split_type":[0,0,1,1,0,0,0,0,0,0,0,0,0,0,0],"sum_hessian":[1.0703671E3,9.02311E2,1.6805614E2,8.9029846E2,1.2012545E1,7.387521E1,9.418092E1,1.8393695E2,7.063615E2,9.343956E0,2.6685884E0,6.420522E1,9.6699915E0,8.263229E1,1.1548632E1],"tree_param":{"num_deleted":"0","num_feature":"17","num_nodes":"15","size_leaf_vector":"1"}},{"base_weights":[-4.930379E-3,7.0786454E-2,-2.6529956E-1,1.8584906E-1,-3.8520254E-2,-3.7210563E-1,2.0533264E-1,9.12411E-3,3.68237E-2,3.049374E-2,-1.3049902E-2,-9.408288E-2,-3.0598348E-2,8.686971E-2,-9.044419E-3],"categories":[0],"categories_nodes":[4],"categories_segments":[0],"categories_sizes":[1],"default_left":[0,0,0,1,1,0,1,0,0,0,0,0,0,0,0],"id":17,"left_children":[1,3,5,7,9,11,13,-1,-1,-1,-1,-1,-1,-1,-1],"loss_changes":[2.1113997E1,1.04431925E1,1.2204733E1,6.944643E0,1.3508643E1,7.1206455E0,8.9614935E0,0E0,0E0,0E0,0E0,0E0,0E0,0E0,0E0],"parents":[2147483647,0,0,1,1,2,2,3,3,4,4,5,5,6,6],"right_children":[2,4,6,8,10,12,14,-1,-1,-1,-1,-1,-1,-1,-1],"split_conditions":[3.6803837E1,6.516667E0,1.2959185E1,2.5E1,1E-45,2.8666666E1,9.031914E1,9.12411E-3,3.68237E-2,3.049374E-2,-1.3049902E-2,-9.408288E-2,-3.0598348E-2,8.686971E-2,-9.044419E-3],"split_indices":[2,1,9,11,14,0,8,0,0,0,0,0,0,0,0],"split_type":[0,0,0,0,1,0,0,0,0,0,0,0,0,0,0],"sum_hessian":[1.0690448E3,8.287638E2,2.4028108E2,4.0341037E2,4.2535342E2,1.9600803E2,4.4273045E1,2.666134E2,1.3679697E2,8.9359825E1,3.359936E2,1.9037338E1,1.7697069E2,1.30554495E1,3.1217594E1],"tree_param":{"num_deleted":"0","num_feature":"17","num_nodes":"15","size_leaf_vector":"1"}},{"base_weights":[-4.7364985E-3,6.62195E-2,-2.3879294E-1,5.447712E-2,1.043263E0,-1.6852415E-1,-6.271064E-1,-2.696989E-2,9.257492E-3,1.6269453E-1,-1.3194782E-2,-1.858899E-2,1.3676044E-1,-3.7807025E-2,-9.582903E-2],"categories":[],"categories_nodes":[],"categories_segments":[],"categories_sizes":[],"default_left":[0,0,0,0,1,0,0,0,0,0,0,0,0,0,0],"id":18,"left_children":[1,3,5,7,9,11,13,-1,-1,-1,-1,-1,-1,-1,-1],"loss_changes":[1.7764002E1,9.36058E0,6.6838503E0,1.0055378E1,6.8635187E0,5.9112854E0,2.752037E0,0E0,0E0,0E0,0E0,0E0,0E0,0E0,0E0],"parents":[2147483647,0,0,1,1,2,2,3,3,4,4,5,5,6,6],"right_children":[2,4,6,8,10,12,14,-1,-1,-1,-1,-1,-1,-1,-1],"split_conditions":[1.5016666E1,1.29E2,2.9466667E1,5.2333332E1,7.1480385E1,1E0,2.7E1,-2.696989E-2,9.257492E-3,1.6269453E-1,-1.3194782E-2,-1.858899E-2,1.3676044E-1,-3.7807025E-2,-9.582903E-2],"split_indices":[1,11,1,0,8,4,11,0,0,0,0,0,0,0,0],"split_type":[0,0,0,0,0,0,0,0,0,0,0,0,0,0,0],"sum_hessian":[1.0676718E3,8.198462E2,2.4782555E2,8.1115326E2,8.692905E0,2.1106537E2,3.6760174E1,8.4664E1,7.2648926E2,5.5513673E0,3.1415381E0,2.0957513E2,1.4902335E0,2.2204731E1,1.4555443E1],"tree_param":{"num_deleted":"0","num_feature":"17","num_nodes":"15","size_leaf_vector":"1"}},{"base_weights":[-4.374861E-3,-8.468062E-1,1.2492449E-2,-9.2815787E-1,-1.7583907E-1,1.4502688E-1,-8.684962E-2,-3.9156005E-2,-9.7482406E-2,-6.293499E-2,4.6186835E-2,4.42386E-3,3.3078983E-2,2.0292236E-2,-1.7264482E-2],"categories":[1,2,4,0],"categories_nodes":[3,6],"categories_segments":[0,3],"categories_sizes":[3,1],"default_left":[0,1,0,1,0,1,1,0,0,0,0,0,0,0,0],"id":19,"left_children":[1,3,5,7,9,11,13,-1,-1,-1,-1,-1,-1,-1,-1],"loss_changes":[1.5172663E1,9.8085403E-1,1.3798641E1,8.0537796E-2,1.3029534E0,8.391297E0,1.4929424E1,0E0,0E0,0E0,0E0,0E0,0E0,0E0,0E0],"parents":[2147483647,0,0,1,1,2,2,3,3,4,4,5,5,6,6],"right_children":[2,4,6,8,10,12,14,-1,-1,-1,-1,-1,-1,-1,-1],"split_conditions":[2.8666666E1,1.4590376E1,6.516667E0,1E-45,2.295E1,2.5E1,1E-45,-3.9156005E-2,-9.7482406E-2,-6.293499E-2,4.6186835E-2,4.42386E-3,3.3078983E-2,2.0292236E-2,-1.7264482E-2],"split_indices":[0,9,1,6,1,11,14,0,0,0,0,0,0,0,0],"split_type":[0,0,0,1,0,0,1,0,0,0,0,0,0,0,0],"sum_hessian":[1.0660345E3,1.9959528E1,1.0460751E3,1.745935E1,2.5001779E0,4.479694E2,5.9810565E2,2.1482346E0,1.5311116E1,1.4687617E0,1.0314162E0,2.9120837E2,1.5676102E2,1.3632037E2,4.6178525E2],"tree_param":{"num_deleted":"0","num_feature":"17","num_nodes":"15","size_leaf_vector":"1"}},{"base_weights":[-4.251839E-3,3.5003074E-2,-3.2999718E-1,3.9110136E-1,3.9091134E-3,-4.558307E-1,1.3041069E-1,-5.97314E-2,5.1846083E-2,-1.6708691E-3,7.692517E-2,-5.47716E-2,-2.2631213E-3,1.08252265E-1,-2.8976982E-2],"categories":[1],"categories_nodes":[2],"categories_segments":[0],"categories_sizes":[1],"default_left":[0,0,1,0,0,1,0,0,0,0,0,0,0,0,0],"id":20,"left_children":[1,3,5,7,9,11,13,-1,-1,-1,-1,-1,-1,-1,-1],"loss_changes":[1.3644195E1,1.0543586E1,6.7077503E0,9.936179E0,1.3850028E1,3.5837936E0,1.0478816E1,0E0,0E0,0E0,0E0,0E0,0E0,0E0,0E0],"parents":[2147483647,0,0,1,1,2,2,3,3,4,4,5,5,6,6],"right_children":[2,4,6,8,10,12,14,-1,-1,-1,-1,-1,-1,-1,-1],"split_conditions":[2.1533333E1,8.7E1,1E-45,4E0,1.3739895E3,1.2613116E1,4.6E1,-5.97314E-2,5.1846083E-2,-1.6708691E-3,7.692517E-2,-5.47716E-2,-2.2631213E-3,1.08252265E-1,-2.8976982E-2],"split_indices":[1,16,14,16,9,9,0,0,0,0,0,0,0,0,0],"split_type":[0,0,1,0,0,0,0,0,0,0,0,0,0,0,0],"sum_hessian":[1.0651244E3,9.513693E2,1.1375505E2,7.547112E1,8.758982E2,8.9345955E1,2.4409092E1,8.193418E0,6.72777E1,8.538736E2,2.2024601E1,7.3493095E1,1.5852861E1,6.9911356E0,1.7417957E1],"tree_param":{"num_deleted":"0","num_feature":"17","num_nodes":"15","size_leaf_vector":"1"}},{"base_weights":[-4.0023164E-3,-8.268285E-1,1.1129585E-2,-9.139278E-1,-1.697047E-1,1.11972466E-1,-1.0132681E-1,-3.6520835E-2,-9.646914E-2,-6.2844425E-2,4.8182916E-2,1.1758961E-1,9.744683E-3,-1.1826723E-2,1.2585002E-1],"categories":[1,3,1,2,4,0,1,2,4],"categories_nodes":[2,3,5],"categories_segments":[0,2,5],"categories_sizes":[2,3,4],"default_left":[0,1,1,1,0,0,1,0,0,0,0,0,0,0,0],"id":21,"left_children":[1,3,5,7,9,11,13,-1,-1,-1,-1,-1,-1,-1,-1],"loss_changes":[1.3270384E1,9.46475E-1,1.1882839E1,1.1470127E-1,1.343076E0,8.4221115E0,1.1561849E1,0E0,0E0,0E0,0E0,0E0,0E0,0E0,0E0],"parents":[2147483647,0,0,1,1,2,2,3,3,4,4,5,5,6,6],"right_children":[2,4,6,8,10,12,14,-1,-1,-1,-1,-1,-1,-1,-1],"split_conditions":[2.8666666E1,1.4590376E1,1E-45,1E-45,2.6066668E1,1E-45,1.3739895E3,-3.6520835E-2,-9.646914E-2,-6.2844425E-2,4.8182916E-2,1.1758961E-1,9.744683E-3,-1.1826723E-2,1.2585002E-1],"split_indices":[0,9,5,6,1,6,9,0,0,0,0,0,0,0,0],"split_type":[0,0,1,1,0,1,0,0,0,0,0,0,0,0,0],"sum_hessian":[1.0640759E3,1.8246492E1,1.0458295E3,1.5765972E1,2.4805205E0,5.513882E2,4.944413E2,2.0289311E0,1.3737041E1,1.4764224E0,1.0040979E0,6.3497586E0,5.450384E2,4.8925925E2,5.1820555E0],"tree_param":{"num_deleted":"0","num_feature":"17","num_nodes":"15","size_leaf_vector":"1"}},{"base_weights":[-3.6768646E-3,6.3814536E-2,-1.7211936E-1,7.1283567E-1,4.6873264E-2,-4.0819326E-1,-6.1099853E-2,1.1131605E-1,2.723965E-2,1.0730337E-2,-1.0232127E-2,3.3530623E-2,-4.8176136E-2,-2.00257E-2,3.3660468E-2],"categories":[1],"categories_nodes":[6],"categories_segments":[0],"categories_sizes":[1],"default_left":[0,0,0,0,1,0,1,0,0,0,0,0,0,0,0],"id":22,"left_children":[1,3,5,7,9,11,13,-1,-1,-1,-1,-1,-1,-1,-1],"loss_changes":[1.2111649E1,8.330163E0,7.9623604E0,3.096157E0,6.7041097E0,5.483736E0,1.1603999E1,0E0,0E0,0E0,0E0,0E0,0E0,0E0,0E0],"parents":[2147483647,0,0,1,1,2,2,3,3,4,4,5,5,6,6],"right_children":[2,4,6,8,10,12,14,-1,-1,-1,-1,-1,-1,-1,-1],"split_conditions":[3.0981936E1,5.7057476E0,2E0,5.57E2,1.2810176E2,9.2E1,1E-45,1.1131605E-1,2.723965E-2,1.0730337E-2,-1.0232127E-2,3.3530623E-2,-4.8176136E-2,-2.00257E-2,3.3660468E-2],"split_indices":[2,2,13,16,8,16,14,0,0,0,0,0,0,0,0],"split_type":[0,0,0,0,0,0,1,0,0,0,0,0,0,0,0],"sum_hessian":[1.0634104E3,7.59654E2,3.0375638E2,1.8279726E1,7.4137427E2,9.630177E1,2.074546E2,8.77581E0,9.503916E0,5.278524E2,2.1352182E2,8.350595E0,8.795118E1,1.5404915E2,5.3405457E1],"tree_param":{"num_deleted":"0","num_feature":"17","num_nodes":"15","size_leaf_vector":"1"}},{"base_weights":[-3.3845925E-3,-8.0388534E-1,1.0070403E-2,-8.9809775E-1,-1.4518513E-1,1.0017227E-1,-9.210864E-2,-3.389707E-2,-9.534349E-2,-6.0605872E-2,4.6452757E-2,3.729374E-2,5.162519E-3,7.059026E-3,-2.223217E-2],"categories":[1,3,1,2,4],"categories_nodes":[2,3],"categories_segments":[0,2],"categories_sizes":[2,3],"default_left":[0,1,1,1,0,1,0,0,0,0,0,0,0,0,0],"id":23,"left_children":[1,3,5,7,9,11,13,-1,-1,-1,-1,-1,-1,-1,-1],"loss_changes":[1.1456997E1,9.6080685E-1,9.642752E0,1.4681435E-1,1.2349862E0,7.3503013E0,1.0414597E1,0E0,0E0,0E0,0E0,0E0,0E0,0E0,0E0],"parents":[2147483647,0,0,1,1,2,2,3,3,4,4,5,5,6,6],"right_children":[2,4,6,8,10,12,14,-1,-1,-1,-1,-1,-1,-1,-1],"split_conditions":[2.8666666E1,1.4590376E1,1E-45,1E-45,2.6066668E1,3E0,1.6835157E1,-3.389707E-2,-9.534349E-2,-6.0605872E-2,4.6452757E-2,3.729374E-2,5.162519E-3,7.059026E-3,-2.223217E-2],"split_indices":[0,9,5,6,1,11,2,0,0,0,0,0,0,0,0],"split_type":[0,0,1,1,0,0,0,0,0,0,0,0,0,0,0],"sum_hessian":[1.061964E3,1.6583569E1,1.0453804E3,1.4190495E1,2.3930733E0,5.555308E2,4.8984958E2,1.9196707E0,1.22708235E1,1.3662992E0,1.026774E0,8.2925606E1,4.7260522E2,2.179646E2,2.7188498E2],"tree_param":{"num_deleted":"0","num_feature":"17","num_nodes":"15","size_leaf_vector":"1"}},{"base_weights":[-3.3078021E-3,1.7241407E-2,-4.904058E-1,1.7513895E-1,-3.1350743E-2,2.8947914E-1,-6.598403E-1,3.3079196E-2,-1.3485356E-2,1.956723E-4,-3.6695816E-2,-5.9669007E-2,1.1205558E-1,-9.231896E-2,-3.0351881E-2],"categories":[],"categories_nodes":[],"categories_segments":[],"categories_sizes":[],"default_left":[0,1,0,1,0,0,0,0,0,0,0,0,0,0,0],"id":24,"left_children":[1,3,5,7,9,11,13,-1,-1,-1,-1,-1,-1,-1,-1],"loss_changes":[1.0636365E1,7.82976E0,5.8748894E0,1.1631138E1,8.726905E0,6.8345737E0,3.0643358E0,0E0,0E0,0E0,0E0,0E0,0E0,0E0,0E0],"parents":[2147483647,0,0,1,1,2,2,3,3,4,4,5,5,6,6],"right_children":[2,4,6,8,10,12,14,-1,-1,-1,-1,-1,-1,-1,-1],"split_conditions":[2.805E1,6E0,1.85E2,9.214125E1,4.4676632E1,8.7E1,2.00001E0,3.3079196E-2,-1.3485356E-2,1.956723E-4,-3.6695816E-2,-5.9669007E-2,1.1205558E-1,-9.231896E-2,-3.0351881E-2],"split_indices":[1,11,16,8,3,16,7,0,0,0,0,0,0,0,0],"split_type":[0,0,0,0,0,0,0,0,0,0,0,0,0,0,0],"sum_hessian":[1.0607844E3,1.0187702E3,4.2014267E1,2.3912906E2,7.796411E2,7.372251E0,3.4642017E1,1.5914987E2,7.9979195E1,7.101557E2,6.9485466E1,3.7043574E0,3.667894E0,1.9004972E1,1.5637044E1],"tree_param":{"num_deleted":"0","num_feature":"17","num_nodes":"15","size_leaf_vector":"1"}},{"base_weights":[-3.2595538E-3,-7.835931E-1,8.9020375E-3,-8.837463E-1,-1.3332567E-1,1.0879345E-1,-6.910646E-2,-3.1769723E-2,-9.433838E-2,-5.959931E-2,4.602652E-2,1.3410522E-3,2.8280705E-2,1.6337E-2,-1.42178675E-2],"categories":[1,2,4,0],"categories_nodes":[3,6],"categories_segments":[0,3],"categories_sizes":[3,1],"default_left":[0,1,0,1,0,1,1,0,0,0,0,0,0,0,0],"id":25,"left_children":[1,3,5,7,9,11,13,-1,-1,-1,-1,-1,-1,-1,-1],"loss_changes":[1.0071024E1,9.427757E-1,8.152064E0,1.7067432E-1,1.1946578E0,7.609714E0,1.0003277E1,0E0,0E0,0E0,0E0,0E0,0E0,0E0,0E0],"parents":[2147483647,0,0,1,1,2,2,3,3,4,4,5,5,6,6],"right_children":[2,4,6,8,10,12,14,-1,-1,-1,-1,-1,-1,-1,-1],"split_conditions":[2.8666666E1,1.4590376E1,6.516667E0,1E-45,2.6066668E1,2.5E1,1E-45,-3.1769723E-2,-9.433838E-2,-5.959931E-2,4.602652E-2,1.3410522E-3,2.8280705E-2,1.6337E-2,-1.42178675E-2],"split_indices":[0,9,1,6,1,11,14,0,0,0,0,0,0,0,0],"split_type":[0,0,0,1,0,0,1,0,0,0,0,0,0,0,0],"sum_hessian":[1.0594789E3,1.528529E1,1.0441936E3,1.2934142E1,2.351148E0,4.5770227E2,5.864914E2,1.8358927E0,1.1098249E1,1.3190123E0,1.0321356E0,2.9634323E2,1.6135902E2,1.3996436E2,4.4652704E2],"tree_param":{"num_deleted":"0","num_feature":"17","num_nodes":"15","size_leaf_vector":"1"}},{"base_weights":[-3.1800757E-3,-7.650812E-1,7.942582E-3,-8.7036407E-1,-1.2588838E-1,8.780311E-2,-8.413084E-2,-3.0316615E-2,-9.33841E-2,-5.835058E-2,4.458864E-2,9.5316164E-2,7.5070783E-3,-9.978547E-3,1.0619688E-1],"categories":[1,3,1,2,4,0,1,2,4],"categories_nodes":[2,3,5],"categories_segments":[0,2,5],"categories_sizes":[2,3,4],"default_left":[0,1,1,1,0,0,1,0,0,0,0,0,0,0,0],"id":26,"left_children":[1,3,5,7,9,11,13,-1,-1,-1,-1,-1,-1,-1,-1],"loss_changes":[8.986794E0,9.1726685E-1,7.694926E0,1.8247986E-1,1.1306837E0,6.1025906E0,8.827906E0,0E0,0E0,0E0,0E0,0E0,0E0,0E0,0E0],"parents":[2147483647,0,0,1,1,2,2,3,3,4,4,5,5,6,6],"right_children":[2,4,6,8,10,12,14,-1,-1,-1,-1,-1,-1,-1,-1],"split_conditions":[2.8666666E1,1.4590376E1,1E-45,1E-45,3E0,1E-45,1.3739895E3,-3.0316615E-2,-9.33841E-2,-5.835058E-2,4.458864E-2,9.5316164E-2,7.5070783E-3,-9.978547E-3,1.0619688E-1],"split_indices":[0,9,5,6,11,6,9,0,0,0,0,0,0,0,0],"split_type":[0,0,1,1,0,1,0,0,0,0,0,0,0,0,0],"sum_hessian":[1.058751E3,1.4258507E1,1.0444924E3,1.1931572E1,2.3269355E0,5.593675E2,4.8512494E2,1.7822542E0,1.0149318E1,1.2810977E0,1.0458379E0,7.0398417E0,5.523277E2,4.7948853E2,5.6364193E0],"tree_param":{"num_deleted":"0","num_feature":"17","num_nodes":"15","size_leaf_vector":"1"}},{"base_weights":[-2.9172902E-3,1.2644064E-2,-5.285472E-1,2.2343855E-2,-7.291192E-1,-2.520585E-1,-9.3413234E-2,5.9444245E-2,1.0739971E-3,-8.550194E-2,7.8021693E-3,7.155515E-2,-3.9651148E-2],"categories":[],"categories_nodes":[],"categories_segments":[],"categories_sizes":[],"default_left":[0,0,0,0,0,0,0,0,0,0,0,0,0],"id":27,"left_children":[1,3,5,7,9,11,-1,-1,-1,-1,-1,-1,-1],"loss_changes":[8.669871E0,7.424606E0,3.1822872E0,6.747257E0,1.4203167E0,3.0082812E0,0E0,0E0,0E0,0E0,0E0,0E0,0E0],"parents":[2147483647,0,0,1,1,2,2,3,3,4,4,5,5],"right_children":[2,4,6,8,10,12,-1,-1,-1,-1,-1,-1,-1],"split_conditions":[2.9466667E1,6.280101E1,2.7E1,5.7057476E0,1.4590376E1,1.07E2,-9.3413234E-2,5.9444245E-2,1.0739971E-3,-8.550194E-2,7.8021693E-3,7.155515E-2,-3.9651148E-2],"split_indices":[1,2,11,2,9,16,0,0,0,0,0,0,0],"split_type":[0,0,0,0,0,0,0,0,0,0,0,0,0],"sum_hessian":[1.0581324E3,1.0286549E3,2.9477543E1,1.0163346E3,1.2320392E1,1.8492569E1,1.0984974E1,1.9206001E1,9.9712854E2,1.0606621E1,1.7137706E0,1.8885691E0,1.6604E1],"tree_param":{"num_deleted":"0","num_feature":"17","num_nodes":"13","size_leaf_vector":"1"}},{"base_weights":[-2.812138E-3,1.1302539E-2,-5.033752E-1,-3.1187026E-2,1.7432494E-1,-2.3185782E-1,-9.25297E-2,6.389958E-2,-4.4711838E-3,5.413389E-2,-8.205127E-3,2.0925207E-2,-5.674013E-2],"categories":[0,2,3,4],"categories_nodes":[5],"categories_segments":[0],"categories_sizes":[4],"default_left":[0,0,0,0,1,1,0,0,0,0,0,0,0],"id":28,"left_children":[1,3,5,7,9,11,-1,-1,-1,-1,-1,-1,-1],"loss_changes":[7.483258E0,7.1421146E0,3.1130114E0,7.44426E0,2.0102123E1,2.9320867E0,0E0,0E0,0E0,0E0,0E0,0E0,0E0],"parents":[2147483647,0,0,1,1,2,2,3,3,4,4,5,5],"right_children":[2,4,6,8,10,12,-1,-1,-1,-1,-1,-1,-1],"split_conditions":[2.9466667E1,1.427246E1,2.7E1,5.7057476E0,9.031914E1,1E-45,-9.25297E-2,6.389958E-2,-4.4711838E-3,5.413389E-2,-8.205127E-3,2.0925207E-2,-5.674013E-2],"split_indices":[1,9,11,2,8,6,0,0,0,0,0,0,0],"split_type":[0,0,0,0,0,1,0,0,0,0,0,0,0],"sum_hessian":[1.0573533E3,1.0293066E3,2.8046558E1,8.1713916E2,2.1216748E2,1.8007685E1,1.0038874E1,1.5249471E1,8.018897E2,8.679915E1,1.2536833E2,7.9426064E0,1.0065078E1],"tree_param":{"num_deleted":"0","num_feature":"17","num_nodes":"13","size_leaf_vector":"1"}},{"base_weights":[-2.710201E-3,-7.743043E-1,6.1505833E-3,-1.3507175E-3,-8.422456E-1,7.658685E-2,-7.616893E-2,-1.9878592E-2,-9.180977E-2,7.22735E-5,2.1686856E-2,4.8312396E-2,-1.0305845E-2],"categories":[1,3,1,2,4],"categories_nodes":[2,4],"categories_segments":[0,2],"categories_sizes":[2,3],"default_left":[0,0,1,0,1,0,0,0,0,0,0,0,0],"id":29,"left_children":[1,3,5,-1,7,9,11,-1,-1,-1,-1,-1,-1],"loss_changes":[7.2308435E0,6.092839E-1,6.0703216E0,0E0,3.5470963E-1,6.003579E0,7.3103027E0,0E0,0E0,0E0,0E0,0E0,0E0],"parents":[2147483647,0,0,1,1,2,2,4,4,5,5,6,6],"right_children":[2,4,6,-1,8,10,12,-1,-1,-1,-1,-1,-1],"split_conditions":[2.8E1,4.6666665E0,1E-45,-1.3507175E-3,1E-45,3E0,8.5E-1,-1.9878592E-2,-9.180977E-2,7.22735E-5,2.1686856E-2,4.8312396E-2,-1.0305845E-2],"split_indices":[0,0,5,0,6,13,1,0,0,0,0,0,0],"split_type":[0,0,1,0,1,0,0,0,0,0,0,0,0],"sum_hessian":[1.0559191E3,1.10074625E1,1.0449116E3,1.0006896E0,1.0006773E1,5.631365E2,4.8177518E2,1.4370297E0,8.569744E0,3.661359E2,1.9700056E2,2.1321808E1,4.6045337E2],"tree_param":{"num_deleted":"0","num_feature":"17","num_nodes":"13","size_leaf_vector":"1"}},{"base_weights":[-2.5910723E-3,-7.560567E-1,5.5217054E-3,-2.185823E-2,-8.1617725E-1,2.4885996E-1,-1.6704027E-2,-9.020049E-2,-1.6900007E-2,-6.1966993E-2,3.5055343E-2,5.9298854E-3,-1.16066625E-2],"categories":[1,2,4],"categories_nodes":[1],"categories_segments":[0],"categories_sizes":[3],"default_left":[0,1,0,0,0,0,0,0,0,0,0,0,0],"id":30,"left_children":[1,3,5,-1,7,9,11,-1,-1,-1,-1,-1,-1],"loss_changes":[6.4621825E0,1.854968E-1,5.6625504E0,0E0,3.898468E-1,7.9565544E0,7.2536645E0,0E0,0E0,0E0,0E0,0E0,0E0],"parents":[2147483647,0,0,1,1,2,2,4,4,5,5,6,6],"right_children":[2,4,6,-1,8,10,12,-1,-1,-1,-1,-1,-1],"split_conditions":[2.8E1,1E-45,8.7E1,-2.185823E-2,8.666489E1,4E0,8.783334E0,-9.020049E-2,-1.6900007E-2,-6.1966993E-2,3.5055343E-2,5.9298854E-3,-1.16066625E-2],"split_indices":[0,6,16,0,2,16,1,0,0,0,0,0,0],"split_type":[0,1,0,0,0,0,0,0,0,0,0,0,0],"sum_hessian":[1.0554904E3,1.0261602E1,1.0452288E3,1.4987336E0,8.762869E0,8.662447E1,9.586043E2,7.3891745E0,1.3736941E0,8.545627E0,7.807885E1,5.4337646E2,4.152278E2],"tree_param":{"num_deleted":"0","num_feature":"17","num_nodes":"13","size_leaf_vector":"1"}},{"base_weights":[-2.5884074E-3,9.782176E-3,-4.692005E-1,-2.830978E-2,1.5402949E-1,-1.9982854E-1,-9.143554E-2,-1.8573971E-3,-8.204614E-2,4.705391E-2,-7.5584385E-3,3.260136E-2,-4.6265323E-2],"categories":[],"categories_nodes":[],"categories_segments":[],"categories_sizes":[],"default_left":[0,0,0,0,1,0,0,0,0,0,0,0,0],"id":31,"left_children":[1,3,5,7,9,11,-1,-1,-1,-1,-1,-1,-1],"loss_changes":[6.0989532E0,5.6611857E0,3.0894957E0,6.2724323E0,1.5677241E1,2.6772752E0,0E0,0E0,0E0,0E0,0E0,0E0,0E0],"parents":[2147483647,0,0,1,1,2,2,3,3,4,4,5,5],"right_children":[2,4,6,8,10,12,-1,-1,-1,-1,-1,-1,-1],"split_conditions":[2.9466667E1,1.427246E1,2.7E1,6.280101E1,9.031914E1,3.2E2,-9.143554E-2,-1.8573971E-3,-8.204614E-2,4.705391E-2,-7.5584385E-3,3.260136E-2,-4.6265323E-2],"split_indices":[1,9,11,2,8,16,0,0,0,0,0,0,0],"split_type":[0,0,0,0,0,0,0,0,0,0,0,0,0],"sum_hessian":[1.0548013E3,1.0285128E3,2.6288378E1,8.142851E2,2.1422774E2,1.7280502E1,9.007875E0,8.054098E2,8.875308E0,8.9629425E1,1.2459831E2,5.6786385E0,1.1601864E1],"tree_param":{"num_deleted":"0","num_feature":"17","num_nodes":"13","size_leaf_vector":"1"}},{"base_weights":[-2.6076927E-3,2.6328698E-1,-2.168788E-2,6.6728455E-1,1.2516034E-1,4.7025405E-2,-1.0439228E-1,4.938801E-3,1.0956069E-1,1.0386153E-1,1.2459079E-3,-9.875067E-3,1.13557745E-2,7.462685E-2,-1.2190935E-2],"categories":[1,2,4,5,1,3,1,2,3,4],"categories_nodes":[1,2,4],"categories_segments":[0,4,6],"categories_sizes":[4,2,4],"default_left":[0,1,1,0,1,0,0,0,0,0,0,0,0,0,0],"id":32,"left_children":[1,3,5,7,9,11,13,-1,-1,-1,-1,-1,-1,-1,-1],"loss_changes":[5.356283E0,3.8611298E0,5.602331E0,4.651482E0,5.536878E0,5.2357283E0,6.75601E0,0E0,0E0,0E0,0E0,0E0,0E0,0E0,0E0],"parents":[2147483647,0,0,1,1,2,2,3,3,4,4,5,5,6,6],"right_children":[2,4,6,8,10,12,14,-1,-1,-1,-1,-1,-1,-1,-1],"split_conditions":[7.326531E0,1E-45,1E-45,4.273713E1,1E-45,2E0,1.9E1,4.938801E-3,1.0956069E-1,1.0386153E-1,1.2459079E-3,-9.875067E-3,1.13557745E-2,7.462685E-2,-1.2190935E-2],"split_indices":[2,5,5,8,6,13,16,0,0,0,0,0,0,0,0],"split_type":[0,1,1,0,1,0,0,0,0,0,0,0,0,0,0],"sum_hessian":[1.0536493E3,6.9689026E1,9.8396027E2,1.6779829E1,5.2909195E1,5.376751E2,4.4628513E2,7.3262744E0,9.453555E0,4.9086275E0,4.800057E1,1.6834267E2,3.6933246E2,8.165215E0,4.3811993E2],"tree_param":{"num_deleted":"0","num_feature":"17","num_nodes":"15","size_leaf_vector":"1"}},{"base_weights":[-2.1973685E-3,-7.2366047E-1,4.7869976E-3,-1.7897958E-2,-7.8958005E-1,-2.6964417E-3,6.569149E-1,-8.843893E-2,-1.3336897E-2,1.7104428E-3,-2.4661321E-2,2.1846047E-2,2.3960634E-1],"categories":[1,2,4],"categories_nodes":[1],"categories_segments":[0],"categories_sizes":[3],"default_left":[0,1,1,0,0,1,0,0,0,0,0,0,0],"id":33,"left_children":[1,3,5,-1,7,9,11,-1,-1,-1,-1,-1,-1],"loss_changes":[5.3141403E0,2.2173977E-1,5.1006155E0,0E0,4.2498922E-1,4.997968E0,8.518497E0,0E0,0E0,0E0,0E0,0E0,0E0],"parents":[2147483647,0,0,1,1,2,2,4,4,5,5,6,6],"right_children":[2,4,6,-1,8,10,12,-1,-1,-1,-1,-1,-1],"split_conditions":[2.8E1,1E-45,1.28E2,-1.7897958E-2,8.666489E1,6.5E1,1.4884601E2,-8.843893E-2,-1.3336897E-2,1.7104428E-3,-2.4661321E-2,2.1846047E-2,2.3960634E-1],"split_indices":[0,6,11,0,2,11,8,0,0,0,0,0,0],"split_type":[0,1,0,0,0,0,0,0,0,0,0,0,0],"sum_hessian":[1.0529226E3,9.111599E0,1.043811E3,1.3847554E0,7.726844E0,1.0329532E3,1.0857705E1,6.4475784E0,1.2792655E0,9.562555E2,7.66978E1,9.57051E0,1.2871952E0],"tree_param":{"num_deleted":"0","num_feature":"17","num_nodes":"13","size_leaf_vector":"1"}},{"base_weights":[-1.9339403E-3,9.219552E-3,-4.4237018E-1,1.9964513E-3,6.185805E-1,-1.8072109E-1,-9.038704E-2,1.2330249E-2,-3.7009248E-3,2.1405308E-2,2.0996208E-1,2.3523847E-2,-5.2315798E-2],"categories":[0,2,3,4],"categories_nodes":[5],"categories_segments":[0],"categories_sizes":[4],"default_left":[0,1,0,1,0,1,0,0,0,0,0,0,0],"id":34,"left_children":[1,3,5,7,9,11,-1,-1,-1,-1,-1,-1,-1],"loss_changes":[5.1792855E0,4.5254993E0,2.9810128E0,4.818584E0,6.766895E0,2.6682048E0,0E0,0E0,0E0,0E0,0E0,0E0,0E0],"parents":[2147483647,0,0,1,1,2,2,3,3,4,4,5,5],"right_children":[2,4,6,8,10,12,-1,-1,-1,-1,-1,-1,-1],"split_conditions":[2.9466667E1,1.28E2,2.7E1,6E0,1.4884601E2,1E-45,-9.038704E-2,1.2330249E-2,-3.7009248E-3,2.1405308E-2,2.0996208E-1,2.3523847E-2,-5.2315798E-2],"split_indices":[1,11,11,11,8,6,0,0,0,0,0,0,0],"split_type":[0,0,0,0,0,1,0,0,0,0,0,0,0],"sum_hessian":[1.0524983E3,1.0274583E3,2.5040018E1,1.0164134E3,1.1044847E1,1.6868155E1,8.171863E0,2.467793E2,7.696341E2,9.574282E0,1.4705654E0,7.7577853E0,9.11037E0],"tree_param":{"num_deleted":"0","num_feature":"17","num_nodes":"13","size_leaf_vector":"1"}},{"base_weights":[-1.7073882E-3,-6.534735E-1,5.104901E-3,-7.9213035E-1,-2.6250701E-2,6.2230255E-2,-7.197606E-2,-1.8669255E-2,-8.810686E-2,4.7891255E-2,-5.1756002E-2,-2.1206297E-3,3.9586805E-2,6.7444853E-3,-2.0035792E-2],"categories":[1,2,4,0,2,3,4],"categories_nodes":[3,4],"categories_segments":[0,3],"categories_sizes":[3,4],"default_left":[0,1,1,1,1,0,0,0,0,0,0,0,0,0,0],"id":35,"left_children":[1,3,5,7,9,11,13,-1,-1,-1,-1,-1,-1,-1,-1],"loss_changes":[4.6769876E0,9.2681456E-1,4.59588E0,3.14157E-1,9.9415535E-1,1.6694836E1,7.966133E0,0E0,0E0,0E0,0E0,0E0,0E0,0E0,0E0],"parents":[2147483647,0,0,1,1,2,2,3,3,4,4,5,5,6,6],"right_children":[2,4,6,8,10,12,14,-1,-1,-1,-1,-1,-1,-1,-1],"split_conditions":[2.8666666E1,1.4590376E1,9.214125E1,1E-45,1E-45,9.843408E0,1.9372976E1,-1.8669255E-2,-8.810686E-2,4.7891255E-2,-5.1756002E-2,-2.1206297E-3,3.9586805E-2,6.7444853E-3,-2.0035792E-2],"split_indices":[0,9,8,6,6,9,2,0,0,0,0,0,0,0,0],"split_type":[0,0,0,1,1,0,0,0,0,0,0,0,0,0,0],"sum_hessian":[1.0516196E3,9.895975E0,1.0417236E3,7.889065E0,2.0069108E0,5.9842126E2,4.433024E2,1.4074082E0,6.4816566E0,1.001945E0,1.0049657E0,4.79455E2,1.18966255E2,2.127421E2,2.305603E2],"tree_param":{"num_deleted":"0","num_feature":"17","num_nodes":"15","size_leaf_vector":"1"}},{"base_weights":[-1.7406155E-3,1.0037895E-2,-3.514702E-1,2.3053835E-1,-1.0628475E-2,3.9945897E-1,-5.492904E-1,-6.1405398E-2,3.2872733E-2,-2.7705485E-2,1.3614775E-3,-5.47162E-2,1.2007361E-1,-8.8234454E-2,-1.564479E-2],"categories":[],"categories_nodes":[],"categories_segments":[],"categories_sizes":[],"default_left":[0,0,0,0,0,0,0,0,0,0,0,0,0,0,0],"id":36,"left_children":[1,3,5,7,9,11,13,-1,-1,-1,-1,-1,-1,-1,-1],"loss_changes":[4.3339963E0,4.641351E0,5.311625E0,7.4398317E0,6.0217023E0,6.51758E0,3.4669552E0,0E0,0E0,0E0,0E0,0E0,0E0,0E0,0E0],"parents":[2147483647,0,0,1,1,2,2,3,3,4,4,5,5,6,6],"right_children":[2,4,6,8,10,12,14,-1,-1,-1,-1,-1,-1,-1,-1],"split_conditions":[2.805E1,8.7E1,1.85E2,4E0,6.078872E-1,8.7E1,2.00001E0,-6.1405398E-2,3.2872733E-2,-2.7705485E-2,1.3614775E-3,-5.47162E-2,1.2007361E-1,-8.8234454E-2,-1.564479E-2],"split_indices":[1,16,16,16,9,16,7,0,0,0,0,0,0,0,0],"split_type":[0,0,0,0,0,0,0,0,0,0,0,0,0,0,0],"sum_hessian":[1.0502648E3,1.01698505E3,3.3279648E1,8.627853E1,9.3070654E2,6.726485E0,2.6553164E1,8.438576E0,7.783995E1,7.675567E1,8.5395087E2,3.2289603E0,3.4975245E0,1.36957655E1,1.2857399E1],"tree_param":{"num_deleted":"0","num_feature":"17","num_nodes":"15","size_leaf_vector":"1"}},{"base_weights":[-1.7961336E-3,-6.8111026E-1,3.997608E-3,-1.1355354E-2,-7.556891E-1,6.091214E-2,-6.4042464E-2,-1.3064332E-2,-8.57418E-2,8.511239E-3,-3.5595186E-2,-7.7327387E-3,7.9779945E-2],"categories":[1,3],"categories_nodes":[2],"categories_segments":[0],"categories_sizes":[2],"default_left":[0,0,1,0,0,1,1,0,0,0,0,0,0],"id":37,"left_children":[1,3,5,-1,7,9,11,-1,-1,-1,-1,-1,-1],"loss_changes":[4.1390486E0,2.9062796E-1,4.043132E0,0E0,3.765545E-1,5.765239E0,5.5068874E0,0E0,0E0,0E0,0E0,0E0,0E0],"parents":[2147483647,0,0,1,1,2,2,4,4,5,5,6,6],"right_children":[2,4,6,-1,8,10,12,-1,-1,-1,-1,-1,-1],"split_conditions":[2.8E1,6.4280685E1,1E-45,-1.1355354E-2,5E0,9.243701E1,1.3739895E3,-1.3064332E-2,-8.57418E-2,8.511239E-3,-3.5595186E-2,-7.7327387E-3,7.9779945E-2],"split_indices":[0,2,5,0,11,9,9,0,0,0,0,0,0],"split_type":[0,0,1,0,0,0,0,0,0,0,0,0,0],"sum_hessian":[1.0499569E3,7.893447E0,1.0420635E3,1.2097384E0,6.6837087E0,5.6747974E2,4.7458377E2,1.2552704E0,5.428438E0,5.370955E2,3.0384226E1,4.682758E2,6.3079906E0],"tree_param":{"num_deleted":"0","num_feature":"17","num_nodes":"13","size_leaf_vector":"1"}},{"base_weights":[-1.744513E-3,8.4500946E-2,-4.6211943E-2,-3.2526E-2,3.2224536E-1,3.4455802E-2,-1.5303722E-1,3.4736104E-2,-9.211049E-3,7.219507E-2,1.8035647E-2,-5.865541E-3,3.9973844E-2,4.936462E-2,-1.9035542E-2],"categories":[1,2,3,4,0,1,3,4,5],"categories_nodes":[3,6],"categories_segments":[0,4],"categories_sizes":[4,5],"default_left":[0,1,1,0,0,0,1,0,0,0,0,0,0,0,0],"id":38,"left_children":[1,3,5,7,9,11,13,-1,-1,-1,-1,-1,-1,-1,-1],"loss_changes":[4.0337024E0,9.965775E0,5.9852767E0,5.4801497E0,6.5689573E0,1.349889E1,7.3037443E0,0E0,0E0,0E0,0E0,0E0,0E0,0E0,0E0],"parents":[2147483647,0,0,1,1,2,2,3,3,4,4,5,5,6,6],"right_children":[2,4,6,8,10,12,14,-1,-1,-1,-1,-1,-1,-1,-1],"split_conditions":[3.0583239E0,2.8E1,9.214125E1,1E-45,1.4166666E0,9.843408E0,1E-45,3.4736104E-2,-9.211049E-3,7.219507E-2,1.8035647E-2,-5.865541E-3,3.9973844E-2,4.936462E-2,-1.9035542E-2],"split_indices":[3,11,8,6,1,9,5,0,0,0,0,0,0,0,0],"split_type":[0,0,0,1,0,0,1,0,0,0,0,0,0,0,0],"sum_hessian":[1.0497633E3,3.5681442E2,6.929489E2,2.39692E2,1.1712243E2,3.951978E2,2.977511E2,3.184313E1,2.0784888E2,2.9613155E1,8.750927E1,3.155922E2,7.9605606E1,1.5577748E1,2.8217337E2],"tree_param":{"num_deleted":"0","num_feature":"17","num_nodes":"15","size_leaf_vector":"1"}},{"base_weights":[-1.5835458E-3,1.9882666E-1,-1.9755213E-2,1.4465202E-1,1.2561808E0,-5.2105593E-3,-4.5467177E-1,1.876479E-2,-8.692592E-2,1.2177738E-2,1.8000627E-1,1.9151605E-3,-2.4443058E-2,-6.620241E-2,1.8334158E-2],"categories":[0,1,2,3],"categories_nodes":[4],"categories_segments":[0],"categories_sizes":[4],"default_left":[0,0,0,0,1,0,0,0,0,0,0,0,0,0,0],"id":39,"left_children":[1,3,5,7,9,11,13,-1,-1,-1,-1,-1,-1,-1,-1],"loss_changes":[3.8273747E0,4.8230934E0,6.0925183E0,3.8356204E0,2.3278499E0,5.444124E0,4.244673E0,0E0,0E0,0E0,0E0,0E0,0E0,0E0,0E0],"parents":[2147483647,0,0,1,1,2,2,3,3,4,4,5,5,6,6],"right_children":[2,4,6,8,10,12,14,-1,-1,-1,-1,-1,-1,-1,-1],"split_conditions":[7.662481E0,1.6977272E2,8.5333336E1,1.5784805E2,1E-45,1.082E3,8.87E2,1.876479E-2,-8.692592E-2,1.2177738E-2,1.8000627E-1,1.9151605E-3,-2.4443058E-2,-6.620241E-2,1.8334158E-2],"split_indices":[2,8,0,8,5,16,16,0,0,0,0,0,0,0,0],"split_type":[0,0,0,0,1,0,0,0,0,0,0,0,0,0,0],"sum_hessian":[1.0488818E3,8.637165E1,9.625102E2,8.32434E1,3.1282556E0,9.323424E2,3.0167788E1,8.063876E1,2.6046364E0,1.4104043E0,1.7178513E0,8.4700354E2,8.533888E1,2.2739794E1,7.427993E0],"tree_param":{"num_deleted":"0","num_feature":"17","num_nodes":"15","size_leaf_vector":"1"}},{"base_weights":[-1.4633539E-3,-6.635619E-1,3.9148536E-3,-1.1374815E-2,-7.39558E-1,-2.5794287E-3,5.372637E-1,-8.47827E-2,-1.26186805E-2,1.127302E-2,-3.769749E-3,1.3995357E-1,-4.5696697E-3],"categories":[0],"categories_nodes":[5],"categories_segments":[0],"categories_sizes":[1],"default_left":[0,0,1,0,0,1,1,0,0,0,0,0,0],"id":40,"left_children":[1,3,5,-1,7,9,11,-1,-1,-1,-1,-1,-1],"loss_changes":[3.7395566E0,2.6944017E-1,3.610509E0,0E0,3.746426E-1,4.1769648E0,6.3673067E0,0E0,0E0,0E0,0E0,0E0,0E0],"parents":[2147483647,0,0,1,1,2,2,4,4,5,5,6,6],"right_children":[2,4,6,-1,8,10,12,-1,-1,-1,-1,-1,-1],"split_conditions":[2.8E1,6.4280685E1,1.28E2,-1.1374815E-2,8.666489E1,1E-45,2.9621506E1,-8.47827E-2,-1.26186805E-2,1.127302E-2,-3.769749E-3,1.3995357E-1,-4.5696697E-3],"split_indices":[0,2,11,0,2,14,8,0,0,0,0,0,0],"split_type":[0,0,0,0,0,1,0,0,0,0,0,0,0],"sum_hessian":[1.0484413E3,7.46176E0,1.0409795E3,1.2093278E0,6.2524323E0,1.0294398E3,1.1539733E1,4.9894757E0,1.2629564E0,2.3981168E2,7.896281E2,4.089745E0,7.449988E0],"tree_param":{"num_deleted":"0","num_feature":"17","num_nodes":"13","size_leaf_vector":"1"}},{"base_weights":[-1.3431323E-3,7.5059105E-3,-3.8467032E-1,-2.8197318E-2,1.06203355E-1,-1.2110603E-1,-8.863675E-2,-4.612314E-2,-1.1424928E-3,6.986133E-2,6.335919E-3,-4.355425E-2,3.2976564E-2],"categories":[],"categories_nodes":[],"categories_segments":[],"categories_sizes":[],"default_left":[0,0,0,1,0,0,0,0,0,0,0,0,0],"id":41,"left_children":[1,3,5,7,9,11,-1,-1,-1,-1,-1,-1,-1],"loss_changes":[3.5615497E0,3.619906E0,3.025329E0,5.474989E0,6.8816757E0,2.5097685E0,0E0,0E0,0E0,0E0,0E0,0E0,0E0],"parents":[2147483647,0,0,1,1,2,2,3,3,4,4,5,5],"right_children":[2,4,6,8,10,12,-1,-1,-1,-1,-1,-1,-1],"split_conditions":[2.9466667E1,3.4E1,2.7E1,6.078872E-1,4.0165454E-1,3.4566666E1,-8.863675E-2,-4.612314E-2,-1.1424928E-3,6.986133E-2,6.335919E-3,-4.355425E-2,3.2976564E-2],"split_indices":[1,11,11,9,3,1,0,0,0,0,0,0,0],"split_type":[0,0,0,0,0,0,0,0,0,0,0,0,0],"sum_hessian":[1.0481097E3,1.0254185E3,2.2691193E1,7.53543E2,2.7187552E2,1.5689944E1,7.0012474E0,2.7110014E1,7.26433E2,1.7304117E1,2.5457138E2,9.263564E0,6.426381E0],"tree_param":{"num_deleted":"0","num_feature":"17","num_nodes":"13","size_leaf_vector":"1"}},{"base_weights":[-1.3660575E-3,1.368011E-2,-2.2252251E-1,-2.7208598E-2,2.3382998E-1,-4.2630357E-1,6.6950476E-1,2.3650091E-4,-3.1847548E-2,3.387099E-2,-3.0366307E-2,1.2565422E-2,-6.1448492E-2,9.5721506E-2,-6.834686E-2],"categories":[1,4],"categories_nodes":[5],"categories_segments":[0],"categories_sizes":[2],"default_left":[1,0,0,0,1,1,0,0,0,0,0,0,0,0,0],"id":42,"left_children":[1,3,5,7,9,11,13,-1,-1,-1,-1,-1,-1,-1,-1],"loss_changes":[3.4935303E0,8.855757E0,1.2442226E1,7.150156E0,8.789447E0,5.7952995E0,5.6468496E0,0E0,0E0,0E0,0E0,0E0,0E0,0E0,0E0],"parents":[2147483647,0,0,1,1,2,2,3,3,4,4,5,5,6,6],"right_children":[2,4,6,8,10,12,14,-1,-1,-1,-1,-1,-1,-1,-1],"split_conditions":[6.1834988E1,1.4590376E1,3.409218E1,4.4676632E1,1.4459743E2,1E-45,2.342622E1,2.3650091E-4,-3.1847548E-2,3.387099E-2,-3.0366307E-2,1.2565422E-2,-6.1448492E-2,9.5721506E-2,-6.834686E-2],"split_indices":[9,9,3,3,8,6,2,0,0,0,0,0,0,0,0],"split_type":[0,0,0,0,0,1,0,0,0,0,0,0,0,0,0],"sum_hessian":[1.0479636E3,9.820864E2,6.587717E1,8.28993E2,1.5309348E2,5.405138E1,1.1825786E1,7.5348065E2,7.551232E1,1.2840742E2,2.4686047E1,1.3827116E1,4.0224262E1,9.993231E0,1.8325547E0],"tree_param":{"num_deleted":"0","num_feature":"17","num_nodes":"15","size_leaf_vector":"1"}},{"base_weights":[-1.441854E-3,3.2179576E-1,-1.1390323E-2,-5.7377416E-1,4.387025E-1,-6.8579006E-1,-5.3637982E-3,-7.807873E-3,-8.408152E-2,5.672112E-2,-4.6098173E-2,4.015034E-2,-8.753705E-2,6.0866203E-2,-1.6606104E-3],"categories":[],"categories_nodes":[],"categories_segments":[],"categories_sizes":[],"default_left":[0,0,0,0,0,1,0,0,0,0,0,0,0,0,0],"id":43,"left_children":[1,3,5,7,9,11,13,-1,-1,-1,-1,-1,-1,-1,-1],"loss_changes":[3.37579E0,3.5334833E0,4.134955E0,4.707954E-1,3.53257E0,2.2089224E0,6.984148E0,0E0,0E0,0E0,0E0,0E0,0E0,0E0,0E0],"parents":[2147483647,0,0,1,1,2,2,3,3,4,4,5,5,6,6],"right_children":[2,4,6,8,10,12,14,-1,-1,-1,-1,-1,-1,-1,-1],"split_conditions":[6.0927095E0,8.5E-1,4E0,1E0,8.8333336E1,1.5935852E1,1.9E1,-7.807873E-3,-8.408152E-2,5.672112E-2,-4.6098173E-2,4.015034E-2,-8.753705E-2,6.0866203E-2,-1.6606104E-3],"split_indices":[2,1,16,10,0,8,16,0,0,0,0,0,0,0,0],"split_type":[0,0,0,0,0,0,0,0,0,0,0,0,0,0,0],"sum_hessian":[1.0476377E3,3.0345037E1,1.01729266E3,3.052586E0,2.7292452E1,8.01112E0,1.00928156E3,1.5212142E0,1.5313717E0,2.420466E1,3.0877912E0,1.0234593E0,6.9876604E0,1.7191395E1,9.9209015E2],"tree_param":{"num_deleted":"0","num_feature":"17","num_nodes":"15","size_leaf_vector":"1"}},{"base_weights":[-1.4305748E-3,2.6123693E-2,-1.1640703E-1,1.2338303E-2,4.288657E-1,-2.0855045E-1,2.1565501E-1,2.3822822E-3,-5.49843E-2,9.192816E-2,-3.6339883E-2,-1.0130984E-2,-6.5608725E-2,4.4067904E-2,-5.7087492E-2],"categories":[1,3],"categories_nodes":[4],"categories_segments":[0],"categories_sizes":[2],"default_left":[0,0,0,0,1,0,1,0,0,0,0,0,0,0,0],"id":44,"left_children":[1,3,5,7,9,11,13,-1,-1,-1,-1,-1,-1,-1,-1],"loss_changes":[3.3240128E0,4.694008E0,6.2511487E0,5.3037066E0,1.1206776E1,7.5782204E0,8.1363945E0,0E0,0E0,0E0,0E0,0E0,0E0,0E0,0E0],"parents":[2147483647,0,0,1,1,2,2,3,3,4,4,5,5,6,6],"right_children":[2,4,6,8,10,12,14,-1,-1,-1,-1,-1,-1,-1,-1],"split_conditions":[3.6803837E1,3.477717E1,1.2959185E1,2.2666666E1,1E-45,6.299715E0,6.1834988E1,2.3822822E-3,-5.49843E-2,9.192816E-2,-3.6339883E-2,-1.0130984E-2,-6.5608725E-2,4.4067904E-2,-5.7087492E-2],"split_indices":[2,2,9,1,6,9,9,0,0,0,0,0,0,0,0],"split_type":[0,0,0,0,1,0,0,0,0,0,0,0,0,0,0],"sum_hessian":[1.0472561E3,8.4542224E2,2.0183383E2,8.1843866E2,2.6983568E1,1.5828383E2,4.3550003E1,8.029924E2,1.5446301E1,1.6567732E1,1.0415834E1,1.2867627E2,2.9607567E1,3.4204037E1,9.3459635E0],"tree_param":{"num_deleted":"0","num_feature":"17","num_nodes":"15","size_leaf_vector":"1"}},{"base_weights":[-1.5566798E-3,-6.3905895E-1,3.300881E-3,-8.071544E-3,-7.2083837E-1,5.0832067E-2,-6.1713684E-2,-8.411504E-2,-2.5476466E-3,-1.485851E-3,2.9997189E-2,-5.2954715E-2,-3.2747777E-3],"categories":[1,2,4],"categories_nodes":[1],"categories_segments":[0],"categories_sizes":[3],"default_left":[0,1,1,0,0,0,0,0,0,0,0,0,0],"id":45,"left_children":[1,3,5,-1,7,9,11,-1,-1,-1,-1,-1,-1],"loss_changes":[3.2471535E0,3.0388284E-1,3.21997E0,0E0,5.466502E-1,9.855061E0,5.9463224E0,0E0,0E0,0E0,0E0,0E0,0E0],"parents":[2147483647,0,0,1,1,2,2,4,4,5,5,6,6],"right_children":[2,4,6,-1,8,10,12,-1,-1,-1,-1,-1,-1],"split_conditions":[2.8E1,1E-45,9.214125E1,-8.071544E-3,8.666489E1,9.843408E0,9.953615E1,-8.411504E-2,-2.5476466E-3,-1.485851E-3,2.9997189E-2,-5.2954715E-2,-3.2747777E-3],"split_indices":[0,6,8,0,2,9,8,0,0,0,0,0,0],"split_type":[0,1,0,0,0,0,0,0,0,0,0,0,0],"sum_hessian":[1.0469019E3,6.9294305E0,1.0399724E3,1.1391246E0,5.790306E0,6.008893E2,4.390831E2,4.7575016E0,1.0328045E0,4.7625555E2,1.2463372E2,2.4593147E1,4.1448996E2],"tree_param":{"num_deleted":"0","num_feature":"17","num_nodes":"13","size_leaf_vector":"1"}},{"base_weights":[-1.5952537E-3,1.2640506E-1,-2.4368854E-2,1.0372782E0,7.174542E-2,-1.2329828E-2,-4.3197814E-1,-5.813369E-2,1.3169058E-1,-6.552986E-2,1.1468043E-2,-3.5949897E-2,4.8897316E-4,-7.3189355E-2,1.8638043E-2],"categories":[],"categories_nodes":[],"categories_segments":[],"categories_sizes":[],"default_left":[0,0,0,0,0,0,0,0,0,0,0,0,0,0,0],"id":46,"left_children":[1,3,5,7,9,11,13,-1,-1,-1,-1,-1,-1,-1,-1],"loss_changes":[3.054974E0,7.8069277E0,4.3603992E0,4.7879457E0,4.770327E0,5.1737733E0,4.864283E0,0E0,0E0,0E0,0E0,0E0,0E0,0E0,0E0],"parents":[2147483647,0,0,1,1,2,2,3,3,4,4,5,5,6,6],"right_children":[2,4,6,8,10,12,14,-1,-1,-1,-1,-1,-1,-1,-1],"split_conditions":[1.62E2,8.173467E0,2.805E1,1.2992051E-1,4E0,2.06E2,3E0,-5.813369E-2,1.3169058E-1,-6.552986E-2,1.1468043E-2,-3.5949897E-2,4.8897316E-4,-7.3189355E-2,1.8638043E-2],"split_indices":[16,8,1,9,16,16,13,0,0,0,0,0,0,0,0],"split_type":[0,0,0,0,0,0,0,0,0,0,0,0,0,0,0],"sum_hessian":[1.0459518E3,1.5729816E2,8.886537E2,7.8870873E0,1.4941106E2,8.6416034E2,2.4493332E1,1.0028946E0,6.884193E0,7.5360503E0,1.4187502E2,3.989745E1,8.242629E2,1.636998E1,8.123352E0],"tree_param":{"num_deleted":"0","num_feature":"17","num_nodes":"15","size_leaf_vector":"1"}},{"base_weights":[-1.6181773E-3,-1.5016402E-1,1.8404156E-2,8.765874E-2,-4.025925E-1,2.5037694E-1,-1.3192631E-2,1.5911525E-1,3.3751868E-3,6.8966016E-2,-5.697744E-2,1.5234749E-2,1.5335877E-1,-2.6116615E-2,1.0486463E-3],"categories":[1,2,3,4],"categories_nodes":[4],"categories_segments":[0],"categories_sizes":[4],"default_left":[0,0,1,0,1,0,0,0,0,0,0,0,0,0,0],"id":47,"left_children":[1,3,5,7,9,11,13,-1,-1,-1,-1,-1,-1,-1,-1],"loss_changes":[3.1156342E0,7.504903E0,6.7698956E0,5.2052946E0,1.1447418E1,1.3694357E1,4.779237E0,0E0,0E0,0E0,0E0,0E0,0E0,0E0,0E0],"parents":[2147483647,0,0,1,1,2,2,3,3,4,4,5,5,6,6],"right_children":[2,4,6,8,10,12,14,-1,-1,-1,-1,-1,-1,-1,-1],"split_conditions":[8.131028E-1,7.65E0,1.3969084E0,1.1E1,1E-45,5.6471786E1,4.3E1,1.5911525E-1,3.3751868E-3,6.8966016E-2,-5.697744E-2,1.5234749E-2,1.5335877E-1,-2.6116615E-2,1.0486463E-3],"split_indices":[9,1,9,16,5,2,0,0,0,0,0,0,0,0,0],"split_type":[0,0,0,0,1,0,0,0,0,0,0,0,0,0,0],"sum_hessian":[1.0456124E3,1.2342459E2,9.2218774E2,6.3886944E1,5.953765E1,1.0972204E2,8.1246576E2,1.2242833E0,6.266266E1,7.4883904E0,5.204926E1,1.0297417E2,6.747872E0,6.994582E1,7.425199E2],"tree_param":{"num_deleted":"0","num_feature":"17","num_nodes":"15","size_leaf_vector":"1"}},{"base_weights":[-1.3469186E-3,-7.2880387E-3,4.7551614E-1,1.0153259E-2,-2.2764206E-1,1.67417E-1,1.8478154E-1,-3.072285E-3,1.753291E-2,1.314124E-2,-4.233338E-2,7.194526E-2,-3.402036E-2],"categories":[],"categories_nodes":[],"categories_segments":[],"categories_sizes":[],"default_left":[1,1,0,1,0,0,0,0,0,0,0,0,0],"id":48,"left_children":[1,3,5,7,9,11,-1,-1,-1,-1,-1,-1,-1],"loss_changes":[2.9669359E0,3.9767413E0,5.1392365E0,6.4819174E0,5.388094E0,3.5019922E0,0E0,0E0,0E0,0E0,0E0,0E0,0E0],"parents":[2147483647,0,0,1,1,2,2,3,3,4,4,5,5],"right_children":[2,4,6,8,10,12,-1,-1,-1,-1,-1,-1,-1],"split_conditions":[1.28E2,6.5E1,1.236732E0,3.4E1,3.0583239E0,7.366667E0,1.8478154E-1,-3.072285E-3,1.753291E-2,1.314124E-2,-4.233338E-2,7.194526E-2,-3.402036E-2],"split_indices":[11,11,9,11,3,1,0,0,0,0,0,0,0],"split_type":[0,0,0,0,0,0,0,0,0,0,0,0,0],"sum_hessian":[1.0450166E3,1.0331299E3,1.1886795E1,9.5823804E2,7.489182E1,1.0623646E1,1.2631499E0,7.687975E2,1.8944054E2,2.653464E1,4.8357185E1,4.889274E0,5.734371E0],"tree_param":{"num_deleted":"0","num_feature":"17","num_nodes":"13","size_leaf_vector":"1"}},{"base_weights":[-1.0938544E-3,4.663279E-2,-5.8821414E-2,-4.3447692E-2,1.2964405E-1,5.972074E-1,-7.326944E-2,1.3583186E-2,-2.1465173E-2,2.7759222E-2,-6.4314953E-3,9.989882E-2,-4.7076445E-2,-8.5930955E-3,7.049313E-2],"categories":[1,3],"categories_nodes":[0],"categories_segments":[0],"categories_sizes":[2],"default_left":[1,1,0,1,0,0,1,0,0,0,0,0,0,0,0],"id":49,"left_children":[1,3,5,7,9,11,13,-1,-1,-1,-1,-1,-1,-1,-1],"loss_changes":[2.8836656E0,4.290107E0,4.5335026E0,8.486177E0,8.581706E0,4.8970757E0,4.6360927E0,0E0,0E0,0E0,0E0,0E0,0E0,0E0,0E0],"parents":[2147483647,0,0,1,1,2,2,3,3,4,4,5,5,6,6],"right_children":[2,4,6,8,10,12,14,-1,-1,-1,-1,-1,-1,-1,-1],"split_conditions":[1E-45,1.6E1,1.9E1,6E0,8.783334E0,1.3033334E1,1.3739895E3,1.3583186E-2,-2.1465173E-2,2.7759222E-2,-6.4314953E-3,9.989882E-2,-4.7076445E-2,-8.5930955E-3,7.049313E-2],"split_indices":[5,11,16,11,1,1,9,0,0,0,0,0,0,0,0],"split_type":[1,0,0,0,0,0,0,0,0,0,0,0,0,0,0],"sum_hessian":[1.044653E3,5.7196735E2,4.726856E2,2.745324E2,2.9743494E2,9.316676E0,4.6336893E2,1.3420438E2,1.4032805E2,1.6848593E2,1.2894899E2,6.816747E0,2.4999294E0,4.5682584E2,6.5430856E0],"tree_param":{"num_deleted":"0","num_feature":"17","num_nodes":"15","size_leaf_vector":"1"}}]},"name":"gbtree"},"learner_model_param":{"base_score":"[7.968154E-2]","boost_from_average":"1","num_class":"0","num_feature":"17","num_target":"1"},"objective":{"name":"binary:logistic","reg_loss_param":{"scale_pos_weight":"1"}}},"version":[3,2,0]}