{"learner":{"attributes":{"scikit_learn":"{\"_estimator_type\": \"classifier\"}"},"feature_names":["x_adj","y_adj","distance","angle","behind_the_net","shot_type","prev_type","prev_event_same_team","dist_from_prev_event","speed_from_prev_event","crossed_royal_road","time_from_prev_event","home_team_shot","period","game_state","goalie_pulled","time_remaining"],"feature_types":["float","float","float","float","i","c","c","i","float","float","i","float","i","int","c","i","int"],"gradient_booster":{"model":{"cats":{"enc":[{"offsets":[],"values":[]},{"offsets":[],"values":[]},{"offsets":[],"values":[]},{"offsets":[],"values":[]},{"offsets":[],"values":[]},{"offsets":[0,1,2,3,4,5,6],"values":[49,50,51,52,53,54]},{"offsets":[0,12,19,22,29,33],"values":[98,108,111,99,107,101,100,95,115,104,111,116,102,97,99,101,111,102,102,104,105,116,112,101,110,97,108,116,121,115,104,111,116]},{"offsets":[],"values":[]},{"offsets":[],"values":[]},{"offsets":[],"values":[]},{"offsets":[],"values":[]},{"offsets":[],"values":[]},{"offsets":[],"values":[]},{"offsets":[],"values":[]},{"offsets":[0,2,4,6],"values":[101,118,112,112,115,104]},{"offsets":[],"values":[]},{"offsets":[],"values":[]}],"feature_segments":[0,0,0,0,0,0,6,11,11,11,11,11,11,11,11,14,14,14],"sorted_idx":[0,1,2,3,4,5,0,1,2,3,4,0,1,2]},"gbtree_model_param":{"num_parallel_tree":"1","num_trees":"50"},"iteration_indptr":[0,1,2,3,4,5,6,7,8,9,10,11,12,13,14,15,16,17,18,19,20,21,22,23,24,25,26,27,28,29,30,31,32,33,34,35,36,37,38,39,40,41,42,43,44,45,46,47,48,49,50],"tree_info":[0,0,0,0,0,0,0,0,0,0,0,0,0,0,0,0,0,0,0,0,0,0,0,0,0,0,0,0,0,0,0,0,0,0,0,0,0,0,0,0,0,0,0,0,0,0,0,0,0,0],"trees":[{"base_weights":[1.2452145E-7,6.9767934E-1,-4.1211474E-1,1.9684845E0,4.7172406E-1,1.9248344E-1,-5.6913316E-1,2.5229603E-1,2.6945269E-2,8.863799E-2,6.1750663E-3,1.421236E-1,4.2250385E-3,-3.7253764E-2,-8.5290834E-2],"categories":[0],"categories_nodes":[2],"categories_segments":[0],"categories_sizes":[1],"default_left":[0,1,1,1,0,0,0,0,0,0,0,0,0,0,0],"id":0,"left_children":[1,3,5,7,9,11,13,-1,-1,-1,-1,-1,-1,-1,-1],"loss_changes":[3.3197345E2,1.2218521E2,6.901603E1,5.9999313E1,6.20524E1,2.7701914E1,3.1841934E1,0E0,0E0,0E0,0E0,0E0,0E0,0E0,0E0],"parents":[2147483647,0,0,1,1,2,2,3,3,4,4,5,5,6,6],"right_children":[2,4,6,8,10,12,14,-1,-1,-1,-1,-1,-1,-1,-1],"split_conditions":[2.237822E1,3E0,1E-45,1.16531906E2,6.516667E0,7.1E1,2.1533333E1,2.5229603E-1,2.6945269E-2,8.863799E-2,6.1750663E-3,1.421236E-1,4.2250385E-3,-3.7253764E-2,-8.5290834E-2],"split_indices":[2,11,14,8,1,16,1,0,0,0,0,0,0,0,0],"split_type":[0,0,1,0,0,0,0,0,0,0,0,0,0,0,0],"sum_hessian":[1.152594E3,4.2775104E2,7.24843E2,6.3410328E1,3.643407E2,1.4939043E2,5.754526E2,4.7442593E1,1.5967733E1,1.8055823E2,1.8378247E2,1.535359E1,1.3403685E2,3.413103E2,2.3414226E2],"tree_param":{"num_deleted":"0","num_feature":"17","num_nodes":"15","size_leaf_vector":"1"}},{"base_weights":[-2.2185252E-3,5.8884335E-1,-3.8515124E-1,1.4317387E0,3.8833404E-1,1.7062518E-1,-5.388659E-1,1.8162356E-1,1.7031522E-2,6.2410343E-2,-1.2458675E-2,1.06829144E-1,-9.0214965E-4,-3.465503E-2,-8.278552E-2],"categories":[0,1],"categories_nodes":[2,5],"categories_segments":[0,1],"categories_sizes":[1,1],"default_left":[0,1,1,1,0,1,0,0,0,0,0,0,0,0,0],"id":1,"left_children":[1,3,5,7,9,11,13,-1,-1,-1,-1,-1,-1,-1,-1],"loss_changes":[2.6167734E2,7.626611E1,6.002967E1,4.1875763E1,4.4649178E1,2.4644602E1,3.0271088E1,0E0,0E0,0E0,0E0,0E0,0E0,0E0,0E0],"parents":[2147483647,0,0,1,1,2,2,3,3,4,4,5,5,6,6],"right_children":[2,4,6,8,10,12,14,-1,-1,-1,-1,-1,-1,-1,-1],"split_conditions":[2.237822E1,4E0,1E-45,1.1593995E2,9.066667E0,1E-45,2.1533333E1,1.8162356E-1,1.7031522E-2,6.2410343E-2,-1.2458675E-2,1.06829144E-1,-9.0214965E-4,-3.465503E-2,-8.278552E-2],"split_indices":[2,11,14,8,1,14,1,0,0,0,0,0,0,0,0],"split_type":[0,0,1,0,0,1,0,0,0,0,0,0,0,0,0],"sum_hessian":[1.1541387E3,4.5354617E2,7.005924E2,8.5977196E1,3.6756897E2,1.517629E2,5.488295E2,6.555532E1,2.0421877E1,2.5166963E2,1.15899345E2,2.4482258E1,1.2728063E2,3.3085345E2,2.1797609E2],"tree_param":{"num_deleted":"0","num_feature":"17","num_nodes":"15","size_leaf_vector":"1"}},{"base_weights":[-3.702359E-3,3.552532E-1,-5.119633E-1,-1.9751947E-1,5.522971E-1,-4.848349E-2,-6.4847386E-1,4.7782313E-2,-3.9809044E-2,1.1714941E-1,3.9614238E-2,8.091003E-2,-3.134751E-2,-4.5797504E-2,-8.072693E-2],"categories":[0,0],"categories_nodes":[2,3],"categories_segments":[0,1],"categories_sizes":[1,1],"default_left":[0,0,1,1,1,0,0,0,0,0,0,0,0,0,0],"id":2,"left_children":[1,3,5,7,9,11,13,-1,-1,-1,-1,-1,-1,-1,-1],"loss_changes":[2.1092673E2,7.391257E1,3.0245468E1,2.4409441E1,4.7860916E1,2.5241835E1,1.081015E1,0E0,0E0,0E0,0E0,0E0,0E0,0E0,0E0],"parents":[2147483647,0,0,1,1,2,2,3,3,4,4,5,5,6,6],"right_children":[2,4,6,8,10,12,14,-1,-1,-1,-1,-1,-1,-1,-1],"split_conditions":[1.4166667E1,6.1666668E1,1E-45,1E-45,4E0,1.83E2,2.1816668E1,4.7782313E-2,-3.9809044E-2,1.1714941E-1,3.9614238E-2,8.091003E-2,-3.134751E-2,-4.5797504E-2,-8.072693E-2],"split_indices":[1,0,14,14,11,16,1,0,0,0,0,0,0,0,0],"split_type":[0,0,1,1,0,0,0,0,0,0,0,0,0,0,0],"sum_hessian":[1.1541265E3,6.7659045E2,4.7753598E2,1.7780022E2,4.9879025E2,1.0895788E2,3.685781E2,4.0397034E1,1.3740318E2,9.914613E1,3.996441E2,2.5235556E1,8.372233E1,1.6932797E2,1.9925012E2],"tree_param":{"num_deleted":"0","num_feature":"17","num_nodes":"15","size_leaf_vector":"1"}},{"base_weights":[-4.7510453E-3,3.0969346E-1,-4.8303276E-1,-1.8141964E-1,4.7449774E-1,-5.358335E-1,6.986859E-1,4.140514E-2,-3.714384E-2,1.7831397E-1,4.1217696E-2,-4.1267328E-2,-8.637764E-2,2.8892246E-1,-7.767061E-2],"categories":[2,0],"categories_nodes":[2,3],"categories_segments":[0,1],"categories_sizes":[1,1],"default_left":[0,0,1,1,0,0,0,0,0,0,0,0,0,0,0],"id":3,"left_children":[1,3,5,7,9,11,13,-1,-1,-1,-1,-1,-1,-1,-1],"loss_changes":[1.737584E2,5.650624E1,2.89693E1,2.0053696E1,4.1854324E1,1.7384605E1,6.699519E1,0E0,0E0,0E0,0E0,0E0,0E0,0E0,0E0],"parents":[2147483647,0,0,1,1,2,2,3,3,4,4,5,5,6,6],"right_children":[2,4,6,8,10,12,14,-1,-1,-1,-1,-1,-1,-1,-1],"split_conditions":[1.4166667E1,6.1666668E1,1E-45,1E-45,6.3823543E0,2.805E1,3.2E2,4.140514E-2,-3.714384E-2,1.7831397E-1,4.1217696E-2,-4.1267328E-2,-8.637764E-2,2.8892246E-1,-7.767061E-2],"split_indices":[1,0,14,14,2,1,16,0,0,0,0,0,0,0,0],"split_type":[0,0,1,1,0,0,0,0,0,0,0,0,0,0,0],"sum_hessian":[1.1533672E3,6.960827E2,4.572845E2,1.7487079E2,5.212119E2,4.3824948E2,1.903498E1,4.2017986E1,1.328528E2,2.2437885E1,4.9877405E2,3.202404E2,1.18009094E2,7.275158E0,1.1759823E1],"tree_param":{"num_deleted":"0","num_feature":"17","num_nodes":"15","size_leaf_vector":"1"}},{"base_weights":[-5.419935E-3,2.8287697E-1,-4.3764713E-1,3.9040938E-1,-3.2733697E-1,-4.9560755E-1,7.2698325E-1,8.992051E-2,2.8257284E-2,-3.935728E-2,6.583314E-2,-2.9020568E-2,-6.943037E-2,2.3833025E-1,-6.265193E-2],"categories":[2],"categories_nodes":[2],"categories_segments":[0],"categories_sizes":[1],"default_left":[0,0,1,1,1,0,0,0,0,0,0,0,0,0,0],"id":4,"left_children":[1,3,5,7,9,11,13,-1,-1,-1,-1,-1,-1,-1,-1],"loss_changes":[1.4381479E2,4.5557896E1,3.1531807E1,3.206649E1,7.0665703E0,1.7775871E1,5.148051E1,0E0,0E0,0E0,0E0,0E0,0E0,0E0,0E0],"parents":[2147483647,0,0,1,1,2,2,3,3,4,4,5,5,6,6],"right_children":[2,4,6,8,10,12,14,-1,-1,-1,-1,-1,-1,-1,-1],"split_conditions":[1.3316667E1,3.678067E1,1E-45,3E0,7.7E1,2.1533333E1,3.09E2,8.992051E-2,2.8257284E-2,-3.935728E-2,6.583314E-2,-2.9020568E-2,-6.943037E-2,2.3833025E-1,-6.265193E-2],"split_indices":[1,2,14,11,11,1,16,0,0,0,0,0,0,0,0],"split_type":[0,0,1,0,0,0,0,0,0,0,0,0,0,0,0],"sum_hessian":[1.1521279E3,6.913445E2,4.607834E2,5.8807385E2,1.0327066E2,4.3948587E2,2.1297537E1,1.0155887E2,4.8651495E2,9.733084E1,5.9398184E0,2.1730634E2,2.2217952E2,9.235255E0,1.2062281E1],"tree_param":{"num_deleted":"0","num_feature":"17","num_nodes":"15","size_leaf_vector":"1"}},{"base_weights":[-5.8177584E-3,2.3897655E-1,-4.2784077E-1,1.1200141E0,1.8127134E-1,5.510499E-3,-5.6832385E-1,1.6580425E-1,4.770711E-2,5.86933E-2,6.1572096E-3,4.7640022E-2,-3.1551328E-2,-5.8435407E-2,1.4580415E-1],"categories":[0,0],"categories_nodes":[2,4],"categories_segments":[0,1],"categories_sizes":[1,1],"default_left":[0,0,1,0,1,0,0,0,0,0,0,0,0,0,0],"id":5,"left_children":[1,3,5,7,9,11,13,-1,-1,-1,-1,-1,-1,-1,-1],"loss_changes":[1.19025246E2,3.686925E1,2.5751816E1,1.4647709E1,3.3252777E1,1.5952566E1,1.1227623E1,0E0,0E0,0E0,0E0,0E0,0E0,0E0,0E0],"parents":[2147483647,0,0,1,1,2,2,3,3,4,4,5,5,6,6],"right_children":[2,4,6,8,10,12,14,-1,-1,-1,-1,-1,-1,-1,-1],"split_conditions":[1.4166667E1,7.0833335E0,1E-45,4.25E0,1E-45,3.3E2,1E0,1.6580425E-1,4.770711E-2,5.86933E-2,6.1572096E-3,4.7640022E-2,-3.1551328E-2,-5.8435407E-2,1.4580415E-1],"split_indices":[1,2,14,1,14,16,4,0,0,0,0,0,0,0,0],"split_type":[0,0,1,0,1,0,0,0,0,0,0,0,0,0,0],"sum_hessian":[1.1501406E3,7.281887E2,4.2195187E2,4.3630665E1,6.8455804E2,1.03535225E2,3.1841666E2,2.2893803E1,2.073686E1,1.550817E2,5.294764E2,4.177463E1,6.1760593E1,3.1662354E2,1.7931226E0],"tree_param":{"num_deleted":"0","num_feature":"17","num_nodes":"15","size_leaf_vector":"1"}},{"base_weights":[-5.8013634E-3,2.61345E-1,-3.4777746E-1,4.9359706E-1,1.9442508E-2,1.0915571E-1,-5.060887E-1,1.2579115E-1,4.3570273E-2,4.506717E-2,-1.0425934E-2,-2.3923565E-2,5.6506276E-2,-3.5516392E-2,-7.308532E-2],"categories":[0,0],"categories_nodes":[2,4],"categories_segments":[0,1],"categories_sizes":[1,1],"default_left":[0,0,1,0,1,0,0,0,0,0,0,0,0,0,0],"id":6,"left_children":[1,3,5,7,9,11,13,-1,-1,-1,-1,-1,-1,-1,-1],"loss_changes":[1.0507571E2,3.6269516E1,3.6544083E1,1.4027679E1,1.6975067E1,2.0881788E1,1.2454788E1,0E0,0E0,0E0,0E0,0E0,0E0,0E0,0E0],"parents":[2147483647,0,0,1,1,2,2,3,3,4,4,5,5,6,6],"right_children":[2,4,6,8,10,12,14,-1,-1,-1,-1,-1,-1,-1,-1],"split_conditions":[2.802876E1,6.516667E0,1E-45,6.0457516E0,1E-45,3E0,2.1816668E1,1.2579115E-1,4.3570273E-2,4.506717E-2,-1.0425934E-2,-2.3923565E-2,5.6506276E-2,-3.5516392E-2,-7.308532E-2],"split_indices":[2,1,14,2,14,13,1,0,0,0,0,0,0,0,0],"split_type":[0,0,1,0,1,0,0,0,0,0,0,0,0,0,0],"sum_hessian":[1.1481626E3,6.4473865E2,5.0342392E2,3.2839966E2,3.16339E2,1.296181E2,3.7380582E2,2.1664158E1,3.067355E2,6.9927155E1,2.4641183E2,7.374188E1,5.5876217E1,2.2518132E2,1.486245E2],"tree_param":{"num_deleted":"0","num_feature":"17","num_nodes":"15","size_leaf_vector":"1"}},{"base_weights":[-5.9678503E-3,1.4782949E-1,-4.9453354E-1,-3.0807602E-1,2.3234658E-1,-5.620138E-1,5.5467975E-1,1.1719272E-2,-4.8972797E-2,4.1233636E-2,4.8235273E-3,1.5060101E-3,-6.1600316E-2,1.6155873E-1,-8.276383E-2],"categories":[2,0,0,1,3,4],"categories_nodes":[2,3,5],"categories_segments":[0,1,2],"categories_sizes":[1,1,4],"default_left":[0,0,1,1,0,1,0,0,0,0,0,0,0,0,0],"id":7,"left_children":[1,3,5,7,9,11,13,-1,-1,-1,-1,-1,-1,-1,-1],"loss_changes":[8.625428E1,3.3713875E1,1.9770416E1,1.0638863E1,2.4407204E1,8.070045E0,2.6430916E1,0E0,0E0,0E0,0E0,0E0,0E0,0E0,0E0],"parents":[2147483647,0,0,1,1,2,2,3,3,4,4,5,5,6,6],"right_children":[2,4,6,8,10,12,14,-1,-1,-1,-1,-1,-1,-1,-1],"split_conditions":[1.87E1,5.2333332E1,1E-45,1E-45,6.516667E0,1E-45,3.53E2,1.1719272E-2,-4.8972797E-2,4.1233636E-2,4.8235273E-3,1.5060101E-3,-6.1600316E-2,1.6155873E-1,-8.276383E-2],"split_indices":[1,0,14,14,1,5,16,0,0,0,0,0,0,0,0],"split_type":[0,0,1,1,0,1,0,0,0,0,0,0,0,0,0],"sum_hessian":[1.1459398E3,8.721044E2,2.7383542E2,1.3597539E2,7.36129E2,2.577242E2,1.6111214E1,4.0803772E1,9.5171616E1,3.716041E2,3.645249E2,2.2110764E1,2.3561345E2,9.019859E0,7.0913534E0],"tree_param":{"num_deleted":"0","num_feature":"17","num_nodes":"15","size_leaf_vector":"1"}},{"base_weights":[-6.085044E-3,1.3121164E-1,-4.6705827E-1,5.6493133E-1,5.318777E-2,-5.331854E-1,4.8345098E-1,8.287961E-2,-1.0841233E-2,3.717538E-2,-4.7668302E-3,-3.9141223E-2,-7.758977E-2,1.330106E-1,-8.0546245E-2],"categories":[2,0],"categories_nodes":[2,4],"categories_segments":[0,1],"categories_sizes":[1,1],"default_left":[0,1,1,1,1,0,0,0,0,0,0,0,0,0,0],"id":8,"left_children":[1,3,5,7,9,11,13,-1,-1,-1,-1,-1,-1,-1,-1],"loss_changes":[7.2506645E1,2.9842636E1,1.6782558E1,2.3984207E1,2.4091047E1,8.170845E0,2.0305079E1,0E0,0E0,0E0,0E0,0E0,0E0,0E0,0E0],"parents":[2147483647,0,0,1,1,2,2,3,3,4,4,5,5,6,6],"right_children":[2,4,6,8,10,12,14,-1,-1,-1,-1,-1,-1,-1,-1],"split_conditions":[1.87E1,3E0,1E-45,8.549789E1,1E-45,2.805E1,3.53E2,8.287961E-2,-1.0841233E-2,3.717538E-2,-4.7668302E-3,-3.9141223E-2,-7.758977E-2,1.330106E-1,-8.0546245E-2],"split_indices":[1,11,14,8,14,1,16,0,0,0,0,0,0,0,0],"split_type":[0,0,1,0,1,0,0,0,0,0,0,0,0,0,0],"sum_hessian":[1.1436555E3,8.8174976E2,2.6190576E2,1.3348604E2,7.4826373E2,2.4528061E2,1.662517E1,9.573807E1,3.7747967E1,1.792849E2,5.689789E2,1.5648639E2,8.879422E1,1.0014763E1,6.610406E0],"tree_param":{"num_deleted":"0","num_feature":"17","num_nodes":"15","size_leaf_vector":"1"}},{"base_weights":[-6.105844E-3,1.912544E-1,-2.902495E-1,3.169655E-1,-6.2672876E-2,9.564213E-2,-4.3906918E-1,2.8189732E-2,1.0635426E-1,7.60771E-2,-1.1222522E-2,-5.722648E-2,2.9460147E-2,-3.3753272E-2,-7.533272E-2],"categories":[0,2],"categories_nodes":[2,3],"categories_segments":[0,1],"categories_sizes":[1,1],"default_left":[0,0,1,1,0,0,0,0,0,0,0,0,0,0,0],"id":9,"left_children":[1,3,5,7,9,11,13,-1,-1,-1,-1,-1,-1,-1,-1],"loss_changes":[6.409858E1,2.1551846E1,2.6946716E1,1.1516644E1,9.233311E0,1.7604736E1,1.0539841E1,0E0,0E0,0E0,0E0,0E0,0E0,0E0,0E0],"parents":[2147483647,0,0,1,1,2,2,3,3,4,4,5,5,6,6],"right_children":[2,4,6,8,10,12,14,-1,-1,-1,-1,-1,-1,-1,-1],"split_conditions":[2.802876E1,8.783334E0,1E-45,1E-45,4.8E1,2E0,2.6633333E1,2.8189732E-2,1.0635426E-1,7.60771E-2,-1.1222522E-2,-5.722648E-2,2.9460147E-2,-3.3753272E-2,-7.533272E-2],"split_indices":[2,1,14,14,16,13,1,0,0,0,0,0,0,0,0],"split_type":[0,0,1,1,0,0,0,0,0,0,0,0,0,0,0],"sum_hessian":[1.1410222E3,6.7352954E2,4.6749265E2,4.5033508E2,2.2319444E2,1.3021098E2,3.3728165E2,4.3144678E2,1.8888313E1,1.1854102E1,2.1134033E2,2.9454817E1,1.00756165E2,2.5648547E2,8.0796165E1],"tree_param":{"num_deleted":"0","num_feature":"17","num_nodes":"15","size_leaf_vector":"1"}},{"base_weights":[-6.023457E-3,1.2946968E-1,-3.5759965E-1,2.6896837E-1,-8.904472E-2,1.0137758E-1,-4.838855E-1,4.310502E-2,8.706277E-3,2.4675598E-2,-2.0246102E-2,-1.2513249E-2,1.4442258E-1,-3.811185E-2,-8.002288E-2],"categories":[1,3,0,2],"categories_nodes":[3,4,5],"categories_segments":[0,2,3],"categories_sizes":[2,1,1],"default_left":[0,0,0,1,1,1,0,0,0,0,0,0,0,0,0],"id":10,"left_children":[1,3,5,7,9,11,13,-1,-1,-1,-1,-1,-1,-1,-1],"loss_changes":[5.4337353E1,2.5123032E1,1.844101E1,1.4787109E1,1.2297577E1,2.1257915E1,7.7903786E0,0E0,0E0,0E0,0E0,0E0,0E0,0E0,0E0],"parents":[2147483647,0,0,1,1,2,2,3,3,4,4,5,5,6,6],"right_children":[2,4,6,8,10,12,14,-1,-1,-1,-1,-1,-1,-1,-1],"split_conditions":[3.678067E1,8.783334E0,2.08E2,1E-45,1E-45,1E-45,2.7766666E1,4.310502E-2,8.706277E-3,2.4675598E-2,-2.0246102E-2,-1.2513249E-2,1.4442258E-1,-3.811185E-2,-8.002288E-2],"split_indices":[2,1,16,5,14,14,1,0,0,0,0,0,0,0,0],"split_type":[0,0,0,1,1,1,0,0,0,0,0,0,0,0,0],"sum_hessian":[1.1387026E3,8.223939E2,3.1630872E2,5.0180972E2,3.2058417E2,6.829446E1,2.4801425E2,2.6464005E2,2.3716966E2,8.064282E1,2.3994135E2,5.9213245E1,9.081206E0,1.8886462E2,5.914963E1],"tree_param":{"num_deleted":"0","num_feature":"17","num_nodes":"15","size_leaf_vector":"1"}},{"base_weights":[-5.8982014E-3,9.889943E-2,-4.0277508E-1,4.508902E-1,3.287872E-2,-4.6514294E-1,3.6286044E-1,6.546401E-2,-1.1022817E-2,5.751985E-2,-1.8206047E-3,1.22209145E-2,-5.248004E-2,9.8993234E-2,-7.8012906E-2],"categories":[2,0,1,3,4],"categories_nodes":[2,5],"categories_segments":[0,1],"categories_sizes":[1,4],"default_left":[0,1,1,1,0,1,0,0,0,0,0,0,0,0,0],"id":11,"left_children":[1,3,5,7,9,11,13,-1,-1,-1,-1,-1,-1,-1,-1],"loss_changes":[4.7341404E1,2.0911884E1,1.1522572E1,1.6323647E1,2.1048096E1,7.7834015E0,1.4011402E1,0E0,0E0,0E0,0E0,0E0,0E0,0E0,0E0],"parents":[2147483647,0,0,1,1,2,2,3,3,4,4,5,5,6,6],"right_children":[2,4,6,8,10,12,14,-1,-1,-1,-1,-1,-1,-1,-1],"split_conditions":[1.87E1,3E0,1E-45,8.549789E1,8.9E1,1E-45,3.53E2,6.546401E-2,-1.1022817E-2,5.751985E-2,-1.8206047E-3,1.22209145E-2,-5.248004E-2,9.8993234E-2,-7.8012906E-2],"split_indices":[1,11,14,8,16,5,16,0,0,0,0,0,0,0,0],"split_type":[0,0,1,0,0,1,0,0,0,0,0,0,0,0,0],"sum_hessian":[1.1362823E3,8.9951184E2,2.3677051E2,1.4114815E2,7.583637E2,2.192991E2,1.74714E1,1.0342604E2,3.77221E1,6.440247E1,6.9396124E2,2.0123774E1,1.9917534E2,1.1368354E1,6.1030464E0],"tree_param":{"num_deleted":"0","num_feature":"17","num_nodes":"15","size_leaf_vector":"1"}},{"base_weights":[-5.700801E-3,1.0870713E-1,-3.2163247E-1,2.5776085E-1,-5.4253165E-2,9.1328144E-2,-4.4244418E-1,1.3884786E-2,4.6834398E-2,1.817596E-1,-8.231023E-3,-1.0365648E-2,1.1055455E-1,-5.2137382E-2,-3.5382942E-3],"categories":[1,3,2],"categories_nodes":[1,5],"categories_segments":[0,2],"categories_sizes":[2,1],"default_left":[0,1,0,0,0,1,0,0,0,0,0,0,0,0,0],"id":12,"left_children":[1,3,5,7,9,11,13,-1,-1,-1,-1,-1,-1,-1,-1],"loss_changes":[4.1043827E1,2.0263958E1,1.5101429E1,1.0842684E1,2.110914E1,1.3790566E1,7.490986E0,0E0,0E0,0E0,0E0,0E0,0E0,0E0,0E0],"parents":[2147483647,0,0,1,1,2,2,3,3,4,4,5,5,6,6],"right_children":[2,4,6,8,10,12,14,-1,-1,-1,-1,-1,-1,-1,-1],"split_conditions":[3.678067E1,1E-45,2.08E2,3E0,4.8483963E0,1E-45,1.3384938E1,1.3884786E-2,4.6834398E-2,1.817596E-1,-8.231023E-3,-1.0365648E-2,1.1055455E-1,-5.2137382E-2,-3.5382942E-3],"split_indices":[2,5,16,13,2,14,9,0,0,0,0,0,0,0,0],"split_type":[0,1,0,0,0,1,0,0,0,0,0,0,0,0,0],"sum_hessian":[1.1335626E3,8.3268085E2,3.0088174E2,4.3459302E2,3.9808783E2,6.81555E1,2.3272624E2,2.7881174E2,1.557813E2,4.936895E0,3.9315094E2,5.7918407E1,1.0237093E1,1.9469403E2,3.8032204E1],"tree_param":{"num_deleted":"0","num_feature":"17","num_nodes":"15","size_leaf_vector":"1"}},{"base_weights":[-5.3158565E-3,8.403367E-2,-3.662751E-1,6.597479E-2,1.3090997E0,-3.8461897E-1,1.6348867E-1,-2.5227351E-2,1.1724711E-2,1.8368845E-1,-3.484839E-2,-7.53339E-3,-5.159272E-2],"categories":[1,4,0],"categories_nodes":[4,5],"categories_segments":[0,2],"categories_sizes":[2,1],"default_left":[0,0,0,0,0,1,0,0,0,0,0,0,0],"id":13,"left_children":[1,3,5,7,9,11,-1,-1,-1,-1,-1,-1,-1],"loss_changes":[3.65534E1,2.0013744E1,8.884001E0,1.46564865E1,1.2140362E1,9.043869E0,0E0,0E0,0E0,0E0,0E0,0E0,0E0],"parents":[2147483647,0,0,1,1,2,2,3,3,4,4,5,5],"right_children":[2,4,6,8,10,12,-1,-1,-1,-1,-1,-1,-1],"split_conditions":[1.87E1,1.1054269E4,1E0,5.2333332E1,1E-45,1E-45,1.6348867E-1,-2.5227351E-2,1.1724711E-2,1.8368845E-1,-3.484839E-2,-7.53339E-3,-5.159272E-2],"split_indices":[1,9,4,0,6,14,0,0,0,0,0,0,0],"split_type":[0,0,0,0,1,1,0,0,0,0,0,0,0],"sum_hessian":[1.1314304E3,9.0754877E2,2.2388159E2,8.954034E2,1.2145419E1,2.2264845E2,1.2331291E0,1.2369651E2,7.7170685E2,9.130152E0,3.0152671E0,6.682402E1,1.5582443E2],"tree_param":{"num_deleted":"0","num_feature":"17","num_nodes":"13","size_leaf_vector":"1"}},{"base_weights":[-4.932804E-3,9.608766E-2,-2.74375E-1,3.671552E-1,2.9012868E-2,-2.9395783E-1,1.5713E0,5.603798E-2,-1.5027202E-2,2.0835614E-2,-8.950239E-3,6.2440545E-3,-3.795364E-2,2.0851651E-1,3.2400392E-2],"categories":[],"categories_nodes":[],"categories_segments":[],"categories_sizes":[],"default_left":[0,1,0,1,0,0,0,0,0,0,0,0,0,0,0],"id":14,"left_children":[1,3,5,7,9,11,13,-1,-1,-1,-1,-1,-1,-1,-1],"loss_changes":[3.0799013E1,1.4953049E1,1.1613863E1,1.6397636E1,1.4064677E1,9.361271E0,1.5016413E0,0E0,0E0,0E0,0E0,0E0,0E0,0E0,0E0],"parents":[2147483647,0,0,1,1,2,2,3,3,4,4,5,5,6,6],"right_children":[2,4,6,8,10,12,14,-1,-1,-1,-1,-1,-1,-1,-1],"split_conditions":[1.5016666E1,4E0,1E0,8.549789E1,2.924864E0,1.73E2,2.8E1,5.603798E-2,-1.5027202E-2,2.0835614E-2,-8.950239E-3,6.2440545E-3,-3.795364E-2,2.0851651E-1,3.2400392E-2],"split_indices":[1,11,4,8,3,16,11,0,0,0,0,0,0,0,0],"split_type":[0,0,0,0,0,0,0,0,0,0,0,0,0,0,0],"sum_hessian":[1.1295505E3,8.2200433E2,3.0754614E2,1.6216747E2,6.5983685E2,3.051492E2,2.3969424E0,1.1801406E2,4.415341E1,2.622416E2,3.9759528E2,5.9137405E1,2.460118E2,1.2218235E0,1.1751188E0],"tree_param":{"num_deleted":"0","num_feature":"17","num_nodes":"15","size_leaf_vector":"1"}},{"base_weights":[-4.533687E-3,6.886678E-2,-3.2192376E-1,5.0376695E-2,9.711817E-1,-4.8006213E-1,-6.803436E-2,2.2467216E-3,6.352653E-2,1.4861219E-1,-2.01088E-2,-2.0894602E-2,-6.500717E-2,4.0623184E-2,-3.8321212E-2],"categories":[2,1,4,0],"categories_nodes":[3,4,6],"categories_segments":[0,1,3],"categories_sizes":[1,2,1],"default_left":[0,0,0,1,0,0,1,0,0,0,0,0,0,0,0],"id":15,"left_children":[1,3,5,7,9,11,13,-1,-1,-1,-1,-1,-1,-1,-1],"loss_changes":[2.6300608E1,1.5249411E1,8.480782E0,1.4670657E1,1.1380642E1,5.8789654E0,1.2494825E1,0E0,0E0,0E0,0E0,0E0,0E0,0E0,0E0],"parents":[2147483647,0,0,1,1,2,2,3,3,4,4,5,5,6,6],"right_children":[2,4,6,8,10,12,14,-1,-1,-1,-1,-1,-1,-1,-1],"split_conditions":[1.87E1,3.2836987E3,3E0,1E-45,1E-45,2.3233334E1,1E-45,2.2467216E-3,6.352653E-2,1.4861219E-1,-2.01088E-2,-2.0894602E-2,-6.500717E-2,4.0623184E-2,-3.8321212E-2],"split_indices":[1,9,13,14,6,1,14,0,0,0,0,0,0,0,0],"split_type":[0,0,0,1,1,0,1,0,0,0,0,0,0,0,0],"sum_hessian":[1.1269956E3,9.1595294E2,2.1104268E2,8.985949E2,1.7358028E1,1.2949449E2,8.1548195E1,8.586601E2,3.993478E1,1.1874302E1,5.483727E0,5.0766163E1,7.8728325E1,3.244198E1,4.9106216E1],"tree_param":{"num_deleted":"0","num_feature":"17","num_nodes":"15","size_leaf_vector":"1"}},{"base_weights":[-4.3133306E-3,1.6595285E-1,-1.2583087E-1,5.243099E-1,1.0414536E-1,1.5403773E-1,-2.3235263E-1,1.1522651E-1,3.706884E-2,2.481023E-2,-7.514359E-3,9.032712E-2,2.5460827E-3,-2.4893671E-2,1.1771442E-1],"categories":[0,1,3],"categories_nodes":[2,4],"categories_segments":[0,1],"categories_sizes":[1,2],"default_left":[0,0,1,0,1,0,0,0,0,0,0,0,0,0,0],"id":16,"left_children":[1,3,5,7,9,11,13,-1,-1,-1,-1,-1,-1,-1,-1],"loss_changes":[2.332607E1,1.0345058E1,1.9647743E1,6.211878E0,1.0386672E1,1.750604E1,1.1440468E1,0E0,0E0,0E0,0E0,0E0,0E0,0E0,0E0],"parents":[2147483647,0,0,1,1,2,2,3,3,4,4,5,5,6,6],"right_children":[2,4,6,8,10,12,14,-1,-1,-1,-1,-1,-1,-1,-1],"split_conditions":[6.516667E0,7.4063787E0,1E-45,2E0,1E-45,7.1E1,1.1054269E4,1.1522651E-1,3.706884E-2,2.481023E-2,-7.514359E-3,9.032712E-2,2.5460827E-3,-2.4893671E-2,1.1771442E-1],"split_indices":[1,2,14,11,5,16,9,0,0,0,0,0,0,0,0],"split_type":[0,0,1,0,1,0,0,0,0,0,0,0,0,0,0],"sum_hessian":[1.125381E3,4.6852884E2,6.568521E2,6.7821266E1,4.0070758E2,1.8096085E2,4.7589124E2,1.2052765E1,5.5768497E1,2.2204034E2,1.7866724E2,2.5623634E1,1.5533722E2,4.7117084E2,4.7203913E0],"tree_param":{"num_deleted":"0","num_feature":"17","num_nodes":"15","size_leaf_vector":"1"}},{"base_weights":[-3.879351E-3,7.533738E-2,-2.4873687E-1,1.9533508E-1,-6.0769077E-2,-4.0930176E-1,2.383254E-2,9.497163E-3,3.6841888E-2,1.3616344E-1,-8.504496E-3,-4.36092E-2,1.14593685E-1,-1.4406559E-2,1.1388602E-1],"categories":[1,3,2],"categories_nodes":[1,6],"categories_segments":[0,2],"categories_sizes":[2,1],"default_left":[0,1,0,0,0,1,1,0,0,0,0,0,0,0,0],"id":17,"left_children":[1,3,5,7,9,11,13,-1,-1,-1,-1,-1,-1,-1,-1],"loss_changes":[2.182118E1,1.3895006E1,1.2044645E1,7.8166103E0,1.3894902E1,7.712143E0,1.942518E1,0E0,0E0,0E0,0E0,0E0,0E0,0E0,0E0],"parents":[2147483647,0,0,1,1,2,2,3,3,4,4,5,5,6,6],"right_children":[2,4,6,8,10,12,14,-1,-1,-1,-1,-1,-1,-1,-1],"split_conditions":[3.678067E1,1E-45,3E0,3E0,4.8483963E0,1.16E2,1E-45,9.497163E-3,3.6841888E-2,1.3616344E-1,-8.504496E-3,-4.36092E-2,1.14593685E-1,-1.4406559E-2,1.1388602E-1],"split_indices":[2,5,13,13,2,11,14,0,0,0,0,0,0,0,0],"split_type":[0,1,0,0,0,0,1,0,0,0,0,0,0,0,0],"sum_hessian":[1.1230219E3,8.490334E2,2.7398843E2,4.509872E2,3.9804617E2,1.7210397E2,1.0188447E2,2.864415E2,1.6454573E2,5.754946E0,3.9229123E2,1.6989696E2,2.2070127E0,8.9307556E1,1.2576916E1],"tree_param":{"num_deleted":"0","num_feature":"17","num_nodes":"15","size_leaf_vector":"1"}},{"base_weights":[-3.4923912E-3,3.0998407E-2,-5.347167E-1,-3.8629632E-2,2.2643654E-1,1.6314829E-2,-7.265717E-1,1.3118233E-2,-1.2013222E-2,5.4665364E-2,-1.020807E-2,8.220304E-2,-5.682665E-2,-9.371996E-2,-4.325047E-2],"categories":[1,2],"categories_nodes":[4],"categories_segments":[0],"categories_sizes":[2],"default_left":[0,0,0,0,0,0,0,0,0,0,0,0,0,0,0],"id":18,"left_children":[1,3,5,7,9,11,13,-1,-1,-1,-1,-1,-1,-1,-1],"loss_changes":[2.057276E1,1.4357838E1,7.248945E0,1.0787914E1,2.9209381E1,9.254856E0,2.7410889E0,0E0,0E0,0E0,0E0,0E0,0E0,0E0,0E0],"parents":[2147483647,0,0,1,1,2,2,3,3,4,4,5,5,6,6],"right_children":[2,4,6,8,10,12,14,-1,-1,-1,-1,-1,-1,-1,-1],"split_conditions":[2.805E1,1.024488E1,1.87E2,2.924864E0,1E-45,3.7666668E1,2.00001E0,1.3118233E-2,-1.2013222E-2,5.4665364E-2,-1.020807E-2,8.220304E-2,-5.682665E-2,-9.371996E-2,-4.325047E-2],"split_indices":[1,9,16,3,6,0,7,0,0,0,0,0,0,0,0],"split_type":[0,0,0,0,1,0,0,0,0,0,0,0,0,0,0],"sum_hessian":[1.1209185E3,1.0534619E3,6.745647E1,7.773283E2,2.761336E2,1.765734E1,4.979913E1,2.5189386E2,5.2543445E2,1.3949704E2,1.3663658E2,7.253632E0,1.0403707E1,2.7741804E1,2.2057325E1],"tree_param":{"num_deleted":"0","num_feature":"17","num_nodes":"15","size_leaf_vector":"1"}},{"base_weights":[-3.5237083E-3,2.7713124E-2,-5.094618E-1,1.2542403E-1,-8.4256954E-2,1.4536982E-2,-7.0293254E-1,6.7995954E-4,3.2637652E-2,-1.0402987E-2,1.5819839E-1,7.145765E-2,-5.4049887E-2,1.6660605E-2,-7.687187E-2],"categories":[1,3,0,1,3,4,5],"categories_nodes":[1,6],"categories_segments":[0,2],"categories_sizes":[2,5],"default_left":[0,1,0,0,1,0,1,0,0,0,0,0,0,0,0],"id":19,"left_children":[1,3,5,7,9,11,13,-1,-1,-1,-1,-1,-1,-1,-1],"loss_changes":[1.7718178E1,1.156438E1,6.619417E0,1.3450193E1,1.6397629E1,7.5975013E0,2.8529015E0,0E0,0E0,0E0,0E0,0E0,0E0,0E0,0E0],"parents":[2147483647,0,0,1,1,2,2,3,3,4,4,5,5,6,6],"right_children":[2,4,6,8,10,12,14,-1,-1,-1,-1,-1,-1,-1,-1],"split_conditions":[2.805E1,1E-45,1.87E2,3E0,1.649041E3,3.7666668E1,1E-45,6.7995954E-4,3.2637652E-2,-1.0402987E-2,1.5819839E-1,7.145765E-2,-5.4049887E-2,1.6660605E-2,-7.687187E-2],"split_indices":[1,5,16,13,9,0,5,0,0,0,0,0,0,0,0],"split_type":[0,1,0,0,0,0,1,0,0,0,0,0,0,0,0],"sum_hessian":[1.1192333E3,1.0550399E3,6.419338E1,5.6332935E2,4.9171057E2,1.7559591E1,4.663379E1,3.5487604E2,2.0845331E2,4.8687054E2,4.840019E0,7.6383157E0,9.921275E0,3.1722023E0,4.3461586E1],"tree_param":{"num_deleted":"0","num_feature":"17","num_nodes":"15","size_leaf_vector":"1"}},{"base_weights":[-3.308753E-3,2.4927767E-2,-4.839291E-1,1.9453052E-1,-3.790629E-2,-8.562954E-2,-7.388478E-1,9.510195E-2,8.33024E-3,-1.5485918E-3,-8.155267E-2,1.52925E-1,-2.2417592E-2,-7.809996E-2,1.1575318E-2],"categories":[0],"categories_nodes":[1],"categories_segments":[0],"categories_sizes":[1],"default_left":[0,1,0,0,0,0,0,0,0,0,0,0,0,0,0],"id":20,"left_children":[1,3,5,7,9,11,13,-1,-1,-1,-1,-1,-1,-1,-1],"loss_changes":[1.5199852E1,1.1282107E1,6.2470446E0,2.3999496E1,1.3461084E1,6.0223613E0,1.450798E0,0E0,0E0,0E0,0E0,0E0,0E0,0E0,0E0],"parents":[2147483647,0,0,1,1,2,2,3,3,4,4,5,5,6,6],"right_children":[2,4,6,8,10,12,14,-1,-1,-1,-1,-1,-1,-1,-1],"split_conditions":[2.805E1,1E-45,3.2E2,7.1E1,6.1299847E1,4.3333335E0,1.156E3,9.510195E-2,8.33024E-3,-1.5485918E-3,-8.155267E-2,1.52925E-1,-2.2417592E-2,-7.809996E-2,1.1575318E-2],"split_indices":[1,14,16,16,2,0,16,0,0,0,0,0,0,0,0],"split_type":[0,1,0,0,0,0,0,0,0,0,0,0,0,0,0],"sum_hessian":[1.1181317E3,1.056982E3,6.1149723E1,2.851647E2,7.718173E2,2.4385044E1,3.676468E1,3.5585953E1,2.4957874E2,7.5117926E2,2.0638107E1,1.133641E0,2.3251402E1,3.5118633E1,1.6460474E0],"tree_param":{"num_deleted":"0","num_feature":"17","num_nodes":"15","size_leaf_vector":"1"}},{"base_weights":[-3.1593428E-3,1.0036479E-1,-1.2545352E-1,1.874412E-2,2.852471E-1,-1.5171984E-1,6.697233E-1,9.673919E-3,-4.1918483E-2,2.9636808E-3,7.2549656E-2,7.7204206E-3,-2.5531566E-2,1.2269826E-1,-5.461512E-2],"categories":[0],"categories_nodes":[5],"categories_segments":[0],"categories_sizes":[1],"default_left":[0,0,0,0,0,1,0,0,0,0,0,0,0,0,0],"id":21,"left_children":[1,3,5,7,9,11,13,-1,-1,-1,-1,-1,-1,-1,-1],"loss_changes":[1.4163462E1,9.137392E0,1.0813292E1,1.4433485E1,2.0851816E1,1.1812792E1,1.1906504E1,0E0,0E0,0E0,0E0,0E0,0E0,0E0,0E0],"parents":[2147483647,0,0,1,1,2,2,3,3,4,4,5,5,6,6],"right_children":[2,4,6,8,10,12,14,-1,-1,-1,-1,-1,-1,-1,-1],"split_conditions":[2.237822E1,9.6208105E0,4E0,4.189916E1,8.1333336E1,1E-45,2.91E2,9.673919E-3,-4.1918483E-2,2.9636808E-3,7.2549656E-2,7.7204206E-3,-2.5531566E-2,1.2269826E-1,-5.461512E-2],"split_indices":[2,9,13,3,0,14,16,0,0,0,0,0,0,0,0],"split_type":[0,0,0,0,0,1,0,0,0,0,0,0,0,0,0],"sum_hessian":[1.116727E3,6.048719E2,5.118552E2,4.2038455E2,1.8448735E2,4.9627155E2,1.5583664E1,3.5749402E2,6.2890514E1,1.1739484E2,6.709251E1,1.5469167E2,3.4157986E2,1.0679775E1,4.903888E0],"tree_param":{"num_deleted":"0","num_feature":"17","num_nodes":"15","size_leaf_vector":"1"}},{"base_weights":[-3.073712E-3,4.3932933E-2,-2.4172337E-1,7.403666E-2,-2.8311345E-1,-2.6215056E-1,1.3852271E-1,4.5457985E-2,3.600123E-3,8.995225E-2,-3.478789E-2,2.8125936E-2,-3.2167904E-2],"categories":[0,1,3,4],"categories_nodes":[5],"categories_segments":[0],"categories_sizes":[4],"default_left":[0,0,0,0,0,1,0,0,0,0,0,0,0],"id":22,"left_children":[1,3,5,7,9,11,-1,-1,-1,-1,-1,-1,-1],"loss_changes":[1.2528301E1,9.207342E0,6.4706697E0,1.2362144E1,6.352714E0,5.9887342E0,0E0,0E0,0E0,0E0,0E0,0E0,0E0],"parents":[2147483647,0,0,1,1,2,2,3,3,4,4,5,5],"right_children":[2,4,6,8,10,12,-1,-1,-1,-1,-1,-1,-1],"split_conditions":[1.8983334E1,1E0,1E0,8.9E1,7.231797E0,1E-45,1.3852271E-1,4.5457985E-2,3.600123E-3,8.995225E-2,-3.478789E-2,2.8125936E-2,-3.2167904E-2],"split_indices":[1,15,4,16,8,5,0,0,0,0,0,0,0],"split_type":[0,0,0,0,0,1,0,0,0,0,0,0,0],"sum_hessian":[1.114845E3,9.320715E2,1.8277351E2,8.542168E2,7.785469E1,1.8133562E2,1.4378896E0,7.662588E1,7.775909E2,3.3730397E0,7.448165E1,1.7535627E1,1.6379999E2],"tree_param":{"num_deleted":"0","num_feature":"17","num_nodes":"13","size_leaf_vector":"1"}},{"base_weights":[-2.729772E-3,1.1286227E-1,-9.125799E-2,4.187466E-1,6.996948E-2,1.1964367E-1,-1.7802578E-1,2.8896078E-2,1.13345146E-1,1.1193316E-2,-3.1943154E-2,2.043167E-2,-5.509704E-2,-1.8992553E-2,1.2008754E-1],"categories":[0,3],"categories_nodes":[2,4],"categories_segments":[0,1],"categories_sizes":[1,1],"default_left":[0,0,1,0,1,0,1,0,0,0,0,0,0,0,0],"id":23,"left_children":[1,3,5,7,9,11,13,-1,-1,-1,-1,-1,-1,-1,-1],"loss_changes":[1.1418326E1,6.3201976E0,1.1584058E1,5.174493E0,6.9908743E0,1.0604923E1,7.580476E0,0E0,0E0,0E0,0E0,0E0,0E0,0E0,0E0],"parents":[2147483647,0,0,1,1,2,2,3,3,4,4,5,5,6,6],"right_children":[2,4,6,8,10,12,14,-1,-1,-1,-1,-1,-1,-1,-1],"split_conditions":[6.516667E0,7.0833335E0,1E-45,9.8E2,1E-45,1E0,1.56E2,2.8896078E-2,1.13345146E-1,1.1193316E-2,-3.1943154E-2,2.043167E-2,-5.509704E-2,-1.8992553E-2,1.2008754E-1],"split_indices":[1,2,14,16,5,15,11,0,0,0,0,0,0,0,0],"split_type":[0,0,1,0,1,0,0,0,0,0,0,0,0,0,0],"sum_hessian":[1.11381E3,4.8294708E2,6.308629E2,5.8315445E1,4.2463165E2,1.8378006E2,4.470829E2,5.0541706E1,7.773741E0,3.839662E2,4.066545E1,1.6379439E2,1.9985664E1,4.4411252E2,2.9703717E0],"tree_param":{"num_deleted":"0","num_feature":"17","num_nodes":"15","size_leaf_vector":"1"}},{"base_weights":[-2.4791923E-3,2.0361794E-2,-4.2874533E-1,2.1611309E-1,-2.3921229E-2,-3.8902562E-2,-6.980675E-1,3.8505953E-2,-1.9136975E-2,1.2494433E-2,-9.587517E-3,-3.09422E-2,7.735898E-2,-7.446366E-2,1.5402152E-2],"categories":[],"categories_nodes":[],"categories_segments":[],"categories_sizes":[],"default_left":[0,1,0,1,0,0,0,0,0,0,0,0,0,0,0],"id":24,"left_children":[1,3,5,7,9,11,13,-1,-1,-1,-1,-1,-1,-1,-1],"loss_changes":[1.0847837E1,9.172922E0,5.922228E0,1.3512627E1,9.260113E0,5.5608253E0,1.4421539E0,0E0,0E0,0E0,0E0,0E0,0E0,0E0,0E0],"parents":[2147483647,0,0,1,1,2,2,3,3,4,4,5,5,6,6],"right_children":[2,4,6,8,10,12,14,-1,-1,-1,-1,-1,-1,-1,-1],"split_conditions":[2.805E1,4E0,3.2E2,8.549789E1,2.9729755E0,6.9266975E1,1.156E3,3.8505953E-2,-1.9136975E-2,1.2494433E-2,-9.587517E-3,-3.09422E-2,7.735898E-2,-7.446366E-2,1.5402152E-2],"split_indices":[1,11,16,8,3,2,16,0,0,0,0,0,0,0,0],"split_type":[0,0,0,0,0,0,0,0,0,0,0,0,0,0,0],"sum_hessian":[1.1122632E3,1.0565988E3,5.5664413E1,1.9421204E2,8.6238666E2,2.3211014E1,3.24534E1,1.3732907E2,5.688297E1,2.8076837E2,5.816183E2,1.7877775E1,5.3332376E0,3.0891212E1,1.5621867E0],"tree_param":{"num_deleted":"0","num_feature":"17","num_nodes":"15","size_leaf_vector":"1"}},{"base_weights":[-2.408864E-3,8.706865E-2,-1.0615714E-1,-2.153074E-2,2.6540908E-1,-1.23389974E-1,1.2579991E0,7.324154E-3,-3.4733832E-2,6.5038346E-2,1.5840372E-2,1.04669504E-1,-1.4020628E-2,1.625303E-1,5.085032E-3],"categories":[1,3],"categories_nodes":[0],"categories_segments":[0],"categories_sizes":[2],"default_left":[1,0,1,0,0,0,0,0,0,0,0,0,0,0,0],"id":25,"left_children":[1,3,5,7,9,11,13,-1,-1,-1,-1,-1,-1,-1,-1],"loss_changes":[1.0326266E1,1.1573553E1,1.2264255E1,1.1516426E1,9.212197E0,1.0173527E1,2.8061104E0,0E0,0E0,0E0,0E0,0E0,0E0,0E0,0E0],"parents":[2147483647,0,0,1,1,2,2,3,3,4,4,5,5,6,6],"right_children":[2,4,6,8,10,12,14,-1,-1,-1,-1,-1,-1,-1,-1],"split_conditions":[1E-45,3E0,1.649041E3,3.6120358E1,1.69E2,4.8483963E0,9.71E2,7.324154E-3,-3.4733832E-2,6.5038346E-2,1.5840372E-2,1.04669504E-1,-1.4020628E-2,1.625303E-1,5.085032E-3],"split_indices":[5,13,9,2,16,2,16,0,0,0,0,0,0,0,0],"split_type":[1,0,0,0,0,0,0,0,0,0,0,0,0,0,0],"sum_hessian":[1.1103724E3,5.96276E2,5.1409644E2,3.7114728E2,2.2512875E2,5.0858124E2,5.5151534E0,2.881145E2,8.303276E1,4.786092E1,1.7726782E2,6.3379955E0,5.0224326E2,3.9629364E0,1.5522168E0],"tree_param":{"num_deleted":"0","num_feature":"17","num_nodes":"15","size_leaf_vector":"1"}},{"base_weights":[-2.0901936E-3,2.6703136E-2,-3.1577632E-1,2.4916968E-1,-1.5383985E-2,-1.009227E-1,-6.4589E-1,-7.338243E-3,7.324302E-2,4.429192E-3,-2.3627698E-2,7.077427E-2,-2.439654E-2,5.7995874E-2,-7.549461E-2],"categories":[0,1,2,3,4],"categories_nodes":[6],"categories_segments":[0],"categories_sizes":[5],"default_left":[0,0,0,0,0,0,1,0,0,0,0,0,0,0,0],"id":26,"left_children":[1,3,5,7,9,11,13,-1,-1,-1,-1,-1,-1,-1,-1],"loss_changes":[1.0032843E1,9.53048E0,6.5584745E0,2.52943E1,1.1301555E1,6.8534E0,5.335185E0,0E0,0E0,0E0,0E0,0E0,0E0,0E0,0E0],"parents":[2147483647,0,0,1,1,2,2,3,3,4,4,5,5,6,6],"right_children":[2,4,6,8,10,12,14,-1,-1,-1,-1,-1,-1,-1,-1],"split_conditions":[1E0,1.6E2,9.745449E1,3E0,3.678067E1,1.9833333E0,1E-45,-7.338243E-3,7.324302E-2,4.429192E-3,-2.3627698E-2,7.077427E-2,-2.439654E-2,5.7995874E-2,-7.549461E-2],"split_indices":[15,16,8,13,2,1,5,0,0,0,0,0,0,0,0],"split_type":[0,0,0,0,0,0,1,0,0,0,0,0,0,0,0],"sum_hessian":[1.1088689E3,1.0164807E3,9.2388145E1,1.6092638E2,8.555543E2,5.6755016E1,3.5633133E1,9.701913E1,6.390724E1,6.742107E2,1.813436E2,7.9369826E0,4.8818035E1,2.558316E0,3.3074818E1],"tree_param":{"num_deleted":"0","num_feature":"17","num_nodes":"15","size_leaf_vector":"1"}},{"base_weights":[-2.0598522E-3,1.7746467E-2,-3.9466646E-1,-3.4545027E-2,1.6191465E-1,-3.77598E-2,-6.6230756E-1,-3.132494E-4,-3.5772953E-2,4.716992E-2,-3.957832E-3,3.2935824E-2,-5.5811834E-2,-2.461445E-2,-8.005515E-2],"categories":[],"categories_nodes":[],"categories_segments":[],"categories_sizes":[],"default_left":[0,0,0,0,1,0,0,0,0,0,0,0,0,0,0],"id":27,"left_children":[1,3,5,7,9,11,13,-1,-1,-1,-1,-1,-1,-1,-1],"loss_changes":[8.62753E0,7.968869E0,5.064808E0,7.87663E0,1.75793E1,4.7484493E0,1.5513067E0,0E0,0E0,0E0,0E0,0E0,0E0,0E0,0E0],"parents":[2147483647,0,0,1,1,2,2,3,3,4,4,5,5,6,6],"right_children":[2,4,6,8,10,12,14,-1,-1,-1,-1,-1,-1,-1,-1],"split_conditions":[2.805E1,1.0439073E1,3.2E2,4.4627956E1,8.731503E1,2.6E1,5.0178005E1,-3.132494E-4,-3.5772953E-2,4.716992E-2,-3.957832E-3,3.2935824E-2,-5.5811834E-2,-2.461445E-2,-8.005515E-2],"split_indices":[1,9,16,3,8,11,8,0,0,0,0,0,0,0,0],"split_type":[0,0,0,0,0,0,0,0,0,0,0,0,0,0,0],"sum_hessian":[1.1075935E3,1.0553098E3,5.228374E1,7.749769E2,2.8033286E2,2.2894451E1,2.9389292E1,7.072446E2,6.773229E1,1.0994987E2,1.70383E2,1.3639034E1,9.255417E0,8.021689E0,2.1367603E1],"tree_param":{"num_deleted":"0","num_feature":"17","num_nodes":"15","size_leaf_vector":"1"}},{"base_weights":[-2.1382708E-3,2.38062E-2,-2.926565E-1,-2.8575696E-2,1.6800848E-1,-9.441114E-2,-6.1219966E-1,7.3963153E-4,-3.9255064E-2,4.272511E-2,-3.4509005E-4,-1.5854437E-2,1.4582893E-1,5.2471705E-2,-7.234088E-2],"categories":[0,1,2,3,4],"categories_nodes":[6],"categories_segments":[0],"categories_sizes":[5],"default_left":[0,0,0,0,1,0,1,0,0,0,0,0,0,0,0],"id":28,"left_children":[1,3,5,7,9,11,13,-1,-1,-1,-1,-1,-1,-1,-1],"loss_changes":[8.353128E0,7.6902213E0,5.6977015E0,9.785883E0,1.2058703E1,5.932336E0,4.7546854E0,0E0,0E0,0E0,0E0,0E0,0E0,0E0,0E0],"parents":[2147483647,0,0,1,1,2,2,3,3,4,4,5,5,6,6],"right_children":[2,4,6,8,10,12,14,-1,-1,-1,-1,-1,-1,-1,-1],"split_conditions":[1E0,1.0439073E1,9.745449E1,4.4627956E1,8.731503E1,4E0,1E-45,7.3963153E-4,-3.9255064E-2,4.272511E-2,-3.4509005E-4,-1.5854437E-2,1.4582893E-1,5.2471705E-2,-7.234088E-2],"split_indices":[15,9,8,3,8,13,5,0,0,0,0,0,0,0,0],"split_type":[0,0,0,0,0,0,1,0,0,0,0,0,0,0,0],"sum_hessian":[1.1063083E3,1.01645294E3,8.985536E1,7.4619666E2,2.702563E2,5.6251965E1,3.36034E1,6.799738E2,6.6222824E1,1.06993195E2,1.6326309E2,5.4882954E1,1.3690113E0,2.6627908E0,3.0940609E1],"tree_param":{"num_deleted":"0","num_feature":"17","num_nodes":"15","size_leaf_vector":"1"}},{"base_weights":[-1.990153E-3,7.532988E-2,-9.340992E-2,-1.1100113E-1,1.5532431E-1,-1.0891049E-1,1.017172E0,-6.785537E-2,-4.598663E-3,3.4188908E-2,6.1812373E-3,2.0444913E-2,-1.6484385E-2,4.547459E-2,1.7364033E-1],"categories":[1,3,0],"categories_nodes":[0,4],"categories_segments":[0,2],"categories_sizes":[2,1],"default_left":[1,0,1,0,1,0,0,0,0,0,0,0,0,0,0],"id":29,"left_children":[1,3,5,7,9,11,13,-1,-1,-1,-1,-1,-1,-1,-1],"loss_changes":[7.8257403E0,8.9579315E0,8.843666E0,6.638294E0,7.30756E0,8.818611E0,2.0741925E0,0E0,0E0,0E0,0E0,0E0,0E0,0E0,0E0],"parents":[2147483647,0,0,1,1,2,2,3,3,4,4,5,5,6,6],"right_children":[2,4,6,8,10,12,14,-1,-1,-1,-1,-1,-1,-1,-1],"split_conditions":[1E-45,2E0,1.649041E3,6.767068E-1,1E-45,1.41E2,1.6237411E1,-6.785537E-2,-4.598663E-3,3.4188908E-2,6.1812373E-3,2.0444913E-2,-1.6484385E-2,4.547459E-2,1.7364033E-1],"split_indices":[5,13,9,9,14,16,3,0,0,0,0,0,0,0,0],"split_type":[1,0,0,0,1,0,0,0,0,0,0,0,0,0,0],"sum_hessian":[1.105121E3,5.988272E2,5.062937E2,1.7974939E2,4.1907785E2,5.0021405E2,6.079636E0,1.7504513E1,1.6224489E2,1.3903479E2,2.8004306E2,7.53606E1,4.2485345E2,4.32771E0,1.7519258E0],"tree_param":{"num_deleted":"0","num_feature":"17","num_nodes":"15","size_leaf_vector":"1"}},{"base_weights":[-1.7733262E-3,-8.220643E-1,6.7690792E-3,3.1316917E-2,-9.6740866E-1,2.515772E-1,-2.0103257E-2,-1.05510235E-1,-9.248382E-3,8.996083E-3,1.268451E-1,5.562328E-3,-1.10443905E-2],"categories":[2,1,3],"categories_nodes":[5,6],"categories_segments":[0,1],"categories_sizes":[1,2],"default_left":[0,0,0,0,0,1,1,0,0,0,0,0,0],"id":30,"left_children":[1,3,5,-1,7,9,11,-1,-1,-1,-1,-1,-1],"loss_changes":[7.7501307E0,2.183823E0,7.207413E0,0E0,6.9652176E-1,1.7694885E1,6.7615185E0,0E0,0E0,0E0,0E0,0E0,0E0],"parents":[2147483647,0,0,1,1,2,2,4,4,5,5,6,6],"right_children":[2,4,6,-1,8,10,12,-1,-1,-1,-1,-1,-1],"split_conditions":[4E0,1.0788999E1,8.9E1,3.1316917E-2,1.4104437E2,1E-45,1E-45,-1.05510235E-1,-9.248382E-3,8.996083E-3,1.268451E-1,5.562328E-3,-1.10443905E-2],"split_indices":[16,2,16,0,8,14,5,0,0,0,0,0,0],"split_type":[0,0,0,0,0,1,1,0,0,0,0,0,0],"sum_hessian":[1.1042207E3,1.039917E1,1.0938215E3,1.049242E0,9.349928E0,1.0736449E2,9.86457E2,8.310984E0,1.0389441E0,9.357988E1,1.3784607E1,5.368423E2,4.4961472E2],"tree_param":{"num_deleted":"0","num_feature":"17","num_nodes":"13","size_leaf_vector":"1"}},{"base_weights":[-1.651139E-3,1.6494457E-2,-3.7546676E-1,-7.753823E-1,2.4192946E-2,-1.5699865E-2,-6.420444E-1,-9.472357E-2,3.1778473E-2,6.1379623E-2,1.2347567E-3,6.1310302E-2,-3.7107185E-2,-7.1964785E-2,2.12532E-2],"categories":[0,1,3,5],"categories_nodes":[5],"categories_segments":[0],"categories_sizes":[4],"default_left":[0,0,0,1,0,1,0,0,0,0,0,0,0,0,0],"id":31,"left_children":[1,3,5,7,9,11,13,-1,-1,-1,-1,-1,-1,-1,-1],"loss_changes":[7.496666E0,6.4449387E0,4.8968616E0,2.2133927E0,7.2903585E0,5.3225884E0,2.100257E0,0E0,0E0,0E0,0E0,0E0,0E0,0E0,0E0],"parents":[2147483647,0,0,1,1,2,2,3,3,4,4,5,5,6,6],"right_children":[2,4,6,8,10,12,14,-1,-1,-1,-1,-1,-1,-1,-1],"split_conditions":[2.805E1,4E0,4E1,1.4046477E2,1.9E1,1E-45,7.339226E1,-9.472357E-2,3.1778473E-2,6.1379623E-2,1.2347567E-3,6.1310302E-2,-3.7107185E-2,-7.1964785E-2,2.12532E-2],"split_indices":[1,16,0,8,16,5,3,0,0,0,0,0,0,0,0],"split_type":[0,0,0,0,0,1,0,0,0,0,0,0,0,0,0],"sum_hessian":[1.1032834E3,1.0531193E3,5.0164177E1,9.179555E0,1.0439397E3,2.1800982E1,2.8363197E1,8.047869E0,1.1316861E0,1.9559296E1,1.0243804E3,7.6101584E0,1.4190823E1,2.6146725E1,2.2164738E0],"tree_param":{"num_deleted":"0","num_feature":"17","num_nodes":"15","size_leaf_vector":"1"}},{"base_weights":[-1.6303407E-3,2.1860057E-2,-2.708768E-1,3.4163433E-1,2.2526681E-3,2.1930695E-1,-3.8846558E-1,4.311165E-2,-4.4308994E-2,2.8735313E-3,-3.4078326E-2,-9.2923366E-2,4.8296176E-2,1.0250845E-1,-4.688172E-2],"categories":[5,3],"categories_nodes":[3,4],"categories_segments":[0,1],"categories_sizes":[1,1],"default_left":[0,0,0,1,1,0,0,0,0,0,0,0,0,0,0],"id":32,"left_children":[1,3,5,7,9,11,13,-1,-1,-1,-1,-1,-1,-1,-1],"loss_changes":[6.9880953E0,6.371318E0,5.195583E0,4.313464E0,8.718042E0,5.8367443E0,8.643372E0,0E0,0E0,0E0,0E0,0E0,0E0,0E0,0E0],"parents":[2147483647,0,0,1,1,2,2,3,3,4,4,5,5,6,6],"right_children":[2,4,6,8,10,12,14,-1,-1,-1,-1,-1,-1,-1,-1],"split_conditions":[1E0,7.0833335E0,2.3015701E1,1E-45,1E-45,8.49381E-1,8.5E-1,4.311165E-2,-4.4308994E-2,2.8735313E-3,-3.4078326E-2,-9.2923366E-2,4.8296176E-2,1.0250845E-1,-4.688172E-2],"split_indices":[15,2,8,5,5,3,1,0,0,0,0,0,0,0,0],"split_type":[0,0,0,1,1,0,0,0,0,0,0,0,0,0,0],"sum_hessian":[1.1029523E3,1.01529193E3,8.766031E1,5.7708477E1,9.575835E2,1.6792717E1,7.086759E1,5.220603E1,5.502444E0,8.8980597E2,6.777749E1,2.6638677E0,1.412885E1,3.1793203E0,6.768827E1],"tree_param":{"num_deleted":"0","num_feature":"17","num_nodes":"15","size_leaf_vector":"1"}},{"base_weights":[-1.6260037E-3,3.862306E-2,-1.453389E-1,2.729686E-1,7.222678E-3,-2.8839093E-1,7.501365E-2,2.013295E-2,1.22884445E-1,2.9702724E-3,-4.642393E-2,-3.186534E-2,1.2099703E-1,5.8976926E-2,-2.0674264E-2],"categories":[1,3,4,5,0,1,2],"categories_nodes":[1,6],"categories_segments":[0,4],"categories_sizes":[4,3],"default_left":[0,1,0,0,0,1,1,0,0,0,0,0,0,0,0],"id":33,"left_children":[1,3,5,7,9,11,13,-1,-1,-1,-1,-1,-1,-1,-1],"loss_changes":[6.3878345E0,6.3466225E0,7.6378226E0,6.731546E0,8.088107E0,7.038066E0,1.4031467E1,0E0,0E0,0E0,0E0,0E0,0E0,0E0,0E0],"parents":[2147483647,0,0,1,1,2,2,3,3,4,4,5,5,6,6],"right_children":[2,4,6,8,10,12,14,-1,-1,-1,-1,-1,-1,-1,-1],"split_conditions":[3.678067E1,1E-45,3E0,3.4817955E1,2.04E1,1.16E2,1E-45,2.013295E-2,1.22884445E-1,2.9702724E-3,-4.642393E-2,-3.186534E-2,1.2099703E-1,5.8976926E-2,-2.0674264E-2],"split_indices":[2,5,13,2,1,11,5,0,0,0,0,0,0,0,0],"split_type":[0,1,0,0,0,0,1,0,0,0,0,0,0,0,0],"sum_hessian":[1.1023679E3,8.6175195E2,2.40616E2,1.0091509E2,7.6083685E2,1.4571173E2,9.490427E1,9.500543E1,5.909657E0,7.271044E2,3.3732475E1,1.4359879E2,2.1129358E0,3.3184517E1,6.1719753E1],"tree_param":{"num_deleted":"0","num_feature":"17","num_nodes":"15","size_leaf_vector":"1"}},{"base_weights":[-1.459937E-3,-7.593105E-1,5.635724E-3,3.201267E-2,-9.165571E-1,-3.950656E-2,1.2963127E-1,-1.0103424E-1,-8.553798E-3,5.127894E-4,-2.387366E-2,3.594111E-2,-1.1594885E-2],"categories":[1,2],"categories_nodes":[6],"categories_segments":[0],"categories_sizes":[2],"default_left":[0,0,0,0,0,0,0,0,0,0,0,0,0],"id":34,"left_children":[1,3,5,-1,7,9,11,-1,-1,-1,-1,-1,-1],"loss_changes":[5.932355E0,2.0303788E0,6.1240325E0,0E0,6.2989235E-1,7.134517E0,1.6518742E1,0E0,0E0,0E0,0E0,0E0,0E0],"parents":[2147483647,0,0,1,1,2,2,4,4,5,5,6,6],"right_children":[2,4,6,-1,8,10,12,-1,-1,-1,-1,-1,-1],"split_conditions":[4E0,1.0788999E1,1.0439073E1,3.201267E-2,1.4104437E2,5.8566346E0,1E-45,-1.0103424E-1,-8.553798E-3,5.127894E-4,-2.387366E-2,3.594111E-2,-1.1594885E-2],"split_indices":[16,2,9,0,8,9,6,0,0,0,0,0,0],"split_type":[0,0,0,0,0,0,1,0,0,0,0,0,0],"sum_hessian":[1.1013953E3,9.233215E0,1.0921621E3,1.0423131E0,8.190902E0,8.011675E2,2.9099463E2,7.166351E0,1.0245509E0,6.553259E2,1.458415E2,1.5009398E2,1.4090067E2],"tree_param":{"num_deleted":"0","num_feature":"17","num_nodes":"13","size_leaf_vector":"1"}},{"base_weights":[-1.5006097E-3,1.9785793E-2,-2.5099167E-1,1.6028641E-1,-2.359283E-2,-7.0917666E-2,-5.606795E-1,4.681899E-3,9.9456884E-2,-7.785739E-2,-8.5763977E-4,1.9558046E-2,-4.6660077E-2,4.7450274E-2,-6.7569695E-2],"categories":[2,0,1,2,3,4],"categories_nodes":[3,6],"categories_segments":[0,1],"categories_sizes":[1,5],"default_left":[0,0,0,1,0,0,1,0,0,0,0,0,0,0,0],"id":35,"left_children":[1,3,5,7,9,11,13,-1,-1,-1,-1,-1,-1,-1,-1],"loss_changes":[5.855446E0,6.1957273E0,4.7937794E0,2.2653803E1,8.80399E0,5.991221E0,4.097725E0,0E0,0E0,0E0,0E0,0E0,0E0,0E0,0E0],"parents":[2147483647,0,0,1,1,2,2,3,3,4,4,5,5,6,6],"right_children":[2,4,6,8,10,12,14,-1,-1,-1,-1,-1,-1,-1,-1],"split_conditions":[1E0,2.39E2,9.745449E1,1E-45,2.8333334E1,1.1650439E1,1E-45,4.681899E-3,9.9456884E-2,-7.785739E-2,-8.5763977E-4,1.9558046E-2,-4.6660077E-2,4.7450274E-2,-6.7569695E-2],"split_indices":[15,16,8,14,0,3,5,0,0,0,0,0,0,0,0],"split_type":[0,0,0,1,0,0,1,0,0,0,0,0,0,0,0],"sum_hessian":[1.1006262E3,1.01495184E3,8.5674286E1,2.3879968E2,7.7615216E2,5.4950977E1,3.0723312E1,2.1113956E2,2.766013E1,1.4144823E1,7.620074E2,3.313787E1,2.1813107E1,2.759722E0,2.796359E1],"tree_param":{"num_deleted":"0","num_feature":"17","num_nodes":"15","size_leaf_vector":"1"}},{"base_weights":[-1.5331752E-3,1.4035998E-2,-3.411547E-1,6.3011567E-3,6.595205E-1,2.891184E-3,-6.08674E-1,-2.117536E-2,3.5353114E-3,1.8533842E-1,-1.4360242E-2,9.408534E-2,-1.9786665E-2,-6.905421E-2,2.2456614E-2],"categories":[],"categories_nodes":[],"categories_segments":[],"categories_sizes":[],"default_left":[0,1,0,0,1,0,0,0,0,0,0,0,0,0,0],"id":36,"left_children":[1,3,5,7,9,11,13,-1,-1,-1,-1,-1,-1,-1,-1],"loss_changes":[5.8229256E0,5.2534776E0,4.4445343E0,6.605937E0,1.2212799E1,4.349637E0,2.007821E0,0E0,0E0,0E0,0E0,0E0,0E0,0E0,0E0],"parents":[2147483647,0,0,1,1,2,2,3,3,4,4,5,5,6,6],"right_children":[2,4,6,8,10,12,14,-1,-1,-1,-1,-1,-1,-1,-1],"split_conditions":[2.805E1,1.22E2,4E1,8.107776E-1,3.0466084E1,1.4815171E1,7.339226E1,-2.117536E-2,3.5353114E-3,1.8533842E-1,-1.4360242E-2,9.408534E-2,-1.9786665E-2,-6.905421E-2,2.2456614E-2],"split_indices":[1,11,0,9,8,3,3,0,0,0,0,0,0,0,0],"split_type":[0,0,0,0,0,0,0,0,0,0,0,0,0,0,0],"sum_hessian":[1.0993306E3,1.0520599E3,4.727061E1,1.0406002E3,1.1459749E1,2.111047E1,2.6160141E1,1.216024E2,9.189978E2,4.082815E0,7.3769345E0,3.071867E0,1.8038603E1,2.397572E1,2.1844203E0],"tree_param":{"num_deleted":"0","num_feature":"17","num_nodes":"15","size_leaf_vector":"1"}},{"base_weights":[-1.3527201E-3,-7.340786E-1,5.1878155E-3,2.9593168E-2,-8.948107E-1,2.462886E-2,-2.2953124E-1,-9.917078E-2,-8.394135E-3,2.9668653E-2,-4.1219918E-4,-4.8172153E-3,-5.5539448E-2],"categories":[],"categories_nodes":[],"categories_segments":[],"categories_sizes":[],"default_left":[0,0,0,0,0,0,0,0,0,0,0,0,0],"id":37,"left_children":[1,3,5,-1,7,9,11,-1,-1,-1,-1,-1,-1],"loss_changes":[5.2750077E0,1.8770227E0,4.9848413E0,0E0,5.981407E-1,7.890412E0,4.9115906E0,0E0,0E0,0E0,0E0,0E0,0E0],"parents":[2147483647,0,0,1,1,2,2,4,4,5,5,6,6],"right_children":[2,4,6,-1,8,10,12,-1,-1,-1,-1,-1,-1],"split_conditions":[4E0,1.0788999E1,1E0,2.9593168E-2,1.4104437E2,8.9E1,9.745449E1,-9.917078E-2,-8.394135E-3,2.9668653E-2,-4.1219918E-4,-4.8172153E-3,-5.5539448E-2],"split_indices":[16,2,15,0,8,16,8,0,0,0,0,0,0],"split_type":[0,0,0,0,0,0,0,0,0,0,0,0,0],"sum_hessian":[1.0989036E3,8.738231E0,1.0901654E3,1.0659862E0,7.6722445E0,1.00760376E3,8.25616E1,6.6540785E0,1.018166E0,9.541462E1,9.1218915E2,5.377883E1,2.8782766E1],"tree_param":{"num_deleted":"0","num_feature":"17","num_nodes":"13","size_leaf_vector":"1"}},{"base_weights":[-1.3987101E-3,1.4616525E-2,-2.85882E-1,3.550167E-2,-2.2458681E-1,5.513501E-2,-5.6300396E-1,1.8924832E-2,-2.5168503E-5,2.2223936E-2,-5.076586E-2,3.782497E-2,-4.8740827E-2,-8.582094E-2,-1.7696142E-2],"categories":[3],"categories_nodes":[1],"categories_segments":[0],"categories_sizes":[1],"default_left":[0,1,0,0,0,0,0,0,0,0,0,0,0,0,0],"id":38,"left_children":[1,3,5,7,9,11,13,-1,-1,-1,-1,-1,-1,-1,-1],"loss_changes":[5.013691E0,5.2129803E0,5.5735154E0,5.2720594E0,1.0712096E1,4.9533033E0,3.5455742E0,0E0,0E0,0E0,0E0,0E0,0E0,0E0,0E0],"parents":[2147483647,0,0,1,1,2,2,3,3,4,4,5,5,6,6],"right_children":[2,4,6,8,10,12,14,-1,-1,-1,-1,-1,-1,-1,-1],"split_conditions":[2.6633333E1,1E-45,3.39E2,4E0,1.0512546E1,2.6E1,2.00001E0,1.8924832E-2,-2.5168503E-5,2.2223936E-2,-5.076586E-2,3.782497E-2,-4.8740827E-2,-8.582094E-2,-1.7696142E-2],"split_indices":[1,5,16,11,2,11,7,0,0,0,0,0,0,0,0],"split_type":[0,1,0,0,0,0,0,0,0,0,0,0,0,0,0],"sum_hessian":[1.0985258E3,1.0408772E3,5.764847E1,9.580779E2,8.27994E1,2.6203886E1,3.1444584E1,1.7995251E2,7.7812537E2,3.219492E1,5.0604477E1,1.6612839E1,9.591047E0,1.7125599E1,1.4318987E1],"tree_param":{"num_deleted":"0","num_feature":"17","num_nodes":"15","size_leaf_vector":"1"}},{"base_weights":[-1.5124845E-3,-7.1050084E-1,4.546669E-3,3.256187E-2,-8.7566066E-1,-5.2411057E-4,8.631763E-1,-9.749867E-2,-8.161589E-3,1.4264515E-3,-3.369273E-2,1.2989055E-1,-9.582057E-3],"categories":[],"categories_nodes":[],"categories_segments":[],"categories_sizes":[],"default_left":[0,0,1,0,0,1,0,0,0,0,0,0,0],"id":39,"left_children":[1,3,5,-1,7,9,11,-1,-1,-1,-1,-1,-1],"loss_changes":[4.722789E0,1.879314E0,4.7475824E0,0E0,5.755248E-1,5.4021664E0,2.7995443E0,0E0,0E0,0E0,0E0,0E0,0E0],"parents":[2147483647,0,0,1,1,2,2,4,4,5,5,6,6],"right_children":[2,4,6,-1,8,10,12,-1,-1,-1,-1,-1,-1],"split_conditions":[4E0,1.0247818E1,1.1054269E4,3.256187E-2,1.4104437E2,1.03380325E2,1.004E3,-9.749867E-2,-8.161589E-3,1.4264515E-3,-3.369273E-2,1.2989055E-1,-9.582057E-3],"split_indices":[16,2,9,0,8,9,16,0,0,0,0,0,0],"split_type":[0,0,0,0,0,0,0,0,0,0,0,0,0],"sum_hessian":[1.0976272E3,8.315881E0,1.0893114E3,1.0097488E0,7.306132E0,1.0839095E3,5.4018173E0,6.2912893E0,1.0148429E0,1.0391836E3,4.4725964E1,3.4705145E0,1.9313029E0],"tree_param":{"num_deleted":"0","num_feature":"17","num_nodes":"13","size_leaf_vector":"1"}},{"base_weights":[-1.4020845E-3,9.156438E-2,-4.6460886E-2,-2.3131184E-3,2.894502E-1,-5.5667862E-2,8.6178374E-1,-3.843379E-2,3.7006156E-3,-7.4104376E-2,3.3510786E-2,1.7375296E-2,-9.484212E-3,-3.9399236E-2,1.3332379E-1],"categories":[],"categories_nodes":[],"categories_segments":[],"categories_sizes":[],"default_left":[0,1,0,0,0,1,0,0,0,0,0,0,0,0,0],"id":40,"left_children":[1,3,5,7,9,11,13,-1,-1,-1,-1,-1,-1,-1,-1],"loss_changes":[4.606389E0,6.6696286E0,6.2413883E0,3.6864436E0,5.6833506E0,6.6145897E0,4.9616456E0,0E0,0E0,0E0,0E0,0E0,0E0,0E0,0E0],"parents":[2147483647,0,0,1,1,2,2,3,3,4,4,5,5,6,6],"right_children":[2,4,6,8,10,12,14,-1,-1,-1,-1,-1,-1,-1,-1],"split_conditions":[2.924864E0,2.8E1,1E0,5.2E1,1.0542823E1,3E0,4.120122E0,-3.843379E-2,3.7006156E-3,-7.4104376E-2,3.3510786E-2,1.7375296E-2,-9.484212E-3,-3.9399236E-2,1.3332379E-1],"split_indices":[3,11,4,0,8,11,3,0,0,0,0,0,0,0,0],"split_type":[0,0,0,0,0,0,0,0,0,0,0,0,0,0,0],"sum_hessian":[1.0976349E3,3.5798956E2,7.396453E2,2.4347348E2,1.14516075E2,7.33152E2,6.4933343E0,2.1901772E1,2.2157172E2,4.2123675E0,1.1030371E2,1.0642826E2,6.267237E2,1.8172282E0,4.6761065E0],"tree_param":{"num_deleted":"0","num_feature":"17","num_nodes":"15","size_leaf_vector":"1"}},{"base_weights":[-1.3615165E-3,3.6593366E-1,-1.2258044E-2,7.244437E-1,-1.536886E-1,-7.859619E-1,-5.902185E-3,1.3979441E-1,3.720374E-2,1.3199596E-1,-3.7545647E-2,-1.8260105E-2,-9.4598405E-2,5.870148E-3,-8.554118E-3],"categories":[1,2,1,2,3,4,5,1,3],"categories_nodes":[1,4,6],"categories_segments":[0,2,7],"categories_sizes":[2,5,2],"default_left":[0,1,0,0,1,0,1,0,0,0,0,0,0,0,0],"id":41,"left_children":[1,3,5,7,9,11,13,-1,-1,-1,-1,-1,-1,-1,-1],"loss_changes":[4.3981476E0,6.0097265E0,5.243067E0,3.9683123E0,4.989725E0,6.660385E-1,5.4558625E0,0E0,0E0,0E0,0E0,0E0,0E0,0E0,0E0],"parents":[2147483647,0,0,1,1,2,2,3,3,4,4,5,5,6,6],"right_children":[2,4,6,8,10,12,14,-1,-1,-1,-1,-1,-1,-1,-1],"split_conditions":[6.0457516E0,1E-45,4E0,3.53E2,1E-45,1.5591744E1,1E-45,1.3979441E-1,3.720374E-2,1.3199596E-1,-3.7545647E-2,-1.8260105E-2,-9.4598405E-2,5.870148E-3,-8.554118E-3],"split_indices":[2,6,16,16,5,2,5,0,0,0,0,0,0,0,0],"split_type":[0,1,0,0,1,0,1,0,0,0,0,0,0,0,0],"sum_hessian":[1.0968002E3,3.0662432E1,1.0661378E3,1.7910809E1,1.2751621E1,7.6873794E0,1.0584504E3,5.133356E0,1.2777453E1,1.0202262E0,1.1731396E1,2.0602689E0,5.627111E0,5.8453485E2,4.7391553E2],"tree_param":{"num_deleted":"0","num_feature":"17","num_nodes":"15","size_leaf_vector":"1"}},{"base_weights":[-1.1526424E-3,9.820582E-2,-4.076127E-2,5.664443E-1,2.4221065E-2,-7.9543483E-1,-2.4374798E-2,9.0668015E-2,-5.0932225E-2,-1.6819398E-4,1.5824196E-1,3.416085E-2,-9.063125E-2,1.0475036E-1,-3.3761996E-3],"categories":[0],"categories_nodes":[0],"categories_segments":[0],"categories_sizes":[1],"default_left":[1,0,0,0,0,0,0,0,0,0,0,0,0,0,0],"id":42,"left_children":[1,3,5,7,9,11,13,-1,-1,-1,-1,-1,-1,-1,-1],"loss_changes":[4.321397E0,1.0828579E1,9.689189E0,1.6075996E1,1.0953552E1,2.4090548E0,7.7772393E0,0E0,0E0,0E0,0E0,0E0,0E0,0E0,0E0],"parents":[2147483647,0,0,1,1,2,2,3,3,4,4,5,5,6,6],"right_children":[2,4,6,8,10,12,14,-1,-1,-1,-1,-1,-1,-1,-1],"split_conditions":[1E-45,6.6E1,2.8333334E1,1E0,1.162E3,4.3333335E0,2.9666666E1,9.0668015E-2,-5.0932225E-2,-1.6819398E-4,1.5824196E-1,3.416085E-2,-9.063125E-2,1.0475036E-1,-3.3761996E-3],"split_indices":[14,16,0,15,16,0,0,0,0,0,0,0,0,0,0],"split_type":[1,0,0,0,0,0,0,0,0,0,0,0,0,0,0],"sum_hessian":[1.0960515E3,3.1197675E2,7.8407477E2,4.1660084E1,2.7031665E2,1.5652699E1,7.684221E2,3.1769444E1,9.890638E0,2.6687906E2,3.4375937E0,1.2058487E0,1.4446851E1,5.7110972E0,7.62711E2],"tree_param":{"num_deleted":"0","num_feature":"17","num_nodes":"15","size_leaf_vector":"1"}},{"base_weights":[-9.921768E-4,-7.48493E-3,6.0692877E-1,-2.1281604E-1,1.952772E-2,1.4428792E0,-4.3648693E-1,1.0099935E-1,-2.5804345E-2,3.2297254E-2,-4.0294943E-4,1.9622856E-1,-2.320215E-2,-6.942867E-2,4.1459996E-2],"categories":[],"categories_nodes":[],"categories_segments":[],"categories_sizes":[],"default_left":[1,0,1,0,0,0,0,0,0,0,0,0,0,0,0],"id":43,"left_children":[1,3,5,7,9,11,13,-1,-1,-1,-1,-1,-1,-1,-1],"loss_changes":[4.3301783E0,6.0238924E0,1.0741783E1,7.243611E0,6.864041E0,6.256735E0,1.5877235E0,0E0,0E0,0E0,0E0,0E0,0E0,0E0,0E0],"parents":[2147483647,0,0,1,1,2,2,3,3,4,4,5,5,6,6],"right_children":[2,4,6,8,10,12,14,-1,-1,-1,-1,-1,-1,-1,-1],"split_conditions":[1.28E2,8.107776E-1,7.1061806E1,5.6666666E-1,1.1787807E0,1.4733334E1,1.9833334E1,1.0099935E-1,-2.5804345E-2,3.2297254E-2,-4.0294943E-4,1.9622856E-1,-2.320215E-2,-6.942867E-2,4.1459996E-2],"split_indices":[11,9,8,1,9,1,1,0,0,0,0,0,0,0,0],"split_type":[0,0,0,0,0,0,0,0,0,0,0,0,0,0,0],"sum_hessian":[1.0949075E3,1.0843143E3,1.0593072E1,1.252644E2,9.5905E2,5.668674E0,4.924398E0,3.7070026E0,1.2155739E2,6.8174286E1,8.908757E2,4.1958942E0,1.4727796E0,3.9209516E0,1.0034463E0],"tree_param":{"num_deleted":"0","num_feature":"17","num_nodes":"15","size_leaf_vector":"1"}},{"base_weights":[-7.957321E-4,1.1824091E-2,-2.950916E-1,2.1310212E-2,-4.332086E-1,3.7309606E-2,-5.675355E-1,1.3339662E-3,6.0884554E-2,5.2862953E-2,-7.431408E-2,5.7681687E-2,-3.0658385E-2,-6.539719E-2,2.3097409E-2],"categories":[0,0,1,3,5],"categories_nodes":[4,5],"categories_segments":[0,1],"categories_sizes":[1,4],"default_left":[0,0,0,0,1,1,0,0,0,0,0,0,0,0,0],"id":44,"left_children":[1,3,5,7,9,11,13,-1,-1,-1,-1,-1,-1,-1,-1],"loss_changes":[4.0727396E0,4.4485874E0,4.104577E0,4.8180585E0,6.949338E0,4.119153E0,1.8656273E0,0E0,0E0,0E0,0E0,0E0,0E0,0E0,0E0],"parents":[2147483647,0,0,1,1,2,2,3,3,4,4,5,5,6,6],"right_children":[2,4,6,8,10,12,14,-1,-1,-1,-1,-1,-1,-1,-1],"split_conditions":[2.805E1,6.1299847E1,4E1,5.8949028E1,1E-45,1E-45,7.339226E1,1.3339662E-3,6.0884554E-2,5.2862953E-2,-7.431408E-2,5.7681687E-2,-3.0658385E-2,-6.539719E-2,2.3097409E-2],"split_indices":[1,2,0,2,14,5,3,0,0,0,0,0,0,0,0],"split_type":[0,0,0,0,1,1,0,0,0,0,0,0,0,0,0],"sum_hessian":[1.094663E3,1.0505728E3,4.4090225E1,1.0295789E3,2.0993933E1,2.0248568E1,2.3841656E1,1.01680743E3,1.2771386E1,4.9442873E0,1.6049644E1,7.61877E0,1.2629798E1,2.1676271E1,2.1653843E0],"tree_param":{"num_deleted":"0","num_feature":"17","num_nodes":"15","size_leaf_vector":"1"}},{"base_weights":[-8.0445386E-4,5.3016804E-2,-7.019123E-2,-8.359868E-3,2.962498E-1,7.2187796E-2,-2.0126235E-1,1.3398302E-2,-1.4606267E-2,4.1886136E-2,-2.0500777E-2,1.5893152E-2,-1.9755384E-2,-1.573089E-2,-7.79747E-2],"categories":[],"categories_nodes":[],"categories_segments":[],"categories_sizes":[],"default_left":[1,0,0,1,1,0,0,0,0,0,0,0,0,0,0],"id":45,"left_children":[1,3,5,7,9,11,13,-1,-1,-1,-1,-1,-1,-1,-1],"loss_changes":[4.0940695E0,9.219573E0,8.951452E0,9.701938E0,7.7333097E0,5.4195533E0,6.2240286E0,0E0,0E0,0E0,0E0,0E0,0E0,0E0,0E0],"parents":[2147483647,0,0,1,1,2,2,3,3,4,4,5,5,6,6],"right_children":[2,4,6,8,10,12,14,-1,-1,-1,-1,-1,-1,-1,-1],"split_conditions":[8.549789E1,9.867553E0,2.0110535E1,1E0,1.03380325E2,1.5150108E2,1E0,1.3398302E-2,-1.4606267E-2,4.1886136E-2,-2.0500777E-2,1.5893152E-2,-1.9755384E-2,-1.573089E-2,-7.79747E-2],"split_indices":[8,9,2,7,9,8,15,0,0,0,0,0,0,0,0],"split_type":[0,0,0,0,0,0,0,0,0,0,0,0,0,0,0],"sum_hessian":[1.0942915E3,6.1640234E2,4.778891E2,4.9297275E2,1.2342961E2,2.2927888E2,2.486102E2,2.4241562E2,2.5055713E2,9.930356E1,2.4126059E1,1.7379921E2,5.5479683E1,2.3223671E2,1.6373497E1],"tree_param":{"num_deleted":"0","num_feature":"17","num_nodes":"15","size_leaf_vector":"1"}},{"base_weights":[-9.6010586E-4,1.635203E-2,-2.1093845E-1,5.09534E-2,-1.0291577E-1,1.9043992E-1,-4.7410184E-1,2.2992425E-2,2.3515245E-3,-1.7989844E-2,2.4723781E-2,-2.5906875E-3,1.4064953E-1,7.3254436E-2,-5.4627102E-2],"categories":[3,1,3,4,5],"categories_nodes":[0,3],"categories_segments":[0,1],"categories_sizes":[1,4],"default_left":[1,0,0,1,1,0,0,0,0,0,0,0,0,0,0],"id":46,"left_children":[1,3,5,7,9,11,13,-1,-1,-1,-1,-1,-1,-1,-1],"loss_changes":[3.9818048E0,4.1814957E0,8.902845E0,3.8498125E0,6.1876817E0,8.916328E0,4.813319E0,0E0,0E0,0E0,0E0,0E0,0E0,0E0,0E0],"parents":[2147483647,0,0,1,1,2,2,3,3,4,4,5,5,6,6],"right_children":[2,4,6,8,10,12,14,-1,-1,-1,-1,-1,-1,-1,-1],"split_conditions":[1E-45,3.678067E1,1.0512546E1,1E-45,1.3090516E1,9.819496E0,8.5E-1,2.2992425E-2,2.3515245E-3,-1.7989844E-2,2.4723781E-2,-2.5906875E-3,1.4064953E-1,7.3254436E-2,-5.4627102E-2],"split_indices":[5,2,2,5,9,2,1,0,0,0,0,0,0,0,0],"split_type":[1,0,0,1,0,0,0,0,0,0,0,0,0,0,0],"sum_hessian":[1.0934059E3,1.0109759E3,8.243005E1,7.840764E2,2.2689949E2,3.2752335E1,4.9677715E1,1.0324706E2,6.8082935E2,1.8640404E2,4.049545E1,2.8636374E1,4.1159635E0,2.287137E0,4.739058E1],"tree_param":{"num_deleted":"0","num_feature":"17","num_nodes":"15","size_leaf_vector":"1"}},{"base_weights":[-8.2689966E-4,-6.584522E-1,4.279155E-3,6.359033E-2,-9.2815176E-2,4.0659097E-1,-4.884191E-3,-2.6255554E-2,3.8640637E-2,8.416885E-2,-2.5925267E-2,3.574023E-3,-1.0675097E-2],"categories":[],"categories_nodes":[],"categories_segments":[],"categories_sizes":[],"default_left":[0,0,0,0,0,0,1,0,0,0,0,0,0],"id":47,"left_children":[1,3,5,7,-1,9,11,-1,-1,-1,-1,-1,-1],"loss_changes":[3.675837E0,1.7014368E0,4.0070963E0,4.414713E-1,0E0,7.230825E0,4.4036903E0,0E0,0E0,0E0,0E0,0E0,0E0],"parents":[2147483647,0,0,1,1,2,2,3,3,5,5,6,6],"right_children":[2,4,6,8,-1,10,12,-1,-1,-1,-1,-1,-1],"split_conditions":[4E0,1.5591744E1,1.9E1,6E0,-9.2815176E-2,2.7754484E1,1.19121704E2,-2.6255554E-2,3.8640637E-2,8.416885E-2,-2.5925267E-2,3.574023E-3,-1.0675097E-2],"split_indices":[16,2,16,11,0,2,8,0,0,0,0,0,0],"split_type":[0,0,0,0,0,0,0,0,0,0,0,0,0],"sum_hessian":[1.0928538E3,7.4341207E0,1.0854197E3,2.2294993E0,5.2046213E0,2.320589E1,1.0622137E3,1.2018865E0,1.0276127E0,1.3875083E1,9.330808E0,7.5983936E2,3.0237442E2],"tree_param":{"num_deleted":"0","num_feature":"17","num_nodes":"13","size_leaf_vector":"1"}},{"base_weights":[-8.3315896E-4,-5.246855E-3,7.463829E-1,-1.7773329E-1,1.7718984E-2,1.3454069E0,-6.730638E-2,1.7257881E-3,-4.6114188E-2,4.3527693E-3,-1.965852E-2,-2.6973143E-2,2.0964134E-1],"categories":[],"categories_nodes":[],"categories_segments":[],"categories_sizes":[],"default_left":[1,0,1,0,0,0,0,0,0,0,0,0,0],"id":48,"left_children":[1,3,5,7,9,11,-1,-1,-1,-1,-1,-1,-1],"loss_changes":[3.610517E0,4.3136277E0,6.3717136E0,7.0787096E0,5.324869E0,6.4535894E0,0E0,0E0,0E0,0E0,0E0,0E0,0E0],"parents":[2147483647,0,0,1,1,2,2,3,3,4,4,5,5],"right_children":[2,4,6,8,10,12,-1,-1,-1,-1,-1,-1,-1],"split_conditions":[1.54E2,8.107776E-1,1.0038173E2,9.35E0,4.189916E1,2.5459778E1,-6.730638E-2,1.7257881E-3,-4.6114188E-2,4.3527693E-3,-1.965852E-2,-2.6973143E-2,2.0964134E-1],"split_indices":[11,9,8,1,3,8,0,0,0,0,0,0,0],"split_type":[0,0,0,0,0,0,0,0,0,0,0,0,0],"sum_hessian":[1.0925773E3,1.0871487E3,5.4286494E0,1.2694922E2,9.601994E2,3.8542638E0,1.5743858E0,7.576226E1,5.1186954E1,8.577029E2,1.024965E2,1.4267309E0,2.427533E0],"tree_param":{"num_deleted":"0","num_feature":"17","num_nodes":"13","size_leaf_vector":"1"}},{"base_weights":[-8.002615E-4,2.2314346E-1,-1.4957526E-2,1.2649651E-1,8.305593E-1,5.5568186E-3,-2.9227266E-1,3.5355564E-2,-1.7065967E-2,-2.0699158E-2,1.4155705E-1,-6.3853455E-5,8.4301084E-2,8.7035E-2,-3.7450474E-2],"categories":[3,1,2],"categories_nodes":[2,3],"categories_segments":[0,1],"categories_sizes":[1,2],"default_left":[0,0,1,1,0,0,0,0,0,0,0,0,0,0,0],"id":49,"left_children":[1,3,5,7,9,11,13,-1,-1,-1,-1,-1,-1,-1,-1],"loss_changes":[3.469406E0,3.7146513E0,5.856578E0,3.927454E0,5.6053004E0,4.977562E0,7.1051197E0,0E0,0E0,0E0,0E0,0E0,0E0,0E0,0E0],"parents":[2147483647,0,0,1,1,2,2,3,3,4,4,5,5,6,6],"right_children":[2,4,6,8,10,12,14,-1,-1,-1,-1,-1,-1,-1,-1],"split_conditions":[7.0833335E0,6.820089E0,1E-45,1E-45,5.38E2,1E0,8.5E-1,3.5355564E-2,-1.7065967E-2,-2.0699158E-2,1.4155705E-1,-6.3853455E-5,8.4301084E-2,8.7035E-2,-3.7450474E-2],"split_indices":[2,2,5,6,16,4,1,0,0,0,0,0,0,0,0],"split_type":[0,0,1,1,0,0,0,0,0,0,0,0,0,0,0],"sum_hessian":[1.0922487E3,6.4066376E1,1.0281823E3,5.6314358E1,7.752016E0,9.5827405E2,6.990821E1,3.1814713E1,2.4499645E1,3.027949E0,4.724067E0,9.522288E2,6.0452013E0,3.9848652E0,6.592335E1],"tree_param":{"num_deleted":"0","num_feature":"17","num_nodes":"15","size_leaf_vector":"1"}}]},"name":"gbtree"},"learner_model_param":{"base_score":"[8.378846E-2]","boost_from_average":"1","num_class":"0","num_feature":"17","num_target":"1"},"objective":{"name":"binary:logistic","reg_loss_param":{"scale_pos_weight":"1"}}},"version":[3,2,0]}