{"learner":{"attributes":{"scikit_learn":"{\"_estimator_type\": \"classifier\"}"},"feature_names":["x_adj","y_adj","distance","angle","behind_the_net","shot_type","prev_type","prev_event_same_team","dist_from_prev_event","speed_from_prev_event","crossed_royal_road","time_from_prev_event","home_team_shot","period","game_state","goalie_pulled","time_remaining"],"feature_types":["float","float","float","float","i","c","c","i","float","float","i","float","i","int","c","i","int"],"gradient_booster":{"model":{"cats":{"enc":[{"offsets":[],"values":[]},{"offsets":[],"values":[]},{"offsets":[],"values":[]},{"offsets":[],"values":[]},{"offsets":[],"values":[]},{"offsets":[0,1,2,3,4,5,6],"values":[49,50,51,52,53,54]},{"offsets":[0,12,19,22,29,33],"values":[98,108,111,99,107,101,100,95,115,104,111,116,102,97,99,101,111,102,102,104,105,116,112,101,110,97,108,116,121,115,104,111,116]},{"offsets":[],"values":[]},{"offsets":[],"values":[]},{"offsets":[],"values":[]},{"offsets":[],"values":[]},{"offsets":[],"values":[]},{"offsets":[],"values":[]},{"offsets":[],"values":[]},{"offsets":[0,2,4,6],"values":[101,118,112,112,115,104]},{"offsets":[],"values":[]},{"offsets":[],"values":[]}],"feature_segments":[0,0,0,0,0,0,6,11,11,11,11,11,11,11,11,14,14,14],"sorted_idx":[0,1,2,3,4,5,0,1,2,3,4,0,1,2]},"gbtree_model_param":{"num_parallel_tree":"1","num_trees":"50"},"iteration_indptr":[0,1,2,3,4,5,6,7,8,9,10,11,12,13,14,15,16,17,18,19,20,21,22,23,24,25,26,27,28,29,30,31,32,33,34,35,36,37,38,39,40,41,42,43,44,45,46,47,48,49,50],"tree_info":[0,0,0,0,0,0,0,0,0,0,0,0,0,0,0,0,0,0,0,0,0,0,0,0,0,0,0,0,0,0,0,0,0,0,0,0,0,0,0,0,0,0,0,0,0,0,0,0,0,0],"trees":[{"base_weights":[1.16749455E-8,7.377735E-1,-4.0070724E-1,2.0987422E0,4.888237E-1,-4.5891193E-1,1.2275765E0,2.5702357E-1,3.2505438E-2,9.2100166E-2,4.9910415E-3,-1.9629994E-2,-7.307309E-2,3.771921E-1,-4.7628563E-2],"categories":[2],"categories_nodes":[2],"categories_segments":[0],"categories_sizes":[1],"default_left":[0,1,1,1,0,0,0,0,0,0,0,0,0,0,0],"id":0,"left_children":[1,3,5,7,9,11,13,-1,-1,-1,-1,-1,-1,-1,-1],"loss_changes":[3.3894476E2,1.356966E2,7.097814E1,5.109503E1,6.491049E1,5.111409E1,1.1413931E2,0E0,0E0,0E0,0E0,0E0,0E0,0E0,0E0],"parents":[2147483647,0,0,1,1,2,2,3,3,4,4,5,5,6,6],"right_children":[2,4,6,8,10,12,14,-1,-1,-1,-1,-1,-1,-1,-1],"split_conditions":[2.137041E1,3E0,1E-45,1.2376007E2,6.516667E0,1.87E1,3.08E2,2.5702357E-1,3.2505438E-2,9.2100166E-2,4.9910415E-3,-1.9629994E-2,-7.307309E-2,3.771921E-1,-4.7628563E-2],"split_indices":[2,11,14,8,1,1,16,0,0,0,0,0,0,0,0],"split_type":[0,0,1,0,0,0,0,0,0,0,0,0,0,0,0],"sum_hessian":[1.1445122E3,4.0253406E2,7.4197815E2,6.1096867E1,3.414372E2,7.1706415E2,2.491403E1,4.79116E1,1.3185271E1,1.7148518E2,1.6995201E2,3.6558466E2,3.5147946E2,9.505661E0,1.5408369E1],"tree_param":{"num_deleted":"0","num_feature":"17","num_nodes":"15","size_leaf_vector":"1"}},{"base_weights":[-2.4791707E-3,6.2040603E-1,-3.7439987E-1,2.9112146E0,5.320621E-1,1.8951933E-1,-5.2409947E-1,3.3622146E-1,9.757507E-2,1.4100777E-1,3.520868E-2,1.1264886E-2,2.2580786E-1,-3.2802466E-2,-8.309894E-2],"categories":[0,2,3,5],"categories_nodes":[2,3],"categories_segments":[0,1],"categories_sizes":[1,3],"default_left":[0,0,1,1,1,0,0,0,0,0,0,0,0,0,0],"id":1,"left_children":[1,3,5,7,9,11,13,-1,-1,-1,-1,-1,-1,-1,-1],"loss_changes":[2.6598962E2,8.532411E1,6.078846E1,1.0437592E1,6.501017E1,2.3842747E1,3.3927826E1,0E0,0E0,0E0,0E0,0E0,0E0,0E0,0E0],"parents":[2147483647,0,0,1,1,2,2,3,3,4,4,5,5,6,6],"right_children":[2,4,6,8,10,12,14,-1,-1,-1,-1,-1,-1,-1,-1],"split_conditions":[2.137041E1,6.009252E0,1E-45,1E-45,3E0,6.926679E1,2.1533333E1,3.3622146E-1,9.757507E-2,1.4100777E-1,3.520868E-2,1.1264886E-2,2.2580786E-1,-3.2802466E-2,-8.309894E-2],"split_indices":[2,2,14,5,11,2,1,0,0,0,0,0,0,0,0],"split_type":[0,0,1,1,0,0,0,0,0,0,0,0,0,0,0],"sum_hessian":[1.1461676E3,4.282594E2,7.179082E2,1.4715846E1,4.1354358E2,1.5054361E2,5.673646E2,1.1336955E1,3.3788905E0,6.9185425E1,3.4435815E2,1.4616632E2,4.3772807E0,3.4744662E2,2.19918E2],"tree_param":{"num_deleted":"0","num_feature":"17","num_nodes":"15","size_leaf_vector":"1"}},{"base_weights":[-3.5060165E-3,3.8048553E-1,-5.056406E-1,-2.075004E-1,5.9363544E-1,-5.6287366E-1,7.5791484E-1,4.3712076E-2,-3.9256033E-2,2.1168141E-1,5.2803576E-2,-3.7304144E-2,-7.3631726E-2,2.3477073E-1,-6.777292E-2],"categories":[2,0],"categories_nodes":[2,3],"categories_segments":[0,1],"categories_sizes":[1,1],"default_left":[0,0,1,1,0,0,0,0,0,0,0,0,0,0,0],"id":2,"left_children":[1,3,5,7,9,11,13,-1,-1,-1,-1,-1,-1,-1,-1],"loss_changes":[2.2131903E2,8.164185E1,3.6396713E1,2.0904325E1,4.6608124E1,1.5411346E1,5.1756565E1,0E0,0E0,0E0,0E0,0E0,0E0,0E0,0E0],"parents":[2147483647,0,0,1,1,2,2,3,3,4,4,5,5,6,6],"right_children":[2,4,6,8,10,12,14,-1,-1,-1,-1,-1,-1,-1,-1],"split_conditions":[1.3316667E1,6.2E1,1E-45,1E-45,6.009252E0,2.1533333E1,3.22E2,4.3712076E-2,-3.9256033E-2,2.1168141E-1,5.2803576E-2,-3.7304144E-2,-7.3631726E-2,2.3477073E-1,-6.777292E-2],"split_indices":[1,0,14,14,2,1,16,0,0,0,0,0,0,0,0],"split_type":[0,0,1,1,0,0,0,0,0,0,0,0,0,0,0],"sum_hessian":[1.1458306E3,6.4943665E2,4.963939E2,1.7279591E2,4.7664075E2,4.754144E2,2.0979485E1,3.8238228E1,1.345577E2,1.8389137E1,4.5825162E2,2.2848769E2,2.4692671E2,9.653816E0,1.1325668E1],"tree_param":{"num_deleted":"0","num_feature":"17","num_nodes":"15","size_leaf_vector":"1"}},{"base_weights":[-4.5207175E-3,3.1934267E-1,-4.9669564E-1,-2.011829E-1,5.009166E-1,-3.92104E-2,-6.294977E-1,3.7714783E-2,-3.7908074E-2,1.107378E-1,3.701696E-2,9.002819E-2,-2.4027862E-2,-4.684657E-2,-8.289214E-2],"categories":[0,0],"categories_nodes":[2,3],"categories_segments":[0,1],"categories_sizes":[1,1],"default_left":[0,0,1,1,1,0,0,0,0,0,0,0,0,0,0],"id":3,"left_children":[1,3,5,7,9,11,13,-1,-1,-1,-1,-1,-1,-1,-1],"loss_changes":[1.8281871E2,6.548141E1,2.7630043E1,1.8622198E1,4.027887E1,1.976261E1,1.0938492E1,0E0,0E0,0E0,0E0,0E0,0E0,0E0,0E0],"parents":[2147483647,0,0,1,1,2,2,3,3,4,4,5,5,6,6],"right_children":[2,4,6,8,10,12,14,-1,-1,-1,-1,-1,-1,-1,-1],"split_conditions":[1.4166667E1,6.2E1,1E-45,1E-45,3E0,1.09E2,2.4083334E1,3.7714783E-2,-3.7908074E-2,1.107378E-1,3.701696E-2,9.002819E-2,-2.4027862E-2,-4.684657E-2,-8.289214E-2],"split_indices":[1,0,14,14,11,16,1,0,0,0,0,0,0,0,0],"split_type":[0,0,1,1,0,0,0,0,0,0,0,0,0,0,0],"sum_hessian":[1.1449412E3,6.90757E2,4.541842E2,1.7861267E2,5.1214435E2,1.0247318E2,3.5171103E2,4.1753983E1,1.3685869E2,8.950619E1,4.2263815E2,1.7451847E1,8.502133E1,1.9643858E2,1.5527245E2],"tree_param":{"num_deleted":"0","num_feature":"17","num_nodes":"15","size_leaf_vector":"1"}},{"base_weights":[-5.292319E-3,2.7944094E-1,-4.6815476E-1,4.212143E-1,-2.3176447E-1,-3.5544347E-2,-6.00172E-1,1.2366485E-1,3.467857E-2,-3.0466963E-2,1.4135197E-1,7.587326E-2,-2.2112148E-2,-6.1554957E-2,1.4047663E-1],"categories":[0,2],"categories_nodes":[2,4],"categories_segments":[0,1],"categories_sizes":[1,1],"default_left":[0,0,1,0,1,0,0,0,0,0,0,0,0,0,0],"id":4,"left_children":[1,3,5,7,9,11,13,-1,-1,-1,-1,-1,-1,-1,-1],"loss_changes":[1.5097496E2,5.1501656E1,2.4896454E1,3.3292877E1,1.8979511E1,1.5360952E1,1.1169174E1,0E0,0E0,0E0,0E0,0E0,0E0,0E0,0E0],"parents":[2147483647,0,0,1,1,2,2,3,3,4,4,5,5,6,6],"right_children":[2,4,6,8,10,12,14,-1,-1,-1,-1,-1,-1,-1,-1],"split_conditions":[1.4166667E1,3.1E1,1E-45,7.058663E0,1E-45,1.09E2,1E0,1.2366485E-1,3.467857E-2,-3.0466963E-2,1.4135197E-1,7.587326E-2,-2.2112148E-2,-6.1554957E-2,1.4047663E-1],"split_indices":[1,2,14,2,14,16,4,0,0,0,0,0,0,0,0],"split_type":[0,0,1,0,1,0,0,0,0,0,0,0,0,0,0],"sum_hessian":[1.1435593E3,7.082626E2,4.3529672E2,5.546239E2,1.5363867E2,1.0207474E2,3.33222E2,4.508299E1,5.0954095E2,1.4789981E2,5.738852E0,1.8747263E1,8.332748E1,3.3137335E2,1.84861E0],"tree_param":{"num_deleted":"0","num_feature":"17","num_nodes":"15","size_leaf_vector":"1"}},{"base_weights":[-5.4855556E-3,2.3183405E-1,-4.6543E-1,3.517481E-1,-2.7551386E-1,-5.1890683E-1,5.12717E-1,8.590171E-2,2.4446508E-2,-3.388956E-2,1.02741934E-1,-4.0184908E-2,-7.91676E-2,1.5900283E-1,-9.650987E-2],"categories":[2,2],"categories_nodes":[2,4],"categories_segments":[0,1],"categories_sizes":[1,1],"default_left":[0,0,1,1,1,0,0,0,0,0,0,0,0,0,0],"id":5,"left_children":[1,3,5,7,9,11,13,-1,-1,-1,-1,-1,-1,-1,-1],"loss_changes":[1.2481554E2,4.5987392E1,2.0623863E1,3.3016563E1,1.230291E1,1.1480293E1,3.4454723E1,0E0,0E0,0E0,0E0,0E0,0E0,0E0,0E0],"parents":[2147483647,0,0,1,1,2,2,3,3,4,4,5,5,6,6],"right_children":[2,4,6,8,10,12,14,-1,-1,-1,-1,-1,-1,-1,-1],"split_conditions":[1.5016666E1,3.3391766E1,1E-45,3E0,1E-45,2.7766666E1,3.55E2,8.590171E-2,2.4446508E-2,-3.388956E-2,1.02741934E-1,-4.0184908E-2,-7.91676E-2,1.5900283E-1,-9.650987E-2],"split_indices":[1,2,14,11,14,1,16,0,0,0,0,0,0,0,0],"split_type":[0,0,1,0,1,0,0,0,0,0,0,0,0,0,0],"sum_hessian":[1.1414943E3,7.533044E2,3.881899E2,6.095428E2,1.4376161E2,3.6851227E2,1.9677635E1,1.0518536E2,5.0435742E2,1.3779826E2,5.9633546E0,2.5958548E2,1.089268E2,1.13370905E1,8.340545E0],"tree_param":{"num_deleted":"0","num_feature":"17","num_nodes":"15","size_leaf_vector":"1"}},{"base_weights":[-5.8088317E-3,2.1764077E-1,-4.141958E-1,6.244777E-1,1.0257055E-1,-1.0345121E-2,-5.461652E-1,1.8161945E-1,4.822212E-2,2.3963727E-2,-3.241646E-2,5.7595838E-2,-2.3309218E-2,-3.7961394E-2,-7.6615945E-2],"categories":[0,0],"categories_nodes":[1,2],"categories_segments":[0,1],"categories_sizes":[1,1],"default_left":[0,1,1,0,0,0,0,0,0,0,0,0,0,0,0],"id":6,"left_children":[1,3,5,7,9,11,13,-1,-1,-1,-1,-1,-1,-1,-1],"loss_changes":[1.04127045E2,3.446403E1,2.1501137E1,2.665881E1,3.377611E1,1.3247242E1,1.0852493E1,0E0,0E0,0E0,0E0,0E0,0E0,0E0,0E0],"parents":[2147483647,0,0,1,1,2,2,3,3,4,4,5,5,6,6],"right_children":[2,4,6,8,10,12,14,-1,-1,-1,-1,-1,-1,-1,-1],"split_conditions":[1.4166667E1,1E-45,1E-45,5.7E1,2.7061022E1,4.5333332E1,2.4083334E1,1.8161945E-1,4.822212E-2,2.3963727E-2,-3.241646E-2,5.7595838E-2,-2.3309218E-2,-3.7961394E-2,-7.6615945E-2],"split_indices":[1,14,14,16,2,0,1,0,0,0,0,0,0,0,0],"split_type":[0,1,1,0,0,0,0,0,0,0,0,0,0,0,0],"sum_hessian":[1.1390817E3,7.365462E2,4.025354E2,1.6141785E2,5.7512836E2,9.940776E1,3.0312766E2,1.5958942E1,1.454589E2,4.356399E2,1.3948848E2,2.6932278E1,7.247548E1,1.740699E2,1.2905774E2],"tree_param":{"num_deleted":"0","num_feature":"17","num_nodes":"15","size_leaf_vector":"1"}},{"base_weights":[-5.982283E-3,1.8189566E-1,-4.1234806E-1,2.6729476E-1,-3.23257E-1,2.0448925E-1,-4.877103E-1,6.331307E-2,1.6759487E-2,-3.9814796E-2,9.1117956E-2,-9.9786315E-3,1.6690688E-1,-5.0585754E-2,1.6157225E-1],"categories":[0,2,2],"categories_nodes":[3,4,5],"categories_segments":[0,1,2],"categories_sizes":[1,1,1],"default_left":[0,0,0,1,1,1,0,0,0,0,0,0,0,0,0],"id":7,"left_children":[1,3,5,7,9,11,13,-1,-1,-1,-1,-1,-1,-1,-1],"loss_changes":[8.695314E1,3.368593E1,1.683847E1,2.4213669E1,1.0817022E1,1.7950848E1,1.3076912E1,0E0,0E0,0E0,0E0,0E0,0E0,0E0,0E0],"parents":[2147483647,0,0,1,1,2,2,3,3,4,4,5,5,6,6],"right_children":[2,4,6,8,10,12,14,-1,-1,-1,-1,-1,-1,-1,-1],"split_conditions":[1.5016666E1,3.692118E1,9.5E1,1E-45,1E-45,1E-45,1E0,6.331307E-2,1.6759487E-2,-3.9814796E-2,9.1117956E-2,-9.9786315E-3,1.6690688E-1,-5.0585754E-2,1.6157225E-1],"split_indices":[1,2,16,14,14,14,4,0,0,0,0,0,0,0,0],"split_type":[0,0,0,1,1,1,0,0,0,0,0,0,0,0,0],"sum_hessian":[1.1369353E3,7.778561E2,3.5907928E2,6.6577386E2,1.1208222E2,3.89077E1,3.2017157E2,1.4143736E2,5.243365E2,1.0631006E2,5.7721643E0,3.2986427E1,5.92127E0,3.1818597E2,1.9856203E0],"tree_param":{"num_deleted":"0","num_feature":"17","num_nodes":"15","size_leaf_vector":"1"}},{"base_weights":[-5.7388106E-3,2.620734E-1,-2.5154102E-1,3.7284094E-1,-1.6425197E-1,1.6458118E-1,-3.859684E-1,1.6800036E-1,3.4101434E-2,-5.5775788E-2,2.2696482E-3,8.3452664E-2,1.7591252E-3,-2.6571453E-2,-7.256423E-2],"categories":[0],"categories_nodes":[2],"categories_segments":[0],"categories_sizes":[1],"default_left":[0,0,1,0,0,0,0,0,0,0,0,0,0,0,0],"id":8,"left_children":[1,3,5,7,9,11,13,-1,-1,-1,-1,-1,-1,-1,-1],"loss_changes":[7.480277E1,2.5742245E1,3.3206738E1,1.7398327E1,8.314499E0,1.4300728E1,1.8111832E1,0E0,0E0,0E0,0E0,0E0,0E0,0E0,0E0],"parents":[2147483647,0,0,1,1,2,2,3,3,4,4,5,5,6,6],"right_children":[2,4,6,8,10,12,14,-1,-1,-1,-1,-1,-1,-1,-1],"split_conditions":[8.783334E0,2.7061022E1,1E-45,4.8166666E0,2E0,9E1,2.4083334E1,1.6800036E-1,3.4101434E-2,-5.5775788E-2,2.2696482E-3,8.3452664E-2,1.7591252E-3,-2.6571453E-2,-7.256423E-2],"split_indices":[1,2,14,2,13,16,1,0,0,0,0,0,0,0,0],"split_type":[0,0,1,0,0,0,0,0,0,0,0,0,0,0,0],"sum_hessian":[1.1343208E3,5.428241E2,5.914967E2,4.3097418E2,1.1184992E2,1.4437065E2,4.4712607E2,9.012969E0,4.219612E2,3.538497E1,7.646494E1,2.5134787E1,1.1923587E2,3.315356E2,1.1559045E2],"tree_param":{"num_deleted":"0","num_feature":"17","num_nodes":"15","size_leaf_vector":"1"}},{"base_weights":[-5.7139127E-3,1.4704162E-1,-3.6624473E-1,5.4842913E-1,6.885056E-2,-3.9049853E-2,-4.8739246E-1,7.7583276E-2,-3.1469025E-2,4.1403547E-2,-3.4054478E-3,5.2660685E-2,-2.7915318E-2,-3.153477E-2,-7.0009924E-2],"categories":[0,0],"categories_nodes":[2,4],"categories_segments":[0,1],"categories_sizes":[1,1],"default_left":[0,1,1,1,1,0,0,0,0,0,0,0,0,0,0],"id":9,"left_children":[1,3,5,7,9,11,13,-1,-1,-1,-1,-1,-1,-1,-1],"loss_changes":[6.2439922E1,2.4956553E1,1.3355427E1,2.570103E1,2.3730963E1,1.2677219E1,8.787052E0,0E0,0E0,0E0,0E0,0E0,0E0,0E0,0E0],"parents":[2147483647,0,0,1,1,2,2,3,3,4,4,5,5,6,6],"right_children":[2,4,6,8,10,12,14,-1,-1,-1,-1,-1,-1,-1,-1],"split_conditions":[1.5016666E1,3E0,1E-45,1.16332054E2,1E-45,4.5333332E1,2.4083334E1,7.7583276E-2,-3.1469025E-2,4.1403547E-2,-3.4054478E-3,5.2660685E-2,-2.7915318E-2,-3.153477E-2,-7.0009924E-2],"split_indices":[1,11,14,8,14,0,1,0,0,0,0,0,0,0,0],"split_type":[0,0,1,0,1,0,0,0,0,0,0,0,0,0,0],"sum_hessian":[1.1317871E3,7.953799E2,3.3640726E2,1.2869914E2,6.666807E2,9.125871E1,2.4514853E2,1.01941925E2,2.6757212E1,1.5241064E2,5.142701E2,2.6838037E1,6.442068E1,1.3690082E2,1.0824771E2],"tree_param":{"num_deleted":"0","num_feature":"17","num_nodes":"15","size_leaf_vector":"1"}},{"base_weights":[-5.7416093E-3,1.5904504E-1,-3.02968E-1,3.4000212E-1,-2.3737228E-2,4.6593934E-2,-4.420733E-1,2.2907836E-2,6.57053E-2,3.17454E-2,-1.2761729E-2,-6.629111E-2,2.6753295E-2,-3.20914E-2,-7.3421955E-2],"categories":[0,0],"categories_nodes":[2,4],"categories_segments":[0,1],"categories_sizes":[1,1],"default_left":[0,0,1,0,1,0,0,0,0,0,0,0,0,0,0],"id":10,"left_children":[1,3,5,7,9,11,13,-1,-1,-1,-1,-1,-1,-1,-1],"loss_changes":[5.5411373E1,2.408194E1,1.9641453E1,1.2714523E1,1.2907332E1,1.8324797E1,9.984631E0,0E0,0E0,0E0,0E0,0E0,0E0,0E0,0E0],"parents":[2147483647,0,0,1,1,2,2,3,3,4,4,5,5,6,6],"right_children":[2,4,6,8,10,12,14,-1,-1,-1,-1,-1,-1,-1,-1],"split_conditions":[3.1E1,6.516667E0,1E-45,8.1666664E1,1E-45,2E0,2.5783333E1,2.2907836E-2,6.57053E-2,3.17454E-2,-1.2761729E-2,-6.629111E-2,2.6753295E-2,-3.20914E-2,-7.3421955E-2],"split_indices":[2,1,14,0,14,13,1,0,0,0,0,0,0,0,0],"split_type":[0,0,1,0,1,0,0,0,0,0,0,0,0,0,0],"sum_hessian":[1.1293467E3,7.268406E2,4.0250613E2,3.6481165E2,3.6202893E2,1.1476777E2,2.8773837E2,2.7153473E2,9.327692E1,8.4018036E1,2.780109E2,2.6777222E1,8.799055E1,2.0487204E2,8.286633E1],"tree_param":{"num_deleted":"0","num_feature":"17","num_nodes":"15","size_leaf_vector":"1"}},{"base_weights":[-5.751972E-3,1.4136511E-1,-2.8135625E-1,2.984053E-1,-2.1498494E-2,4.0797636E-2,-4.1521588E-1,2.611298E-2,1.1022391E-1,4.0754355E-2,-1.0199352E-2,-6.333711E-2,2.357701E-2,-2.9768238E-2,-7.097317E-2],"categories":[0,2],"categories_nodes":[2,3],"categories_segments":[0,1],"categories_sizes":[1,1],"default_left":[0,0,1,1,1,0,0,0,0,0,0,0,0,0,0],"id":11,"left_children":[1,3,5,7,9,11,13,-1,-1,-1,-1,-1,-1,-1,-1],"loss_changes":[4.577099E1,1.88309E1,1.6958576E1,1.0941669E1,1.2551884E1,1.5427515E1,9.399059E0,0E0,0E0,0E0,0E0,0E0,0E0,0E0,0E0],"parents":[2147483647,0,0,1,1,2,2,3,3,4,4,5,5,6,6],"right_children":[2,4,6,8,10,12,14,-1,-1,-1,-1,-1,-1,-1,-1],"split_conditions":[3.1E1,6.516667E0,1E-45,1E-45,4E0,2E0,2.5783333E1,2.611298E-2,1.1022391E-1,4.0754355E-2,-1.0199352E-2,-6.333711E-2,2.357701E-2,-2.9768238E-2,-7.097317E-2],"split_indices":[2,1,14,14,11,13,1,0,0,0,0,0,0,0,0],"split_type":[0,0,1,1,0,0,0,0,0,0,0,0,0,0,0],"sum_hessian":[1.126882E3,7.3501776E2,3.9186417E2,3.7377524E2,3.6124255E2,1.1523312E2,2.7663104E2,3.5847675E2,1.529847E1,5.642608E1,3.0481647E2,2.5345583E1,8.988754E1,1.9916164E2,7.746941E1],"tree_param":{"num_deleted":"0","num_feature":"17","num_nodes":"15","size_leaf_vector":"1"}},{"base_weights":[-5.624589E-3,1.0884067E-1,-3.053198E-1,-2.8522977E-1,1.63914E-1,2.3786645E-1,-3.801096E-1,2.8025767E-2,-4.4437345E-2,5.5572152E-2,1.1256789E-2,-1.8767307E-3,1.2273034E-1,-4.0014546E-2,1.478736E-1],"categories":[2],"categories_nodes":[5],"categories_segments":[0],"categories_sizes":[1],"default_left":[0,0,0,0,1,1,0,0,0,0,0,0,0,0,0],"id":12,"left_children":[1,3,5,7,9,11,13,-1,-1,-1,-1,-1,-1,-1,-1],"loss_changes":[3.864019E1,1.77369E1,1.2737053E1,9.152036E0,1.4337711E1,9.745796E0,1.079694E1,0E0,0E0,0E0,0E0,0E0,0E0,0E0,0E0],"parents":[2147483647,0,0,1,1,2,2,3,3,4,4,5,5,6,6],"right_children":[2,4,6,8,10,12,14,-1,-1,-1,-1,-1,-1,-1,-1],"split_conditions":[1.5016666E1,5.2333332E1,9.5E1,1E0,2E0,1E-45,1E0,2.8025767E-2,-4.4437345E-2,5.5572152E-2,1.1256789E-2,-1.8767307E-3,1.2273034E-1,-4.0014546E-2,1.478736E-1],"split_indices":[1,0,16,7,11,14,4,0,0,0,0,0,0,0,0],"split_type":[0,0,0,0,0,1,0,0,0,0,0,0,0,0,0],"sum_hessian":[1.1244135E3,8.1411005E2,3.1030347E2,9.931251E1,7.1479755E2,3.7290215E1,2.7301324E2,2.1643898E1,7.766861E1,8.168205E1,6.331155E2,3.0389114E1,6.9010997E0,2.7087827E2,2.1349692E0],"tree_param":{"num_deleted":"0","num_feature":"17","num_nodes":"15","size_leaf_vector":"1"}},{"base_weights":[-5.2010277E-3,7.9382755E-2,-3.4869307E-1,5.553849E-1,4.096012E-2,2.1563044E-1,-4.334234E-1,2.8855061E-2,1.0586957E-1,1.6931137E-2,-9.859413E-3,-5.5315564E-3,1.4108944E-1,6.085558E-3,-5.461659E-2],"categories":[1,3,1,3,4],"categories_nodes":[4,6],"categories_segments":[0,2],"categories_sizes":[2,3],"default_left":[0,0,0,0,1,0,1,0,0,0,0,0,0,0,0],"id":13,"left_children":[1,3,5,7,9,11,13,-1,-1,-1,-1,-1,-1,-1,-1],"loss_changes":[3.2644253E1,1.6467192E1,1.0708725E1,8.727936E0,1.4979562E1,9.680048E0,1.0808254E1,0E0,0E0,0E0,0E0,0E0,0E0,0E0,0E0],"parents":[2147483647,0,0,1,1,2,2,3,3,4,4,5,5,6,6],"right_children":[2,4,6,8,10,12,14,-1,-1,-1,-1,-1,-1,-1,-1],"split_conditions":[1.87E1,7.188262E0,1.01E2,9.823995E0,1E-45,8.2E1,1E-45,2.8855061E-2,1.0586957E-1,1.6931137E-2,-9.859413E-3,-5.5315564E-3,1.4108944E-1,6.085558E-3,-5.461659E-2],"split_indices":[1,2,16,9,5,16,5,0,0,0,0,0,0,0,0],"split_type":[0,0,0,0,1,0,1,0,0,0,0,0,0,0,0],"sum_hessian":[1.1216245E3,9.0061896E2,2.2100557E2,6.626274E1,8.3435626E2,2.864936E1,1.923562E2,4.433271E1,2.193003E1,4.3451218E2,3.9984406E2,2.4132626E1,4.5167346E0,3.5811916E1,1.5654428E2],"tree_param":{"num_deleted":"0","num_feature":"17","num_nodes":"15","size_leaf_vector":"1"}},{"base_weights":[-4.8344433E-3,8.937022E-2,-2.7740902E-1,2.297206E-1,-5.6126885E-2,1.4199129E-1,-3.867882E-1,1.08245276E-1,2.043409E-2,1.20909035E-1,-7.899704E-3,-1.0410761E-2,1.1941866E-1,-2.7533306E-2,-7.449361E-2],"categories":[2],"categories_nodes":[5],"categories_segments":[0],"categories_sizes":[1],"default_left":[0,0,0,0,1,1,0,0,0,0,0,0,0,0,0],"id":14,"left_children":[1,3,5,7,9,11,13,-1,-1,-1,-1,-1,-1,-1,-1],"loss_changes":[2.8799952E1,1.7034592E1,1.3269655E1,8.965414E0,1.1961402E1,1.5743566E1,8.925972E0,0E0,0E0,0E0,0E0,0E0,0E0,0E0,0E0],"parents":[2147483647,0,0,1,1,2,2,3,3,4,4,5,5,6,6],"right_children":[2,4,6,8,10,12,14,-1,-1,-1,-1,-1,-1,-1,-1],"split_conditions":[3.692118E1,6.8E0,1.87E2,4.8166666E0,9.0021E-2,1E-45,2.7766666E1,1.08245276E-1,2.043409E-2,1.20909035E-1,-7.899704E-3,-1.0410761E-2,1.1941866E-1,-2.7533306E-2,-7.449361E-2],"split_indices":[2,1,16,2,9,14,1,0,0,0,0,0,0,0,0],"split_type":[0,0,0,0,0,1,0,0,0,0,0,0,0,0,0],"sum_hessian":[1.1196243E3,8.3255615E2,2.8706808E2,4.2347855E2,4.0907758E2,5.9318966E1,2.2774913E2,1.1035825E1,4.1244272E2,6.342309E0,4.027353E2,4.880498E1,1.0513985E1,1.7504433E2,5.270479E1],"tree_param":{"num_deleted":"0","num_feature":"17","num_nodes":"15","size_leaf_vector":"1"}},{"base_weights":[-4.4687935E-3,8.009551E-2,-2.5714996E-1,2.0361741E-1,-5.338584E-2,5.1385973E-2,-4.0107492E-1,1.0058607E-2,3.8828243E-2,2.473554E-4,-7.0850335E-2,4.0636156E-2,-4.2898864E-2,-8.6910196E-2,-3.3603348E-2],"categories":[1,3,0],"categories_nodes":[1,2],"categories_segments":[0,2],"categories_sizes":[2,1],"default_left":[0,1,1,0,0,0,0,0,0,0,0,0,0,0,0],"id":15,"left_children":[1,3,5,7,9,11,13,-1,-1,-1,-1,-1,-1,-1,-1],"loss_changes":[2.3907106E1,1.3833136E1,1.2478466E1,8.249096E0,1.4775429E1,1.5542689E1,5.534952E0,0E0,0E0,0E0,0E0,0E0,0E0,0E0,0E0],"parents":[2147483647,0,0,1,1,2,2,3,3,4,4,5,5,6,6],"right_children":[2,4,6,8,10,12,14,-1,-1,-1,-1,-1,-1,-1,-1],"split_conditions":[3.692118E1,1E-45,1E-45,3E0,1.87E1,4.5333332E1,2.8333334E1,1.0058607E-2,3.8828243E-2,2.473554E-4,-7.0850335E-2,4.0636156E-2,-4.2898864E-2,-8.6910196E-2,-3.3603348E-2],"split_indices":[2,5,14,13,1,0,0,0,0,0,0,0,0,0,0],"split_type":[0,1,1,0,0,0,0,0,0,0,0,0,0,0,0],"sum_hessian":[1.1168737E3,8.3732935E2,2.795443E2,4.3461597E2,4.0271338E2,8.91258E1,1.904185E2,2.799605E2,1.5465547E2,3.719913E2,3.0722069E1,5.1341087E1,3.7784714E1,2.1725233E1,1.6869327E2],"tree_param":{"num_deleted":"0","num_feature":"17","num_nodes":"15","size_leaf_vector":"1"}},{"base_weights":[-4.503227E-3,1.2482108E-1,-1.4956954E-1,9.610316E-2,6.8582475E-1,1.3810769E-1,-2.5976896E-1,6.4084396E-2,6.5207006E-3,1.8160608E-1,-3.8272326E-3,5.6642737E-2,-2.8711932E-3,-2.0504091E-2,-6.840039E-2],"categories":[2,0],"categories_nodes":[1,2],"categories_segments":[0,1],"categories_sizes":[1,1],"default_left":[0,1,1,0,0,0,0,0,0,0,0,0,0,0,0],"id":16,"left_children":[1,3,5,7,9,11,13,-1,-1,-1,-1,-1,-1,-1,-1],"loss_changes":[2.0962446E1,9.45164E0,1.6730602E1,9.436226E0,2.3480026E1,1.048466E1,8.70813E0,0E0,0E0,0E0,0E0,0E0,0E0,0E0,0E0],"parents":[2147483647,0,0,1,1,2,2,3,3,4,4,5,5,6,6],"right_children":[2,4,6,8,10,12,14,-1,-1,-1,-1,-1,-1,-1,-1],"split_conditions":[8.783334E0,1E-45,1E-45,6.009252E0,2.62E2,1E1,2.9466667E1,6.4084396E-2,6.5207006E-3,1.8160608E-1,-3.8272326E-3,5.6642737E-2,-2.8711932E-3,-2.0504091E-2,-6.840039E-2],"split_indices":[1,14,14,2,16,11,1,0,0,0,0,0,0,0,0],"split_type":[0,1,1,0,0,0,0,0,0,0,0,0,0,0,0],"sum_hessian":[1.1153702E3,5.897538E2,5.256165E2,5.6214856E2,2.7605213E1,1.4550926E2,3.8010727E2,2.9112595E1,5.3303595E2,1.0190667E1,1.7414547E1,4.0115303E1,1.0539395E2,3.3798865E2,4.211862E1],"tree_param":{"num_deleted":"0","num_feature":"17","num_nodes":"15","size_leaf_vector":"1"}},{"base_weights":[-4.179175E-3,6.827717E-2,-2.298141E-1,3.373598E-1,1.2317558E-2,1.479761E-1,-3.3390924E-1,5.3207725E-2,-3.527605E-2,-1.791071E-3,5.9687227E-2,-1.8433776E-3,1.2058039E-1,-2.3094377E-2,-6.9541894E-2],"categories":[2],"categories_nodes":[4],"categories_segments":[0],"categories_sizes":[1],"default_left":[0,1,0,1,1,0,0,0,0,0,0,0,0,0,0],"id":17,"left_children":[1,3,5,7,9,11,13,-1,-1,-1,-1,-1,-1,-1,-1],"loss_changes":[1.8228918E1,1.27050495E1,1.0707507E1,1.9709026E1,1.2375484E1,1.0449948E1,7.7597446E0,0E0,0E0,0E0,0E0,0E0,0E0,0E0,0E0],"parents":[2147483647,0,0,1,1,2,2,3,3,4,4,5,5,6,6],"right_children":[2,4,6,8,10,12,14,-1,-1,-1,-1,-1,-1,-1,-1],"split_conditions":[3.692118E1,3E0,1.87E2,1.16332054E2,1E-45,6.926679E1,2.7766666E1,5.3207725E-2,-3.527605E-2,-1.791071E-3,5.9687227E-2,-1.8433776E-3,1.2058039E-1,-2.3094377E-2,-6.9541894E-2],"split_indices":[2,11,16,8,14,2,1,0,0,0,0,0,0,0,0],"split_type":[0,0,0,0,1,0,0,0,0,0,0,0,0,0,0],"sum_hessian":[1.1130485E3,8.430303E2,2.7001822E2,1.4427126E2,6.9875903E2,5.8237305E1,2.1178091E2,1.1270153E2,3.1569733E1,6.653234E2,3.343559E1,5.1170155E1,7.0671473E0,1.6610857E2,4.5672348E1],"tree_param":{"num_deleted":"0","num_feature":"17","num_nodes":"15","size_leaf_vector":"1"}},{"base_weights":[-3.969605E-3,5.0930567E-2,-2.5915164E-1,9.9513555E-1,3.6258873E-2,2.5842533E-2,-4.0310776E-1,1.2687509E-1,-7.242375E-2,2.2473957E-2,-2.5725025E-3,-1.780818E-2,9.632791E-2,2.8953035E-3,-5.4635204E-2],"categories":[0,2],"categories_nodes":[4,5],"categories_segments":[0,1],"categories_sizes":[1,1],"default_left":[0,1,0,0,1,1,1,0,0,0,0,0,0,0,0],"id":18,"left_children":[1,3,5,7,9,11,13,-1,-1,-1,-1,-1,-1,-1,-1],"loss_changes":[1.5586399E1,1.2648334E1,8.091682E0,7.492095E0,1.0551417E1,1.2988287E1,8.11916E0,0E0,0E0,0E0,0E0,0E0,0E0,0E0,0E0],"parents":[2147483647,0,0,1,1,2,2,3,3,4,4,5,5,6,6],"right_children":[2,4,6,8,10,12,14,-1,-1,-1,-1,-1,-1,-1,-1],"split_conditions":[1.87E1,9.0021E-2,3.22E2,3.637784E1,1E-45,1E-45,4.5174488E1,1.2687509E-1,-7.242375E-2,2.2473957E-2,-2.5725025E-3,-1.780818E-2,9.632791E-2,2.8953035E-3,-5.4635204E-2],"split_indices":[1,9,16,3,14,14,8,0,0,0,0,0,0,0,0],"split_type":[0,0,0,0,1,1,0,0,0,0,0,0,0,0,0],"sum_hessian":[1.1106141E3,9.146382E2,1.9597595E2,1.2972292E1,9.016659E2,6.604507E1,1.2993088E2,1.1417443E1,1.5548487E0,2.2249057E2,6.791753E2,5.491025E1,1.1134813E1,3.2549934E1,9.738094E1],"tree_param":{"num_deleted":"0","num_feature":"17","num_nodes":"15","size_leaf_vector":"1"}},{"base_weights":[-3.7367367E-3,1.0439525E-1,-1.223215E-1,-7.669128E-3,2.9884815E-1,1.2607706E0,-1.3994797E-1,1.678971E-2,-1.9712463E-2,9.972372E-2,1.6787902E-2,1.4067118E-2,1.4750737E-1,-1.5357307E-2,1.1362227E-1],"categories":[1,3],"categories_nodes":[0],"categories_segments":[0],"categories_sizes":[2],"default_left":[1,0,0,0,0,1,1,0,0,0,0,0,0,0,0],"id":19,"left_children":[1,3,5,7,9,11,13,-1,-1,-1,-1,-1,-1,-1,-1],"loss_changes":[1.4244034E1,1.2663969E1,1.3092349E1,1.2326272E1,1.9265558E1,1.4168062E0,9.286284E0,0E0,0E0,0E0,0E0,0E0,0E0,0E0,0E0],"parents":[2147483647,0,0,1,1,2,2,3,3,4,4,5,5,6,6],"right_children":[2,4,6,8,10,12,14,-1,-1,-1,-1,-1,-1,-1,-1],"split_conditions":[1E-45,3E0,4.8166666E0,2.137041E1,1.14E2,1.9156599E0,1.275E3,1.678971E-2,-1.9712463E-2,9.972372E-2,1.6787902E-2,1.4067118E-2,1.4750737E-1,-1.5357307E-2,1.1362227E-1],"split_indices":[5,13,2,2,16,9,9,0,0,0,0,0,0,0,0],"split_type":[1,0,0,0,0,0,0,0,0,0,0,0,0,0,0],"sum_hessian":[1.1088402E3,5.8004425E2,5.2879596E2,3.685863E2,2.1145793E2,5.766797E0,5.230292E2,1.9136465E2,1.7722163E2,3.2348137E1,1.791098E2,1.1921563E0,4.5746408E0,5.183744E2,4.654786E0],"tree_param":{"num_deleted":"0","num_feature":"17","num_nodes":"15","size_leaf_vector":"1"}},{"base_weights":[-3.2726286E-3,9.727008E-2,-1.2155027E-1,-2.5048488E-1,1.3551475E-1,1.1211042E-1,-2.1671374E-1,1.6108777E-2,-5.7235885E-2,4.1002356E-2,9.265506E-3,2.977157E-2,-2.0110702E-2,1.5233546E-1,-2.2724088E-2],"categories":[0,1,2,3,5,1,2,4,0,1,2,4],"categories_nodes":[2,3,4,6],"categories_segments":[0,1,5,8],"categories_sizes":[1,4,3,4],"default_left":[0,0,1,1,0,1,1,0,0,0,0,0,0,0,0],"id":20,"left_children":[1,3,5,7,9,11,13,-1,-1,-1,-1,-1,-1,-1,-1],"loss_changes":[1.3189977E1,8.007706E0,1.1356103E1,8.007994E0,6.3245707E0,8.672236E0,6.985899E0,0E0,0E0,0E0,0E0,0E0,0E0,0E0,0E0],"parents":[2147483647,0,0,1,1,2,2,3,3,4,4,5,5,6,6],"right_children":[2,4,6,8,10,12,14,-1,-1,-1,-1,-1,-1,-1,-1],"split_conditions":[8.783334E0,5.2666668E1,1E-45,1E-45,1E-45,1.0838602E2,1E-45,1.6108777E-2,-5.7235885E-2,4.1002356E-2,9.265506E-3,2.977157E-2,-2.0110702E-2,1.5233546E-1,-2.2724088E-2],"split_indices":[1,0,14,5,6,8,6,0,0,0,0,0,0,0,0],"split_type":[0,0,1,1,1,0,1,0,0,0,0,0,0,0,0],"sum_hessian":[1.1071571E3,5.9854095E2,5.0861618E2,5.8753334E1,5.397876E2,1.471447E2,3.6147147E2,2.6003193E1,3.275014E1,7.173986E1,4.6804776E2,9.242519E1,5.47195E1,1.3095167E0,3.6016196E2],"tree_param":{"num_deleted":"0","num_feature":"17","num_nodes":"15","size_leaf_vector":"1"}},{"base_weights":[-3.0317565E-3,3.694739E-2,-2.8186682E-1,-2.4938066E-2,1.9820021E-1,-4.9934992E-1,4.8321854E-2,-1.2362839E-2,1.4580582E-2,5.5518698E-2,-2.7198817E-3,-5.3728152E-2,8.897515E-2,3.1242063E-2,-5.1920634E-2],"categories":[],"categories_nodes":[],"categories_segments":[],"categories_sizes":[],"default_left":[0,0,0,0,1,0,0,0,0,0,0,0,0,0,0],"id":21,"left_children":[1,3,5,7,9,11,13,-1,-1,-1,-1,-1,-1,-1,-1],"loss_changes":[1.2345487E1,9.671302E0,9.996694E0,1.1828593E1,2.164061E1,4.8942947E0,8.564542E0,0E0,0E0,0E0,0E0,0E0,0E0,0E0,0E0],"parents":[2147483647,0,0,1,1,2,2,3,3,4,4,5,5,6,6],"right_children":[2,4,6,8,10,12,14,-1,-1,-1,-1,-1,-1,-1,-1],"split_conditions":[2.1533333E1,9.823995E0,3E0,3.3E1,9.0277695E1,1.6664578E2,3.08063E1,-1.2362839E-2,1.4580582E-2,5.5518698E-2,-2.7198817E-3,-5.3728152E-2,8.897515E-2,3.1242063E-2,-5.1920634E-2],"split_indices":[1,9,13,11,8,8,3,0,0,0,0,0,0,0,0],"split_type":[0,0,0,0,0,0,0,0,0,0,0,0,0,0,0],"sum_hessian":[1.1055238E3,9.676504E2,1.3787343E2,6.9989185E2,2.6775848E2,8.2814354E1,5.505908E1,4.4370526E2,2.561866E2,1.030635E2,1.6469499E2,8.121001E1,1.6043508E0,3.788079E1,1.7178288E1],"tree_param":{"num_deleted":"0","num_feature":"17","num_nodes":"15","size_leaf_vector":"1"}},{"base_weights":[-2.9369493E-3,9.13789E-2,-1.08622536E-1,-5.9262533E-3,2.5524262E-1,1.0849191E0,-1.2471303E-1,3.5338294E-2,-7.053768E-3,8.198356E-2,1.4317065E-2,3.7933875E-2,1.5053774E-1,-1.5571247E-2,3.7682276E-2],"categories":[1,3,2],"categories_nodes":[0,6],"categories_segments":[0,2],"categories_sizes":[2,1],"default_left":[1,0,0,1,0,0,1,0,0,0,0,0,0,0,0],"id":22,"left_children":[1,3,5,7,9,11,13,-1,-1,-1,-1,-1,-1,-1,-1],"loss_changes":[1.1024684E1,9.320732E0,1.0151751E1,8.560955E0,1.3662747E1,1.5177603E0,8.073666E0,0E0,0E0,0E0,0E0,0E0,0E0,0E0,0E0],"parents":[2147483647,0,0,1,1,2,2,3,3,4,4,5,5,6,6],"right_children":[2,4,6,8,10,12,14,-1,-1,-1,-1,-1,-1,-1,-1],"split_conditions":[1E-45,3E0,4.8166666E0,3E0,1.14E2,1E0,1E-45,3.5338294E-2,-7.053768E-3,8.198356E-2,1.4317065E-2,3.7933875E-2,1.5053774E-1,-1.5571247E-2,3.7682276E-2],"split_indices":[5,13,2,11,16,10,14,0,0,0,0,0,0,0,0],"split_type":[1,0,0,0,0,0,1,0,0,0,0,0,0,0,0],"sum_hessian":[1.1040311E3,5.834682E2,5.2056287E2,3.6668692E2,2.167813E2,6.0409164E0,5.14522E2,5.520702E1,3.1147992E2,3.485823E1,1.8192307E2,2.9659288E0,3.0749876E0,4.852205E2,2.9301481E1],"tree_param":{"num_deleted":"0","num_feature":"17","num_nodes":"15","size_leaf_vector":"1"}},{"base_weights":[-2.517075E-3,5.1213037E-2,-1.8172058E-1,8.715937E-2,-2.7249402E-1,1.1789045E-1,-2.7135316E-1,2.8734887E-2,3.6811929E-3,1.3709115E-2,-5.440977E-2,7.119249E-2,-9.209908E-3,-1.7729132E-2,-6.343833E-2],"categories":[3],"categories_nodes":[1],"categories_segments":[0],"categories_sizes":[1],"default_left":[0,1,0,1,0,0,0,0,0,0,0,0,0,0,0],"id":23,"left_children":[1,3,5,7,9,11,13,-1,-1,-1,-1,-1,-1,-1,-1],"loss_changes":[1.0633256E1,9.910232E0,6.872774E0,7.704703E0,9.548363E0,7.469575E0,6.5932436E0,0E0,0E0,0E0,0E0,0E0,0E0,0E0,0E0],"parents":[2147483647,0,0,1,1,2,2,3,3,4,4,5,5,6,6],"right_children":[2,4,6,8,10,12,14,-1,-1,-1,-1,-1,-1,-1,-1],"split_conditions":[3.692118E1,1E-45,1.87E2,4E0,1.0502923E1,1E0,2.7766666E1,2.8734887E-2,3.6811929E-3,1.3709115E-2,-5.440977E-2,7.119249E-2,-9.209908E-3,-1.7729132E-2,-6.343833E-2],"split_indices":[2,5,16,11,2,7,1,0,0,0,0,0,0,0,0],"split_type":[0,1,0,0,0,0,0,0,0,0,0,0,0,0,0],"sum_hessian":[1.1023713E3,8.486401E2,2.537313E2,7.6447864E2,8.416145E1,5.835504E1,1.9537625E2,1.5268225E2,6.117964E2,3.375433E1,5.0407124E1,1.4616495E1,4.3738544E1,1.563532E2,3.9023052E1],"tree_param":{"num_deleted":"0","num_feature":"17","num_nodes":"15","size_leaf_vector":"1"}},{"base_weights":[-2.4961245E-3,3.097678E-2,-2.4750936E-1,5.7343468E-2,-2.5080422E-1,-4.545232E-1,4.5950297E-2,-1.610273E-2,9.518666E-3,-4.6526454E-3,-7.369812E-2,2.8335962E-2,-5.2629877E-2,2.7965149E-2,-4.9005143E-2],"categories":[3,0,1,3,4,5],"categories_nodes":[1,5],"categories_segments":[0,1],"categories_sizes":[1,5],"default_left":[0,1,0,0,0,1,0,0,0,0,0,0,0,0,0],"id":24,"left_children":[1,3,5,7,9,11,13,-1,-1,-1,-1,-1,-1,-1,-1],"loss_changes":[9.04412E0,7.2232375E0,8.073136E0,7.354249E0,8.22958E0,4.270237E0,7.118564E0,0E0,0E0,0E0,0E0,0E0,0E0,0E0,0E0],"parents":[2147483647,0,0,1,1,2,2,3,3,4,4,5,5,6,6],"right_children":[2,4,6,8,10,12,14,-1,-1,-1,-1,-1,-1,-1,-1],"split_conditions":[2.1533333E1,1E-45,3E0,5.2333332E1,1.5212577E1,1E-45,3.08063E1,-1.610273E-2,9.518666E-3,-4.6526454E-3,-7.369812E-2,2.8335962E-2,-5.2629877E-2,2.7965149E-2,-4.9005143E-2],"split_indices":[1,5,13,0,2,5,3,0,0,0,0,0,0,0,0],"split_type":[0,1,0,0,0,1,0,0,0,0,0,0,0,0,0],"sum_hessian":[1.1008313E3,9.6928436E2,1.3154688E2,8.870758E2,8.2208565E1,7.681254E1,5.4734344E1,1.3054166E2,7.565341E2,5.8657883E1,2.3550682E1,6.548045E0,7.026449E1,3.844867E1,1.6285675E1],"tree_param":{"num_deleted":"0","num_feature":"17","num_nodes":"15","size_leaf_vector":"1"}},{"base_weights":[-2.5580446E-3,-2.4775838E-2,3.486874E-1,-8.1077117E-1,-8.471698E-3,9.5675296E-1,-4.1975382E-1,2.0772938E-2,-8.9602195E-2,-2.0976055E-3,7.064489E-2,7.825785E-3,1.4022999E-1,3.6110036E-2,-5.4417063E-2],"categories":[2],"categories_nodes":[0],"categories_segments":[0],"categories_sizes":[1],"default_left":[1,0,0,0,0,0,0,0,0,0,0,0,0,0,0],"id":25,"left_children":[1,3,5,7,9,11,13,-1,-1,-1,-1,-1,-1,-1,-1],"loss_changes":[8.599662E0,1.3273356E1,3.1034431E1,2.01377E0,9.099764E0,1.4334496E1,3.0775266E0,0E0,0E0,0E0,0E0,0E0,0E0,0E0,0E0],"parents":[2147483647,0,0,1,1,2,2,3,3,4,4,5,5,6,6],"right_children":[2,4,6,8,10,12,14,-1,-1,-1,-1,-1,-1,-1,-1],"split_conditions":[1E-45,2.8333334E1,3.6E2,4E0,1.0233041E4,3E0,7.445385E-1,2.0772938E-2,-8.9602195E-2,-2.0976055E-3,7.064489E-2,7.825785E-3,1.4022999E-1,3.6110036E-2,-5.4417063E-2],"split_indices":[14,0,16,0,9,13,9,0,0,0,0,0,0,0,0],"split_type":[1,0,0,0,0,0,0,0,0,0,0,0,0,0,0],"sum_hessian":[1.0998629E3,1.0353049E3,6.455805E1,2.0048986E1,1.0152559E3,3.5903023E1,2.8655025E1,1.4375632E0,1.8611422E1,9.9875775E2,1.6498167E1,1.247716E1,2.3425865E1,3.6767807E0,2.4978245E1],"tree_param":{"num_deleted":"0","num_feature":"17","num_nodes":"15","size_leaf_vector":"1"}},{"base_weights":[-2.3981633E-3,1.4863352E-1,-5.3210054E-2,5.9574496E-2,4.259976E-1,4.2397987E-2,-1.624329E-1,1.0723986E-1,9.107995E-4,-6.2449165E-2,5.1075704E-2,2.4389992E-2,-4.4083404E-3,1.4475505E-1,-1.727955E-2],"categories":[1,3,0],"categories_nodes":[2,5],"categories_segments":[0,2],"categories_sizes":[2,1],"default_left":[0,0,1,0,0,1,0,0,0,0,0,0,0,0,0],"id":26,"left_children":[1,3,5,7,9,11,13,-1,-1,-1,-1,-1,-1,-1,-1],"loss_changes":[8.444245E0,6.817086E0,8.604344E0,1.0767045E1,6.2990675E0,7.674934E0,6.6649694E0,0E0,0E0,0E0,0E0,0E0,0E0,0E0,0E0],"parents":[2147483647,0,0,1,1,2,2,3,3,4,4,5,5,6,6],"right_children":[2,4,6,8,10,12,14,-1,-1,-1,-1,-1,-1,-1,-1],"split_conditions":[2.2210045E0,8.1666664E1,1E-45,3.4873006E-1,5.4992986E-1,1E-45,4E0,1.0723986E-1,9.107995E-4,-6.2449165E-2,5.1075704E-2,2.4389992E-2,-4.4083404E-3,1.4475505E-1,-1.727955E-2],"split_indices":[3,0,5,9,9,14,0,0,0,0,0,0,0,0,0],"split_type":[0,0,1,0,0,1,0,0,0,0,0,0,0,0,0],"sum_hessian":[1.0983107E3,2.7600293E2,8.223077E2,2.0984004E2,6.616289E1,4.3880887E2,3.8349884E2,8.998444E0,2.008416E2,4.464391E0,6.16985E1,1.3122769E2,3.0758118E2,1.5656306E0,3.819332E2],"tree_param":{"num_deleted":"0","num_feature":"17","num_nodes":"15","size_leaf_vector":"1"}},{"base_weights":[-2.1006851E-3,2.3492686E-2,-2.7679974E-1,2.4372733E-1,-1.6807914E-2,1.3324461E0,-3.3130825E-1,-8.465776E-3,7.098019E-2,3.8750474E-3,-2.2406925E-2,-9.800299E-3,2.0101681E-1,3.6106385E-2,-4.752624E-2],"categories":[],"categories_nodes":[],"categories_segments":[],"categories_sizes":[],"default_left":[0,0,0,0,0,0,0,0,0,0,0,0,0,0,0],"id":27,"left_children":[1,3,5,7,9,11,13,-1,-1,-1,-1,-1,-1,-1,-1],"loss_changes":[7.726022E0,8.927159E0,8.657036E0,2.3871262E1,9.805424E0,3.3648043E0,9.28061E0,0E0,0E0,0E0,0E0,0E0,0E0,0E0,0E0],"parents":[2147483647,0,0,1,1,2,2,3,3,4,4,5,5,6,6],"right_children":[2,4,6,8,10,12,14,-1,-1,-1,-1,-1,-1,-1,-1],"split_conditions":[1E0,1.54E2,2.1454267E-1,3E0,3.692118E1,7E0,2.3104136E1,-8.465776E-3,7.098019E-2,3.8750474E-3,-2.2406925E-2,-9.800299E-3,2.0101681E-1,3.6106385E-2,-4.752624E-2],"split_indices":[15,16,3,13,2,11,8,0,0,0,0,0,0,0,0],"split_type":[0,0,0,0,0,0,0,0,0,0,0,0,0,0,0],"sum_hessian":[1.0970083E3,1.0043488E3,9.265946E1,1.5457576E2,8.497731E2,2.2676384E0,9.039182E1,9.11629E1,6.341286E1,6.707777E2,1.7899536E2,1.0039732E0,1.2636651E0,1.5299257E1,7.509257E1],"tree_param":{"num_deleted":"0","num_feature":"17","num_nodes":"15","size_leaf_vector":"1"}},{"base_weights":[-1.910897E-3,1.0327575E-1,-6.287895E-2,2.2482398E-1,-3.1310834E-2,-1.1605379E-1,1.2508175E-1,8.045061E-2,1.5104373E-2,2.5370053E-3,-7.468982E-2,-5.6658746E-3,-4.53034E-2,3.1585132E-3,8.992354E-2],"categories":[1,2,3],"categories_nodes":[1],"categories_segments":[0],"categories_sizes":[3],"default_left":[0,0,0,0,1,0,0,0,0,0,0,0,0,0,0],"id":28,"left_children":[1,3,5,7,9,11,13,-1,-1,-1,-1,-1,-1,-1,-1],"loss_changes":[7.0386662E0,6.595363E0,6.9589443E0,8.934527E0,7.8063736E0,1.08245735E1,1.1096425E1,0E0,0E0,0E0,0E0,0E0,0E0,0E0,0E0],"parents":[2147483647,0,0,1,1,2,2,3,3,4,4,5,5,6,6],"right_children":[2,4,6,8,10,12,14,-1,-1,-1,-1,-1,-1,-1,-1],"split_conditions":[5.6666665E0,1E-45,1.2406405E1,6.3193045E0,4.7586067E1,4.3363422E1,1.6134926E2,8.045061E-2,1.5104373E-2,2.5370053E-3,-7.468982E-2,-5.6658746E-3,-4.53034E-2,3.1585132E-3,8.992354E-2],"split_indices":[1,6,9,2,9,3,8,0,0,0,0,0,0,0,0],"split_type":[0,1,0,0,0,0,0,0,0,0,0,0,0,0,0],"sum_hessian":[1.0955453E3,4.0173978E2,6.938055E2,2.1074272E2,1.9099706E2,5.4110675E2,1.5269873E2,2.2676023E1,1.880667E2,1.7787251E2,1.312454E1,4.6101746E2,8.008931E1,1.371728E2,1.55259285E1],"tree_param":{"num_deleted":"0","num_feature":"17","num_nodes":"15","size_leaf_vector":"1"}},{"base_weights":[-1.8340003E-3,1.887991E-2,-2.9188436E-1,4.1602552E-2,-2.4123201E-1,1.7611837E-1,-5.230121E-1,5.4222425E-3,-4.8150357E-2,-4.5828572E-3,-7.176543E-2,2.4330737E-3,1.8106501E-1,-7.815399E-2,-1.7270466E-2],"categories":[3],"categories_nodes":[1],"categories_segments":[0],"categories_sizes":[1],"default_left":[0,1,0,0,0,0,0,0,0,0,0,0,0,0,0],"id":29,"left_children":[1,3,5,7,9,11,13,-1,-1,-1,-1,-1,-1,-1,-1],"loss_changes":[6.5857778E0,6.0574293E0,7.9952726E0,6.2435994E0,7.6332426E0,6.134266E0,4.3172607E0,0E0,0E0,0E0,0E0,0E0,0E0,0E0,0E0],"parents":[2147483647,0,0,1,1,2,2,3,3,4,4,5,5,6,6],"right_children":[2,4,6,8,10,12,14,-1,-1,-1,-1,-1,-1,-1,-1],"split_conditions":[2.6066668E1,1E-45,2.44E2,6.1074745E1,1.5212577E1,2.27E2,2.00001E0,5.4222425E-3,-4.8150357E-2,-4.5828572E-3,-7.176543E-2,2.4330737E-3,1.8106501E-1,-7.815399E-2,-1.7270466E-2],"split_indices":[1,5,16,2,2,16,7,0,0,0,0,0,0,0,0],"split_type":[0,1,0,0,0,0,0,0,0,0,0,0,0,0,0],"sum_hessian":[1.0942367E3,1.0221732E3,7.206347E1,9.4082544E2,8.1347786E1,2.390237E1,4.8161095E1,9.195381E2,2.12874E1,5.846479E1,2.2882998E1,2.279998E1,1.1023908E0,2.700231E1,2.1158785E1],"tree_param":{"num_deleted":"0","num_feature":"17","num_nodes":"15","size_leaf_vector":"1"}},{"base_weights":[-1.83845E-3,2.0844076E-2,-2.5196207E-1,-2.6889155E-2,1.7277832E-1,1.1609304E0,-3.0470267E-1,1.1110097E-3,-3.821453E-2,4.5506377E-3,5.9104383E-2,-1.0684897E-2,1.7246859E-1,3.152629E-2,-4.4252794E-2],"categories":[],"categories_nodes":[],"categories_segments":[],"categories_sizes":[],"default_left":[0,0,0,0,0,0,0,0,0,0,0,0,0,0,0],"id":30,"left_children":[1,3,5,7,9,11,13,-1,-1,-1,-1,-1,-1,-1,-1],"loss_changes":[6.2156043E0,7.2899323E0,7.141494E0,1.0334869E1,1.2764322E1,2.6756215E0,7.710492E0,0E0,0E0,0E0,0E0,0E0,0E0,0E0,0E0],"parents":[2147483647,0,0,1,1,2,2,3,3,4,4,5,5,6,6],"right_children":[2,4,6,8,10,12,14,-1,-1,-1,-1,-1,-1,-1,-1],"split_conditions":[1E0,1.215646E1,2.1454267E-1,4.4045994E1,8.1666664E1,7E0,2.3104136E1,1.1110097E-3,-3.821453E-2,4.5506377E-3,5.9104383E-2,-1.0684897E-2,1.7246859E-1,3.152629E-2,-4.4252794E-2],"split_indices":[15,9,3,3,0,11,8,0,0,0,0,0,0,0,0],"split_type":[0,0,0,0,0,0,0,0,0,0,0,0,0,0,0],"sum_hessian":[1.0936371E3,1.0035468E3,9.009025E1,7.6426154E2,2.3928528E2,2.4857695E0,8.760448E1,6.91288E2,7.297349E1,1.8431099E2,5.4974277E1,1.0145985E0,1.4711709E0,1.5699153E1,7.190533E1],"tree_param":{"num_deleted":"0","num_feature":"17","num_nodes":"15","size_leaf_vector":"1"}},{"base_weights":[-1.6564431E-3,6.6571005E-2,-8.147085E-2,-1.2105762E-2,1.9509846E-1,8.482569E-1,-9.5033124E-2,-3.8998835E-2,2.7044814E-3,5.6953292E-2,1.1402633E-2,-2.2832155E-2,1.0598701E-1,1.6546786E-2,-1.3994159E-2],"categories":[1,3],"categories_nodes":[0],"categories_segments":[0],"categories_sizes":[2],"default_left":[1,0,0,0,0,0,0,0,0,0,0,0,0,0,0],"id":31,"left_children":[1,3,5,7,9,11,13,-1,-1,-1,-1,-1,-1,-1,-1],"loss_changes":[5.9605517E0,5.9698973E0,6.4412575E0,5.4400573E0,6.73901E0,1.917242E0,5.8501635E0,0E0,0E0,0E0,0E0,0E0,0E0,0E0,0E0],"parents":[2147483647,0,0,1,1,2,2,3,3,4,4,5,5,6,6],"right_children":[2,4,6,8,10,12,14,-1,-1,-1,-1,-1,-1,-1,-1],"split_conditions":[1E-45,3E0,4.8166666E0,6.274511E-1,1.14E2,1.9156599E0,1.41E2,-3.8998835E-2,2.7044814E-3,5.6953292E-2,1.1402633E-2,-2.2832155E-2,1.0598701E-1,1.6546786E-2,-1.3994159E-2],"split_indices":[5,13,2,9,16,9,16,0,0,0,0,0,0,0,0],"split_type":[1,0,0,0,0,0,0,0,0,0,0,0,0,0,0],"sum_hessian":[1.0925803E3,5.891367E2,5.0344363E2,3.659996E2,2.2313712E2,6.3534527E0,4.9709018E2,3.3518337E1,3.3248126E2,3.864212E1,1.84495E2,1.0307214E0,5.3227315E0,7.269912E1,4.2439105E2],"tree_param":{"num_deleted":"0","num_feature":"17","num_nodes":"15","size_leaf_vector":"1"}},{"base_weights":[-1.4881733E-3,-6.9836456E-1,6.198497E-3,5.447932E-2,-9.766867E-1,-1.2463836E-2,2.9267603E-1,-1.0634395E-1,-1.646835E-2,-7.600327E-2,9.061022E-5,7.95752E-2,-3.9251667E-2],"categories":[2],"categories_nodes":[2],"categories_segments":[0],"categories_sizes":[1],"default_left":[0,0,1,0,1,0,0,0,0,0,0,0,0],"id":32,"left_children":[1,3,5,-1,7,9,11,-1,-1,-1,-1,-1,-1],"loss_changes":[5.8562756E0,4.6589475E0,5.7858996E0,0E0,5.36603E-1,1.0159028E1,2.3127422E1,0E0,0E0,0E0,0E0,0E0,0E0],"parents":[2147483647,0,0,1,1,2,2,4,4,5,5,6,6],"right_children":[2,4,6,-1,8,10,12,-1,-1,-1,-1,-1,-1],"split_conditions":[4E0,1.090484E1,1E-45,5.447932E-2,1.4054655E2,2.8333334E1,3.6E2,-1.0634395E-1,-1.646835E-2,-7.600327E-2,9.061022E-5,7.95752E-2,-3.9251667E-2],"split_indices":[16,2,14,0,8,0,16,0,0,0,0,0,0],"split_type":[0,0,1,0,0,0,0,0,0,0,0,0,0],"sum_hessian":[1.0914622E3,1.0927385E1,1.0805348E3,1.8237914E0,9.103594E0,1.01534735E3,6.518744E1,7.945105E0,1.1584888E0,1.685874E1,9.9848865E2,3.7496063E1,2.7691376E1],"tree_param":{"num_deleted":"0","num_feature":"17","num_nodes":"13","size_leaf_vector":"1"}},{"base_weights":[-1.5688699E-3,1.2356946E-2,-3.6714846E-1,2.897983E-1,-5.7707313E-3,3.5223952E-1,-5.745624E-1,8.6306736E-2,-5.2116974E-3,6.273936E-3,-8.751184E-3,-1.6416138E-2,2.1528111E-1,-3.3782873E-2,-9.644859E-2],"categories":[1,3],"categories_nodes":[4],"categories_segments":[0],"categories_sizes":[2],"default_left":[0,1,0,0,1,0,0,0,0,0,0,0,0,0,0],"id":33,"left_children":[1,3,5,7,9,11,13,-1,-1,-1,-1,-1,-1,-1,-1],"loss_changes":[5.5609164E0,5.2942357E0,6.1830006E0,1.2699461E1,5.5426993E0,9.270365E0,2.5810938E0,0E0,0E0,0E0,0E0,0E0,0E0,0E0,0E0],"parents":[2147483647,0,0,1,1,2,2,3,3,4,4,5,5,6,6],"right_children":[2,4,6,8,10,12,14,-1,-1,-1,-1,-1,-1,-1,-1],"split_conditions":[3.0033333E1,8E0,2.9666666E1,7.5333336E1,1E-45,2.8333334E1,3.1E1,8.6306736E-2,-5.2116974E-3,6.273936E-3,-8.751184E-3,-1.6416138E-2,2.1528111E-1,-3.3782873E-2,-9.644859E-2],"split_indices":[1,8,0,0,5,0,11,0,0,0,0,0,0,0,0],"split_type":[0,0,0,0,1,0,0,0,0,0,0,0,0,0,0],"sum_hessian":[1.0904135E3,1.0513319E3,3.908159E1,6.3560566E1,9.877713E2,8.590013E0,3.0491577E1,2.3176945E1,4.038362E1,5.3750336E2,4.5026794E2,7.3817635E0,1.2082492E0,2.0134031E1,1.0357546E1],"tree_param":{"num_deleted":"0","num_feature":"17","num_nodes":"15","size_leaf_vector":"1"}},{"base_weights":[-1.4297864E-3,-6.6846627E-1,5.612576E-3,4.990584E-2,-9.508346E-1,-3.7934367E-2,1.18334755E-1,-1.0404041E-1,-1.5635952E-2,2.1911936E-3,-3.0271068E-2,3.4222092E-2,-1.1152689E-2],"categories":[1,2],"categories_nodes":[6],"categories_segments":[0],"categories_sizes":[2],"default_left":[0,0,0,0,1,0,0,0,0,0,0,0,0],"id":34,"left_children":[1,3,5,-1,7,9,11,-1,-1,-1,-1,-1,-1],"loss_changes":[5.128743E0,4.2349043E0,5.3088107E0,0E0,5.154295E-1,1.2370011E1,1.5547427E1,0E0,0E0,0E0,0E0,0E0,0E0],"parents":[2147483647,0,0,1,1,2,2,4,4,5,5,6,6],"right_children":[2,4,6,-1,8,10,12,-1,-1,-1,-1,-1,-1],"split_conditions":[4E0,1.090484E1,9.823995E0,4.990584E-2,1.4054655E2,3.08063E1,1E-45,-1.0404041E-1,-1.5635952E-2,2.1911936E-3,-3.0271068E-2,3.4222092E-2,-1.1152689E-2],"split_indices":[16,2,9,0,8,3,6,0,0,0,0,0,0],"split_type":[0,0,0,0,0,0,1,0,0,0,0,0,0],"sum_hessian":[1.0900011E3,1.0406437E1,1.0795946E3,1.8772132E0,8.529223E0,7.792265E2,3.003681E2,7.3868747E0,1.142349E0,6.3631915E2,1.4290736E2,1.5191422E2,1.4845389E2],"tree_param":{"num_deleted":"0","num_feature":"17","num_nodes":"13","size_leaf_vector":"1"}},{"base_weights":[-1.4912777E-3,1.8716644E-2,-2.2967312E-1,1.8836081E-1,-1.3323518E-2,-2.8212205E-1,1.0212665E0,-8.727061E-3,5.5388946E-2,2.0752398E-2,-4.7906553E-3,-3.0080343E-3,-5.2767515E-2,1.9339181E-1,-5.7592478E-2],"categories":[1,3,4,5,1,2],"categories_nodes":[4,5],"categories_segments":[0,4],"categories_sizes":[4,2],"default_left":[0,0,0,0,1,1,0,0,0,0,0,0,0,0,0],"id":35,"left_children":[1,3,5,7,9,11,13,-1,-1,-1,-1,-1,-1,-1,-1],"loss_changes":[5.031381E0,5.4512362E0,6.112411E0,1.6099785E1,6.457043E0,5.30553E0,6.6363955E0,0E0,0E0,0E0,0E0,0E0,0E0,0E0,0E0],"parents":[2147483647,0,0,1,1,2,2,3,3,4,4,5,5,6,6],"right_children":[2,4,6,8,10,12,14,-1,-1,-1,-1,-1,-1,-1,-1],"split_conditions":[1E0,1.54E2,9.2E1,3E0,1E-45,1E-45,2.137041E1,-8.727061E-3,5.5388946E-2,2.0752398E-2,-4.7906553E-3,-3.0080343E-3,-5.2767515E-2,1.9339181E-1,-5.7592478E-2],"split_indices":[15,16,11,13,5,6,2,0,0,0,0,0,0,0,0],"split_type":[0,0,0,0,1,1,0,0,0,0,0,0,0,0,0],"sum_hessian":[1.0892177E3,1.0014469E3,8.777077E1,1.5831772E2,8.431292E2,8.498214E1,2.788628E0,9.0691734E1,6.7625984E1,1.13475174E2,7.2965405E2,4.249092E1,4.249122E1,1.6404394E0,1.1481886E0],"tree_param":{"num_deleted":"0","num_feature":"17","num_nodes":"15","size_leaf_vector":"1"}},{"base_weights":[-1.3635452E-3,2.2190504E-2,-1.8994217E-1,-2.8704314E-2,1.5873659E-1,-4.2179815E-2,-5.4740316E-1,-3.4586288E-2,1.1715791E-3,5.143564E-2,5.024874E-3,6.8829745E-2,-1.3312958E-2,5.8143612E-2,-6.333998E-2],"categories":[0,1,3,4],"categories_nodes":[5],"categories_segments":[0],"categories_sizes":[4],"default_left":[0,0,0,0,0,1,0,0,0,0,0,0,0,0,0],"id":36,"left_children":[1,3,5,7,9,11,13,-1,-1,-1,-1,-1,-1,-1,-1],"loss_changes":[4.843257E0,6.7411513E0,6.371715E0,9.067572E0,1.0134687E1,5.8546133E0,3.7975664E0,0E0,0E0,0E0,0E0,0E0,0E0,0E0,0E0],"parents":[2147483647,0,0,1,1,2,2,3,3,4,4,5,5,6,6],"right_children":[2,4,6,8,10,12,14,-1,-1,-1,-1,-1,-1,-1,-1],"split_conditions":[2.1533333E1,3.3E1,3.1487469E1,5E1,4E1,1E-45,5.068032E-1,-3.4586288E-2,1.1715791E-3,5.143564E-2,5.024874E-3,6.8829745E-2,-1.3312958E-2,5.8143612E-2,-6.333998E-2],"split_indices":[1,11,3,0,11,5,9,0,0,0,0,0,0,0,0],"split_type":[0,0,0,0,0,1,0,0,0,0,0,0,0,0,0],"sum_hessian":[1.0884352E3,9.6836566E2,1.2006952E2,7.0600586E2,2.6235977E2,8.574388E1,3.4325638E1,7.8951546E1,6.270543E2,6.04536E1,2.0190616E2,8.766499E0,7.697739E1,2.0220423E0,3.2303593E1],"tree_param":{"num_deleted":"0","num_feature":"17","num_nodes":"15","size_leaf_vector":"1"}},{"base_weights":[-1.3351344E-3,5.3715028E-2,-7.790412E-2,-1.51002435E-2,3.381227E-1,6.077497E-1,-1.0833323E-1,1.1386554E-2,-1.4832589E-2,1.3403082E-2,7.0103474E-2,1.575034E-1,2.3222338E-2,3.0839886E-3,-2.6070988E-2],"categories":[0,1,3,4,5,0,1,3],"categories_nodes":[2,5],"categories_segments":[0,5],"categories_sizes":[5,3],"default_left":[1,0,1,1,0,1,0,0,0,0,0,0,0,0,0],"id":37,"left_children":[1,3,5,7,9,11,13,-1,-1,-1,-1,-1,-1,-1,-1],"loss_changes":[4.593954E0,1.2414339E1,9.576312E0,8.804831E0,9.058379E0,6.725234E0,9.282036E0,0E0,0E0,0E0,0E0,0E0,0E0,0E0,0E0],"parents":[2147483647,0,0,1,1,2,2,3,3,4,4,5,5,6,6],"right_children":[2,4,6,8,10,12,14,-1,-1,-1,-1,-1,-1,-1,-1],"split_conditions":[9.211396E1,9.823995E0,1E-45,1E0,1.5065063E1,1E-45,2.0161907E1,1.1386554E-2,-1.4832589E-2,1.3403082E-2,7.0103474E-2,1.575034E-1,2.3222338E-2,3.0839886E-3,-2.6070988E-2],"split_indices":[8,9,5,7,3,6,2,0,0,0,0,0,0,0,0],"split_type":[0,0,1,0,0,1,0,0,0,0,0,0,0,0,0],"sum_hessian":[1.0878784E3,6.3304315E2,4.5483527E2,5.1047546E2,1.2256771E2,1.8521477E1,4.3631378E2,2.5945844E2,2.5101701E2,7.932616E1,4.3241558E1,4.286379E0,1.4235098E1,2.284535E2,2.0786028E2],"tree_param":{"num_deleted":"0","num_feature":"17","num_nodes":"15","size_leaf_vector":"1"}},{"base_weights":[-1.1782118E-3,-6.455063E-1,5.37396E-3,4.589707E-2,-9.315844E-1,2.3563277E-2,-2.1812384E-1,-1.0242474E-1,-1.4571409E-2,5.53399E-4,2.9405212E-2,3.589954E-2,-3.713971E-2],"categories":[3,2],"categories_nodes":[2,5],"categories_segments":[0,1],"categories_sizes":[1,1],"default_left":[0,0,1,0,1,1,0,0,0,0,0,0,0],"id":38,"left_children":[1,3,5,-1,7,9,11,-1,-1,-1,-1,-1,-1],"loss_changes":[4.595593E0,3.8899436E0,4.3865776E0,0E0,5.085974E-1,4.863205E0,7.3169537E0,0E0,0E0,0E0,0E0,0E0,0E0],"parents":[2147483647,0,0,1,1,2,2,4,4,5,5,6,6],"right_children":[2,4,6,-1,8,10,12,-1,-1,-1,-1,-1,-1],"split_conditions":[4E0,1.090484E1,1E-45,4.589707E-2,1.4054655E2,1E-45,2.55E0,-1.0242474E-1,-1.4571409E-2,5.53399E-4,2.9405212E-2,3.589954E-2,-3.713971E-2],"split_indices":[16,2,5,0,8,14,1,0,0,0,0,0,0],"split_type":[0,0,1,0,0,1,0,0,0,0,0,0,0],"sum_hessian":[1.0867305E3,9.958037E0,1.0767723E3,1.9243275E0,8.03371E0,9.96562E2,8.02104E1,6.9150214E0,1.1186881E0,9.3524426E2,6.1317738E1,1.6550537E1,6.3659866E1],"tree_param":{"num_deleted":"0","num_feature":"17","num_nodes":"13","size_leaf_vector":"1"}},{"base_weights":[-1.1751147E-3,1.0528381E-1,-3.853528E-2,-1.7352945E-3,2.9629016E-1,-2.6843384E-1,-7.053271E-3,-1.6834205E-2,2.0619897E-2,6.1285384E-2,8.852907E-3,6.163425E-2,-4.044923E-2,4.754525E-2,-3.4698911E-3],"categories":[1,2,3,4],"categories_nodes":[5],"categories_segments":[0],"categories_sizes":[4],"default_left":[0,1,0,1,1,1,1,0,0,0,0,0,0,0,0],"id":39,"left_children":[1,3,5,7,9,11,13,-1,-1,-1,-1,-1,-1,-1,-1],"loss_changes":[4.328563E0,5.7795954E0,5.8285923E0,6.3463078E0,6.623152E0,1.1926359E1,9.481641E0,0E0,0E0,0E0,0E0,0E0,0E0,0E0,0E0],"parents":[2147483647,0,0,1,1,2,2,3,3,4,4,5,5,6,6],"right_children":[2,4,6,8,10,12,14,-1,-1,-1,-1,-1,-1,-1,-1],"split_conditions":[2.2210045E0,2.5E1,8.051036E-1,9.823995E0,5.2837868E1,1E-45,9.880389E-1,-1.6834205E-2,2.0619897E-2,6.1285384E-2,8.852907E-3,6.163425E-2,-4.044923E-2,4.754525E-2,-3.4698911E-3],"split_indices":[3,11,9,9,8,5,9,0,0,0,0,0,0,0,0],"split_type":[0,0,0,0,0,1,0,0,0,0,0,0,0,0,0],"sum_hessian":[1.0862908E3,2.8171558E2,8.045752E2,1.8118832E2,1.0052724E2,9.600059E1,7.085746E2,1.0069619E2,8.0492134E1,3.906082E1,6.1466415E1,1.2324625E1,8.3675964E1,3.7520607E1,6.7105396E2],"tree_param":{"num_deleted":"0","num_feature":"17","num_nodes":"15","size_leaf_vector":"1"}},{"base_weights":[-1.0999455E-3,1.276644E-2,-2.739706E-1,4.5570597E-1,-1.4481679E-2,6.4576656E-2,-1.0613596E-1,9.960518E-2,1.2026395E-2,2.1052344E-3,-1.7474698E-2,-1.6005887E-2,1.0979189E-1],"categories":[1,0,1,2,3],"categories_nodes":[2,3],"categories_segments":[0,1],"categories_sizes":[1,4],"default_left":[1,0,1,1,0,0,0,0,0,0,0,0,0],"id":40,"left_children":[1,3,5,7,9,11,-1,-1,-1,-1,-1,-1,-1],"loss_changes":[4.115412E0,1.2499953E1,1.4089566E1,1.0758875E1,5.5625496E0,8.932804E0,0E0,0E0,0E0,0E0,0E0,0E0,0E0],"parents":[2147483647,0,0,1,1,2,2,3,3,4,4,5,5],"right_children":[2,4,6,8,10,12,-1,-1,-1,-1,-1,-1,-1],"split_conditions":[9.310191E1,2E0,1E-45,1E-45,3.08063E1,4.0364536E1,-1.0613596E-1,9.960518E-2,1.2026395E-2,2.1052344E-3,-1.7474698E-2,-1.6005887E-2,1.0979189E-1],"split_indices":[9,11,6,5,3,3,0,0,0,0,0,0,0],"split_type":[0,0,1,1,0,0,0,0,0,0,0,0,0],"sum_hessian":[1.0857358E3,1.0341376E3,5.159824E1,5.901866E1,9.751189E2,3.6725613E1,1.4872628E1,2.1850874E1,3.7167786E1,7.988635E2,1.7625539E2,3.0861761E1,5.8638506E0],"tree_param":{"num_deleted":"0","num_feature":"17","num_nodes":"13","size_leaf_vector":"1"}},{"base_weights":[-1.0672848E-3,-6.174031E-1,4.9252096E-3,4.1954592E-2,-9.0472925E-1,1.7221269E-1,-1.8499259E-2,-1.00060716E-1,-1.3675327E-2,3.0275576E-3,9.6941955E-2,-2.4496327E-4,-5.4308623E-2],"categories":[2],"categories_nodes":[5],"categories_segments":[0],"categories_sizes":[1],"default_left":[0,0,0,0,1,1,0,0,0,0,0,0,0],"id":41,"left_children":[1,3,5,-1,7,9,11,-1,-1,-1,-1,-1,-1],"loss_changes":[4.0135617E0,3.4972084E0,4.221192E0,0E0,4.8979664E-1,1.494167E1,7.955812E0,0E0,0E0,0E0,0E0,0E0,0E0],"parents":[2147483647,0,0,1,1,2,2,4,4,5,5,6,6],"right_children":[2,4,6,-1,8,10,12,-1,-1,-1,-1,-1,-1],"split_conditions":[4E0,1.090484E1,1.14E2,4.1954592E-2,1.4054655E2,1E-45,3.0033333E1,-1.00060716E-1,-1.3675327E-2,3.0275576E-3,9.6941955E-2,-2.4496327E-4,-5.4308623E-2],"split_indices":[16,2,16,0,8,14,1,0,0,0,0,0,0],"split_type":[0,0,0,0,0,1,0,0,0,0,0,0,0],"sum_hessian":[1.0848647E3,9.463872E0,1.0754009E3,1.9535199E0,7.5103517E0,1.3130748E2,9.4409344E2,6.4074945E0,1.102857E0,1.1234348E2,1.8963997E1,9.170414E2,2.7052015E1],"tree_param":{"num_deleted":"0","num_feature":"17","num_nodes":"13","size_leaf_vector":"1"}},{"base_weights":[-1.0628477E-3,3.2701346E-1,-1.198076E-2,5.725742E-1,-6.520403E-2,-7.305084E-1,-5.371765E-3,9.7397126E-2,1.0226038E-2,1.0919422E-1,-2.5156254E-2,3.728728E-2,-9.144822E-2,-1.1039565E-3,7.203704E-2],"categories":[1,2,1,2,3,4,5],"categories_nodes":[1,4],"categories_segments":[0,2],"categories_sizes":[2,5],"default_left":[0,1,0,0,1,1,0,0,0,0,0,0,0,0,0],"id":42,"left_children":[1,3,5,7,9,11,13,-1,-1,-1,-1,-1,-1,-1,-1],"loss_changes":[3.8889406E0,3.4051733E0,4.985374E0,3.9793162E0,3.3715909E0,2.283309E0,4.294435E0,0E0,0E0,0E0,0E0,0E0,0E0,0E0,0E0],"parents":[2147483647,0,0,1,1,2,2,3,3,4,4,5,5,6,6],"right_children":[2,4,6,8,10,12,14,-1,-1,-1,-1,-1,-1,-1,-1],"split_conditions":[6.009252E0,1E-45,4E0,6.17E2,1E-45,1.4819741E1,1E0,9.7397126E-2,1.0226038E-2,1.0919422E-1,-2.5156254E-2,3.728728E-2,-9.144822E-2,-1.1039565E-3,7.203704E-2],"split_indices":[2,6,16,16,5,8,4,0,0,0,0,0,0,0,0],"split_type":[0,1,0,0,1,0,0,0,0,0,0,0,0,0,0],"sum_hessian":[1.0836237E3,3.3967575E1,1.049656E3,2.0606413E1,1.3361162E1,8.568416E0,1.0410876E3,1.0539988E1,1.0066424E1,1.1792905E0,1.2181872E1,1.077764E0,7.4906516E0,1.0339972E3,7.0903783E0],"tree_param":{"num_deleted":"0","num_feature":"17","num_nodes":"15","size_leaf_vector":"1"}},{"base_weights":[-8.182996E-4,1.6509037E-2,-2.0176719E-1,1.5439333E-1,-1.2993016E-2,1.0166597E0,-2.5310323E-1,-7.6753534E-3,4.494412E-2,-6.37575E-2,-2.6649843E-5,1.953816E-3,1.7911908E-1,2.9281883E-2,-3.8529567E-2],"categories":[],"categories_nodes":[],"categories_segments":[],"categories_sizes":[],"default_left":[0,0,0,0,0,0,0,0,0,0,0,0,0,0,0],"id":43,"left_children":[1,3,5,7,9,11,13,-1,-1,-1,-1,-1,-1,-1,-1],"loss_changes":[3.7774553E0,4.0650086E0,5.6440773E0,1.2045633E1,6.547103E0,2.807955E0,6.1343584E0,0E0,0E0,0E0,0E0,0E0,0E0,0E0,0E0],"parents":[2147483647,0,0,1,1,2,2,3,3,4,4,5,5,6,6],"right_children":[2,4,6,8,10,12,14,-1,-1,-1,-1,-1,-1,-1,-1],"split_conditions":[1E0,1.72E2,2.1454267E-1,3E0,2.9E1,1.9E1,2.3104136E1,-7.6753534E-3,4.494412E-2,-6.37575E-2,-2.6649843E-5,1.953816E-3,1.7911908E-1,2.9281883E-2,-3.8529567E-2],"split_indices":[15,16,3,13,0,11,8,0,0,0,0,0,0,0,0],"split_type":[0,0,0,0,0,0,0,0,0,0,0,0,0,0,0],"sum_hessian":[1.0829237E3,9.9780334E2,8.512033E1,1.7511797E2,8.226854E2,2.6811423E0,8.2439186E1,9.860699E1,7.651099E1,1.5447888E1,8.072375E2,1.62035E0,1.0607924E0,1.5833921E1,6.660526E1],"tree_param":{"num_deleted":"0","num_feature":"17","num_nodes":"15","size_leaf_vector":"1"}},{"base_weights":[-7.2363095E-4,-6.60886E-3,5.580796E-1,1.0345419E-2,-2.1957986E-1,1.612465E0,-2.8953608E-2,5.359798E-3,-8.983821E-3,1.1830392E-2,-4.6550915E-2,1.3282309E-2,2.4000037E-1,9.430823E-2,-7.169585E-2],"categories":[3],"categories_nodes":[1],"categories_segments":[0],"categories_sizes":[1],"default_left":[1,1,1,0,0,0,0,0,0,0,0,0,0,0,0],"id":44,"left_children":[1,3,5,7,9,11,13,-1,-1,-1,-1,-1,-1,-1,-1],"loss_changes":[3.5651596E0,3.8753586E0,7.039852E0,4.314217E0,6.6312656E0,4.410289E0,6.186737E0,0E0,0E0,0E0,0E0,0E0,0E0,0E0,0E0],"parents":[2147483647,0,0,1,1,2,2,3,3,4,4,5,5,6,6],"right_children":[2,4,6,8,10,12,14,-1,-1,-1,-1,-1,-1,-1,-1],"split_conditions":[1.28E2,1E-45,3.0764355E1,3.1E1,1.0502923E1,1.697539E-1,3.38E2,5.359798E-3,-8.983821E-3,1.1830392E-2,-4.6550915E-2,1.3282309E-2,2.4000037E-1,9.430823E-2,-7.169585E-2],"split_indices":[11,5,8,2,2,9,16,0,0,0,0,0,0,0,0],"split_type":[0,1,0,0,0,0,0,0,0,0,0,0,0,0,0],"sum_hessian":[1.0819469E3,1.0716486E3,1.02982645E1,9.935084E2,7.814018E1,3.0583248E0,7.239939E0,6.9424506E2,2.9926337E2,3.3134895E1,4.500529E1,1.4683042E0,1.5900207E0,2.8469398E0,4.3929996E0],"tree_param":{"num_deleted":"0","num_feature":"17","num_nodes":"15","size_leaf_vector":"1"}},{"base_weights":[-5.370095E-4,1.1891712E-2,-2.5108355E-1,3.9450413E-1,-1.2291316E-2,6.324348E-2,-1.0437876E-1,8.499278E-2,1.0003204E-2,2.0239325E-3,-1.609692E-2,-7.355809E-3,1.4203109E-1],"categories":[1,0,1,2,3],"categories_nodes":[2,3],"categories_segments":[0,1],"categories_sizes":[1,4],"default_left":[1,0,1,1,0,0,0,0,0,0,0,0,0],"id":45,"left_children":[1,3,5,7,9,11,-1,-1,-1,-1,-1,-1,-1],"loss_changes":[3.3729808E0,9.553887E0,1.2821664E1,8.146842E0,4.7026916E0,7.0849166E0,0E0,0E0,0E0,0E0,0E0,0E0,0E0],"parents":[2147483647,0,0,1,1,2,2,3,3,4,4,5,5],"right_children":[2,4,6,8,10,12,-1,-1,-1,-1,-1,-1,-1],"split_conditions":[9.310191E1,2E0,1E-45,1E-45,3.08063E1,1.6134926E2,-1.0437876E-1,8.499278E-2,1.0003204E-2,2.0239325E-3,-1.609692E-2,-7.355809E-3,1.4203109E-1],"split_indices":[9,11,6,5,3,8,0,0,0,0,0,0,0],"split_type":[0,0,1,1,0,0,0,0,0,0,0,0,0],"sum_hessian":[1.0812172E3,1.0310243E3,5.019291E1,6.038162E1,9.7064264E2,3.660022E1,1.3592687E1,2.2970186E1,3.741143E1,7.971012E2,1.7354144E2,3.4107727E1,2.4924932E0],"tree_param":{"num_deleted":"0","num_feature":"17","num_nodes":"13","size_leaf_vector":"1"}},{"base_weights":[-5.050549E-4,2.0457558E-1,-1.4545721E-2,7.503659E-1,8.864047E-2,2.5122496E-3,-2.5481713E-1,1.2171388E-1,-1.7812541E-3,2.296029E-3,1.1863611E-1,-4.5907497E-4,9.1569856E-2,6.485802E-2,-3.855465E-2],"categories":[3],"categories_nodes":[2],"categories_segments":[0],"categories_sizes":[1],"default_left":[0,0,1,1,0,0,0,0,0,0,0,0,0,0,0],"id":46,"left_children":[1,3,5,7,9,11,13,-1,-1,-1,-1,-1,-1,-1,-1],"loss_changes":[3.1167748E0,4.322208E0,4.1525526E0,4.330795E0,4.179017E0,6.145881E0,8.181854E0,0E0,0E0,0E0,0E0,0E0,0E0,0E0,0E0],"parents":[2147483647,0,0,1,1,2,2,3,3,4,4,5,5,6,6],"right_children":[2,4,6,8,10,12,14,-1,-1,-1,-1,-1,-1,-1,-1],"split_conditions":[7.058663E0,1E0,1E-45,6.0626483E0,1.6953073E2,1E0,7.8006595E-1,1.2171388E-1,-1.7812541E-3,2.296029E-3,1.1863611E-1,-4.5907497E-4,9.1569856E-2,6.485802E-2,-3.855465E-2],"split_indices":[2,7,5,9,8,4,3,0,0,0,0,0,0,0,0],"split_type":[0,0,1,0,0,0,0,0,0,0,0,0,0,0,0],"sum_hessian":[1.0803796E3,6.835809E1,1.01202155E3,1.1017671E1,5.7340424E1,9.4586017E2,6.616141E1,6.489792E0,4.5278783E0,5.5066532E1,2.2738924E0,9.3954706E2,6.313068E0,7.863045E0,5.8298363E1],"tree_param":{"num_deleted":"0","num_feature":"17","num_nodes":"15","size_leaf_vector":"1"}},{"base_weights":[-2.1359794E-4,9.615874E-3,-2.914736E-1,-2.7828937E-2,1.07871205E-1,3.872523E-1,-5.059695E-1,-1.6417077E-2,2.9953967E-3,3.8621154E-2,2.0628993E-3,-1.4373913E-2,1.969074E-1,-2.5502985E-2,-9.45748E-2],"categories":[],"categories_nodes":[],"categories_segments":[],"categories_sizes":[],"default_left":[0,1,0,1,0,0,0,0,0,0,0,0,0,0,0],"id":47,"left_children":[1,3,5,7,9,11,13,-1,-1,-1,-1,-1,-1,-1,-1],"loss_changes":[3.0968018E0,3.8528552E0,5.3369684E0,5.9801693E0,7.0085073E0,7.8814654E0,2.7679024E0,0E0,0E0,0E0,0E0,0E0,0E0,0E0,0E0],"parents":[2147483647,0,0,1,1,2,2,3,3,4,4,5,5,6,6],"right_children":[2,4,6,8,10,12,14,-1,-1,-1,-1,-1,-1,-1,-1],"split_conditions":[3.0033333E1,3.3E1,2.9666666E1,3.5635965E0,4E1,2.8333334E1,3.1E1,-1.6417077E-2,2.9953967E-3,3.8621154E-2,2.0628993E-3,-1.4373913E-2,1.969074E-1,-2.5502985E-2,-9.45748E-2],"split_indices":[1,11,0,9,11,0,11,0,0,0,0,0,0,0,0],"split_type":[0,0,0,0,0,0,0,0,0,0,0,0,0,0,0],"sum_hessian":[1.0797101E3,1.0453969E3,3.431317E1,7.5745123E2,2.8794562E2,8.046466E0,2.6266705E1,2.2491385E2,5.325374E2,6.789723E1,2.2004839E2,6.7048793E0,1.3415866E0,1.7729864E1,8.5368395E0],"tree_param":{"num_deleted":"0","num_feature":"17","num_nodes":"15","size_leaf_vector":"1"}},{"base_weights":[-2.2874071E-4,4.6023156E-2,-6.540641E-2,-1.0977691E-2,2.4994628E-1,5.505541E-1,-9.4115585E-2,7.1287565E-2,-3.3189857E-3,-4.2253703E-2,3.3307053E-2,1.0696609E-1,9.887339E-3,2.72578E-3,-2.317476E-2],"categories":[0,1,3,4,5,1,3],"categories_nodes":[2,5],"categories_segments":[0,5],"categories_sizes":[5,2],"default_left":[1,0,1,0,0,1,0,0,0,0,0,0,0,0,0],"id":48,"left_children":[1,3,5,7,9,11,13,-1,-1,-1,-1,-1,-1,-1,-1],"loss_changes":[3.2604759E0,7.3563576E0,7.9905977E0,7.9886923E0,7.868639E0,4.6160846E0,7.185956E0,0E0,0E0,0E0,0E0,0E0,0E0,0E0,0E0],"parents":[2147483647,0,0,1,1,2,2,3,3,4,4,5,5,6,6],"right_children":[2,4,6,8,10,12,14,-1,-1,-1,-1,-1,-1,-1,-1],"split_conditions":[9.211396E1,8.473378E0,1E-45,2.1454267E-1,1.4166666E0,1E-45,2.0161907E1,7.1287565E-2,-3.3189857E-3,-4.2253703E-2,3.3307053E-2,1.0696609E-1,9.887339E-3,2.72578E-3,-2.317476E-2],"split_indices":[8,9,5,3,1,6,2,0,0,0,0,0,0,0,0],"split_type":[0,0,1,0,0,1,0,0,0,0,0,0,0,0,0],"sum_hessian":[1.0795664E3,6.316347E2,4.4793173E2,4.943887E2,1.3724599E2,1.9138334E1,4.287934E2,1.37934E1,4.805953E2,1.4649213E1,1.2259677E2,8.267964E0,1.0870371E1,2.2828123E2,2.0051216E2],"tree_param":{"num_deleted":"0","num_feature":"17","num_nodes":"15","size_leaf_vector":"1"}},{"base_weights":[-2.0963441E-4,-5.7868124E-3,5.174177E-1,8.040875E-2,-3.9333325E-2,1.3900172E0,-1.7510956E-2,-1.7736286E-2,1.54969115E-2,-7.3517144E-2,-2.6743324E-3,-9.872354E-3,1.9065507E-1,8.383377E-2,-6.892106E-2],"categories":[0],"categories_nodes":[1],"categories_segments":[0],"categories_sizes":[1],"default_left":[1,1,1,0,0,0,0,0,0,0,0,0,0,0,0],"id":49,"left_children":[1,3,5,7,9,11,13,-1,-1,-1,-1,-1,-1,-1,-1],"loss_changes":[3.1194434E0,3.094229E0,5.400836E0,5.7897844E0,6.727592E0,3.5640278E0,5.250562E0,0E0,0E0,0E0,0E0,0E0,0E0,0E0,0E0],"parents":[2147483647,0,0,1,1,2,2,3,3,4,4,5,5,6,6],"right_children":[2,4,6,8,10,12,14,-1,-1,-1,-1,-1,-1,-1,-1],"split_conditions":[1.28E2,1E-45,3.0764355E1,2E0,2.8333334E1,4.8E2,3.38E2,-1.7736286E-2,1.54969115E-2,-7.3517144E-2,-2.6743324E-3,-9.872354E-3,1.9065507E-1,8.383377E-2,-6.892106E-2],"split_indices":[11,14,8,13,0,16,16,0,0,0,0,0,0,0,0],"split_type":[0,1,0,0,0,0,0,0,0,0,0,0,0,0,0],"sum_hessian":[1.0785142E3,1.0679958E3,1.0518304E1,2.988145E2,7.691813E2,3.3899531E0,7.1283507E0,6.673121E1,2.3208331E2,1.26497135E1,7.5653156E2,1.0815649E0,2.308388E0,3.0254183E0,4.1029325E0],"tree_param":{"num_deleted":"0","num_feature":"17","num_nodes":"15","size_leaf_vector":"1"}}]},"name":"gbtree"},"learner_model_param":{"base_score":"[8.365706E-2]","boost_from_average":"1","num_class":"0","num_feature":"17","num_target":"1"},"objective":{"name":"binary:logistic","reg_loss_param":{"scale_pos_weight":"1"}}},"version":[3,2,0]}